{"learner":{"attributes":{"scikit_learn":"{\"_estimator_type\": \"regressor\"}"},"feature_names":[],"feature_types":[],"gradient_booster":{"model":{"gbtree_model_param":{"num_parallel_tree":"1","num_trees":"100"},"iteration_indptr":[0,1,2,3,4,5,6,7,8,9,10,11,12,13,14,15,16,17,18,19,20,21,22,23,24,25,26,27,28,29,30,31,32,33,34,35,36,37,38,39,40,41,42,43,44,45,46,47,48,49,50,51,52,53,54,55,56,57,58,59,60,61,62,63,64,65,66,67,68,69,70,71,72,73,74,75,76,77,78,79,80,81,82,83,84,85,86,87,88,89,90,91,92,93,94,95,96,97,98,99,100],"tree_info":[0,0,0,0,0,0,0,0,0,0,0,0,0,0,0,0,0,0,0,0,0,0,0,0,0,0,0,0,0,0,0,0,0,0,0,0,0,0,0,0,0,0,0,0,0,0,0,0,0,0,0,0,0,0,0,0,0,0,0,0,0,0,0,0,0,0,0,0,0,0,0,0,0,0,0,0,0,0,0,0,0,0,0,0,0,0,0,0,0,0,0,0,0,0,0,0,0,0,0,0],"trees":[{"base_weights":[-1.2335393E-7,-1.1815481E0,1.26089E0,6.5747195E-1,-2.3415475E0,2.3318205E0,8.95122E-1,1.1065708E1,6.1244494E-1,-5.5419364E0,-1.687679E0,2.1710713E0,4.6852145E0,1.02435775E-1,1.6275219E0,3.7073138E0,4.3624625E0,2.456563E-2,1.3545684E0,-4.987834E0,-7.840429E0,-1.4468501E0,-4.51325E0,1.8176996E0,3.093906E0,6.001256E0,-6.9972193E-1,-5.179512E-1,9.8633057E-1,1.1954399E0,3.5946913E0,3.815541E-1,1.581554E0,1.1370573E-1,-4.821166E-1,8.2147545E-1,3.6179924E-1,-2.4703794E0,-1.2991633E0,-2.9893913E0,-9.945644E-1,-3.416295E-1,-7.4717295E-1,-2.3349845E0,-1.0306569E0,9.459433E-1,4.446629E-1,6.7413026E-1,1.2118996E0,7.1066827E-1,2.4061468E0,2.5028774E-1,-3.7077084E-1,-5.250216E-2,-6.425619E-1,5.6204253E-1,1.444585E-2,4.0347922E-1,-1.0289905E0,7.1222764E-1,1.6490508E0],"categories":[],"categories_nodes":[],"categories_segments":[],"categories_sizes":[],"default_left":[0,0,0,0,0,0,0,0,0,0,0,0,0,0,0,0,0,0,0,0,0,0,0,0,0,0,0,0,0,0,0,0,0,0,0,0,0,0,0,0,0,0,0,0,0,0,0,0,0,0,0,0,0,0,0,0,0,0,0,0,0],"id":0,"left_children":[1,3,5,7,9,11,13,15,17,19,21,23,25,27,29,-1,31,33,35,37,39,41,43,45,47,49,51,53,55,57,59,-1,-1,-1,-1,-1,-1,-1,-1,-1,-1,-1,-1,-1,-1,-1,-1,-1,-1,-1,-1,-1,-1,-1,-1,-1,-1,-1,-1,-1,-1],"loss_changes":[1.5684639E4,1.1595818E4,1.9929019E3,9.7879767E2,6.9653926E3,4.801128E2,2.2048127E3,2.4035522E1,9.1397125E2,6.804785E2,1.8777163E3,3.905918E2,5.853169E2,1.00126196E3,1.6735596E3,0E0,1.7266884E0,6.772595E2,1.8706006E2,9.417412E2,1.0051157E3,8.1809766E2,7.380122E2,3.900393E2,2.5921533E2,4.6508276E2,1.5013757E1,5.971941E2,6.2663104E2,1.124771E3,8.1117334E2,0E0,0E0,0E0,0E0,0E0,0E0,0E0,0E0,0E0,0E0,0E0,0E0,0E0,0E0,0E0,0E0,0E0,0E0,0E0,0E0,0E0,0E0,0E0,0E0,0E0,0E0,0E0,0E0,0E0,0E0],"parents":[2147483647,0,0,1,1,2,2,3,3,4,4,5,5,6,6,7,7,8,8,9,9,10,10,11,11,12,12,13,13,14,14,16,16,17,17,18,18,19,19,20,20,21,21,22,22,23,23,24,24,25,25,26,26,27,27,28,28,29,29,30,30],"right_children":[2,4,6,8,10,12,14,16,18,20,22,24,26,28,30,-1,32,34,36,38,40,42,44,46,48,50,52,54,56,58,60,-1,-1,-1,-1,-1,-1,-1,-1,-1,-1,-1,-1,-1,-1,-1,-1,-1,-1,-1,-1,-1,-1,-1,-1,-1,-1,-1,-1,-1,-1],"split_conditions":[2.98E1,5.5555553E0,5.5555553E0,2.868E1,2.9315E1,3.0375E1,1.1111111E1,2.859E1,2.942E1,1.2777778E1,1.6666666E1,2.127E3,4.4444447E0,3.009E1,3.015E1,3.7073138E0,3.0555556E0,4.4444447E0,2.9435E1,2.898E1,2.9255E1,2.23E2,2.9545E1,2.9905E1,3.0015E1,2.7777777E0,5E0,1.455E3,3.0225E1,2.906E3,1.3611111E1,3.815541E-1,1.581554E0,1.1370573E-1,-4.821166E-1,8.2147545E-1,3.6179924E-1,-2.4703794E0,-1.2991633E0,-2.9893913E0,-9.945644E-1,-3.416295E-1,-7.4717295E-1,-2.3349845E0,-1.0306569E0,9.459433E-1,4.446629E-1,6.7413026E-1,1.2118996E0,7.1066827E-1,2.4061468E0,2.5028774E-1,-3.7077084E-1,-5.250216E-2,-6.425619E-1,5.6204253E-1,1.444585E-2,4.0347922E-1,-1.0289905E0,7.1222764E-1,1.6490508E0],"split_indices":[2,1,1,2,2,2,1,2,2,1,1,0,1,2,2,0,1,1,2,2,2,0,2,2,2,1,1,0,2,0,1,0,0,0,0,0,0,0,0,0,0,0,0,0,0,0,0,0,0,0,0,0,0,0,0,0,0,0,0,0,0],"split_type":[0,0,0,0,0,0,0,0,0,0,0,0,0,0,0,0,0,0,0,0,0,0,0,0,0,0,0,0,0,0,0,0,0,0,0,0,0,0,0,0,0,0,0,0,0,0,0,0,0,0,0,0,0,0,0,0,0,0,0,0,0],"sum_hessian":[1.0526E4,5.434E3,5.092E3,2.102E3,3.332E3,1.295E3,3.797E3,8E0,2.094E3,5.64E2,2.768E3,1.214E3,8.1E1,1.824E3,1.973E3,6E0,2E0,1.169E3,9.25E2,4.57E2,1.07E2,2.552E3,2.16E2,8.8E2,3.34E2,6.5E1,1.6E1,1.072E3,7.52E2,1.619E3,3.54E2,1E0,1E0,9.61E2,2.08E2,8.8E1,8.37E2,7.5E1,3.82E2,7.2E1,3.5E1,1.972E3,5.8E2,5.2E1,1.64E2,1.75E2,7.05E2,1.78E2,1.56E2,2.4E1,4.1E1,4E0,1.2E1,8.86E2,1.86E2,3.86E2,3.66E2,1.569E3,5E1,2.17E2,1.37E2],"tree_param":{"num_deleted":"0","num_feature":"3","num_nodes":"61","size_leaf_vector":"1"}},{"base_weights":[2.0589137E-4,-8.825029E-1,8.3305144E-1,4.4600895E-1,-1.7687563E0,3.0531028E-1,1.2626005E0,8.066762E0,4.0837836E-1,-3.874533E0,-1.2832029E0,1.6860026E0,-1.6749423E-2,9.4854164E-1,1.9006059E0,2.871186E0,4.6487794E0,-1.4559859E0,5.4252326E-1,-4.4469814E0,-3.7910488E0,-6.979497E-1,-2.2593396E0,8.881001E-1,2.234229E0,1.5283304E-2,-5.2527046E0,1.8343351E0,4.5646185E-1,2.0855093E0,-3.4911692E0,3.2432097E-1,1.5811318E0,2.9662186E-1,-6.112596E-1,4.440006E-1,9.586261E-2,-1.0317521E0,-1.7542454E0,-8.0695905E-2,-5.584915E-1,-9.06102E-1,-4.514557E-1,2.0054816E-1,6.380884E-1,8.613236E-1,3.5335976E-1,5.2511927E-2,-3.2534012E-1,-2.38424E0,6.371057E-1,4.7592682E-1,1.2744311E0,-9.34122E-3,2.6393992E-1,1.139456E0,5.3862256E-1,-1.2129409E0,-2.5902477E-1],"categories":[],"categories_nodes":[],"categories_segments":[],"categories_sizes":[],"default_left":[0,0,0,0,0,0,0,0,0,0,0,0,0,0,0,0,0,0,0,0,0,0,0,0,0,0,0,0,0,0,0,0,0,0,0,0,0,0,0,0,0,0,0,0,0,0,0,0,0,0,0,0,0,0,0,0,0,0,0],"id":1,"left_children":[1,3,5,7,9,11,13,15,17,19,21,23,25,27,29,-1,31,33,35,-1,37,39,41,43,45,47,49,51,53,55,57,-1,-1,-1,-1,-1,-1,-1,-1,-1,-1,-1,-1,-1,-1,-1,-1,-1,-1,-1,-1,-1,-1,-1,-1,-1,-1,-1,-1],"loss_changes":[7.7397656E3,6.0184707E3,1.2275977E3,5.8344434E2,3.1299111E3,1.0814543E3,5.9650635E2,6.909912E0,5.102334E2,4.684668E2,1.4226416E3,1.9923413E2,3.3099564E2,8.722324E2,9.8828687E2,0E0,5.3918E0,1.9679025E2,3.9691248E2,0E0,3.9306934E2,7.782199E2,5.317251E2,4.9997803E1,1.7960474E2,3.4489798E2,2.5540933E2,4.211189E2,2.6610175E2,4.6618115E2,4.4373383E1,0E0,0E0,0E0,0E0,0E0,0E0,0E0,0E0,0E0,0E0,0E0,0E0,0E0,0E0,0E0,0E0,0E0,0E0,0E0,0E0,0E0,0E0,0E0,0E0,0E0,0E0,0E0,0E0],"parents":[2147483647,0,0,1,1,2,2,3,3,4,4,5,5,6,6,7,7,8,8,9,9,10,10,11,11,12,12,13,13,14,14,16,16,17,17,18,18,20,20,21,21,22,22,23,23,24,24,25,25,26,26,27,27,28,28,29,29,30,30],"right_children":[2,4,6,8,10,12,14,16,18,20,22,24,26,28,30,-1,32,34,36,-1,38,40,42,44,46,48,50,52,54,56,58,-1,-1,-1,-1,-1,-1,-1,-1,-1,-1,-1,-1,-1,-1,-1,-1,-1,-1,-1,-1,-1,-1,-1,-1,-1,-1,-1,-1],"split_conditions":[2.977E1,5.5555553E0,2.997E1,2.871E1,2.933E1,5.5555553E0,1.1111111E1,2.856E1,2.895E1,2.871E1,1.25E1,2.7777777E0,2.2222221E1,4.4444447E0,2.685E3,2.871186E0,3.0555556E0,2.8815E1,2.915E1,-4.4469814E0,1.3055555E1,2.24E2,2.962E1,2.994E1,1.006E3,1.117E3,2.25E1,3.0375E1,7.7777777E0,2.9985E1,3.0195E1,3.2432097E-1,1.5811318E0,2.9662186E-1,-6.112596E-1,4.440006E-1,9.586261E-2,-1.0317521E0,-1.7542454E0,-8.0695905E-2,-5.584915E-1,-9.06102E-1,-4.514557E-1,2.0054816E-1,6.380884E-1,8.613236E-1,3.5335976E-1,5.2511927E-2,-3.2534012E-1,-2.38424E0,6.371057E-1,4.7592682E-1,1.2744311E0,-9.34122E-3,2.6393992E-1,1.139456E0,5.3862256E-1,-1.2129409E0,-2.5902477E-1],"split_indices":[2,1,2,2,2,1,1,2,2,2,1,1,1,1,0,0,1,2,2,0,1,0,2,2,0,0,1,2,1,2,2,0,0,0,0,0,0,0,0,0,0,0,0,0,0,0,0,0,0,0,0,0,0,0,0,0,0,0,0],"split_type":[0,0,0,0,0,0,0,0,0,0,0,0,0,0,0,0,0,0,0,0,0,0,0,0,0,0,0,0,0,0,0,0,0,0,0,0,0,0,0,0,0,0,0,0,0,0,0,0,0,0,0,0,0,0,0,0,0,0,0],"sum_hessian":[1.0526E4,5.11E3,5.416E3,2.045E3,3.065E3,2.431E3,2.985E3,9E0,2.036E3,5.73E2,2.492E3,4.59E2,1.972E3,2.002E3,9.83E2,5E0,4E0,1.36E2,1.9E3,3E0,5.7E2,1.559E3,9.33E2,1.88E2,2.71E2,1.961E3,1.1E1,7.14E2,1.288E3,9.51E2,3.2E1,1E0,3E0,2.6E1,1.1E2,3.64E2,1.536E3,4.89E2,8.1E1,1.14E3,4.19E2,4.63E2,4.7E2,1.61E2,2.7E1,1.68E2,1.03E2,1.713E3,2.48E2,8E0,3E0,6.49E2,6.5E1,5.99E2,6.89E2,1.36E2,8.15E2,2.6E1,6E0],"tree_param":{"num_deleted":"0","num_feature":"3","num_nodes":"59","size_leaf_vector":"1"}},{"base_weights":[-4.431124E-5,-6.6245973E-1,5.529306E-1,5.0574714E-1,-1.2408873E0,2.8474078E-1,1.042293E0,-1.1227391E0,6.740159E-1,-2.4341395E0,-9.0205526E-1,1.1257993E0,7.784135E-2,7.951131E-1,2.7454128E0,7.793411E-1,-1.4941732E0,2.0390913E0,3.612904E-1,-1.8741832E0,-4.0186124E0,-7.335004E-1,-2.4554183E0,1.0153501E0,2.466867E0,2.2800922E-1,-6.191078E-1,1.5963687E0,6.164478E-1,3.1401758E0,1.2384626E0,1.4628754E0,1.2163783E-1,5.384219E-1,-5.4818034E-1,2.5803256E-1,1.008288E0,-1.6857736E-1,2.9209065E-1,-1.20383024E-1,-8.8308823E-1,-1.9272231E0,-8.1392676E-1,-1.8587261E-1,-9.177796E-1,-1.0064685E0,-3.8750398E-1,5.920886E-2,3.7183934E-1,5.1345944E-1,1.5092577E0,7.7122174E-2,-9.9486107E-1,-7.753897E-1,-8.791289E-2,1.2139751E-1,6.020447E-1,2.0132129E-1,-5.490394E-1,1.0120512E0,3.2015395E-1,7.465011E-1,9.624293E-3],"categories":[],"categories_nodes":[],"categories_segments":[],"categories_sizes":[],"default_left":[0,0,0,0,0,0,0,0,0,0,0,0,0,0,0,0,0,0,0,0,0,0,0,0,0,0,0,0,0,0,0,0,0,0,0,0,0,0,0,0,0,0,0,0,0,0,0,0,0,0,0,0,0,0,0,0,0,0,0,0,0,0,0],"id":2,"left_children":[1,3,5,7,9,11,13,15,17,19,21,23,25,27,29,31,33,35,37,39,41,43,45,47,49,51,53,55,57,59,61,-1,-1,-1,-1,-1,-1,-1,-1,-1,-1,-1,-1,-1,-1,-1,-1,-1,-1,-1,-1,-1,-1,-1,-1,-1,-1,-1,-1,-1,-1,-1,-1],"loss_changes":[3.856397E3,3.2373408E3,7.527699E2,4.3563174E2,1.2932207E3,6.4515826E2,8.528208E2,1.064326E2,6.1356366E2,6.2063135E2,6.519806E2,1.05918884E2,3.1171216E2,2.531189E2,1.4899731E2,3.6316875E1,1.4021933E2,4.147765E2,6.6310925E2,8.257943E2,5.604026E2,5.9533093E2,2.5107495E2,1.24048096E2,9.790662E1,2.5323051E2,3.3763162E2,1.5717828E2,1.9540674E2,9.458838E1,8.285055E1,0E0,0E0,0E0,0E0,0E0,0E0,0E0,0E0,0E0,0E0,0E0,0E0,0E0,0E0,0E0,0E0,0E0,0E0,0E0,0E0,0E0,0E0,0E0,0E0,0E0,0E0,0E0,0E0,0E0,0E0,0E0,0E0],"parents":[2147483647,0,0,1,1,2,2,3,3,4,4,5,5,6,6,7,7,8,8,9,9,10,10,11,11,12,12,13,13,14,14,15,15,16,16,17,17,18,18,19,19,20,20,21,21,22,22,23,23,24,24,25,25,26,26,27,27,28,28,29,29,30,30],"right_children":[2,4,6,8,10,12,14,16,18,20,22,24,26,28,30,32,34,36,38,40,42,44,46,48,50,52,54,56,58,60,62,-1,-1,-1,-1,-1,-1,-1,-1,-1,-1,-1,-1,-1,-1,-1,-1,-1,-1,-1,-1,-1,-1,-1,-1,-1,-1,-1,-1,-1,-1,-1,-1],"split_conditions":[2.974E1,4.4444447E0,3.006E1,2.8975E1,2.9315E1,5.5555553E0,1.2777778E1,2.8815E1,2.915E1,2.24E2,1.5833333E1,3.003E1,3.36E2,2.5E0,2.23E2,2.856E1,-1.1111112E0,1.004E3,2.939E1,8.055555E0,1.451E3,5.917E3,2.9635E1,1.1111112E0,4.476E3,3.0045E1,6.388889E0,-1.1111112E0,3.0455E1,3.0285E1,1.5555555E1,1.4628754E0,1.2163783E-1,5.384219E-1,-5.4818034E-1,2.5803256E-1,1.008288E0,-1.6857736E-1,2.9209065E-1,-1.20383024E-1,-8.8308823E-1,-1.9272231E0,-8.1392676E-1,-1.8587261E-1,-9.177796E-1,-1.0064685E0,-3.8750398E-1,5.920886E-2,3.7183934E-1,5.1345944E-1,1.5092577E0,7.7122174E-2,-9.9486107E-1,-7.753897E-1,-8.791289E-2,1.2139751E-1,6.020447E-1,2.0132129E-1,-5.490394E-1,1.0120512E0,3.2015395E-1,7.465011E-1,9.624293E-3],"split_indices":[2,1,2,2,2,1,1,2,2,0,1,2,0,1,0,2,1,0,2,1,0,0,2,1,0,2,1,1,2,2,1,0,0,0,0,0,0,0,0,0,0,0,0,0,0,0,0,0,0,0,0,0,0,0,0,0,0,0,0,0,0,0,0],"split_type":[0,0,0,0,0,0,0,0,0,0,0,0,0,0,0,0,0,0,0,0,0,0,0,0,0,0,0,0,0,0,0,0,0,0,0,0,0,0,0,0,0,0,0,0,0,0,0,0,0,0,0,0,0,0,0,0,0,0,0,0,0,0,0],"sum_hessian":[1.0526E4,4.789E3,5.737E3,1.586E3,3.203E3,3.707E3,2.03E3,1.48E2,1.438E3,7.07E2,2.496E3,7.31E2,2.976E3,1.774E3,2.56E2,2.4E1,1.24E2,2.67E2,1.171E3,5.24E2,1.83E2,2.253E3,2.43E2,6.77E2,5.4E1,2.449E3,5.27E2,3.22E2,1.452E3,2.02E2,5.4E1,1E0,2.3E1,1.1E1,1.13E2,1.42E2,1.25E2,4.67E2,7.04E2,2.21E2,3.03E2,6.3E1,1.2E2,2.149E3,1.04E2,1.36E2,1.07E2,1.46E2,5.31E2,4.3E1,1.1E1,2.43E3,1.9E1,7.4E1,4.53E2,8.3E1,2.39E2,1.421E3,3.1E1,1.81E2,2.1E1,2.6E1,2.8E1],"tree_param":{"num_deleted":"0","num_feature":"3","num_nodes":"63","size_leaf_vector":"1"}},{"base_weights":[-4.443841E-5,-3.45071E-1,5.600971E-1,2.0938016E-1,-8.651168E-1,3.0929673E-1,9.891296E-1,-2.656895E-1,5.2765906E-1,-5.2170305E0,-7.750423E-1,9.4112015E-1,-1.930054E-2,1.2601137E0,-4.4461754E-1,2.7840093E-1,-8.875836E-1,2.815002E-1,8.580667E-1,-2.5904506E-1,-7.134228E0,-1.4258153E0,-4.553391E-1,7.8350276E-1,2.8421514E0,-7.7677065E-1,2.8205425E-1,1.0457455E0,2.2880006E0,9.984118E-1,-8.280766E-1,3.0617198E-1,-1.7261763E-1,8.986174E-1,-3.258055E-1,2.4102864E-1,-9.030119E-2,5.3337865E-2,4.1875315E-1,-1.6692575E0,9.390761E-2,-2.919236E0,-1.3389039E0,-2.8255743E-1,-7.133672E-1,-1.17313325E-1,-1.1063683E0,1.2961352E-1,4.999254E-1,1.5370944E0,2.0250234E-1,9.03368E-3,-4.8661223E-1,1.1891228E-1,-3.1798497E-1,4.652763E-1,1.3778654E-1,6.056563E-1,1.2011399E0,8.742533E-1,-2.6462135E-1,-4.037457E-1,3.712304E-1],"categories":[],"categories_nodes":[],"categories_segments":[],"categories_sizes":[],"default_left":[0,0,0,0,0,0,0,0,0,0,0,0,0,0,0,0,0,0,0,0,0,0,0,0,0,0,0,0,0,0,0,0,0,0,0,0,0,0,0,0,0,0,0,0,0,0,0,0,0,0,0,0,0,0,0,0,0,0,0,0,0,0,0],"id":3,"left_children":[1,3,5,7,9,11,13,15,17,19,21,23,25,27,29,31,33,35,37,39,41,43,45,47,49,51,53,55,57,59,61,-1,-1,-1,-1,-1,-1,-1,-1,-1,-1,-1,-1,-1,-1,-1,-1,-1,-1,-1,-1,-1,-1,-1,-1,-1,-1,-1,-1,-1,-1,-1,-1],"loss_changes":[2.0346804E3,1.8787158E3,4.314989E2,4.7703967E2,1.3138481E3,5.2611566E2,5.755737E2,4.2861926E2,1.5339606E2,6.445215E2,6.848895E2,2.5755737E2,3.8096887E2,2.7193823E2,1.3141562E2,4.289424E2,4.5862836E2,3.2980557E2,2.946153E2,6.244008E1,2.9643408E2,4.9768896E2,4.5808368E2,2.4814655E2,3.228673E2,3.2401498E2,1.8360114E2,3.0503186E2,9.074231E1,1.8269875E2,2.0164365E2,0E0,0E0,0E0,0E0,0E0,0E0,0E0,0E0,0E0,0E0,0E0,0E0,0E0,0E0,0E0,0E0,0E0,0E0,0E0,0E0,0E0,0E0,0E0,0E0,0E0,0E0,0E0,0E0,0E0,0E0,0E0,0E0],"parents":[2147483647,0,0,1,1,2,2,3,3,4,4,5,5,6,6,7,7,8,8,9,9,10,10,11,11,12,12,13,13,14,14,15,15,16,16,17,17,18,18,19,19,20,20,21,21,22,22,23,23,24,24,25,25,26,26,27,27,28,28,29,29,30,30],"right_children":[2,4,6,8,10,12,14,16,18,20,22,24,26,28,30,32,34,36,38,40,42,44,46,48,50,52,54,56,58,60,62,-1,-1,-1,-1,-1,-1,-1,-1,-1,-1,-1,-1,-1,-1,-1,-1,-1,-1,-1,-1,-1,-1,-1,-1,-1,-1,-1,-1,-1,-1,-1,-1],"split_conditions":[2.989E1,7.7777777E0,1.1111111E1,2.9375E1,2.9015E1,4.4444447E0,2.24E2,3.0555556E0,2.968E1,2.883E1,2.9545E1,3.0375E1,2.9985E1,3.018E1,1.1666667E1,2.918E1,2.889E1,2.9515E1,5E0,8.611111E0,1.1944445E1,1.2777778E1,8.596E3,2.235E3,3.044E1,2.993E1,3.039E1,2.9985E1,1.638889E1,3.0135E1,3.018E1,3.0617198E-1,-1.7261763E-1,8.986174E-1,-3.258055E-1,2.4102864E-1,-9.030119E-2,5.3337865E-2,4.1875315E-1,-1.6692575E0,9.390761E-2,-2.919236E0,-1.3389039E0,-2.8255743E-1,-7.133672E-1,-1.17313325E-1,-1.1063683E0,1.2961352E-1,4.999254E-1,1.5370944E0,2.0250234E-1,9.03368E-3,-4.8661223E-1,1.1891228E-1,-3.1798497E-1,4.652763E-1,1.3778654E-1,6.056563E-1,1.2011399E0,8.742533E-1,-2.6462135E-1,-4.037457E-1,3.712304E-1],"split_indices":[2,1,1,2,2,1,0,1,2,2,2,2,2,2,1,2,2,2,1,1,1,1,0,0,2,2,2,2,1,2,2,0,0,0,0,0,0,0,0,0,0,0,0,0,0,0,0,0,0,0,0,0,0,0,0,0,0,0,0,0,0,0,0],"split_type":[0,0,0,0,0,0,0,0,0,0,0,0,0,0,0,0,0,0,0,0,0,0,0,0,0,0,0,0,0,0,0,0,0,0,0,0,0,0,0,0,0,0,0,0,0,0,0,0,0,0,0,0,0,0,0,0,0,0,0,0,0,0,0],"sum_hessian":[1.0526E4,6.514E3,4.012E3,3.153E3,3.361E3,2.533E3,1.479E3,1.265E3,1.888E3,6.7E1,3.294E3,8.66E2,1.667E3,1.244E3,2.35E2,6.75E2,5.9E2,1.083E3,8.05E2,1.9E1,4.8E1,1.084E3,2.21E3,8.01E2,6.5E1,4.74E2,1.193E3,1.031E3,2.13E2,4.9E1,1.86E2,3.61E2,3.14E2,2.8E1,5.62E2,5.71E2,5.12E2,3.56E2,4.49E2,1E0,1.8E1,2.3E1,2.5E1,7.2E2,3.64E2,2.168E3,4.2E1,5.74E2,2.27E2,3.1E1,3.4E1,2.43E2,2.31E2,1.1E3,9.3E1,5.53E2,4.78E2,1.86E2,2.7E1,2.4E1,2.5E1,1.49E2,3.7E1],"tree_param":{"num_deleted":"0","num_feature":"3","num_nodes":"63","size_leaf_vector":"1"}},{"base_weights":[-2.2526346E-4,-2.425817E-1,3.9323407E-1,3.0652866E-1,-5.453191E-1,2.5628427E-1,8.4886605E-1,-2.1114439E-2,6.451213E-1,-1.7646548E0,-4.0685603E-1,6.6151667E-1,9.798045E-2,2.1742966E0,6.659039E-1,5.359947E0,-6.71277E-2,4.4847852E-1,1.3956295E0,-1.4903283E0,-5.0030975E0,-3.0012506E-1,-1.5382661E0,5.1611036E-1,1.7716221E0,-3.2224062E-1,2.2857545E-1,2.8483644E0,-2.048132E0,3.3750522E-1,1.8243709E0,1.9092903E0,9.2482007E-1,3.704276E-2,-3.0770835E-1,1.8014011E-1,-9.3876296E-1,1.0923826E-1,7.4333483E-1,-3.2934098E0,-4.169908E-1,1.9194762E0,-2.0388982E0,-3.952711E-2,-3.4190708E-1,1.1479671E0,-5.5404013E-1,6.6853136E-2,3.7367937E-1,-3.884223E-2,1.058691E0,-5.5960774E-2,-8.7899756E-1,-5.7907425E-2,1.3775098E-1,4.4145936E-1,1.1130592E0,-4.7523573E-1,-1.3512489E0,-2.3632224E-1,1.8249263E-1,6.802685E-1,1.20891966E-1],"categories":[],"categories_nodes":[],"categories_segments":[],"categories_sizes":[],"default_left":[0,0,0,0,0,0,0,0,0,0,0,0,0,0,0,0,0,0,0,0,0,0,0,0,0,0,0,0,0,0,0,0,0,0,0,0,0,0,0,0,0,0,0,0,0,0,0,0,0,0,0,0,0,0,0,0,0,0,0,0,0,0,0],"id":4,"left_children":[1,3,5,7,9,11,13,15,17,19,21,23,25,27,29,31,33,35,37,39,41,43,45,47,49,51,53,55,57,59,61,-1,-1,-1,-1,-1,-1,-1,-1,-1,-1,-1,-1,-1,-1,-1,-1,-1,-1,-1,-1,-1,-1,-1,-1,-1,-1,-1,-1,-1,-1,-1,-1],"loss_changes":[1.0039228E3,1.0831962E3,2.5018842E2,2.5694498E2,7.083804E2,1.9796576E2,2.2335297E2,2.9203284E2,1.6747E2,3.7277478E2,4.5515247E2,1.390336E2,1.2195941E2,3.2460846E2,3.098225E2,3.251831E0,2.1371022E2,4.934447E2,2.6253116E2,3.6180334E2,7.1817755E2,4.873865E2,5.450172E2,1.6402397E2,3.3454565E2,1.8595038E2,1.6487427E2,1.096405E2,1.1098946E1,1.945862E2,1.12477295E2,0E0,0E0,0E0,0E0,0E0,0E0,0E0,0E0,0E0,0E0,0E0,0E0,0E0,0E0,0E0,0E0,0E0,0E0,0E0,0E0,0E0,0E0,0E0,0E0,0E0,0E0,0E0,0E0,0E0,0E0,0E0,0E0],"parents":[2147483647,0,0,1,1,2,2,3,3,4,4,5,5,6,6,7,7,8,8,9,9,10,10,11,11,12,12,13,13,14,14,15,15,16,16,17,17,18,18,19,19,20,20,21,21,22,22,23,23,24,24,25,25,26,26,27,27,28,28,29,29,30,30],"right_children":[2,4,6,8,10,12,14,16,18,20,22,24,26,28,30,32,34,36,38,40,42,44,46,48,50,52,54,56,58,60,62,-1,-1,-1,-1,-1,-1,-1,-1,-1,-1,-1,-1,-1,-1,-1,-1,-1,-1,-1,-1,-1,-1,-1,-1,-1,-1,-1,-1,-1,-1,-1,-1],"split_conditions":[2.989E1,5.5555553E0,1.2777778E1,2.942E1,2.9255E1,4.4444447E0,2.9905E1,2.871E1,5E0,1.5E1,1.6666666E1,3.0345E1,2.997E1,1.9444445E1,3.015E1,2.856E1,4.694E3,4.4444447E0,2.968E1,2.871E1,2.895E1,8.94E2,2.9345E1,2.127E3,2.7777777E0,2.9955E1,7.7777777E0,1.4444445E1,2.1666666E1,2.994E1,3.024E1,1.9092903E0,9.2482007E-1,3.704276E-2,-3.0770835E-1,1.8014011E-1,-9.3876296E-1,1.0923826E-1,7.4333483E-1,-3.2934098E0,-4.169908E-1,1.9194762E0,-2.0388982E0,-3.952711E-2,-3.4190708E-1,1.1479671E0,-5.5404013E-1,6.6853136E-2,3.7367937E-1,-3.884223E-2,1.058691E0,-5.5960774E-2,-8.7899756E-1,-5.7907425E-2,1.3775098E-1,4.4145936E-1,1.1130592E0,-4.7523573E-1,-1.3512489E0,-2.3632224E-1,1.8249263E-1,6.802685E-1,1.20891966E-1],"split_indices":[2,1,1,2,2,1,2,2,1,1,1,2,2,1,2,2,0,1,2,2,2,0,2,0,1,2,1,1,1,2,2,0,0,0,0,0,0,0,0,0,0,0,0,0,0,0,0,0,0,0,0,0,0,0,0,0,0,0,0,0,0,0,0],"split_type":[0,0,0,0,0,0,0,0,0,0,0,0,0,0,0,0,0,0,0,0,0,0,0,0,0,0,0,0,0,0,0,0,0,0,0,0,0,0,0,0,0,0,0,0,0,0,0,0,0,0,0,0,0,0,0,0,0,0,0,0,0,0,0],"sum_hessian":[1.0526E4,6.514E3,4.012E3,2.315E3,4.199E3,3.086E3,9.26E2,1.177E3,1.138E3,4.27E2,3.772E3,8.66E2,2.22E3,1.11E2,8.15E2,9E0,1.168E3,9.03E2,2.35E2,3.95E2,3.2E1,3.448E3,3.24E2,7.67E2,9.9E1,5.26E2,1.694E3,9.6E1,1.5E1,6.36E2,1.79E2,5E0,4E0,9.75E2,1.93E2,8.67E2,3.6E1,1.21E2,1.14E2,3E0,3.92E2,4E0,2.8E1,2.873E3,5.75E2,1.7E1,3.07E2,5.48E2,2.19E2,4.8E1,5.1E1,5.01E2,2.5E1,5.99E2,1.095E3,3.8E1,5.8E1,1.4E1,1E0,1.23E2,5.13E2,1.36E2,4.3E1],"tree_param":{"num_deleted":"0","num_feature":"3","num_nodes":"63","size_leaf_vector":"1"}},{"base_weights":[-1.4623522E-4,-3.0536354E-1,1.7922822E-1,2.4916989E-1,-6.286798E-1,4.5014814E-1,8.997171E-2,-1.0395668E0,3.947209E-1,-3.543168E-1,-1.4683883E0,3.2961658E-1,9.975347E-1,1.4569925E-1,-7.208751E-1,-3.9109844E-1,-1.7776468E0,1.210124E0,1.2698372E-1,-1.5033436E-1,-1.5475487E0,-1.2523487E0,-3.2170103E0,2.3495397E-1,1.072916E0,-1.1702468E0,1.2647288E0,-1.2300922E0,1.7239642E-1,-3.8852784E-1,-2.4326613E0,5.966037E-1,-4.2120576E-1,-1.3860991E0,-2.4423672E-1,1.7286254E-1,6.9888735E-1,-8.885152E-2,1.7247602E-1,-7.700227E-2,3.3191237E-1,1.4588019E0,-4.985383E-1,-6.2540054E-1,-2.2742139E-1,-1.4448359E0,-2.624357E-1,7.760648E-2,-9.9746686E-1,3.8490605E-1,-6.116594E-1,-4.638596E-1,5.9363246E-2,6.986992E-1,1.7729576E-1,-4.2680946E-1,1.3012937E-1,3.9156117E-3,1.1779137E-1,-6.023013E-1,-2.4437726E-2,-1.7576776E0,-2.2413884E-1],"categories":[],"categories_nodes":[],"categories_segments":[],"categories_sizes":[],"default_left":[0,0,0,0,0,0,0,0,0,0,0,0,0,0,0,0,0,0,0,0,0,0,0,0,0,0,0,0,0,0,0,0,0,0,0,0,0,0,0,0,0,0,0,0,0,0,0,0,0,0,0,0,0,0,0,0,0,0,0,0,0,0,0],"id":5,"left_children":[1,3,5,7,9,11,13,15,17,19,21,23,25,27,29,31,33,35,37,39,41,43,45,47,49,51,53,55,57,59,61,-1,-1,-1,-1,-1,-1,-1,-1,-1,-1,-1,-1,-1,-1,-1,-1,-1,-1,-1,-1,-1,-1,-1,-1,-1,-1,-1,-1,-1,-1,-1,-1],"loss_changes":[5.763888E2,6.988486E2,1.6030612E2,2.6977087E2,5.666874E2,1.0807199E2,2.2554044E2,6.91835E1,2.8168933E2,4.5175812E2,2.2490076E2,9.459677E1,1.7292874E2,1.717032E2,1.8167412E2,1.932237E2,1.8249014E2,2.2504199E2,1.8459921E2,2.1236789E2,2.0654462E2,2.2098535E2,2.4298816E2,1.0199503E2,1.01993195E2,1.7279465E1,1.87923E2,2.9138824E1,1.607616E2,1.3407729E2,2.9592664E2,0E0,0E0,0E0,0E0,0E0,0E0,0E0,0E0,0E0,0E0,0E0,0E0,0E0,0E0,0E0,0E0,0E0,0E0,0E0,0E0,0E0,0E0,0E0,0E0,0E0,0E0,0E0,0E0,0E0,0E0,0E0,0E0],"parents":[2147483647,0,0,1,1,2,2,3,3,4,4,5,5,6,6,7,7,8,8,9,9,10,10,11,11,12,12,13,13,14,14,15,15,16,16,17,17,18,18,19,19,20,20,21,21,22,22,23,23,24,24,25,25,26,26,27,27,28,28,29,29,30,30],"right_children":[2,4,6,8,10,12,14,16,18,20,22,24,26,28,30,32,34,36,38,40,42,44,46,48,50,52,54,56,58,60,62,-1,-1,-1,-1,-1,-1,-1,-1,-1,-1,-1,-1,-1,-1,-1,-1,-1,-1,-1,-1,-1,-1,-1,-1,-1,-1,-1,-1,-1,-1,-1,-1],"split_conditions":[2.965E1,4.4444447E0,5.5555553E0,2.8965E1,2.23E2,4.244E3,3.357E3,1.006E3,2.9165E1,1.5E1,1.2777778E1,3.0315E1,-1.1111112E0,6.111111E0,1.1944445E1,2.886E1,2.35E3,2.012E3,2.942E1,2.962E1,2.895E1,1.451E3,1.4444445E1,4.137E3,3.0485E1,9.375E3,5.922E3,2.24E2,2.997E1,4.252E3,2.9755E1,5.966037E-1,-4.2120576E-1,-1.3860991E0,-2.4423672E-1,1.7286254E-1,6.9888735E-1,-8.885152E-2,1.7247602E-1,-7.700227E-2,3.3191237E-1,1.4588019E0,-4.985383E-1,-6.2540054E-1,-2.2742139E-1,-1.4448359E0,-2.624357E-1,7.760648E-2,-9.9746686E-1,3.8490605E-1,-6.116594E-1,-4.638596E-1,5.9363246E-2,6.986992E-1,1.7729576E-1,-4.2680946E-1,1.3012937E-1,3.9156117E-3,1.1779137E-1,-6.023013E-1,-2.4437726E-2,-1.7576776E0,-2.2413884E-1],"split_indices":[2,1,1,2,0,0,0,0,2,1,1,2,1,1,1,2,0,0,2,2,2,0,1,0,2,0,0,0,2,0,2,0,0,0,0,0,0,0,0,0,0,0,0,0,0,0,0,0,0,0,0,0,0,0,0,0,0,0,0,0,0,0,0],"split_type":[0,0,0,0,0,0,0,0,0,0,0,0,0,0,0,0,0,0,0,0,0,0,0,0,0,0,0,0,0,0,0,0,0,0,0,0,0,0,0,0,0,0,0,0,0,0,0,0,0,0,0,0,0,0,0,0,0,0,0,0,0,0,0],"sum_hessian":[1.0526E4,3.896E3,6.63E3,1.435E3,2.461E3,1.642E3,4.988E3,1.45E2,1.29E3,1.856E3,6.05E2,1.347E3,2.95E2,4.668E3,3.2E2,7.8E1,6.7E1,3.18E2,9.72E2,1.586E3,2.7E2,5.4E2,6.5E1,1.196E3,1.51E2,3.2E1,2.63E2,8.8E1,4.58E3,2.69E2,5.1E1,2.3E1,5.5E1,1.6E1,5.1E1,2.04E2,1.14E2,5E2,4.72E2,1.463E3,1.23E2,4E0,2.66E2,2E2,3.4E2,3.8E1,2.7E1,1.189E3,7E0,1.42E2,9E0,2.5E1,7E0,1.01E2,1.62E2,7.9E1,9E0,2.658E3,1.922E3,4.2E1,2.27E2,1.6E1,3.5E1],"tree_param":{"num_deleted":"0","num_feature":"3","num_nodes":"63","size_leaf_vector":"1"}},{"base_weights":[-6.0613395E-4,-2.1422783E-1,1.24938175E-1,8.76611E-2,-5.2385074E-1,7.7672696E-1,1.0002249E-1,2.2424382E-1,-6.24305E-1,-2.6020868E0,-4.072825E-1,1.9709969E-1,2.214699E0,1.4587879E-1,-2.9154792E-1,-2.6209092E-2,9.835882E-1,-4.292905E0,-3.3713576E-1,-2.1140983E0,-8.071687E0,-2.7650037E-1,-1.1331166E0,-3.979369E-1,1.3442187E0,2.9007075E0,1.2580849E0,9.571143E-2,1.1127731E0,-7.3590535E-1,9.314431E-1,1.724403E-2,-9.0409046E-1,-7.2730404E-1,3.7171867E-1,-3.145546E-1,-1.891107E0,6.431041E-1,-1.8749578E-1,-7.906969E-1,9.4875854E-1,9.196568E-1,-3.0301945E0,-2.4930258E-1,-9.38626E-3,-6.3622475E-1,-3.9068073E-2,-7.568159E-2,-2.572411E0,1.648521E0,1.5119079E-1,7.471543E-1,1.7909452E0,-1.6995236E-1,7.821957E-1,3.2120906E-2,-4.2061022E-1,-5.6726813E-2,5.0548893E-1,-6.1593205E-1,-1.307707E-1,3.90098E-1,-1.7098922E-1],"categories":[],"categories_nodes":[],"categories_segments":[],"categories_sizes":[],"default_left":[0,0,0,0,0,0,0,0,0,0,0,0,0,0,0,0,0,0,0,0,0,0,0,0,0,0,0,0,0,0,0,0,0,0,0,0,0,0,0,0,0,0,0,0,0,0,0,0,0,0,0,0,0,0,0,0,0,0,0,0,0,0,0],"id":6,"left_children":[1,3,5,7,9,11,13,15,17,19,21,23,25,27,29,31,33,35,37,39,41,43,45,47,49,51,53,55,57,59,61,-1,-1,-1,-1,-1,-1,-1,-1,-1,-1,-1,-1,-1,-1,-1,-1,-1,-1,-1,-1,-1,-1,-1,-1,-1,-1,-1,-1,-1,-1,-1,-1],"loss_changes":[2.8235022E2,3.6430524E2,1.07608185E2,1.9209624E2,4.6504138E2,2.0293451E2,1.1474527E2,3.1515408E2,3.3356857E2,2.5518396E2,1.7273703E2,1.1998604E2,4.228784E1,2.773023E2,3.647937E2,3.119422E2,3.6083633E2,1.4343716E2,2.1271436E2,2.697817E2,2.1173956E2,2.1018753E2,2.75079E2,1.3600076E2,2.0649567E2,3.5489197E1,7.779295E1,9.266014E1,2.10384E2,1.9352597E2,9.987927E1,0E0,0E0,0E0,0E0,0E0,0E0,0E0,0E0,0E0,0E0,0E0,0E0,0E0,0E0,0E0,0E0,0E0,0E0,0E0,0E0,0E0,0E0,0E0,0E0,0E0,0E0,0E0,0E0,0E0,0E0,0E0,0E0],"parents":[2147483647,0,0,1,1,2,2,3,3,4,4,5,5,6,6,7,7,8,8,9,9,10,10,11,11,12,12,13,13,14,14,15,15,16,16,17,17,18,18,19,19,20,20,21,21,22,22,23,23,24,24,25,25,26,26,27,27,28,28,29,29,30,30],"right_children":[2,4,6,8,10,12,14,16,18,20,22,24,26,28,30,32,34,36,38,40,42,44,46,48,50,52,54,56,58,60,62,-1,-1,-1,-1,-1,-1,-1,-1,-1,-1,-1,-1,-1,-1,-1,-1,-1,-1,-1,-1,-1,-1,-1,-1,-1,-1,-1,-1,-1,-1,-1,-1],"split_conditions":[2.965E1,6.388889E0,2.9665E1,4.699E3,2.9015E1,1.3611111E1,1.611111E1,1.451E3,4.92E3,1.5833333E1,8.94E2,1.342E3,1.5833333E1,1.5E1,3.003E1,1.119E3,2.8905E1,2.7777777E0,5.149E3,1.4444445E1,2.895E1,1E1,3.131E3,1.339E3,1.678E3,1.5555555E1,1.7222221E1,3.0455E1,2.983E1,2.9755E1,2.23E2,1.724403E-2,-9.0409046E-1,-7.2730404E-1,3.7171867E-1,-3.145546E-1,-1.891107E0,6.431041E-1,-1.8749578E-1,-7.906969E-1,9.4875854E-1,9.196568E-1,-3.0301945E0,-2.4930258E-1,-9.38626E-3,-6.3622475E-1,-3.9068073E-2,-7.568159E-2,-2.572411E0,1.648521E0,1.5119079E-1,7.471543E-1,1.7909452E0,-1.6995236E-1,7.821957E-1,3.2120906E-2,-4.2061022E-1,-5.6726813E-2,5.0548893E-1,-6.1593205E-1,-1.307707E-1,3.90098E-1,-1.7098922E-1],"split_indices":[2,1,2,0,2,1,1,0,0,1,0,0,1,1,2,0,2,1,0,1,2,1,0,0,0,1,1,2,2,2,0,0,0,0,0,0,0,0,0,0,0,0,0,0,0,0,0,0,0,0,0,0,0,0,0,0,0,0,0,0,0,0,0],"split_type":[0,0,0,0,0,0,0,0,0,0,0,0,0,0,0,0,0,0,0,0,0,0,0,0,0,0,0,0,0,0,0,0,0,0,0,0,0,0,0,0,0,0,0,0,0,0,0,0,0,0,0,0,0,0,0,0,0,0,0,0,0,0,0],"sum_hessian":[1.0526E4,3.896E3,6.63E3,1.973E3,1.923E3,2.43E2,6.387E3,1.656E3,3.17E2,1.01E2,1.822E3,1.74E2,6.9E1,5.718E3,6.69E2,1.246E3,4.1E2,2.2E1,2.95E2,9.4E1,7E0,1.545E3,2.77E2,1.15E2,5.9E1,3.9E1,3E1,5.437E3,2.81E2,4.91E2,1.78E2,1.213E3,3.3E1,2.8E1,3.82E2,9E0,1.3E1,3E1,2.65E2,8.6E1,8E0,1E0,6E0,4.73E2,1.072E3,1.39E2,1.38E2,1.14E2,1E0,9E0,5E1,3.6E1,3E0,1.3E1,1.7E1,5.397E3,4E1,8.6E1,1.95E2,9E1,4.01E2,1.43E2,3.5E1],"tree_param":{"num_deleted":"0","num_feature":"3","num_nodes":"63","size_leaf_vector":"1"}},{"base_weights":[-8.0849486E-4,1.7365518E-1,-8.39539E-2,4.16506E0,1.630073E-1,-1.2368258E0,-5.1358823E-2,1.7772192E0,1.3780236E0,1.0531357E-1,6.143668E-1,-1.0564426E0,-2.3748534E0,1.5954998E0,-6.935373E-2,8.190475E-1,-1.929885E-2,1.41628E-1,-5.2103335E-1,-4.0645283E-1,7.510728E-1,-7.7201004E0,-9.098232E-1,8.700688E-1,4.2161474E0,-1.445625E0,-3.6697235E-2,-1.72085E-2,8.418666E-2,-3.4878406E-1,-3.70656E-2,-4.338376E-2,-3.6793035E-1,7.979509E-1,1.888284E-1,-2.6130786E0,-7.124428E-1,4.2274693E-1,-4.5082188E-1,6.399098E-1,6.98303E-2,1.5092678E0,-1.200754E0,-2.309088E-1,-1.145506E0,1.1660704E-1,-2.412796E-2],"categories":[],"categories_nodes":[],"categories_segments":[],"categories_sizes":[],"default_left":[0,0,0,0,0,0,0,0,0,0,0,0,0,0,0,0,0,0,0,0,0,0,0,0,0,0,0,0,0,0,0,0,0,0,0,0,0,0,0,0,0,0,0,0,0,0,0],"id":7,"left_children":[1,3,5,7,9,11,13,15,-1,17,19,21,-1,23,25,-1,-1,27,29,31,33,35,37,39,41,43,45,-1,-1,-1,-1,-1,-1,-1,-1,-1,-1,-1,-1,-1,-1,-1,-1,-1,-1,-1,-1],"loss_changes":[1.527177E2,1.4373602E2,2.6786725E2,1.0420227E0,8.821298E1,2.2778632E2,2.0562982E2,5.440282E0,0E0,6.8469315E1,5.389331E1,1.8056422E2,0E0,1.3891406E2,3.0830905E2,0E0,0E0,7.864894E1,4.193402E1,9.699038E0,7.703865E1,4.8558044E-1,2.6198523E2,4.77968E1,1.2727399E2,2.5206458E2,1.2471973E2,0E0,0E0,0E0,0E0,0E0,0E0,0E0,0E0,0E0,0E0,0E0,0E0,0E0,0E0,0E0,0E0,0E0,0E0,0E0,0E0],"parents":[2147483647,0,0,1,1,2,2,3,3,4,4,5,5,6,6,7,7,9,9,10,10,11,11,13,13,14,14,17,17,18,18,19,19,20,20,21,21,22,22,23,23,24,24,25,25,26,26],"right_children":[2,4,6,8,10,12,14,16,-1,18,20,22,-1,24,26,-1,-1,28,30,32,34,36,38,40,42,44,46,-1,-1,-1,-1,-1,-1,-1,-1,-1,-1,-1,-1,-1,-1,-1,-1,-1,-1,-1,-1],"split_conditions":[5.5555553E0,2.868E1,2.9075E1,3.0555556E0,3.0195E1,1.638889E1,2.9135E1,2.856E1,1.3780236E0,3.012E1,-1.1111112E0,2.871E1,-2.3748534E0,1.004E3,2.9255E1,8.190475E-1,-1.929885E-2,2.942E1,3.0135E1,3.036E1,-5.555556E-1,2.23E2,2.889E1,2.9105E1,1.25E1,1.2777778E1,2.946E1,-1.72085E-2,8.418666E-2,-3.4878406E-1,-3.70656E-2,-4.338376E-2,-3.6793035E-1,7.979509E-1,1.888284E-1,-2.6130786E0,-7.124428E-1,4.2274693E-1,-4.5082188E-1,6.399098E-1,6.98303E-2,1.5092678E0,-1.200754E0,-2.309088E-1,-1.145506E0,1.1660704E-1,-2.412796E-2],"split_indices":[1,2,2,1,2,1,2,2,0,2,1,2,0,0,2,0,0,2,2,2,1,0,2,2,1,1,2,0,0,0,0,0,0,0,0,0,0,0,0,0,0,0,0,0,0,0,0],"split_type":[0,0,0,0,0,0,0,0,0,0,0,0,0,0,0,0,0,0,0,0,0,0,0,0,0,0,0,0,0,0,0,0,0,0,0,0,0,0,0,0,0,0,0,0,0,0,0],"sum_hessian":[1.0526E4,3.397E3,7.129E3,8E0,3.389E3,1.95E2,6.934E3,2E0,6E0,3.006E3,3.83E2,1.91E2,4E0,7.4E1,6.86E3,1E0,1E0,2.842E3,1.64E2,4.5E1,3.38E2,3E0,1.88E2,5.9E1,1.5E1,1.58E2,6.702E3,1.169E3,1.673E3,6.2E1,1.02E2,3.5E1,1E1,1.9E1,3.19E2,2E0,1E0,3.8E1,1.5E2,1.9E1,4E1,1.4E1,1E0,1.24E2,3.4E1,6.24E2,6.078E3],"tree_param":{"num_deleted":"0","num_feature":"3","num_nodes":"47","size_leaf_vector":"1"}},{"base_weights":[-9.04099E-4,-1.115826E-1,1.1720675E-1,5.7386838E-2,-5.8217186E-1,1.9046925E-2,4.154854E-1,-1.8837936E-2,7.396644E-1,-4.8497304E-1,-2.5609806E0,-3.361683E-2,4.7750667E-1,7.1932906E-1,1.8221828E-3,3.426036E-3,-2.759728E0,1.8093556E0,-3.6051303E-2,-2.0852879E-1,-1.2427367E0,-3.3360498E0,3.57216E0,-2.8457227E-3,-1.0402868E0,1.9932956E-1,1.5534115E0,8.4218204E-1,-6.357895E-1,-3.3683148E-1,6.7722744E-1,-8.314222E-3,4.307478E-1,-9.821288E-1,-2.02953E-1,-6.2825836E-2,7.3108673E-1,-1.0577572E-1,6.641034E-1,-6.405894E-1,-1.2553212E-2,-4.635401E-1,3.7812775E-1,-1.1884295E0,8.857866E-1,1.4913265E0,-9.3305045E-1,7.1244255E-2,-3.5181154E-2,-8.682606E-1,-1.9063632E-1,3.098806E-1,-5.1241E-2,3.8480356E-1,8.2723266E-1,-2.0844385E-2,2.8071707E-1,-1.1215727E0,3.647849E-2,-1.7728916E-1,3.300232E-1,2.810694E-1,-1.14080064E-1],"categories":[],"categories_nodes":[],"categories_segments":[],"categories_sizes":[],"default_left":[0,0,0,0,0,0,0,0,0,0,0,0,0,0,0,0,0,0,0,0,0,0,0,0,0,0,0,0,0,0,0,0,0,0,0,0,0,0,0,0,0,0,0,0,0,0,0,0,0,0,0,0,0,0,0,0,0,0,0,0,0,0,0],"id":8,"left_children":[1,3,5,7,9,11,13,15,17,19,21,23,25,27,29,31,33,35,37,39,41,43,45,47,49,51,53,55,57,59,61,-1,-1,-1,-1,-1,-1,-1,-1,-1,-1,-1,-1,-1,-1,-1,-1,-1,-1,-1,-1,-1,-1,-1,-1,-1,-1,-1,-1,-1,-1,-1,-1],"loss_changes":[1.3762552E2,4.3219852E2,1.4910994E2,2.0803975E2,2.7495514E2,9.256082E1,1.5849246E2,2.1963159E2,3.3363528E2,2.8672766E2,3.3040863E2,1.06524704E2,1.1791073E2,1.2156659E2,1.2259783E2,1.5932455E2,2.8839798E1,2.1463055E2,1.6741583E2,3.226795E2,2.7899066E2,2.4766577E2,9.024569E1,9.182056E1,7.4714424E1,9.736809E1,2.286673E1,5.694568E1,1.4380472E2,1.31014E2,4.9509697E1,0E0,0E0,0E0,0E0,0E0,0E0,0E0,0E0,0E0,0E0,0E0,0E0,0E0,0E0,0E0,0E0,0E0,0E0,0E0,0E0,0E0,0E0,0E0,0E0,0E0,0E0,0E0,0E0,0E0,0E0,0E0,0E0],"parents":[2147483647,0,0,1,1,2,2,3,3,4,4,5,5,6,6,7,7,8,8,9,9,10,10,11,11,12,12,13,13,14,14,15,15,16,16,17,17,18,18,19,19,20,20,21,21,22,22,23,23,24,24,25,25,26,26,27,27,28,28,29,29,30,30],"right_children":[2,4,6,8,10,12,14,16,18,20,22,24,26,28,30,32,34,36,38,40,42,44,46,48,50,52,54,56,58,60,62,-1,-1,-1,-1,-1,-1,-1,-1,-1,-1,-1,-1,-1,-1,-1,-1,-1,-1,-1,-1,-1,-1,-1,-1,-1,-1,-1,-1,-1,-1,-1,-1],"split_conditions":[2.98E1,1.2222222E1,1.2777778E1,2.974E1,2.908E3,3.0315E1,1.5833333E1,2.9725E1,2.9755E1,2.9695E1,2.977E1,9.162E3,8.055555E0,7.83E2,3.003E1,1.1666667E1,1.0555555E1,4.4444447E0,4.587E3,2.9225E1,2.23E2,1.2058E4,1.3055555E1,5.5555553E0,9.6E3,3.036E1,1.1944445E1,2.983E1,1.004E3,2E1,2.23E2,-8.314222E-3,4.307478E-1,-9.821288E-1,-2.02953E-1,-6.2825836E-2,7.3108673E-1,-1.0577572E-1,6.641034E-1,-6.405894E-1,-1.2553212E-2,-4.635401E-1,3.7812775E-1,-1.1884295E0,8.857866E-1,1.4913265E0,-9.3305045E-1,7.1244255E-2,-3.5181154E-2,-8.682606E-1,-1.9063632E-1,3.098806E-1,-5.1241E-2,3.8480356E-1,8.2723266E-1,-2.0844385E-2,2.8071707E-1,-1.1215727E0,3.647849E-2,-1.7728916E-1,3.300232E-1,2.810694E-1,-1.14080064E-1],"split_indices":[2,1,1,2,0,2,1,2,2,2,2,0,1,0,2,1,1,1,0,2,0,0,1,1,0,2,1,2,0,1,0,0,0,0,0,0,0,0,0,0,0,0,0,0,0,0,0,0,0,0,0,0,0,0,0,0,0,0,0,0,0,0,0],"split_type":[0,0,0,0,0,0,0,0,0,0,0,0,0,0,0,0,0,0,0,0,0,0,0,0,0,0,0,0,0,0,0,0,0,0,0,0,0,0,0,0,0,0,0,0,0,0,0,0,0,0,0,0,0,0,0,0,0,0,0,0,0,0,0],"sum_hessian":[1.0526E4,5.434E3,5.092E3,3.999E3,1.435E3,3.832E3,1.26E3,3.598E3,4.01E2,1.369E3,6.6E1,3.438E3,3.94E2,7.26E2,5.34E2,3.57E3,2.8E1,1.68E2,2.33E2,1.004E3,3.65E2,5.9E1,7E0,3.337E3,1.01E2,3.14E2,8E1,6.66E2,6E1,3.56E2,1.78E2,3.495E3,7.5E1,2.2E1,6E0,4E1,1.28E2,2.05E2,2.8E1,7.9E1,9.25E2,3.26E2,3.9E1,5.4E1,5E0,6E0,1E0,1.076E3,2.261E3,1.7E1,8.4E1,9.6E1,2.18E2,6.7E1,1.3E1,6.2E1,6.04E2,1.1E1,4.9E1,3.03E2,5.3E1,1.43E2,3.5E1],"tree_param":{"num_deleted":"0","num_feature":"3","num_nodes":"63","size_leaf_vector":"1"}},{"base_weights":[-6.4017443E-4,-1.21507E-1,7.0392646E-2,-1.5054326E-2,-6.268995E-1,4.6800855E-1,3.6128584E-2,-1.17964685E-1,6.458356E-1,-5.205669E-1,-3.076743E0,9.730462E-2,1.5095725E0,-5.035874E-1,7.083041E-2,3.0254336E-2,-1.0051258E0,9.7336614E-1,-7.1041775E-1,2.9578824E0,-5.849744E-1,-4.2546277E0,1.9512727E0,-4.0703788E-1,1.1052412E0,1.9431686E0,-1.9180466E0,-3.1480405E-1,-2.416206E0,7.8943305E-2,-1.0583916E0,3.3210997E-2,-2.3142658E-1,-4.0399143E-1,3.2027194E-1,-7.7037024E-1,3.553198E-1,9.4131094E-1,-5.5972534E-1,3.6223775E-1,1.8470595E0,-6.8424845E-1,-1.3027874E-1,-2.624158E0,-6.4634275E-1,-5.5625457E-1,1.2952636E0,9.3825144E-1,-1.6827889E-1,5.4982316E-1,5.1160637E-2,3.37648E-1,8.7040824E-1,7.089519E-2,-2.0114732E0,-2.6440348E-2,-5.8472943E-1,-1.5895188E0,-4.08722E-3,1.598411E-2,1.354725E-1,-1.954086E-1,-1.3981725E0],"categories":[],"categories_nodes":[],"categories_segments":[],"categories_sizes":[],"default_left":[0,0,0,0,0,0,0,0,0,0,0,0,0,0,0,0,0,0,0,0,0,0,0,0,0,0,0,0,0,0,0,0,0,0,0,0,0,0,0,0,0,0,0,0,0,0,0,0,0,0,0,0,0,0,0,0,0,0,0,0,0,0,0],"id":9,"left_children":[1,3,5,7,9,11,13,15,17,19,21,23,25,27,29,31,33,35,37,39,41,43,45,47,49,51,53,55,57,59,61,-1,-1,-1,-1,-1,-1,-1,-1,-1,-1,-1,-1,-1,-1,-1,-1,-1,-1,-1,-1,-1,-1,-1,-1,-1,-1,-1,-1,-1,-1,-1,-1],"loss_changes":[9.038823E1,2.0965065E2,9.032341E1,2.1907617E2,1.7501611E2,2.0294795E2,1.14395744E2,3.6650458E2,1.9348058E2,1.4757925E2,1.7412976E2,1.9819618E2,2.0882306E2,1.3247441E2,5.2650852E1,1.5416165E2,2.8387067E2,2.6460507E2,3.8375244E2,5.976071E1,1.6258421E2,1.9816098E2,6.2033974E1,1.4317787E2,8.8087585E1,9.310385E1,1.6658684E2,1.246681E2,2.2844281E2,5.44649E1,5.707828E1,0E0,0E0,0E0,0E0,0E0,0E0,0E0,0E0,0E0,0E0,0E0,0E0,0E0,0E0,0E0,0E0,0E0,0E0,0E0,0E0,0E0,0E0,0E0,0E0,0E0,0E0,0E0,0E0,0E0,0E0,0E0,0E0],"parents":[2147483647,0,0,1,1,2,2,3,3,4,4,5,5,6,6,7,7,8,8,9,9,10,10,11,11,12,12,13,13,14,14,15,15,16,16,17,17,18,18,19,19,20,20,21,21,22,22,23,23,24,24,25,25,26,26,27,27,28,28,29,29,30,30],"right_children":[2,4,6,8,10,12,14,16,18,20,22,24,26,28,30,32,34,36,38,40,42,44,46,48,50,52,54,56,58,60,62,-1,-1,-1,-1,-1,-1,-1,-1,-1,-1,-1,-1,-1,-1,-1,-1,-1,-1,-1,-1,-1,-1,-1,-1,-1,-1,-1,-1,-1,-1,-1,-1],"split_conditions":[2.965E1,1.25E1,2.9695E1,1.0555555E1,2.124E3,4.48E2,2.974E1,8.333333E0,4.48E2,2.895E1,1.5E1,1.3611111E1,8.596E3,3.246E3,3.0455E1,2.959E1,2.009E3,2.9075E1,2.9405E1,1.5555555E1,2.9225E1,3.126E3,2.9575E1,5.555556E-1,2.968E1,2.9665E1,1.1944445E1,2.9725E1,6.9444447E0,3.0315E1,6.9444447E0,3.3210997E-2,-2.3142658E-1,-4.0399143E-1,3.2027194E-1,-7.7037024E-1,3.553198E-1,9.4131094E-1,-5.5972534E-1,3.6223775E-1,1.8470595E0,-6.8424845E-1,-1.3027874E-1,-2.624158E0,-6.4634275E-1,-5.5625457E-1,1.2952636E0,9.3825144E-1,-1.6827889E-1,5.4982316E-1,5.1160637E-2,3.37648E-1,8.7040824E-1,7.089519E-2,-2.0114732E0,-2.6440348E-2,-5.8472943E-1,-1.5895188E0,-4.08722E-3,1.598411E-2,1.354725E-1,-1.954086E-1,-1.3981725E0],"split_indices":[2,1,2,1,0,0,2,1,0,2,1,1,0,0,2,2,0,2,2,1,2,0,2,1,2,2,1,2,1,2,1,0,0,0,0,0,0,0,0,0,0,0,0,0,0,0,0,0,0,0,0,0,0,0,0,0,0,0,0,0,0,0,0],"split_type":[0,0,0,0,0,0,0,0,0,0,0,0,0,0,0,0,0,0,0,0,0,0,0,0,0,0,0,0,0,0,0,0,0,0,0,0,0,0,0,0,0,0,0,0,0,0,0,0,0,0,0,0,0,0,0,0,0,0,0,0,0,0,0],"sum_hessian":[1.0526E4,3.896E3,6.63E3,3.219E3,6.77E2,5.25E2,6.105E3,2.786E3,4.33E2,6.5E2,2.7E1,3.88E2,1.37E2,3.68E2,5.737E3,2.388E3,3.98E2,3.49E2,8.4E1,1.1E1,6.39E2,2.2E1,5E0,2.59E2,1.29E2,1.22E2,1.5E1,3.36E2,3.2E1,5.697E3,4E1,2.171E3,2.17E2,3.42E2,5.6E1,1.9E1,3.3E2,1.9E1,6.5E1,8E0,3E0,5.1E1,5.88E2,6E0,1.6E1,2E0,3E0,1E1,2.49E2,7.2E1,5.7E1,6.7E1,5.5E1,1.1E1,4E0,2.96E2,4E1,1.4E1,1.8E1,5.331E3,3.66E2,3.7E1,3E0],"tree_param":{"num_deleted":"0","num_feature":"3","num_nodes":"63","size_leaf_vector":"1"}},{"base_weights":[-8.7186083E-4,1.0293405E0,-3.1552156E-3,-6.729105E-1,9.954642E-3,-1.7392133E-1,-1.9707408E0,3.9890677E-1,-1.6403064E-2,-5.955005E-1,2.1248317E0,-4.399911E-1,-4.5010386E0,1.0308135E0,3.7597134E-3,-5.306479E-1,1.732622E-2,2.2423984E-1,-2.5752673E-1,1.1641912E0,-3.1128103E-1,-1.8434469E0,7.9451025E-2,-1.8070973E0,9.283534E-2,-2.7341697E-2,7.302203E-1,-1.5459508E-1,2.0995222E-1,-2.0729804E-1,1.3943117E0,1.341519E-2,-1.10234864E-1],"categories":[],"categories_nodes":[],"categories_segments":[],"categories_sizes":[],"default_left":[0,0,0,0,0,0,0,0,0,0,0,0,0,0,0,0,0,0,0,0,0,0,0,0,0,0,0,0,0,0,0,0,0],"id":10,"left_children":[1,-1,3,5,7,9,11,13,15,17,19,21,23,25,27,29,31,-1,-1,-1,-1,-1,-1,-1,-1,-1,-1,-1,-1,-1,-1,-1,-1],"loss_changes":[8.250555E1,0E0,9.238525E1,1.3047311E2,1.05806E2,1.4372398E2,2.1492172E2,1.6354707E2,1.6766704E2,4.477856E1,1.3173685E2,1.4638065E2,1.5567944E2,3.969668E2,1.4633368E2,4.9725543E2,9.563009E1,0E0,0E0,0E0,0E0,0E0,0E0,0E0,0E0,0E0,0E0,0E0,0E0,0E0,0E0,0E0,0E0],"parents":[2147483647,0,0,2,2,3,3,4,4,5,5,6,6,7,7,8,8,9,9,10,10,11,11,12,12,13,13,14,14,15,15,16,16],"right_children":[2,-1,4,6,8,10,12,14,16,18,20,22,24,26,28,30,32,-1,-1,-1,-1,-1,-1,-1,-1,-1,-1,-1,-1,-1,-1,-1,-1],"split_conditions":[2.859E1,1.0293405E0,2.8935E1,6.388889E0,2.9165E1,5E0,2.889E1,3.0555556E0,2.933E1,-5.555556E-1,2.8905E1,2.871E1,1.0555555E1,2.7777777E0,6.388889E0,1.5555555E1,1.6666666E1,2.2423984E-1,-2.5752673E-1,1.1641912E0,-3.1128103E-1,-1.8434469E0,7.9451025E-2,-1.8070973E0,9.283534E-2,-2.7341697E-2,7.302203E-1,-1.5459508E-1,2.0995222E-1,-2.0729804E-1,1.3943117E0,1.341519E-2,-1.10234864E-1],"split_indices":[2,0,2,1,2,1,2,1,2,1,2,2,1,1,1,1,1,0,0,0,0,0,0,0,0,0,0,0,0,0,0,0,0],"split_type":[0,0,0,0,0,0,0,0,0,0,0,0,0,0,0,0,0,0,0,0,0,0,0,0,0,0,0,0,0,0,0,0,0],"sum_hessian":[1.0526E4,6E0,1.052E4,2.01E2,1.0319E4,1.46E2,5.5E1,6.54E2,9.665E3,1.24E2,2.2E1,3.5E1,2E1,2.51E2,4.03E2,5.94E2,9.071E3,2E1,1.04E2,1.4E1,8E0,3E0,3.2E1,1.5E1,5E0,1.4E2,1.11E2,2.31E2,1.72E2,5.77E2,1.7E1,8.469E3,6.02E2],"tree_param":{"num_deleted":"0","num_feature":"3","num_nodes":"33","size_leaf_vector":"1"}},{"base_weights":[-5.894727E-4,-3.329753E-3,1.7998115E0,2.421022E-3,-1.4369735E0,2.3936021E0,1.0720185E0,-8.597139E-3,8.721644E-1,-2.21723E0,1.670326E0,2.8584034E0,-1.290011E-1,3.593232E-1,5.6191707E-1,1.3675893E-2,-6.718571E-1,-1.379731E0,1.0807012E0,-3.1650443E0,-2.1581687E-1,8.11818E-1,-9.025693E-2,1.2351427E0,1.1301191E0,-1.556277E-1,7.124601E-1,8.331105E-1,3.6050028E-3,-2.48002E-1,4.726103E-1,9.218214E-2,4.0139693E-1,-1.5861019E0,-5.042593E-1,4.1974714E-1,-8.269836E-1,6.751211E-1,-2.71596E-1],"categories":[],"categories_nodes":[],"categories_segments":[],"categories_sizes":[],"default_left":[0,0,0,0,0,0,0,0,0,0,0,0,0,0,0,0,0,0,0,0,0,0,0,0,0,0,0,0,0,0,0,0,0,0,0,0,0,0,0],"id":11,"left_children":[1,3,5,7,9,11,13,15,17,19,21,23,-1,25,-1,27,29,-1,31,33,35,-1,-1,37,-1,-1,-1,-1,-1,-1,-1,-1,-1,-1,-1,-1,-1,-1,-1],"loss_changes":[5.1942036E1,8.667032E1,4.348522E0,1.00350815E2,1.05532104E2,1.1728447E1,4.4650335E0,1.5277483E2,1.5443611E2,6.3813843E1,1.918872E1,5.672085E0,0E0,1.1850862E1,0E0,4.584426E1,1.1819896E2,0E0,2.48611E1,6.354883E1,5.309675E1,0E0,0E0,1.0729851E1,0E0,0E0,0E0,0E0,0E0,0E0,0E0,0E0,0E0,0E0,0E0,0E0,0E0,0E0,0E0],"parents":[2147483647,0,0,1,1,2,2,3,3,4,4,5,5,6,6,7,7,8,8,9,9,10,10,11,11,13,13,15,15,16,16,18,18,19,19,20,20,23,23],"right_children":[2,4,6,8,10,12,14,16,18,20,22,24,-1,26,-1,28,30,-1,32,34,36,-1,-1,38,-1,-1,-1,-1,-1,-1,-1,-1,-1,-1,-1,-1,-1,-1,-1],"split_conditions":[2.388889E1,2.1666666E1,2.4444445E1,1.888889E1,3.0105E1,7.83E2,2.23E2,1.7222221E1,2.9515E1,2.25E1,2.25E1,3.0045E1,-1.290011E-1,2.611111E1,5.6191707E-1,2.856E1,3.0165E1,-1.379731E0,2.9785E1,2.993E1,3.0015E1,8.11818E-1,-9.025693E-2,3.0015E1,1.1301191E0,-1.556277E-1,7.124601E-1,8.331105E-1,3.6050028E-3,-2.48002E-1,4.726103E-1,9.218214E-2,4.0139693E-1,-1.5861019E0,-5.042593E-1,4.1974714E-1,-8.269836E-1,6.751211E-1,-2.71596E-1],"split_indices":[1,1,1,1,2,0,0,1,2,1,1,2,0,1,0,2,2,0,2,2,2,0,0,2,0,0,0,0,0,0,0,0,0,0,0,0,0,0,0],"split_type":[0,0,0,0,0,0,0,0,0,0,0,0,0,0,0,0,0,0,0,0,0,0,0,0,0,0,0,0,0,0,0,0,0,0,0,0,0,0,0],"sum_hessian":[1.0526E4,1.0511E4,1.5E1,1.047E4,4.1E1,7E0,8E0,1.034E4,1.3E2,3.3E1,8E0,6E0,1E0,5E0,3E0,1.0005E4,3.35E2,4E0,1.26E2,2.2E1,1.1E1,5E0,3E0,3E0,3E0,4E0,1E0,5E0,1E4,3.14E2,2.1E1,3.2E1,9.4E1,8E0,1.4E1,7E0,4E0,2E0,1E0],"tree_param":{"num_deleted":"0","num_feature":"3","num_nodes":"39","size_leaf_vector":"1"}},{"base_weights":[-3.2494034E-4,-1.0332848E-1,4.1919522E-2,5.2531637E-2,-6.739466E-1,-5.9090084E-1,5.0503764E-2,1.404434E-1,-9.231553E-1,4.9982554E-1,-1.0404302E0,-3.7832698E-1,-1.2861122E0,6.266267E-2,-3.9005104E-1,3.8318554E-1,-2.4266957E-1,-1.3270632E0,1.1488377E0,7.82571E-1,-1.0996627E0,-9.16351E-1,-3.2720172E0,-5.061885E-1,1.5896888E0,-2.0199072E0,-3.0198047E-1,4.9408954E-2,1.4461699E0,-1.7680572E0,-3.0382416E-1,5.2723575E-2,3.4879774E-1,4.6029754E-2,-3.1784123E-1,-7.030752E-1,5.6200713E-2,6.205596E-1,-1.8108236E0,1.3587382E-1,1.7754223E0,-7.186358E-1,2.861965E-1,-3.5749158E-1,2.0920216E-1,-1.1177698E0,4.3491423E-1,-1.1483591E-1,-4.0646833E-1,-2.5995156E-1,1.054796E0,-6.9922256E-1,-2.213532E-1,6.3054734E-3,-2.6174483E-1,2.0548396E-2,-6.475613E-2,1.8079833E0,1.9359377E-1,4.1682813E-2,-3.5949218E-1],"categories":[],"categories_nodes":[],"categories_segments":[],"categories_sizes":[],"default_left":[0,0,0,0,0,0,0,0,0,0,0,0,0,0,0,0,0,0,0,0,0,0,0,0,0,0,0,0,0,0,0,0,0,0,0,0,0,0,0,0,0,0,0,0,0,0,0,0,0,0,0,0,0,0,0,0,0,0,0,0,0],"id":12,"left_children":[1,3,5,7,9,11,13,15,17,19,21,23,25,27,29,31,33,35,37,39,41,43,45,47,49,51,53,55,57,-1,59,-1,-1,-1,-1,-1,-1,-1,-1,-1,-1,-1,-1,-1,-1,-1,-1,-1,-1,-1,-1,-1,-1,-1,-1,-1,-1,-1,-1,-1,-1],"loss_changes":[4.5810776E1,2.7235928E2,4.0587273E1,2.0650276E2,2.8314056E2,1.4291801E1,3.9486988E1,2.0543182E2,1.6806654E2,7.186351E1,1.3572528E2,2.043209E1,1.59995E1,1.3140207E2,9.216977E1,2.1840625E2,2.774334E2,2.5752173E2,2.3054736E2,2.2417639E2,6.615163E1,2.1228409E2,6.1122375E1,7.2315426E0,2.6703426E1,3.4609032E0,2.0453243E0,3.5975315E1,2.4555396E2,0E0,7.779181E1,0E0,0E0,0E0,0E0,0E0,0E0,0E0,0E0,0E0,0E0,0E0,0E0,0E0,0E0,0E0,0E0,0E0,0E0,0E0,0E0,0E0,0E0,0E0,0E0,0E0,0E0,0E0,0E0,0E0,0E0],"parents":[2147483647,0,0,1,1,2,2,3,3,4,4,5,5,6,6,7,7,8,8,9,9,10,10,11,11,12,12,13,13,14,14,15,15,16,16,17,17,18,18,19,19,20,20,21,21,22,22,23,23,24,24,25,25,26,26,27,27,28,28,30,30],"right_children":[2,4,6,8,10,12,14,16,18,20,22,24,26,28,30,32,34,36,38,40,42,44,46,48,50,52,54,56,58,-1,60,-1,-1,-1,-1,-1,-1,-1,-1,-1,-1,-1,-1,-1,-1,-1,-1,-1,-1,-1,-1,-1,-1,-1,-1,-1,-1,-1,-1,-1,-1],"split_conditions":[2.9545E1,2.946E1,-2.2222223E0,1.3055555E1,4.4444447E0,4.364E3,8.596E3,2.23E2,2.942E1,5.814E3,1.638889E1,3.58E3,7.256E3,7.373E3,2.956E1,2.939E1,5E0,1.5555555E1,2.23E2,5.034E3,3.6111112E0,1.3055555E1,2.0555555E1,-2.5E0,-3.3333333E0,3.0135E1,3.0195E1,3.357E3,2.9665E1,-1.7680572E0,8.611111E0,5.2723575E-2,3.4879774E-1,4.6029754E-2,-3.1784123E-1,-7.030752E-1,5.6200713E-2,6.205596E-1,-1.8108236E0,1.3587382E-1,1.7754223E0,-7.186358E-1,2.861965E-1,-3.5749158E-1,2.0920216E-1,-1.1177698E0,4.3491423E-1,-1.1483591E-1,-4.0646833E-1,-2.5995156E-1,1.054796E0,-6.9922256E-1,-2.213532E-1,6.3054734E-3,-2.6174483E-1,2.0548396E-2,-6.475613E-2,1.8079833E0,1.9359377E-1,4.1682813E-2,-3.5949218E-1],"split_indices":[2,2,1,1,1,0,0,0,2,0,1,0,0,0,2,2,1,1,0,0,1,1,1,1,1,2,2,0,2,0,1,0,0,0,0,0,0,0,0,0,0,0,0,0,0,0,0,0,0,0,0,0,0,0,0,0,0,0,0,0,0],"split_type":[0,0,0,0,0,0,0,0,0,0,0,0,0,0,0,0,0,0,0,0,0,0,0,0,0,0,0,0,0,0,0,0,0,0,0,0,0,0,0,0,0,0,0,0,0,0,0,0,0,0,0,0,0,0,0,0,0,0,0,0,0],"sum_hessian":[1.0526E4,3.061E3,7.465E3,2.405E3,6.56E2,9.9E1,7.366E3,2.207E3,1.98E2,1.56E2,5E2,7.7E1,2.2E1,7.169E3,1.97E2,1.351E3,8.56E2,1.66E2,3.2E1,1.33E2,2.3E1,4.75E2,2.5E1,7.3E1,4E0,1.2E1,1E1,7.102E3,6.7E1,2E0,1.95E2,1.068E3,2.83E2,5.77E2,2.79E2,9.9E1,6.7E1,2.9E1,3E0,1.26E2,7E0,1.4E1,9E0,4.06E2,6.9E1,2.3E1,2E0,6.5E1,8E0,2E0,2E0,9E0,3E0,7E0,3E0,6.626E3,4.76E2,9E0,5.8E1,1.31E2,6.4E1],"tree_param":{"num_deleted":"0","num_feature":"3","num_nodes":"61","size_leaf_vector":"1"}},{"base_weights":[-4.2603194E-4,-4.2036963E-1,8.037989E-3,-5.640739E-1,2.8197663E0,2.9274613E-1,-1.1507416E-2,-7.473892E-2,-2.2006576E0,-2.0820682E-1,3.7146451E0,3.5684508E-1,-3.5390146E0,-3.449248E-1,1.0067487E-2,-1.0248044E0,6.413186E-1,1.0034579E0,-4.113534E0,-1.5916872E-1,6.547566E-2,1.8275661E0,1.5453713E0,-5.6795216E-1,4.85115E-1,6.278974E-1,-4.3115144E0,-4.6126178E-1,3.3582418E0,7.0207137E-1,-6.170175E-3,-5.663944E-1,9.717047E-2,4.488992E-1,-2.3573966E-1,-9.638068E-1,5.193808E-1,-9.4759536E-1,-1.4733015E0,-6.6117865E-1,1.4338642E0,-2.1093544E-2,-4.3220648E-1,3.701444E-1,4.6903837E-2,-1.5840448E0,-4.6155742E-1,1.6047925E-1,-2.4743803E-1,1.2032344E0,4.1540977E-1,-9.974044E-2,5.279781E-1,-5.844595E-2,8.761686E-3],"categories":[],"categories_nodes":[],"categories_segments":[],"categories_sizes":[],"default_left":[0,0,0,0,0,0,0,0,0,0,0,0,0,0,0,0,0,0,0,0,0,0,0,0,0,0,0,0,0,0,0,0,0,0,0,0,0,0,0,0,0,0,0,0,0,0,0,0,0,0,0,0,0,0,0],"id":13,"left_children":[1,3,5,7,9,11,13,15,17,19,21,23,25,27,29,31,33,35,37,-1,-1,-1,39,41,43,-1,45,47,49,51,53,-1,-1,-1,-1,-1,-1,-1,-1,-1,-1,-1,-1,-1,-1,-1,-1,-1,-1,-1,-1,-1,-1,-1,-1],"loss_changes":[3.7420666E1,9.843979E1,5.743144E1,1.6000305E2,2.5160446E1,1.6410355E2,6.94778E1,1.0610396E2,2.860653E2,5.282107E-1,2.668399E1,7.7736786E1,5.6881927E1,2.5443756E2,1.0194209E2,7.861103E1,1.0977385E2,6.079611E1,6.571045E0,0E0,0E0,0E0,7.116326E1,3.4643394E1,1.4109671E2,0E0,1.8736496E1,2.0686526E2,1.7626938E1,2.282189E2,5.9167427E1,0E0,0E0,0E0,0E0,0E0,0E0,0E0,0E0,0E0,0E0,0E0,0E0,0E0,0E0,0E0,0E0,0E0,0E0,0E0,0E0,0E0,0E0,0E0,0E0],"parents":[2147483647,0,0,1,1,2,2,3,3,4,4,5,5,6,6,7,7,8,8,9,9,10,10,11,11,12,12,13,13,14,14,15,15,16,16,17,17,18,18,22,22,23,23,24,24,26,26,27,27,28,28,29,29,30,30],"right_children":[2,4,6,8,10,12,14,16,18,20,22,24,26,28,30,32,34,36,38,-1,-1,-1,40,42,44,-1,46,48,50,52,54,-1,-1,-1,-1,-1,-1,-1,-1,-1,-1,-1,-1,-1,-1,-1,-1,-1,-1,-1,-1,-1,-1,-1,-1],"split_conditions":[2.8935E1,1.2777778E1,2.918E1,6.9444447E0,2.883E1,1.5833333E1,2.933E1,1.3888888E0,2.8815E1,2.23E2,2.886E1,1.3888888E0,2.895E1,1.5555555E1,2.936E1,2.8875E1,2.889E1,8.611111E0,1E1,-1.5916872E-1,6.547566E-2,1.8275661E0,1.5555555E1,2.345E3,3.0555556E0,6.278974E-1,2.9015E1,2.5E0,2.93E1,8.055555E0,2.9545E1,-5.663944E-1,9.717047E-2,4.488992E-1,-2.3573966E-1,-9.638068E-1,5.193808E-1,-9.4759536E-1,-1.4733015E0,-6.6117865E-1,1.4338642E0,-2.1093544E-2,-4.3220648E-1,3.701444E-1,4.6903837E-2,-1.5840448E0,-4.6155742E-1,1.6047925E-1,-2.4743803E-1,1.2032344E0,4.1540977E-1,-9.974044E-2,5.279781E-1,-5.844595E-2,8.761686E-3],"split_indices":[2,1,2,1,2,1,2,1,2,0,2,1,2,1,2,2,2,1,1,0,0,0,1,0,1,0,2,1,2,1,2,0,0,0,0,0,0,0,0,0,0,0,0,0,0,0,0,0,0,0,0,0,0,0,0],"split_type":[0,0,0,0,0,0,0,0,0,0,0,0,0,0,0,0,0,0,0,0,0,0,0,0,0,0,0,0,0,0,0,0,0,0,0,0,0,0,0,0,0,0,0,0,0,0,0,0,0,0,0,0,0,0,0],"sum_hessian":[1.0526E4,2.07E2,1.0319E4,1.99E2,8E0,6.62E2,9.657E3,1.54E2,4.5E1,2E0,6E0,6.52E2,1E1,5.86E2,9.071E3,6.6E1,8.8E1,1.7E1,2.8E1,1E0,1E0,2E0,4E0,7.9E1,5.73E2,1E0,9E0,5.69E2,1.7E1,2.07E2,8.864E3,4E1,2.6E1,5.5E1,3.3E1,2E0,1.5E1,1.5E1,1.3E1,2E0,2E0,5.1E1,2.8E1,1.74E2,3.99E2,6E0,3E0,1.52E2,4.17E2,1.2E1,5E0,1.05E2,1.02E2,1.399E3,7.465E3],"tree_param":{"num_deleted":"0","num_feature":"3","num_nodes":"55","size_leaf_vector":"1"}},{"base_weights":[-3.1328102E-4,-2.4295605E-3,1.3901019E0,1.7837088E-3,-1.1339002E0,1.5376817E0,2.3802908E-1,-6.2582227E-3,6.223795E-1,-1.7816852E0,1.2233484E0,2.1948514E0,7.7044785E-1,-1.14047445E-1,2.2116053E-1,9.300638E-3,-4.5439816E-1,-8.594648E-1,7.517174E-1,-2.6344867E0,-2.118757E-1,6.0153604E-1,-7.65439E-2,9.4349873E-1,8.692475E-1,3.0794555E-1,6.011946E-1,3.816874E-3,-2.465614E-1,-2.6107413E-1,2.926552E-2,5.4975325E-1,1.5800373E-1,-9.2830205E-1,3.0083913E-1,1.2139525E0,-2.9005978E-1,5.342349E-1,-2.3525313E-1,-1.2531143E-1,4.2441428E-1],"categories":[],"categories_nodes":[],"categories_segments":[],"categories_sizes":[],"default_left":[0,0,0,0,0,0,0,0,0,0,0,0,0,0,0,0,0,0,0,0,0,0,0,0,0,0,0,0,0,0,0,0,0,0,0,0,0,0,0,0,0],"id":14,"left_children":[1,3,5,7,9,11,13,15,17,19,21,23,25,-1,-1,27,29,-1,31,33,35,-1,-1,37,-1,39,-1,-1,-1,-1,-1,-1,-1,-1,-1,-1,-1,-1,-1,-1,-1],"loss_changes":[3.0979149E1,5.0114727E1,2.354351E0,5.2277416E1,6.1732243E1,5.3678207E0,1.2059999E0,7.210734E1,6.25923E1,4.0942627E1,1.0914208E1,3.4209747E0,3.9469824E0,0E0,0E0,2.8441223E1,7.973101E1,0E0,3.065345E1,3.6555344E1,4.249289E1,0E0,0E0,7.1826715E0,0E0,6.2128224E0,0E0,0E0,0E0,0E0,0E0,0E0,0E0,0E0,0E0,0E0,0E0,0E0,0E0,0E0,0E0],"parents":[2147483647,0,0,1,1,2,2,3,3,4,4,5,5,6,6,7,7,8,8,9,9,10,10,11,11,12,12,15,15,16,16,18,18,19,19,20,20,23,23,25,25],"right_children":[2,4,6,8,10,12,14,16,18,20,22,24,26,-1,-1,28,30,-1,32,34,36,-1,-1,38,-1,40,-1,-1,-1,-1,-1,-1,-1,-1,-1,-1,-1,-1,-1,-1,-1],"split_conditions":[2.388889E1,2.2222221E1,7.83E2,1.888889E1,3.0105E1,2.4444445E1,2.4444445E1,1.6944445E1,2.9515E1,2.25E1,2.25E1,3.0045E1,2.611111E1,-1.14047445E-1,2.2116053E-1,3.0455E1,2.9875E1,-8.594648E-1,2.971E1,2.23E2,2.98E1,6.0153604E-1,-7.65439E-2,3.0015E1,8.692475E-1,2.23E2,6.011946E-1,3.816874E-3,-2.465614E-1,-2.6107413E-1,2.926552E-2,5.4975325E-1,1.5800373E-1,-9.2830205E-1,3.0083913E-1,1.2139525E0,-2.9005978E-1,5.342349E-1,-2.3525313E-1,-1.2531143E-1,4.2441428E-1],"split_indices":[1,1,0,1,2,1,1,1,2,1,1,2,1,0,0,2,2,0,2,0,2,0,0,2,0,0,0,0,0,0,0,0,0,0,0,0,0,0,0,0,0],"split_type":[0,0,0,0,0,0,0,0,0,0,0,0,0,0,0,0,0,0,0,0,0,0,0,0,0,0,0,0,0,0,0,0,0,0,0,0,0,0,0,0,0],"sum_hessian":[1.0526E4,1.0511E4,1.5E1,1.0473E4,3.8E1,1.3E1,2E0,1.034E4,1.33E2,3E1,8E0,6E0,7E0,1E0,1E0,9.994E3,3.46E2,4E0,1.29E2,1.9E1,1.1E1,5E0,3E0,3E0,3E0,6E0,1E0,9.954E3,4E1,1.97E2,1.49E2,2.1E1,1.08E2,1.7E1,2E0,1E0,1E1,2E0,1E0,4E0,2E0],"tree_param":{"num_deleted":"0","num_feature":"3","num_nodes":"41","size_leaf_vector":"1"}},{"base_weights":[5.9000836E-6,-1.0029679E-2,2.2166893E-1,9.34806E-3,-9.7641927E-1,1.1354604E0,-1.8676859E-1,2.7311945E-3,1.3929187E0,6.7012614E-1,-1.8047687E0,-4.0442988E-1,1.5037189E0,1.0043002E-1,-9.438825E-1,6.0916417E-3,-2.7469025E0,2.4111824E0,1.739314E-2,-8.894052E-3,2.519064E0,-2.6584828E0,-2.0425402E-1,4.9591702E-1,-5.9304905E0,3.0438383E0,3.3751315E-1,-6.985833E-1,4.9155635E-1,-1.5164398E0,5.367172E-1,-6.455689E-3,5.620281E-2,6.591206E-1,-1.6480566E0,4.3382636E-1,2.2796865E0,8.492648E-1,-3.8901845E-1,1.4475921E-1,-6.9036645E-1,1.1140691E0,-7.7702266E-1,-1.224532E0,-3.8737353E-2,1.6835967E-1,-1.0495566E0,-3.799786E-1,6.660846E-1,-5.023024E-1,-2.8048408E0,1.0433594E0,-1.431155E0,-1.5391915E0,2.03802E-1,2.2635585E-1,-3.116619E-1,5.955421E-1,1.1815465E-2,-2.6401937E-1,-9.5598847E-1,4.4959304E-1,-5.08412E-1],"categories":[],"categories_nodes":[],"categories_segments":[],"categories_sizes":[],"default_left":[0,0,0,0,0,0,0,0,0,0,0,0,0,0,0,0,0,0,0,0,0,0,0,0,0,0,0,0,0,0,0,0,0,0,0,0,0,0,0,0,0,0,0,0,0,0,0,0,0,0,0,0,0,0,0,0,0,0,0,0,0,0,0],"id":15,"left_children":[1,3,5,7,9,11,13,15,17,19,21,23,25,27,29,31,33,35,37,39,41,43,45,47,49,51,53,55,57,59,61,-1,-1,-1,-1,-1,-1,-1,-1,-1,-1,-1,-1,-1,-1,-1,-1,-1,-1,-1,-1,-1,-1,-1,-1,-1,-1,-1,-1,-1,-1,-1,-1],"loss_changes":[2.3419714E1,1.886219E2,1.7040346E2,9.040084E1,2.7126453E2,8.056607E1,6.8806496E1,9.083669E1,6.578851E1,8.413863E1,1.7981943E2,1.4225145E2,2.0372766E2,7.222188E1,7.4566246E1,4.9137733E1,1.7502011E2,1.24191895E2,8.131347E1,5.7435722E1,1.19469986E2,3.0907404E2,1.2047889E2,7.879254E1,4.2552536E1,1.8278125E2,1.2685008E2,3.8364014E1,1.04602005E2,6.415617E1,5.6201385E1,0E0,0E0,0E0,0E0,0E0,0E0,0E0,0E0,0E0,0E0,0E0,0E0,0E0,0E0,0E0,0E0,0E0,0E0,0E0,0E0,0E0,0E0,0E0,0E0,0E0,0E0,0E0,0E0,0E0,0E0,0E0,0E0],"parents":[2147483647,0,0,1,1,2,2,3,3,4,4,5,5,6,6,7,7,8,8,9,9,10,10,11,11,12,12,13,13,14,14,15,15,16,16,17,17,18,18,19,19,20,20,21,21,22,22,23,23,24,24,25,25,26,26,27,27,28,28,29,29,30,30],"right_children":[2,4,6,8,10,12,14,16,18,20,22,24,26,28,30,32,34,36,38,40,42,44,46,48,50,52,54,56,58,60,62,-1,-1,-1,-1,-1,-1,-1,-1,-1,-1,-1,-1,-1,-1,-1,-1,-1,-1,-1,-1,-1,-1,-1,-1,-1,-1,-1,-1,-1,-1,-1,-1],"split_conditions":[7.041E3,5.917E3,8.26E3,5.591E3,2.7777777E0,2.9315E1,8.611111E0,5.585E3,2.9545E1,2.9985E1,6.388889E0,2.93E1,2.9665E1,2.7777777E0,2.993E1,1.451E3,-5.555556E-1,2.95E1,1.3888888E0,2.9875E1,3.0255E1,2.9665E1,1.1944445E1,1.3888888E0,7.373E3,1.2777778E1,2.9725E1,-1.1111112E0,2.9435E1,2.983E1,1.1111111E1,-6.455689E-3,5.620281E-2,6.591206E-1,-1.6480566E0,4.3382636E-1,2.2796865E0,8.492648E-1,-3.8901845E-1,1.4475921E-1,-6.9036645E-1,1.1140691E0,-7.7702266E-1,-1.224532E0,-3.8737353E-2,1.6835967E-1,-1.0495566E0,-3.799786E-1,6.660846E-1,-5.023024E-1,-2.8048408E0,1.0433594E0,-1.431155E0,-1.5391915E0,2.03802E-1,2.2635585E-1,-3.116619E-1,5.955421E-1,1.1815465E-2,-2.6401937E-1,-9.5598847E-1,4.4959304E-1,-5.08412E-1],"split_indices":[0,0,0,0,1,2,1,0,2,2,1,2,2,1,2,0,1,2,1,2,2,2,1,1,0,1,2,1,2,2,1,0,0,0,0,0,0,0,0,0,0,0,0,0,0,0,0,0,0,0,0,0,0,0,0,0,0,0,0,0,0,0,0],"split_type":[0,0,0,0,0,0,0,0,0,0,0,0,0,0,0,0,0,0,0,0,0,0,0,0,0,0,0,0,0,0,0,0,0,0,0,0,0,0,0,0,0,0,0,0,0,0,0,0,0,0,0,0,0,0,0,0,0,0,0,0,0,0,0],"sum_hessian":[1.0526E4,1.0071E4,4.55E2,9.874E3,1.97E2,1.4E2,3.15E2,9.828E3,4.6E1,6.6E1,1.31E2,2.7E1,1.13E2,2.29E2,8.6E1,9.817E3,1.1E1,2.6E1,2E1,4.9E1,1.7E1,8.5E1,4.6E1,2.4E1,3E0,4.8E1,6.5E1,7.5E1,1.54E2,6.2E1,2.4E1,8.52E3,1.297E3,4E0,7E0,2.3E1,3E0,6E0,1.4E1,4.1E1,8E0,1.4E1,3E0,5.4E1,3.1E1,3.8E1,8E0,1.2E1,1.2E1,2E0,1E0,4.6E1,2E0,3E0,6.2E1,1.4E1,6.1E1,3.5E1,1.19E2,4.6E1,1.6E1,1.7E1,7E0],"tree_param":{"num_deleted":"0","num_feature":"3","num_nodes":"63","size_leaf_vector":"1"}},{"base_weights":[-5.296836E-4,-2.2277012E-3,1.115101E0,1.5476687E-3,-6.1858106E-1,1.2301236E0,2.0662849E-1,-3.0832977E-3,1.1223133E0,8.445434E-1,-1.0451467E0,1.7088194E0,6.574994E-1,-9.597198E-2,1.889548E-1,-7.24617E-3,4.488618E-1,-6.51644E-1,1.5159026E0,-2.819538E0,2.958538E0,-2.7137322E0,-5.049372E-1,7.4003625E-1,6.7511934E-1,2.6382422E-1,5.119838E-1,6.1388695E-5,-1.5060586E-1,5.569675E-1,-9.9102154E-2,5.494864E-1,-2.9919213E-1,-1.1265972E0,-4.2384434E-1,1.7748132E0,2.580762E-4,-5.8346343E-1,-1.1295664E0,-2.3653701E-1,3.5574886E-1,-7.689288E-2,5.593611E-1,-9.368735E-2,3.4082255E-1],"categories":[],"categories_nodes":[],"categories_segments":[],"categories_sizes":[],"default_left":[0,0,0,0,0,0,0,0,0,0,0,0,0,0,0,0,0,0,0,0,0,0,0,0,0,0,0,0,0,0,0,0,0,0,0,0,0,0,0,0,0,0,0,0,0],"id":16,"left_children":[1,3,5,7,9,11,13,15,17,19,21,23,25,-1,-1,27,29,-1,31,33,35,37,39,41,-1,43,-1,-1,-1,-1,-1,-1,-1,-1,-1,-1,-1,-1,-1,-1,-1,-1,-1,-1,-1],"loss_changes":[1.994442E1,2.446198E1,1.4177399E0,5.4236156E1,4.082627E1,2.7140293E0,8.700148E-1,1.9582876E1,5.904933E1,1.24529434E2,4.369903E1,2.007328E0,2.8538327E0,0E0,0E0,3.8018536E1,1.04816925E2,0E0,3.277188E1,2.5927734E0,8.74684E1,2.378395E0,1.9630222E1,4.959465E0,0E0,3.872406E0,0E0,0E0,0E0,0E0,0E0,0E0,0E0,0E0,0E0,0E0,0E0,0E0,0E0,0E0,0E0,0E0,0E0,0E0,0E0],"parents":[2147483647,0,0,1,1,2,2,3,3,4,4,5,5,6,6,7,7,8,8,9,9,10,10,11,11,12,12,15,15,16,16,18,18,19,19,20,20,21,21,22,22,23,23,25,25],"right_children":[2,4,6,8,10,12,14,16,18,20,22,24,26,-1,-1,28,30,-1,32,34,36,38,40,42,-1,44,-1,-1,-1,-1,-1,-1,-1,-1,-1,-1,-1,-1,-1,-1,-1,-1,-1,-1,-1],"split_conditions":[2.388889E1,2.111111E1,7.83E2,2E1,2.9875E1,2.4444445E1,2.4444445E1,1.3062E4,2.9515E1,2.9785E1,2.993E1,3.0045E1,2.611111E1,-9.597198E-2,1.889548E-1,9.162E3,1.7192E4,-6.51644E-1,2.23E2,2.1666666E1,2.1666666E1,2.1666666E1,2.23E2,2.23E2,6.7511934E-1,2.23E2,5.119838E-1,6.1388695E-5,-1.5060586E-1,5.569675E-1,-9.9102154E-2,5.494864E-1,-2.9919213E-1,-1.1265972E0,-4.2384434E-1,1.7748132E0,2.580762E-4,-5.8346343E-1,-1.1295664E0,-2.3653701E-1,3.5574886E-1,-7.689288E-2,5.593611E-1,-9.368735E-2,3.4082255E-1],"split_indices":[1,1,0,1,2,1,1,0,2,2,2,2,1,0,0,0,0,0,0,1,1,1,0,0,0,0,0,0,0,0,0,0,0,0,0,0,0,0,0,0,0,0,0,0,0],"split_type":[0,0,0,0,0,0,0,0,0,0,0,0,0,0,0,0,0,0,0,0,0,0,0,0,0,0,0,0,0,0,0,0,0,0,0,0,0,0,0,0,0,0,0,0,0],"sum_hessian":[1.0526E4,1.0511E4,1.5E1,1.0448E4,6.3E1,1.3E1,2E0,1.0406E4,4.2E1,1.4E1,4.9E1,6E0,7E0,1E0,1E0,1.0312E4,9.4E1,4E0,3.8E1,5E0,9E0,1.1E1,3.8E1,3E0,3E0,6E0,1E0,1.016E4,1.52E2,3.3E1,6.1E1,3.4E1,4E0,2E0,3E0,4E0,5E0,8E0,3E0,3.3E1,5E0,2E0,1E0,4E0,2E0],"tree_param":{"num_deleted":"0","num_feature":"3","num_nodes":"45","size_leaf_vector":"1"}},{"base_weights":[-3.188398E-4,-3.051069E-1,5.8242064E-3,-4.1876972E-1,2.2546341E0,5.092281E-1,-2.909644E-3,-4.9285024E-2,-1.5877777E0,-1.7525704E-1,2.9739254E0,9.4763935E-1,-2.4483616E0,-8.4177005E-1,3.8415338E-3,-2.4321353E-1,2.748214E0,4.457416E-1,-2.525612E0,-1.3490668E-1,5.6041006E-2,1.4625683E0,1.238359E0,-1.9969193E-2,2.0215607E0,-4.1258225E0,-1.4566084E0,-1.7731702E0,8.0071586E-1,2.8397113E-1,-7.992874E-3,-2.1962897E-1,5.3952765E-2,1.4498104E0,-9.0843946E-2,-1.6860118E0,5.1411396E-1,1.1283803E0,-8.518851E-1,-5.2842736E-1,1.147607E0,-3.2637763E-1,4.796255E-1,1.259756E0,9.4285496E-2,-2.669704E-1,-2.1417809E0,-7.3256497E-3,-8.6572367E-1,9.3990244E-4,-1.0254035E0,1.9438787E0,4.910027E-2,-1.7552587E-1,1.6379943E-1,-7.43458E-2,2.2577632E-3],"categories":[],"categories_nodes":[],"categories_segments":[],"categories_sizes":[],"default_left":[0,0,0,0,0,0,0,0,0,0,0,0,0,0,0,0,0,0,0,0,0,0,0,0,0,0,0,0,0,0,0,0,0,0,0,0,0,0,0,0,0,0,0,0,0,0,0,0,0,0,0,0,0,0,0,0,0],"id":17,"left_children":[1,3,5,7,9,11,13,15,17,19,21,23,25,27,29,31,33,35,37,-1,-1,-1,39,41,43,45,47,49,51,53,55,-1,-1,-1,-1,-1,-1,-1,-1,-1,-1,-1,-1,-1,-1,-1,-1,-1,-1,-1,-1,-1,-1,-1,-1,-1,-1],"loss_changes":[1.9711765E1,6.1461224E1,4.5374954E1,8.630786E1,1.6251396E1,2.305289E2,5.745737E1,8.367318E1,9.266679E1,3.820861E-1,1.7061573E1,1.6006723E2,3.2253708E1,1.2533453E2,3.3369434E1,2.9914454E1,6.506166E1,1.3269092E2,7.582617E1,0E0,0E0,0E0,4.5540237E1,1.4349461E2,2.7008023E2,7.165697E1,3.267826E1,1.5194102E2,1.07471115E2,9.322778E1,3.5947075E1,0E0,0E0,0E0,0E0,0E0,0E0,0E0,0E0,0E0,0E0,0E0,0E0,0E0,0E0,0E0,0E0,0E0,0E0,0E0,0E0,0E0,0E0,0E0,0E0,0E0,0E0],"parents":[2147483647,0,0,1,1,2,2,3,3,4,4,5,5,6,6,7,7,8,8,9,9,10,10,11,11,12,12,13,13,14,14,15,15,16,16,17,17,18,18,22,22,23,23,24,24,25,25,26,26,27,27,28,28,29,29,30,30],"right_children":[2,4,6,8,10,12,14,16,18,20,22,24,26,28,30,32,34,36,38,-1,-1,-1,40,42,44,46,48,50,52,54,56,-1,-1,-1,-1,-1,-1,-1,-1,-1,-1,-1,-1,-1,-1,-1,-1,-1,-1,-1,-1,-1,-1,-1,-1,-1,-1],"split_conditions":[2.8935E1,1.2777778E1,2.9015E1,6.388889E0,2.883E1,7.7777777E0,2.906E1,6.111111E0,2.8785E1,2.23E2,2.886E1,5E0,1.0555555E1,6.111111E0,2.918E1,1.3888888E0,2.889E1,7.5E0,6.9444447E0,-1.3490668E-1,5.6041006E-2,1.4625683E0,1.5555555E1,2.899E1,6.111111E0,8.055555E0,1.5555555E1,3.6111112E0,2.903E1,2.7777777E0,2.933E1,-2.1962897E-1,5.3952765E-2,1.4498104E0,-9.0843946E-2,-1.6860118E0,5.1411396E-1,1.1283803E0,-8.518851E-1,-5.2842736E-1,1.147607E0,-3.2637763E-1,4.796255E-1,1.259756E0,9.4285496E-2,-2.669704E-1,-2.1417809E0,-7.3256497E-3,-8.6572367E-1,9.3990244E-4,-1.0254035E0,1.9438787E0,4.910027E-2,-1.7552587E-1,1.6379943E-1,-7.43458E-2,2.2577632E-3],"split_indices":[2,1,2,1,2,1,2,1,2,0,2,1,1,1,2,1,2,1,1,0,0,0,1,2,1,1,1,1,2,1,2,0,0,0,0,0,0,0,0,0,0,0,0,0,0,0,0,0,0,0,0,0,0,0,0,0,0],"split_type":[0,0,0,0,0,0,0,0,0,0,0,0,0,0,0,0,0,0,0,0,0,0,0,0,0,0,0,0,0,0,0,0,0,0,0,0,0,0,0,0,0,0,0,0,0,0,0,0,0,0,0,0,0,0,0,0,0],"sum_hessian":[1.0526E4,2.07E2,1.0319E4,1.99E2,8E0,1.75E2,1.0144E4,1.52E2,4.7E1,2E0,6E0,1.53E2,2.2E1,8E1,1.0064E4,1.43E2,9E0,1.5E1,3.2E1,1E0,1E0,2E0,4E0,8.1E1,7.2E1,7E0,1.5E1,5.1E1,2.9E1,4.07E2,9.657E3,6.6E1,7.7E1,5E0,4E0,2E0,1.3E1,1E0,3.1E1,2E0,2E0,4.9E1,3.2E1,3.1E1,4.1E1,4E0,3E0,8E0,7E0,2.5E1,2.6E1,2E0,2.7E1,9.4E1,3.13E2,5.86E2,9.071E3],"tree_param":{"num_deleted":"0","num_feature":"3","num_nodes":"57","size_leaf_vector":"1"}},{"base_weights":[-8.916927E-5,-1.5643556E-2,1.1421899E-1,4.6660483E-2,-7.497806E-2,-1.6883725E-2,8.7202704E-1,-2.250953E-2,2.7705E-1,-4.8862484E-1,-8.881342E-3,-1.5033115E-1,3.9208305E-1,2.1038575E0,3.5215807E-1,4.7982853E-2,-1.6655825E-1,-1.6876782E0,3.2493347E-1,-1.0523642E0,-1.4167969E-1,1.029858E-2,-7.672548E-1,-4.756785E-1,2.081916E-1,1.412956E0,1.836989E-2,2.2822042E0,-7.406139E-1,8.7855786E-1,-6.1853427E-1,4.271232E-3,3.4205002E-1,-1.799322E-3,-3.1639594E-1,-7.998951E-1,2.1756567E-1,5.767277E-1,6.904167E-2,1.276581E-1,-6.293702E-1,2.0475803E-1,-1.7918512E-1,-2.841499E-2,5.554608E-2,-7.61669E-1,2.8530055E-1,2.1228328E-2,-3.5233432E-1,-2.4044567E-1,1.0503658E-1,1.8410493E-1,9.1629666E-1,6.483572E-2,-6.194679E-1,5.775689E-1,1.0766926E0,5.5092696E-2,-3.3297402E-1,1.4045347E-1,6.3794583E-1,-5.6305137E-2,-4.5755094E-1],"categories":[],"categories_nodes":[],"categories_segments":[],"categories_sizes":[],"default_left":[0,0,0,0,0,0,0,0,0,0,0,0,0,0,0,0,0,0,0,0,0,0,0,0,0,0,0,0,0,0,0,0,0,0,0,0,0,0,0,0,0,0,0,0,0,0,0,0,0,0,0,0,0,0,0,0,0,0,0,0,0,0,0],"id":18,"left_children":[1,3,5,7,9,11,13,15,17,19,21,23,25,27,29,31,33,35,37,39,41,43,45,47,49,51,53,55,57,59,61,-1,-1,-1,-1,-1,-1,-1,-1,-1,-1,-1,-1,-1,-1,-1,-1,-1,-1,-1,-1,-1,-1,-1,-1,-1,-1,-1,-1,-1,-1,-1,-1],"loss_changes":[1.8718721E1,3.426155E1,1.25295944E2,7.205309E1,1.2978195E2,5.878225E1,1.18371735E2,3.532478E1,9.8765854E1,1.2776457E2,5.9557358E1,9.4814316E1,1.0107515E2,2.9591843E1,6.799175E1,8.607983E1,1.6297742E2,6.096752E1,1.5401984E2,3.856448E2,1.5286545E2,7.335711E1,3.0987216E2,1.6274486E2,5.5739185E1,9.127045E1,8.0779144E1,1.7347565E1,1.5691366E0,4.304711E1,1.8073095E1,0E0,0E0,0E0,0E0,0E0,0E0,0E0,0E0,0E0,0E0,0E0,0E0,0E0,0E0,0E0,0E0,0E0,0E0,0E0,0E0,0E0,0E0,0E0,0E0,0E0,0E0,0E0,0E0,0E0,0E0,0E0,0E0],"parents":[2147483647,0,0,1,1,2,2,3,3,4,4,5,5,6,6,7,7,8,8,9,9,10,10,11,11,12,12,13,13,14,14,15,15,16,16,17,17,18,18,19,19,20,20,21,21,22,22,23,23,24,24,25,25,26,26,27,27,28,28,29,29,30,30],"right_children":[2,4,6,8,10,12,14,16,18,20,22,24,26,28,30,32,34,36,38,40,42,44,46,48,50,52,54,56,58,60,62,-1,-1,-1,-1,-1,-1,-1,-1,-1,-1,-1,-1,-1,-1,-1,-1,-1,-1,-1,-1,-1,-1,-1,-1,-1,-1,-1,-1,-1,-1,-1,-1],"split_conditions":[3.018E1,8.333333E0,1.1944445E1,6.6666665E0,1E1,2.23E2,1.25E1,2.9755E1,2.8965E1,2.9635E1,3.0135E1,3.0285E1,1.34E3,1.229E3,3.024E1,2.974E1,6.111111E0,7.5E0,2.9165E1,2.936E1,2.9845E1,2.986E1,1.3611111E1,3.0225E1,1.1111112E0,1.004E3,1.0555555E1,3.0345E1,3.0195E1,1.638889E1,1.5555555E1,4.271232E-3,3.4205002E-1,-1.799322E-3,-3.1639594E-1,-7.998951E-1,2.1756567E-1,5.767277E-1,6.904167E-2,1.276581E-1,-6.293702E-1,2.0475803E-1,-1.7918512E-1,-2.841499E-2,5.554608E-2,-7.61669E-1,2.8530055E-1,2.1228328E-2,-3.5233432E-1,-2.4044567E-1,1.0503658E-1,1.8410493E-1,9.1629666E-1,6.483572E-2,-6.194679E-1,5.775689E-1,1.0766926E0,5.5092696E-2,-3.3297402E-1,1.4045347E-1,6.3794583E-1,-5.6305137E-2,-4.5755094E-1],"split_indices":[2,1,1,1,1,0,1,2,2,2,2,2,0,0,2,2,1,1,2,2,2,2,1,2,1,0,1,2,2,1,1,0,0,0,0,0,0,0,0,0,0,0,0,0,0,0,0,0,0,0,0,0,0,0,0,0,0,0,0,0,0,0,0],"split_type":[0,0,0,0,0,0,0,0,0,0,0,0,0,0,0,0,0,0,0,0,0,0,0,0,0,0,0,0,0,0,0,0,0,0,0,0,0,0,0,0,0,0,0,0,0,0,0,0,0,0,0,0,0,0,0,0,0,0,0,0,0,0,0],"sum_hessian":[1.0526E4,9.266E3,1.26E3,4.52E3,4.746E3,1.075E3,1.85E2,3.477E3,1.043E3,6.53E2,4.093E3,8.11E2,2.64E2,5.4E1,1.31E2,2.335E3,1.142E3,2.4E1,1.019E3,2.48E2,4.05E2,3.993E3,1E2,4.25E2,3.86E2,7E1,1.94E2,5.1E1,3E0,8.5E1,4.6E1,2.266E3,6.9E1,9.68E2,1.74E2,1.7E1,7E0,5.6E1,9.63E2,1.03E2,1.45E2,1.44E2,2.61E2,2.495E3,1.498E3,4.9E1,5.1E1,2.39E2,1.86E2,4.7E1,3.39E2,4.8E1,2.2E1,1.78E2,1.6E1,4.2E1,9E0,1E0,2E0,6.5E1,2E1,3.2E1,1.4E1],"tree_param":{"num_deleted":"0","num_feature":"3","num_nodes":"63","size_leaf_vector":"1"}},{"base_weights":[2.1793334E-5,2.7516088E-3,-6.9821227E-1,-1.6391907E-2,9.422762E-2,-3.8097143E-1,-1.0612342E0,-2.7340537E-2,2.2799495E-1,-8.790809E-2,2.6200113E-1,2.3541112E-1,-1.4544423E0,-7.518787E-3,-9.5869017E-1,1.0011827E0,-1.262666E-1,2.8556028E-1,-2.6908454E-1,9.365271E-2,1.069086E0,3.118581E-1,-2.3989743E-1,-9.088945E-1,1.05668046E-1,-4.0467037E-3,3.6008888E-1,2.50967E-2,-6.687859E-1,1.9924824E-1,8.113651E-1,4.8238743E-2,-2.5442746E-1,-1.6715837E-4,3.649554E-1,-1.0756668E-1,1.1275856E-1,3.6888305E-2,-5.398958E-1,6.977469E-1,2.2179672E-2,6.0199283E-2,4.3039742E-1,1.6794178E-1,-2.5134912E-1],"categories":[],"categories_nodes":[],"categories_segments":[],"categories_sizes":[],"default_left":[0,0,0,0,0,0,0,0,0,0,0,0,0,0,0,0,0,0,0,0,0,0,0,0,0,0,0,0,0,0,0,0,0,0,0,0,0,0,0,0,0,0,0,0,0],"id":19,"left_children":[1,3,5,7,9,11,-1,13,15,17,19,21,23,25,27,29,31,33,35,37,39,41,-1,-1,43,-1,-1,-1,-1,-1,-1,-1,-1,-1,-1,-1,-1,-1,-1,-1,-1,-1,-1,-1,-1],"loss_changes":[2.006691E1,1.836609E1,3.5581905E1,2.321259E1,5.5484978E1,2.5485802E1,0E0,1.5325584E2,1.02021194E2,5.90119E1,1.2829839E2,2.2275772E0,3.4725067E1,5.8641026E1,2.293078E2,6.5370186E1,5.318182E1,7.5914215E1,3.4007027E1,4.366961E1,2.036834E2,2.7084775E0,0E0,0E0,3.8968496E0,0E0,0E0,0E0,0E0,0E0,0E0,0E0,0E0,0E0,0E0,0E0,0E0,0E0,0E0,0E0,0E0,0E0,0E0,0E0,0E0],"parents":[2147483647,0,0,1,1,2,2,3,3,4,4,5,5,7,7,8,8,9,9,10,10,11,11,12,12,13,13,14,14,15,15,16,16,17,17,18,18,19,19,20,20,21,21,24,24],"right_children":[2,4,6,8,10,12,-1,14,16,18,20,22,24,26,28,30,32,34,36,38,40,42,-1,-1,44,-1,-1,-1,-1,-1,-1,-1,-1,-1,-1,-1,-1,-1,-1,-1,-1,-1,-1,-1,-1],"split_conditions":[3.0455E1,3.009E1,6.9444447E0,7.041E3,7.7777777E0,4.48E2,-1.0612342E0,5.917E3,8.26E3,2.5E0,3.36E2,3.056E1,3.128E3,5.591E3,4.4444447E0,1E1,8.611111E0,2.2222223E0,3.039E1,2.24E2,1.0555555E1,3.0545E1,-2.3989743E-1,-9.088945E-1,8.484E3,-4.0467037E-3,3.6008888E-1,2.50967E-2,-6.687859E-1,1.9924824E-1,8.113651E-1,4.8238743E-2,-2.5442746E-1,-1.6715837E-4,3.649554E-1,-1.0756668E-1,1.1275856E-1,3.6888305E-2,-5.398958E-1,6.977469E-1,2.2179672E-2,6.0199283E-2,4.3039742E-1,1.6794178E-1,-2.5134912E-1],"split_indices":[2,2,1,0,1,0,0,0,0,1,0,2,0,0,1,1,1,1,2,0,1,2,0,0,0,0,0,0,0,0,0,0,0,0,0,0,0,0,0,0,0,0,0,0,0],"split_type":[0,0,0,0,0,0,0,0,0,0,0,0,0,0,0,0,0,0,0,0,0,0,0,0,0,0,0,0,0,0,0,0,0,0,0,0,0,0,0,0,0,0,0,0,0],"sum_hessian":[1.0526E4,1.0486E4,4E1,8.672E3,1.814E3,3.7E1,3E0,8.301E3,3.71E2,8.7E2,9.44E2,2.4E1,1.3E1,8.129E3,1.72E2,1.16E2,2.55E2,2.84E2,5.86E2,7.82E2,1.62E2,2.3E1,1E0,6E0,7E0,8.09E3,3.9E1,9.5E1,7.7E1,9.8E1,1.8E1,1.83E2,7.2E1,2.18E2,6.6E1,5.15E2,7.1E1,7.71E2,1.1E1,7.1E1,9.1E1,2.2E1,1E0,5E0,2E0],"tree_param":{"num_deleted":"0","num_feature":"3","num_nodes":"45","size_leaf_vector":"1"}},{"base_weights":[-5.1142906E-5,8.917055E-3,-1.719587E-1,-7.1743387E-3,1.7517862E-1,-8.699695E-1,1.17142946E-1,7.4617706E-2,-3.441739E-2,-3.05073E-1,5.5746204E-1,-5.880802E-1,-3.246891E0,8.298799E-1,-1.2171201E-1,1.1513744E-1,-1.1519877E0,-3.8769925E-1,7.064058E-4,1.0637125E0,-5.9052634E-1,1.5783944E0,-2.2761673E-1,-7.3700184E-1,3.5206351E0,-3.5842557E0,2.7203706E-1,-7.542048E-1,1.5961775E0,-8.872194E-1,6.176981E-1,2.3472535E-3,1.8649742E-1,-7.0515126E-1,8.757414E-2,9.549087E-2,-1.8972673E-1,1.6219138E-1,-5.551932E-3,-1.4197834E-1,4.7559503E-1,-2.0988323E-1,8.746779E-1,3.476869E-1,1.2969811E0,2.8485777E-2,-4.7202417E-1,-5.5239546E-1,-1.7325083E-2,1.5517299E0,5.443732E-1,-4.4690207E-1,-1.4445374E0,1.2181029E0,-4.2451847E-1,1.3841563E0,3.5927472E-1,-1.3351996E-1,-1.3361175E0,8.768113E-1,4.428964E-2],"categories":[],"categories_nodes":[],"categories_segments":[],"categories_sizes":[],"default_left":[0,0,0,0,0,0,0,0,0,0,0,0,0,0,0,0,0,0,0,0,0,0,0,0,0,0,0,0,0,0,0,0,0,0,0,0,0,0,0,0,0,0,0,0,0,0,0,0,0,0,0,0,0,0,0,0,0,0,0,0,0],"id":20,"left_children":[1,3,5,7,9,11,13,15,17,19,21,23,25,27,29,31,33,35,37,39,41,43,45,47,49,51,-1,53,55,57,59,-1,-1,-1,-1,-1,-1,-1,-1,-1,-1,-1,-1,-1,-1,-1,-1,-1,-1,-1,-1,-1,-1,-1,-1,-1,-1,-1,-1,-1,-1],"loss_changes":[1.623102E1,2.6771112E1,1.05439445E2,2.0333258E1,1.6228201E2,1.0060495E2,6.3090084E1,1.1345258E2,8.493714E1,1.5379211E2,3.9470337E2,8.7033676E1,2.5671051E1,1.1409472E2,1.5790266E2,1.2001402E2,1.27015564E2,1.0714906E2,6.460654E1,5.5265312E1,1.263402E2,2.413689E2,1.2126689E2,1.0040821E2,4.7045364E0,3.149939E1,0E0,1.04379135E2,7.025285E1,2.1405867E2,1.5342618E2,0E0,0E0,0E0,0E0,0E0,0E0,0E0,0E0,0E0,0E0,0E0,0E0,0E0,0E0,0E0,0E0,0E0,0E0,0E0,0E0,0E0,0E0,0E0,0E0,0E0,0E0,0E0,0E0,0E0,0E0],"parents":[2147483647,0,0,1,1,2,2,3,3,4,4,5,5,6,6,7,7,8,8,9,9,10,10,11,11,12,12,13,13,14,14,15,15,16,16,17,17,18,18,19,19,20,20,21,21,22,22,23,23,24,24,25,25,27,27,28,28,29,29,30,30],"right_children":[2,4,6,8,10,12,14,16,18,20,22,24,26,28,30,32,34,36,38,40,42,44,46,48,50,52,-1,54,56,58,60,-1,-1,-1,-1,-1,-1,-1,-1,-1,-1,-1,-1,-1,-1,-1,-1,-1,-1,-1,-1,-1,-1,-1,-1,-1,-1,-1,-1,-1,-1],"split_conditions":[1.7222221E1,1.4444445E1,1.75E1,2.946E1,2.9755E1,7.84E2,2.9725E1,1.3055555E1,2.956E1,1.5E1,2.9905E1,3.36E2,3.0165E1,2.9545E1,2.994E1,9.166667E0,2.9375E1,4.4444447E0,2.9575E1,2.9435E1,1.23E3,4.48E2,2.24E2,2.9785E1,2.9315E1,2.9905E1,2.7203706E-1,2.933E1,2.959E1,2.992E1,2.9985E1,2.3472535E-3,1.8649742E-1,-7.0515126E-1,8.757414E-2,9.549087E-2,-1.8972673E-1,1.6219138E-1,-5.551932E-3,-1.4197834E-1,4.7559503E-1,-2.0988323E-1,8.746779E-1,3.476869E-1,1.2969811E0,2.8485777E-2,-4.7202417E-1,-5.5239546E-1,-1.7325083E-2,1.5517299E0,5.443732E-1,-4.4690207E-1,-1.4445374E0,1.2181029E0,-4.2451847E-1,1.3841563E0,3.5927472E-1,-1.3351996E-1,-1.3361175E0,8.768113E-1,4.428964E-2],"split_indices":[1,1,1,2,2,0,2,1,2,1,2,0,2,2,2,1,2,1,2,2,0,0,0,2,2,2,0,2,2,2,2,0,0,0,0,0,0,0,0,0,0,0,0,0,0,0,0,0,0,0,0,0,0,0,0,0,0,0,0,0,0],"split_type":[0,0,0,0,0,0,0,0,0,0,0,0,0,0,0,0,0,0,0,0,0,0,0,0,0,0,0,0,0,0,0,0,0,0,0,0,0,0,0,0,0,0,0,0,0,0,0,0,0,0,0,0,0,0,0,0,0,0,0,0,0],"sum_hessian":[1.0526E4,1.0005E4,5.21E2,9.123E3,8.82E2,1.52E2,3.69E2,2.279E3,6.844E3,3.91E2,4.91E2,1.37E2,1.5E1,9.2E1,2.77E2,2.207E3,7.2E1,6.18E2,6.226E3,6.7E1,3.24E2,2.13E2,2.78E2,1.33E2,4E0,1.4E1,1E0,3E1,6.2E1,1.36E2,1.41E2,1.822E3,3.85E2,3.9E1,3.3E1,1.59E2,4.59E2,2.13E2,6.013E3,1.7E1,5E1,3.15E2,9E0,1.86E2,2.7E1,2.25E2,5.3E1,5E1,8.3E1,1E0,3E0,6E0,8E0,3E0,2.7E1,6E0,5.6E1,1.22E2,1.4E1,2.3E1,1.18E2],"tree_param":{"num_deleted":"0","num_feature":"3","num_nodes":"61","size_leaf_vector":"1"}},{"base_weights":[3.183742E-4,4.8594016E-1,-6.051395E-4,2.0900473E-3,-4.4808212E-1,-1.3625389E-3,3.8697526E-1,1.6165555E-1,-1.6752553E0,3.0576452E-3,-4.845118E-1,1.4830415E0,-2.1232247E-1,6.594295E-1,-1.1792129E0,-1.8310202E0,-3.9097812E-2,-1.1302129E-3,9.4502784E-2,-7.750384E-1,-6.116441E-2,-7.5651217E-1,6.367128E-1,3.5429645E-1,-2.0770098E-1,8.490218E-2,5.259961E-1,-6.3746476E-1,-6.005402E-2,-6.174623E-1,-1.3935469E-1],"categories":[],"categories_nodes":[],"categories_segments":[],"categories_sizes":[],"default_left":[0,0,0,0,0,0,0,0,0,0,0,0,0,0,0,0,0,0,0,0,0,0,0,0,0,0,0,0,0,0,0],"id":21,"left_children":[1,-1,3,5,7,9,11,13,15,17,19,21,23,25,27,29,-1,-1,-1,-1,-1,-1,-1,-1,-1,-1,-1,-1,-1,-1,-1],"loss_changes":[1.5745306E1,0E0,1.2690827E1,1.3900292E1,4.74108E1,2.2143473E1,6.14038E1,2.9477934E1,4.81493E0,2.1877447E1,5.484202E1,8.984435E1,4.161497E1,1.268027E1,1.068474E1,4.942528E0,0E0,0E0,0E0,0E0,0E0,0E0,0E0,0E0,0E0,0E0,0E0,0E0,0E0,0E0,0E0],"parents":[2147483647,0,0,2,2,3,3,4,4,5,5,6,6,7,7,8,8,9,9,10,10,11,11,12,12,13,13,14,14,15,15],"right_children":[2,-1,4,6,8,10,12,14,16,18,20,22,24,26,28,30,-1,-1,-1,-1,-1,-1,-1,-1,-1,-1,-1,-1,-1,-1,-1],"split_conditions":[2.856E1,4.8594016E-1,3.044E1,1.3062E4,6.111111E0,9.824E3,1.7192E4,4.48E2,3.128E3,7.373E3,2.9255E1,2.9075E1,2.9435E1,3.6111112E0,2.906E3,8.055555E0,-3.9097812E-2,-1.1302129E-3,9.4502784E-2,-7.750384E-1,-6.116441E-2,-7.5651217E-1,6.367128E-1,3.5429645E-1,-2.0770098E-1,8.490218E-2,5.259961E-1,-6.3746476E-1,-6.005402E-2,-6.174623E-1,-1.3935469E-1],"split_indices":[2,0,2,0,1,0,0,0,0,0,2,2,2,1,0,1,0,0,0,0,0,0,0,0,0,0,0,0,0,0,0],"split_type":[0,0,0,0,0,0,0,0,0,0,0,0,0,0,0,0,0,0,0,0,0,0,0,0,0,0,0,0,0,0,0],"sum_hessian":[1.0526E4,5E0,1.0521E4,1.0459E4,6.2E1,1.0367E4,9.2E1,4.2E1,2E1,1.0274E4,9.3E1,3.2E1,6E1,3.1E1,1.1E1,1.8E1,2E0,1.0055E4,2.19E2,1E1,8.3E1,4E0,2.8E1,1.5E1,4.5E1,2.4E1,7E0,5E0,6E0,1.5E1,3E0],"tree_param":{"num_deleted":"0","num_feature":"3","num_nodes":"31","size_leaf_vector":"1"}},{"base_weights":[1.1711231E-4,-8.484121E-2,1.4729211E-2,-2.9580233E-1,2.7155545E-1,3.5552138E-1,-5.8680875E-3,-2.6085985E-1,-2.8507278E0,-1.326926E0,3.7446728E-1,2.430909E-1,2.848605E0,-1.0645959E0,9.470985E-3,-4.4022575E-1,1.27051E-1,-1.2128432E0,-1.5686322E0,-9.834952E-1,-4.1523674E-1,1.8119226E0,2.1790367E-1,5.1250035E-1,-1.0138506E0,5.0818076E0,1.5341993E-1,-1.3132324E0,5.3372335E-1,4.0593315E-2,-2.6670492E-1,4.8342578E-2,-1.8940341E-1,-4.9732346E-2,1.1960574E-1,-1.0558795E0,-1.4536473E-1,5.5046964E-1,-2.4164337E-1,-4.0809393E-1,6.5121114E-1,1.4049101E-1,-8.997224E-2,1.7617568E-2,2.945827E-1,-3.641143E-1,4.3310818E-1,1.851263E0,4.0828508E-1,2.5279865E-1,-3.7902588E-1,-3.1722566E-1,-8.01032E-1,3.6803967E-1,-6.076416E-1,1.0560306E-2,7.242919E-1,-8.4202147E-1,-3.1088712E-2],"categories":[],"categories_nodes":[],"categories_segments":[],"categories_sizes":[],"default_left":[0,0,0,0,0,0,0,0,0,0,0,0,0,0,0,0,0,0,0,0,0,0,0,0,0,0,0,0,0,0,0,0,0,0,0,0,0,0,0,0,0,0,0,0,0,0,0,0,0,0,0,0,0,0,0,0,0,0,0],"id":22,"left_children":[1,3,5,7,9,11,13,15,17,19,21,23,25,27,29,31,33,35,-1,-1,37,39,41,43,45,47,49,51,53,55,57,-1,-1,-1,-1,-1,-1,-1,-1,-1,-1,-1,-1,-1,-1,-1,-1,-1,-1,-1,-1,-1,-1,-1,-1,-1,-1,-1,-1],"loss_changes":[1.3069671E1,1.1624245E2,6.3057335E1,8.594279E1,9.50859E1,1.428204E2,1.3759454E2,6.678121E1,4.4292854E1,6.0905907E1,1.2135894E2,1.6678786E2,1.3163602E2,4.8786377E1,7.1798256E1,7.549762E1,2.4246735E1,1.3414546E1,0E0,0E0,2.3430353E1,6.3274155E1,6.3544052E1,8.621585E1,4.4484375E1,4.0229004E1,1.1806638E1,3.3622787E1,3.2638012E1,9.60029E1,3.5013766E2,0E0,0E0,0E0,0E0,0E0,0E0,0E0,0E0,0E0,0E0,0E0,0E0,0E0,0E0,0E0,0E0,0E0,0E0,0E0,0E0,0E0,0E0,0E0,0E0,0E0,0E0,0E0,0E0],"parents":[2147483647,0,0,1,1,2,2,3,3,4,4,5,5,6,6,7,7,8,8,9,9,10,10,11,11,12,12,13,13,14,14,15,15,16,16,17,17,20,20,21,21,22,22,23,23,24,24,25,25,26,26,27,27,28,28,29,29,30,30],"right_children":[2,4,6,8,10,12,14,16,18,20,22,24,26,28,30,32,34,36,-1,-1,38,40,42,44,46,48,50,52,54,56,58,-1,-1,-1,-1,-1,-1,-1,-1,-1,-1,-1,-1,-1,-1,-1,-1,-1,-1,-1,-1,-1,-1,-1,-1,-1,-1,-1,-1],"split_conditions":[2.7777777E0,2.012E3,3.0555556E0,1.901E3,2.8875E1,3.0345E1,3.8888888E0,3E1,2.9665E1,3.246E3,2.462E3,2.9955E1,3.043E1,6.157E3,2.797E3,2.9195E1,1.1111112E0,2.9255E1,-1.5686322E0,-9.834952E-1,-5.555556E-1,2.8905E1,1.9444444E0,2.942E1,5.358E3,1.34E3,3.0485E1,5.59E2,1.3062E4,2.685E3,3.126E3,4.8342578E-2,-1.8940341E-1,-4.9732346E-2,1.1960574E-1,-1.0558795E0,-1.4536473E-1,5.5046964E-1,-2.4164337E-1,-4.0809393E-1,6.5121114E-1,1.4049101E-1,-8.997224E-2,1.7617568E-2,2.945827E-1,-3.641143E-1,4.3310818E-1,1.851263E0,4.0828508E-1,2.5279865E-1,-3.7902588E-1,-3.1722566E-1,-8.01032E-1,3.6803967E-1,-6.076416E-1,1.0560306E-2,7.242919E-1,-8.4202147E-1,-3.1088712E-2],"split_indices":[1,0,1,0,2,2,1,2,2,0,0,2,2,0,0,2,1,2,0,0,1,2,1,2,0,0,2,0,0,0,0,0,0,0,0,0,0,0,0,0,0,0,0,0,0,0,0,0,0,0,0,0,0,0,0,0,0,0,0],"split_type":[0,0,0,0,0,0,0,0,0,0,0,0,0,0,0,0,0,0,0,0,0,0,0,0,0,0,0,0,0,0,0,0,0,0,0,0,0,0,0,0,0,0,0,0,0,0,0,0,0,0,0,0,0,0,0,0,0,0,0],"sum_hessian":[1.0526E4,1.544E3,8.982E3,9.7E2,5.74E2,5.11E2,8.471E3,9.58E2,1.2E1,3.4E1,5.4E2,4.9E2,2.1E1,1.2E2,8.351E3,6.55E2,3.03E2,8E0,4E0,1E1,2.4E1,5.2E1,4.88E2,4.04E2,8.6E1,1.1E1,1E1,1.04E2,1.6E1,7.506E3,8.45E2,1.58E2,4.97E2,1.46E2,1.57E2,1E0,7E0,3E0,2.1E1,5E0,4.7E1,3.29E2,1.59E2,2.06E2,1.98E2,8E1,6E0,8E0,3E0,7E0,3E0,8.9E1,1.5E1,1.3E1,3E0,7.49E3,1.6E1,5E1,7.95E2],"tree_param":{"num_deleted":"0","num_feature":"3","num_nodes":"59","size_leaf_vector":"1"}},{"base_weights":[-1.2736574E-4,-1.847892E-3,6.9483775E-1,1.1841925E-3,-1.3256547E0,2.7346303E0,-2.0059271E-1,-2.1319615E-3,1.4458727E0,4.3039522E-1,-1.5080441E0,3.5243661E0,-4.1902786E-1,-8.7381834E-1,4.9269217E-1,7.3587648E-3,-1.6583914E-1,2.9479065E0,1.6242658E-1,-2.8496246E0,-9.7707045E-1,-5.523743E-2,4.1731353E0,-1.4538666E0,-2.9967309E-3,9.2395926E-1,-1.3697849E-1,-4.1434886E-3,4.1881878E-2,-3.2739362E-1,-1.9640356E-2,1.4384668E0,1.828819E-1,-3.0515075E-1,4.4619966E-1,-1.0273002E0,3.588295E-3,1.328186E-1,-4.6716094E-1,1.8087306E0,7.788365E-1,-3.9877654E-3,-5.217969E-1,6.631621E-1,-3.3270484E-1,5.3101104E-1,-2.8041074E-1],"categories":[],"categories_nodes":[],"categories_segments":[],"categories_sizes":[],"default_left":[0,0,0,0,0,0,0,0,0,0,0,0,0,0,0,0,0,0,0,0,0,0,0,0,0,0,0,0,0,0,0,0,0,0,0,0,0,0,0,0,0,0,0,0,0,0,0],"id":23,"left_children":[1,3,5,7,9,11,13,15,17,-1,19,21,-1,23,25,27,29,31,33,35,37,-1,39,41,43,-1,45,-1,-1,-1,-1,-1,-1,-1,-1,-1,-1,-1,-1,-1,-1,-1,-1,-1,-1,-1,-1],"loss_changes":[1.2588477E1,4.2155487E1,4.8037354E1,5.0205975E1,1.4246323E1,3.1024338E1,9.29853E0,1.6246706E1,4.578789E1,0E0,1.3599625E1,1.7610054E1,0E0,5.0468283E0,1.6712536E1,2.767447E1,5.315504E1,4.4583794E1,2.3392809E1,9.90844E0,1.5515509E1,0E0,1.9090347E0,2.4442062E0,1.4692598E1,0E0,1.5345904E1,0E0,0E0,0E0,0E0,0E0,0E0,0E0,0E0,0E0,0E0,0E0,0E0,0E0,0E0,0E0,0E0,0E0,0E0,0E0,0E0],"parents":[2147483647,0,0,1,1,2,2,3,3,4,4,5,5,6,6,7,7,8,8,10,10,11,11,13,13,14,14,15,15,16,16,17,17,18,18,19,19,20,20,22,22,23,23,24,24,26,26],"right_children":[2,4,6,8,10,12,14,16,18,-1,20,22,-1,24,26,28,30,32,34,36,38,-1,40,42,44,-1,46,-1,-1,-1,-1,-1,-1,-1,-1,-1,-1,-1,-1,-1,-1,-1,-1,-1,-1,-1,-1],"split_conditions":[3.9077E4,2.2663E4,2.9435E1,1.6188E4,2.8965E1,8.055555E0,3.0105E1,5.922E3,1.7192E4,4.3039522E-1,2.9475E1,3.0555556E0,-4.1902786E-1,6.9444447E0,3.021E1,1.451E3,6.146E3,2.9755E1,6.111111E0,4.4444447E0,2.9725E1,-5.523743E-2,4.4444447E0,-2.5E0,7.5E0,9.2395926E-1,4.4444447E0,-4.1434886E-3,4.1881878E-2,-3.2739362E-1,-1.9640356E-2,1.4384668E0,1.828819E-1,-3.0515075E-1,4.4619966E-1,-1.0273002E0,3.588295E-3,1.328186E-1,-4.6716094E-1,1.8087306E0,7.788365E-1,-3.9877654E-3,-5.217969E-1,6.631621E-1,-3.3270484E-1,5.3101104E-1,-2.8041074E-1],"split_indices":[0,0,2,0,2,1,2,0,0,0,2,1,0,1,2,0,0,2,1,1,2,0,1,1,1,0,1,0,0,0,0,0,0,0,0,0,0,0,0,0,0,0,0,0,0,0,0],"split_type":[0,0,0,0,0,0,0,0,0,0,0,0,0,0,0,0,0,0,0,0,0,0,0,0,0,0,0,0,0,0,0,0,0,0,0,0,0,0,0,0,0,0,0,0,0,0,0],"sum_hessian":[1.0526E4,1.0501E4,2.5E1,1.0478E4,2.3E1,7E0,1.8E1,1.0455E4,2.3E1,1E0,2.2E1,6E0,1E0,9E0,9E0,9.883E3,5.72E2,1E1,1.3E1,5E0,1.7E1,1E0,5E0,5E0,4E0,1E0,8E0,8.52E3,1.363E3,5.5E1,5.17E2,5E0,5E0,7E0,6E0,4E0,1E0,5E0,1.2E1,1E0,4E0,1E0,4E0,1E0,3E0,2E0,6E0],"tree_param":{"num_deleted":"0","num_feature":"3","num_nodes":"47","size_leaf_vector":"1"}},{"base_weights":[2.5455482E-4,1.0028705E-2,-1.094864E-1,3.4538026E-3,7.0187277E-1,1.1500238E0,-1.5791392E-1,-9.710544E-2,2.1029355E-2,1.4772737E0,2.9138643E-1,-1.8126218E0,2.5790727E0,-5.524334E-1,1.30900545E-2,5.024769E-3,-4.360073E-1,2.721506E-1,-3.7033244E-3,-2.4180847E-1,3.8518443E0,-4.2463604E-1,-1.6117117E0,1.3443437E0,3.065657E0,-2.6619554E-1,-3.6747437E0,1.1299591E0,-1.8097828E-1,-1.97052E-2,3.8148013E-1,-4.4870445E-1,-5.1132947E-2,1.2686102E-1,-3.758607E-1,-1.07248435E-2,7.056708E-2,-9.261137E-1,7.529849E-2,2.0304291E0,-3.0038354E-1,-5.3771055E-1,1.5775834E0,9.7052217E-1,5.2476373E-2,1.5008956E0,5.7190716E-1,-2.044857E-1,1.3264608E-1,-1.421448E0,1.2855419E0,4.5993128E-1,-1.7895558E-1,-5.493574E-1,1.328689E-3],"categories":[],"categories_nodes":[],"categories_segments":[],"categories_sizes":[],"default_left":[0,0,0,0,0,0,0,0,0,0,0,0,0,0,0,0,0,0,0,0,0,0,0,0,0,0,0,0,0,0,0,0,0,0,0,0,0,0,0,0,0,0,0,0,0,0,0,0,0,0,0,0,0,0,0],"id":24,"left_children":[1,3,5,7,9,11,13,15,17,-1,19,21,23,25,27,29,31,33,35,37,39,41,-1,43,45,47,49,51,53,-1,-1,-1,-1,-1,-1,-1,-1,-1,-1,-1,-1,-1,-1,-1,-1,-1,-1,-1,-1,-1,-1,-1,-1,-1,-1],"loss_changes":[1.1292617E1,4.3970894E1,5.2698257E1,1.692828E1,1.5628873E2,1.4015538E2,5.6002678E1,4.9324455E1,5.063849E1,0E0,1.6039851E2,5.20684E1,9.096313E0,2.2334639E2,1.2591887E2,9.82391E1,9.261087E1,1.685502E2,5.684401E1,1.0453339E2,1.62459E2,7.938382E1,0E0,1.7122616E1,2.4151672E1,6.827656E1,1.980617E2,6.0772324E1,1.5145903E2,0E0,0E0,0E0,0E0,0E0,0E0,0E0,0E0,0E0,0E0,0E0,0E0,0E0,0E0,0E0,0E0,0E0,0E0,0E0,0E0,0E0,0E0,0E0,0E0,0E0,0E0],"parents":[2147483647,0,0,1,1,2,2,3,3,4,4,5,5,6,6,7,7,8,8,10,10,11,11,12,12,13,13,14,14,15,15,16,16,17,17,18,18,19,19,20,20,21,21,23,23,24,24,25,25,26,26,27,27,28,28],"right_children":[2,4,6,8,10,12,14,16,18,-1,20,22,24,26,28,30,32,34,36,38,40,42,-1,44,46,48,50,52,54,-1,-1,-1,-1,-1,-1,-1,-1,-1,-1,-1,-1,-1,-1,-1,-1,-1,-1,-1,-1,-1,-1,-1,-1,-1,-1],"split_conditions":[1.611111E1,1.5555555E1,2.9345E1,2.933E1,2.9285E1,2.9075E1,2.9755E1,8.055555E0,2.9435E1,1.4772737E0,2.997E1,2.903E1,2.9285E1,2.9725E1,2.9815E1,7.5E0,9.166667E0,1.3055555E1,1.3333333E1,2.9405E1,3.0015E1,2.9015E1,-1.6117117E0,2.9255E1,2.933E1,1.75E1,2.23E2,1.9444445E1,2.986E1,-1.97052E-2,3.8148013E-1,-4.4870445E-1,-5.1132947E-2,1.2686102E-1,-3.758607E-1,-1.07248435E-2,7.056708E-2,-9.261137E-1,7.529849E-2,2.0304291E0,-3.0038354E-1,-5.3771055E-1,1.5775834E0,9.7052217E-1,5.2476373E-2,1.5008956E0,5.7190716E-1,-2.044857E-1,1.3264608E-1,-1.421448E0,1.2855419E0,4.5993128E-1,-1.7895558E-1,-5.493574E-1,1.328689E-3],"split_indices":[1,1,2,2,2,2,2,1,2,0,2,2,2,2,2,1,1,1,1,2,2,2,0,2,2,1,0,1,2,0,0,0,0,0,0,0,0,0,0,0,0,0,0,0,0,0,0,0,0,0,0,0,0,0,0],"split_type":[0,0,0,0,0,0,0,0,0,0,0,0,0,0,0,0,0,0,0,0,0,0,0,0,0,0,0,0,0,0,0,0,0,0,0,0,0,0,0,0,0,0,0,0,0,0,0,0,0,0,0,0,0,0,0],"sum_hessian":[1.0526E4,9.666E3,8.6E2,9.576E3,9E1,3.1E1,8.29E2,1.424E3,8.152E3,7E0,8.3E1,1E1,2.1E1,2.5E2,5.79E2,1.095E3,3.29E2,7.3E2,7.422E3,7.3E1,1E1,8E0,2E0,7E0,1.4E1,2.3E2,2E1,8.5E1,4.94E2,1.038E3,5.7E1,6.5E1,2.64E2,6.65E2,6.5E1,6.545E3,8.77E2,1E1,6.3E1,6E0,4E0,7E0,1E0,2E0,5E0,4E0,1E1,1.45E2,8.5E1,1.8E1,2E0,6.9E1,1.6E1,4.9E1,4.45E2],"tree_param":{"num_deleted":"0","num_feature":"3","num_nodes":"55","size_leaf_vector":"1"}},{"base_weights":[5.6562986E-4,-1.498793E-2,7.328555E-2,1.7547248E-2,-8.728007E-2,1.9428705E-1,-8.0348715E-2,8.154952E-2,-1.6267443E-1,-2.5352698E-2,-8.980392E-1,-3.526266E-1,3.409619E-1,4.1419616E-1,-3.3990422E-1,-6.8384507E-3,3.2026947E-1,-2.6747254E-1,5.433201E-1,4.5516584E-2,-5.6396955E-1,-7.609242E0,-6.767207E-1,-1.4624342E-1,-1.1748356E0,5.662382E-1,6.0589187E-2,2.875654E-1,2.6490526E0,-8.063409E-1,-9.472053E-4,-2.287151E-2,1.317959E-1,-1.2746008E-1,1.6998893E-1,-2.5136133E-3,-2.0708805E-1,-2.5772187E-1,3.630278E-1,-9.985834E-3,5.0279313E-1,-1.1725783E0,-1.21831626E-1,3.4914723E-1,-2.878986E0,-3.1536418E-1,2.4284859E-1,1.5497132E-1,-1.1695499E-1,-1.07927926E-1,-8.179995E-1,1.0265751E-1,4.4437078E-1,5.194773E-2,-6.3761467E-1,1.1130945E-1,-8.632594E-1,2.225187E0,7.225473E-2,-4.6660188E-1,-1.4017695E-1,-1.8779044E-1,7.305289E-2],"categories":[],"categories_nodes":[],"categories_segments":[],"categories_sizes":[],"default_left":[0,0,0,0,0,0,0,0,0,0,0,0,0,0,0,0,0,0,0,0,0,0,0,0,0,0,0,0,0,0,0,0,0,0,0,0,0,0,0,0,0,0,0,0,0,0,0,0,0,0,0,0,0,0,0,0,0,0,0,0,0,0,0],"id":25,"left_children":[1,3,5,7,9,11,13,15,17,19,21,23,25,27,29,31,33,35,37,39,41,43,45,47,49,51,53,55,57,59,61,-1,-1,-1,-1,-1,-1,-1,-1,-1,-1,-1,-1,-1,-1,-1,-1,-1,-1,-1,-1,-1,-1,-1,-1,-1,-1,-1,-1,-1,-1,-1,-1],"loss_changes":[1.19077E1,2.0400753E1,3.4500015E1,6.901322E1,1.3513768E2,8.3387024E1,1.05140785E2,9.315855E1,1.1615678E2,9.553049E1,2.785456E2,3.716001E1,5.1694817E1,7.904467E1,8.489998E1,9.982832E1,2.1924219E2,1.4963992E2,1.9086023E2,2.8426392E2,1.5205963E2,1.1578122E2,1.0437443E2,2.8780857E1,5.4672832E1,9.256407E1,9.043133E1,7.18674E1,1.7045682E2,5.667134E1,4.78231E1,0E0,0E0,0E0,0E0,0E0,0E0,0E0,0E0,0E0,0E0,0E0,0E0,0E0,0E0,0E0,0E0,0E0,0E0,0E0,0E0,0E0,0E0,0E0,0E0,0E0,0E0,0E0,0E0,0E0,0E0,0E0,0E0],"parents":[2147483647,0,0,1,1,2,2,3,3,4,4,5,5,6,6,7,7,8,8,9,9,10,10,11,11,12,12,13,13,14,14,15,15,16,16,17,17,18,18,19,19,20,20,21,21,22,22,23,23,24,24,25,25,26,26,27,27,28,28,29,29,30,30],"right_children":[2,4,6,8,10,12,14,16,18,20,22,24,26,28,30,32,34,36,38,40,42,44,46,48,50,52,54,56,58,60,62,-1,-1,-1,-1,-1,-1,-1,-1,-1,-1,-1,-1,-1,-1,-1,-1,-1,-1,-1,-1,-1,-1,-1,-1,-1,-1,-1,-1,-1,-1,-1,-1],"split_conditions":[3.009E1,1.1944445E1,3.0225E1,2.9845E1,1.117E3,4.4444447E0,4.4444447E0,2.968E1,1.1111111E1,2.9985E1,1.119E3,3.3333333E0,1.1111111E1,6.378E3,7.7777777E0,1E1,5E0,7.7777777E0,2.992E1,2.997E1,3E1,2.9545E1,1.5555555E1,3.012E1,3.018E1,3.36E2,1.787E3,5.591E3,3.0255E1,3.0285E1,3.027E1,-2.287151E-2,1.317959E-1,-1.2746008E-1,1.6998893E-1,-2.5136133E-3,-2.0708805E-1,-2.5772187E-1,3.630278E-1,-9.985834E-3,5.0279313E-1,-1.1725783E0,-1.21831626E-1,3.4914723E-1,-2.878986E0,-3.1536418E-1,2.4284859E-1,1.5497132E-1,-1.1695499E-1,-1.07927926E-1,-8.179995E-1,1.0265751E-1,4.4437078E-1,5.194773E-2,-6.3761467E-1,1.1130945E-1,-8.632594E-1,2.225187E0,7.225473E-2,-4.6660188E-1,-1.4017695E-1,-1.8779044E-1,7.305289E-2],"split_indices":[2,1,2,2,0,1,1,2,1,2,0,1,1,0,1,1,1,1,2,2,2,2,1,2,2,0,0,0,2,2,2,0,0,0,0,0,0,0,0,0,0,0,0,0,0,0,0,0,0,0,0,0,0,0,0,0,0,0,0,0,0,0,0],"split_type":[0,0,0,0,0,0,0,0,0,0,0,0,0,0,0,0,0,0,0,0,0,0,0,0,0,0,0,0,0,0,0,0,0,0,0,0,0,0,0,0,0,0,0,0,0,0,0,0,0,0,0,0,0,0,0,0,0,0,0,0,0,0,0],"sum_hessian":[1.0526E4,8.672E3,1.854E3,5.981E3,2.691E3,1.037E3,8.17E2,4.414E3,1.567E3,2.501E3,1.9E2,2.19E2,8.18E2,2.81E2,5.36E2,3.222E3,1.192E3,1.365E3,2.02E2,2.211E3,2.9E2,5E0,1.85E2,1.76E2,4.3E1,4.53E2,3.65E2,2.67E2,1.4E1,2.25E2,3.11E2,2.789E3,4.33E2,2.96E2,8.96E2,8.47E2,5.18E2,6.5E1,1.37E2,2.11E3,1.01E2,1.2E1,2.78E2,1E0,4E0,1.48E2,3.7E1,4.7E1,1.29E2,2.9E1,1.4E1,3.65E2,8.8E1,3.48E2,1.7E1,2.61E2,6E0,4E0,1E1,6.9E1,1.56E2,8.7E1,2.24E2],"tree_param":{"num_deleted":"0","num_feature":"3","num_nodes":"63","size_leaf_vector":"1"}},{"base_weights":[6.733861E-5,3.3909433E-2,-3.4358364E-2,-7.651059E-2,7.632998E-2,-2.4962188E-1,3.63706E-3,1.3880752E-1,-3.9215854E-1,1.141934E0,4.5447282E-2,-4.020994E-1,5.4114455E-1,-2.9369617E-2,3.809385E-1,4.722692E-2,9.593741E-1,-5.168168E-1,1.2288215E0,1.8553653E-1,3.0495753E0,9.471541E-2,-1.3620867E-1,-3.2464695E-1,-4.538114E0,1.8690125E0,-8.8112044E-1,1.3445395E-1,-1.14781395E-1,4.6562266E-1,-8.690673E-1,8.6805694E-2,-6.0933433E-2,-1.5819204E-1,7.374118E-1,-1.3538548E-1,-2.8342173E0,-6.315555E-2,9.1740465E-1,-7.4973637E-1,2.2639054E-1,1.0760833E0,-1.2171392E0,1.6559238E-2,4.928215E-1,-2.8773305E-1,3.488434E-2,-2.4632113E-1,-1.7759077E-2,-2.3732932E0,-5.588432E-1,3.3888048E-1,1.0539533E0,-5.6141806E-1,5.0856043E-2,-8.525906E-3,2.3390882E-1,-1.8892127E-1,-7.737487E-4,2.3756577E-1,6.6076033E-3,-4.9935266E-1,4.9863058E-1],"categories":[],"categories_nodes":[],"categories_segments":[],"categories_sizes":[],"default_left":[0,0,0,0,0,0,0,0,0,0,0,0,0,0,0,0,0,0,0,0,0,0,0,0,0,0,0,0,0,0,0,0,0,0,0,0,0,0,0,0,0,0,0,0,0,0,0,0,0,0,0,0,0,0,0,0,0,0,0,0,0,0,0],"id":26,"left_children":[1,3,5,7,9,11,13,15,17,19,21,23,25,27,29,31,33,35,37,39,41,43,45,47,49,51,53,55,57,59,61,-1,-1,-1,-1,-1,-1,-1,-1,-1,-1,-1,-1,-1,-1,-1,-1,-1,-1,-1,-1,-1,-1,-1,-1,-1,-1,-1,-1,-1,-1,-1,-1],"loss_changes":[1.2265519E1,2.487361E1,4.268726E1,1.0023443E2,1.2618598E2,9.4627106E1,5.526722E1,6.585947E1,1.2147205E2,1.9647624E2,3.3386883E1,2.08993E2,2.414965E2,5.7118675E1,3.8195137E1,4.7943253E1,1.973634E2,3.211283E2,1.1385554E2,1.1341788E2,1.5203394E2,1.7939589E2,1.6549982E2,8.507843E1,9.354454E1,7.62686E1,6.482334E1,1.4704715E2,1.5502005E2,4.846694E1,4.9074715E1,0E0,0E0,0E0,0E0,0E0,0E0,0E0,0E0,0E0,0E0,0E0,0E0,0E0,0E0,0E0,0E0,0E0,0E0,0E0,0E0,0E0,0E0,0E0,0E0,0E0,0E0,0E0,0E0,0E0,0E0,0E0,0E0],"parents":[2147483647,0,0,1,1,2,2,3,3,4,4,5,5,6,6,7,7,8,8,9,9,10,10,11,11,12,12,13,13,14,14,15,15,16,16,17,17,18,18,19,19,20,20,21,21,22,22,23,23,24,24,25,25,26,26,27,27,28,28,29,29,30,30],"right_children":[2,4,6,8,10,12,14,16,18,20,22,24,26,28,30,32,34,36,38,40,42,44,46,48,50,52,54,56,58,60,62,-1,-1,-1,-1,-1,-1,-1,-1,-1,-1,-1,-1,-1,-1,-1,-1,-1,-1,-1,-1,-1,-1,-1,-1,-1,-1,-1,-1,-1,-1,-1,-1],"split_conditions":[8.333333E0,2.942E1,1E1,2.9225E1,2.9435E1,1.676E3,3.0165E1,2.9195E1,6.934E3,4.4444447E0,2.572E3,1.342E3,2.9785E1,2.968E1,2.127E3,3.0555556E0,3.6111112E0,6.713E3,3.0555556E0,5.555556E-1,6.934E3,2.122E3,3.907E3,2.971E1,1.451E3,2.9635E1,2.9955E1,2.962E1,2.9755E1,3.024E1,3.0315E1,8.6805694E-2,-6.0933433E-2,-1.5819204E-1,7.374118E-1,-1.3538548E-1,-2.8342173E0,-6.315555E-2,9.1740465E-1,-7.4973637E-1,2.2639054E-1,1.0760833E0,-1.2171392E0,1.6559238E-2,4.928215E-1,-2.8773305E-1,3.488434E-2,-2.4632113E-1,-1.7759077E-2,-2.3732932E0,-5.588432E-1,3.3888048E-1,1.0539533E0,-5.6141806E-1,5.0856043E-2,-8.525906E-3,2.3390882E-1,-1.8892127E-1,-7.737487E-4,2.3756577E-1,6.6076033E-3,-4.9935266E-1,4.9863058E-1],"split_indices":[1,2,1,2,2,0,2,2,0,1,0,0,2,2,0,1,1,0,1,1,0,0,0,2,0,2,2,2,2,2,2,0,0,0,0,0,0,0,0,0,0,0,0,0,0,0,0,0,0,0,0,0,0,0,0,0,0,0,0,0,0,0,0],"split_type":[0,0,0,0,0,0,0,0,0,0,0,0,0,0,0,0,0,0,0,0,0,0,0,0,0,0,0,0,0,0,0,0,0,0,0,0,0,0,0,0,0,0,0,0,0,0,0,0,0,0,0,0,0,0,0,0,0,0,0,0,0,0,0],"sum_hessian":[1.0526E4,5.308E3,5.218E3,1.473E3,3.835E3,7.82E2,4.436E3,8.76E2,5.97E2,1.07E2,3.728E3,6.56E2,1.26E2,4.08E3,3.56E2,7.89E2,8.7E1,5.55E2,4.2E1,7.2E1,3.5E1,2.933E3,7.95E2,6.45E2,1.1E1,6.5E1,6.1E1,1.398E3,2.682E3,3.34E2,2.2E1,4.01E2,3.88E2,4.4E1,4.3E1,5.52E2,3E0,2.4E1,1.8E1,1.2E1,6E1,3.3E1,2E0,2.861E3,7.2E1,1.86E2,6.09E2,2.24E2,4.21E2,4E0,7E0,4.6E1,1.9E1,3.1E1,3E1,1.117E3,2.81E2,4.79E2,2.203E3,1.92E2,1.42E2,1.7E1,5E0],"tree_param":{"num_deleted":"0","num_feature":"3","num_nodes":"63","size_leaf_vector":"1"}},{"base_weights":[-3.283658E-4,1.1912163E0,-1.1211121E-3,4.4325295E-1,6.0711884E-1,-1.3533684E0,-2.2079337E-4,2.482062E-1,2.579225E-1,6.607872E-1,-3.029182E0,5.5508927E-2,-1.6647378E-2,8.254195E-3,1.0781093E-1,-7.3871695E-2,1.0452089E0,-1.168846E0,-6.424027E-2,2.1494919E-1,-2.2102676E-1,-1.0658745E0,-1.2625791E-2,4.0644738E-1,6.389668E-2,3.214715E-2,2.5940955E-1,-2.974619E-1,9.328189E-3,-5.3953683E-1,1.2985996E0,2.649313E-2,-1.3952368E-2],"categories":[],"categories_nodes":[],"categories_segments":[],"categories_sizes":[],"default_left":[0,0,0,0,0,0,0,0,0,0,0,0,0,0,0,0,0,0,0,0,0,0,0,0,0,0,0,0,0,0,0,0,0],"id":27,"left_children":[1,3,5,-1,7,9,11,-1,13,15,17,19,21,-1,-1,-1,23,-1,-1,25,27,29,31,-1,-1,-1,-1,-1,-1,-1,-1,-1,-1],"loss_changes":[9.945064E0,2.735386E-1,1.2808532E1,0E0,9.422791E-2,2.562909E1,9.626869E0,0E0,6.0235262E-2,1.6520936E0,8.927959E0,1.0560118E2,3.42578E1,0E0,0E0,0E0,4.8444223E-1,0E0,0E0,1.0629474E2,1.7020456E2,1.3029504E2,2.7678188E1,0E0,0E0,0E0,0E0,0E0,0E0,0E0,0E0,0E0,0E0],"parents":[2147483647,0,0,1,1,2,2,4,4,5,5,6,6,8,8,9,9,10,10,11,11,12,12,16,16,19,19,20,20,21,21,22,22],"right_children":[2,4,6,-1,8,10,12,-1,14,16,18,20,22,-1,-1,-1,24,-1,-1,26,28,30,32,-1,-1,-1,-1,-1,-1,-1,-1,-1,-1],"split_conditions":[2.859E1,2.853E1,2.871E1,4.4325295E-1,3.0555556E0,5.5555553E0,2.946E1,2.482062E-1,2.856E1,3.0555556E0,2.23E2,2.23E2,2.947E1,8.254195E-3,1.0781093E-1,-7.3871695E-2,2.868E1,-1.168846E0,-6.424027E-2,2.942E1,1.451E3,1.3055555E1,5.5555553E0,4.0644738E-1,6.389668E-2,3.214715E-2,2.5940955E-1,-2.974619E-1,9.328189E-3,-5.3953683E-1,1.2985996E0,2.649313E-2,-1.3952368E-2],"split_indices":[2,2,2,0,1,1,2,0,2,1,0,0,2,0,0,0,2,0,0,2,0,1,1,0,0,0,0,0,0,0,0,0,0],"split_type":[0,0,0,0,0,0,0,0,0,0,0,0,0,0,0,0,0,0,0,0,0,0,0,0,0,0,0,0,0,0,0,0,0],"sum_hessian":[1.0526E4,6E0,1.052E4,3E0,3E0,6E0,1.0514E4,1E0,2E0,3E0,3E0,2.393E3,8.121E3,1E0,1E0,1E0,2E0,2E0,1E0,1.518E3,8.75E2,3E1,8.091E3,1E0,1E0,1.303E3,2.15E2,2.15E2,6.6E2,2.7E1,3E0,2.033E3,6.058E3],"tree_param":{"num_deleted":"0","num_feature":"3","num_nodes":"33","size_leaf_vector":"1"}},{"base_weights":[-1.5902643E-4,-2.9277694E-1,3.5279128E-3,1.0985978E0,-4.6865597E-1,-1.634466E-3,1.6822277E-1,1.1846474E0,-1.5914602E-2,-2.672141E-1,-1.1302321E0,8.778518E-3,-4.7283837E-1,-1.376142E0,3.3503076E-1,5.976811E-1,4.0789974E-1,-3.4900215E-1,6.249624E-1,-1.6940976E0,-5.661998E-1,-2.0200154E-3,1.201469E-1,-6.436535E-1,7.0925194E-1,-3.5132164E-1,-5.587673E0,1.6173273E0,1.4978093E-1,2.9774106E-1,1.0995031E-3,-7.723874E-2,-2.7992615E-1,-2.9101717E-1,7.387489E-1,-2.524984E-1,-5.5969876E-1,3.1248143E-2,-2.735388E-1,3.7018794E-3,-3.237709E-2,5.553535E-1,2.3825744E-2,-9.149126E-2,-4.8567542E-1,1.2442637E-1,7.117642E-1,-3.2341427E-1,1.1745548E0,-1.8999454E0,-2.790425E-1,1.3168097E0,2.3905723E-1,-5.8119625E-1,9.290613E-2],"categories":[],"categories_nodes":[],"categories_segments":[],"categories_sizes":[],"default_left":[0,0,0,0,0,0,0,0,0,0,0,0,0,0,0,0,0,0,0,0,0,0,0,0,0,0,0,0,0,0,0,0,0,0,0,0,0,0,0,0,0,0,0,0,0,0,0,0,0,0,0,0,0,0,0],"id":28,"left_children":[1,3,5,7,9,11,13,15,-1,17,19,21,23,25,27,29,-1,31,33,35,37,39,41,43,45,47,49,51,53,-1,-1,-1,-1,-1,-1,-1,-1,-1,-1,-1,-1,-1,-1,-1,-1,-1,-1,-1,-1,-1,-1,-1,-1,-1,-1],"loss_changes":[1.1358241E1,3.2572346E1,8.839983E0,1.549324E0,1.5290478E1,4.9472878E1,8.186656E1,6.255741E-1,0E0,6.8583274E0,7.627838E0,1.1864041E1,4.447484E1,1.3183487E2,6.7695694E1,1.168918E0,0E0,4.250989E0,2.5835983E1,3.3097458E-1,3.5700827E0,1.3678822E1,6.1329865E1,6.2594566E1,1.2731383E1,8.483581E1,1.4941803E1,7.837975E1,8.4368835E1,0E0,0E0,0E0,0E0,0E0,0E0,0E0,0E0,0E0,0E0,0E0,0E0,0E0,0E0,0E0,0E0,0E0,0E0,0E0,0E0,0E0,0E0,0E0,0E0,0E0,0E0],"parents":[2147483647,0,0,1,1,2,2,3,3,4,4,5,5,6,6,7,7,9,9,10,10,11,11,12,12,13,13,14,14,15,15,17,17,18,18,19,19,20,20,21,21,22,22,23,23,24,24,25,25,26,26,27,27,28,28],"right_children":[2,4,6,8,10,12,14,16,-1,18,20,22,24,26,28,30,-1,32,34,36,38,40,42,44,46,48,50,52,54,-1,-1,-1,-1,-1,-1,-1,-1,-1,-1,-1,-1,-1,-1,-1,-1,-1,-1,-1,-1,-1,-1,-1,-1,-1,-1],"split_conditions":[-2.2222223E0,2.9075E1,1.7777779E1,-2.7777777E0,4.579E3,1.6944445E1,2.9635E1,-6.111111E0,-1.5914602E-2,3.58E3,6.157E3,1.4444445E1,3.0135E1,2.9575E1,2.9725E1,1.004E3,4.0789974E-1,-2.5E0,-3.3333333E0,2.9515E1,3.0015E1,1.25E1,2.9105E1,2.9905E1,2.23E2,2.9545E1,2.23E2,1.8333334E1,2.9785E1,2.9774106E-1,1.0995031E-3,-7.723874E-2,-2.7992615E-1,-2.9101717E-1,7.387489E-1,-2.524984E-1,-5.5969876E-1,3.1248143E-2,-2.735388E-1,3.7018794E-3,-3.237709E-2,5.553535E-1,2.3825744E-2,-9.149126E-2,-4.8567542E-1,1.2442637E-1,7.117642E-1,-3.2341427E-1,1.1745548E0,-1.8999454E0,-2.790425E-1,1.3168097E0,2.3905723E-1,-5.8119625E-1,9.290613E-2],"split_indices":[1,2,1,1,0,1,2,1,0,0,0,1,2,2,2,0,0,1,1,2,2,1,2,2,0,2,0,1,2,0,0,0,0,0,0,0,0,0,0,0,0,0,0,0,0,0,0,0,0,0,0,0,0,0,0],"split_type":[0,0,0,0,0,0,0,0,0,0,0,0,0,0,0,0,0,0,0,0,0,0,0,0,0,0,0,0,0,0,0,0,0,0,0,0,0,0,0,0,0,0,0,0,0,0,0,0,0,0,0,0,0,0,0],"sum_hessian":[1.0526E4,1.3E2,1.0396E4,1.4E1,1.16E2,1.0081E4,3.15E2,1.3E1,1E0,9E1,2.6E1,9.864E3,2.17E2,3E1,2.85E2,4E0,9E0,8.3E1,7E0,1.2E1,1.4E1,8.993E3,8.71E2,1.9E2,2.7E1,2.5E1,5E0,3.5E1,2.5E2,2E0,2E0,7.3E1,1E1,4E0,3E0,3E0,9E0,5E0,9E0,7.92E3,1.073E3,1.9E1,8.52E2,1.42E2,4.8E1,2.4E1,3E0,2.2E1,3E0,4E0,1E0,7E0,2.8E1,1.7E1,2.33E2],"tree_param":{"num_deleted":"0","num_feature":"3","num_nodes":"55","size_leaf_vector":"1"}},{"base_weights":[-8.507683E-5,1.6133346E-3,-4.345035E-1,2.7634422E-4,5.3953564E-1,-2.3470786E-1,-6.6718084E-1,2.4661098E-3,-9.521919E-1,2.016701E0,-1.10825315E-1,-2.3137167E-2,-7.519144E-1,-4.2511427E-4,1.2571546E0,-1.4116262E0,-2.9620608E-2,2.7091427E0,-4.2455873E-1,-1.0635569E0,1.3428417E-1,-1.2020886E-1,5.893452E-1,-1.08299935E-2,-4.9171492E-1,2.772985E-3,-3.3455532E-2,-2.034642E-1,6.281898E-1,-2.3973265E-1,-9.1482043E-1,9.296656E-2,-2.435805E-1,4.528968E-1,1.4859095E0,2.1519758E-2,-4.397693E-1,5.3610307E-1,-2.8509475E-2,-5.3143118E-2,1.869342E-1,3.4742534E-1,4.1212086E-3,-2.0519352E-1,1.1856752E-1],"categories":[],"categories_nodes":[],"categories_segments":[],"categories_sizes":[],"default_left":[0,0,0,0,0,0,0,0,0,0,0,0,0,0,0,0,0,0,0,0,0,0,0,0,0,0,0,0,0,0,0,0,0,0,0,0,0,0,0,0,0,0,0,0,0],"id":29,"left_children":[1,3,5,7,9,11,-1,13,15,17,19,21,23,25,27,29,31,33,-1,35,37,39,41,43,-1,-1,-1,-1,-1,-1,-1,-1,-1,-1,-1,-1,-1,-1,-1,-1,-1,-1,-1,-1,-1],"loss_changes":[7.7677445E0,7.542069E0,1.4136381E1,2.1822752E1,2.5201462E1,4.140781E0,0E0,3.7868893E1,1.0130852E1,2.2845074E1,4.5797668E0,1.7355763E0,7.2141128E0,1.1188798E1,4.028908E1,1.3613852E1,2.6420355E0,1.1363232E1,0E0,1.9322448E0,6.23376E0,1.1684055E0,1.293574E0,2.1836724E0,0E0,0E0,0E0,0E0,0E0,0E0,0E0,0E0,0E0,0E0,0E0,0E0,0E0,0E0,0E0,0E0,0E0,0E0,0E0,0E0,0E0],"parents":[2147483647,0,0,1,1,2,2,3,3,4,4,5,5,7,7,8,8,9,9,10,10,11,11,12,12,13,13,14,14,15,15,16,16,17,17,19,19,20,20,21,21,22,22,23,23],"right_children":[2,4,6,8,10,12,-1,14,16,18,20,22,24,26,28,30,32,34,-1,36,38,40,42,44,-1,-1,-1,-1,-1,-1,-1,-1,-1,-1,-1,-1,-1,-1,-1,-1,-1,-1,-1,-1,-1],"split_conditions":[3.0455E1,3.9077E4,6.9444447E0,2.2663E4,2.9435E1,3.053E1,-6.6718084E-1,1.6188E4,2.993E1,8.055555E0,2.9755E1,4.244E3,2.23E2,4.699E3,2.5E0,2.9815E1,6.388889E0,2.9405E1,-4.2455873E-1,2.946E1,2.9845E1,6.111111E0,6.141E3,5E0,-4.9171492E-1,2.772985E-3,-3.3455532E-2,-2.034642E-1,6.281898E-1,-2.3973265E-1,-9.1482043E-1,9.296656E-2,-2.435805E-1,4.528968E-1,1.4859095E0,2.1519758E-2,-4.397693E-1,5.3610307E-1,-2.8509475E-2,-5.3143118E-2,1.869342E-1,3.4742534E-1,4.1212086E-3,-2.0519352E-1,1.1856752E-1],"split_indices":[2,0,1,0,2,2,0,0,2,1,2,0,0,0,1,2,1,2,0,2,2,1,0,1,0,0,0,0,0,0,0,0,0,0,0,0,0,0,0,0,0,0,0,0,0],"split_type":[0,0,0,0,0,0,0,0,0,0,0,0,0,0,0,0,0,0,0,0,0,0,0,0,0,0,0,0,0,0,0,0,0,0,0,0,0,0,0,0,0,0,0,0,0],"sum_hessian":[1.0526E4,1.0486E4,4E1,1.0461E4,2.5E1,3.7E1,3E0,1.0438E4,2.3E1,7E0,1.8E1,2.7E1,1E1,1.0415E4,2.3E1,1.5E1,8E0,6E0,1E0,3E0,1.5E1,2.4E1,3E0,6E0,4E0,9.582E3,8.33E2,7E0,1.6E1,1.2E1,3E0,6E0,2E0,5E0,1E0,1E0,2E0,1E0,1.4E1,2.3E1,1E0,1E0,2E0,2E0,4E0],"tree_param":{"num_deleted":"0","num_feature":"3","num_nodes":"45","size_leaf_vector":"1"}},{"base_weights":[-6.59752E-5,-1.2432054E-2,5.243598E-2,-5.402516E-3,-6.6602125E0,2.3104944E0,1.46798445E-2,3.3828588E-3,-1.1129347E0,-8.171719E-1,-2.779343E0,5.5517197E-1,4.37987E0,7.286271E-2,-6.0751605E-1,-1.7763795E-1,2.5397154E-2,-1.7444578E0,1.0090737E0,1.7986697E0,-7.4384296E-1,4.7573233E0,-1.3567126E-1,-5.5786107E-2,5.8126646E-1,-2.0212436E0,-3.244746E-1,-6.614696E-2,7.7969974E-1,1.018663E-2,-2.7859658E-1,-4.2150974E-1,-1.3962152E0,9.892338E-1,-8.551207E-3,3.2542497E-1,9.308698E-1,-9.001327E-1,5.8608655E-2,2.1767113E0,1.1208854E0,4.0742543E-2,-1.5405096E-1,3.5421097E-1,-4.333444E-2,-3.097963E-2,-9.2431504E-1,1.5539998E0,-1.4416271E-1],"categories":[],"categories_nodes":[],"categories_segments":[],"categories_sizes":[],"default_left":[0,0,0,0,0,0,0,0,0,0,0,0,0,0,0,0,0,0,0,0,0,0,0,0,0,0,0,0,0,0,0,0,0,0,0,0,0,0,0,0,0,0,0,0,0,0,0,0,0],"id":30,"left_children":[1,3,5,7,9,11,13,15,17,-1,-1,19,21,23,25,27,29,31,33,35,37,39,-1,41,43,45,47,-1,-1,-1,-1,-1,-1,-1,-1,-1,-1,-1,-1,-1,-1,-1,-1,-1,-1,-1,-1,-1,-1],"loss_changes":[6.835236E0,3.9815735E2,1.71074E2,8.283598E1,6.7025055E1,1.1743834E2,7.154151E1,3.366619E1,9.1546814E1,0E0,0E0,3.202905E1,2.9509857E1,1.1822024E2,6.696841E1,1.0956259E2,6.153066E1,4.4815567E1,3.8083813E1,5.945286E0,2.178027E1,8.603821E0,0E0,1.2661523E2,1.5895282E2,5.659703E1,1.2447726E2,0E0,0E0,0E0,0E0,0E0,0E0,0E0,0E0,0E0,0E0,0E0,0E0,0E0,0E0,0E0,0E0,0E0,0E0,0E0,0E0,0E0,0E0],"parents":[2147483647,0,0,1,1,2,2,3,3,4,4,5,5,6,6,7,7,8,8,11,11,12,12,13,13,14,14,15,15,16,16,17,17,18,18,19,19,20,20,21,21,23,23,24,24,25,25,26,26],"right_children":[2,4,6,8,10,12,14,16,18,-1,-1,20,22,24,26,28,30,32,34,36,38,40,-1,42,44,46,48,-1,-1,-1,-1,-1,-1,-1,-1,-1,-1,-1,-1,-1,-1,-1,-1,-1,-1,-1,-1,-1,-1],"split_conditions":[1.451E3,1.343E3,1.455E3,1.23E3,4.4444447E0,2.9635E1,1.1944445E1,2.7777777E0,1.1666667E1,-8.171719E-1,-2.779343E0,2.9345E1,3.003E1,7.7777777E0,2.01E3,1.118E3,1.117E3,9.166667E0,2.9815E1,1.453E3,1.3888888E0,2.9695E1,-1.3567126E-1,5E0,2.983E1,2.9695E1,2.124E3,-6.614696E-2,7.7969974E-1,1.018663E-2,-2.7859658E-1,-4.2150974E-1,-1.3962152E0,9.892338E-1,-8.551207E-3,3.2542497E-1,9.308698E-1,-9.001327E-1,5.8608655E-2,2.1767113E0,1.1208854E0,4.0742543E-2,-1.5405096E-1,3.5421097E-1,-4.333444E-2,-3.097963E-2,-9.2431504E-1,1.5539998E0,-1.4416271E-1],"split_indices":[0,0,0,0,1,2,1,1,1,0,0,2,2,1,0,0,0,1,2,0,1,2,0,1,2,2,0,0,0,0,0,0,0,0,0,0,0,0,0,0,0,0,0,0,0,0,0,0,0],"split_type":[0,0,0,0,0,0,0,0,0,0,0,0,0,0,0,0,0,0,0,0,0,0,0,0,0,0,0,0,0,0,0,0,0,0,0,0,0,0,0,0,0,0,0,0,0,0,0,0,0],"sum_hessian":[1.0526E4,8.52E3,2.006E3,8.512E3,8E0,3.2E1,1.974E3,8.446E3,6.6E1,4E0,4E0,1.8E1,1.4E1,1.806E3,1.68E2,9.15E2,7.531E3,5.1E1,1.5E1,9E0,9E0,1.3E1,1E0,1.442E3,3.64E2,2.7E1,1.41E2,9.02E2,1.3E1,7.465E3,6.6E1,4.7E1,4E0,4E0,1.1E1,7E0,2E0,2E0,7E0,2E0,1.1E1,1.017E3,4.25E2,1.99E2,1.65E2,1E1,1.7E1,3E0,1.38E2],"tree_param":{"num_deleted":"0","num_feature":"3","num_nodes":"49","size_leaf_vector":"1"}},{"base_weights":[-2.3358061E-5,2.6103284E-2,-2.6600542E-2,2.528462E-1,1.1412274E-2,-9.909001E-1,-1.6704185E-2,-1.5299048E-1,9.687039E-1,-4.7854713E-1,3.574287E-2,-3.5666806E-1,-4.5138717E0,3.0898175E-1,-4.9130633E-2,-3.9181253E-1,1.1181262E0,2.1612675E0,7.757324E-2,3.4353623E-1,-1.2897009E0,6.1292356E-1,1.5368442E-2,-8.9801055E-1,1.681966E0,-2.1653528E0,-2.4095743E0,-2.4970919E-1,