{"learner":{"attributes":{"scikit_learn":"{\"_estimator_type\": \"regressor\"}"},"feature_names":[],"feature_types":[],"gradient_booster":{"model":{"gbtree_model_param":{"num_parallel_tree":"1","num_trees":"50"},"iteration_indptr":[0,1,2,3,4,5,6,7,8,9,10,11,12,13,14,15,16,17,18,19,20,21,22,23,24,25,26,27,28,29,30,31,32,33,34,35,36,37,38,39,40,41,42,43,44,45,46,47,48,49,50],"tree_info":[0,0,0,0,0,0,0,0,0,0,0,0,0,0,0,0,0,0,0,0,0,0,0,0,0,0,0,0,0,0,0,0,0,0,0,0,0,0,0,0,0,0,0,0,0,0,0,0,0,0],"trees":[{"base_weights":[2.9609123E-7,-1.1605145E0,7.7969676E-1,-3.7673814E0,-8.9731973E-1,4.0014964E-1,1.5722501E0,-1.3736397E0,-8.63234E-1,-4.410639E-1,-1.7854214E-1,2.8945407E-2,2.1020466E-1,3.933951E-1,6.9552386E-1],"categories":[],"categories_nodes":[],"categories_segments":[],"categories_sizes":[],"default_left":[0,0,0,0,0,0,0,0,0,0,0,0,0,0,0],"id":0,"left_children":[1,3,5,7,9,11,13,-1,-1,-1,-1,-1,-1,-1,-1],"loss_changes":[1.3512113E4,4.113987E3,2.6862178E3,3.8398535E2,9.4295605E2,5.5124133E2,5.600283E2,0E0,0E0,0E0,0E0,0E0,0E0,0E0,0E0],"parents":[2147483647,0,0,1,1,2,2,3,3,4,4,5,5,6,6],"right_children":[2,4,6,8,10,12,14,-1,-1,-1,-1,-1,-1,-1,-1],"split_conditions":[1.98E1,1.76E1,2.1E1,1.62E1,1.89E1,2.04E1,2.18E1,-1.3736397E0,-8.63234E-1,-4.410639E-1,-1.7854214E-1,2.8945407E-2,2.1020466E-1,3.933951E-1,6.9552386E-1],"split_indices":[3,3,3,3,3,3,3,0,0,0,0,0,0,0,0],"split_type":[0,0,0,0,0,0,0,0,0,0,0,0,0,0,0],"sum_hessian":[1.4931E4,6E3,8.931E3,5.49E2,5.451E3,6.04E3,2.891E3,2.85E2,2.64E2,1.881E3,3.57E3,3.005E3,3.035E3,2.144E3,7.47E2],"tree_param":{"num_deleted":"0","num_feature":"4","num_nodes":"15","size_leaf_vector":"1"}},{"base_weights":[-1.0192576E-4,-9.962282E-1,4.5684925E-1,-2.9190145E0,-8.0173284E-1,8.264237E-2,9.350396E-1,-1.0410093E0,-7.435301E-1,-4.0685412E-1,-1.887986E-1,-3.6233824E-2,8.031293E-2,2.1786678E-1,4.383286E-1],"categories":[],"categories_nodes":[],"categories_segments":[],"categories_sizes":[],"default_left":[0,0,0,0,0,0,0,0,0,0,0,0,0,0,0],"id":1,"left_children":[1,3,5,7,9,11,13,-1,-1,-1,-1,-1,-1,-1,-1],"loss_changes":[6.7972183E3,1.7538369E3,1.8317532E3,9.603247E1,4.069292E2,2.162752E2,4.9260156E2,0E0,0E0,0E0,0E0,0E0,0E0,0E0,0E0],"parents":[2147483647,0,0,1,1,2,2,3,3,4,4,5,5,6,6],"right_children":[2,4,6,8,10,12,14,-1,-1,-1,-1,-1,-1,-1,-1],"split_conditions":[1.95E1,1.72E1,2.07E1,1.57E1,1.85E1,2.01E1,2.15E1,-1.0410093E0,-7.435301E-1,-4.0685412E-1,-1.887986E-1,-3.6233824E-2,8.031293E-2,2.1786678E-1,4.383286E-1],"split_indices":[3,3,3,3,3,3,3,0,0,0,0,0,0,0,0],"split_type":[0,0,0,0,0,0,0,0,0,0,0,0,0,0,0],"sum_hessian":[1.4931E4,4.695E3,1.0236E4,4.3E2,4.265E3,5.743E3,4.493E3,1.88E2,2.42E2,1.01E3,3.255E3,2.736E3,3.007E3,3.218E3,1.275E3],"tree_param":{"num_deleted":"0","num_feature":"4","num_nodes":"15","size_leaf_vector":"1"}},{"base_weights":[-1.836449E-4,-6.536281E-1,3.4472328E-1,-1.7003788E0,-4.726772E-1,1.2760158E-1,7.4250156E-1,-6.6548413E-1,-3.847583E-1,-1.9387467E-1,-8.124771E-2,-1.29876705E-2,7.86035E-2,1.9334857E-1,4.4402352E-1],"categories":[],"categories_nodes":[],"categories_segments":[],"categories_sizes":[],"default_left":[0,0,0,0,0,0,0,0,0,0,0,0,0,0,0],"id":2,"left_children":[1,3,5,7,9,11,13,-1,-1,-1,-1,-1,-1,-1,-1],"loss_changes":[3.3655625E3,9.76365E2,8.4404944E2,1.6162354E2,1.5398206E2,1.4527267E2,2.4850952E2,0E0,0E0,0E0,0E0,0E0,0E0,0E0,0E0],"parents":[2147483647,0,0,1,1,2,2,3,3,4,4,5,5,6,6],"right_children":[2,4,6,8,10,12,14,-1,-1,-1,-1,-1,-1,-1,-1],"split_conditions":[1.96E1,1.8E1,2.09E1,1.66E1,1.91E1,2.02E1,2.22E1,-6.6548413E-1,-3.847583E-1,-1.9387467E-1,-8.124771E-2,-1.29876705E-2,7.86035E-2,1.9334857E-1,4.4402352E-1],"split_indices":[3,3,3,3,3,3,3,0,0,0,0,0,0,0,0],"split_type":[0,0,0,0,0,0,0,0,0,0,0,0,0,0,0],"sum_hessian":[1.4931E4,5.158E3,9.773E3,7.59E2,4.399E3,6.323E3,3.45E3,3.37E2,4.22E2,2.364E3,2.035E3,2.784E3,3.539E3,3.047E3,4.03E2],"tree_param":{"num_deleted":"0","num_feature":"4","num_nodes":"15","size_leaf_vector":"1"}},{"base_weights":[-1.7037304E-4,-5.2836084E-1,2.1189897E-1,-1.150714E0,-3.7279996E-1,1.0162949E-1,6.610675E-1,-5.185888E-1,-2.8543228E-1,-1.2598401E-1,3.1518585E-3,-3.0520863E-3,8.1502795E-2,1.7791888E-1,3.840297E-1],"categories":[],"categories_nodes":[],"categories_segments":[],"categories_sizes":[],"default_left":[0,0,0,0,0,0,0,0,0,0,0,0,0,0,0],"id":3,"left_children":[1,3,5,7,9,11,13,-1,-1,-1,-1,-1,-1,-1,-1],"loss_changes":[1.6726901E3,4.1374048E2,5.2767053E2,9.681958E1,6.1881653E1,1.626671E2,8.764441E1,0E0,0E0,0E0,0E0,0E0,0E0,0E0,0E0],"parents":[2147483647,0,0,1,1,2,2,3,3,4,4,5,5,6,6],"right_children":[2,4,6,8,10,12,14,-1,-1,-1,-1,-1,-1,-1,-1],"split_conditions":[1.94E1,1.81E1,2.12E1,1.58E1,3.11E1,2.05E1,2.25E1,-5.185888E-1,-2.8543228E-1,-1.2598401E-1,3.1518585E-3,-3.0520863E-3,8.1502795E-2,1.7791888E-1,3.840297E-1],"split_indices":[3,3,3,3,1,3,3,0,0,0,0,0,0,0,0],"split_type":[0,0,0,0,0,0,0,0,0,0,0,0,0,0,0],"sum_hessian":[1.4931E4,4.277E3,1.0654E4,8.54E2,3.423E3,8.555E3,2.099E3,2.17E2,6.37E2,3.048E3,3.75E2,5.162E3,3.393E3,1.893E3,2.06E2],"tree_param":{"num_deleted":"0","num_feature":"4","num_nodes":"15","size_leaf_vector":"1"}},{"base_weights":[-1.3855779E-4,-2.5891665E-1,2.2643042E-1,-7.522653E-1,-1.6685247E-1,1.4743778E-1,5.0069165E-1,-3.3011225E-1,-1.6956916E-1,-8.461489E-2,-2.617008E-2,2.2988977E-2,6.358203E-2,1.3644049E-1,3.0805206E-1],"categories":[],"categories_nodes":[],"categories_segments":[],"categories_sizes":[],"default_left":[0,0,0,0,0,0,0,0,0,0,0,0,0,0,0],"id":4,"left_children":[1,3,5,7,9,11,13,-1,-1,-1,-1,-1,-1,-1,-1],"loss_changes":[8.755379E2,3.1649542E2,1.7241989E2,7.073694E1,5.3869293E1,2.822319E1,4.2511047E1,0E0,0E0,0E0,0E0,0E0,0E0,0E0,0E0],"parents":[2147483647,0,0,1,1,2,2,3,3,4,4,5,5,6,6],"right_children":[2,4,6,8,10,12,14,-1,-1,-1,-1,-1,-1,-1,-1],"split_conditions":[2E1,1.83E1,2.13E1,1.69E1,1.92E1,2.06E1,2.27E1,-3.3011225E-1,-1.6956916E-1,-8.461489E-2,-2.617008E-2,2.2988977E-2,6.358203E-2,1.3644049E-1,3.0805206E-1],"split_indices":[3,3,3,3,3,3,3,0,0,0,0,0,0,0,0],"split_type":[0,0,0,0,0,0,0,0,0,0,0,0,0,0,0],"sum_hessian":[1.4931E4,6.97E3,7.961E3,1.095E3,5.875E3,6.182E3,1.779E3,3.81E2,7.14E2,2.4E3,3.475E3,2.948E3,3.234E3,1.638E3,1.41E2],"tree_param":{"num_deleted":"0","num_feature":"4","num_nodes":"15","size_leaf_vector":"1"}},{"base_weights":[-1.0194148E-4,-1.9278437E-1,1.4975454E-1,-4.641614E-1,-1.02765374E-1,1.00816965E-1,3.7244603E-1,-3.27038E-1,-1.2326672E-1,-3.9026827E-2,6.637305E-2,1.3607419E-2,4.632777E-2,8.7843664E-2,1.6489057E-1],"categories":[],"categories_nodes":[],"categories_segments":[],"categories_sizes":[],"default_left":[0,0,0,0,0,0,0,0,0,0,0,0,0,0,0],"id":5,"left_children":[1,3,5,7,9,11,13,-1,-1,-1,-1,-1,-1,-1,-1],"loss_changes":[4.3118604E2,1.5954752E2,9.150549E1,5.3807037E1,4.3471584E1,2.0471657E1,2.1187897E1,0E0,0E0,0E0,0E0,0E0,0E0,0E0,0E0],"parents":[2147483647,0,0,1,1,2,2,3,3,4,4,5,5,6,6],"right_children":[2,4,6,8,10,12,14,-1,-1,-1,-1,-1,-1,-1,-1],"split_conditions":[1.99E1,1.86E1,2.14E1,1.53E1,4.36E1,2.06E1,2.21E1,-3.27038E-1,-1.2326672E-1,-3.9026827E-2,6.637305E-2,1.3607419E-2,4.632777E-2,8.7843664E-2,1.6489057E-1],"split_indices":[3,3,3,3,1,3,3,0,0,0,0,0,0,0,0],"split_type":[0,0,0,0,0,0,0,0,0,0,0,0,0,0,0],"sum_hessian":[1.4931E4,6.532E3,8.399E3,1.626E3,4.906E3,6.887E3,1.512E3,1.26E2,1.5E3,4.525E3,3.81E2,3.386E3,3.501E3,1.045E3,4.67E2],"tree_param":{"num_deleted":"0","num_feature":"4","num_nodes":"15","size_leaf_vector":"1"}},{"base_weights":[-7.879437E-5,-2.0792098E-1,7.1465775E-2,-5.754442E-1,-1.6505767E-1,1.209471E-2,1.7877175E-1,-2.9547215E-1,-1.5171652E-1,-5.9452426E-2,2.5155978E-2,-2.0063368E-3,5.5740613E-2,4.414878E-2,1.12541266E-1],"categories":[],"categories_nodes":[],"categories_segments":[],"categories_sizes":[],"default_left":[0,0,0,0,0,0,0,0,0,0,0,0,0,0,0],"id":6,"left_children":[1,3,5,7,9,11,13,-1,-1,-1,-1,-1,-1,-1,-1],"loss_changes":[2.2205339E2,6.0145508E1,7.0771835E1,1.0892883E1,2.8257828E1,2.3339037E1,2.4505722E1,0E0,0E0,0E0,0E0,0E0,0E0,0E0,0E0],"parents":[2147483647,0,0,1,1,2,2,3,3,4,4,5,5,6,6],"right_children":[2,4,6,8,10,12,14,-1,-1,-1,-1,-1,-1,-1,-1],"split_conditions":[1.93E1,1.7E1,2.08E1,1.5E1,2.91E1,4.58E1,2.2E1,-2.9547215E-1,-1.5171652E-1,-5.9452426E-2,2.5155978E-2,-2.0063368E-3,5.5740613E-2,4.414878E-2,1.12541266E-1],"split_indices":[3,3,3,3,1,1,3,0,0,0,0,0,0,0,0],"split_type":[0,0,0,0,0,0,0,0,0,0,0,0,0,0,0],"sum_hessian":[1.4931E4,3.823E3,1.1108E4,3.98E2,3.425E3,7.152E3,3.956E3,5.6E1,3.42E2,3.023E3,4.02E2,6.455E3,6.97E2,3.409E3,5.47E2],"tree_param":{"num_deleted":"0","num_feature":"4","num_nodes":"15","size_leaf_vector":"1"}},{"base_weights":[-7.343471E-5,-9.5201515E-2,8.3214425E-2,-2.727462E-1,-5.6701392E-2,5.4240305E-2,1.8381204E-1,-9.42283E-2,6.557102E-2,-2.1363292E-2,3.3987798E-2,3.6476832E-4,2.2758808E-2,4.9459852E-2,1.7689829E-1],"categories":[],"categories_nodes":[],"categories_segments":[],"categories_sizes":[],"default_left":[0,0,0,0,0,0,0,0,0,0,0,0,0,0,0],"id":7,"left_children":[1,3,5,7,9,11,13,-1,-1,-1,-1,-1,-1,-1,-1],"loss_changes":[1.1831436E2,4.7634754E1,2.3197086E1,2.5299881E1,1.4141361E1,7.0888042E0,1.3589493E1,0E0,0E0,0E0,0E0,0E0,0E0,0E0,0E0],"parents":[2147483647,0,0,1,1,2,2,3,3,4,4,5,5,6,6],"right_children":[2,4,6,8,10,12,14,-1,-1,-1,-1,-1,-1,-1,-1],"split_conditions":[2E1,1.84E1,2.13E1,2.66E1,4.28E1,7.2222223E0,2.29E1,-9.42283E-2,6.557102E-2,-2.1363292E-2,3.3987798E-2,3.6476832E-4,2.2758808E-2,4.9459852E-2,1.7689829E-1],"split_indices":[3,3,3,1,1,2,3,0,0,0,0,0,0,0,0],"split_type":[0,0,0,0,0,0,0,0,0,0,0,0,0,0,0],"sum_hessian":[1.4931E4,6.97E3,7.961E3,1.241E3,5.729E3,6.182E3,1.779E3,1.145E3,9.6E1,5.279E3,4.5E2,1.791E3,4.391E3,1.701E3,7.8E1],"tree_param":{"num_deleted":"0","num_feature":"4","num_nodes":"15","size_leaf_vector":"1"}},{"base_weights":[-3.519526E-5,-1.5818387E-1,2.6217956E-2,-5.4925764E-1,-1.4242533E-1,-1.7977847E-2,7.2011605E-2,-2.3803459E-1,-1.3394904E-1,-4.77153E-2,4.8959784E-2,-8.914035E-3,3.1789355E-2,8.972499E-3,3.349099E-2],"categories":[],"categories_nodes":[],"categories_segments":[],"categories_sizes":[],"default_left":[0,0,0,0,0,0,0,0,0,0,0,0,0,0,0],"id":8,"left_children":[1,3,5,7,9,11,13,-1,-1,-1,-1,-1,-1,-1,-1],"loss_changes":[6.2000336E1,1.3023785E1,2.5921211E1,1.7033768E0,1.0417038E1,9.483829E0,1.0490543E1,0E0,0E0,0E0,0E0,0E0,0E0,0E0,0E0],"parents":[2147483647,0,0,1,1,2,2,3,3,4,4,5,5,6,6],"right_children":[2,4,6,8,10,12,14,-1,-1,-1,-1,-1,-1,-1,-1],"split_conditions":[1.88E1,1.51E1,2.03E1,1.47E1,3.26E1,4.43E1,1.2222222E1,-2.3803459E-1,-1.3394904E-1,-4.77153E-2,4.8959784E-2,-8.914035E-3,3.1789355E-2,8.972499E-3,3.349099E-2],"split_indices":[3,3,3,3,1,1,2,0,0,0,0,0,0,0,0],"split_type":[0,0,0,0,0,0,0,0,0,0,0,0,0,0,0],"sum_hessian":[1.4931E4,2.125E3,1.2806E4,8.1E1,2.044E3,6.517E3,6.289E3,2.2E1,5.9E1,1.939E3,1.05E2,5.954E3,5.63E2,3.05E3,3.239E3],"tree_param":{"num_deleted":"0","num_feature":"4","num_nodes":"15","size_leaf_vector":"1"}},{"base_weights":[-4.4603818E-5,-1.2380109E-1,1.7358065E-2,-1.5557338E-1,3.1801615E-2,7.0188493E-3,1.3281251E-1,-1.0873633E-1,-4.1878436E-2,6.391298E-2,4.0924756E-4,-1.7435095E-4,2.7445612E-2,3.5293587E-2,1.5102422E-1],"categories":[],"categories_nodes":[],"categories_segments":[],"categories_sizes":[],"default_left":[0,0,0,0,0,0,0,0,0,0,0,0,0,0,0],"id":9,"left_children":[1,3,5,7,9,11,13,-1,-1,-1,-1,-1,-1,-1,-1],"loss_changes":[3.216109E1,9.106588E0,1.5627098E1,5.0037727E0,1.7263849E0,7.7143316E0,5.988968E0,0E0,0E0,0E0,0E0,0E0,0E0,0E0,0E0],"parents":[2147483647,0,0,1,1,2,2,3,3,4,4,5,5,6,6],"right_children":[2,4,6,8,10,12,14,-1,-1,-1,-1,-1,-1,-1,-1],"split_conditions":[1.87E1,2.22E1,2.16E1,1.52E1,1.79E1,4.79E1,2.31E1,-1.0873633E-1,-4.1878436E-2,6.391298E-2,4.0924756E-4,-1.7435095E-4,2.7445612E-2,3.5293587E-2,1.5102422E-1],"split_indices":[3,1,3,3,3,1,3,0,0,0,0,0,0,0,0],"split_type":[0,0,0,0,0,0,0,0,0,0,0,0,0,0,0],"sum_hessian":[1.4931E4,1.84E3,1.3091E4,1.528E3,3.12E2,1.2016E4,1.075E3,1.08E2,1.42E3,4.4E1,2.68E2,1.1025E4,9.91E2,1.034E3,4.1E1],"tree_param":{"num_deleted":"0","num_feature":"4","num_nodes":"15","size_leaf_vector":"1"}},{"base_weights":[-2.329879E-5,-3.520759E-2,3.9957937E-2,-1.6063288E-1,-2.525058E-2,3.441509E-2,1.7994176E-1,-1.2450825E-1,-4.3245625E-2,-9.622395E-3,1.434767E-2,3.7009272E-4,1.4757197E-2,4.0947422E-2,9.711779E-2],"categories":[],"categories_nodes":[],"categories_segments":[],"categories_sizes":[],"default_left":[0,0,0,0,0,0,0,0,0,0,0,0,0,0,0],"id":10,"left_children":[1,3,5,7,9,11,13,-1,-1,-1,-1,-1,-1,-1,-1],"loss_changes":[2.100642E1,9.915643E0,5.4174137E0,2.388669E0,3.671795E0,3.2970362E0,1.6176424E0,0E0,0E0,0E0,0E0,0E0,0E0,0E0,0E0],"parents":[2147483647,0,0,1,1,2,2,3,3,4,4,5,5,6,6],"right_children":[2,4,6,8,10,12,14,-1,-1,-1,-1,-1,-1,-1,-1],"split_conditions":[2.02E1,1.7E1,2.24E1,1.48E1,4.2E1,8.611111E0,2.3E1,-1.2450825E-1,-4.3245625E-2,-9.622395E-3,1.434767E-2,3.7009272E-4,1.4757197E-2,4.0947422E-2,9.711779E-2],"split_indices":[3,1,3,3,1,2,3,0,0,0,0,0,0,0,0],"split_type":[0,0,0,0,0,0,0,0,0,0,0,0,0,0,0],"sum_hessian":[1.4931E4,7.942E3,6.989E3,5.83E2,7.359E3,6.724E3,2.65E2,3.4E1,5.49E2,6.731E3,6.28E2,2.072E3,4.652E3,2.05E2,6E1],"tree_param":{"num_deleted":"0","num_feature":"4","num_nodes":"15","size_leaf_vector":"1"}},{"base_weights":[-1.6848651E-5,-3.0604528E-2,2.5904914E-2,-4.1002367E-2,4.025899E-2,-4.0755637E-2,3.51078E-2,-4.2051468E-2,-1.0031822E-2,-2.5890568E-2,1.5973829E-2,-1.4216838E-2,4.362291E-2,9.829117E-3,5.7306897E-2],"categories":[],"categories_nodes":[],"categories_segments":[],"categories_sizes":[],"default_left":[0,0,0,0,0,0,0,0,0,0,0,0,0,0,0],"id":11,"left_children":[1,3,5,7,9,11,13,-1,-1,-1,-1,-1,-1,-1,-1],"loss_changes":[1.1840176E1,5.0489197E0,4.960104E0,4.47589E0,1.4460843E0,1.2184142E0,2.5897264E0,0E0,0E0,0E0,0E0,0E0,0E0,0E0,0E0],"parents":[2147483647,0,0,1,1,2,2,3,3,4,4,5,5,6,6],"right_children":[2,4,6,8,10,12,14,-1,-1,-1,-1,-1,-1,-1,-1],"split_conditions":[7.7777777E0,4.79E1,1.92E1,1.75E1,3.52E2,3.74E1,2.28E1,-4.2051468E-2,-1.0031822E-2,-2.5890568E-2,1.5973829E-2,-1.4216838E-2,4.362291E-2,9.829117E-3,5.7306897E-2],"split_indices":[2,1,3,3,0,1,3,0,0,0,0,0,0,0,0],"split_type":[0,0,0,0,0,0,0,0,0,0,0,0,0,0,0],"sum_hessian":[1.4931E4,6.849E3,8.082E3,5.973E3,8.76E2,9.8E2,7.102E3,4.22E2,5.551E3,8.1E1,7.95E2,9.47E2,3.3E1,6.998E3,1.04E2],"tree_param":{"num_deleted":"0","num_feature":"4","num_nodes":"15","size_leaf_vector":"1"}},{"base_weights":[-8.895063E-6,-4.076063E-2,1.1777198E-2,-9.127308E-2,-2.3900226E-2,-7.4479444E-4,4.133324E-2,-1.0094942E-1,-2.5735643E-2,-9.574724E-3,7.834731E-5,-2.36723E-2,1.0686645E-3,7.8623565E-3,2.0181742E-2],"categories":[],"categories_nodes":[],"categories_segments":[],"categories_sizes":[],"default_left":[0,0,0,0,0,0,0,0,0,0,0,0,0,0,0],"id":12,"left_children":[1,3,5,7,9,11,13,-1,-1,-1,-1,-1,-1,-1,-1],"loss_changes":[7.172375E0,2.8508806E0,4.2869053E0,1.0988283E0,4.8669112E-1,2.7395873E0,1.3506355E0,0E0,0E0,0E0,0E0,0E0,0E0,0E0,0E0],"parents":[2147483647,0,0,1,1,2,2,3,3,4,4,5,5,6,6],"right_children":[2,4,6,8,10,12,14,-1,-1,-1,-1,-1,-1,-1,-1],"split_conditions":[2.03E1,1.82E1,1.25E1,1.46E1,1.97E1,3.68E2,2.33E1,-1.0094942E-1,-2.5735643E-2,-9.574724E-3,7.834731E-5,-2.36723E-2,1.0686645E-3,7.8623565E-3,2.0181742E-2],"split_indices":[1,3,2,3,3,0,1,0,0,0,0,0,0,0,0],"split_type":[0,0,0,0,0,0,0,0,0,0,0,0,0,0,0],"sum_hessian":[1.4931E4,3.349E3,1.1582E4,8.37E2,2.512E3,8.136E3,3.446E3,1.7E1,8.2E2,1.886E3,6.26E2,4.24E2,7.712E3,2.178E3,1.268E3],"tree_param":{"num_deleted":"0","num_feature":"4","num_nodes":"15","size_leaf_vector":"1"}},{"base_weights":[-1.46196E-5,-2.3399262E-2,1.2240958E-2,-3.2145537E-2,2.5697792E-2,-1.4656302E-2,2.0781914E-2,-2.469764E-2,-7.865591E-3,-3.0358913E-3,1.5042202E-2,1.3536823E-1,-4.86981E-3,5.4293345E-3,2.7107382E-2],"categories":[],"categories_nodes":[],"categories_segments":[],"categories_sizes":[],"default_left":[0,0,0,0,0,0,0,0,0,0,0,0,0,0,0],"id":13,"left_children":[1,3,5,7,9,11,13,-1,-1,-1,-1,-1,-1,-1,-1],"loss_changes":[4.279682E0,2.2058792E0,2.2511826E0,1.2942576E0,6.807562E-1,1.7420187E0,1.3872342E0,0E0,0E0,0E0,0E0,0E0,0E0,0E0,0E0],"parents":[2147483647,0,0,1,1,2,2,3,3,4,4,5,5,6,6],"right_children":[2,4,6,8,10,12,14,-1,-1,-1,-1,-1,-1,-1,-1],"split_conditions":[6.111111E0,4.58E1,1.96E1,3.64E2,2E1,3.39E2,4.58E1,-2.469764E-2,-7.865591E-3,-3.0358913E-3,1.5042202E-2,1.3536823E-1,-4.86981E-3,5.4293345E-3,2.7107382E-2],"split_indices":[2,1,3,0,3,0,1,0,0,0,0,0,0,0,0],"split_type":[0,0,0,0,0,0,0,0,0,0,0,0,0,0,0],"sum_hessian":[1.4931E4,5.134E3,9.797E3,4.358E3,7.76E2,2.361E3,7.436E3,4.59E2,3.899E3,3.15E2,4.61E2,7E0,2.354E3,7.161E3,2.75E2],"tree_param":{"num_deleted":"0","num_feature":"4","num_nodes":"15","size_leaf_vector":"1"}},{"base_weights":[-1.0338923E-6,-1.1208955E-2,1.7692424E-2,-1.6273256E-2,2.9902332E-2,8.7486376E-4,3.9660055E-2,-3.854073E-3,-1.7862925E-2,-1.1953037E-2,1.2838535E-2,-1.2068981E-3,8.735717E-3,1.1348917E-2,6.832562E-2],"categories":[],"categories_nodes":[],"categories_segments":[],"categories_sizes":[],"default_left":[0,0,0,0,0,0,0,0,0,0,0,0,0,0,0],"id":14,"left_children":[1,3,5,7,9,11,13,-1,-1,-1,-1,-1,-1,-1,-1],"loss_changes":[2.9613166E0,1.9038503E0,2.1394038E0,1.2060504E0,9.0361995E-1,4.5399764E-1,8.558488E-1,0E0,0E0,0E0,0E0,0E0,0E0,0E0,0E0],"parents":[2147483647,0,0,1,1,2,2,3,3,4,4,5,5,6,6],"right_children":[2,4,6,8,10,12,14,-1,-1,-1,-1,-1,-1,-1,-1],"split_conditions":[5.09E2,4.79E1,2.26E1,3.65E1,1.94E1,2.11E1,2.32E1,-3.854073E-3,-1.7862925E-2,-1.1953037E-2,1.2838535E-2,-1.2068981E-3,8.735717E-3,1.1348917E-2,6.832562E-2],"split_indices":[0,1,1,1,3,3,3,0,0,0,0,0,0,0,0],"split_type":[0,0,0,0,0,0,0,0,0,0,0,0,0,0,0],"sum_hessian":[1.4931E4,9.141E3,5.79E3,8.139E3,1.002E3,3.28E3,2.51E3,7.543E3,5.96E2,1.56E2,8.46E2,2.796E3,4.84E2,2.487E3,2.3E1],"tree_param":{"num_deleted":"0","num_feature":"4","num_nodes":"15","size_leaf_vector":"1"}},{"base_weights":[4.1547933E-6,-1.9634264E-2,5.683918E-3,-5.7007737E-2,-1.078702E-2,1.4888784E-1,4.800294E-3,-1.2503297E-2,-3.717113E-2,1.8103776E-2,-3.635865E-3,7.464768E-2,-2.1148905E-2,-8.436505E-3,2.4789926E-3],"categories":[],"categories_nodes":[],"categories_segments":[],"categories_sizes":[],"default_left":[0,0,0,0,0,0,0,0,0,0,0,0,0,0,0],"id":15,"left_children":[1,3,5,7,9,11,13,-1,-1,-1,-1,-1,-1,-1,-1],"loss_changes":[1.6656504E0,1.1070702E0,1.4649799E0,6.52195E-1,2.5760332E-1,1.5741991E0,1.312821E0,0E0,0E0,0E0,0E0,0E0,0E0,0E0,0E0],"parents":[2147483647,0,0,1,1,2,2,3,3,4,4,5,5,6,6],"right_children":[2,4,6,8,10,12,14,-1,-1,-1,-1,-1,-1,-1,-1],"split_conditions":[2.03E1,1.79E1,1.8E1,1.76E1,1.8E1,6.9444447E0,3.95E2,-1.2503297E-2,-3.717113E-2,1.8103776E-2,-3.635865E-3,7.464768E-2,-2.1148905E-2,-8.436505E-3,2.4789926E-3],"split_indices":[1,3,3,3,3,2,0,0,0,0,0,0,0,0,0],"split_type":[0,0,0,0,0,0,0,0,0,0,0,0,0,0,0],"sum_hessian":[1.4931E4,3.349E3,1.1582E4,6.4E2,2.709E3,7E1,1.1512E4,5.22E2,1.18E2,4.9E1,2.66E3,4.8E1,2.2E1,1.095E3,1.0417E4],"tree_param":{"num_deleted":"0","num_feature":"4","num_nodes":"15","size_leaf_vector":"1"}},{"base_weights":[3.226347E-6,-3.5974048E-3,2.4583004E-2,-4.1559428E-2,-1.4607488E-3,2.2816256E-2,2.320751E-1,-6.6335656E-2,-1.1583306E-2,-1.8120356E-2,-6.337465E-5,5.79717E-3,1.9158734E-2,7.2231375E-2,1.5244962E-2],"categories":[],"categories_nodes":[],"categories_segments":[],"categories_sizes":[],"default_left":[0,0,0,0,0,0,0,0,0,0,0,0,0,0,0],"id":16,"left_children":[1,3,5,7,9,11,13,-1,-1,-1,-1,-1,-1,-1,-1],"loss_changes":[1.321611E0,1.0564202E0,6.94152E-1,3.5887647E-1,9.081906E-1,2.7012342E-1,1.2984812E-2,0E0,0E0,0E0,0E0,0E0,0E0,0E0,0E0],"parents":[2147483647,0,0,1,1,2,2,3,3,4,4,5,5,6,6],"right_children":[2,4,6,8,10,12,14,-1,-1,-1,-1,-1,-1,-1,-1],"split_conditions":[1.5E1,0E0,2.33E1,1.5E1,3.52E2,2.24E1,5.47E2,-6.6335656E-2,-1.1583306E-2,-1.8120356E-2,-6.337465E-5,5.79717E-3,1.9158734E-2,7.2231375E-2,1.5244962E-2],"split_indices":[2,2,3,1,0,3,0,0,0,0,0,0,0,0,0],"split_type":[0,0,0,0,0,0,0,0,0,0,0,0,0,0,0],"sum_hessian":[1.4931E4,1.3024E4,1.907E3,6.93E2,1.2331E4,1.892E3,1.5E1,1E1,6.83E2,2.55E2,1.2076E4,1.745E3,1.47E2,1.4E1,1E0],"tree_param":{"num_deleted":"0","num_feature":"4","num_nodes":"15","size_leaf_vector":"1"}},{"base_weights":[3.0763852E-6,-4.912693E-2,1.2443974E-3,-1.4914605E-1,-3.681723E-2,-1.4756687E-3,1.7390635E-2,-4.7915097E-2,3.9467957E-2,-1.231715E-2,4.922554E-2,-1.2278461E-3,8.359668E-3,7.0171845E-3,-1.8570676E-2],"categories":[],"categories_nodes":[],"categories_segments":[],"categories_sizes":[],"default_left":[0,0,0,0,0,0,0,0,0,0,0,0,0,0,0],"id":17,"left_children":[1,3,5,7,9,11,13,-1,-1,-1,-1,-1,-1,-1,-1],"loss_changes":[9.1070575E-1,4.4759244E-1,6.397035E-1,1.3970518E-1,2.8698334E-1,9.573837E-1,1.0005345E0,0E0,0E0,0E0,0E0,0E0,0E0,0E0,0E0],"parents":[2147483647,0,0,1,1,2,2,3,3,4,4,5,5,6,6],"right_children":[2,4,6,8,10,12,14,-1,-1,-1,-1,-1,-1,-1,-1],"split_conditions":[1.68E1,1.49E1,2.12E1,5.5555553E0,3.21E1,4.58E1,3.56E1,-4.7915097E-2,3.9467957E-2,-1.231715E-2,4.922554E-2,-1.2278461E-3,8.359668E-3,7.0171845E-3,-1.8570676E-2],"split_indices":[3,3,3,2,1,1,1,0,0,0,0,0,0,0,0],"split_type":[0,0,0,0,0,0,0,0,0,0,0,0,0,0,0],"sum_hessian":[1.4931E4,3.67E2,1.4564E4,3.9E1,3.28E2,1.2465E4,2.099E3,3.8E1,1E0,3.22E2,6E0,1.1445E4,1.02E3,1.952E3,1.47E2],"tree_param":{"num_deleted":"0","num_feature":"4","num_nodes":"15","size_leaf_vector":"1"}},{"base_weights":[4.115451E-6,-1.5615377E-2,2.8186603E-3,-1.9392441E-3,-4.616569E-2,2.3334061E-3,9.393922E-2,-6.9602714E-3,5.4588313E-3,-4.683564E-2,-1.2211691E-2,2.3205682E-4,8.527894E-3,1.6835777E-2,5.5959232E-2],"categories":[],"categories_nodes":[],"categories_segments":[],"categories_sizes":[],"default_left":[0,0,0,0,0,0,0,0,0,0,0,0,0,0,0],"id":18,"left_children":[1,3,5,7,9,11,13,-1,-1,-1,-1,-1,-1,-1,-1],"loss_changes":[6.564811E-1,9.525175E-1,5.592541E-1,6.7512494E-1,4.1689205E-1,5.1229274E-1,2.2415322E-1,0E0,0E0,0E0,0E0,0E0,0E0,0E0,0E0],"parents":[2147483647,0,0,1,1,2,2,3,3,4,4,5,5,6,6],"right_children":[2,4,6,8,10,12,14,-1,-1,-1,-1,-1,-1,-1,-1],"split_conditions":[2.5E0,4.29E2,6.54E2,3.88E2,-3.3333333E0,4.58E1,2.73E1,-6.9602714E-3,5.4588313E-3,-4.683564E-2,-1.2211691E-2,2.3205682E-4,8.527894E-3,1.6835777E-2,5.5959232E-2],"split_indices":[2,0,0,0,2,1,1,0,0,0,0,0,0,0,0],"split_type":[0,0,0,0,0,0,0,0,0,0,0,0,0,0,0],"sum_hessian":[1.4931E4,2.279E3,1.2652E4,1.575E3,7.04E2,1.2586E4,6.6E1,7.66E2,8.09E2,3.2E1,6.72E2,1.1877E4,7.09E2,4.8E1,1.8E1],"tree_param":{"num_deleted":"0","num_feature":"4","num_nodes":"15","size_leaf_vector":"1"}},{"base_weights":[3.739461E-6,-2.0635968E-4,1.649203E-1,1.9568102E-4,-8.30853E-2,1.2186269E-1,2.3790137E-1,-1.3098726E-3,2.2133838E-3,-8.131129E-2,-1.11234635E-2,4.3943383E-2,2.2896605E-2,7.8315474E-2,1.8322565E-2],"categories":[],"categories_nodes":[],"categories_segments":[],"categories_sizes":[],"default_left":[0,0,0,0,0,0,0,0,0,0,0,0,0,0,0],"id":19,"left_children":[1,3,5,7,9,11,13,-1,-1,-1,-1,-1,-1,-1,-1],"loss_changes":[5.174103E-1,4.9696127E-1,3.0714095E-2,4.863622E-1,6.1254454E-1,4.514441E-3,8.61758E-3,0E0,0E0,0E0,0E0,0E0,0E0,0E0,0E0],"parents":[2147483647,0,0,1,1,2,2,3,3,4,4,5,5,6,6],"right_children":[2,4,6,8,10,12,14,-1,-1,-1,-1,-1,-1,-1,-1],"split_conditions":[2.33E1,6.23E1,2.34E1,5.09E2,2E1,1.6944445E1,5.45E2,-1.3098726E-3,2.2133838E-3,-8.131129E-2,-1.11234635E-2,4.3943383E-2,2.2896605E-2,7.8315474E-2,1.8322565E-2],"split_indices":[3,1,3,0,3,2,0,0,0,0,0,0,0,0,0],"split_type":[0,0,0,0,0,0,0,0,0,0,0,0,0,0,0],"sum_hessian":[1.4931E4,1.4913E4,1.8E1,1.4842E4,7.1E1,1.3E1,5E0,9.077E3,5.765E3,1.3E1,5.8E1,7E0,6E0,4E0,1E0],"tree_param":{"num_deleted":"0","num_feature":"4","num_nodes":"15","size_leaf_vector":"1"}},{"base_weights":[8.058842E-6,-7.529478E-4,3.6143497E-2,-9.726872E-2,-4.882156E-4,8.106897E-4,4.960752E-2,-5.296233E-2,-1.8333683E-2,-5.7046267E-4,4.991592E-3,2.766918E-3,-1.7215451E-2,1.3942745E-2,3.567257E-2],"categories":[],"categories_nodes":[],"categories_segments":[],"categories_sizes":[],"default_left":[0,0,0,0,0,0,0,0,0,0,0,0,0,0,0],"id":20,"left_children":[1,3,5,7,9,11,13,-1,-1,-1,-1,-1,-1,-1,-1],"loss_changes":[4.1064686E-1,3.7363347E-1,1.4648208E-1,1.03859454E-1,3.5309795E-1,4.2631626E-2,4.2871475E-2,0E0,0E0,0E0,0E0,0E0,0E0,0E0,0E0],"parents":[2147483647,0,0,1,1,2,2,3,3,4,4,5,5,6,6],"right_children":[2,4,6,8,10,12,14,-1,-1,-1,-1,-1,-1,-1,-1],"split_conditions":[1.8333334E1,1.49E1,2.23E1,1.45E1,4.58E1,2.3333334E1,2.4444445E1,-5.296233E-2,-1.8333683E-2,-5.7046267E-4,4.991592E-3,2.766918E-3,-1.7215451E-2,1.3942745E-2,3.567257E-2],"split_indices":[2,3,1,3,1,2,2,0,0,0,0,0,0,0,0],"split_type":[0,0,0,0,0,0,0,0,0,0,0,0,0,0,0],"sum_hessian":[1.4931E4,1.4624E4,3.07E2,3.9E1,1.4585E4,8.5E1,2.22E2,1.1E1,2.8E1,1.3474E4,1.111E3,7.5E1,1E1,2.14E2,8E0],"tree_param":{"num_deleted":"0","num_feature":"4","num_nodes":"15","size_leaf_vector":"1"}},{"base_weights":[3.3694746E-6,-2.1178773E-2,1.0357737E-3,-5.348391E-4,-4.3300077E-2,-1.7121355E-1,1.3264987E-3,-5.0870623E-3,2.2277042E-2,-2.525879E-2,-2.5373846E-3,-2.14684E-3,-7.15037E-2,4.938451E-4,-1.9860532E-2],"categories":[],"categories_nodes":[],"categories_segments":[],"categories_sizes":[],"default_left":[0,0,0,0,0,0,0,0,0,0,0,0,0,0,0],"id":21,"left_children":[1,3,5,7,9,11,13,-1,-1,-1,-1,-1,-1,-1,-1],"loss_changes":[3.2656282E-1,3.1690636E-1,7.132764E-1,4.4342235E-1,4.7662926E-1,2.6261884E-1,3.069685E-1,0E0,0E0,0E0,0E0,0E0,0E0,0E0,0E0],"parents":[2147483647,0,0,1,1,2,2,3,3,4,4,5,5,6,6],"right_children":[2,4,6,8,10,12,14,-1,-1,-1,-1,-1,-1,-1,-1],"split_conditions":[0E0,1.94E1,3.18E2,2.71E1,2E1,1.9E1,6.23E1,-5.0870623E-3,2.2277042E-2,-2.525879E-2,-2.5373846E-3,-2.14684E-3,-7.15037E-2,4.938451E-4,-1.9860532E-2],"split_indices":[2,3,0,1,3,3,1,0,0,0,0,0,0,0,0],"split_type":[0,0,0,0,0,0,0,0,0,0,0,0,0,0,0],"sum_hessian":[1.4931E4,6.93E2,1.4238E4,3.59E2,3.34E2,2.3E1,1.4215E4,2.95E2,6.4E1,1.53E2,1.81E2,7E0,1.6E1,1.4149E4,6.6E1],"tree_param":{"num_deleted":"0","num_feature":"4","num_nodes":"15","size_leaf_vector":"1"}},{"base_weights":[-4.73829E-6,-2.8329385E-2,7.1091397E-4,-1.5982252E-2,-7.053361E-2,5.4065153E-2,3.2019667E-5,-8.361706E-3,2.4816753E-2,-5.101366E-2,-5.0343806E-3,1.2872733E-2,1.1280509E-1,-4.304433E-2,1.4773336E-4],"categories":[],"categories_nodes":[],"categories_segments":[],"categories_sizes":[],"default_left":[0,0,0,0,0,0,0,0,0,0,0,0,0,0,0],"id":22,"left_children":[1,3,5,7,9,11,13,-1,-1,-1,-1,-1,-1,-1,-1],"loss_changes":[3.027007E-1,1.9063804E-1,5.2757007E-1,3.3795795E-1,4.4111326E-1,6.4114803E-1,9.5045614E-1,0E0,0E0,0E0,0E0,0E0,0E0,0E0,0E0],"parents":[2147483647,0,0,1,1,2,2,3,3,4,4,5,5,6,6],"right_children":[2,4,6,8,10,12,14,-1,-1,-1,-1,-1,-1,-1,-1],"split_conditions":[1.68E1,1.62E1,1.76E1,1.6E1,1.59E1,4.73E2,1.77E1,-8.361706E-3,2.4816753E-2,-5.101366E-2,-5.0343806E-3,1.2872733E-2,1.1280509E-1,-4.304433E-2,1.4773336E-4],"split_indices":[3,3,3,3,1,0,3,0,0,0,0,0,0,0,0],"split_type":[0,0,0,0,0,0,0,0,0,0,0,0,0,0,0],"sum_hessian":[1.4931E4,3.67E2,1.4564E4,2.85E2,8.2E1,1.82E2,1.4382E4,2.55E2,3E1,2.8E1,5.4E1,1.77E2,5E0,4.5E1,1.4337E4],"tree_param":{"num_deleted":"0","num_feature":"4","num_nodes":"15","size_leaf_vector":"1"}},{"base_weights":[4.1098943E-7,-6.845257E-4,2.804626E-2,-8.396988E-4,1.18254915E-1,2.3719052E-2,4.029107E-1,2.497209E-3,-7.928548E-4,4.0169585E-2,7.834911E-3,7.160682E-4,1.662001E-2,1.5846042E-1,4.0557864E-3],"categories":[],"categories_nodes":[],"categories_segments":[],"categories_sizes":[],"default_left":[0,0,0,0,0,0,0,0,0,0,0,0,0,0,0],"id":23,"left_children":[1,3,5,7,9,11,13,-1,-1,-1,-1,-1,-1,-1,-1],"loss_changes":[2.8685743E-1,2.691353E-1,5.6791663E-1,2.4058878E-1,2.3889422E-2,2.3843351E-1,1.880076E-1,0E0,0E0,0E0,0E0,0E0,0E0,0E0,0E0],"parents":[2147483647,0,0,1,1,2,2,3,3,4,4,5,5,6,6],"right_children":[2,4,6,8,10,12,14,-1,-1,-1,-1,-1,-1,-1,-1],"split_conditions":[6.19E2,2.33E1,3.46E1,1.89E1,2.0555555E1,2.41E1,3.56E1,2.497209E-3,-7.928548E-4,4.0169585E-2,7.834911E-3,7.160682E-4,1.662001E-2,1.5846042E-1,4.0557864E-3],"split_indices":[0,3,1,3,2,1,1,0,0,0,0,0,0,0,0],"split_type":[0,0,0,0,0,0,0,0,0,0,0,0,0,0,0],"sum_hessian":[1.4931E4,1.4576E4,3.55E2,1.4558E4,1.8E1,3.52E2,3E0,2.393E3,1.2165E4,1.5E1,3E0,2.11E2,1.41E2,2E0,1E0],"tree_param":{"num_deleted":"0","num_feature":"4","num_nodes":"15","size_leaf_vector":"1"}},{"base_weights":[1.621885E-5,-1.2408121E-3,1.3154301E-2,-1.5359783E-3,7.032752E-2,-2.2738615E-2,1.7182186E-2,-8.681391E-4,4.105042E-3,1.1318809E-3,3.0526228E-2,-2.7893493E-3,-3.3934392E-2,7.048646E-4,7.5628157E-3],"categories":[],"categories_nodes":[],"categories_segments":[],"categories_sizes":[],"default_left":[0,0,0,0,0,0,0,0,0,0,0,0,0,0,0],"id":24,"left_children":[1,3,5,7,9,11,13,-1,-1,-1,-1,-1,-1,-1,-1],"loss_changes":[2.4661793E-1,2.8801453E-1,1.8891335E-1,2.805498E-1,1.167447E-1,1.5929195E-1,1.3960344E-1,0E0,0E0,0E0,0E0,0E0,0E0,0E0,0E0],"parents":[2147483647,0,0,1,1,2,2,3,3,4,4,5,5,6,6],"right_children":[2,4,6,8,10,12,14,-1,-1,-1,-1,-1,-1,-1,-1],"split_conditions":[1.611111E1,6.54E2,4.8E2,4.58E1,2.28E1,2.18E1,2.23E1,-8.681391E-4,4.105042E-3,1.1318809E-3,3.0526228E-2,-2.7893493E-3,-3.3934392E-2,7.048646E-4,7.5628157E-3],"split_indices":[2,0,0,1,1,3,1,0,0,0,0,0,0,0,0],"split_type":[0,0,0,0,0,0,0,0,0,0,0,0,0,0,0],"sum_hessian":[1.4931E4,1.3628E4,1.303E3,1.3573E4,5.5E1,1.31E2,1.172E3,1.2462E4,1.111E3,1.8E1,3.7E1,1.15E2,1.6E1,4.12E2,7.6E2],"tree_param":{"num_deleted":"0","num_feature":"4","num_nodes":"15","size_leaf_vector":"1"}},{"base_weights":[1.1546919E-5,4.2384505E-4,-3.0988703E-2,-7.585108E-4,1.824382E-2,-2.255946E-1,-1.2182827E-3,1.3004345E-4,-1.1895441E-2,1.1274267E-3,2.6341965E-2,-7.681847E-4,-7.63724E-2,6.8804575E-4,-8.973284E-2],"categories":[],"categories_nodes":[],"categories_segments":[],"categories_sizes":[],"default_left":[0,0,0,0,0,0,0,0,0,0,0,0,0,0,0],"id":25,"left_children":[1,3,5,7,9,11,13,-1,-1,-1,-1,-1,-1,-1,-1],"loss_changes":[1.9086418E-1,3.105158E-1,1.135251E0,6.407584E-1,9.2370045E-1,1.6740012E-1,1.7957336E-1,0E0,0E0,0E0,0E0,0E0,0E0,0E0,0E0],"parents":[2147483647,0,0,1,1,2,2,3,3,4,4,5,5,6,6],"right_children":[2,4,6,8,10,12,14,-1,-1,-1,-1,-1,-1,-1,-1],"split_conditions":[6.15E1,4.58E1,1.99E1,3.96E1,7.5E0,4.01E2,6.45E1,1.3004345E-4,-1.1895441E-2,1.1274267E-3,2.6341965E-2,-7.681847E-4,-7.63724E-2,6.8804575E-4,-8.973284E-2],"split_indices":[1,1,3,1,2,0,1,0,0,0,0,0,0,0,0],"split_type":[0,0,0,0,0,0,0,0,0,0,0,0,0,0,0],"sum_hessian":[1.4931E4,1.4736E4,1.95E2,1.382E4,9.16E2,2.5E1,1.7E2,1.341E4,4.1E2,7.59E2,1.57E2,3E0,2.2E1,1.69E2,1E0],"tree_param":{"num_deleted":"0","num_feature":"4","num_nodes":"15","size_leaf_vector":"1"}},{"base_weights":[-1.6683553E-6,-3.316061E-2,3.7562277E-4,-3.6420316E-2,4.747906E-2,1.1982632E-1,1.9736103E-4,-3.574126E-2,-8.934431E-3,2.6466576E-2,4.4678822E-2,2.6194782E-3,-4.0013777E-4],"categories":[],"categories_nodes":[],"categories_segments":[],"categories_sizes":[],"default_left":[0,0,0,0,0,0,0,0,0,0,0,0,0],"id":26,"left_children":[1,3,5,7,-1,9,11,-1,-1,-1,-1,-1,-1],"loss_changes":[1.8682033E-1,1.10593826E-1,3.1437466E-1,8.761078E-2,0E0,7.0964694E-3,1.9267473E-1,0E0,0E0,0E0,0E0,0E0,0E0],"parents":[2147483647,0,0,1,1,2,2,3,3,5,5,6,6],"right_children":[2,4,6,8,-1,10,12,-1,-1,-1,-1,-1,-1],"split_conditions":[1.55E1,4.64E2,1.57E1,1.45E1,4.747906E-2,1.56E1,1.89E1,-3.574126E-2,-8.934431E-3,2.6466576E-2,4.4678822E-2,2.6194782E-3,-4.0013777E-4],"split_indices":[3,0,3,3,0,3,3,0,0,0,0,0,0],"split_type":[0,0,0,0,0,0,0,0,0,0,0,0,0],"sum_hessian":[1.4931E4,1.67E2,1.4764E4,1.65E2,2E0,2.1E1,1.4743E4,1.1E1,1.54E2,1.2E1,9E0,2.242E3,1.2501E4],"tree_param":{"num_deleted":"0","num_feature":"4","num_nodes":"13","size_leaf_vector":"1"}},{"base_weights":[4.365685E-6,-6.8372353E-3,2.1301678E-3,-1.880333E-2,7.5309817E-4,5.6721665E-2,7.395167E-4,-2.6942273E-3,-2.1426499E-2,1.2170453E-2,-1.819797E-3,1.3532964E-4,4.4368997E-2,-3.0715358E-2,4.6596528E-4],"categories":[],"categories_nodes":[],"categories_segments":[],"categories_sizes":[],"default_left":[0,0,0,0,0,0,0,0,0,0,0,0,0,0,0],"id":27,"left_children":[1,3,5,7,9,11,13,-1,-1,-1,-1,-1,-1,-1,-1],"loss_changes":[2.1718392E-1,3.2154053E-1,8.6488855E-1,7.095068E-1,5.88592E-1,1.4518557E0,9.3250656E-1,0E0,0E0,0E0,0E0,0E0,0E0,0E0,0E0],"parents":[2147483647,0,0,1,1,2,2,3,3,4,4,5,5,6,6],"right_children":[2,4,6,8,10,12,14,-1,-1,-1,-1,-1,-1,-1,-1],"split_conditions":[2.04E1,1.87E1,1.85E1,1.85E1,1.89E1,2.73E1,1.86E1,-2.6942273E-3,-2.1426499E-2,1.2170453E-2,-1.819797E-3,1.3532964E-4,4.4368997E-2,-3.0715358E-2,4.6596528E-4],"split_indices":[1,3,3,3,3,1,3,0,0,0,0,0,0,0,0],"split_type":[0,0,0,0,0,0,0,0,0,0,0,0,0,0,0],"sum_hessian":[1.4931E4,3.539E3,1.1392E4,1.373E3,2.166E3,2.82E2,1.111E4,1.158E3,2.15E2,3.16E2,1.85E3,1.75E2,1.07E2,8.6E1,1.1024E4],"tree_param":{"num_deleted":"0","num_feature":"4","num_nodes":"15","size_leaf_vector":"1"}},{"base_weights":[3.5424925E-6,-1.5078097E-3,7.465956E-3,2.5102182E-3,-6.205656E-3,-9.11948E-3,1.5626362E-2,4.671521E-3,-1.4624078E-3,-7.622688E-3,3.5730633E-4,1.12520605E-1,-3.0106052E-3,1.2843627E-2,2.4952178E-3],"categories":[],"categories_nodes":[],"categories_segments":[],"categories_sizes":[],"default_left":[0,0,0,0,0,0,0,0,0,0,0,0,0,0,0],"id":28,"left_children":[1,3,5,7,9,11,13,-1,-1,-1,-1,-1,-1,-1,-1],"loss_changes":[1.6841935E-1,2.344187E-1,3.4053242E-1,6.4576674E-1,8.1321293E-1,2.9581326E-1,3.3465147E-1,0E0,0E0,0E0,0E0,0E0,0E0,0E0,0E0],"parents":[2147483647,0,0,1,1,2,2,3,3,4,4,5,5,6,6],"right_children":[2,4,6,8,10,12,14,-1,-1,-1,-1,-1,-1,-1,-1],"split_conditions":[5.6E2,2.24E1,2.19E1,4.37E2,4.16E2,1.8E1,2.04E1,4.671521E-3,-1.4624078E-3,-7.622688E-3,3.5730633E-4,1.12520605E-1,-3.0106052E-3,1.2843627E-2,2.4952178E-3],"split_indices":[0,1,1,0,0,3,3,0,0,0,0,0,0,0,0],"split_type":[0,0,0,0,0,0,0,0,0,0,0,0,0,0,0],"sum_hessian":[1.4931E4,1.2417E4,2.514E3,6.693E3,5.724E3,8.29E2,1.685E3,2.417E3,4.276E3,1.591E3,4.133E3,1E0,8.28E2,3.56E2,1.329E3],"tree_param":{"num_deleted":"0","num_feature":"4","num_nodes":"15","size_leaf_vector":"1"}},{"base_weights":[1.0839136E-5,-7.3648887E-3,1.9620426E-3,4.3895897E-3,-4.8528824E-2,-6.9099985E-2,3.0679214E-3,-2.0681876E-3,2.4831029E-2,-2.5742147E-2,-4.2308476E-3,-3.2526433E-2,-1.729766E-4,4.512429E-3,-2.1716354E-4],"categories":[],"categories_nodes":[],"categories_segments":[],"categories_sizes":[],"default_left":[0,0,0,0,0,0,0,0,0,0,0,0,0,0,0],"id":29,"left_children":[1,3,5,7,9,11,13,-1,-1,-1,-1,-1,-1,-1,-1],"loss_changes":[2.1490902E-1,1.5117936E0,9.282339E-1,2.1505718E0,8.894304E-1,4.876312E-1,5.279808E-1,0E0,0E0,0E0,0E0,0E0,0E0,0E0,0E0],"parents":[2147483647,0,0,1,1,2,2,3,3,4,4,5,5,6,6],"right_children":[2,4,6,8,10,12,14,-1,-1,-1,-1,-1,-1,-1,-1],"split_conditions":[1.91E1,1.89E1,3.52E2,1.88E1,1.9E1,2.01E1,1.98E1,-2.0681876E-3,2.4831029E-2,-2.5742147E-2,-4.2308476E-3,-3.2526433E-2,-1.729766E-4,4.512429E-3,-2.1716354E-4],"split_indices":[3,3,0,3,3,3,3,0,0,0,0,0,0,0,0],"split_type":[0,0,0,0,0,0,0,0,0,0,0,0,0,0,0],"sum_hessian":[1.4931E4,3.123E3,1.1808E4,2.43E3,6.93E2,1.8E2,1.1628E4,2.125E3,3.05E2,3.32E2,3.61E2,1.14E2,6.6E1,2.796E3,8.832E3],"tree_param":{"num_deleted":"0","num_feature":"4","num_nodes":"15","size_leaf_vector":"1"}},{"base_weights":[5.1902184E-6,-5.9876814E-3,1.8672775E-3,-1.17607685E-2,3.2417902E-3,2.7575217E-2,7.6331366E-5,2.647069E-4,-5.163206E-3,2.512673E-3,-9.361439E-3,7.304491E-2,3.0825196E-3,-1.4256794E-2,4.1967013E-4],"categories":[],"categories_nodes":[],"categories_segments":[],"categories_sizes":[],"default_left":[0,0,0,0,0,0,0,0,0,0,0,0,0,0,0],"id":30,"left_children":[1,3,5,7,9,11,13,-1,-1,-1,-1,-1,-1,-1,-1],"loss_changes":[1.6664112E-1,1.8865828E-1,5.2454907E-1,1.5008804E-1,2.4129617E-1,2.769045E0,6.706412E-1,0E0,0E0,0E0,0E0,0E0,0E0,0E0,0E0],"parents":[2147483647,0,0,1,1,2,2,3,3,4,4,5,5,6,6],"right_children":[2,4,6,8,10,12,14,-1,-1,-1,-1,-1,-1,-1,-1],"split_conditions":[2.04E1,1.92E1,1.89E1,3.99E2,2.04E1,3.59E2,3.64E2,2.647069E-4,-5.163206E-3,2.512673E-3,-9.361439E-3,7.304491E-2,3.0825196E-3,-1.4256794E-2,4.1967013E-4],"split_indices":[1,3,3,0,3,0,0,0,0,0,0,0,0,0,0],"split_type":[0,0,0,0,0,0,0,0,0,0,0,0,0,0,0],"sum_hessian":[1.4931E4,3.539E3,1.1392E4,2.177E3,1.362E3,7.41E2,1.0651E4,6.56E2,1.521E3,1.186E3,1.76E2,5.4E1,6.87E2,2.87E2,1.0364E4],"tree_param":{"num_deleted":"0","num_feature":"4","num_nodes":"15","size_leaf_vector":"1"}},{"base_weights":[7.1093186E-6,-8.2893454E-4,1.0398256E-2,-3.0153547E-4,-4.1250303E-2,4.1658543E-2,-7.7075525E-3,-6.5763504E-4,2.6854258E-3,3.9486126E-3,-4.5366097E-2,-5.394228E-3,3.1315546E-2,-1.947049E-2,2.5987606E-3],"categories":[],"categories_nodes":[],"categories_segments":[],"categories_sizes":[],"default_left":[0,0,0,0,0,0,0,0,0,0,0,0,0,0,0],"id":31,"left_children":[1,3,5,7,9,11,13,-1,-1,-1,-1,-1,-1,-1,-1],"loss_changes":[1.2972967E-1,2.9462627E-1,6.29705E-1,2.3870043E-1,1.0670937E0,1.528193E0,6.6063404E-1,0E0,0E0,0E0,0E0,0E0,0E0,0E0,0E0],"parents":[2147483647,0,0,1,1,2,2,3,3,4,4,5,5,6,6],"right_children":[2,4,6,8,10,12,14,-1,-1,-1,-1,-1,-1,-1,-1],"split_conditions":[4.58E1,4.28E1,5.44E1,2.11E1,2.06E1,4.2E2,1.99E1,-6.5763504E-4,2.6854258E-3,3.9486126E-3,-4.5366097E-2,-5.394228E-3,3.1315546E-2,-1.947049E-2,2.5987606E-3],"split_indices":[1,1,1,3,3,0,3,0,0,0,0,0,0,0,0],"split_type":[0,0,0,0,0,0,0,0,0,0,0,0,0,0,0],"sum_hessian":[1.4931E4,1.382E4,1.111E3,1.3643E4,1.77E2,4.07E2,7.04E2,1.1329E4,2.314E3,1.19E2,5.8E1,2.09E2,1.98E2,1.56E2,5.48E2],"tree_param":{"num_deleted":"0","num_feature":"4","num_nodes":"15","size_leaf_vector":"1"}},{"base_weights":[3.271246E-6,1.6496186E-3,-6.8513867E-3,1.2642884E-4,1.7331496E-2,-6.6358514E-2,3.1172603E-3,4.1180404E-4,-7.216575E-3,3.6705253E-3,2.1942008E-2,2.0873308E-2,-2.2799196E-2,-1.953834E-2,1.6087084E-3],"categories":[],"categories_nodes":[],"categories_segments":[],"categories_sizes":[],"default_left":[0,0,0,0,0,0,0,0,0,0,0,0,0,0,0],"id":32,"left_children":[1,3,5,7,9,11,13,-1,-1,-1,-1,-1,-1,-1,-1],"loss_changes":[1.6852112E-1,2.8761485E-1,1.7157573E0,3.3081067E-1,3.0230033E-1,5.490465E-1,3.8002107E-1,0E0,0E0,0E0,0E0,0E0,0E0,0E0,0E0],"parents":[2147483647,0,0,1,1,2,2,3,3,4,4,5,5,6,6],"right_children":[2,4,6,8,10,12,14,-1,-1,-1,-1,-1,-1,-1,-1],"split_conditions":[2.1E1,2.08E1,2.11E1,2.07E1,5.4E1,3.0555556E0,4.04E2,4.1180404E-4,-7.216575E-3,3.6705253E-3,2.1942008E-2,2.0873308E-2,-2.2799196E-2,-1.953834E-2,1.6087084E-3],"split_indices":[3,3,3,3,1,2,0,0,0,0,0,0,0,0,0],"split_type":[0,0,0,0,0,0,0,0,0,0,0,0,0,0,0],"sum_hessian":[1.4931E4,1.204E4,2.891E3,1.0975E4,1.065E3,4.14E2,2.477E3,1.0438E4,5.37E2,9.77E2,8.8E1,2.7E1,3.87E2,7.8E1,2.399E3],"tree_param":{"num_deleted":"0","num_feature":"4","num_nodes":"15","size_leaf_vector":"1"}},{"base_weights":[2.287426E-6,3.6075664E-5,-7.567349E-2,6.746614E-4,-1.2073198E-2,-5.5980934E-5,2.8354166E-2,-2.9761294E-2,1.1739089E-3],"categories":[],"categories_nodes":[],"categories_segments":[],"categories_sizes":[],"default_left":[0,0,0,0,0,0,0,0,0],"id":33,"left_children":[1,3,-1,5,7,-1,-1,-1,-1],"loss_changes":[1.2727438E-1,1.1546673E-1,0E0,1.1463741E0,1.0422757E0,0E0,0E0,0E0,0E0],"parents":[2147483647,0,0,1,1,3,3,4,4],"right_children":[2,4,-1,6,8,-1,-1,-1,-1],"split_conditions":[6.45E1,2.18E1,-7.567349E-2,2.17E1,2.19E1,-5.5980934E-5,2.8354166E-2,-2.9761294E-2,1.1739089E-3],"split_indices":[1,3,0,3,3,0,0,0,0],"split_type":[0,0,0,0,0,0,0,0,0],"sum_hessian":[1.4931E4,1.493E4,1E0,1.4183E4,7.47E2,1.4055E4,1.28E2,1.15E2,6.32E2],"tree_param":{"num_deleted":"0","num_feature":"4","num_nodes":"9","size_leaf_vector":"1"}},{"base_weights":[-4.0701684E-6,2.2819766E-3,-3.477688E-3,-1.4367899E-4,5.98717E-2,1.9278247E-3,-2.170079E-2,-1.0731159E-3,7.545924E-3,1.6336752E-2,3.4307852E-2,1.0872494E-2,-7.1965344E-4,-1.1408258E-2,5.1007355E-3],"categories":[],"categories_nodes":[],"categories_segments":[],"categories_sizes":[],"default_left":[0,0,0,0,0,0,0,0,0,0,0,0,0,0,0],"id":34,"left_children":[1,3,5,7,9,11,13,-1,-1,-1,-1,-1,-1,-1,-1],"loss_changes":[1.1858075E-1,1.2580823E0,5.838822E-1,7.5076234E-1,1.0118818E-1,6.788669E-1,8.5749966E-1,0E0,0E0,0E0,0E0,0E0,0E0,0E0,0E0],"parents":[2147483647,0,0,1,1,2,2,3,3,4,4,5,5,6,6],"right_children":[2,4,6,8,10,12,14,-1,-1,-1,-1,-1,-1,-1,-1],"split_conditions":[2.04E1,2.03E1,2.77E1,3.31E1,5.65E1,7.5E0,5.3E1,-1.0731159E-3,7.545924E-3,1.6336752E-2,3.4307852E-2,1.0872494E-2,-7.1965344E-4,-1.1408258E-2,5.1007355E-3],"split_indices":[3,3,1,1,1,2,1,0,0,0,0,0,0,0,0],"split_type":[0,0,0,0,0,0,0,0,0,0,0,0,0,0,0],"sum_hessian":[1.4931E4,9.005E3,5.926E3,8.642E3,3.63E2,4.571E3,1.355E3,7.61E3,1.032E3,3.32E2,3.1E1,5.11E2,4.06E3,9.53E2,4.02E2],"tree_param":{"num_deleted":"0","num_feature":"4","num_nodes":"15","size_leaf_vector":"1"}},{"base_weights":[1.4715785E-6,6.930374E-4,-1.890308E-2,1.0391216E-4,2.8113268E-2,-5.7246126E-2,7.911528E-3,1.5699526E-4,-1.6125066E-2,1.0488972E-2,-1.4779888E-1,-9.392148E-3,-5.244945E-2,1.067235E-2,-6.6051674E-3],"categories":[],"categories_nodes":[],"categories_segments":[],"categories_sizes":[],"default_left":[0,0,0,0,0,0,0,0,0,0,0,0,0,0,0],"id":35,"left_children":[1,3,5,7,9,11,13,-1,-1,-1,-1,-1,-1,-1,-1],"loss_changes":[1.9523023E-1,2.3271088E-1,5.4229E-1,3.185911E-1,1.0981176E0,6.563858E-1,2.5826585E-1,0E0,0E0,0E0,0E0,0E0,0E0,0E0,0E0],"parents":[2147483647,0,0,1,1,2,2,3,3,4,4,5,5,6,6],"right_children":[2,4,6,8,10,12,14,-1,-1,-1,-1,-1,-1,-1,-1],"split_conditions":[5.65E1,5.35E1,2.03E1,5.19E1,2.17E1,6.388889E0,4.29E2,1.5699526E-4,-1.6125066E-2,1.0488972E-2,-1.4779888E-1,-9.392148E-3,-5.244945E-2,1.067235E-2,-6.6051674E-3],"split_indices":[1,1,3,1,3,2,0,0,0,0,0,0,0,0,0],"split_type":[0,0,0,0,0,0,0,0,0,0,0,0,0,0,0],"sum_hessian":[1.4931E4,1.4405E4,5.26E2,1.4103E4,3.02E2,2.16E2,3.1E2,1.3995E4,1.08E2,2.99E2,3E0,1.78E2,3.8E1,1.61E2,1.49E2],"tree_param":{"num_deleted":"0","num_feature":"4","num_nodes":"15","size_leaf_vector":"1"}},{"base_weights":[-1.2554753E-5,-1.7046238E-3,5.2294265E-3,1.5333081E-3,-5.57156E-3,2.4118677E-3,1.6808463E-2,3.6069553E-3,-1.6718911E-3,1.4535788E-2,-2.2484479E-3,3.0871078E-3,-1.4002762E-3,-3.0536843E-2,5.5920845E-3],"categories":[],"categories_nodes":[],"categories_segments":[],"categories_sizes":[],"default_left":[0,0,0,0,0,0,0,0,0,0,0,0,0,0,0],"id":36,"left_children":[1,3,5,7,9,11,13,-1,-1,-1,-1,-1,-1,-1,-1],"loss_changes":[1.3245268E-1,1.4135672E-1,1.18843555E-1,4.5813972E-1,5.3494346E-1,1.6358157E-1,1.567966E-1,0E0,0E0,0E0,0E0,0E0,0E0,0E0,0E0],"parents":[2147483647,0,0,1,1,2,2,3,3,4,4,5,5,6,6],"right_children":[2,4,6,8,10,12,14,-1,-1,-1,-1,-1,-1,-1,-1],"split_conditions":[1.25E1,2.24E1,2.47E1,4.42E2,1.85E1,2.09E1,4.31E2,3.6069553E-3,-1.6718911E-3,1.4535788E-2,-2.2484479E-3,3.0871078E-3,-1.4002762E-3,-3.0536843E-2,5.5920845E-3],"split_indices":[2,1,1,0,3,3,0,0,0,0,0,0,0,0,0],"split_type":[0,0,0,0,0,0,0,0,0,0,0,0,0,0,0],"sum_hessian":[1.4931E4,1.1288E4,3.643E3,6.144E3,5.144E3,2.931E3,7.12E2,2.481E3,3.663E3,1.76E2,4.968E3,1.387E3,1.544E3,1E1,7.02E2],"tree_param":{"num_deleted":"0","num_feature":"4","num_nodes":"15","size_leaf_vector":"1"}},{"base_weights":[-9.184704E-6,-1.0793032E-2,7.4409373E-4,-1.6752433E-2,9.7505756E-2,2.9308867E-2,-2.4467683E-4,-2.14583E-3,-1.5726248E-2,5.713985E-2,-6.614633E-2,1.01566855E-2,-8.2294226E-2,-1.9292943E-2,1.9671023E-4],"categories":[],"categories_nodes":[],"categories_segments":[],"categories_sizes":[],"default_left":[0,0,0,0,0,0,0,0,0,0,0,0,0,0,0],"id":37,"left_children":[1,3,5,7,9,11,13,-1,-1,-1,-1,-1,-1,-1,-1],"loss_changes":[1.2130425E-1,6.3089436E-1,3.9423707E-1,3.1634933E-1,1.5495964E0,6.539794E-1,7.782987E-1,0E0,0E0,0E0,0E0,0E0,0E0,0E0,0E0],"parents":[2147483647,0,0,1,1,2,2,3,3,4,4,5,5,6,6],"right_children":[2,4,6,8,10,12,14,-1,-1,-1,-1,-1,-1,-1,-1],"split_conditions":[1.82E1,3.05E1,1.85E1,1.8E1,8.055555E0,4.05E1,1.86E1,-2.14583E-3,-1.5726248E-2,5.713985E-2,-6.614633E-2,1.01566855E-2,-8.2294226E-2,-1.9292943E-2,1.9671023E-4],"split_indices":[3,1,3,3,2,1,3,0,0,0,0,0,0,0,0],"split_type":[0,0,0,0,0,0,0,0,0,0,0,0,0,0,0],"sum_hessian":[1.4931E4,9.74E2,1.3957E4,9.24E2,5E1,4.66E2,1.3491E4,7.29E2,1.95E2,3.9E1,1.1E1,4.6E2,6E0,1.86E2,1.3305E4],"tree_param":{"num_deleted":"0","num_feature":"4","num_nodes":"15","size_leaf_vector":"1"}},{"base_weights":[-1.41192595E-5,-2.8286668E-2,2.7275732E-4,4.2682767E-2,-6.1085172E-2,1.0755619E-1,9.829423E-5,-1.112425E-2,4.4100516E-2,-9.778437E-2,-1.0604976E-2,4.289997E-3,7.841829E-2,1.2986737E-5,4.060459E-2],"categories":[],"categories_nodes":[],"categories_segments":[],"categories_sizes":[],"default_left":[0,0,0,0,0,0,0,0,0,0,0,0,0,0,0],"id":38,"left_children":[1,3,5,7,9,11,13,-1,-1,-1,-1,-1,-1,-1,-1],"loss_changes":[1.2111715E-1,3.51761E-1,2.766828E-1,4.04852E-1,6.905576E-1,3.4057462E-1,1.0980057E-1,0E0,0E0,0E0,0E0,0E0,0E0,0E0,0E0],"parents":[2147483647,0,0,1,1,2,2,3,3,4,4,5,5,6,6],"right_children":[2,4,6,8,10,12,14,-1,-1,-1,-1,-1,-1,-1,-1],"split_conditions":[-3.3333333E0,2.08E1,-3.0555556E0,1.89E1,1.87E1,2.08E1,2.34E1,-1.112425E-2,4.4100516E-2,-9.778437E-2,-1.0604976E-2,4.289997E-3,7.841829E-2,1.2986737E-5,4.060459E-2],"split_indices":[2,1,2,3,3,1,3,0,0,0,0,0,0,0,0],"split_type":[0,0,0,0,0,0,0,0,0,0,0,0,0,0,0],"sum_hessian":[1.4931E4,1.49E2,1.4782E4,4.7E1,1.02E2,2.3E1,1.4759E4,2.7E1,2E1,8E0,9.4E1,1.5E1,8E0,1.4754E4,5E0],"tree_param":{"num_deleted":"0","num_feature":"4","num_nodes":"15","size_leaf_vector":"1"}},{"base_weights":[-7.0359347E-6,-2.539458E-3,2.8345175E-3,4.1897856E-3,-9.984207E-3,-1.8517629E-3,1.7112704E-2,-1.2332422E-3,5.4661683E-3,-5.6509385E-3,2.8576062E-4,-4.7486345E-3,8.5500017E-4,1.0885626E-2,1.7159452E-3],"categories":[],"categories_nodes":[],"categories_segments":[],"categories_sizes":[],"default_left":[0,0,0,0,0,0,0,0,0,0,0,0,0,0,0],"id":39,"left_children":[1,3,5,7,9,11,13,-1,-1,-1,-1,-1,-1,-1,-1],"loss_changes":[1.0745806E-1,3.956119E-1,4.708885E-1,4.8316658E-1,3.6297673E-1,3.4827754E-1,3.7964672E-1,0E0,0E0,0E0,0E0,0E0,0E0,0E0,0E0],"parents":[2147483647,0,0,1,1,2,2,3,3,4,4,5,5,6,6],"right_children":[2,4,6,8,10,12,14,-1,-1,-1,-1,-1,-1,-1,-1],"split_conditions":[4.86E2,2.24E1,2.41E1,2.04E1,3.31E1,1.97E1,2.04E1,-1.2332422E-3,5.4661683E-3,-5.6509385E-3,2.8576062E-4,-4.7486345E-3,8.5500017E-4,1.0885626E-2,1.7159452E-3],"split_indices":[0,1,1,1,1,3,3,0,0,0,0,0,0,0,0],"split_type":[0,0,0,0,0,0,0,0,0,0,0,0,0,0,0],"sum_hessian":[1.4931E4,7.895E3,7.036E3,4.147E3,3.748E3,5.298E3,1.738E3,2.606E3,1.541E3,2.071E3,1.677E3,1.333E3,3.965E3,6.47E2,1.091E3],"tree_param":{"num_deleted":"0","num_feature":"4","num_nodes":"15","size_leaf_vector":"1"}},{"base_weights":[-4.1263083E-6,3.1414622E-4,-2.3934627E-2,-1.757859E-4,4.2547915E-2,-1.3293406E-1,-4.210569E-3,1.303565E-4,-1.6135508E-2,6.4083217E-3,5.283287E-2,2.96402E-4,-4.6072636E-2,5.757737E-4,-3.7884165E-2],"categories":[],"categories_nodes":[],"categories_segments":[],"categories_sizes":[],"default_left":[0,0,0,0,0,0,0,0,0,0,0,0,0,0,0],"id":40,"left_children":[1,3,5,7,9,11,13,-1,-1,-1,-1,-1,-1,-1,-1],"loss_changes":[1.13735914E-1,3.0494076E-1,4.2082286E-1,4.766937E-1,4.744658E-1,8.30819E-2,1.2520283E-1,0E0,0E0,0E0,0E0,0E0,0E0,0E0,0E0],"parents":[2147483647,0,0,1,1,2,2,3,3,4,4,5,5,6,6],"right_children":[2,4,6,8,10,12,14,-1,-1,-1,-1,-1,-1,-1,-1],"split_conditions":[6.15E1,6.07E1,2E1,5.65E1,6.9444447E0,4.05E2,1.1388889E1,1.303565E-4,-1.6135508E-2,6.4083217E-3,5.283287E-2,2.96402E-4,-4.6072636E-2,5.757737E-4,-3.7884165E-2],"split_indices":[1,1,3,1,2,0,2,0,0,0,0,0,0,0,0],"split_type":[0,0,0,0,0,0,0,0,0,0,0,0,0,0,0],"sum_hessian":[1.4931E4,1.4736E4,1.95E2,1.4568E4,1.68E2,2.9E1,1.66E2,1.4405E4,1.63E2,1.46E2,2.2E1,4E0,2.5E1,1.59E2,7E0],"tree_param":{"num_deleted":"0","num_feature":"4","num_nodes":"15","size_leaf_vector":"1"}},{"base_weights":[-4.942603E-6,8.15965E-2,-8.699226E-5,1.566685E-1,-4.920559E-2,-3.0444236E-2,1.9022061E-4,2.2080017E-2,7.7473305E-2,-5.127273E-2,-3.0365984E-3,2.3091294E-2,1.8047705E-5],"categories":[],"categories_nodes":[],"categories_segments":[],"categories_sizes":[],"default_left":[0,0,0,0,0,0,0,0,0,0,0,0,0],"id":41,"left_children":[1,3,5,7,-1,9,11,-1,-1,-1,-1,-1,-1],"loss_changes":[9.9982366E-2,3.0227885E-1,1.25547E-1,8.2246125E-2,0E0,3.836358E-1,1.4763178E-1,0E0,0E0,0E0,0E0,0E0,0E0],"parents":[2147483647,0,0,1,1,2,2,3,3,5,5,6,6],"right_children":[2,4,6,8,-1,10,12,-1,-1,-1,-1,-1,-1],"split_conditions":[-7.5E0,3.82E2,-3.6111112E0,3.68E2,-4.920559E-2,3.7E2,-3.0555556E0,2.2080017E-2,7.7473305E-2,-5.127273E-2,-3.0365984E-3,2.3091294E-2,1.8047705E-5],"split_indices":[2,0,2,0,0,0,2,0,0,0,0,0,0],"split_type":[0,0,0,0,0,0,0,0,0,0,0,0,0],"sum_hessian":[1.4931E4,1.4E1,1.4917E4,1.1E1,3E0,1.34E2,1.4783E4,7E0,4E0,1.6E1,1.18E2,2.4E1,1.4759E4],"tree_param":{"num_deleted":"0","num_feature":"4","num_nodes":"13","size_leaf_vector":"1"}},{"base_weights":[-1.3223832E-6,2.0600478E-3,-3.1335475E-3,4.419436E-4,4.0475473E-2,-2.875746E-4,-2.3585632E-2,-7.6898217E-4,6.775061E-3,1.4622213E-4,1.3920831E-2,-8.264562E-3,5.087446E-4,-1.9875621E-2,3.1691077E-3],"categories":[],"categories_nodes":[],"categories_segments":[],"categories_sizes":[],"default_left":[0,0,0,0,0,0,0,0,0,0,0,0,0,0,0],"id":42,"left_children":[1,3,5,7,9,11,13,-1,-1,-1,-1,-1,-1,-1,-1],"loss_changes":[9.641753E-2,5.597966E-1,3.449807E-1,5.751657E-1,8.625299E-2,2.814224E-1,1.0555896E0,0E0,0E0,0E0,0E0,0E0,0E0,0E0,0E0],"parents":[2147483647,0,0,1,1,2,2,3,3,4,4,5,5,6,6],"right_children":[2,4,6,8,10,12,14,-1,-1,-1,-1,-1,-1,-1,-1],"split_conditions":[2.04E1,2.03E1,3.65E1,3.31E1,3.98E2,2.05E1,5.3E1,-7.6898217E-4,6.775061E-3,1.4622213E-4,1.3920831E-2,-8.264562E-3,5.087446E-4,-1.9875621E-2,3.1691077E-3],"split_indices":[3,3,1,1,0,3,1,0,0,0,0,0,0,0,0],"split_type":[0,0,0,0,0,0,0,0,0,0,0,0,0,0,0],"sum_hessian":[1.4931E4,9.005E3,5.926E3,8.642E3,3.63E2,5.203E3,7.23E2,7.61E3,1.032E3,4.7E1,3.16E2,3.52E2,4.851E3,3.21E2,4.02E2],"tree_param":{"num_deleted":"0","num_feature":"4","num_nodes":"15","size_leaf_vector":"1"}},{"base_weights":[-1.5677634E-6,6.1713124E-4,-1.2487877E-2,1.4174715E-4,5.4250732E-2,3.6568616E-2,-2.5035292E-2,1.3494925E-4,-1.1825589E-2,6.2708757E-3,7.175888E-2,8.699767E-3,1.6784878E-1,4.1899316E-2,-8.756905E-3],"categories":[],"categories_nodes":[],"categories_segments":[],"categories_sizes":[],"default_left":[0,0,0,0,0,0,0,0,0,0,0,0,0,0,0],"id":43,"left_children":[1,3,5,7,9,11,13,-1,-1,-1,-1,-1,-1,-1,-1],"loss_changes":[1.1536139E-1,3.627574E-1,4.3486565E-1,1.71916E-1,7.6594126E-1,5.5376196E-1,3.8861212E-1,0E0,0E0,0E0,0E0,0E0,0E0,0E0,0E0],"parents":[2147483647,0,0,1,1,2,2,3,3,4,4,5,5,6,6],"right_children":[2,4,6,8,10,12,14,-1,-1,-1,-1,-1,-1,-1,-1],"split_conditions":[5.44E1,5.35E1,3.83E2,5.19E1,7.5E0,6.9444447E0,1.89E1,1.3494925E-4,-1.1825589E-2,6.2708757E-3,7.175888E-2,8.699767E-3,1.6784878E-1,4.1899316E-2,-8.756905E-3],"split_indices":[1,1,0,1,2,2,3,0,0,0,0,0,0,0,0],"split_type":[0,0,0,0,0,0,0,0,0,0,0,0,0,0,0],"sum_hessian":[1.4931E4,1.4227E4,7.04E2,1.4103E4,1.24E2,1.43E2,5.61E2,1.3995E4,1.08E2,1.06E2,1.8E1,1.42E2,1E0,1.3E1,5.48E2],"tree_param":{"num_deleted":"0","num_feature":"4","num_nodes":"15","size_leaf_vector":"1"}},{"base_weights":[1.6936661E-5,8.0766325E-4,-8.446206E-3,-1.1088539E-4,5.2598063E-2,-7.3842004E-2,3.7777734E-3,3.00128E-4,-2.942222E-3,-2.0769147E-2,1.7983422E-2,-1.9933041E-2,-5.037583E-2,-5.7565365E-2,1.8494503E-3],"categories":[],"categories_nodes":[],"categories_segments":[],"categories_sizes":[],"default_left":[0,0,0,0,0,0,0,0,0,0,0,0,0,0,0],"id":44,"left_children":[1,3,5,7,9,11,13,-1,-1,-1,-1,-1,-1,-1,-1],"loss_changes":[9.9932246E-2,6.4969665E-1,1.0203094E0,1.4462186E-1,2.1716827E-1,1.2874603E-1,5.0373715E-1,0E0,0E0,0E0,0E0,0E0,0E0,0E0,0E0],"parents":[2147483647,0,0,1,1,2,2,3,3,4,4,5,5,6,6],"right_children":[2,4,6,8,10,12,14,-1,-1,-1,-1,-1,-1,-1,-1],"split_conditions":[2.15E1,2.14E1,2.16E1,2.1E1,4E2,3.11E1,4.04E2,3.00128E-4,-2.942222E-3,-2.0769147E-2,1.7983422E-2,-1.9933041E-2,-5.037583E-2,-5.7565365E-2,1.8494503E-3],"split_indices":[3,3,3,3,0,1,0,0,0,0,0,0,0,0,0],"split_type":[0,0,0,0,0,0,0,0,0,0,0,0,0,0,0],"sum_hessian":[1.4931E4,1.3656E4,1.275E3,1.3419E4,2.37E2,2E2,1.075E3,1.204E4,1.379E3,1.3E1,2.24E2,1.87E2,1.3E1,1.2E1,1.063E3],"tree_param":{"num_deleted":"0","num_feature":"4","num_nodes":"15","size_leaf_vector":"1"}},{"base_weights":[3.626926E-6,-3.7057687E-2,5.328003E-5,8.1576145E-5,-6.3344195E-2,1.8505256E-4,-3.0194903E-3],"categories":[],"categories_nodes":[],"categories_segments":[],"categories_sizes":[],"default_left":[0,0,0,0,0,0,0],"id":45,"left_children":[1,-1,3,5,-1,-1,-1],"loss_changes":[9.159365E-2,0E0,8.922333E-2,8.107075E-2,0E0,0E0,0E0],"parents":[2147483647,0,0,2,2,3,3],"right_children":[2,-1,4,6,-1,-1,-1],"split_conditions":[1.44E1,-3.7057687E-2,6.45E1,2.18E1,-6.3344195E-2,1.8505256E-4,-3.0194903E-3],"split_indices":[3,0,1,3,0,0,0],"split_type":[0,0,0,0,0,0,0],"sum_hessian":[1.4931E4,5E0,1.4926E4,1.4925E4,1E0,1.4178E4,7.47E2],"tree_param":{"num_deleted":"0","num_feature":"4","num_nodes":"7","size_leaf_vector":"1"}},{"base_weights":[-4.344928E-6,-1.0008051E-2,4.8322976E-4,5.1498637E-2,-1.8562248E-2,-1.0886248E-1,6.677974E-4,-2.3749107E-3,2.737916E-2,-7.556943E-3,2.0824468E-2,-4.4673923E-2,3.858562E-2,-1.3712938E-4,2.6933076E-3],"categories":[],"categories_nodes":[],"categories_segments":[],"categories_sizes":[],"default_left":[0,0,0,0,0,0,0,0,0,0,0,0,0,0,0],"id":46,"left_children":[1,3,5,7,9,11,13,-1,-1,-1,-1,-1,-1,-1,-1],"loss_changes":[7.2836466E-2,3.6609733E-1,2.8743964E-1,2.0154785E-1,3.574236E-1,2.4742326E-1,1.328919E-1,0E0,0E0,0E0,0E0,0E0,0E0,0E0,0E0],"parents":[2147483647,0,0,1,1,2,2,3,3,4,4,5,5,6,6],"right_children":[2,4,6,8,10,12,14,-1,-1,-1,-1,-1,-1,-1,-1],"split_conditions":[0E0,3.45E2,3.18E2,2.75E1,2.08E1,2E1,3.31E1,-2.3749107E-3,2.737916E-2,-7.556943E-3,2.0824468E-2,-4.4673923E-2,3.858562E-2,-1.3712938E-4,2.6933076E-3],"split_indices":[2,0,0,1,3,3,1,0,0,0,0,0,0,0,0],"split_type":[0,0,0,0,0,0,0,0,0,0,0,0,0,0,0],"sum_hessian":[1.4931E4,6.93E2,1.4238E4,8.4E1,6.09E2,2.3E1,1.4215E4,3.4E1,5E1,5.67E2,4.2E1,2E1,3E0,1.2521E4,1.694E3],"tree_param":{"num_deleted":"0","num_feature":"4","num_nodes":"15","size_leaf_vector":"1"}},{"base_weights":[-5.368729E-7,2.8395422E-3,-1.9086553E-3,-2.1677406E-3,6.723381E-2,-3.676689E-2,3.034099E-4,-1.5819364E-3,6.6296794E-3,-5.499079E-2,2.2077E-2,-5.39003E-2,-9.340505E-3,-9.5797265E-3,3.4985982E-4],"categories":[],"categories_nodes":[],"categories_segments":[],"categories_sizes":[],"default_left":[0,0,0,0,0,0,0,0,0,0,0,0,0,0,0],"id":47,"left_children":[1,3,5,7,9,11,13,-1,-1,-1,-1,-1,-1,-1,-1],"loss_changes":[8.092502E-2,1.9351101E0,6.88746E-1,4.1978106E-1,7.030227E-1,4.2336386E-1,2.3366423E-1,0E0,0E0,0E0,0E0,0E0,0E0,0E0,0E0],"parents":[2147483647,0,0,1,1,2,2,3,3,4,4,5,5,6,6],"right_children":[2,4,6,8,10,12,14,-1,-1,-1,-1,-1,-1,-1,-1],"split_conditions":[1.98E1,1.97E1,1.99E1,3.05E1,3.61E2,-1.9444444E0,3.75E2,-1.5819364E-3,6.6296794E-3,-5.499079E-2,2.2077E-2,-5.39003E-2,-9.340505E-3,-9.5797265E-3,3.4985982E-4],"split_indices":[3,3,3,1,0,2,0,0,0,0,0,0,0,0,0],"split_type":[0,0,0,0,0,0,0,0,0,0,0,0,0,0,0],"sum_hessian":[1.4931E4,6E3,8.931E3,5.568E3,4.32E2,5.32E2,8.399E3,4.937E3,6.31E2,1E1,4.22E2,1.9E1,5.13E2,2.18E2,8.181E3],"tree_param":{"num_deleted":"0","num_feature":"4","num_nodes":"15","size_leaf_vector":"1"}},{"base_weights":[-6.8991935E-6,5.7168626E-3,-1.1198777E-3,-1.6563963E-3,5.692546E-2,-5.6313448E-2,3.90441E-4,2.8561566E-5,-2.790144E-2,8.222068E-2,1.2720711E-2,3.2834988E-2,-2.3602426E-2,-1.1449968E-2,3.035018E-4],"categories":[],"categories_nodes":[],"categories_segments":[],"categories_sizes":[],"default_left":[0,0,0,0,0,0,0,0,0,0,0,0,0,0,0],"id":48,"left_children":[1,3,5,7,9,11,13,-1,-1,-1,-1,-1,-1,-1,-1],"loss_changes":[9.512957E-2,9.179773E-1,1.0421872E0,3.4018165E-1,9.533789E-1,1.2429372E0,2.9154444E-1,0E0,0E0,0E0,0E0,0E0,0E0,0E0,0E0],"parents":[2147483647,0,0,1,1,2,2,3,3,4,4,5,5,6,6],"right_children":[2,4,6,8,10,12,14,-1,-1,-1,-1,-1,-1,-1,-1],"split_conditions":[1.89E1,1.88E1,1.9E1,4.98E1,3.45E2,3.8E2,3.52E2,2.8561566E-5,-2.790144E-2,8.222068E-2,1.2720711E-2,3.2834988E-2,-2.3602426E-2,-1.1449968E-2,3.035018E-4],"split_indices":[3,3,3,1,0,0,0,0,0,0,0,0,0,0,0],"split_type":[0,0,0,0,0,0,0,0,0,0,0,0,0,0,0],"sum_hessian":[1.4931E4,2.43E3,1.2501E4,2.125E3,3.05E2,3.32E2,1.2169E4,2.086E3,3.9E1,1.8E1,2.87E2,3.9E1,2.93E2,1.92E2,1.1977E4],"tree_param":{"num_deleted":"0","num_feature":"4","num_nodes":"15","size_leaf_vector":"1"}},{"base_weights":[-2.9487774E-7,6.853422E-2,-6.9206086E-5,1.2558603E-1,-3.592644E-2,-1.4608966E-4,6.0227346E-2,5.1809408E-2,7.526894E-3,-3.6534817E-5,-5.4344274E-2,2.2627717E-2,7.760239E-4],"categories":[],"categories_nodes":[],"categories_segments":[],"categories_sizes":[],"default_left":[0,0,0,0,0,0,0,0,0,0,0,0,0],"id":49,"left_children":[1,3,5,7,-1,9,11,-1,-1,-1,-1,-1,-1],"loss_changes":[7.0525534E-2,1.7617297E-1,6.916587E-2,5.24821E-2,0E0,6.553186E-2,1.644972E-2,0E0,0E0,0E0,0E0,0E0,0E0],"parents":[2147483647,0,0,1,1,2,2,3,3,5,5,6,6],"right_children":[2,4,6,8,-1,10,12,-1,-1,-1,-1,-1,-1],"split_conditions":[-7.5E0,3.82E2,2.33E1,4.2E1,-3.592644E-2,6.45E1,2E1,5.1809408E-2,7.526894E-3,-3.6534817E-5,-5.4344274E-2,2.2627717E-2,7.760239E-4],"split_indices":[2,0,3,1,0,1,2,0,0,0,0,0,0],"split_type":[0,0,0,0,0,0,0,0,0,0,0,0,0],"sum_hessian":[1.4931E4,1.4E1,1.4917E4,1.1E1,3E0,1.4899E4,1.8E1,7E0,4E0,1.4898E4,1E0,1.4E1,4E0],"tree_param":{"num_deleted":"0","num_feature":"4","num_nodes":"13","size_leaf_vector":"1"}}]},"name":"gbtree"},"learner_model_param":{"base_score":"1.9938725E1","boost_from_average":"1","num_class":"0","num_feature":"4","num_target":"1"},"objective":{"name":"reg:squarederror","reg_loss_param":{"scale_pos_weight":"1"}}},"version":[2,0,3]}