{"learner":{"attributes":{"scikit_learn":"{\"_estimator_type\": \"regressor\"}"},"feature_names":[],"feature_types":[],"gradient_booster":{"model":{"gbtree_model_param":{"num_parallel_tree":"1","num_trees":"10"},"iteration_indptr":[0,1,2,3,4,5,6,7,8,9,10],"tree_info":[0,0,0,0,0,0,0,0,0,0],"trees":[{"base_weights":[1.956015E-7,8.1156236E-1,-3.3031116E0,8.663125E-1,-5.8086073E-1,-2.3546855E0,-3.5580814E0,2.7172485E-1,4.33057E-1,-2.6554123E-1,-8.8805884E-1,-1.8419533E0,-2.7538085E0,-3.7579582E0,-2.3276455E0,8.0097355E-2,4.2164087E-1,-1.6344863E-1,4.8921427E-1,-7.008312E-1,-1.3664916E-1,-7.463303E-1,-3.6885107E-1,-8.824744E-1,-3.4967113E-1,-9.9531865E-1,-1.1925071E0,-7.1764606E-1,-3.4864008E-1],"categories":[],"categories_nodes":[],"categories_segments":[],"categories_sizes":[],"default_left":[0,0,0,0,0,0,0,0,0,0,0,0,0,0,0,0,0,0,0,0,0,0,0,0,0,0,0,0,0],"id":0,"left_children":[1,3,5,7,9,11,13,-1,15,17,19,21,23,25,27,-1,-1,-1,-1,-1,-1,-1,-1,-1,-1,-1,-1,-1,-1],"loss_changes":[3.278204E4,7.4890625E2,5.748926E2,1.610044E2,3.5798172E1,1.0011426E2,4.5828516E2,0E0,1.2719751E2,9.886456E1,1.1669325E2,8.712189E1,8.21626E1,1.4276367E2,1.7369629E1,0E0,0E0,0E0,0E0,0E0,0E0,0E0,0E0,0E0,0E0,0E0,0E0,0E0,0E0],"parents":[2147483647,0,0,1,1,2,2,3,3,4,4,5,5,6,6,8,8,9,9,10,10,11,11,12,12,13,13,14,14],"right_children":[2,4,6,8,10,12,14,-1,16,18,20,22,24,26,28,-1,-1,-1,-1,-1,-1,-1,-1,-1,-1,-1,-1,-1,-1],"split_conditions":[1.451E3,8.94E2,2.57E3,2.23E2,1.117E3,1.901E3,9.399E3,2.7172485E-1,7.82E2,1.116E3,1.119E3,1.674E3,2.462E3,4.018E3,6.6425E4,8.0097355E-2,4.2164087E-1,-1.6344863E-1,4.8921427E-1,-7.008312E-1,-1.3664916E-1,-7.463303E-1,-3.6885107E-1,-8.824744E-1,-3.4967113E-1,-9.9531865E-1,-1.1925071E0,-7.1764606E-1,-3.4864008E-1],"split_indices":[0,0,0,0,0,0,0,0,0,0,0,0,0,0,0,0,0,0,0,0,0,0,0,0,0,0,0,0,0],"split_type":[0,0,0,0,0,0,0,0,0,0,0,0,0,0,0,0,0,0,0,0,0,0,0,0,0,0,0,0,0],"sum_hessian":[1.2227E4,9.816E3,2.411E3,9.445E3,3.71E2,5.13E2,1.898E3,8.656E3,7.89E2,1.84E2,1.87E2,2.27E2,2.86E2,1.631E3,2.67E2,6.75E2,1.14E2,1.61E2,2.3E1,4.2E1,1.45E2,1.09E2,1.18E2,2.55E2,3.1E1,5.44E2,1.087E3,2.52E2,1.5E1],"tree_param":{"num_deleted":"0","num_feature":"1","num_nodes":"29","size_leaf_vector":"1"}},{"base_weights":[-4.3642992E-4,5.637731E-1,-2.335268E0,6.273961E-1,-1.5666653E-1,-1.5617458E0,-2.4625397E0,6.189909E-1,1.1287751E0,2.9276375E-2,-6.470127E-1,-1.7767861E0,1.0953476E0,-2.6375363E0,-1.8175355E0,1.9021684E-1,2.6541166E-2,5.361789E-1,2.4139637E-1,-4.8807544E-1,3.1067789E-2,-4.9547133E-1,-1.2021109E-1,-4.1396043E-1,-7.2468084E-1,1.5567121E-1,4.8956266E-1,-6.6992587E-1,-8.6544144E-1,-1.6087642E-1,-5.603641E-1],"categories":[],"categories_nodes":[],"categories_segments":[],"categories_sizes":[],"default_left":[0,0,0,0,0,0,0,0,0,0,0,0,0,0,0,0,0,0,0,0,0,0,0,0,0,0,0,0,0,0,0],"id":1,"left_children":[1,3,5,7,9,11,13,15,17,19,21,23,25,27,29,-1,-1,-1,-1,-1,-1,-1,-1,-1,-1,-1,-1,-1,-1,-1,-1],"loss_changes":[1.6109681E4,4.51542E2,2.3045898E2,3.7439697E1,7.296006E1,1.9564496E2,2.2569434E2,7.110034E1,3.014943E1,7.164714E1,5.3773216E1,7.628381E1,7.1944447E0,1.539707E2,2.7316528E1,0E0,0E0,0E0,0E0,0E0,0E0,0E0,0E0,0E0,0E0,0E0,0E0,0E0,0E0,0E0,0E0],"parents":[2147483647,0,0,1,1,2,2,3,3,4,4,5,5,6,6,7,7,8,8,9,9,10,10,11,11,12,12,13,13,14,14],"right_children":[2,4,6,8,10,12,14,16,18,20,22,24,26,28,30,-1,-1,-1,-1,-1,-1,-1,-1,-1,-1,-1,-1,-1,-1,-1,-1],"split_conditions":[1.454E3,4.48E2,2.237E3,3.36E2,1.117E3,2.126E3,7.814E3,2.23E2,4.47E2,5.58E2,1.119E3,1.901E3,2.234E3,3.797E3,7.934E3,1.9021684E-1,2.6541166E-2,5.361789E-1,2.4139637E-1,-4.8807544E-1,3.1067789E-2,-4.9547133E-1,-1.2021109E-1,-4.1396043E-1,-7.2468084E-1,1.5567121E-1,4.8956266E-1,-6.6992587E-1,-8.6544144E-1,-1.6087642E-1,-5.603641E-1],"split_indices":[0,0,0,0,0,0,0,0,0,0,0,0,0,0,0,0,0,0,0,0,0,0,0,0,0,0,0,0,0,0,0],"split_type":[0,0,0,0,0,0,0,0,0,0,0,0,0,0,0,0,0,0,0,0,0,0,0,0,0,0,0,0,0,0,0],"sum_hessian":[1.2227E4,9.848E3,2.379E3,9.049E3,7.99E2,3.38E2,2.041E3,8.902E3,1.47E2,5.8E2,2.19E2,3.13E2,2.5E1,1.603E3,4.38E2,8.656E3,2.46E2,4.7E1,1E2,2.4E1,5.56E2,4.2E1,1.77E2,1.95E2,1.18E2,1.3E1,1.2E1,6.12E2,9.91E2,1.7E1,4.21E2],"tree_param":{"num_deleted":"0","num_feature":"1","num_nodes":"31","size_leaf_vector":"1"}},{"base_weights":[-5.3693965E-4,3.9316228E-1,-1.6434482E0,4.2629418E-1,-3.5292602E-1,-1.2072872E0,-1.7496134E0,4.2272955E-1,4.8305556E-1,-6.428781E-1,-2.5668642E-1,-2.058027E0,-1.0740695E0,-1.8593141E0,-1.075057E0,1.2860757E-1,-2.325909E-1,-1.6517785E-1,-2.3303093E-1,9.9077016E-2,-1.37861E-1,-4.2315242E-1,-8.701026E-1,-1.3598105E-1,-3.983195E-1,-7.3328334E-1,-5.4325587E-1,-1.944322E-1,-3.668177E-1],"categories":[],"categories_nodes":[],"categories_segments":[],"categories_sizes":[],"default_left":[0,0,0,0,0,0,0,0,0,0,0,0,0,0,0,0,0,0,0,0,0,0,0,0,0,0,0,0,0],"id":2,"left_children":[1,3,5,7,9,11,13,15,-1,17,19,21,23,25,27,-1,-1,-1,-1,-1,-1,-1,-1,-1,-1,-1,-1,-1,-1],"loss_changes":[7.9098745E3,2.4400647E2,1.07353516E2,3.918274E1,1.1555031E1,5.0602966E1,1.3852539E2,6.761279E1,0E0,8.5736084E-1,3.7894276E1,2.9724762E1,6.3174866E1,4.183789E1,1.6104187E1,0E0,0E0,0E0,0E0,0E0,0E0,0E0,0E0,0E0,0E0,0E0,0E0,0E0,0E0],"parents":[2147483647,0,0,1,1,2,2,3,3,4,4,5,5,6,6,7,7,9,9,10,10,11,11,12,12,13,13,14,14],"right_children":[2,4,6,8,10,12,14,16,-1,18,20,22,24,26,28,-1,-1,-1,-1,-1,-1,-1,-1,-1,-1,-1,-1,-1,-1],"split_conditions":[1.563E3,8.94E2,2.57E3,8.93E2,1.006E3,1.674E3,9.399E3,7.83E2,4.8305556E-1,1.005E3,1.117E3,1.566E3,1.901E3,2.796E3,1.0159E4,1.2860757E-1,-2.325909E-1,-1.6517785E-1,-2.3303093E-1,9.9077016E-2,-1.37861E-1,-4.2315242E-1,-8.701026E-1,-1.3598105E-1,-3.983195E-1,-7.3328334E-1,-5.4325587E-1,-1.944322E-1,-3.668177E-1],"split_indices":[0,0,0,0,0,0,0,0,0,0,0,0,0,0,0,0,0,0,0,0,0,0,0,0,0,0,0,0,0],"split_type":[0,0,0,0,0,0,0,0,0,0,0,0,0,0,0,0,0,0,0,0,0,0,0,0,0,0,0,0,0],"sum_hessian":[1.2227E4,9.864E3,2.363E3,9.445E3,4.19E2,4.65E2,1.898E3,9.418E3,2.7E1,1.03E2,3.16E2,6.1E1,4.04E2,1.631E3,2.67E2,9.372E3,4.6E1,6.4E1,3.9E1,8.1E1,2.35E2,3.6E1,2.5E1,1.18E2,2.86E2,1.21E2,1.51E3,7E1,1.97E2],"tree_param":{"num_deleted":"0","num_feature":"1","num_nodes":"29","size_leaf_vector":"1"}},{"base_weights":[-6.8049267E-4,2.8551644E-1,-1.1138844E0,3.1069344E-1,-5.047382E-2,-8.49754E-1,-1.278993E0,3.0472448E-1,6.676581E-1,-4.4891223E-1,1.7983161E-1,-6.027959E-1,-9.690697E-1,-1.468121E0,-9.0082425E-1,9.458045E-2,-1.9814938E-2,3.4089786E-1,1.3149427E-1,-3.8454878E-1,-1.06311224E-1,4.4534534E-1,-2.9758485E-2,-2.1171379E-1,1.5538402E-2,-3.547215E-1,-1.6078134E-1,-4.2236367E-1,-9.869253E-1,-3.1022525E-1,-1.6305009E-1],"categories":[],"categories_nodes":[],"categories_segments":[],"categories_sizes":[],"default_left":[0,0,0,0,0,0,0,0,0,0,0,0,0,0,0,0,0,0,0,0,0,0,0,0,0,0,0,0,0,0,0],"id":3,"left_children":[1,3,5,7,9,11,13,15,17,19,21,23,25,27,29,-1,-1,-1,-1,-1,-1,-1,-1,-1,-1,-1,-1,-1,-1,-1,-1],"loss_changes":[3.8961042E3,8.230701E1,1.0798242E2,1.9079407E1,6.2387486E1,2.7850525E1,1.0860742E2,3.482556E1,1.5409882E1,1.9153324E1,1.570454E2,2.1392319E1,5.9335327E1,1.0763159E2,2.3960693E1,0E0,0E0,0E0,0E0,0E0,0E0,0E0,0E0,0E0,0E0,0E0,0E0,0E0,0E0,0E0,0E0],"parents":[2147483647,0,0,1,1,2,2,3,3,4,4,5,5,6,6,7,7,8,8,9,9,10,10,11,11,12,12,13,13,14,14],"right_children":[2,4,6,8,10,12,14,16,18,20,22,24,26,28,30,-1,-1,-1,-1,-1,-1,-1,-1,-1,-1,-1,-1,-1,-1,-1,-1],"split_conditions":[1.23E3,4.48E2,3.461E3,3.36E2,6.72E2,1.901E3,7.368E3,2.23E2,4.47E2,5.58E2,7.83E2,1.789E3,2.903E3,7.157E3,1.129E4,9.458045E-2,-1.9814938E-2,3.4089786E-1,1.3149427E-1,-3.8454878E-1,-1.06311224E-1,4.4534534E-1,-2.9758485E-2,-2.1171379E-1,1.5538402E-2,-3.547215E-1,-1.6078134E-1,-4.2236367E-1,-9.869253E-1,-3.1022525E-1,-1.6305009E-1],"split_indices":[0,0,0,0,0,0,0,0,0,0,0,0,0,0,0,0,0,0,0,0,0,0,0,0,0,0,0,0,0,0,0],"split_type":[0,0,0,0,0,0,0,0,0,0,0,0,0,0,0,0,0,0,0,0,0,0,0,0,0,0,0,0,0,0,0],"sum_hessian":[1.2227E4,9.727E3,2.5E3,9.049E3,6.78E2,9.64E2,1.536E3,8.902E3,1.47E2,2.48E2,4.3E2,3.16E2,6.48E2,1.022E3,5.14E2,8.656E3,2.46E2,4.7E1,1E2,2.4E1,2.24E2,7.5E1,3.55E2,2.73E2,4.3E1,4.33E2,2.15E2,9.91E2,3.1E1,3.73E2,1.41E2],"tree_param":{"num_deleted":"0","num_feature":"1","num_nodes":"31","size_leaf_vector":"1"}},{"base_weights":[-6.500454E-4,1.9372997E-1,-8.117999E-1,2.1754566E-1,-7.063975E-2,-6.64919E-1,-9.206839E-1,2.1331534E-1,4.705524E-1,-3.162102E-1,3.7137866E-2,-6.973874E-1,4.6059194E-1,-2.3029752E0,-8.286767E-1,6.529734E-2,-7.0325285E-2,2.4075921E-1,9.243649E-2,-3.1496994E-2,-1.8290713E-1,3.134998E-1,-3.549228E-2,-2.0024107E-1,-7.4642926E-1,-5.090915E-1,-1.0181329E0,2.2484615E-2,-2.611058E-1],"categories":[],"categories_nodes":[],"categories_segments":[],"categories_sizes":[],"default_left":[0,0,0,0,0,0,0,0,0,0,0,0,0,0,0,0,0,0,0,0,0,0,0,0,0,0,0,0,0],"id":4,"left_children":[1,3,5,7,9,11,13,15,17,19,21,23,-1,25,27,-1,-1,-1,-1,-1,-1,-1,-1,-1,-1,-1,-1,-1,-1],"loss_changes":[1.9281624E3,6.212683E1,3.719507E1,9.585846E0,2.1608814E1,7.322275E1,1.7042151E2,1.7360748E1,7.7333984E0,1.5371243E1,8.911077E1,5.1697937E1,0E0,4.9767365E1,4.796814E1,0E0,0E0,0E0,0E0,0E0,0E0,0E0,0E0,0E0,0E0,0E0,0E0,0E0,0E0],"parents":[2147483647,0,0,1,1,2,2,3,3,4,4,5,5,6,6,7,7,8,8,9,9,10,10,11,11,13,13,14,14],"right_children":[2,4,6,8,10,12,14,16,18,20,22,24,-1,26,28,-1,-1,-1,-1,-1,-1,-1,-1,-1,-1,-1,-1,-1,-1],"split_conditions":[1.563E3,4.48E2,4.018E3,3.36E2,6.72E2,3.913E3,4.141E3,3.35E2,4.47E2,6.7E2,7.83E2,3.909E3,4.6059194E-1,4.133E3,4.354E3,6.529734E-2,-7.0325285E-2,2.4075921E-1,9.243649E-2,-3.1496994E-2,-1.8290713E-1,3.134998E-1,-3.549228E-2,-2.0024107E-1,-7.4642926E-1,-5.090915E-1,-1.0181329E0,2.2484615E-2,-2.611058E-1],"split_indices":[0,0,0,0,0,0,0,0,0,0,0,0,0,0,0,0,0,0,0,0,0,0,0,0,0,0,0,0,0],"split_type":[0,0,0,0,0,0,0,0,0,0,0,0,0,0,0,0,0,0,0,0,0,0,0,0,0,0,0,0,0],"sum_hessian":[1.2227E4,9.864E3,2.363E3,9.049E3,8.15E2,1.009E3,1.354E3,8.902E3,1.47E2,2.48E2,5.67E2,9.95E2,1.4E1,8.3E1,1.271E3,8.817E3,8.5E1,4.7E1,1E2,1.45E2,1.03E2,7.5E1,4.92E2,9.8E2,1.5E1,5.5E1,2.8E1,5.6E1,1.215E3],"tree_param":{"num_deleted":"0","num_feature":"1","num_nodes":"29","size_leaf_vector":"1"}},{"base_weights":[-6.069856E-4,1.3771343E-1,-5.6126165E-1,1.5231842E-1,-3.6382426E-2,-6.0743755E-1,-2.9962084E-1,1.4918882E-1,4.030057E-1,-7.588587E-2,9.9906063E-1,-4.5330107E-1,-7.7262634E-1,2.975243E-1,-4.065257E-1,4.6622656E-2,-1.2281386E-2,6.233735E-1,6.4980015E-2,-5.1126983E-3,-2.4028692E-1,3.5056642E-1,2.3227866E-1,-1.425286E-1,3.3162627E-1,-4.705225E-1,-2.056549E-1,-9.8239025E-3,3.872026E-1,-3.877309E-1,-7.885993E-2],"categories":[],"categories_nodes":[],"categories_segments":[],"categories_sizes":[],"default_left":[0,0,0,0,0,0,0,0,0,0,0,0,0,0,0,0,0,0,0,0,0,0,0,0,0,0,0,0,0,0,0],"id":5,"left_children":[1,3,5,7,9,11,13,15,17,19,21,23,25,27,29,-1,-1,-1,-1,-1,-1,-1,-1,-1,-1,-1,-1,-1,-1,-1,-1],"loss_changes":[9.483585E2,2.4946594E1,2.9055176E1,7.040039E0,3.1162525E1,5.19989E1,2.3421719E1,1.0578766E1,3.420545E1,3.126032E1,1.620903E-1,3.673842E1,6.762152E1,1.8410748E1,3.9113735E1,0E0,0E0,0E0,0E0,0E0,0E0,0E0,0E0,0E0,0E0,0E0,0E0,0E0,0E0,0E0,0E0],"parents":[2147483647,0,0,1,1,2,2,3,3,4,4,5,5,6,6,7,7,8,8,9,9,10,10,11,11,12,12,13,13,14,14],"right_children":[2,4,6,8,10,12,14,16,18,20,22,24,26,28,30,-1,-1,-1,-1,-1,-1,-1,-1,-1,-1,-1,-1,-1,-1,-1,-1],"split_conditions":[1.343E3,4.48E2,8.491E3,4.46E2,1.341E3,4.018E3,9.042E3,2.23E2,4.47E2,1.23E3,1.342E3,3.913E3,4.246E3,8.838E3,9.399E3,4.6622656E-2,-1.2281386E-2,6.233735E-1,6.4980015E-2,-5.1126983E-3,-2.4028692E-1,3.5056642E-1,2.3227866E-1,-1.425286E-1,3.3162627E-1,-4.705225E-1,-2.056549E-1,-9.8239025E-3,3.872026E-1,-3.877309E-1,-7.885993E-2],"split_indices":[0,0,0,0,0,0,0,0,0,0,0,0,0,0,0,0,0,0,0,0,0,0,0,0,0,0,0,0,0,0,0],"split_type":[0,0,0,0,0,0,0,0,0,0,0,0,0,0,0,0,0,0,0,0,0,0,0,0,0,0,0,0,0,0,0],"sum_hessian":[1.2227E4,9.808E3,2.419E3,9.049E3,7.59E2,2.055E3,3.64E2,8.939E3,1.1E2,7.32E2,2.7E1,1.065E3,9.9E2,5.5E1,3.09E2,8.656E3,2.83E2,1E1,1E2,6.78E2,5.4E1,1.3E1,1.4E1,1.051E3,1.4E1,9.6E1,8.94E2,4.2E1,1.3E1,4.2E1,2.67E2],"tree_param":{"num_deleted":"0","num_feature":"1","num_nodes":"31","size_leaf_vector":"1"}},{"base_weights":[-3.8504048E-4,9.548826E-2,-4.0046528E-1,1.0367684E-1,-8.890413E-2,-4.230536E-1,-4.4026617E-2,9.673103E-2,6.6641235E-1,-3.5773313E-1,3.1496808E-2,-2.2893003E-1,-4.7427008E-1,4.6384117E-1,-4.481558E-1,3.18351E-2,-9.226291E-2,4.6570206E-1,4.637485E-2,-1.3290215E-1,-8.349375E-2,1.6772272E-1,-2.8147463E-2,-9.307641E-2,2.651193E-1,-3.075692E-1,-1.2987575E-1,-6.071758E-1,-6.219291E-2],"categories":[],"categories_nodes":[],"categories_segments":[],"categories_sizes":[],"default_left":[0,0,0,0,0,0,0,0,0,0,0,0,0,0,0,0,0,0,0,0,0,0,0,0,0,0,0,0,0],"id":6,"left_children":[1,3,5,7,9,11,13,15,17,19,21,23,25,-1,27,-1,-1,-1,-1,-1,-1,-1,-1,-1,-1,-1,-1,-1,-1],"loss_changes":[4.6906784E2,1.4904495E1,1.901474E1,3.685666E1,1.3605518E1,2.1993225E1,9.1946594E1,3.5442924E1,5.1906097E1,7.571335E-1,1.9292522E1,4.2441017E1,3.9608185E1,0E0,4.28453E1,0E0,0E0,0E0,0E0,0E0,0E0,0E0,0E0,0E0,0E0,0E0,0E0,0E0,0E0],"parents":[2147483647,0,0,1,1,2,2,3,3,4,4,5,5,6,6,7,7,8,8,9,9,10,10,11,11,12,12,14,14],"right_children":[2,4,6,8,10,12,14,16,18,20,22,24,26,-1,28,-1,-1,-1,-1,-1,-1,-1,-1,-1,-1,-1,-1,-1,-1],"split_conditions":[1.563E3,8.94E2,1.129E4,7.82E2,1.007E3,2.57E3,1.3285E4,5.59E2,7.83E2,1.004E3,1.117E3,2.462E3,2.796E3,4.6384117E-1,1.4736E4,3.18351E-2,-9.226291E-2,4.6570206E-1,4.637485E-2,-1.3290215E-1,-8.349375E-2,1.6772272E-1,-2.8147463E-2,-9.307641E-2,2.651193E-1,-3.075692E-1,-1.2987575E-1,-6.071758E-1,-6.219291E-2],"split_indices":[0,0,0,0,0,0,0,0,0,0,0,0,0,0,0,0,0,0,0,0,0,0,0,0,0,0,0,0,0],"split_type":[0,0,0,0,0,0,0,0,0,0,0,0,0,0,0,0,0,0,0,0,0,0,0,0,0,0,0,0,0],"sum_hessian":[1.2227E4,9.864E3,2.363E3,9.445E3,4.19E2,2.222E3,1.41E2,9.331E3,1.14E2,1.29E2,2.9E2,4.65E2,1.757E3,2.8E1,1.13E2,9.12E3,2.11E2,4.1E1,7.3E1,6E1,6.9E1,5.5E1,2.35E2,4.34E2,3.1E1,1.21E2,1.636E3,1.4E1,9.9E1],"tree_param":{"num_deleted":"0","num_feature":"1","num_nodes":"29","size_leaf_vector":"1"}},{"base_weights":[-2.777448E-4,6.1455604E-2,-3.0824903E-1,5.665671E-2,1.934721E0,-5.9551674E-1,-2.8732315E-1,6.3460894E-2,-5.18115E-1,4.434957E-1,6.832219E-1,4.7520515E-1,-2.9743144E-1,2.1786347E-2,-2.4329675E-2,-2.4793635E-1,1.382308E-2,-1.178258E-1,-5.5486325E-2],"categories":[],"categories_nodes":[],"categories_segments":[],"categories_sizes":[],"default_left":[0,0,0,0,0,0,0,0,0,0,0,0,0,0,0,0,0,0,0],"id":7,"left_children":[1,3,5,7,9,-1,11,13,15,-1,-1,-1,17,-1,-1,-1,-1,-1,-1],"loss_changes":[2.3249887E2,9.1467445E1,7.108067E1,3.9774937E1,6.997223E-1,0E0,3.8643692E1,1.3306217E1,2.0739635E1,0E0,0E0,0E0,2.1456024E1,0E0,0E0,0E0,0E0,0E0,0E0],"parents":[2147483647,0,0,1,1,2,2,3,3,4,4,6,6,7,7,8,8,12,12],"right_children":[2,4,6,8,10,-1,12,14,16,-1,-1,-1,18,-1,-1,-1,-1,-1,-1],"split_conditions":[2.237E3,2.126E3,2.344E3,1.901E3,2.234E3,-5.9551674E-1,2.345E3,8.94E2,2.016E3,4.434957E-1,6.832219E-1,4.7520515E-1,5.366E3,2.1786347E-2,-2.4329675E-2,-2.4793635E-1,1.382308E-2,-1.178258E-1,-5.5486325E-2],"split_indices":[0,0,0,0,0,0,0,0,0,0,0,0,0,0,0,0,0,0,0],"split_type":[0,0,0,0,0,0,0,0,0,0,0,0,0,0,0,0,0,0,0],"sum_hessian":[1.2227E4,1.0186E4,2.041E3,1.0161E4,2.5E1,2.4E1,2.017E3,1.0043E4,1.18E2,1.3E1,1.2E1,1E1,2.007E3,9.445E3,5.98E2,7.6E1,4.2E1,1.085E3,9.22E2],"tree_param":{"num_deleted":"0","num_feature":"1","num_nodes":"19","size_leaf_vector":"1"}},{"base_weights":[-1.4590406E-4,4.215863E-2,-2.22196E-1,3.9544277E-2,4.720459E-1,-1.2875416E0,-2.0662507E-1,4.310598E-2,-4.2400792E-1,3.456038E-1,3.1912896E-1,-2.629897E-1,-5.287105E-1,7.4104035E-1,-2.2248535E-1,1.1890828E-2,4.1929197E-1,7.498562E-2,1.3077307E-1,1.3758266E-1,3.091666E-1,-2.027563E-1,-5.939132E-2],"categories":[],"categories_nodes":[],"categories_segments":[],"categories_sizes":[],"default_left":[0,0,0,0,0,0,0,0,0,0,0,0,0,0,0,0,0,0,0,0,0,0,0],"id":8,"left_children":[1,3,5,7,9,11,13,15,-1,-1,17,-1,-1,19,21,-1,-1,-1,-1,-1,-1,-1,-1],"loss_changes":[1.1487584E2,1.1525803E1,3.2197487E1,5.2900913E1,6.0790215E0,3.918148E0,2.9173233E1,4.7824306E1,0E0,0E0,3.1112862E-1,0E0,0E0,2.143961E0,2.0971718E1,0E0,0E0,0E0,0E0,0E0,0E0,0E0,0E0],"parents":[2147483647,0,0,1,1,2,2,3,3,4,4,5,5,6,6,7,7,10,10,13,13,14,14],"right_children":[2,4,6,8,10,12,14,16,-1,-1,18,-1,-1,20,22,-1,-1,-1,-1,-1,-1,-1,-1],"split_conditions":[2.458E3,2.344E3,2.462E3,2.237E3,2.345E3,2.46E3,2.57E3,2.126E3,-4.2400792E-1,3.456038E-1,2.456E3,-2.629897E-1,-5.287105E-1,2.568E3,2.792E3,1.1890828E-2,4.1929197E-1,7.498562E-2,1.3077307E-1,1.3758266E-1,3.091666E-1,-2.027563E-1,-5.939132E-2],"split_indices":[0,0,0,0,0,0,0,0,0,0,0,0,0,0,0,0,0,0,0,0,0,0,0],"split_type":[0,0,0,0,0,0,0,0,0,0,0,0,0,0,0,0,0,0,0,0,0,0,0],"sum_hessian":[1.2227E4,1.0271E4,1.956E3,1.021E4,6.1E1,2.7E1,1.929E3,1.0186E4,2.4E1,1E1,5.1E1,1.6E1,1.1E1,3.1E1,1.898E3,1.0161E4,2.5E1,3.4E1,1.7E1,1.7E1,1.4E1,9.6E1,1.802E3],"tree_param":{"num_deleted":"0","num_feature":"1","num_nodes":"23","size_leaf_vector":"1"}},{"base_weights":[-1.0576833E-4,2.841894E-2,-1.8837942E-1,2.2108614E-2,4.8734164E-1,-3.5643178E-1,-7.172865E-2,2.835914E-2,-5.086499E-1,9.145345E-1,9.727523E-2,-1.6474117E-1,-8.084114E-1,4.0582728E-1,-1.6379867E-1,1.1684283E-2,-2.4438603E-2,-1.2870772E-1,-2.5532305E-1,-1.3602148E-1,1.4333494E-1,-7.5891316E-2,3.3602512E-1,-1.8083547E-1,-3.8978294E-1,5.5163015E-2,7.8365976E-1,-3.5702115E-1,-3.3275764E-2],"categories":[],"categories_nodes":[],"categories_segments":[],"categories_sizes":[],"default_left":[0,0,0,0,0,0,0,0,0,0,0,0,0,0,0,0,0,0,0,0,0,0,0,0,0,0,0,0,0],"id":9,"left_children":[1,3,5,7,9,11,13,15,17,-1,19,21,23,25,27,-1,-1,-1,-1,-1,-1,-1,-1,-1,-1,-1,-1,-1,-1],"loss_changes":[6.567523E1,3.074424E1,3.1516361E1,3.477207E1,1.4355971E2,5.6962753E1,4.18806E1,1.2045524E1,2.9612522E0,0E0,2.6618435E1,5.2882374E1,1.9000046E1,7.493432E1,4.3174423E1,0E0,0E0,0E0,0E0,0E0,0E0,0E0,0E0,0E0,0E0,0E0,0E0,0E0,0E0],"parents":[2147483647,0,0,1,1,2,2,3,3,4,4,5,5,6,6,7,7,8,8,10,10,11,11,12,12,13,13,14,14],"right_children":[2,4,6,8,10,12,14,16,18,-1,20,22,24,26,28,-1,-1,-1,-1,-1,-1,-1,-1,-1,-1,-1,-1,-1,-1],"split_conditions":[3.238E3,2.903E3,5.258E3,2.574E3,2.906E3,4.583E3,5.921E3,8.94E2,2.797E3,9.145345E-1,3.02E3,4.469E3,5.037E3,5.82E3,6.041E3,1.1684283E-2,-2.4438603E-2,-1.2870772E-1,-2.5532305E-1,-1.3602148E-1,1.4333494E-1,-7.5891316E-2,3.3602512E-1,-1.8083547E-1,-3.8978294E-1,5.5163015E-2,7.8365976E-1,-3.5702115E-1,-3.3275764E-2],"split_indices":[0,0,0,0,0,0,0,0,0,0,0,0,0,0,0,0,0,0,0,0,0,0,0,0,0,0,0,0,0],"split_type":[0,0,0,0,0,0,0,0,0,0,0,0,0,0,0,0,0,0,0,0,0,0,0,0,0,0,0,0,0],"sum_hessian":[1.2227E4,1.0619E4,1.608E3,1.0476E4,1.43E2,6.58E2,9.5E2,1.0355E4,1.21E2,1.8E1,1.25E2,4.63E2,1.95E2,1.53E2,7.97E2,9.445E3,9.1E2,1E2,2.1E1,5.1E1,7.4E1,4.34E2,2.9E1,1.39E2,5.6E1,1.4E2,1.3E1,3.8E1,7.59E2],"tree_param":{"num_deleted":"0","num_feature":"1","num_nodes":"29","size_leaf_vector":"1"}}]},"name":"gbtree"},"learner_model_param":{"base_score":"7.8877573E0","boost_from_average":"1","num_class":"0","num_feature":"1","num_target":"1"},"objective":{"name":"reg:squarederror","reg_loss_param":{"scale_pos_weight":"1"}}},"version":[2,0,3]}