{"learner":{"attributes":{"scikit_learn":"{\"_estimator_type\": \"regressor\"}"},"feature_names":[],"feature_types":[],"gradient_booster":{"model":{"gbtree_model_param":{"num_parallel_tree":"1","num_trees":"100"},"iteration_indptr":[0,1,2,3,4,5,6,7,8,9,10,11,12,13,14,15,16,17,18,19,20,21,22,23,24,25,26,27,28,29,30,31,32,33,34,35,36,37,38,39,40,41,42,43,44,45,46,47,48,49,50,51,52,53,54,55,56,57,58,59,60,61,62,63,64,65,66,67,68,69,70,71,72,73,74,75,76,77,78,79,80,81,82,83,84,85,86,87,88,89,90,91,92,93,94,95,96,97,98,99,100],"tree_info":[0,0,0,0,0,0,0,0,0,0,0,0,0,0,0,0,0,0,0,0,0,0,0,0,0,0,0,0,0,0,0,0,0,0,0,0,0,0,0,0,0,0,0,0,0,0,0,0,0,0,0,0,0,0,0,0,0,0,0,0,0,0,0,0,0,0,0,0,0,0,0,0,0,0,0,0,0,0,0,0,0,0,0,0,0,0,0,0,0,0,0,0,0,0,0,0,0,0,0,0],"trees":[{"base_weights":[-9.298166E-7,-5.518089E-1,7.450606E-1,-1.3097084E0,7.3011696E-1,6.12778E-1,1.6331332E0,5.1565785E-2,-1.4994626E0,1.9217564E0,2.5552222E-1,4.4669724E-1,1.4447279E0,1.0642494E0,1.458011E0,9.8976284E-1,-2.3449256E-1,-2.0280163E0,-8.795254E-1,2.0397537E0,4.102046E-2,-3.0972695E-1,9.5937663E-1,-3.4720797E-2,8.282181E-1,1.5666418E0,6.4580345E-1,1.2321185E0,2.080448E0,3.5186237E-1,-2.2772227E-1,-3.5389486E-1,1.2647604E-2,-4.5332608E-1,-8.064753E-1,-4.212658E-1,-1.599454E-1,8.189302E-1,5.328452E-1,4.0048572E-1,-1.926466E-1,1.6321728E-2,-2.7535746E-1,3.9550212E-1,1.5716596E-1,9.353003E-3,-8.7465286E-1,4.6917298E-1,2.1059343E-1,3.671371E-1,5.4182905E-1,1.8624945E-2,4.4222838E-1,3.2928985E-1,5.301663E-1,5.4580605E-1,7.88707E-1],"categories":[],"categories_nodes":[],"categories_segments":[],"categories_sizes":[],"default_left":[0,0,0,0,0,0,0,0,0,0,0,0,0,0,0,0,0,0,0,0,0,0,0,0,0,0,0,0,0,0,0,0,0,0,0,0,0,0,0,0,0,0,0,0,0,0,0,0,0,0,0,0,0,0,0,0,0],"id":0,"left_children":[1,3,5,7,9,11,13,15,17,19,21,23,25,-1,27,29,31,33,35,37,39,41,43,45,47,49,51,53,55,-1,-1,-1,-1,-1,-1,-1,-1,-1,-1,-1,-1,-1,-1,-1,-1,-1,-1,-1,-1,-1,-1,-1,-1,-1,-1,-1,-1],"loss_changes":[3.0900598E3,4.196199E3,3.7468945E2,7.0112354E2,9.072098E2,3.841604E2,1.3362036E2,8.9602325E1,7.7872705E2,1.01334595E2,4.574304E2,4.266966E2,4.408441E1,0E0,5.1006653E1,2.5868439E1,6.698832E1,4.3450146E2,1.9880225E2,7.3364136E1,2.5608768E1,1.4132895E2,7.934784E1,1.9524303E2,1.1926654E2,3.0710815E1,3.0368376E1,1.8353973E1,9.539886E0,0E0,0E0,0E0,0E0,0E0,0E0,0E0,0E0,0E0,0E0,0E0,0E0,0E0,0E0,0E0,0E0,0E0,0E0,0E0,0E0,0E0,0E0,0E0,0E0,0E0,0E0,0E0,0E0],"parents":[2147483647,0,0,1,1,2,2,3,3,4,4,5,5,6,6,7,7,8,8,9,9,10,10,11,11,12,12,14,14,15,15,16,16,17,17,18,18,19,19,20,20,21,21,22,22,23,23,24,24,25,25,26,26,27,27,28,28],"right_children":[2,4,6,8,10,12,14,16,18,20,22,24,26,-1,28,30,32,34,36,38,40,42,44,46,48,50,52,54,56,-1,-1,-1,-1,-1,-1,-1,-1,-1,-1,-1,-1,-1,-1,-1,-1,-1,-1,-1,-1,-1,-1,-1,-1,-1,-1,-1,-1],"split_conditions":[9.444445E0,9.48E2,1.6944445E1,3.8E2,3.75E2,1.264E3,3.93E2,3.57E2,5.5555553E0,6.0621777E0,5.687E3,-3.235238E0,5.46E2,1.0642494E0,1.888889E1,7.5E0,8.333333E-1,7.9602044E-16,-4E0,3.46E2,3.56E2,-3.4729636E-1,-1.5628335E0,5.89E2,4.31E2,3.476E3,-1.5628335E0,4.3301272E0,2.111111E1,3.5186237E-1,-2.2772227E-1,-3.5389486E-1,1.2647604E-2,-4.5332608E-1,-8.064753E-1,-4.212658E-1,-1.599454E-1,8.189302E-1,5.328452E-1,4.0048572E-1,-1.926466E-1,1.6321728E-2,-2.7535746E-1,3.9550212E-1,1.5716596E-1,9.353003E-3,-8.7465286E-1,4.6917298E-1,2.1059343E-1,3.671371E-1,5.4182905E-1,1.8624945E-2,4.4222838E-1,3.2928985E-1,5.301663E-1,5.4580605E-1,7.88707E-1],"split_indices":[2,1,2,0,0,1,0,0,2,3,1,3,0,0,2,2,2,3,3,0,0,3,3,0,0,1,3,3,2,0,0,0,0,0,0,0,0,0,0,0,0,0,0,0,0,0,0,0,0,0,0,0,0,0,0,0,0],"split_type":[0,0,0,0,0,0,0,0,0,0,0,0,0,0,0,0,0,0,0,0,0,0,0,0,0,0,0,0,0,0,0,0,0,0,0,0,0,0,0,0,0,0,0,0,0,0,0,0,0,0,0,0,0,0,0,0,0],"sum_hessian":[7.514E3,4.317E3,3.197E3,2.713E3,1.604E3,2.784E3,4.13E2,3.32E2,2.381E3,4.56E2,1.148E3,2.322E3,4.62E2,3.3E1,3.8E2,7.7E1,2.55E2,1.284E3,1.097E3,4.29E2,2.7E1,6.37E2,5.11E2,1.027E3,1.295E3,4E2,6.2E1,2.81E2,9.9E1,7E1,7E0,5.7E1,1.98E2,7.22E2,5.62E2,4.35E2,6.62E2,1.16E2,3.13E2,9E0,1.8E1,3.99E2,2.38E2,2.79E2,2.32E2,1.005E3,2.2E1,1.88E2,1.107E3,1.67E2,2.33E2,3.7E1,2.5E1,2.27E2,5.4E1,7E1,2.9E1],"tree_param":{"num_deleted":"0","num_feature":"4","num_nodes":"57","size_leaf_vector":"1"}},{"base_weights":[5.629657E-4,-3.8297158E-1,5.292579E-1,-9.101364E-1,5.14067E-1,3.9760524E-1,1.0390016E0,-1.171654E-1,-1.0660512E0,1.114325E0,1.5198938E-4,2.7135077E-1,1.0068637E0,2.7583795E0,9.569032E-1,3.4722513E-1,-4.2292777E-1,-1.3995515E0,-4.8750916E-1,1.7525871E0,8.8442767E-1,-3.6388832E-1,4.839164E-1,2.248268E-2,6.648244E-1,1.0773742E0,9.401828E-2,9.056638E-1,1.6972082E0,7.774412E-1,1.5500917E0,4.1616768E-1,6.9074474E-2,-3.6520714E-1,-6.369115E-2,-3.0054533E-1,-5.7854044E-1,-3.226997E-1,-2.0178054E-2,7.258579E-1,4.138119E-1,1.2714864E-1,4.0660802E-1,-2.3552881E-1,8.6091556E-2,2.1546836E-1,-4.4386715E-2,6.597264E-2,-1.1383714E-1,4.4542566E-1,1.6560858E-1,2.7307746E-1,4.4214454E-1,-3.8063166E-1,1.5790516E-1,5.7420236E-1,2.0936185E-1,1.7492907E-1,3.513243E-1,-1.1461258E-3,4.8545223E-1],"categories":[],"categories_nodes":[],"categories_segments":[],"categories_sizes":[],"default_left":[0,0,0,0,0,0,0,0,0,0,0,0,0,0,0,0,0,0,0,0,0,0,0,0,0,0,0,0,0,0,0,0,0,0,0,0,0,0,0,0,0,0,0,0,0,0,0,0,0,0,0,0,0,0,0,0,0,0,0,0,0],"id":1,"left_children":[1,3,5,7,9,11,13,15,17,19,21,23,25,27,29,31,33,35,37,39,41,43,45,47,49,51,53,-1,55,57,59,-1,-1,-1,-1,-1,-1,-1,-1,-1,-1,-1,-1,-1,-1,-1,-1,-1,-1,-1,-1,-1,-1,-1,-1,-1,-1,-1,-1,-1,-1],"loss_changes":[1.52404E3,2.0603645E3,2.1165167E2,3.3913208E2,4.9758066E2,1.9303076E2,8.883093E1,6.432775E1,4.4173804E2,1.0762067E2,1.5339157E2,2.039587E2,2.7640076E1,2.8929596E0,6.4796875E1,2.1578674E1,4.5421505E1,3.039431E2,2.0755223E2,4.5449158E1,1.18509674E2,1.364765E2,5.5478798E1,1.0141775E2,7.381531E1,2.5159088E1,1.952152E1,0E0,3.9750862E-1,3.588495E1,1.5134735E1,0E0,0E0,0E0,0E0,0E0,0E0,0E0,0E0,0E0,0E0,0E0,0E0,0E0,0E0,0E0,0E0,0E0,0E0,0E0,0E0,0E0,0E0,0E0,0E0,0E0,0E0,0E0,0E0,0E0,0E0],"parents":[2147483647,0,0,1,1,2,2,3,3,4,4,5,5,6,6,7,7,8,8,9,9,10,10,11,11,12,12,13,13,14,14,15,15,16,16,17,17,18,18,19,19,20,20,21,21,22,22,23,23,24,24,25,25,26,26,28,28,29,29,30,30],"right_children":[2,4,6,8,10,12,14,16,18,20,22,24,26,28,30,32,34,36,38,40,42,44,46,48,50,52,54,-1,56,58,60,-1,-1,-1,-1,-1,-1,-1,-1,-1,-1,-1,-1,-1,-1,-1,-1,-1,-1,-1,-1,-1,-1,-1,-1,-1,-1,-1,-1,-1,-1],"split_conditions":[1E1,9.48E2,1.611111E1,3.87E2,3.96E2,1.264E3,3.82E2,3.69E2,6.6666665E0,3.56E2,5.687E3,-1.1021821E-15,5.71E2,2.2222221E1,4.3301272E0,-1.2216004E1,8.333333E-1,7.9602044E-16,-4E0,-4.5148525E0,2.7777777E0,5.5555553E0,1.0418891E0,5.11E2,4.27E2,-1.5390906E0,2.528E3,9.056638E-1,3.71E2,1.7777779E1,4.07E2,4.1616768E-1,6.9074474E-2,-3.6520714E-1,-6.369115E-2,-3.0054533E-1,-5.7854044E-1,-3.226997E-1,-2.0178054E-2,7.258579E-1,4.138119E-1,1.2714864E-1,4.0660802E-1,-2.3552881E-1,8.6091556E-2,2.1546836E-1,-4.4386715E-2,6.597264E-2,-1.1383714E-1,4.4542566E-1,1.6560858E-1,2.7307746E-1,4.4214454E-1,-3.8063166E-1,1.5790516E-1,5.7420236E-1,2.0936185E-1,1.7492907E-1,3.513243E-1,-1.1461258E-3,4.8545223E-1],"split_indices":[2,1,2,0,0,1,0,0,2,0,1,3,0,2,3,3,2,3,3,3,2,2,3,0,0,3,1,0,0,2,0,0,0,0,0,0,0,0,0,0,0,0,0,0,0,0,0,0,0,0,0,0,0,0,0,0,0,0,0,0,0],"split_type":[0,0,0,0,0,0,0,0,0,0,0,0,0,0,0,0,0,0,0,0,0,0,0,0,0,0,0,0,0,0,0,0,0,0,0,0,0,0,0,0,0,0,0,0,0,0,0,0,0,0,0,0,0,0,0,0,0,0,0,0,0],"sum_hessian":[7.514E3,4.355E3,3.159E3,2.743E3,1.612E3,2.512E3,6.47E2,4.51E2,2.292E3,7.43E2,8.69E2,2.082E3,4.3E2,2.8E1,6.19E2,1.79E2,2.72E2,1.453E3,8.39E2,1.95E2,5.48E2,4.96E2,3.73E2,1.276E3,8.06E2,3.99E2,3.1E1,2.1E1,7E0,4.77E2,1.42E2,1.7E1,1.62E2,5.6E1,2.16E2,8.31E2,6.22E2,3.49E2,4.9E2,6.8E1,1.27E2,2.78E2,2.7E2,3.01E2,1.95E2,2.72E2,1.01E2,8.56E2,4.2E2,9.6E1,7.1E2,2.83E2,1.16E2,7E0,2.4E1,5E0,2E0,3.21E2,1.56E2,6E0,1.36E2],"tree_param":{"num_deleted":"0","num_feature":"4","num_nodes":"61","size_leaf_vector":"1"}},{"base_weights":[9.6406194E-4,-2.4662639E-1,4.2468995E-1,-5.852143E-1,3.667089E-1,7.746183E-1,2.5493094E-1,-1.1288396E0,-4.3098342E-1,9.616915E-1,1.3224241E-1,2.3528385E0,7.196854E-1,-9.675099E-2,4.2346957E-1,-1.1870923E-1,-1.4246849E0,3.7255514E-2,-5.206698E-1,1.045696E0,-3.2483292E-1,-1.4474536E-1,4.83019E-1,2.3466827E-1,2.4983795E0,5.855976E-1,1.0530989E0,-4.1518074E-2,-2.429349E0,2.781623E-1,7.3173887E-1,4.4726455E-1,-7.956906E-2,-3.3935422E-1,-8.3526087E-1,6.014304E-1,2.1646214E-4,-2.2888349E-1,-9.688533E-2,2.0728187E-1,3.726895E-1,1.446476E-1,-3.1832564E-1,-1.189885E-1,1.2908871E-1,2.6755387E-1,1.04069196E-1,7.654085E-1,1.6812658E-1,1.5328851E-1,3.6053798E-1,6.0912585E-1,2.7917868E-1,-1.23202816E-1,5.319506E-2,-1.1427051E0,1.3513279E-2,9.613917E-2,-2.0969297E-1,1.4725426E-1,3.001426E-1],"categories":[],"categories_nodes":[],"categories_segments":[],"categories_sizes":[],"default_left":[0,0,0,0,0,0,0,0,0,0,0,0,0,0,0,0,0,0,0,0,0,0,0,0,0,0,0,0,0,0,0,0,0,0,0,0,0,0,0,0,0,0,0,0,0,0,0,0,0,0,0,0,0,0,0,0,0,0,0,0,0],"id":2,"left_children":[1,3,5,7,9,11,13,15,17,19,21,23,25,27,29,31,33,35,37,39,41,43,45,-1,47,49,51,53,55,57,59,-1,-1,-1,-1,-1,-1,-1,-1,-1,-1,-1,-1,-1,-1,-1,-1,-1,-1,-1,-1,-1,-1,-1,-1,-1,-1,-1,-1,-1,-1],"loss_changes":[7.885071E2,9.8539136E2,1.64469E2,2.558241E2,2.353547E2,7.6766785E1,1.10761086E2,2.015495E2,1.0009265E2,5.189093E1,1.17828835E2,4.903366E0,3.8546356E1,7.797388E1,5.6370987E1,3.6714603E1,2.0514124E2,2.7600872E1,9.555829E1,3.0387848E1,1.83361E1,9.837425E1,2.9463509E1,0E0,1.3424225E0,2.8221817E1,2.8041748E1,4.7978123E1,4.796534E1,3.5771713E1,2.5662369E1,0E0,0E0,0E0,0E0,0E0,0E0,0E0,0E0,0E0,0E0,0E0,0E0,0E0,0E0,0E0,0E0,0E0,0E0,0E0,0E0,0E0,0E0,0E0,0E0,0E0,0E0,0E0,0E0,0E0,0E0],"parents":[2147483647,0,0,1,1,2,2,3,3,4,4,5,5,6,6,7,7,8,8,9,9,10,10,11,11,12,12,13,13,14,14,15,15,16,16,17,17,18,18,19,19,20,20,21,21,22,22,24,24,25,25,26,26,27,27,28,28,29,29,30,30],"right_children":[2,4,6,8,10,12,14,16,18,20,22,24,26,28,30,32,34,36,38,40,42,44,46,-1,48,50,52,54,56,58,60,-1,-1,-1,-1,-1,-1,-1,-1,-1,-1,-1,-1,-1,-1,-1,-1,-1,-1,-1,-1,-1,-1,-1,-1,-1,-1,-1,-1,-1,-1],"split_conditions":[1.0555555E1,9.48E2,4.67E2,2.5E0,3.77E2,3.63E2,-5.638156E0,3.8E2,3.96E2,6.0621777E0,5.687E3,3.22E2,-1.1021821E-15,6.18E2,1.5E1,3.44E2,2.6047227E0,-1.9918585E1,6.6666665E0,1.3888888E0,1.3888888E0,6.9444447E0,3.96E2,2.3466827E-1,2.528E3,3.791E3,9.641814E-1,1.3055555E1,6.32E2,6.4752655E0,3.5E0,4.4726455E-1,-7.956906E-2,-3.3935422E-1,-8.3526087E-1,6.014304E-1,2.1646214E-4,-2.2888349E-1,-9.688533E-2,2.0728187E-1,3.726895E-1,1.446476E-1,-3.1832564E-1,-1.189885E-1,1.2908871E-1,2.6755387E-1,1.04069196E-1,7.654085E-1,1.6812658E-1,1.5328851E-1,3.6053798E-1,6.0912585E-1,2.7917868E-1,-1.23202816E-1,5.319506E-2,-1.1427051E0,1.3513279E-2,9.613917E-2,-2.0969297E-1,1.4725426E-1,3.001426E-1],"split_indices":[2,1,0,2,0,0,3,0,0,3,1,0,3,0,2,0,3,3,2,2,2,2,0,0,1,1,3,2,1,3,3,0,0,0,0,0,0,0,0,0,0,0,0,0,0,0,0,0,0,0,0,0,0,0,0,0,0,0,0,0,0],"split_type":[0,0,0,0,0,0,0,0,0,0,0,0,0,0,0,0,0,0,0,0,0,0,0,0,0,0,0,0,0,0,0,0,0,0,0,0,0,0,0,0,0,0,0,0,0,0,0,0,0,0,0,0,0,0,0,0,0,0,0,0,0],"sum_hessian":[7.514E3,4.743E3,2.771E3,3.056E3,1.687E3,9.04E2,1.867E3,6.74E2,2.382E3,4.76E2,1.211E3,2.9E1,8.75E2,6.05E2,1.262E3,1.53E2,5.21E2,3.83E2,1.999E3,4.47E2,2.9E1,6.77E2,5.34E2,3E0,2.6E1,6.26E2,2.49E2,5.92E2,1.3E1,8.59E2,4.03E2,1.2E1,1.41E2,4.3E2,9.1E1,6E0,3.77E2,8.97E2,1.102E3,1.61E2,2.86E2,1.4E1,1.5E1,4.71E2,2.06E2,1.32E2,4.02E2,2.5E1,1E0,5.6E2,6.6E1,2.6E1,2.23E2,2.2E2,3.72E2,8E0,5E0,8.24E2,3.5E1,2.14E2,1.89E2],"tree_param":{"num_deleted":"0","num_feature":"4","num_nodes":"61","size_leaf_vector":"1"}},{"base_weights":[9.359012E-4,-1.524075E-1,3.618844E-1,-3.6205778E-1,3.0396706E-1,6.364529E-1,1.7228973E-1,-6.2189853E-1,-2.121574E-1,8.414516E-1,1.9949524E-1,1.6345953E0,5.960767E-1,-3.1918894E-2,5.350618E-1,-1.2695016E-1,-8.490194E-1,2.7202874E-1,-2.7988136E-1,1.0322869E0,2.5937772E-1,3.6041114E-1,-6.0518187E-2,1.818678E-1,1.7120605E0,-1.1453088E-2,6.396968E-1,-2.2448586E-1,2.1259788E-1,6.007398E-1,1.563673E-1,2.1426491E-1,-8.6145915E-2,-1.8048848E-1,-3.5112575E-1,5.9361078E-2,4.736576E-1,-1.8173862E-1,-4.4071794E-2,2.3228839E-1,3.551411E-1,2.7488557E-1,-5.8670513E-2,-1.8498917E-1,1.2529589E-1,6.945963E-2,-1.09045334E-1,6.7148197E-1,4.2265046E-1,-8.9785494E-2,3.1565756E-1,1.8179023E-1,3.7550145E-1,-9.529854E-2,1.3575011E-1,7.4757785E-2,-1.8722118E-1,1.1112715E-1,2.2687282E-1,2.160836E-1,-7.2208695E-2],"categories":[],"categories_nodes":[],"categories_segments":[],"categories_sizes":[],"default_left":[0,0,0,0,0,0,0,0,0,0,0,0,0,0,0,0,0,0,0,0,0,0,0,0,0,0,0,0,0,0,0,0,0,0,0,0,0,0,0,0,0,0,0,0,0,0,0,0,0,0,0,0,0,0,0,0,0,0,0,0,0],"id":3,"left_children":[1,3,5,7,9,11,13,15,17,19,21,23,25,27,29,31,33,35,37,39,41,43,45,-1,47,49,51,53,55,57,59,-1,-1,-1,-1,-1,-1,-1,-1,-1,-1,-1,-1,-1,-1,-1,-1,-1,-1,-1,-1,-1,-1,-1,-1,-1,-1,-1,-1,-1,-1],"loss_changes":[4.160034E2,5.0481708E2,1.1654947E2,1.406731E2,9.31006E1,3.5901276E1,9.8322815E1,1.4850241E2,7.5298706E1,2.9723923E1,5.8263496E1,1.7502975E0,2.3354279E1,4.0070698E1,1.179483E1,5.6398884E1,7.133313E1,2.7016924E1,8.7151505E1,7.0186768E0,2.0501509E1,4.8355293E1,4.724473E1,0E0,1.9526062E0,1.868396E1,1.6208862E1,3.0169258E1,1.1637129E1,1.4296509E1,1.6294765E1,0E0,0E0,0E0,0E0,0E0,0E0,0E0,0E0,0E0,0E0,0E0,0E0,0E0,0E0,0E0,0E0,0E0,0E0,0E0,0E0,0E0,0E0,0E0,0E0,0E0,0E0,0E0,0E0,0E0,0E0],"parents":[2147483647,0,0,1,1,2,2,3,3,4,4,5,5,6,6,7,7,8,8,9,9,10,10,11,11,12,12,13,13,14,14,15,15,16,16,17,17,18,18,19,19,20,20,21,21,22,22,24,24,25,25,26,26,27,27,28,28,29,29,30,30],"right_children":[2,4,6,8,10,12,14,16,18,20,22,24,26,28,30,32,34,36,38,40,42,44,46,-1,48,50,52,54,56,58,60,-1,-1,-1,-1,-1,-1,-1,-1,-1,-1,-1,-1,-1,-1,-1,-1,-1,-1,-1,-1,-1,-1,-1,-1,-1,-1,-1,-1,-1,-1],"split_conditions":[1.1666667E1,1.264E3,4.87E2,4.4444447E0,3.64E2,3.73E2,9.797175E-16,3.91E2,4E2,2.2981334E0,-8.682409E-1,3.22E2,-1.5973465E1,1.4444445E1,5.58E2,3.57E2,7.9602044E-16,6.1563625E0,-5E0,1.3888888E0,3.4E2,0E0,4.15E2,1.818678E-1,3.4E2,4.58E2,5.055E3,2.528E3,6.18E2,3.5E0,4.015035E0,2.1426491E-1,-8.6145915E-2,-1.8048848E-1,-3.5112575E-1,5.9361078E-2,4.736576E-1,-1.8173862E-1,-4.4071794E-2,2.3228839E-1,3.551411E-1,2.7488557E-1,-5.8670513E-2,-1.8498917E-1,1.2529589E-1,6.945963E-2,-1.09045334E-1,6.7148197E-1,4.2265046E-1,-8.9785494E-2,3.1565756E-1,1.8179023E-1,3.7550145E-1,-9.529854E-2,1.3575011E-1,7.4757785E-2,-1.8722118E-1,1.1112715E-1,2.2687282E-1,2.160836E-1,-7.2208695E-2],"split_indices":[2,1,0,2,0,0,3,0,0,3,3,0,3,2,0,0,3,3,3,2,0,2,0,0,0,0,1,1,0,3,3,0,0,0,0,0,0,0,0,0,0,0,0,0,0,0,0,0,0,0,0,0,0,0,0,0,0,0,0,0,0],"split_type":[0,0,0,0,0,0,0,0,0,0,0,0,0,0,0,0,0,0,0,0,0,0,0,0,0,0,0,0,0,0,0,0,0,0,0,0,0,0,0,0,0,0,0,0,0,0,0,0,0,0,0,0,0,0,0,0,0,0,0,0,0],"sum_hessian":[7.514E3,5.274E3,2.24E3,3.614E3,1.66E3,9.14E2,1.326E3,1.321E3,2.293E3,2.69E2,1.391E3,3.4E1,8.8E2,8.49E2,4.77E2,4.16E2,9.05E2,2.81E2,2.012E3,2.02E2,6.7E1,8.59E2,5.32E2,3E0,3.1E1,5.9E1,8.21E2,4.75E2,3.74E2,4.06E2,7.1E1,6.6E1,3.5E2,5.13E2,3.92E2,2.67E2,1.4E1,5.82E2,1.43E3,7.7E1,1.25E2,2.7E1,4E1,4.7E1,8.12E2,2.71E2,2.61E2,9E0,2.2E1,4.7E1,1.2E1,7.8E2,4.1E1,4.18E2,5.7E1,3.59E2,1.5E1,1.65E2,2.41E2,2.9E1,4.2E1],"tree_param":{"num_deleted":"0","num_feature":"4","num_nodes":"61","size_leaf_vector":"1"}},{"base_weights":[1.0644585E-3,-1.4919473E-1,2.0394692E-1,-3.5297436E-1,1.5090281E-1,1.3679601E-1,4.2681196E-1,-6.459188E-1,-2.555984E-1,3.8515988E-1,-4.648634E-2,1.0672071E-1,8.378936E-1,1.1800855E0,3.9553145E-1,-2.1154156E-1,-9.053676E-1,-3.6493592E-2,-4.0519917E-1,5.7211703E-1,1.6129269E-1,8.218378E-2,-4.0853962E-1,-1.0216378E-1,2.2510093E-1,1.412013E0,5.634691E-1,-3.186902E-1,1.2981101E0,2.7981886E-1,5.8168477E-1,3.0152906E-2,-1.3355331E-1,-2.0999534E-1,-5.756312E-1,1.8969944E-1,-4.1868843E-2,-3.5669348E-1,-9.299571E-2,6.2205806E-2,2.0285535E-1,2.3881082E-1,5.5559324E-3,-2.4827758E-2,1.0279112E-1,6.4494896E-1,-1.4093281E-1,-1.6831568E-2,-4.5325267E-1,2.27201E-1,5.993811E-2,5.349864E-1,1.2506385E-1,1.7145982E-2,2.337886E-1,4.1993088E-1,-2.1700431E-1,1.4240927E-1,4.30803E-2,-2.0644352E-2,1.9434103E-1],"categories":[],"categories_nodes":[],"categories_segments":[],"categories_sizes":[],"default_left":[0,0,0,0,0,0,0,0,0,0,0,0,0,0,0,0,0,0,0,0,0,0,0,0,0,0,0,0,0,0,0,0,0,0,0,0,0,0,0,0,0,0,0,0,0,0,0,0,0,0,0,0,0,0,0,0,0,0,0,0,0],"id":4,"left_children":[1,3,5,7,9,11,13,15,17,19,21,23,25,27,29,31,33,35,37,39,41,43,45,47,49,51,53,-1,55,57,59,-1,-1,-1,-1,-1,-1,-1,-1,-1,-1,-1,-1,-1,-1,-1,-1,-1,-1,-1,-1,-1,-1,-1,-1,-1,-1,-1,-1,-1,-1],"loss_changes":[2.2912486E2,2.6411523E2,4.7801575E1,7.3203125E1,8.079884E1,5.176038E1,1.6969727E1,7.204831E1,6.331279E1,3.3348724E1,4.424316E1,5.8355854E1,1.5117172E1,9.054024E0,1.5173912E1,1.7615198E1,8.2119385E1,5.420243E1,8.5302444E1,1.6372406E1,3.3063072E1,3.0143269E1,4.0019596E1,5.53242E1,2.0133636E1,1.10795555E1,7.6047935E0,0E0,6.766529E0,1.1638599E1,1.1743332E1,0E0,0E0,0E0,0E0,0E0,0E0,0E0,0E0,0E0,0E0,0E0,0E0,0E0,0E0,0E0,0E0,0E0,0E0,0E0,0E0,0E0,0E0,0E0,0E0,0E0,0E0,0E0,0E0,0E0,0E0],"parents":[2147483647,0,0,1,1,2,2,3,3,4,4,5,5,6,6,7,7,8,8,9,9,10,10,11,11,12,12,13,13,14,14,15,15,16,16,17,17,18,18,19,19,20,20,21,21,22,22,23,23,24,24,25,25,26,26,28,28,29,29,30,30],"right_children":[2,4,6,8,10,12,14,16,18,20,22,24,26,28,30,32,34,36,38,40,42,44,46,48,50,52,54,-1,56,58,60,-1,-1,-1,-1,-1,-1,-1,-1,-1,-1,-1,-1,-1,-1,-1,-1,-1,-1,-1,-1,-1,-1,-1,-1,-1,-1,-1,-1,-1,-1],"split_conditions":[9.444445E0,6.32E2,6.32E2,2.5E0,3.98E2,1.888889E1,3.9E2,3.96E2,4.2E2,-1.3023614E0,1.5628335E0,-4.959292E0,-8.5E0,-1.5973465E1,3.476E3,-2.952019E0,2.7783709E0,-1.1490666E1,-6.840403E0,1.896E3,3.44E2,5.687E3,-5.555556E-1,5.89E2,4E2,4.36E2,-2.052121E0,-3.186902E-1,8.216E3,4.77E2,4.25E2,3.0152906E-2,-1.3355331E-1,-2.0999534E-1,-5.756312E-1,1.8969944E-1,-4.1868843E-2,-3.5669348E-1,-9.299571E-2,6.2205806E-2,2.0285535E-1,2.3881082E-1,5.5559324E-3,-2.4827758E-2,1.0279112E-1,6.4494896E-1,-1.4093281E-1,-1.6831568E-2,-4.5325267E-1,2.27201E-1,5.993811E-2,5.349864E-1,1.2506385E-1,1.7145982E-2,2.337886E-1,4.1993088E-1,-2.1700431E-1,1.4240927E-1,4.30803E-2,-2.0644352E-2,1.9434103E-1],"split_indices":[2,1,1,2,0,2,0,0,0,3,3,3,3,3,1,3,3,3,3,1,0,1,2,0,0,0,3,0,1,0,0,0,0,0,0,0,0,0,0,0,0,0,0,0,0,0,0,0,0,0,0,0,0,0,0,0,0,0,0,0,0],"split_type":[0,0,0,0,0,0,0,0,0,0,0,0,0,0,0,0,0,0,0,0,0,0,0,0,0,0,0,0,0,0,0,0,0,0,0,0,0,0,0,0,0,0,0,0,0,0,0,0,0,0,0,0,0,0,0,0,0,0,0,0,0],"sum_hessian":[7.514E3,4.317E3,3.197E3,2.571E3,1.746E3,2.458E3,7.39E2,6.4E2,1.931E3,7.98E2,9.48E2,2.358E3,1E2,2.8E1,7.11E2,2.4E2,4E2,7.84E2,1.147E3,4.34E2,3.64E2,7E2,2.48E2,8.53E2,1.505E3,3.1E1,6.9E1,1E0,2.7E1,4.4E2,2.71E2,1.03E2,1.37E2,3.34E2,6.6E1,1.04E2,6.8E2,1.23E2,1.024E3,9.7E1,3.37E2,6.6E1,2.98E2,4.29E2,2.71E2,5E0,2.43E2,8.27E2,2.6E1,6.7E1,1.438E3,2.2E1,9E0,2.1E1,4.8E1,2.6E1,1E0,1.8E2,2.6E2,2.5E1,2.46E2],"tree_param":{"num_deleted":"0","num_feature":"4","num_nodes":"61","size_leaf_vector":"1"}},{"base_weights":[8.6120167E-4,-1.2220557E-1,1.3674432E-1,-2.1416886E-1,3.1641212E-1,1.5861886E-2,2.7738592E-1,-5.7887632E-2,-4.3987805E-1,1.4303833E0,2.6845536E-1,-2.7119033E-2,5.631413E-1,5.14368E-1,2.0877379E-1,-1.3987634E-1,2.2892112E-1,-1.3441691E0,-2.6396477E-1,-7.6073326E-2,1.5491905E0,5.0483733E-1,1.1821748E-1,-7.5580634E-2,3.1931716E-1,7.881704E-1,1.6716576E-1,4.200479E-1,1.0960945E0,-3.870291E-1,2.3681282E-1,8.660754E-2,-7.311288E-2,-4.801517E-3,1.4390981E-1,-1.8786348E-1,-9.9046993E-1,1.5992714E-1,-1.1274591E-1,2.7883532E-2,-6.211653E-2,5.052457E-1,-1.4069748E-2,1.7384061E-1,-5.2433882E-2,2.9053912E-1,1.1175136E-2,1.8751866E-3,-7.5744316E-2,4.530763E-1,7.653253E-2,3.5652038E-1,1.3115948E-1,-2.0302074E-1,8.758546E-2,7.977092E-2,2.4514323E-1,1.2541348E-1,3.9511734E-1,1.4680856E-1,-2.1123824E-1,7.624594E-2,-1.8170667E-1],"categories":[],"categories_nodes":[],"categories_segments":[],"categories_sizes":[],"default_left":[0,0,0,0,0,0,0,0,0,0,0,0,0,0,0,0,0,0,0,0,0,0,0,0,0,0,0,0,0,0,0,0,0,0,0,0,0,0,0,0,0,0,0,0,0,0,0,0,0,0,0,0,0,0,0,0,0,0,0,0,0,0,0],"id":5,"left_children":[1,3,5,7,9,11,13,15,17,19,21,23,25,27,29,31,33,35,37,39,41,43,45,47,49,51,53,55,57,59,61,-1,-1,-1,-1,-1,-1,-1,-1,-1,-1,-1,-1,-1,-1,-1,-1,-1,-1,-1,-1,-1,-1,-1,-1,-1,-1,-1,-1,-1,-1,-1,-1],"loss_changes":[1.25687775E2,1.5915582E2,6.0723526E1,1.1500342E2,3.6156982E1,4.522566E1,2.6737602E1,4.536909E1,2.1185364E2,5.1292305E0,2.3272709E1,2.995866E1,1.2343086E1,1.9840942E1,2.1508396E1,6.68198E1,2.6357779E1,3.0288867E2,9.987511E1,8.565975E-2,5.6796646E0,1.3035049E1,2.7707214E1,2.265649E1,1.6361334E1,1.198225E1,5.673532E0,1.9370026E1,7.090435E0,1.6462894E1,1.805027E1,0E0,0E0,0E0,0E0,0E0,0E0,0E0,0E0,0E0,0E0,0E0,0E0,0E0,0E0,0E0,0E0,0E0,0E0,0E0,0E0,0E0,0E0,0E0,0E0,0E0,0E0,0E0,0E0,0E0,0E0,0E0,0E0],"parents":[2147483647,0,0,1,1,2,2,3,3,4,4,5,5,6,6,7,7,8,8,9,9,10,10,11,11,12,12,13,13,14,14,15,15,16,16,17,17,18,18,19,19,20,20,21,21,22,22,23,23,24,24,25,25,26,26,27,27,28,28,29,29,30,30],"right_children":[2,4,6,8,10,12,14,16,18,20,22,24,26,28,30,32,34,36,38,40,42,44,46,48,50,52,54,56,58,60,62,-1,-1,-1,-1,-1,-1,-1,-1,-1,-1,-1,-1,-1,-1,-1,-1,-1,-1,-1,-1,-1,-1,-1,-1,-1,-1,-1,-1,-1,-1,-1,-1],"split_conditions":[8.333333E0,5.687E3,-2.223131E0,-2.7554554E-15,3.4E2,1.75E1,4.42E2,-1.9411428E0,1.3073361E-1,-2.5E0,7.9E3,3.476E3,-8.426489E0,9.48E2,4.48E2,3.79E2,4.28E2,9.797175E-16,1.5628335E0,-3.8567257E0,1.7696E4,6E0,-5.555556E-1,5.13E2,8.888889E0,4.77E2,-7.517541E0,5.142301E0,-8.4523654E-1,-8.4523654E-1,8.892524E0,8.660754E-2,-7.311288E-2,-4.801517E-3,1.4390981E-1,-1.8786348E-1,-9.9046993E-1,1.5992714E-1,-1.1274591E-1,2.7883532E-2,-6.211653E-2,5.052457E-1,-1.4069748E-2,1.7384061E-1,-5.2433882E-2,2.9053912E-1,1.1175136E-2,1.8751866E-3,-7.5744316E-2,4.530763E-1,7.653253E-2,3.5652038E-1,1.3115948E-1,-2.0302074E-1,8.758546E-2,7.977092E-2,2.4514323E-1,1.2541348E-1,3.9511734E-1,1.4680856E-1,-2.1123824E-1,7.624594E-2,-1.8170667E-1],"split_indices":[2,1,3,3,0,2,0,3,3,2,1,1,3,1,0,0,0,3,3,3,1,3,2,0,2,0,3,3,3,3,3,0,0,0,0,0,0,0,0,0,0,0,0,0,0,0,0,0,0,0,0,0,0,0,0,0,0,0,0,0,0,0,0],"split_type":[0,0,0,0,0,0,0,0,0,0,0,0,0,0,0,0,0,0,0,0,0,0,0,0,0,0,0,0,0,0,0,0,0,0,0,0,0,0,0,0,0,0,0,0,0,0,0,0,0,0,0,0,0,0,0,0,0,0,0,0,0,0,0],"sum_hessian":[7.514E3,3.943E3,3.571E3,3.26E3,6.83E2,1.921E3,1.65E3,1.927E3,1.333E3,2.7E1,6.56E2,1.782E3,1.39E2,3.69E2,1.281E3,1.499E3,4.28E2,2.16E2,1.117E3,2E0,2.5E1,2.54E2,4.02E2,1.564E3,2.18E2,8.8E1,5.1E1,3.19E2,5E1,5.7E1,1.224E3,2.92E2,1.207E3,2.17E2,2.11E2,1.59E2,5.7E1,1.37E2,9.8E2,1E0,1E0,2.3E1,2E0,2.29E2,2.5E1,3.4E1,3.68E2,1.07E3,4.94E2,1E1,2.08E2,4E1,4.8E1,6E0,4.5E1,2.31E2,8.8E1,1.3E1,3.7E1,1.5E1,4.2E1,1.2E3,2.4E1],"tree_param":{"num_deleted":"0","num_feature":"4","num_nodes":"63","size_leaf_vector":"1"}},{"base_weights":[7.89678E-4,-6.678468E-2,1.598499E-1,-1.6916616E-1,1.0367802E-1,2.8268492E-1,3.1035611E-2,-3.8408342E-1,-1.1723425E-1,4.5909452E-1,6.214764E-2,2.2720954E-1,4.828671E-1,-2.0829462E-1,1.514789E-1,-1.0135273E-1,-5.5304605E-1,-9.520376E-2,-7.824719E-1,-2.8608067E-2,5.387124E-1,-8.6119846E-2,1.6736054E-1,2.9101622E-1,-4.839849E-4,1.3501986E0,4.3691415E-1,-6.9993556E-1,-3.6447793E-2,7.844006E-2,3.5974628E-1,1.9238257E-1,-5.0339885E-2,-5.3912914E-1,-1.2191117E-1,-4.048132E-2,4.2714387E-2,-4.3318117E-1,-1.0047837E-1,-4.874572E-2,3.691359E-1,2.8498542E-1,1.1254242E-1,2.501474E-3,-2.8759834E-1,5.6621395E-2,-3.382936E-1,2.4580169E-1,8.061077E-2,8.02641E-2,-1.05797574E-1,4.2101675E-1,1.1476536E-1,-2.4189236E-2,1.5809609E-1,-3.0358458E-1,3.7006423E-2,1.5849048E-1,-4.686999E-2,1.0570165E-2,1.8561499E-1,-1.5530572E-2,1.512439E-1],"categories":[],"categories_nodes":[],"categories_segments":[],"categories_sizes":[],"default_left":[0,0,0,0,0,0,0,0,0,0,0,0,0,0,0,0,0,0,0,0,0,0,0,0,0,0,0,0,0,0,0,0,0,0,0,0,0,0,0,0,0,0,0,0,0,0,0,0,0,0,0,0,0,0,0,0,0,0,0,0,0,0,0],"id":6,"left_children":[1,3,5,7,9,11,13,15,17,19,21,23,25,27,29,31,33,35,37,39,41,43,45,47,49,51,53,55,57,59,61,-1,-1,-1,-1,-1,-1,-1,-1,-1,-1,-1,-1,-1,-1,-1,-1,-1,-1,-1,-1,-1,-1,-1,-1,-1,-1,-1,-1,-1,-1,-1,-1],"loss_changes":[8.0784836E1,9.207802E1,3.5450367E1,3.674183E1,2.9197422E1,1.262793E1,3.1595718E1,3.056511E1,3.885056E1,8.053188E0,2.7688198E1,1.3075676E1,9.294468E0,3.0981194E1,1.1061043E1,1.1999825E1,7.244092E1,2.4299398E1,2.4679344E1,5.2567353E0,1.1617123E1,6.075049E1,2.8948723E1,8.067383E0,1.8784306E1,8.0768585E-2,1.1090652E1,2.4528172E1,1.8550657E1,1.2606918E1,1.1256994E1,0E0,0E0,0E0,0E0,0E0,0E0,0E0,0E0,0E0,0E0,0E0,0E0,0E0,0E0,0E0,0E0,0E0,0E0,0E0,0E0,0E0,0E0,0E0,0E0,0E0,0E0,0E0,0E0,0E0,0E0,0E0,0E0],"parents":[2147483647,0,0,1,1,2,2,3,3,4,4,5,5,6,6,7,7,8,8,9,9,10,10,11,11,12,12,13,13,14,14,15,15,16,16,17,17,18,18,19,19,20,20,21,21,22,22,23,23,24,24,25,25,26,26,27,27,28,28,29,29,30,30],"right_children":[2,4,6,8,10,12,14,16,18,20,22,24,26,28,30,32,34,36,38,40,42,44,46,48,50,52,54,56,58,60,62,-1,-1,-1,-1,-1,-1,-1,-1,-1,-1,-1,-1,-1,-1,-1,-1,-1,-1,-1,-1,-1,-1,-1,-1,-1,-1,-1,-1,-1,-1,-1,-1],"split_conditions":[1.1666667E1,6.32E2,5.02E2,2.5E0,3.57E2,3.5E0,-5.8143425E0,3.96E2,5.26E2,3.22E2,3.3333333E0,-6.9724596E-1,3.84E2,1.3055555E1,1.5555555E1,3.55E2,3.99E2,4.85E2,9.444445E0,2.5E0,3.4E2,5.7850885E0,5.48E2,3.73E2,4.69E2,6.928203E0,4.2E2,6.32E2,-1.5035082E1,5.79E2,5.15E2,1.9238257E-1,-5.0339885E-2,-5.3912914E-1,-1.2191117E-1,-4.048132E-2,4.2714387E-2,-4.3318117E-1,-1.0047837E-1,-4.874572E-2,3.691359E-1,2.8498542E-1,1.1254242E-1,2.501474E-3,-2.8759834E-1,5.6621395E-2,-3.382936E-1,2.4580169E-1,8.061077E-2,8.02641E-2,-1.05797574E-1,4.2101675E-1,1.1476536E-1,-2.4189236E-2,1.5809609E-1,-3.0358458E-1,3.7006423E-2,1.5849048E-1,-4.686999E-2,1.0570165E-2,1.8561499E-1,-1.5530572E-2,1.512439E-1],"split_indices":[2,1,0,2,0,3,3,0,0,0,2,3,0,2,2,0,0,0,2,2,0,3,0,0,0,3,0,1,3,0,0,0,0,0,0,0,0,0,0,0,0,0,0,0,0,0,0,0,0,0,0,0,0,0,0,0,0,0,0,0,0,0,0],"split_type":[0,0,0,0,0,0,0,0,0,0,0,0,0,0,0,0,0,0,0,0,0,0,0,0,0,0,0,0,0,0,0,0,0,0,0,0,0,0,0,0,0,0,0,0,0,0,0,0,0,0,0,0,0,0,0,0,0,0,0,0,0,0,0],"sum_hessian":[7.514E3,5.274E3,2.24E3,3.295E3,1.979E3,1.146E3,1.094E3,6.4E2,2.655E3,2.06E2,1.773E3,8.99E2,2.47E2,3.66E2,7.28E2,2.4E2,4E2,2.571E3,8.4E1,2.9E1,1.77E2,7.36E2,1.037E3,7.02E2,1.97E2,1.1E1,2.36E2,9.4E1,2.72E2,5.4E2,1.88E2,1.9E1,2.21E2,4.1E1,3.59E2,2.203E3,3.68E2,3.3E1,5.1E1,2.7E1,2E0,4.9E1,1.28E2,6.65E2,7.1E1,1.021E3,1.6E1,2.7E1,6.75E2,1.12E2,8.5E1,1E1,1E0,3.5E1,2.01E2,6.8E1,2.6E1,4.7E1,2.25E2,5.01E2,3.9E1,4.9E1,1.39E2],"tree_param":{"num_deleted":"0","num_feature":"4","num_nodes":"63","size_leaf_vector":"1"}},{"base_weights":[5.859361E-4,3.0399862E-1,-1.9240264E-2,4.697858E-1,2.2566621E-1,-1.3024805E-1,5.2550122E-2,4.9929652E-1,-5.758164E-1,3.7455395E-1,7.535018E-2,-7.933131E-3,-3.0973786E-1,-8.55572E-2,1.2045583E-1,-9.023204E-3,6.420619E-1,4.4514626E-1,-1.3479033E-1,7.0040387E-1,-1.0826218E-5,-4.3136973E-2,4.709716E-1,-1.6731889E0,-1.6003123E-1,-3.0867442E-1,2.6685104E-2,8.2482204E-2,3.3600718E-1,1.6881257E-1,-6.434572E-2,9.81059E-2,2.675716E-1,1.01970464E-1,2.2805092E-1,-2.865486E-1,1.1412669E-1,-2.4506962E-1,3.6903137E-1,2.7950628E-2,-3.717895E-1,1.6124914E-3,-1.3820295E-1,6.91033E-2,2.8194967E-1,-1.9535483E-1,-9.822723E-1,8.441198E-2,-9.408169E-2,1.2130726E-1,-1.2103854E-1,5.004828E-2,-8.111818E-2,-8.148399E-1,2.6454981E-2,1.266972E-1,-1.7681835E-2],"categories":[],"categories_nodes":[],"categories_segments":[],"categories_sizes":[],"default_left":[0,0,0,0,0,0,0,0,0,0,0,0,0,0,0,0,0,0,0,0,0,0,0,0,0,0,0,0,0,0,0,0,0,0,0,0,0,0,0,0,0,0,0,0,0,0,0,0,0,0,0,0,0,0,0,0,0],"id":7,"left_children":[1,3,5,7,9,11,13,15,-1,17,19,21,23,25,27,29,31,33,35,37,39,41,43,45,47,49,51,53,55,-1,-1,-1,-1,-1,-1,-1,-1,-1,-1,-1,-1,-1,-1,-1,-1,-1,-1,-1,-1,-1,-1,-1,-1,-1,-1,-1,-1],"loss_changes":[4.521249E1,5.880768E0,5.62302E1,1.1322754E1,7.0215435E0,6.0832855E1,4.0196217E1,1.0601074E1,0E0,5.7410164E0,7.4425464E0,2.7821278E1,2.2895636E2,3.5394268E1,2.3488548E1,3.9971845E0,8.681416E0,4.3501015E0,8.816682E0,1.4668049E1,1.6513098E1,3.1135414E1,1.2532249E1,1.7949551E2,6.875793E1,3.213151E1,3.9222134E1,3.9233738E1,1.4683823E1,0E0,0E0,0E0,0E0,0E0,0E0,0E0,0E0,0E0,0E0,0E0,0E0,0E0,0E0,0E0,0E0,0E0,0E0,0E0,0E0,0E0,0E0,0E0,0E0,0E0,0E0,0E0,0E0],"parents":[2147483647,0,0,1,1,2,2,3,3,4,4,5,5,6,6,7,7,9,9,10,10,11,11,12,12,13,13,14,14,15,15,16,16,17,17,18,18,19,19,20,20,21,21,22,22,23,23,24,24,25,25,26,26,27,27,28,28],"right_children":[2,4,6,8,10,12,14,16,-1,18,20,22,24,26,28,30,32,34,36,38,40,42,44,46,48,50,52,54,56,-1,-1,-1,-1,-1,-1,-1,-1,-1,-1,-1,-1,-1,-1,-1,-1,-1,-1,-1,-1,-1,-1,-1,-1,-1,-1,-1,-1],"split_conditions":[3.64E2,3.44E2,6.6666665E0,1.9908E4,-3.5912116E0,4.2862639E-16,-5.9166555E0,3.22E2,-5.758164E-1,7.5E0,-2.5E0,4.62E2,1.3073361E-1,1.0555555E1,1.264E3,2.843E3,-1.9411428E0,3.61E2,9.444445E0,1.896E3,9.794E3,4.41E2,6.32E2,4.34E2,2.6047227E0,3.97E2,5.18E2,3.71E2,1.0744E4,1.6881257E-1,-6.434572E-2,9.81059E-2,2.675716E-1,1.01970464E-1,2.2805092E-1,-2.865486E-1,1.1412669E-1,-2.4506962E-1,3.6903137E-1,2.7950628E-2,-3.717895E-1,1.6124914E-3,-1.3820295E-1,6.91033E-2,2.8194967E-1,-1.9535483E-1,-9.822723E-1,8.441198E-2,-9.408169E-2,1.2130726E-1,-1.2103854E-1,5.004828E-2,-8.111818E-2,-8.148399E-1,2.6454981E-2,1.266972E-1,-1.7681835E-2],"split_indices":[0,0,2,1,3,3,3,0,0,2,2,0,3,2,1,1,3,0,2,1,1,0,1,0,3,0,0,0,1,0,0,0,0,0,0,0,0,0,0,0,0,0,0,0,0,0,0,0,0,0,0,0,0,0,0,0,0],"split_type":[0,0,0,0,0,0,0,0,0,0,0,0,0,0,0,0,0,0,0,0,0,0,0,0,0,0,0,0,0,0,0,0,0,0,0,0,0,0,0,0,0,0,0,0,0,0,0,0,0,0,0,0,0,0,0,0,0],"sum_hessian":[7.514E3,4.6E2,7.054E3,1.46E2,3.14E2,2.77E3,4.284E3,1.45E2,1E0,1.57E2,1.57E2,1.648E3,1.122E3,1.412E3,2.872E3,3.2E1,1.13E2,1.38E2,1.9E1,1.6E1,1.41E2,1.536E3,1.12E2,1.1E2,1.012E3,4.72E2,9.4E2,2.443E3,4.29E2,8E0,2.4E1,5.1E1,6.2E1,1.05E2,3.3E1,7E0,1.2E1,4E0,1.2E1,1.32E2,9E0,1.377E3,1.59E2,7.5E1,3.7E1,6.8E1,4.2E1,2.61E2,7.51E2,5.5E1,4.17E2,6.39E2,3.01E2,4E0,2.439E3,3.52E2,7.7E1],"tree_param":{"num_deleted":"0","num_feature":"4","num_nodes":"57","size_leaf_vector":"1"}},{"base_weights":[1.639415E-4,-2.4060637E-2,1.7362857E-1,-2.1730042E-1,1.0964924E-2,4.865071E-1,1.3102973E-1,1.7722534E-1,-2.8348663E-1,1.8722673E-1,-1.7650096E-2,-1.2193621E0,5.9664726E-1,2.8347722E-1,4.020105E-2,2.8973648E-1,-1.2817259E-1,-2.5780657E-1,-1.3581474E0,1.6330005E-1,1.8450736E0,-7.6465053E-3,-5.937393E-1,-2.9668791E0,7.3020555E-2,6.931116E-1,-2.5172672E-1,2.2170134E-1,8.8228667E-1,-1.0912799E-1,2.7998903E-1,1.6308765E-1,6.239999E-3,-1.9046117E-1,1.081501E-1,-4.345196E-2,-1.4817926E-1,-6.4989054E-1,2.6657888E-1,1.9904379E-2,1.2645693E-1,6.188281E-1,-4.976921E-2,-2.025431E-2,2.2455798E-2,-7.9220074E-1,-7.182504E-2,3.0209828E-2,-1.3653055E0,2.6021788E-1,-2.237076E-1,2.4765931E-1,-1.1140037E-2,9.40089E-2,-4.8279878E-2,4.8351702E-1,1.3558096E-1,-4.6972573E-2,1.7956424E-1,2.0538777E-1,3.638753E-2],"categories":[],"categories_nodes":[],"categories_segments":[],"categories_sizes":[],"default_left":[0,0,0,0,0,0,0,0,0,0,0,0,0,0,0,0,0,0,0,0,0,0,0,0,0,0,0,0,0,0,0,0,0,0,0,0,0,0,0,0,0,0,0,0,0,0,0,0,0,0,0,0,0,0,0,0,0,0,0,0,0],"id":8,"left_children":[1,3,5,7,9,11,13,15,17,19,21,23,25,27,29,31,33,35,37,39,41,43,45,47,49,51,-1,53,55,57,59,-1,-1,-1,-1,-1,-1,-1,-1,-1,-1,-1,-1,-1,-1,-1,-1,-1,-1,-1,-1,-1,-1,-1,-1,-1,-1,-1,-1,-1,-1],"loss_changes":[3.1583015E1,4.4639526E1,1.2211586E1,2.6475758E1,2.8167519E1,2.139485E1,1.1232043E1,5.053794E0,2.3576782E1,3.0638783E1,2.7686487E1,1.6025871E1,1.498531E1,1.1012966E1,1.8292286E1,7.294655E0,1.0133254E1,2.2548168E1,3.8239273E1,1.924919E1,5.1575813E0,2.333712E1,5.884019E1,1.50366955E1,3.8986206E0,9.507114E0,0E0,9.730546E0,8.0611725E0,1.0670549E1,1.2503054E1,0E0,0E0,0E0,0E0,0E0,0E0,0E0,0E0,0E0,0E0,0E0,0E0,0E0,0E0,0E0,0E0,0E0,0E0,0E0,0E0,0E0,0E0,0E0,0E0,0E0,0E0,0E0,0E0,0E0,0E0],"parents":[2147483647,0,0,1,1,2,2,3,3,4,4,5,5,6,6,7,7,8,8,9,9,10,10,11,11,12,12,13,13,14,14,15,15,16,16,17,17,18,18,19,19,20,20,21,21,22,22,23,23,24,24,25,25,27,27,28,28,29,29,30,30],"right_children":[2,4,6,8,10,12,14,16,18,20,22,24,26,28,30,32,34,36,38,40,42,44,46,48,50,52,-1,54,56,58,60,-1,-1,-1,-1,-1,-1,-1,-1,-1,-1,-1,-1,-1,-1,-1,-1,-1,-1,-1,-1,-1,-1,-1,-1,-1,-1,-1,-1,-1,-1],"split_conditions":[5.687E3,2.5E0,6.32E3,3.64E2,4E2,-5.555556E-1,3.93E2,3.476E3,5.055E3,8.892524E0,9.1925335E0,3.67E2,5.19E2,3.89E2,4.58E2,3.52E2,4.423E3,9.18485E-16,1.2155372E0,9.48E2,2.212E3,1.1666667E1,4.05E2,3.44E2,4.12E2,3.125667E0,-2.5172672E-1,3.8E2,2.5E0,2.054E4,4.81E2,1.6308765E-1,6.239999E-3,-1.9046117E-1,1.081501E-1,-4.345196E-2,-1.4817926E-1,-6.4989054E-1,2.6657888E-1,1.9904379E-2,1.2645693E-1,6.188281E-1,-4.976921E-2,-2.025431E-2,2.2455798E-2,-7.9220074E-1,-7.182504E-2,3.0209828E-2,-1.3653055E0,2.6021788E-1,-2.237076E-1,2.4765931E-1,-1.1140037E-2,9.40089E-2,-4.8279878E-2,4.8351702E-1,1.3558096E-1,-4.6972573E-2,1.7956424E-1,2.0538777E-1,3.638753E-2],"split_indices":[1,2,1,0,0,2,0,1,1,3,3,0,0,0,0,0,1,3,3,1,1,2,0,0,0,3,0,0,2,1,0,0,0,0,0,0,0,0,0,0,0,0,0,0,0,0,0,0,0,0,0,0,0,0,0,0,0,0,0,0,0],"split_type":[0,0,0,0,0,0,0,0,0,0,0,0,0,0,0,0,0,0,0,0,0,0,0,0,0,0,0,0,0,0,0,0,0,0,0,0,0,0,0,0,0,0,0,0,0,0,0,0,0,0,0,0,0,0,0,0,0,0,0,0,0],"sum_hessian":[7.514E3,6.594E3,9.2E2,1.011E3,5.583E3,1.09E2,8.11E2,1.45E2,8.66E2,7.79E2,4.804E3,6E0,1.03E2,3.02E2,5.09E2,1.06E2,3.9E1,8.47E2,1.9E1,7.69E2,1E1,4.723E3,8.1E1,2E0,4E0,9.7E1,6E0,2.75E2,2.7E1,3.14E2,1.95E2,5.4E1,5.2E1,1.9E1,2E1,5.74E2,2.73E2,1.4E1,5E0,5.6E2,2.09E2,9E0,1E0,2.737E3,1.986E3,1.1E1,7E1,1E0,1E0,2E0,2E0,8.2E1,1.5E1,2.22E2,5.3E1,9E0,1.8E1,2.95E2,1.9E1,5.4E1,1.41E2],"tree_param":{"num_deleted":"0","num_feature":"4","num_nodes":"61","size_leaf_vector":"1"}},{"base_weights":[-6.219124E-6,-1.5257532E-2,1.5208389E-1,2.4171919E-3,-2.147383E-1,-7.1457215E-2,1.9920906E-1,-1.7246077E-2,1.2710938E-1,-1.040054E0,-1.3648704E-1,5.642931E-1,-3.1909E-1,4.191607E-1,1.3908942E-1,-1.5259264E-1,1.3809913E-2,2.7240548E-1,3.794114E-2,-1.6167988E0,-3.4286195E-1,-6.6143364E-1,-5.1275887E-2,-7.389374E-2,7.9699606E-1,2.7914953E-1,-7.8872776E-1,3.050218E-1,1.2697208E0,-4.3323338E-1,1.7993018E-1,-4.9714517E-2,3.9847225E-1,-2.6033124E-2,1.49308145E-2,-9.375649E-2,1.0120648E-1,1.6872695E-1,-7.441301E-4,-6.4744246E-1,-2.047229E-1,8.378519E-2,-4.0250286E-1,1.8551986E-1,-2.5013041E-1,-2.894568E-3,-1.6893774E-1,5.7741883E-3,-8.929157E-2,5.0422885E-2,3.0967155E-1,1.5475772E-1,2.1836836E-2,-2.7814388E-1,1.0968018E-2,1.15136944E-1,-2.182656E-1,5.28371E-1,9.823609E-3,-7.819228E-2,-2.6258478E-1,4.851304E-2,2.9638147E-1],"categories":[],"categories_nodes":[],"categories_segments":[],"categories_sizes":[],"default_left":[0,0,0,0,0,0,0,0,0,0,0,0,0,0,0,0,0,0,0,0,0,0,0,0,0,0,0,0,0,0,0,0,0,0,0,0,0,0,0,0,0,0,0,0,0,0,0,0,0,0,0,0,0,0,0,0,0,0,0,0,0,0,0],"id":9,"left_children":[1,3,5,7,9,11,13,15,17,19,21,23,25,27,29,31,33,35,37,39,41,43,45,47,49,51,53,55,57,59,61,-1,-1,-1,-1,-1,-1,-1,-1,-1,-1,-1,-1,-1,-1,-1,-1,-1,-1,-1,-1,-1,-1,-1,-1,-1,-1,-1,-1,-1,-1,-1,-1],"loss_changes":[1.7433916E1,2.4085037E1,7.2303076E0,1.539004E1,3.5765633E1,1.9071974E1,7.4261513E0,2.2792517E1,1.1066872E1,1.8746548E1,2.2734318E1,5.108165E0,2.4663334E1,1.1359631E1,1.0502797E1,1.9885408E1,1.59591465E1,1.2452406E1,1.1258801E1,1.1678703E1,1.4667094E1,1.6175304E1,9.348314E0,2.1412699E-1,3.52522E0,1.8674996E0,5.6314106E0,9.063273E0,8.454226E0,2.0606956E0,5.979295E0,0E0,0E0,0E0,0E0,0E0,0E0,0E0,0E0,0E0,0E0,0E0,0E0,0E0,0E0,0E0,0E0,0E0,0E0,0E0,0E0,0E0,0E0,0E0,0E0,0E0,0E0,0E0,0E0,0E0,0E0,0E0,0E0],"parents":[2147483647,0,0,1,1,2,2,3,3,4,4,5,5,6,6,7,7,8,8,9,9,10,10,11,11,12,12,13,13,14,14,15,15,16,16,17,17,18,18,19,19,20,20,21,21,22,22,23,23,24,24,25,25,26,26,27,27,28,28,29,29,30,30],"right_children":[2,4,6,8,10,12,14,16,18,20,22,24,26,28,30,32,34,36,38,40,42,44,46,48,50,52,54,56,58,60,62,-1,-1,-1,-1,-1,-1,-1,-1,-1,-1,-1,-1,-1,-1,-1,-1,-1,-1,-1,-1,-1,-1,-1,-1,-1,-1,-1,-1,-1,-1,-1,-1],"split_conditions":[1.5555555E1,5.26E2,4.3E2,5.687E3,-1.0239401E1,-1.0239401E1,4.71E2,2.5E0,7.9E3,1.3611111E1,1.0555555E1,-1.3787309E1,4.01E2,6.4752655E0,4.8E2,1.1E1,-6.1283555E0,0E0,-5.555556E-1,-1.2256711E1,-1.2256711E1,6.6666665E0,5.7850885E0,4.09E2,3.81E2,3.8E2,4.28E2,1.896E3,4.54E2,-3.4729636E-1,7.584E3,-4.9714517E-2,3.9847225E-1,-2.6033124E-2,1.49308145E-2,-9.375649E-2,1.0120648E-1,1.6872695E-1,-7.441301E-4,-6.4744246E-1,-2.047229E-1,8.378519E-2,-4.0250286E-1,1.8551986E-1,-2.5013041E-1,-2.894568E-3,-1.6893774E-1,5.7741883E-3,-8.929157E-2,5.0422885E-2,3.0967155E-1,1.5475772E-1,2.1836836E-2,-2.7814388E-1,1.0968018E-2,1.15136944E-1,-2.182656E-1,5.28371E-1,9.823609E-3,-7.819228E-2,-2.6258478E-1,4.851304E-2,2.9638147E-1],"split_indices":[2,0,0,1,3,3,0,2,1,2,2,3,0,3,0,3,3,2,2,3,3,2,3,0,0,0,0,1,0,3,1,0,0,0,0,0,0,0,0,0,0,0,0,0,0,0,0,0,0,0,0,0,0,0,0,0,0,0,0,0,0,0,0],"split_type":[0,0,0,0,0,0,0,0,0,0,0,0,0,0,0,0,0,0,0,0,0,0,0,0,0,0,0,0,0,0,0,0,0,0,0,0,0,0,0,0,0,0,0,0,0,0,0,0,0,0,0,0,0,0,0,0,0,0,0,0,0,0,0],"sum_hessian":[7.514E3,6.83E3,6.84E2,6.275E3,5.55E2,1.19E2,5.65E2,5.421E3,8.54E2,4.7E1,5.08E2,3.3E1,8.6E1,1.2E2,4.45E2,1.011E3,4.41E3,3.24E2,5.3E2,2.5E1,2.2E1,7E1,4.38E2,9E0,2.4E1,3.8E1,4.8E1,1.07E2,1.3E1,2.9E1,4.16E2,1.003E3,8E0,1.161E3,3.249E3,3.2E1,2.92E2,3.7E1,4.93E2,1.5E1,1E1,1.4E1,8E0,8E0,6.2E1,4.06E2,3.2E1,7E0,2E0,7E0,1.7E1,1.7E1,2.1E1,4.1E1,7E0,1E2,7E0,9E0,4E0,2.2E1,7E0,4.08E2,8E0],"tree_param":{"num_deleted":"0","num_feature":"4","num_nodes":"63","size_leaf_vector":"1"}},{"base_weights":[-3.9994044E-5,6.891148E-2,-3.1580906E-2,5.202489E-2,6.9369334E-1,-1.79616E-1,2.1807527E-2,-1.6571261E-1,9.096764E-2,5.208589E-1,1.5403464E0,-4.5692315E-3,-4.0205157E-1,-3.4679446E-1,4.8152395E-2,-2.462946E-1,8.4483635E-1,-3.322809E-2,1.4305641E-1,-1.4744009E-1,7.417421E-1,6.4291364E-1,5.0903815E-1,-2.709882E-1,2.950725E-1,-2.5109181E0,-2.1480154E-1,4.029192E-1,-5.7687706E-1,-3.3150177E-2,1.04469605E-1,1.06668785E-1,-1.2589943E-1,-1.7793995E-1,3.399738E-1,-1.3405118E-3,-6.2346125E-1,1.22721635E-1,2.693246E-2,-2.574894E-1,2.8302604E-1,4.7919682E-1,6.58828E-2,3.444363E-1,1.867118E-2,1.4704945E-2,-2.2747688E-1,1.4049077E-1,-2.9791266E-2,6.459037E-1,-7.958814E-1,1.2332945E-1,-1.08625695E-1,2.3463957E-1,-8.629077E-2,-6.773142E-1,-1.3008073E-1,-1.1006881E-1,1.307741E-2,8.27752E-2,6.7102266E-3],"categories":[],"categories_nodes":[],"categories_segments":[],"categories_sizes":[],"default_left":[0,0,0,0,0,0,0,0,0,0,0,0,0,0,0,0,0,0,0,0,0,0,0,0,0,0,0,0,0,0,0,0,0,0,0,0,0,0,0,0,0,0,0,0,0,0,0,0,0,0,0,0,0,0,0,0,0,0,0,0,0],"id":10,"left_children":[1,3,5,7,9,11,13,15,17,19,21,23,25,27,29,31,33,35,37,39,41,-1,43,45,47,49,51,53,55,57,59,-1,-1,-1,-1,-1,-1,-1,-1,-1,-1,-1,-1,-1,-1,-1,-1,-1,-1,-1,-1,-1,-1,-1,-1,-1,-1,-1,-1,-1,-1],"loss_changes":[1.6345741E1,2.4852386E1,4.0761555E1,1.95005E1,8.270206E0,5.3224533E1,3.683023E1,2.8627857E1,1.2619701E1,7.933009E0,5.124794E0,6.122992E1,2.3718161E2,4.387393E1,1.6207603E1,3.3956696E1,1.1454998E1,3.3925774E1,1.9437977E1,1.1665987E1,1.751828E1,0E0,1.3562577E0,6.3343964E1,2.4709269E1,3.816794E1,5.1219383E1,1.5937002E1,4.5740387E1,3.7128036E1,2.942723E1,0E0,0E0,0E0,0E0,0E0,0E0,0E0,0E0,0E0,0E0,0E0,0E0,0E0,0E0,0E0,0E0,0E0,0E0,0E0,0E0,0E0,0E0,0E0,0E0,0E0,0E0,0E0,0E0,0E0,0E0],"parents":[2147483647,0,0,1,1,2,2,3,3,4,4,5,5,6,6,7,7,8,8,9,9,10,10,11,11,12,12,13,13,14,14,15,15,16,16,17,17,18,18,19,19,20,20,22,22,23,23,24,24,25,25,26,26,27,27,28,28,29,29,30,30],"right_children":[2,4,6,8,10,12,14,16,18,20,22,24,26,28,30,32,34,36,38,40,42,-1,44,46,48,50,52,54,56,58,60,-1,-1,-1,-1,-1,-1,-1,-1,-1,-1,-1,-1,-1,-1,-1,-1,-1,-1,-1,-1,-1,-1,-1,-1,-1,-1,-1,-1,-1,-1],"split_conditions":[4.13E2,4.12E2,6.6666665E0,8.333333E-1,4.739E3,7.9602044E-16,4.24E2,1.0742E4,-6.5E0,-7.25E0,6.952E3,-2.394141E0,1.3073361E-1,-1.05E1,-4.015035E0,3.61E2,3.59E2,-6.840403E0,1.6666666E0,6.6666665E0,-3.169637E0,6.4291364E-1,-6.8944E0,-3.728247E0,1.264E3,-2.5E0,2.0837781E0,1.264E3,-9.464011E0,9.444445E0,1.0555555E1,1.06668785E-1,-1.2589943E-1,-1.7793995E-1,3.399738E-1,-1.3405118E-3,-6.2346125E-1,1.22721635E-1,2.693246E-2,-2.574894E-1,2.8302604E-1,4.7919682E-1,6.58828E-2,3.444363E-1,1.867118E-2,1.4704945E-2,-2.2747688E-1,1.4049077E-1,-2.9791266E-2,6.459037E-1,-7.958814E-1,1.2332945E-1,-1.08625695E-1,2.3463957E-1,-8.629077E-2,-6.773142E-1,-1.3008073E-1,-1.1006881E-1,1.307741E-2,8.27752E-2,6.7102266E-3],"split_indices":[0,0,2,2,1,3,0,1,3,3,1,3,3,3,3,0,0,3,2,2,3,0,3,3,1,2,3,1,3,2,2,0,0,0,0,0,0,0,0,0,0,0,0,0,0,0,0,0,0,0,0,0,0,0,0,0,0,0,0,0,0],"split_type":[0,0,0,0,0,0,0,0,0,0,0,0,0,0,0,0,0,0,0,0,0,0,0,0,0,0,0,0,0,0,0,0,0,0,0,0,0,0,0,0,0,0,0,0,0,0,0,0,0,0,0,0,0,0,0,0,0,0,0,0,0],"sum_hessian":[7.514E3,2.358E3,5.156E3,2.297E3,6.1E1,1.366E3,3.79E3,3.48E2,1.949E3,5.2E1,9E0,7.65E2,6.01E2,2.52E2,3.538E3,3.23E2,2.5E1,5.76E2,1.373E3,1.3E1,3.9E1,5E0,4E0,4.05E2,3.6E2,4.8E1,5.53E2,5.9E1,1.93E2,1.448E3,2.09E3,7.2E1,2.51E2,4E0,2.1E1,5.69E2,7E0,2.28E2,1.145E3,8E0,5E0,1.4E1,2.5E1,1E0,3E0,2.45E2,1.6E2,2.5E2,1.1E2,1E0,4.7E1,1.05E2,4.48E2,3.8E1,2.1E1,1.4E1,1.79E2,2.7E2,1.178E3,6.76E2,1.414E3],"tree_param":{"num_deleted":"0","num_feature":"4","num_nodes":"61","size_leaf_vector":"1"}},{"base_weights":[1.7571085E-5,-2.7299356E-2,5.528874E-2,-2.4013428E-2,-8.099276E-1,-1.5532851E-1,7.703609E-2,-5.8209103E-2,4.1720074E-2,-5.938311E-1,6.20349E-2,-1.8650992E-1,6.414655E-1,1.7677948E-1,1.3263213E-2,-1.4926245E-2,-1.8040812E-1,1.7167406E-1,-1.3116958E-2,2.2484756E-1,-1.653878E-1,-1.3225216E-1,-1.1385645E0,3.8798523E-1,3.0572933E-1,-5.20816E-1,1.9865322E-1,-7.383147E-2,1.1065486E-1,-1.8904561E-2,1.1947295E-1,5.933026E-2,-7.772234E-2,2.2966139E-2,2.088879E-1,1.9464822E-3,-1.3203467E-1,-1.8345071E-2,9.9111564E-2,-6.1650243E-2,5.276585E-3,-7.3804E-2,6.281213E-2,-1.0172721E-1,-4.983527E-1,1.3425636E-1,4.7829058E-2,-2.7811974E-1,4.356289E-1,2.6184964E-1,5.2667763E-2,6.6352E-3,-1.5950027E-1,9.584012E-2,1.3387153E-2],"categories":[],"categories_nodes":[],"categories_segments":[],"categories_sizes":[],"default_left":[0,0,0,0,0,0,0,0,0,0,0,0,0,0,0,0,0,0,0,0,0,0,0,0,0,0,0,0,0,0,0,0,0,0,0,0,0,0,0,0,0,0,0,0,0,0,0,0,0,0,0,0,0,0,0],"id":11,"left_children":[1,3,5,7,9,11,13,15,17,-1,19,21,23,25,27,29,31,33,35,37,39,41,43,45,-1,47,49,51,53,-1,-1,-1,-1,-1,-1,-1,-1,-1,-1,-1,-1,-1,-1,-1,-1,-1,-1,-1,-1,-1,-1,-1,-1,-1,-1],"loss_changes":[1.1347945E1,1.2915996E1,1.139876E1,1.1263914E1,2.1537928E1,5.908562E0,1.43351755E1,1.7430256E1,1.2223841E1,0E0,5.185418E-1,1.1472103E1,4.6610618E-1,1.351614E1,1.1679807E1,4.8405827E1,2.569547E1,2.534676E1,1.0107143E1,2.6164007E-1,4.7652885E-2,8.368353E0,4.4504786E0,2.3902297E-2,0E0,2.2986559E1,1.3127552E1,3.194801E1,8.947996E0,0E0,0E0,0E0,0E0,0E0,0E0,0E0,0E0,0E0,0E0,0E0,0E0,0E0,0E0,0E0,0E0,0E0,0E0,0E0,0E0,0E0,0E0,0E0,0E0,0E0,0E0],"parents":[2147483647,0,0,1,1,2,2,3,3,4,4,5,5,6,6,7,7,8,8,10,10,11,11,12,12,13,13,14,14,15,15,16,16,17,17,18,18,19,19,20,20,21,21,22,22,23,23,25,25,26,26,27,27,28,28],"right_children":[2,4,6,8,10,12,14,16,18,-1,20,22,24,26,28,30,32,34,36,38,40,42,44,46,-1,48,50,52,54,-1,-1,-1,-1,-1,-1,-1,-1,-1,-1,-1,-1,-1,-1,-1,-1,-1,-1,-1,-1,-1,-1,-1,-1,-1,-1],"split_conditions":[6.32E2,6.18E2,-1.1490666E1,1.1666667E1,-7.011413E0,1.8956E4,-3.169637E0,2.0837781E0,4.65E2,-5.938311E-1,1.75E1,1.3272E4,-1.5426903E1,-5.555556E-1,4.4444447E0,1.3073361E-1,3.96E2,5.142301E0,7.3723683E0,1.4444445E1,1.9444445E1,7.267E3,7.5E0,-1.6469955E1,3.0572933E-1,4.09E2,5.555556E-1,4.35E2,4.28E2,-1.8904561E-2,1.1947295E-1,5.933026E-2,-7.772234E-2,2.2966139E-2,2.088879E-1,1.9464822E-3,-1.3203467E-1,-1.8345071E-2,9.9111564E-2,-6.1650243E-2,5.276585E-3,-7.3804E-2,6.281213E-2,-1.0172721E-1,-4.983527E-1,1.3425636E-1,4.7829058E-2,-2.7811974E-1,4.356289E-1,2.6184964E-1,5.2667763E-2,6.6352E-3,-1.5950027E-1,9.584012E-2,1.3387153E-2],"split_indices":[1,0,3,2,3,1,3,3,0,0,2,1,3,2,2,3,0,3,3,2,2,1,2,3,0,0,2,0,0,0,0,0,0,0,0,0,0,0,0,0,0,0,0,0,0,0,0,0,0,0,0,0,0,0,0],"split_type":[0,0,0,0,0,0,0,0,0,0,0,0,0,0,0,0,0,0,0,0,0,0,0,0,0,0,0,0,0,0,0,0,0,0,0,0,0,0,0,0,0,0,0,0,0,0,0,0,0,0,0,0,0,0,0],"sum_hessian":[7.514E3,5.029E3,2.485E3,5.009E3,2E1,2.32E2,2.253E3,3.295E3,1.714E3,8E0,1.2E1,2.24E2,8E0,8.78E2,1.375E3,2.434E3,8.61E2,5.08E2,1.206E3,7E0,5E0,2.13E2,1.1E1,6E0,2E0,2.6E1,8.52E2,7.26E2,6.49E2,2.181E3,2.53E2,1.48E2,7.13E2,4.31E2,7.7E1,1.154E3,5.2E1,2E0,5E0,4E0,1E0,1.6E2,5.3E1,5E0,6E0,4E0,2E0,2.2E1,4E0,2.7E1,8.25E2,6.01E2,1.25E2,1.55E2,4.94E2],"tree_param":{"num_deleted":"0","num_feature":"4","num_nodes":"55","size_leaf_vector":"1"}},{"base_weights":[1.2030382E-6,-7.80846E-3,1.24095865E-1,-7.805477E-4,-2.5049707E-1,2.3058252E-1,3.217775E-2,-2.948778E-3,4.628386E-1,-1.40506E0,-1.5552981E-1,1.5535475E-1,6.5024394E-1,-2.2330792E-1,1.5892729E-1,-1.7271684E-4,-4.6343216E-1,1.2151963E0,1.0879971E-2,4.802373E-1,-1.734106E0,-2.8995776E-1,5.468784E-2,3.2634765E-1,-9.6167564E-2,7.6208305E-1,-1.9428463E-1,-3.138622E-1,3.7324733E-1,-9.551388E-1,1.9339482E-1,-2.0693853E-2,4.7413646E-3,-5.461147E-1,9.904696E-3,-9.1767505E-2,4.6500093E-1,-4.5204479E-1,1.0426239E-1,-5.654545E-1,-2.658115E-1,1.9144965E-2,-1.3485624E-1,-1.6056797E-1,7.299798E-2,-4.0001392E-2,1.2499973E-1,1.00212656E-1,-8.764221E-2,3.1024992E-1,1.42914E-1,-1.5349961E-2,-2.9041293E-1,1.4417017E-1,1.9588709E-2,-3.211929E-1,-7.396832E-2,1.0196545E-1,-7.4352445E-3],"categories":[],"categories_nodes":[],"categories_segments":[],"categories_sizes":[],"default_left":[0,0,0,0,0,0,0,0,0,0,0,0,0,0,0,0,0,0,0,0,0,0,0,0,0,0,0,0,0,0,0,0,0,0,0,0,0,0,0,0,0,0,0,0,0,0,0,0,0,0,0,0,0,0,0,0,0,0,0],"id":12,"left_children":[1,3,5,7,9,11,13,15,17,19,21,23,25,27,29,31,33,35,37,-1,39,41,43,45,47,49,-1,51,53,55,57,-1,-1,-1,-1,-1,-1,-1,-1,-1,-1,-1,-1,-1,-1,-1,-1,-1,-1,-1,-1,-1,-1,-1,-1,-1,-1,-1,-1],"loss_changes":[7.284037E0,1.20600605E1,4.348264E0,6.9103312E0,2.160096E1,6.40244E0,7.807336E0,8.746254E0,1.0867884E1,1.7611885E1,5.2437954E0,7.6008854E0,4.9932327E0,4.438799E0,6.3669753E0,7.47883E0,2.7679953E1,6.5853786E0,1.1253619E1,0E0,1.197052E-1,6.4074583E0,8.253726E0,4.41494E0,6.1678743E0,1.7616596E0,0E0,1.198E1,3.321637E-1,1.4523983E-1,5.026306E0,0E0,0E0,0E0,0E0,0E0,0E0,0E0,0E0,0E0,0E0,0E0,0E0,0E0,0E0,0E0,0E0,0E0,0E0,0E0,0E0,0E0,0E0,0E0,0E0,0E0,0E0,0E0,0E0],"parents":[2147483647,0,0,1,1,2,2,3,3,4,4,5,5,6,6,7,7,8,8,9,9,10,10,11,11,12,12,13,13,14,14,15,15,16,16,17,17,18,18,20,20,21,21,22,22,23,23,24,24,25,25,27,27,28,28,29,29,30,30],"right_children":[2,4,6,8,10,12,14,16,18,20,22,24,26,28,30,32,34,36,38,-1,40,42,44,46,48,50,-1,52,54,56,58,-1,-1,-1,-1,-1,-1,-1,-1,-1,-1,-1,-1,-1,-1,-1,-1,-1,-1,-1,-1,-1,-1,-1,-1,-1,-1,-1,-1],"split_conditions":[1.6666666E1,5.58E2,-5E0,1.1E1,-1.1570177E1,5.71E2,4.52E2,1.0284602E1,4.02E2,5.67E2,5.79E2,5.17E2,1.896E3,6.0621777E0,-4.648801E0,2.5E0,4.05E2,3.67E2,4.06E2,4.802373E-1,1.5555555E1,1.2777778E1,-6.5E0,-1.4141328E1,-1.3155697E1,5.99E2,-1.9428463E-1,-1.1021821E-15,7.7134514E0,5.67E2,5E0,-2.0693853E-2,4.7413646E-3,-5.461147E-1,9.904696E-3,-9.1767505E-2,4.6500093E-1,-4.5204479E-1,1.0426239E-1,-5.654545E-1,-2.658115E-1,1.9144965E-2,-1.3485624E-1,-1.6056797E-1,7.299798E-2,-4.0001392E-2,1.2499973E-1,1.00212656E-1,-8.764221E-2,3.1024992E-1,1.42914E-1,-1.5349961E-2,-2.9041293E-1,1.4417017E-1,1.9588709E-2,-3.211929E-1,-7.396832E-2,1.0196545E-1,-7.4352445E-3],"split_indices":[2,0,3,3,3,0,0,3,0,0,0,0,1,3,3,2,0,0,0,0,2,2,3,3,3,0,0,3,3,0,3,0,0,0,0,0,0,0,0,0,0,0,0,0,0,0,0,0,0,0,0,0,0,0,0,0,0,0,0],"split_type":[0,0,0,0,0,0,0,0,0,0,0,0,0,0,0,0,0,0,0,0,0,0,0,0,0,0,0,0,0,0,0,0,0,0,0,0,0,0,0,0,0,0,0,0,0,0,0,0,0,0,0,0,0,0,0,0,0,0,0],"sum_hessian":[7.514E3,7.07E3,4.44E2,6.872E3,1.98E2,2.05E2,2.39E2,6.841E3,3.1E1,1.4E1,1.84E2,1.75E2,3E1,7.9E1,1.6E2,6.801E3,4E1,1.1E1,2E1,1E0,1.3E1,1.12E2,7.2E1,1.04E2,7.1E1,2.8E1,2E0,6.9E1,1E1,4E0,1.56E2,1.281E3,5.52E3,1E1,3E1,2E0,9E0,3E0,1.7E1,1E1,3E0,3.5E1,7.7E1,1.7E1,5.5E1,1.7E1,8.7E1,2.2E1,4.9E1,1.3E1,1.5E1,5E1,1.9E1,7E0,3E0,3E0,1E0,9.3E1,6.3E1],"tree_param":{"num_deleted":"0","num_feature":"4","num_nodes":"59","size_leaf_vector":"1"}},{"base_weights":[-1.5453064E-4,-2.4412689E-3,3.9726287E-1,2.2019295E-1,-6.8766065E-3,6.353328E-1,-1.1767238E0,1.4963876E-2,3.714934E-1,7.4045277E-1,-8.101299E-3,1.0596267E0,3.723149E-1,-5.4944307E-1,-3.9147806E-1,-3.6439604E-1,1.5186079E-1,3.2588404E-1,1.2022095E0,-2.7578798E-1,9.7127974E-1,-4.4554672E-1,-6.0582943E-3,4.7502023E-1,7.7283376E-1,-2.8096524E-1,5.268489E-1,-1.4858857E-1,-1.2003995E-2,9.43346E-3,-1.5958506E-1,-3.1282675E-2,1.710954E-1,1.1603874E-1,-4.1602594E-1,4.5353624E-1,4.1021347E-2,2.2842179E-1,-3.525264E-1,4.3346617E-1,6.260846E-2,-4.800337E-2,-7.64118E-1,1.6660592E-1,-2.8874786E-3,2.6635325E-1,-5.6590464E-2,-2.5772992E-1,2.0992607E-1],"categories":[],"categories_nodes":[],"categories_segments":[],"categories_sizes":[],"default_left":[0,0,0,0,0,0,0,0,0,0,0,0,0,0,0,0,0,0,0,0,0,0,0,0,0,0,0,0,0,0,0,0,0,0,0,0,0,0,0,0,0,0,0,0,0,0,0,0,0],"id":13,"left_children":[1,3,5,7,9,11,13,15,17,19,21,23,25,-1,27,29,31,33,35,37,39,41,43,-1,45,-1,47,-1,-1,-1,-1,-1,-1,-1,-1,-1,-1,-1,-1,-1,-1,-1,-1,-1,-1,-1,-1,-1,-1],"loss_changes":[6.8305235E0,7.3807874E0,1.6860525E1,4.527923E0,6.712941E0,3.8461685E0,2.3678684E0,3.3271294E0,2.7908478E0,3.0827775E0,6.5365252E0,8.793001E-1,5.550027E0,0E0,1.2613392E-1,1.144248E0,5.097029E0,8.986286E0,1.112668E0,3.692964E0,3.3101168E0,1.9994366E1,1.4590452E1,0E0,1.3838453E0,0E0,6.112808E0,0E0,0E0,0E0,0E0,0E0,0E0,0E0,0E0,0E0,0E0,0E0,0E0,0E0,0E0,0E0,0E0,0E0,0E0,0E0,0E0,0E0,0E0],"parents":[2147483647,0,0,1,1,2,2,3,3,4,4,5,5,6,6,7,7,8,8,9,9,10,10,11,11,12,12,14,14,15,15,16,16,17,17,18,18,19,19,20,20,21,21,22,22,24,24,26,26],"right_children":[2,4,6,8,10,12,14,16,18,20,22,24,26,-1,28,30,32,34,36,38,40,42,44,-1,46,-1,48,-1,-1,-1,-1,-1,-1,-1,-1,-1,-1,-1,-1,-1,-1,-1,-1,-1,-1,-1,-1,-1,-1],"split_conditions":[2.054E4,3.44E2,5.196152E0,3.31E2,-5E0,4.14E2,3.94E2,-1.1287131E0,1.0742E4,3.96E2,-3.0555556E0,2.1488E4,4.25E2,-5.4944307E-1,1.5555555E1,-5.75E0,4.423E3,1.0427E4,5.5555553E0,3.87E2,4.38E2,-3.3333333E0,-2.5E0,4.7502023E-1,3.4202015E0,-2.8096524E-1,-1.1111112E0,-1.4858857E-1,-1.2003995E-2,9.43346E-3,-1.5958506E-1,-3.1282675E-2,1.710954E-1,1.1603874E-1,-4.1602594E-1,4.5353624E-1,4.1021347E-2,2.2842179E-1,-3.525264E-1,4.3346617E-1,6.260846E-2,-4.800337E-2,-7.64118E-1,1.6660592E-1,-2.8874786E-3,2.6635325E-1,-5.6590464E-2,-2.5772992E-1,2.0992607E-1],"split_indices":[1,0,3,0,2,0,0,3,1,0,2,1,0,0,2,3,1,1,2,0,0,2,2,0,3,0,2,0,0,0,0,0,0,0,0,0,0,0,0,0,0,0,0,0,0,0,0,0,0],"split_type":[0,0,0,0,0,0,0,0,0,0,0,0,0,0,0,0,0,0,0,0,0,0,0,0,0,0,0,0,0,0,0,0,0,0,0,0,0,0,0,0,0,0,0,0,0,0,0,0,0],"sum_hessian":[7.514E3,7.472E3,4.2E1,1.45E2,7.327E3,3.7E1,5E0,6.2E1,8.3E1,1.1E1,7.316E3,1.3E1,2.4E1,2E0,3E0,1.6E1,4.6E1,8E1,3E0,2E0,9E0,3.3E1,7.283E3,3E0,1E1,2E0,2.2E1,2E0,1E0,5E0,1.1E1,2.9E1,1.7E1,7.8E1,2E0,2E0,1E0,1E0,1E0,5E0,4E0,3E1,3E0,4.5E1,7.238E3,9E0,1E0,2E0,2E1],"tree_param":{"num_deleted":"0","num_feature":"4","num_nodes":"49","size_leaf_vector":"1"}},{"base_weights":[-1.6730849E-4,3.9035276E-2,-1.8467937E-2,-1.2374669E-1,6.61598E-2,-2.238545E-1,5.4754787E-3,2.5039986E-1,-2.951683E-1,-3.2847755E-2,1.0760684E-1,-6.195795E-1,-9.659314E-2,5.3141254E-1,-1.9964045E-4,-6.4021066E-2,7.86516E-1,-5.075229E-1,4.260113E-1,2.8975178E-3,-2.4042728E0,8.971616E-2,5.342025E-1,-3.1351575E-1,-1.8317763E0,1.8468542E-1,-4.173345E-1,1.0323852E0,-6.729511E-1,-1.1005604E-1,3.2293595E-2,-6.77353E-2,4.2029828E-1,5.0866958E-2,3.7054726E-1,8.805521E-2,-1.9287334E-1,1.7030343E-1,-3.2275772E-1,-6.984711E-2,3.6313877E-2,-1.0602239E0,-2.3808347E-1,8.081332E-2,1.5472616E-2,1.9913867E-1,1.0365003E-2,-2.0470832E-1,1.766896E-1,-9.209119E-1,5.9005463E-1,3.095134E-1,3.0865664E-2,-2.4048796E-1,2.6320882E-2,2.030014E-1,4.9733433E-1,-3.0547348E-1,6.638558E-2,-5.8439516E-2,6.619154E-2,1.4102394E-2,-5.96628E-2],"categories":[],"categories_nodes":[],"categories_segments":[],"categories_sizes":[],"default_left":[0,0,0,0,0,0,0,0,0,0,0,0,0,0,0,0,0,0,0,0,0,0,0,0,0,0,0,0,0,0,0,0,0,0,0,0,0,0,0,0,0,0,0,0,0,0,0,0,0,0,0,0,0,0,0,0,0,0,0,0,0,0,0],"id":14,"left_children":[1,3,5,7,9,11,13,15,17,19,21,23,25,27,29,31,33,35,37,39,41,43,45,47,49,51,53,55,57,59,61,-1,-1,-1,-1,-1,-1,-1,-1,-1,-1,-1,-1,-1,-1,-1,-1,-1,-1,-1,-1,-1,-1,-1,-1,-1,-1,-1,-1,-1,-1,-1,-1],"loss_changes":[5.392222E0,1.0569785E1,2.5199291E1,2.20087E1,8.419954E0,2.6883018E1,1.3700134E1,1.8255497E1,3.6205467E1,5.137591E1,1.0988071E1,4.765694E1,3.670545E1,3.0259056E1,1.621663E1,1.6668331E1,1.0862316E1,1.9926865E1,1.21000595E1,1.6682579E1,1.3572937E1,9.504133E0,3.7326527E0,3.5353855E1,1.2830086E2,1.49290495E1,3.6948326E1,6.664398E0,4.856936E0,2.9103687E1,1.193507E1,0E0,0E0,0E0,0E0,0E0,0E0,0E0,0E0,0E0,0E0,0E0,0E0,0E0,0E0,0E0,0E0,0E0,0E0,0E0,0E0,0E0,0E0,0E0,0E0,0E0,0E0,0E0,0E0,0E0,0E0,0E0,0E0],"parents":[2147483647,0,0,1,1,2,2,3,3,4,4,5,5,6,6,7,7,8,8,9,9,10,10,11,11,12,12,13,13,14,14,15,15,16,16,17,17,18,18,19,19,20,20,21,21,22,22,23,23,24,24,25,25,26,26,27,27,28,28,29,29,30,30],"right_children":[2,4,6,8,10,12,14,16,18,20,22,24,26,28,30,32,34,36,38,40,42,44,46,48,50,52,54,56,58,60,62,-1,-1,-1,-1,-1,-1,-1,-1,-1,-1,-1,-1,-1,-1,-1,-1,-1,-1,-1,-1,-1,-1,-1,-1,-1,-1,-1,-1,-1,-1,-1,-1],"split_conditions":[4.14E2,5.555556E-1,4.24E2,-2.394141E0,-6.74927E0,2.5E0,-1.1111112E0,-3.5E0,4.015035E0,-6.840403E0,4.12E2,2.7783709E0,7.7777777E0,4.43E2,7.2222223E0,4.09E2,-1.1111112E0,3.56E2,3.99E2,4.4444447E0,8.055555E0,1.6666666E0,7.5E0,-6.840403E-1,4.21E2,4.15E2,1.1111111E1,9.48E2,4.67E2,5.142301E0,6.1563625E0,-6.77353E-2,4.2029828E-1,5.0866958E-2,3.7054726E-1,8.805521E-2,-1.9287334E-1,1.7030343E-1,-3.2275772E-1,-6.984711E-2,3.6313877E-2,-1.0602239E0,-2.3808347E-1,8.081332E-2,1.5472616E-2,1.9913867E-1,1.0365003E-2,-2.0470832E-1,1.766896E-1,-9.209119E-1,5.9005463E-1,3.095134E-1,3.0865664E-2,-2.4048796E-1,2.6320882E-2,2.030014E-1,4.9733433E-1,-3.0547348E-1,6.638558E-2,-5.8439516E-2,6.619154E-2,1.4102394E-2,-5.96628E-2],"split_indices":[0,2,0,3,3,2,2,3,3,3,0,3,2,0,2,0,2,0,0,2,2,2,2,3,0,0,2,1,0,3,3,0,0,0,0,0,0,0,0,0,0,0,0,0,0,0,0,0,0,0,0,0,0,0,0,0,0,0,0,0,0,0,0],"split_type":[0,0,0,0,0,0,0,0,0,0,0,0,0,0,0,0,0,0,0,0,0,0,0,0,0,0,0,0,0,0,0,0,0,0,0,0,0,0,0,0,0,0,0,0,0,0,0,0,0,0,0,0,0,0,0,0,0,0,0,0,0,0,0],"sum_hessian":[7.514E3,2.391E3,5.123E3,3.41E2,2.05E3,5.34E2,4.589E3,1.07E2,2.34E2,6.05E2,1.445E3,1.29E2,4.05E2,4.8E1,4.541E3,6.8E1,3.9E1,1.81E2,5.3E1,5.97E2,8E0,1.388E3,5.7E1,1.04E2,2.5E1,2.16E2,1.89E2,3.4E1,1.4E1,1.036E3,3.505E3,6.2E1,6E0,1.7E1,2.2E1,2.6E1,1.55E2,4.9E1,4E0,1.99E2,3.98E2,4E0,4E0,2.42E2,1.146E3,4.5E1,1.2E1,7.4E1,3E1,1.9E1,6E0,1.8E1,1.98E2,1.07E2,8.2E1,2.3E1,1.1E1,1E1,4E0,8.25E2,2.11E2,3.296E3,2.09E2],"tree_param":{"num_deleted":"0","num_feature":"4","num_nodes":"63","size_leaf_vector":"1"}},{"base_weights":[-1.5970066E-4,-5.86405E-4,4.809145E-1,2.033529E-2,-3.3731405E-2,-1.2738123E-3,3.339262E-1,-6.045514E-1,-1.0437234E-2,-2.450619E-2,9.575706E-2,2.6855868E-1,7.471987E-1,4.3350247E-1,-7.542139E-1,-8.6968556E-2,8.1794865E-2,-2.388224E-3,-1.05777994E-1,1.6274044E-1,1.641081E-2,9.8242015E-2,5.0772345E-3,2.645864E-1,-2.0582801E-1,-7.229662E-2,3.1614175E-1,-2.878785E-1,-2.990616E-2,5.4056407E-4,-7.523768E-2,9.600881E-2,1.1302543E-2],"categories":[],"categories_nodes":[],"categories_segments":[],"categories_sizes":[],"default_left":[0,0,0,0,0,0,0,0,0,0,0,0,0,0,0,0,0,0,0,0,0,0,0,0,0,0,0,0,0,0,0,0,0],"id":15,"left_children":[1,3,-1,5,7,9,11,13,15,17,19,21,23,25,27,29,31,-1,-1,-1,-1,-1,-1,-1,-1,-1,-1,-1,-1,-1,-1,-1,-1],"loss_changes":[5.14192E0,5.211266E0,0E0,3.1219383E1,3.866072E1,9.720452E0,7.82267E0,1.8037739E1,1.9736025E1,1.8882414E1,1.5247076E1,3.8192978E0,8.330887E0,6.529793E0,1.3347076E1,2.2221693E1,1.3315687E1,0E0,0E0,0E0,0E0,0E0,0E0,0E0,0E0,0E0,0E0,0E0,0E0,0E0,0E0,0E0,0E0],"parents":[2147483647,0,0,1,1,3,3,4,4,5,5,6,6,7,7,8,8,9,9,10,10,11,11,12,12,13,13,14,14,15,15,16,16],"right_children":[2,4,-1,6,8,10,12,14,16,18,20,22,24,26,28,30,32,-1,-1,-1,-1,-1,-1,-1,-1,-1,-1,-1,-1,-1,-1,-1,-1],"split_conditions":[1.5E1,-2.7554554E-15,4.809145E-1,-1.0352762E0,-1.1021821E-15,-2.565151E0,-3.4729636E-1,3.84E2,8.055555E0,-2.952019E0,-2.4310744E0,2.843E3,1.3055555E1,3.77E2,1.5E1,4.31E2,1.2155372E0,-2.388224E-3,-1.05777994E-1,1.6274044E-1,1.641081E-2,9.8242015E-2,5.0772345E-3,2.645864E-1,-2.0582801E-1,-7.229662E-2,3.1614175E-1,-2.878785E-1,-2.990616E-2,5.4056407E-4,-7.523768E-2,9.600881E-2,1.1302543E-2],"split_indices":[3,3,0,3,3,3,3,0,2,3,3,1,2,0,2,0,3,0,0,0,0,0,0,0,0,0,0,0,0,0,0,0,0],"split_type":[0,0,0,0,0,0,0,0,0,0,0,0,0,0,0,0,0,0,0,0,0,0,0,0,0,0,0,0,0,0,0,0,0],"sum_hessian":[7.514E3,7.513E3,1E0,4.606E3,2.907E3,4.31E3,2.96E2,1.13E2,2.794E3,3.478E3,8.32E2,2.57E2,3.9E1,1.4E1,9.9E1,1.527E3,1.267E3,3.312E3,1.66E2,6.9E1,7.63E2,2.08E2,4.9E1,3.6E1,3E0,7E0,7E0,7.5E1,2.4E1,9.91E2,5.36E2,1.97E2,1.07E3],"tree_param":{"num_deleted":"0","num_feature":"4","num_nodes":"33","size_leaf_vector":"1"}},{"base_weights":[-2.235811E-5,9.352533E-3,-8.2156114E-2,1.662827E-4,7.705249E-2,-1.6603063E-1,1.6772921E-1,-2.991647E-2,7.240268E-2,1.9573887E-1,-1.6598552E-1,-6.153524E-1,-1.2316678E-1,3.4878302E-1,5.317284E-2,-1.5239298E-2,-8.044123E-1,2.0828815E-1,-1.6060263E-3,-8.547136E-2,3.5149544E-1,-4.6022877E-1,1.0001903E-1,-9.6305424E-1,2.601555E-1,-5.1912373E-1,-6.1515875E-2,1.7205653E-1,8.606054E-1,-5.617498E-1,1.4636894E-1,7.010165E-3,-4.826388E-2,-6.4461803E-1,1.0193024E-1,-2.986451E-2,7.573485E-2,7.0665374E-2,-1.5455646E-2,-1.4000703E-1,7.467506E-2,3.391436E-2,1.7397924E-1,-1.5599987E-1,2.4655591E-1,-1.9245113E-1,4.859817E-2,1.8436848E-1,-3.375291E-1,-2.7222234E-1,1.8829909E-1,1.5727024E-1,-1.9798045E-1,-8.782497E-2,1.6676679E-3,1.3156213E-1,-4.2083677E-2,-1.2415982E-2,2.7390462E-1,-2.114003E-1,8.773499E-2,9.6725605E-2,-3.150832E-2],"categories":[],"categories_nodes":[],"categories_segments":[],"categories_sizes":[],"default_left":[0,0,0,0,0,0,0,0,0,0,0,0,0,0,0,0,0,0,0,0,0,0,0,0,0,0,0,0,0,0,0,0,0,0,0,0,0,0,0,0,0,0,0,0,0,0,0,0,0,0,0,0,0,0,0,0,0,0,0,0,0,0,0],"id":16,"left_children":[1,3,5,7,9,11,13,15,17,19,21,23,25,27,29,31,33,35,37,39,41,43,45,47,49,51,53,55,57,59,61,-1,-1,-1,-1,-1,-1,-1,-1,-1,-1,-1,-1,-1,-1,-1,-1,-1,-1,-1,-1,-1,-1,-1,-1,-1,-1,-1,-1,-1,-1,-1,-1],"loss_changes":[5.787281E0,4.1953835E0,1.6166286E1,1.2912373E1,2.3281801E1,1.1037035E1,4.0051823E0,4.767402E1,1.75694E1,2.376983E1,2.0787596E1,1.5471331E1,1.285713E1,6.635871E0,6.9592295E0,2.315789E1,1.2070478E2,8.39933E0,1.3411824E1,2.4846327E1,1.8944416E1,1.0082869E1,6.5377274E0,9.89452E0,7.0058823E0,1.07770195E1,7.105191E0,4.8057632E0,9.3597984E-1,2.1593661E0,4.680986E0,0E0,0E0,0E0,0E0,0E0,0E0,0E0,0E0,0E0,0E0,0E0,0E0,0E0,0E0,0E0,0E0,0E0,0E0,0E0,0E0,0E0,0E0,0E0,0E0,0E0,0E0,0E0,0E0,0E0,0E0,0E0,0E0],"parents":[2147483647,0,0,1,1,2,2,3,3,4,4,5,5,6,6,7,7,8,8,9,9,10,10,11,11,12,12,13,13,14,14,15,15,16,16,17,17,18,18,19,19,20,20,21,21,22,22,23,23,24,24,25,25,26,26,27,27,28,28,29,29,30,30],"right_children":[2,4,6,8,10,12,14,16,18,20,22,24,26,28,30,32,34,36,38,40,42,44,46,48,50,52,54,56,58,60,62,-1,-1,-1,-1,-1,-1,-1,-1,-1,-1,-1,-1,-1,-1,-1,-1,-1,-1,-1,-1,-1,-1,-1,-1,-1,-1,-1,-1,-1,-1,-1,-1],"split_conditions":[5.26E2,5.142301E0,1.611111E1,4.58E2,4.6E2,-1.0239401E1,5.48E2,4.56E2,1.0555555E1,3.0555556E0,4.84E2,6.32E2,1.0555555E1,4E0,-1.0927389E1,1.0418891E0,8.055555E0,-6.74927E0,4.72E2,4E2,6.928203E0,6.952E3,6.6666665E0,-2.1751387E1,1.1944445E1,6.6666665E0,-5.8143425E0,-9.1925335E0,5.27E2,1.888889E1,-5E0,7.010165E-3,-4.826388E-2,-6.4461803E-1,1.0193024E-1,-2.986451E-2,7.573485E-2,7.0665374E-2,-1.5455646E-2,-1.4000703E-1,7.467506E-2,3.391436E-2,1.7397924E-1,-1.5599987E-1,2.4655591E-1,-1.9245113E-1,4.859817E-2,1.8436848E-1,-3.375291E-1,-2.7222234E-1,1.8829909E-1,1.5727024E-1,-1.9798045E-1,-8.782497E-2,1.6676679E-3,1.3156213E-1,-4.2083677E-2,-1.2415982E-2,2.7390462E-1,-2.114003E-1,8.773499E-2,9.6725605E-2,-3.150832E-2],"split_indices":[0,3,2,0,0,3,0,0,2,2,0,1,2,3,3,3,2,3,0,0,3,1,2,3,2,2,3,3,0,2,3,0,0,0,0,0,0,0,0,0,0,0,0,0,0,0,0,0,0,0,0,0,0,0,0,0,0,0,0,0,0,0,0],"split_type":[0,0,0,0,0,0,0,0,0,0,0,0,0,0,0,0,0,0,0,0,0,0,0,0,0,0,0,0,0,0,0,0,0,0,0,0,0,0,0,0,0,0,0,0,0,0,0,0,0,0,0,0,0,0,0,0,0,0,0,0,0,0,0],"sum_hessian":[7.514E3,6.745E3,7.69E2,5.94E3,8.05E2,5.76E2,1.93E2,4.194E3,1.746E3,5.41E2,2.64E2,4.9E1,5.27E2,7.4E1,1.19E2,4.117E3,7.7E1,6.15E2,1.131E3,1.93E2,3.48E2,1.25E2,1.39E2,3.5E1,1.4E1,7E1,4.57E2,5.6E1,1.8E1,1.5E1,1.04E2,3.255E3,8.62E2,3.5E1,4.2E1,7.7E1,5.38E2,1.96E2,9.35E2,9E1,1.03E2,1.71E2,1.77E2,1.2E2,5E0,1E1,1.29E2,3E0,3.2E1,3E0,1.1E1,8E0,6.2E1,1.02E2,3.55E2,3E1,2.6E1,1E0,1.7E1,1.3E1,2E0,6.1E1,4.3E1],"tree_param":{"num_deleted":"0","num_feature":"4","num_nodes":"63","size_leaf_vector":"1"}},{"base_weights":[-7.7272496E-5,1.5309043E-1,-3.8354662E-3,-1.4454818E-1,5.2694553E-1,-1.7933492E-1,3.6209382E-3,9.2623806E-1,-3.1325793E-1,6.970768E-1,-4.0350592E-1,-2.4160796E-1,8.678772E-1,5.1086064E-2,-1.71137E-2,-2.593794E-1,1.2731682E0,-4.6630865E-1,5.290322E-1,3.527807E-1,1.5057483E0,-8.395629E-1,2.4515438E-1,-2.0386714E-1,-8.4691936E-1,9.8482025E-1,-1.504818E-1,7.711963E-2,-4.0827435E-2,-2.1247868E-1,7.771721E-4,-1.435299E-1,5.9667207E-2,4.6405816E-1,1.2224751E-1,-9.28091E-2,-4.3665445E-1,2.8934953E-1,-2.4022737E-1,1.846434E-1,-2.1998596E-1,6.705838E-2,5.75476E-1,-2.9953414E-1,4.089403E-2,2.044819E-1,-1.255499E-1,1.0272363E-2,-1.3266602E-1,-1.3372193E-1,3.3297208E-1,3.2605857E-2,-1.0268052E-1,-2.8087256E-2,2.988669E-1,-1.4849532E-1,2.7290845E-2,3.108689E-1,-3.9080618E-4],"categories":[],"categories_nodes":[],"categories_segments":[],"categories_sizes":[],"default_left":[0,0,0,0,0,0,0,0,0,0,0,0,0,0,0,0,0,0,0,0,0,0,0,0,0,0,0,0,0,0,0,0,0,0,0,0,0,0,0,0,0,0,0,0,0,0,0,0,0,0,0,0,0,0,0,0,0,0,0],"id":17,"left_children":[1,3,5,7,9,11,13,15,17,19,21,23,25,27,29,31,33,35,37,39,41,43,45,47,-1,49,-1,51,53,55,57,-1,-1,-1,-1,-1,-1,-1,-1,-1,-1,-1,-1,-1,-1,-1,-1,-1,-1,-1,-1,-1,-1,-1,-1,-1,-1,-1,-1],"loss_changes":[4.3264756E0,2.0105438E1,9.600502E0,1.8536013E1,1.2945185E1,1.9708395E1,6.927478E0,6.0888033E0,1.1591046E1,1.8401527E1,3.8829095E0,2.6996119E1,3.216569E0,5.1238194E0,1.7123396E1,4.9669868E-1,1.9758854E0,1.1193539E1,8.879429E0,1.443136E1,1.0149662E1,1.3765125E0,2.0231705E0,1.5906214E1,0E0,3.357832E0,0E0,2.211924E1,2.5991386E1,3.527834E1,9.66884E0,0E0,0E0,0E0,0E0,0E0,0E0,0E0,0E0,0E0,0E0,0E0,0E0,0E0,0E0,0E0,0E0,0E0,0E0,0E0,0E0,0E0,0E0,0E0,0E0,0E0,0E0,0E0,0E0],"parents":[2147483647,0,0,1,1,2,2,3,3,4,4,5,5,6,6,7,7,8,8,9,9,10,10,11,11,12,12,13,13,14,14,15,15,16,16,17,17,18,18,19,19,20,20,21,21,22,22,23,23,25,25,27,27,28,28,29,29,30,30],"right_children":[2,4,6,8,10,12,14,16,18,20,22,24,26,28,30,32,34,36,38,40,42,44,46,48,-1,50,-1,52,54,56,58,-1,-1,-1,-1,-1,-1,-1,-1,-1,-1,-1,-1,-1,-1,-1,-1,-1,-1,-1,-1,-1,-1,-1,-1,-1,-1,-1,-1],"split_conditions":[-1.1111112E0,-1E0,5.555556E-1,-4E0,4.42E2,1.0742E4,4.16E2,3.64E2,4.34E2,3.97E2,-2.2222223E0,1.0427E4,1.9908E4,7.7777777E0,4.24E2,5.055E3,3.791E3,-1.2155372E0,4.43E2,3.81E2,-6.840403E-1,4.57E2,-3.6739403E-16,-8.4523654E-1,-8.4691936E-1,3.64E2,-1.504818E-1,6.0621777E0,7.7134514E0,-2.394141E0,8.333333E-1,-1.435299E-1,5.9667207E-2,4.6405816E-1,1.2224751E-1,-9.28091E-2,-4.3665445E-1,2.8934953E-1,-2.4022737E-1,1.846434E-1,-2.1998596E-1,6.705838E-2,5.75476E-1,-2.9953414E-1,4.089403E-2,2.044819E-1,-1.255499E-1,1.0272363E-2,-1.3266602E-1,-1.3372193E-1,3.3297208E-1,3.2605857E-2,-1.0268052E-1,-2.8087256E-2,2.988669E-1,-1.4849532E-1,2.7290845E-2,3.108689E-1,-3.9080618E-4],"split_indices":[2,3,2,3,0,1,0,0,0,0,2,1,1,2,0,1,1,3,0,0,3,0,3,3,0,0,0,3,3,3,2,0,0,0,0,0,0,0,0,0,0,0,0,0,0,0,0,0,0,0,0,0,0,0,0,0,0,0,0],"split_type":[0,0,0,0,0,0,0,0,0,0,0,0,0,0,0,0,0,0,0,0,0,0,0,0,0,0,0,0,0,0,0,0,0,0,0,0,0,0,0,0,0,0,0,0,0,0,0,0,0,0,0,0,0,0,0,0,0,0,0],"sum_hessian":[7.514E3,1.79E2,7.335E3,1E2,7.9E1,2.98E2,7.037E3,1.3E1,8.7E1,6.7E1,1.2E1,2.82E2,1.6E1,2.139E3,4.898E3,3E0,1E1,7.4E1,1.3E1,4.8E1,1.9E1,7E0,5E0,2.79E2,3E0,1.5E1,1E0,1.667E3,4.72E2,4.1E2,4.488E3,2E0,1E0,7E0,3E0,6.5E1,9E0,1E1,3E0,3.9E1,9E0,5E0,1.4E1,6E0,1E0,3E0,2E0,1.4E2,1.39E2,1E0,1.4E1,1.551E3,1.16E2,4.5E2,2.2E1,2.12E2,1.98E2,8E0,4.48E3],"tree_param":{"num_deleted":"0","num_feature":"4","num_nodes":"59","size_leaf_vector":"1"}},{"base_weights":[-6.4794905E-5,-4.312112E-4,4.1297808E-1,-2.6517217E-3,2.2285596E-1,-1.9098533E-2,3.0316008E-2,2.832709E-1,-2.0025732E-1,3.2404986E-1,-2.3220534E-2,-1.3266167E-1,4.713725E-2,5.182396E-1,2.0976597E-1,1.5619847E-1,-1.03531905E-1,-1.9040162E-2,2.6372941E-3,3.9346638E-1,-4.527675E-2,1.2495615E-1,1.0255372E-2,2.3521896E-1,-6.701546E-2,-7.7947885E-2,7.550742E-2],"categories":[],"categories_nodes":[],"categories_segments":[],"categories_sizes":[],"default_left":[0,0,0,0,0,0,0,0,0,0,0,0,0,0,0,0,0,0,0,0,0,0,0,0,0,0,0],"id":18,"left_children":[1,3,-1,5,7,9,11,13,-1,15,17,19,21,23,25,-1,-1,-1,-1,-1,-1,-1,-1,-1,-1,-1,-1],"loss_changes":[3.7913854E0,3.7261188E0,0E0,4.0351934E0,4.169718E0,7.030307E0,6.796917E0,1.100286E0,0E0,7.9419556E0,6.322525E0,6.316378E0,1.0731755E1,3.3294077E0,1.1482275E0,0E0,0E0,0E0,0E0,0E0,0E0,0E0,0E0,0E0,0E0,0E0,0E0],"parents":[2147483647,0,0,1,1,3,3,4,4,5,5,6,6,7,7,9,9,10,10,11,11,12,12,13,13,14,14],"right_children":[2,4,-1,6,8,10,12,14,-1,16,18,20,22,24,26,-1,-1,-1,-1,-1,-1,-1,-1,-1,-1,-1,-1],"split_conditions":[1.5E1,1.9444445E1,4.1297808E-1,6.32E2,1.264E3,-1.9918585E1,-1.1490666E1,-1.125833E1,-2.0025732E-1,5.21E2,-2.565151E0,2.5E0,-1.0239401E1,4.39E2,-9.1925335E0,1.5619847E-1,-1.03531905E-1,-1.9040162E-2,2.6372941E-3,3.9346638E-1,-4.527675E-2,1.2495615E-1,1.0255372E-2,2.3521896E-1,-6.701546E-2,-7.7947885E-2,7.550742E-2],"split_indices":[3,2,0,1,1,3,3,3,0,0,3,2,3,0,3,0,0,0,0,0,0,0,0,0,0,0,0],"split_type":[0,0,0,0,0,0,0,0,0,0,0,0,0,0,0,0,0,0,0,0,0,0,0,0,0,0,0],"sum_hessian":[7.514E3,7.513E3,1E0,7.44E3,7.3E1,4.964E3,2.476E3,6.9E1,4E0,5.8E1,4.906E3,2.31E2,2.245E3,1.5E1,5.4E1,4.5E1,1.3E1,2.173E3,2.733E3,2E0,2.29E2,7.5E1,2.17E3,1.1E1,4E0,4E0,5E1],"tree_param":{"num_deleted":"0","num_feature":"4","num_nodes":"27","size_leaf_vector":"1"}},{"base_weights":[7.407975E-5,1.6980253E-1,-2.3771308E-3,2.8556815E-1,-5.0646245E-1,-5.8219545E-2,8.264174E-3,4.1983984E-3,6.5124387E-1,2.7201653E-1,-7.070358E-1,-8.6156815E-2,4.0966046E-1,4.731943E-2,-1.592907E-2,1.6570075E-1,-1.2885202E0,3.6411354E-1,1.4762236E0,-1.751381E-1,7.5188446E-1,9.349537E-2,-8.178973E-1,-5.7855837E-2,-9.6183413E-1,1.0306196E0,1.2349441E-1,9.616448E-2,-3.6859777E-2,-1.1315058E-1,9.256963E-3,-1.2584462E-2,1.7508614E-1,2.146454E-2,-4.7245312E-1,1.5687788E-1,-3.8773403E-1,8.0121887E-1,2.531268E-1,2.8986198E-1,4.8486043E-2,-2.9712164E-1,8.928681E-3,-1.2796229E-1,-1.1445258E-2,-4.3842956E-1,1.9314888E-1,2.8561594E-2,4.7968078E-1,-1.27628E-1,1.5335113E-1,2.662986E-2,4.4139686E-1,-1.3372084E-1,1.49150705E-2,4.596962E-1,-3.8303833E-2,6.635503E-2,-2.6198938E-3],"categories":[],"categories_nodes":[],"categories_segments":[],"categories_sizes":[],"default_left":[0,0,0,0,0,0,0,0,0,0,0,0,0,0,0,0,0,0,0,0,0,0,0,0,0,0,0,0,0,0,0,0,0,0,0,0,0,0,0,0,0,0,0,0,0,0,0,0,0,0,0,0,0,0,0,0,0,0,0],"id":19,"left_children":[1,3,5,7,9,11,13,15,17,19,21,23,25,27,29,31,33,35,37,-1,39,-1,41,43,45,47,49,51,53,55,57,-1,-1,-1,-1,-1,-1,-1,-1,-1,-1,-1,-1,-1,-1,-1,-1,-1,-1,-1,-1,-1,-1,-1,-1,-1,-1,-1,-1],"loss_changes":[3.1269455E0,8.521471E0,4.4031773E0,9.463154E0,2.6905994E0,1.5537842E1,5.8816457E0,1.1278694E1,8.937555E0,2.0816488E0,1.7230306E0,2.7700787E1,1.1778454E1,9.793591E0,9.413559E0,4.1899495E0,2.449195E0,8.83142E0,5.3014164E0,0E0,2.2336173E-1,0E0,1.784215E0,7.8734436E0,2.9017418E1,1.1011606E1,1.0219231E1,1.5201336E1,3.0996422E1,1.9105927E1,1.1645441E1,0E0,0E0,0E0,0E0,0E0,0E0,0E0,0E0,0E0,0E0,0E0,0E0,0E0,0E0,0E0,0E0,0E0,0E0,0E0,0E0,0E0,0E0,0E0,0E0,0E0,0E0,0E0,0E0],"parents":[2147483647,0,0,1,1,2,2,3,3,4,4,5,5,6,6,7,7,8,8,9,9,10,10,11,11,12,12,13,13,14,14,15,15,16,16,17,17,18,18,20,20,22,22,23,23,24,24,25,25,26,26,27,27,28,28,29,29,30,30],"right_children":[2,4,6,8,10,12,14,16,18,20,22,24,26,28,30,32,34,36,38,-1,40,-1,42,44,46,48,50,52,54,56,58,-1,-1,-1,-1,-1,-1,-1,-1,-1,-1,-1,-1,-1,-1,-1,-1,-1,-1,-1,-1,-1,-1,-1,-1,-1,-1,-1,-1],"split_conditions":[-2.2222223E0,4.38E2,2.5E0,-1.0352762E0,-6.111111E0,4.45E2,4.34E2,-1.2155372E0,3.97E2,4.39E2,-2.223131E0,4.39E2,4.49E2,7.7777777E0,7.5E0,1.896E3,6.32E2,3.93E2,4.08E2,-1.751381E-1,4.41E2,9.349537E-2,3.791E3,-7.7942286E0,1.3888888E0,5.555556E-1,4.57E2,7.5E0,8.055555E0,-1.1410693E1,8.888889E0,-1.2584462E-2,1.7508614E-1,2.146454E-2,-4.7245312E-1,1.5687788E-1,-3.8773403E-1,8.0121887E-1,2.531268E-1,2.8986198E-1,4.8486043E-2,-2.9712164E-1,8.928681E-3,-1.2796229E-1,-1.1445258E-2,-4.3842956E-1,1.9314888E-1,2.8561594E-2,4.7968078E-1,-1.27628E-1,1.5335113E-1,2.662986E-2,4.4139686E-1,-1.3372084E-1,1.49150705E-2,4.596962E-1,-3.8303833E-2,6.635503E-2,-2.6198938E-3],"split_indices":[2,0,2,3,2,0,0,3,0,0,3,0,0,2,2,1,1,0,0,0,0,0,1,3,2,2,0,2,2,3,2,0,0,0,0,0,0,0,0,0,0,0,0,0,0,0,0,0,0,0,0,0,0,0,0,0,0,0,0],"split_type":[0,0,0,0,0,0,0,0,0,0,0,0,0,0,0,0,0,0,0,0,0,0,0,0,0,0,0,0,0,0,0,0,0,0,0,0,0,0,0,0,0,0,0,0,0,0,0,0,0,0,0,0,0,0,0,0,0,0,0],"sum_hessian":[7.514E3,1.06E2,7.408E3,9.1E1,1.5E1,1.185E3,6.223E3,5.2E1,3.9E1,3E0,1.2E1,1.119E3,6.6E1,2.38E3,3.843E3,4.7E1,5E0,3E1,9E0,1E0,2E0,1E0,1.1E1,1.085E3,3.4E1,2E1,4.6E1,1.506E3,8.74E2,7.9E2,3.053E3,3.2E1,1.5E1,1E0,4E0,2.8E1,2E0,2E0,7E0,1E0,1E0,9E0,2E0,5.4E1,1.031E3,2.6E1,8E0,8E0,1.2E1,1.9E1,2.7E1,1.499E3,7E0,1.52E2,7.22E2,6E0,7.84E2,2.38E2,2.815E3],"tree_param":{"num_deleted":"0","num_feature":"4","num_nodes":"59","size_leaf_vector":"1"}},{"base_weights":[2.4995176E-4,-5.7917503E-5,3.4703696E-1,2.8356074E-3,-1.4310253E-1,-1.2278014E-3,2.0101745E-1,4.4294676E-1,-2.6482978E-1,1.4645945E-2,-2.9214455E-2,4.4415882E-1,-2.1818809E-1,3.89159E-2,1.2017922E0,-1.8129174E0,-9.808746E-2,3.137175E-4,6.360177E-2,-1.3301836E-1,-3.0948475E-3,-2.123726E-1,1.9133945E-1,-2.3640716E-1,3.1334434E-2,2.73282E-1,-1.7964637E-1,5.575247E-2,3.9166677E-1,-7.645471E-1,3.7298948E-1,3.3498642E-1,-4.939892E-2],"categories":[],"categories_nodes":[],"categories_segments":[],"categories_sizes":[],"default_left":[0,0,0,0,0,0,0,0,0,0,0,0,0,0,0,0,0,0,0,0,0,0,0,0,0,0,0,0,0,0,0,0,0],"id":20,"left_children":[1,3,-1,5,7,9,11,13,15,17,19,21,23,25,27,29,31,-1,-1,-1,-1,-1,-1,-1,-1,-1,-1,-1,-1,-1,-1,-1,-1],"loss_changes":[2.675881E0,3.1104739E0,0E0,5.9320416E0,1.0746693E1,3.2074904E0,1.5181988E1,7.924752E0,3.1830505E1,1.2365605E1,2.0448154E1,2.1421545E1,1.0194038E1,1.0555688E1,7.061424E-1,3.014537E1,9.322174E0,0E0,0E0,0E0,0E0,0E0,0E0,0E0,0E0,0E0,0E0,0E0,0E0,0E0,0E0,0E0,0E0],"parents":[2147483647,0,0,1,1,3,3,4,4,5,5,6,6,7,7,8,8,9,9,10,10,11,11,12,12,13,13,14,14,15,15,16,16],"right_children":[2,4,-1,6,8,10,12,14,16,18,20,22,24,26,28,30,32,-1,-1,-1,-1,-1,-1,-1,-1,-1,-1,-1,-1,-1,-1,-1,-1],"split_conditions":[1.5E1,8.892524E0,3.4703696E-1,7.7134514E0,4E2,-2.7554554E-15,4.6E2,3.0555556E0,4.05E2,-1.0352762E0,-1.1021821E-15,3.79E2,4.75E2,-5.555556E-1,3.9E2,5.5555553E0,4.07E2,3.137175E-4,6.360177E-2,-1.3301836E-1,-3.0948475E-3,-2.123726E-1,1.9133945E-1,-2.3640716E-1,3.1334434E-2,2.73282E-1,-1.7964637E-1,5.575247E-2,3.9166677E-1,-7.645471E-1,3.7298948E-1,3.3498642E-1,-4.939892E-2],"split_indices":[3,3,0,3,0,3,0,2,0,3,3,0,0,2,0,2,0,0,0,0,0,0,0,0,0,0,0,0,0,0,0,0,0],"split_type":[0,0,0,0,0,0,0,0,0,0,0,0,0,0,0,0,0,0,0,0,0,0,0,0,0,0,0,0,0,0,0,0,0],"sum_hessian":[7.514E3,7.513E3,1E0,7.365E3,1.48E2,7.218E3,1.47E2,2.5E1,1.23E2,4.606E3,2.612E3,9.3E1,5.4E1,1.7E1,8E0,1.1E1,1.12E2,4.31E3,2.96E2,1.13E2,2.499E3,1.3E1,8E1,1.9E1,3.5E1,7E0,1E1,1E0,7E0,9E0,2E0,5E0,1.07E2],"tree_param":{"num_deleted":"0","num_feature":"4","num_nodes":"33","size_leaf_vector":"1"}},{"base_weights":[2.4009496E-4,-9.350144E-3,4.246869E-2,-4.947176E-4,-1.614413E-1,-5.428912E-3,1.8279424E-1,-4.908432E-3,2.8223652E-1,-3.8661733E-1,4.5157163E-3,8.150802E-3,-6.970439E-1,2.3157439E-1,-2.5452968E-1,9.4411196E-4,-2.089068E-1,8.2530755E-1,-1.0221377E-1,-5.482173E-1,1.4757706E-1,8.513552E-2,-7.051643E-1,1.6740285E-1,-2.5067814E-2,-1.0164958E0,-9.08041E-2,5.583384E-1,1.4082423E-1,-1.8064435E-1,-4.285671E-1,-3.9529204E-4,1.2094222E-1,-3.503992E-1,-2.8028455E-2,2.8930908E-1,-1.6889878E-1,9.498867E-2,-1.6480313E-1,-3.0906224E-1,-1.0381239E-1,4.1790107E-1,-5.365101E-3,-2.3250319E-1,4.0839445E-2,2.2221852E-2,-2.2502263E-1,2.1041117E-3,2.58663E-1,1.5324873E-2,-3.9966498E-2,-3.534814E-1,1.3872157E-1,-1.274251E-1,5.8354113E-2,2.1086391E-2,2.6697806E-1,-1.18455544E-1,6.295639E-2,-1.17268614E-1,-3.4997466E-3,-1.5732116E-1,-9.044075E-3],"categories":[],"categories_nodes":[],"categories_segments":[],"categories_sizes":[],"default_left":[0,0,0,0,0,0,0,0,0,0,0,0,0,0,0,0,0,0,0,0,0,0,0,0,0,0,0,0,0,0,0,0,0,0,0,0,0,0,0,0,0,0,0,0,0,0,0,0,0,0,0,0,0,0,0,0,0,0,0,0,0,0,0],"id":21,"left_children":[1,3,5,7,9,11,13,15,17,19,21,23,25,27,29,31,33,35,37,39,41,43,45,47,49,51,53,55,57,59,61,-1,-1,-1,-1,-1,-1,-1,-1,-1,-1,-1,-1,-1,-1,-1,-1,-1,-1,-1,-1,-1,-1,-1,-1,-1,-1,-1,-1,-1,-1,-1,-1],"loss_changes":[3.0438395E0,8.249267E0,9.350262E0,7.225448E0,1.2595282E1,9.754509E0,7.6107264E0,6.806674E0,1.8666119E1,1.2425491E1,1.1216816E1,5.3948417E0,3.7809868E0,9.380964E0,3.8549924E-1,5.0428267E0,1.7500832E1,7.685856E0,1.0099625E1,1.0362659E1,7.0312634E0,7.825563E0,7.5548744E-1,1.9607307E1,6.957984E0,3.6550884E0,8.448662E-1,1.11038475E1,9.364323E0,9.5469326E-1,3.6602354E-1,0E0,0E0,0E0,0E0,0E0,0E0,0E0,0E0,0E0,0E0,0E0,0E0,0E0,0E0,0E0,0E0,0E0,0E0,0E0,0E0,0E0,0E0,0E0,0E0,0E0,0E0,0E0,0E0,0E0,0E0,0E0,0E0],"parents":[2147483647,0,0,1,1,2,2,3,3,4,4,5,5,6,6,7,7,8,8,9,9,10,10,11,11,12,12,13,13,14,14,15,15,16,16,17,17,18,18,19,19,20,20,21,21,22,22,23,23,24,24,25,25,26,26,27,27,28,28,29,29,30,30],"right_children":[2,4,6,8,10,12,14,16,18,20,22,24,26,28,30,32,34,36,38,40,42,44,46,48,50,52,54,56,58,60,62,-1,-1,-1,-1,-1,-1,-1,-1,-1,-1,-1,-1,-1,-1,-1,-1,-1,-1,-1,-1,-1,-1,-1,-1,-1,-1,-1,-1,-1,-1,-1,-1],"split_conditions":[1.3333333E1,5.26E2,3.213938E0,5.2E2,5.4E2,3.0781813E0,5.61E2,5.11E2,1.1944445E1,6.32E2,4.015035E0,4.34E2,1.6666666E1,1.5E1,1.6666666E1,5.1E2,-8E0,2.5357096E0,-3.0781813E0,-3E0,7.7777777E0,-1.2256711E1,5.48E2,4.28E2,-4.5148525E0,5.46E2,4.17E2,4.71E2,4.2E2,1.4444445E1,6.32E2,-3.9529204E-4,1.2094222E-1,-3.503992E-1,-2.8028455E-2,2.8930908E-1,-1.6889878E-1,9.498867E-2,-1.6480313E-1,-3.0906224E-1,-1.0381239E-1,4.1790107E-1,-5.365101E-3,-2.3250319E-1,4.0839445E-2,2.2221852E-2,-2.2502263E-1,2.1041117E-3,2.58663E-1,1.5324873E-2,-3.9966498E-2,-3.534814E-1,1.3872157E-1,-1.274251E-1,5.8354113E-2,2.1086391E-2,2.6697806E-1,-1.18455544E-1,6.295639E-2,-1.17268614E-1,-3.4997466E-3,-1.5732116E-1,-9.044075E-3],"split_indices":[2,0,3,0,0,3,0,0,2,1,3,0,2,2,2,0,3,3,3,3,2,3,0,0,3,0,0,0,0,2,1,0,0,0,0,0,0,0,0,0,0,0,0,0,0,0,0,0,0,0,0,0,0,0,0,0,0,0,0,0,0,0,0],"split_type":[0,0,0,0,0,0,0,0,0,0,0,0,0,0,0,0,0,0,0,0,0,0,0,0,0,0,0,0,0,0,0,0,0,0,0,0,0,0,0,0,0,0,0,0,0,0,0,0,0,0,0,0,0,0,0,0,0,0,0,0,0,0,0],"sum_hessian":[7.514E3,6.124E3,1.39E3,5.788E3,3.36E2,1.037E3,3.53E2,5.7E3,8.8E1,1.42E2,1.94E2,1.018E3,1.9E1,3.18E2,3.5E1,5.542E3,1.58E2,3.6E1,5.2E1,1.09E2,3.3E1,1.75E2,1.9E1,1.75E2,8.43E2,1.2E1,7E0,6.8E1,2.5E2,2.6E1,9E0,5.512E3,3E1,1.6E1,1.42E2,3.3E1,3E0,2.7E1,2.5E1,3.1E1,7.8E1,3E0,3E1,9E0,1.66E2,1E0,1.8E1,1.43E2,3.2E1,4.95E2,3.48E2,1.1E1,1E0,3E0,4E0,2.8E1,4E1,2.8E1,2.22E2,1.1E1,1.5E1,7E0,2E0],"tree_param":{"num_deleted":"0","num_feature":"4","num_nodes":"63","size_leaf_vector":"1"}},{"base_weights":[7.3983174E-5,-1.2821772E-3,2.3576032E-1,3.3302861E-3,-1.10439576E-1,4.1920838E-1,-9.6537083E-1,-3.0912478E-3,8.39634E-2,-6.2460536E-1,-1.3602085E-2,6.8921643E-1,1.1292578E-1,-4.2801192E-1,-3.780265E-1,5.9939455E-3,-1.9723478E-1,-1.4870617E-1,1.6014323E-1,1.0623918E0,-1.2164487E0,4.5381266E-1,-8.4806114E-2,8.9549416E-1,-2.3345663E-1,4.0332523E-1,-5.834939E-1,-1.3767415E-1,-2.030468E-2,-3.2632137E-4,4.2211723E-2,-1.1042496E-2,-1.6974202E-1,2.0171243E-1,-9.6179254E-2,1.02760084E-1,2.4976794E-2,4.8103455E-1,2.2191897E-1,-4.5922002E-1,-7.387047E-2,4.4203487E-1,5.4808762E-2,-4.7147185E-2,8.861504E-2,1.5929204E-1,3.4020403E-1,-5.2708343E-2,2.2335733E-1,-2.6010466E-1,1.2511712E-1],"categories":[],"categories_nodes":[],"categories_segments":[],"categories_sizes":[],"default_left":[0,0,0,0,0,0,0,0,0,0,0,0,0,0,0,0,0,0,0,0,0,0,0,0,0,0,0,0,0,0,0,0,0,0,0,0,0,0,0,0,0,0,0,0,0,0,0,0,0,0,0],"id":22,"left_children":[1,3,5,7,9,11,13,15,17,19,21,23,25,-1,27,29,31,33,35,37,39,41,43,45,-1,47,49,-1,-1,-1,-1,-1,-1,-1,-1,-1,-1,-1,-1,-1,-1,-1,-1,-1,-1,-1,-1,-1,-1,-1,-1],"loss_changes":[2.40231E0,3.7629077E0,9.879534E0,3.7133195E0,1.5078033E1,3.0647225E0,1.0864439E0,1.1718315E1,9.400194E0,4.9217365E1,8.558631E0,6.750723E0,4.0778956E0,0E0,6.9351256E-2,6.055104E0,1.754039E1,1.8704466E1,5.5668564E0,1.0833998E0,1.0600323E1,9.129789E0,6.1805177E0,9.62883E-1,0E0,2.8966634E0,2.0636613E0,0E0,0E0,0E0,0E0,0E0,0E0,0E0,0E0,0E0,0E0,0E0,0E0,0E0,0E0,0E0,0E0,0E0,0E0,0E0,0E0,0E0,0E0,0E0,0E0],"parents":[2147483647,0,0,1,1,2,2,3,3,4,4,5,5,6,6,7,7,8,8,9,9,10,10,11,11,12,12,14,14,15,15,16,16,17,17,18,18,19,19,20,20,21,21,22,22,23,23,25,25,26,26],"right_children":[2,4,6,8,10,12,14,16,18,20,22,24,26,-1,28,30,32,34,36,38,40,42,44,46,-1,48,50,-1,-1,-1,-1,-1,-1,-1,-1,-1,-1,-1,-1,-1,-1,-1,-1,-1,-1,-1,-1,-1,-1,-1,-1],"split_conditions":[2.054E4,1.0428E4,5.196152E0,6.004E3,1.1059E4,4.28E2,3.94E2,4.423E3,-6.8944E0,-5E0,1.1692E4,7.5E0,-1.9411428E0,-4.2801192E-1,1.5555555E1,2.528E3,1.3073361E-1,-1.6469955E1,-3.3646476E0,-8.5E0,4.49E2,2.5E0,3.8302221E0,3.8E2,-2.3345663E-1,4.38E2,4.89E2,-1.3767415E-1,-2.030468E-2,-3.2632137E-4,4.2211723E-2,-1.1042496E-2,-1.6974202E-1,2.0171243E-1,-9.6179254E-2,1.02760084E-1,2.4976794E-2,4.8103455E-1,2.2191897E-1,-4.5922002E-1,-7.387047E-2,4.4203487E-1,5.4808762E-2,-4.7147185E-2,8.861504E-2,1.5929204E-1,3.4020403E-1,-5.2708343E-2,2.2335733E-1,-2.6010466E-1,1.2511712E-1],"split_indices":[1,1,3,1,1,0,0,1,3,3,1,2,3,0,2,1,3,3,3,3,0,2,3,0,0,0,0,0,0,0,0,0,0,0,0,0,0,0,0,0,0,0,0,0,0,0,0,0,0,0,0],"split_type":[0,0,0,0,0,0,0,0,0,0,0,0,0,0,0,0,0,0,0,0,0,0,0,0,0,0,0,0,0,0,0,0,0,0,0,0,0,0,0,0,0,0,0,0,0,0,0,0,0,0,0],"sum_hessian":[7.514E3,7.472E3,4.2E1,7.17E3,3.02E2,3.7E1,5E0,6.642E3,5.28E2,4.7E1,2.55E2,1.9E1,1.8E1,2E0,3E0,6.346E3,2.96E2,1.3E2,3.98E2,1.2E1,3.5E1,3.3E1,2.22E2,1.7E1,2E0,1.3E1,5E0,2E0,1E0,6.03E3,3.16E2,2.07E2,8.9E1,2.2E1,1.08E2,1.17E2,2.81E2,3E0,9E0,2.6E1,9E0,6E0,2.7E1,1.87E2,3.5E1,8E0,9E0,5E0,8E0,4E0,1E0],"tree_param":{"num_deleted":"0","num_feature":"4","num_nodes":"51","size_leaf_vector":"1"}},{"base_weights":[1.2063187E-4,5.0805546E-2,-6.8439604E-3,8.883869E-2,-2.7561322E-1,-3.7235487E-1,-2.194213E-3,3.700924E-2,3.317796E-1,-6.870229E-1,1.9677585E-1,-5.4858184E-1,8.310018E-1,3.2384557E-1,-7.5762444E-3,-3.926243E-1,5.629862E-2,2.274332E-1,6.192589E-1,-1.7303367E-1,-9.621372E-1,-2.4287082E-1,2.3804665E-1,-3.5834855E-1,-2.613129E0,1.6339419E0,-9.826288E-1,-1.85035E-1,8.974925E-1,-6.451508E-1,-4.3821973E-3,6.060844E-2,-2.472789E-1,1.0866815E-1,1.8493758E-5,5.4464865E-2,3.1412038E-1,-2.4357827E-1,8.019452E-2,-4.408681E-1,-7.6577686E-2,1.1073656E-1,-3.0873386E-2,-1.4874582E-1,5.89542E-1,-2.6173654E-1,-1.2188952E0,-1.0770207E-1,5.909807E-1,1.6467333E-1,-5.028338E-1,2.2734363E-2,-6.1765015E-1,2.0207004E-1,4.8905334E-1,-3.1761378E-1,1.5880929E-1,1.6528535E-1,-2.100178E-3],"categories":[],"categories_nodes":[],"categories_segments":[],"categories_sizes":[],"default_left":[0,0,0,0,0,0,0,0,0,0,0,0,0,0,0,0,0,0,0,0,0,0,0,0,0,0,0,0,0,0,0,0,0,0,0,0,0,0,0,0,0,0,0,0,0,0,0,0,0,0,0,0,0,0,0,0,0,0,0],"id":23,"left_children":[1,3,5,7,9,11,13,15,17,19,21,23,25,27,29,31,33,35,-1,37,39,-1,41,43,45,47,49,51,53,55,57,-1,-1,-1,-1,-1,-1,-1,-1,-1,-1,-1,-1,-1,-1,-1,-1,-1,-1,-1,-1,-1,-1,-1,-1,-1,-1,-1,-1],"loss_changes":[2.653141E0,1.129706E1,1.12297E1,1.0237199E1,1.859801E1,1.8057175E1,1.1453993E1,5.591214E0,2.538085E1,7.0452137E0,2.0616848E0,2.7734013E1,1.7624165E1,3.1109356E1,1.30731735E1,7.610099E0,1.1079672E1,4.924572E0,0E0,5.5624266E0,1.1461531E1,0E0,2.0043967E0,2.2694365E1,1.1597576E1,6.064165E0,5.1684284E0,2.8012896E1,7.10532E0,1.6103954E1,9.295445E0,0E0,0E0,0E0,0E0,0E0,0E0,0E0,0E0,0E0,0E0,0E0,0E0,0E0,0E0,0E0,0E0,0E0,0E0,0E0,0E0,0E0,0E0,0E0,0E0,0E0,0E0,0E0,0E0],"parents":[2147483647,0,0,1,1,2,2,3,3,4,4,5,5,6,6,7,7,8,8,9,9,10,10,11,11,12,12,13,13,14,14,15,15,16,16,17,17,19,19,20,20,22,22,23,23,24,24,25,25,26,26,27,27,28,28,29,29,30,30],"right_children":[2,4,6,8,10,12,14,16,18,20,22,24,26,28,30,32,34,36,-1,38,40,-1,42,44,46,48,50,52,54,56,58,-1,-1,-1,-1,-1,-1,-1,-1,-1,-1,-1,-1,-1,-1,-1,-1,-1,-1,-1,-1,-1,-1,-1,-1,-1,-1,-1,-1],"split_conditions":[3.8E2,7.5E0,3.82E2,4.4444447E0,1.25E1,4.104242E0,3.85E2,-1.2802501E1,3.77E2,3.62E2,-1.6469955E1,3.5E0,5.5555553E0,3.0555556E0,3.86E2,3.67E2,-6.427876E0,2.7783709E0,6.192589E-1,-6.427876E0,9.48E2,-2.4287082E-1,9.48E2,3.125667E0,3.81E2,-2.5E0,6.32E2,4.5962667E0,-2.2043643E-15,1.896E3,3.87E2,6.060844E-2,-2.472789E-1,1.0866815E-1,1.8493758E-5,5.4464865E-2,3.1412038E-1,-2.4357827E-1,8.019452E-2,-4.408681E-1,-7.6577686E-2,1.1073656E-1,-3.0873386E-2,-1.4874582E-1,5.89542E-1,-2.6173654E-1,-1.2188952E0,-1.0770207E-1,5.909807E-1,1.6467333E-1,-5.028338E-1,2.2734363E-2,-6.1765015E-1,2.0207004E-1,4.8905334E-1,-3.1761378E-1,1.5880929E-1,1.6528535E-1,-2.100178E-3],"split_indices":[0,2,0,2,2,3,0,3,0,0,3,3,2,2,0,0,3,3,0,3,1,0,1,3,0,2,1,3,3,1,0,0,0,0,0,0,0,0,0,0,0,0,0,0,0,0,0,0,0,0,0,0,0,0,0,0,0,0,0],"split_type":[0,0,0,0,0,0,0,0,0,0,0,0,0,0,0,0,0,0,0,0,0,0,0,0,0,0,0,0,0,0,0,0,0,0,0,0,0,0,0,0,0,0,0,0,0,0,0,0,0,0,0,0,0,0,0,0,0,0,0],"sum_hessian":[7.514E3,9.07E2,6.607E3,8.13E2,9.4E1,8.2E1,6.525E3,6.71E2,1.42E2,5E1,4.4E1,7.2E1,1E1,1.05E2,6.42E3,2.8E1,6.43E2,1.35E2,7E0,1.8E1,3.2E1,1E0,4.3E1,6.7E1,5E0,7E0,3E0,5.6E1,4.9E1,3.1E1,6.389E3,1.2E1,1.6E1,9.9E1,5.44E2,1.29E2,6E0,7E0,1.1E1,1.8E1,1.4E1,3.1E1,1.2E1,6.4E1,3E0,3E0,2E0,1E0,6E0,1E0,2E0,5E1,6E0,3.9E1,1E1,2.3E1,8E0,2.9E1,6.36E3],"tree_param":{"num_deleted":"0","num_feature":"4","num_nodes":"59","size_leaf_vector":"1"}},{"base_weights":[-1.2616801E-5,-6.475053E-3,4.9354468E-2,-4.3301738E-4,-3.9028677E-1,6.6404545E-1,1.7372502E-2,-4.7575384E-3,2.129688E-1,8.9023155E-1,-4.7867173E-1,1.3338944E0,3.293145E-1,1.0254787E-1,-1.3131887E-1,-2.5546667E-4,-2.7271333E-1,2.6944235E-1,-6.8193316E-1,1.2837124E0,2.741928E-1,-6.767415E-1,-2.4436088E-1,5.91826E-1,5.4494023E-1,-4.0928188E-1,5.31017E-1,-1.9111855E-2,2.256736E-1,-3.7048817E-1,3.7366631E-3,-1.4698353E-3,2.0300765E-1,1.2594019E-1,-1.7335555E-1,3.1530982E-1,5.025533E-2,-2.4725344E-2,-2.604106E-1,-1.3607026E-3,5.143921E-1,-1.3310137E-1,1.9841138E-1,-3.301761E-1,-5.2489474E-2,5.820137E-1,-1.4957735E-1,-2.456875E-2,2.153287E-1,-1.6151929E-1,-1.7298508E-2,3.874332E-1,6.1738335E-2,-5.8720227E-2,1.22730725E-1,1.3782145E-1,-1.4261939E-1,7.976808E-2,-1.6891587E-1,-2.0833494E-2,1.0886363E-1],"categories":[],"categories_nodes":[],"categories_segments":[],"categories_sizes":[],"default_left":[0,0,0,0,0,0,0,0,0,0,0,0,0,0,0,0,0,0,0,0,0,0,0,0,0,0,0,0,0,0,0,0,0,0,0,0,0,0,0,0,0,0,0,0,0,0,0,0,0,0,0,0,0,0,0,0,0,0,0,0,0],"id":24,"left_children":[1,3,5,7,9,11,13,15,17,19,21,23,25,27,29,31,33,35,37,39,41,43,45,47,-1,49,51,53,55,57,59,-1,-1,-1,-1,-1,-1,-1,-1,-1,-1,-1,-1,-1,-1,-1,-1,-1,-1,-1,-1,-1,-1,-1,-1,-1,-1,-1,-1,-1,-1],"loss_changes":[2.3978422E0,1.5411931E1,1.7091816E1,6.0402136E0,1.2083519E1,9.202152E0,1.0499956E1,7.738706E0,6.7537193E0,1.3448114E0,4.3363914E0,3.9383984E0,4.6866374E0,7.898479E0,9.756327E0,1.9840275E1,2.2641724E1,9.622517E0,8.2102704E-1,2.228345E0,1.4051973E0,1.0866571E1,2.6513033E1,6.52704E-1,0E0,2.8675294E-1,5.66962E0,2.019823E1,4.315032E1,1.3507081E1,5.1240253E0,0E0,0E0,0E0,0E0,0E0,0E0,0E0,0E0,0E0,0E0,0E0,0E0,0E0,0E0,0E0,0E0,0E0,0E0,0E0,0E0,0E0,0E0,0E0,0E0,0E0,0E0,0E0,0E0,0E0,0E0],"parents":[2147483647,0,0,1,1,2,2,3,3,4,4,5,5,6,6,7,7,8,8,9,9,10,10,11,11,12,12,13,13,14,14,15,15,16,16,17,17,18,18,19,19,20,20,21,21,22,22,23,23,25,25,26,26,27,27,28,28,29,29,30,30],"right_children":[2,4,6,8,10,12,14,16,18,20,22,24,26,28,30,32,34,36,38,40,42,44,46,48,-1,50,52,54,56,58,60,-1,-1,-1,-1,-1,-1,-1,-1,-1,-1,-1,-1,-1,-1,-1,-1,-1,-1,-1,-1,-1,-1,-1,-1,-1,-1,-1,-1,-1,-1],"split_conditions":[5.142301E0,4.698463E0,5.196152E0,4.499513E0,5.555556E-1,4.11E2,4.63E2,4.015035E0,6.636E3,6.32E3,7.5E0,3.74E2,4.2E2,4.2E2,4.84E2,4E0,3.98E2,3.0555556E0,3.37E2,3.44E2,1.0742E4,6.32E2,4.09E2,3.52E2,5.4494023E-1,6.32E2,4.41E2,1.264E3,9.48E2,5.5555553E0,9.48E2,-1.4698353E-3,2.0300765E-1,1.2594019E-1,-1.7335555E-1,3.1530982E-1,5.025533E-2,-2.4725344E-2,-2.604106E-1,-1.3607026E-3,5.143921E-1,-1.3310137E-1,1.9841138E-1,-3.301761E-1,-5.2489474E-2,5.820137E-1,-1.4957735E-1,-2.456875E-2,2.153287E-1,-1.6151929E-1,-1.7298508E-2,3.874332E-1,6.1738335E-2,-5.8720227E-2,1.22730725E-1,1.3782145E-1,-1.4261939E-1,7.976808E-2,-1.6891587E-1,-2.0833494E-2,1.0886363E-1],"split_indices":[3,3,3,3,2,0,0,3,1,1,2,0,0,0,0,3,0,2,0,0,1,1,0,0,0,1,0,1,1,2,1,0,0,0,0,0,0,0,0,0,0,0,0,0,0,0,0,0,0,0,0,0,0,0,0,0,0,0,0,0,0],"split_type":[0,0,0,0,0,0,0,0,0,0,0,0,0,0,0,0,0,0,0,0,0,0,0,0,0,0,0,0,0,0,0,0,0,0,0,0,0,0,0,0,0,0,0,0,0,0,0,0,0,0,0,0,0,0,0,0,0,0,0,0,0],"sum_hessian":[7.514E3,6.645E3,8.69E2,6.543E3,1.02E2,4.2E1,8.27E2,6.414E3,1.29E2,6E0,9.6E1,1.3E1,2.9E1,5.26E2,3.01E2,6.309E3,1.05E2,1.22E2,7E0,3E0,3E0,5.1E1,4.5E1,6E0,7E0,6E0,2.3E1,2.65E2,2.61E2,1.08E2,1.93E2,6.267E3,4.2E1,3.2E1,7.3E1,1.3E1,1.09E2,2E0,5E0,1E0,2E0,1E0,2E0,2.7E1,2.4E1,4E0,4.1E1,1E0,5E0,4E0,2E0,6E0,1.7E1,1.88E2,7.7E1,1.96E2,6.5E1,2.5E1,8.3E1,1.61E2,3.2E1],"tree_param":{"num_deleted":"0","num_feature":"4","num_nodes":"61","size_leaf_vector":"1"}},{"base_weights":[2.482038E-4,-1.08984625E-2,2.6485782E-2,-5.7738223E-3,-2.4494818E-1,2.0218365E-2,2.4642907E-1,-1.0486613E-2,3.0159834E-1,1.165038E-1,-4.019845E-1,2.7148362E-2,-8.1365955E-1,5.60358E-1,-4.642839E-2,-7.4493274E-2,5.235514E-3,4.624093E-1,-4.0463486E-1,-7.2619295E-1,2.1820015E-1,-1.1582879E0,-3.2395566E-1,2.4578681E-2,9.468527E-1,-2.5701714E-1,-1.3417445E0,1.1323266E0,3.009E-1,-3.9257476E-1,1.7006357E-1,-1.2512507E-2,-1.4046666E-1,1.2415304E-2,-1.2599922E-2,2.1468675E-1,9.66314E-2,-1.9461925E-1,2.3639776E-1,4.7442056E-2,-3.2210523E-1,-1.7455365E-1,1.0598178E-1,5.3530313E-2,-4.232442E-1,-2.568087E-1,-7.0727214E-2,-1.3237712E-3,2.4459554E-2,3.2828018E-1,3.146696E-2,-1.177535E-1,1.330576E-2,-4.239969E-1,-1.1536761E-1,5.484066E-2,4.132514E-1,6.2966407E-3,3.1314957E-1,-1.7474608E-1,1.3038845E-1,-8.2501665E-2,1.3953196E-1],"categories":[],"categories_nodes":[],"categories_segments":[],"categories_sizes":[],"default_left":[0,0,0,0,0,0,0,0,0,0,0,0,0,0,0,0,0,0,0,0,0,0,0,0,0,0,0,0,0,0,0,0,0,0,0,0,0,0,0,0,0,0,0,0,0,0,0,0,0,0,0,0,0,0,0,0,0,0,0,0,0,0,0],"id":25,"left_children":[1,3,5,7,9,11,13,15,17,19,21,23,25,27,29,31,33,35,37,39,41,43,45,47,49,51,53,55,57,59,61,-1,-1,-1,-1,-1,-1,-1,-1,-1,-1,-1,-1,-1,-1,-1,-1,-1,-1,-1,-1,-1,-1,-1,-1,-1,-1,-1,-1,-1,-1,-1,-1],"loss_changes":[2.1981368E0,6.325529E0,3.0841832E0,7.482186E0,6.4608364E0,1.2619812E1,5.726074E0,5.118538E0,9.045569E0,3.1579268E0,4.286832E0,5.0886497E0,4.946331E0,4.1113367E0,2.5397134E0,1.2927568E1,6.9751644E0,2.0432215E0,4.877927E0,1.3989842E0,3.6636012E0,2.6146383E0,3.223925E0,3.563527E0,6.2992764E-1,4.257483E-1,7.311821E-2,1.8434124E0,4.5531006E0,2.2954123E0,2.8855114E0,0E0,0E0,0E0,0E0,0E0,0E0,0E0,0E0,0E0,0E0,0E0,0E0,0E0,0E0,0E0,0E0,0E0,0E0,0E0,0E0,0E0,0E0,0E0,0E0,0E0,0E0,0E0,0E0,0E0,0E0,0E0,0E0],"parents":[2147483647,0,0,1,1,2,2,3,3,4,4,5,5,6,6,7,7,8,8,9,9,10,10,11,11,12,12,13,13,14,14,15,15,16,16,17,17,18,18,19,19,20,20,21,21,22,22,23,23,24,24,25,25,26,26,27,27,28,28,29,29,30,30],"right_children":[2,4,6,8,10,12,14,16,18,20,22,24,26,28,30,32,34,36,38,40,42,44,46,48,50,52,54,56,58,60,62,-1,-1,-1,-1,-1,-1,-1,-1,-1,-1,-1,-1,-1,-1,-1,-1,-1,-1,-1,-1,-1,-1,-1,-1,-1,-1,-1,-1,-1,-1,-1,-1],"split_conditions":[1.1666667E1,5.27E2,1.0109E4,5.16E2,-3.4202015E0,8.848E3,1.3272E4,-6.74927E0,2.5357096E0,8.055555E0,-3E0,8.532E3,1.3611111E1,-7.517541E0,1.6748E4,4.69E2,7.9602044E-16,8.055555E0,6.32E2,5.31E2,-1.5426903E1,5.31E2,5.29E2,9.797175E-16,1.5E1,6.5366805E-1,5.99E2,4.42E2,5.13E2,5.142301E0,1.25E1,-1.2512507E-2,-1.4046666E-1,1.2415304E-2,-1.2599922E-2,2.1468675E-1,9.66314E-2,-1.9461925E-1,2.3639776E-1,4.7442056E-2,-3.2210523E-1,-1.7455365E-1,1.0598178E-1,5.3530313E-2,-4.232442E-1,-2.568087E-1,-7.0727214E-2,-1.3237712E-3,2.4459554E-2,3.2828018E-1,3.146696E-2,-1.177535E-1,1.330576E-2,-4.239969E-1,-1.1536761E-1,5.484066E-2,4.132514E-1,6.2966407E-3,3.1314957E-1,-1.7474608E-1,1.3038845E-1,-8.2501665E-2,1.3953196E-1],"split_indices":[2,0,1,0,3,1,1,3,3,2,3,1,2,3,1,0,3,2,1,0,3,0,0,3,2,3,0,0,0,3,2,0,0,0,0,0,0,0,0,0,0,0,0,0,0,0,0,0,0,0,0,0,0,0,0,0,0,0,0,0,0,0,0],"split_type":[0,0,0,0,0,0,0,0,0,0,0,0,0,0,0,0,0,0,0,0,0,0,0,0,0,0,0,0,0,0,0,0,0,0,0,0,0,0,0,0,0,0,0,0,0,0,0,0,0,0,0,0,0,0,0,0,0,0,0,0,0,0,0],"sum_hessian":[7.514E3,5.274E3,2.24E3,5.162E3,1.12E2,2.179E3,6.1E1,5.085E3,7.7E1,3.4E1,7.8E1,2.162E3,1.7E1,2.9E1,3.2E1,1.002E3,4.083E3,6.3E1,1.4E1,3E0,3.1E1,6E0,7.2E1,2.157E3,5E0,9E0,8E0,8E0,2.1E1,1.2E1,2E1,9.26E2,7.6E1,2.313E3,1.77E3,2.1E1,4.2E1,1.2E1,2E0,1E0,2E0,4E0,2.7E1,1E0,5E0,9E0,6.3E1,1.43E3,7.27E2,4E0,1E0,6E0,3E0,7E0,1E0,2E0,6E0,1.6E1,5E0,1E1,2E0,8E0,1.2E1],"tree_param":{"num_deleted":"0","num_feature":"4","num_nodes":"63","size_leaf_vector":"1"}},{"base_weights":[1.3368521E-4,-1.0293819E-3,2.721418E-1,-4.310292E-2,7.674485E-3,7.310986E-1,-3.9787196E-2,-4.7615744E-2,1.4117761E0,8.4344015E-2,5.6935044E-4,-2.1039899E-1,9.2140716E-1,-1.6537756E0,2.3142126E-1,-4.2028517E-2,-4.3918583E-1,5.517483E-1,1.9443227E-2,-8.4810145E-2,2.7722195E-1,-1.2446764E-1,1.0711237E-2,1.2754813E-1,-2.2222768E-1,-6.3456215E-2,3.4419495E-1,-5.9800386E-1,-1.4619513E-1,4.577774E-1,-2.5761962E-2,-1.552587E-2,1.543841E-1,-5.254185E-2,1.7980076E-1,1.2888215E-1,-1.6278225E-1,-8.243121E-3,-1.9592725E-1,2.2241089E-1,1.8270242E-3,-8.084879E-2,5.2293494E-2,3.1841624E-1,-7.706472E-2],"categories":[],"categories_nodes":[],"categories_segments":[],"categories_sizes":[],"default_left":[0,0,0,0,0,0,0,0,0,0,0,0,0,0,0,0,0,0,0,0,0,0,0,0,0,0,0,0,0,0,0,0,0,0,0,0,0,0,0,0,0,0,0,0,0],"id":26,"left_children":[1,3,5,7,9,11,13,15,17,19,21,23,25,27,29,31,-1,-1,-1,33,35,37,39,-1,-1,41,-1,-1,-1,-1,43,-1,-1,-1,-1,-1,-1,-1,-1,-1,-1,-1,-1,-1,-1],"loss_changes":[2.3777535E0,2.7409902E0,4.6102705E0,8.490902E0,3.3784752E0,2.523139E0,9.137265E0,1.0067617E1,2.1834927E0,1.7184843E1,7.2003994E0,1.3261671E0,2.5201912E0,2.168932E-1,6.0319524E0,6.9336224E0,0E0,0E0,0E0,1.7470335E1,3.0965864E1,2.1823696E1,1.7728792E1,0E0,0E0,1.9394517E-1,0E0,0E0,0E0,0E0,4.2928505E0,0E0,0E0,0E0,0E0,0E0,0E0,0E0,0E0,0E0,0E0,0E0,0E0,0E0,0E0],"parents":[2147483647,0,0,1,1,2,2,3,3,4,4,5,5,6,6,7,7,8,8,9,9,10,10,11,11,12,12,13,13,14,14,15,15,19,19,20,20,21,21,22,22,25,25,30,30],"right_children":[2,4,6,8,10,12,14,16,18,20,22,24,26,28,30,32,-1,-1,-1,34,36,38,40,-1,-1,42,-1,-1,-1,-1,44,-1,-1,-1,-1,-1,-1,-1,-1,-1,-1,-1,-1,-1,-1],"split_conditions":[1.1E1,2.5E0,4.04E2,4.96E2,3.6111112E0,3.67E2,4.06E2,4.89E2,5.09E2,-3.6739403E-16,4.4444447E0,3.62E2,-1.9444444E0,4.05E2,4.07E2,4.57E2,-4.3918583E-1,5.517483E-1,1.9443227E-2,3.0555556E0,7.524443E0,4.47E2,5E0,1.2754813E-1,-2.2222768E-1,3.81E2,3.4419495E-1,-5.9800386E-1,-1.4619513E-1,4.577774E-1,2.5E0,-1.552587E-2,1.543841E-1,-5.254185E-2,1.7980076E-1,1.2888215E-1,-1.6278225E-1,-8.243121E-3,-1.9592725E-1,2.2241089E-1,1.8270242E-3,-8.084879E-2,5.2293494E-2,3.1841624E-1,-7.706472E-2],"split_indices":[3,2,0,0,2,0,0,0,0,3,2,0,2,0,0,0,0,0,0,2,3,0,2,0,0,0,0,0,0,0,2,0,0,0,0,0,0,0,0,0,0,0,0,0,0],"split_type":[0,0,0,0,0,0,0,0,0,0,0,0,0,0,0,0,0,0,0,0,0,0,0,0,0,0,0,0,0,0,0,0,0,0,0,0,0,0,0,0,0,0,0,0,0],"sum_hessian":[7.514E3,7.483E3,3.1E1,1.282E3,6.201E3,1.2E1,1.9E1,1.279E3,3E0,5.25E2,5.676E3,2E0,1E1,2E0,1.7E1,1.275E3,4E0,2E0,1E0,2.8E2,2.45E2,4.25E2,5.251E3,1E0,1E0,2E0,8E0,1E0,1E0,2E0,1.5E1,1.254E3,2.1E1,2.48E2,3.2E1,2.07E2,3.8E1,3.6E2,6.5E1,3.2E1,5.219E3,1E0,1E0,2E0,1.3E1],"tree_param":{"num_deleted":"0","num_feature":"4","num_nodes":"45","size_leaf_vector":"1"}},{"base_weights":[1.6800125E-4,6.6473294E-4,-5.327072E-1,-5.280696E-4,2.4156065E-1,-2.912895E-1,-2.272503E-1,7.1288776E-3,-3.2529816E-2,4.384836E-1,-4.1980892E-1,2.6552297E-2,-1.22509725E-1,2.0023654E-3,2.310097E-1,-2.1898998E-1,-3.909304E-3,-2.2403184E-1,5.5344737E-1,1.6246557E-1,-7.3802376E-1,1.7251325E-3,-8.790253E-2,4.05608E-1,5.051657E-2,1.2000989E-1,-9.29409E-2,-1.3858723E-2,2.453897E-2,9.468575E-2,-2.0670168E-1,9.297487E-2,2.3743393E-1,1.1930447E-1,-8.147736E-2,-3.4902936E-1,2.2558212E-2],"categories":[],"categories_nodes":[],"categories_segments":[],"categories_sizes":[],"default_left":[0,0,0,0,0,0,0,0,0,0,0,0,0,0,0,0,0,0,0,0,0,0,0,0,0,0,0,0,0,0,0,0,0,0,0,0,0],"id":27,"left_children":[1,3,5,7,9,11,-1,13,15,17,19,-1,-1,21,23,25,27,29,31,33,35,-1,-1,-1,-1,-1,-1,-1,-1,-1,-1,-1,-1,-1,-1,-1,-1],"loss_changes":[1.9895447E0,2.1577733E0,1.5923226E-1,1.8313835E0,5.0029173E0,2.5846952E-1,0E0,6.921484E0,7.6998363E0,2.3327818E0,1.7874988E0,0E0,0E0,6.5221324E0,9.249246E0,1.09172735E1,4.5412717E0,1.472081E0,1.2037215E0,5.1639515E-1,2.1631768E0,0E0,0E0,0E0,0E0,0E0,0E0,0E0,0E0,0E0,0E0,0E0,0E0,0E0,0E0,0E0,0E0],"parents":[2147483647,0,0,1,1,2,2,3,3,4,4,5,5,7,7,8,8,9,9,10,10,13,13,14,14,15,15,16,16,17,17,18,18,19,19,20,20],"right_children":[2,4,6,8,10,12,-1,14,16,18,20,-1,-1,22,24,26,28,30,32,34,36,-1,-1,-1,-1,-1,-1,-1,-1,-1,-1,-1,-1,-1,-1,-1,-1],"split_conditions":[3.3812E4,2.054E4,-1.9411428E0,5.03E2,3.4202015E0,6.6666665E0,-2.272503E-1,4.98E2,5.09E2,-1.1111112E0,2.1488E4,2.6552297E-2,-1.22509725E-1,4.95E2,5.5555553E0,-6.840403E0,1.5E1,3.8E2,2.3384E4,3.96E2,4.89E2,1.7251325E-3,-8.790253E-2,4.05608E-1,5.051657E-2,1.2000989E-1,-9.29409E-2,-1.3858723E-2,2.453897E-2,9.468575E-2,-2.0670168E-1,9.297487E-2,2.3743393E-1,1.1930447E-1,-8.147736E-2,-3.4902936E-1,2.2558212E-2],"split_indices":[1,1,3,0,3,2,0,0,0,2,1,0,0,0,2,3,2,0,1,0,0,0,0,0,0,0,0,0,0,0,0,0,0,0,0,0,0],"split_type":[0,0,0,0,0,0,0,0,0,0,0,0,0,0,0,0,0,0,0,0,0,0,0,0,0,0,0,0,0,0,0,0,0,0,0,0,0],"sum_hessian":[7.514E3,7.508E3,6E0,7.472E3,3.6E1,4E0,2E0,6.03E3,1.442E3,2.8E1,8E0,1E0,3E0,5.896E3,1.34E2,1.91E2,1.251E3,4E0,2.4E1,3E0,5E0,5.823E3,7.3E1,6E0,1.28E2,2.4E1,1.67E2,8.38E2,4.13E2,2E0,2E0,1.3E1,1.1E1,2E0,1E0,3E0,2E0],"tree_param":{"num_deleted":"0","num_feature":"4","num_nodes":"37","size_leaf_vector":"1"}},{"base_weights":[1.20250654E-4,-1.216924E-2,2.0878235E-2,-4.057613E-3,-4.2483708E-1,1.462318E-1,-5.2416003E-3,-1.6444972E-2,9.519374E-2,-1.0029228E0,2.4379171E-1,-3.4652665E-1,1.8440215E-1,2.4099796E-1,-1.5084403E-2,1.0377265E-2,-1.2034977E-1,-5.760048E-2,1.8647975E-1,-2.1127121E0,-9.512687E-2,-3.1620237E-1,4.8273242E-1,7.070973E-1,-4.9536514E-1,2.6647255E-1,-9.660597E-2,-1.8064648E-1,5.3080636E-1,-6.8550976E-3,-3.883463E-1,-1.2771906E-3,1.3694732E-1,4.589713E-2,-5.7901733E-2,9.701759E-2,-5.1683623E-2,1.1444139E-1,9.645982E-4,2.958508E-1,-7.961739E-1,-2.048364E-1,9.7586535E-2,2.9104137E-1,-4.432583E-2,-2.7862588E-1,1.5072943E-2,1.5591393E-3,1.07798256E-1,7.133896E-2,-1.3474216E-1,9.708584E-2,-1.0628694E-1,3.8683215E-1,1.2195738E-1,9.4139956E-2,-4.406229E-3,-2.687854E-1,1.1892277E-2],"categories":[],"categories_nodes":[],"categories_segments":[],"categories_sizes":[],"default_left":[0,0,0,0,0,0,0,0,0,0,0,0,0,0,0,0,0,0,0,0,0,0,0,0,0,0,0,0,0,0,0,0,0,0,0,0,0,0,0,0,0,0,0,0,0,0,0,0,0,0,0,0,0,0,0,0,0,0,0],"id":28,"left_children":[1,3,5,7,9,11,13,15,17,19,21,23,25,27,29,31,33,35,37,39,41,-1,43,-1,45,47,49,51,53,55,57,-1,-1,-1,-1,-1,-1,-1,-1,-1,-1,-1,-1,-1,-1,-1,-1,-1,-1,-1,-1,-1,-1,-1,-1,-1,-1,-1,-1],"loss_changes":[1.9173684E0,1.5801388E1,9.152196E0,5.6952043E0,3.541826E1,9.129721E0,5.6120477E0,1.1477947E1,7.1799994E0,4.916467E1,1.3842981E1,1.5251131E1,1.035772E1,1.0971342E1,6.834912E0,2.1376846E1,1.6811066E1,8.488183E0,1.1505446E1,3.951378E1,7.139831E0,0E0,1.1513512E1,0E0,8.086302E0,8.416597E0,1.2131424E1,3.354464E0,4.472885E0,5.4771147E0,1.0463442E1,0E0,0E0,0E0,0E0,0E0,0E0,0E0,0E0,0E0,0E0,0E0,0E0,0E0,0E0,0E0,0E0,0E0,0E0,0E0,0E0,0E0,0E0,0E0,0E0,0E0,0E0,0E0,0E0],"parents":[2147483647,0,0,1,1,2,2,3,3,4,4,5,5,6,6,7,7,8,8,9,9,10,10,11,11,12,12,13,13,14,14,15,15,16,16,17,17,18,18,19,19,20,20,22,22,24,24,25,25,26,26,27,27,28,28,29,29,30,30],"right_children":[2,4,6,8,10,12,14,16,18,20,22,24,26,28,30,32,34,36,38,40,42,-1,44,-1,46,48,50,52,54,56,58,-1,-1,-1,-1,-1,-1,-1,-1,-1,-1,-1,-1,-1,-1,-1,-1,-1,-1,-1,-1,-1,-1,-1,-1,-1,-1,-1,-1],"split_conditions":[4.58E2,4.56E2,4.72E2,5.142301E0,8.055555E0,-1.1570177E1,5.5555553E0,1.2155372E0,3.0555556E0,-2.952019E0,-1.6469955E1,6.6666665E0,4.5E0,3.3333333E0,8E0,1.3073361E-1,1.9444444E0,6.0621777E0,6.9444447E0,-1.1410693E1,2.7361612E0,-3.1620237E-1,-4.3412046E0,7.070973E-1,4.64E2,7.5E0,8.888889E0,4.77E2,4.77E2,-1.7320509E1,1.3055555E1,-1.2771906E-3,1.3694732E-1,4.589713E-2,-5.7901733E-2,9.701759E-2,-5.1683623E-2,1.1444139E-1,9.645982E-4,2.958508E-1,-7.961739E-1,-2.048364E-1,9.7586535E-2,2.9104137E-1,-4.432583E-2,-2.7862588E-1,1.5072943E-2,1.5591393E-3,1.07798256E-1,7.133896E-2,-1.3474216E-1,9.708584E-2,-1.0628694E-1,3.8683215E-1,1.2195738E-1,9.4139956E-2,-4.406229E-3,-2.687854E-1,1.1892277E-2],"split_indices":[0,0,0,3,2,3,2,3,2,3,3,2,3,2,3,3,2,3,2,3,3,0,3,0,0,2,2,0,0,3,2,0,0,0,0,0,0,0,0,0,0,0,0,0,0,0,0,0,0,0,0,0,0,0,0,0,0,0,0],"split_type":[0,0,0,0,0,0,0,0,0,0,0,0,0,0,0,0,0,0,0,0,0,0,0,0,0,0,0,0,0,0,0,0,0,0,0,0,0,0,0,0,0,0,0,0,0,0,0,0,0,0,0,0,0,0,0,0,0,0,0],"sum_hessian":[7.514E3,4.72E3,2.794E3,4.63E3,9E1,4.81E2,2.313E3,4.117E3,5.13E2,4.8E1,4.2E1,3.4E1,4.47E2,8.8E1,2.225E3,3.273E3,8.44E2,1.92E2,3.21E2,2.1E1,2.7E1,6E0,3.6E1,1E0,3.3E1,3.46E2,1.01E2,3.6E1,5.2E1,2.178E3,4.7E1,3.17E3,1.03E2,1.77E2,6.67E2,4.4E1,1.48E2,1.55E2,1.66E2,3E0,1.8E1,1.1E1,1.6E1,2E1,1.6E1,1.8E1,1.5E1,9.1E1,2.55E2,5.2E1,4.9E1,9E0,2.7E1,6E0,4.6E1,5.1E1,2.127E3,2.1E1,2.6E1],"tree_param":{"num_deleted":"0","num_feature":"4","num_nodes":"59","size_leaf_vector":"1"}},{"base_weights":[1.4154658E-4,-1.8241066E-2,1.3815448E-2,4.8143465E-2,-5.2889735E-2,1.2891138E-1,1.7151794E-3,2.8110858E-2,6.9501257E-1,-1.1076001E0,-4.3780796E-2,6.8016803E-1,6.2469408E-2,-4.82817E-2,3.4346893E-2,-1.224148E-2,2.3985523E-1,1.0145636E0,-2.6985252E-1,-5.2031493E-1,1.2511335E-1,-4.416072E-1,-2.936796E-2,9.367099E-1,-8.2002796E-2,-1.0304589E0,8.9694716E-2,-2.8425324E-1,4.5692953E-3,1.8355593E-1,1.7786769E-3,4.445257E-3,-9.547449E-2,5.561528E-2,2.6628804E-1,2.486082E-2,3.9132637E-1,-1.011963E-2,-9.9749E-2,-2.8470027E-1,3.5038477E-1,3.3454022E-3,-2.6472914E-1,9.758411E-3,-3.5022467E-2,1.3502745E-1,3.9516607E-1,-2.5150672E-1,1.2029043E-1,-6.6861343E-1,-1.10914096E-1,1.19389435E-2,1.6964781E-1,-7.1031645E-2,-6.3472724E-1,-6.61631E-3,6.051943E-2,-1.4002757E-1,7.0315786E-2,7.740176E-3,-3.678621E-2],"categories":[],"categories_nodes":[],"categories_segments":[],"categories_sizes":[],"default_left":[0,0,0,0,0,0,0,0,0,0,0,0,0,0,0,0,0,0,0,0,0,0,0,0,0,0,0,0,0,0,0,0,0,0,0,0,0,0,0,0,0,0,0,0,0,0,0,0,0,0,0,0,0,0,0,0,0,0,0,0,0],"id":29,"left_children":[1,3,5,7,9,11,13,15,17,19,21,23,25,27,29,31,33,35,37,-1,39,41,43,45,47,49,51,53,55,57,59,-1,-1,-1,-1,-1,-1,-1,-1,-1,-1,-1,-1,-1,-1,-1,-1,-1,-1,-1,-1,-1,-1,-1,-1,-1,-1,-1,-1,-1,-1],"loss_changes":[1.8892376E0,7.3767805E0,6.0022798E0,1.4234785E1,2.0194069E1,1.4974407E1,6.366077E0,9.128336E0,1.0448461E1,1.412458E1,1.1970688E1,8.6800785E0,1.1012624E1,1.9219618E1,1.1472887E1,7.440371E0,5.8691397E0,6.6433716E0,1.2190819E-1,0E0,8.949259E0,1.4579651E1,1.0917294E1,5.517517E0,4.7197104E0,6.301672E0,8.500688E0,2.4022282E1,6.6184134E0,1.4091875E1,5.7974977E0,0E0,0E0,0E0,0E0,0E0,0E0,0E0,0E0,0E0,0E0,0E0,0E0,0E0,0E0,0E0,0E0,0E0,0E0,0E0,0E0,0E0,0E0,0E0,0E0,0E0,0E0,0E0,0E0,0E0,0E0],"parents":[2147483647,0,0,1,1,2,2,3,3,4,4,5,5,6,6,7,7,8,8,9,9,10,10,11,11,12,12,13,13,14,14,15,15,16,16,17,17,18,18,20,20,21,21,22,22,23,23,24,24,25,25,26,26,27,27,28,28,29,29,30,30],"right_children":[2,4,6,8,10,12,14,16,18,20,22,24,26,28,30,32,34,36,38,-1,40,42,44,46,48,50,52,54,56,58,60,-1,-1,-1,-1,-1,-1,-1,-1,-1,-1,-1,-1,-1,-1,-1,-1,-1,-1,-1,-1,-1,-1,-1,-1,-1,-1,-1,-1,-1,-1],"split_conditions":[7.2222223E0,3.91E2,7.7777777E0,3.9E2,-1.4141328E1,-1.1490666E1,-4.648801E0,5E0,4.4444447E0,3.99E2,3.94E2,2.843E3,-1.0724622E1,9.444445E0,9.444445E0,3.87E2,3.125667E0,-7.7942286E0,-1.8793852E1,-5.2031493E-1,4.107E3,3.0555556E0,7.9602044E-16,-1.5035082E1,7.9E3,3.98E2,7.5E0,-4.788282E0,3.476E3,3.86E2,5.4723225E0,4.445257E-3,-9.547449E-2,5.561528E-2,2.6628804E-1,2.486082E-2,3.9132637E-1,-1.011963E-2,-9.9749E-2,-2.8470027E-1,3.5038477E-1,3.3454022E-3,-2.6472914E-1,9.758411E-3,-3.5022467E-2,1.3502745E-1,3.9516607E-1,-2.5150672E-1,1.2029043E-1,-6.6861343E-1,-1.10914096E-1,1.19389435E-2,1.6964781E-1,-7.1031645E-2,-6.3472724E-1,-6.61631E-3,6.051943E-2,-1.4002757E-1,7.0315786E-2,7.740176E-3,-3.678621E-2],"split_indices":[2,0,2,0,3,3,3,2,2,0,0,1,3,2,2,0,3,3,3,0,1,2,3,3,1,0,2,3,1,0,3,0,0,0,0,0,0,0,0,0,0,0,0,0,0,0,0,0,0,0,0,0,0,0,0,0,0,0,0,0,0],"split_type":[0,0,0,0,0,0,0,0,0,0,0,0,0,0,0,0,0,0,0,0,0,0,0,0,0,0,0,0,0,0,0,0,0,0,0,0,0,0,0,0,0,0,0,0,0,0,0,0,0,0,0,0,0,0,0,0,0,0,0,0,0],"sum_hessian":[7.514E3,3.205E3,4.309E3,1.099E3,2.106E3,4.09E2,3.9E3,1.067E3,3.2E1,1.7E1,2.089E3,4.3E1,3.66E2,1.54E3,2.36E3,8.97E2,1.7E2,2.4E1,8E0,1.1E1,6E0,7.2E1,2.017E3,3.2E1,1.1E1,8E0,3.58E2,2.81E2,1.259E3,4.22E2,1.938E3,8.25E2,7.2E1,1.58E2,1.2E1,6E0,1.8E1,2E0,6E0,3E0,3E0,3.6E1,3.6E1,1.181E3,8.36E2,1.5E1,1.7E1,4E0,7E0,2E0,6E0,3.25E2,3.3E1,2.75E2,6E0,1.11E3,1.49E2,3E1,3.92E2,1.625E3,3.13E2],"tree_param":{"num_deleted":"0","num_feature":"4","num_nodes":"61","size_leaf_vector":"1"}},{"base_weights":[-5.4306518E-5,-9.909522E-3,4.5951605E-2,-7.5319037E-3,-4.532872E-1,7.4371094E-1,3.3064287E-2,-1.0181305E-2,2.4894874E-1,3.5113844E-1,-1.0645028E0,1.0657618E0,2.6621783E-1,4.541837E-1,1.7986098E-2,-1.1268168E-3,-1.5444635E-1,3.8890365E-1,-9.2624825E-1,-3.5395414E-1,1.4677696E0,-1.8461066E0,-1.7644882E-1,1.9921112E-1,2.1879609E0,-2.4481936E-1,1.0012455E0,2.6975992E-1,1.072691E0,-4.0160242E-1,