{"learner":{"attributes":{"scikit_learn":"{\"_estimator_type\": \"regressor\"}"},"feature_names":[],"feature_types":[],"gradient_booster":{"model":{"gbtree_model_param":{"num_parallel_tree":"1","num_trees":"50"},"iteration_indptr":[0,1,2,3,4,5,6,7,8,9,10,11,12,13,14,15,16,17,18,19,20,21,22,23,24,25,26,27,28,29,30,31,32,33,34,35,36,37,38,39,40,41,42,43,44,45,46,47,48,49,50],"tree_info":[0,0,0,0,0,0,0,0,0,0,0,0,0,0,0,0,0,0,0,0,0,0,0,0,0,0,0,0,0,0,0,0,0,0,0,0,0,0,0,0,0,0,0,0,0,0,0,0,0,0],"trees":[{"base_weights":[5.264587E-7,-5.35955E0,1.6926645E0,-8.525348E0,-3.0641172E0,1.8674556E-2,3.1571524E0,-2.845934E0,-2.254629E0,-1.1276885E0,-6.9533926E-1,-2.9989856E-1,2.3287168E-1,7.3796105E-1,1.2717607E0],"categories":[],"categories_nodes":[],"categories_segments":[],"categories_sizes":[],"default_left":[0,0,0,0,0,0,0,0,0,0,0,0,0,0,0],"id":0,"left_children":[1,3,5,7,9,11,13,-1,-1,-1,-1,-1,-1,-1,-1],"loss_changes":[3.8628227E4,7.400623E3,7.933117E3,3.4510352E2,2.9932227E2,1.166445E3,1.2918301E3,0E0,0E0,0E0,0E0,0E0,0E0,0E0,0E0],"parents":[2147483647,0,0,1,1,2,2,3,3,4,4,5,5,6,6],"right_children":[2,4,6,8,10,12,14,-1,-1,-1,-1,-1,-1,-1,-1],"split_conditions":[1.54E1,1.12E1,1.9E1,8.9E0,1.44E1,1.73E1,2.08E1,-2.845934E0,-2.254629E0,-1.1276885E0,-6.9533926E-1,-2.9989856E-1,2.3287168E-1,7.3796105E-1,1.2717607E0],"split_indices":[4,4,4,4,4,4,4,0,0,0,0,0,0,0,0],"split_type":[0,0,0,0,0,0,0,0,0,0,0,0,0,0,0],"sum_hessian":[4.256E3,1.021E3,3.235E3,4.28E2,5.93E2,1.51E3,1.725E3,2.15E2,2.13E2,3.05E2,2.88E2,6.44E2,8.66E2,1.051E3,6.74E2],"tree_param":{"num_deleted":"0","num_feature":"5","num_nodes":"15","size_leaf_vector":"1"}},{"base_weights":[-1.1697112E-3,-3.1705756E0,1.4321977E0,-5.9319267E0,-1.7784911E0,5.407586E-1,2.5385864E0,-2.1950445E0,-1.6328092E0,-7.452475E-1,-4.0830594E-1,-2.4512578E-2,3.1008202E-1,6.7622733E-1,1.1693816E0],"categories":[],"categories_nodes":[],"categories_segments":[],"categories_sizes":[],"default_left":[0,0,0,0,0,0,0,0,0,0,0,0,0,0,0],"id":1,"left_children":[1,3,5,7,9,11,13,-1,-1,-1,-1,-1,-1,-1,-1],"loss_changes":[1.9343764E4,5.0866377E3,2.8903945E3,2.61E2,2.567473E2,4.9860468E2,4.9705664E2,0E0,0E0,0E0,0E0,0E0,0E0,0E0,0E0],"parents":[2147483647,0,0,1,1,2,2,3,3,4,4,5,5,6,6],"right_children":[2,4,6,8,10,12,14,-1,-1,-1,-1,-1,-1,-1,-1],"split_conditions":[1.63E1,1.18E1,1.97E1,8.3E0,1.46E1,1.81E1,2.18E1,-2.1950445E0,-1.6328092E0,-7.452475E-1,-4.0830594E-1,-2.4512578E-2,3.1008202E-1,6.7622733E-1,1.1693816E0],"split_indices":[4,4,4,4,4,4,4,0,0,0,0,0,0,0,0],"split_type":[0,0,0,0,0,0,0,0,0,0,0,0,0,0,0],"sum_hessian":[4.256E3,1.325E3,2.931E3,4.43E2,8.82E2,1.624E3,1.307E3,1.12E2,3.31E2,3.26E2,5.56E2,7.18E2,9.06E2,1.083E3,2.24E2],"tree_param":{"num_deleted":"0","num_feature":"5","num_nodes":"15","size_leaf_vector":"1"}},{"base_weights":[-1.488174E-3,-2.3975387E0,9.36574E-1,-4.2756443E0,-1.4149258E0,3.7187424E-1,1.8980308E0,-1.3868868E0,-1.0057629E0,-6.5635324E-1,-3.4396103E-1,-6.173734E-2,2.2330673E-1,5.234155E-1,1.0238184E0],"categories":[],"categories_nodes":[],"categories_segments":[],"categories_sizes":[],"default_left":[0,0,0,0,0,0,0,0,0,0,0,0,0,0,0],"id":2,"left_children":[1,3,5,7,9,11,13,-1,-1,-1,-1,-1,-1,-1,-1],"loss_changes":[9.570467E3,2.2048003E3,1.6606738E3,1.1626953E2,1.6095654E2,4.1521548E2,2.5692065E2,0E0,0E0,0E0,0E0,0E0,0E0,0E0,0E0],"parents":[2147483647,0,0,1,1,2,2,3,3,4,4,5,5,6,6],"right_children":[2,4,6,8,10,12,14,-1,-1,-1,-1,-1,-1,-1,-1],"split_conditions":[1.59E1,1.07E1,2E1,9.5E0,1.38E1,1.79E1,2.24E1,-1.3868868E0,-1.0057629E0,-6.5635324E-1,-3.4396103E-1,-6.173734E-2,2.2330673E-1,5.234155E-1,1.0238184E0],"split_indices":[4,4,4,4,4,4,4,0,0,0,0,0,0,0,0],"split_type":[0,0,0,0,0,0,0,0,0,0,0,0,0,0,0],"sum_hessian":[4.256E3,1.197E3,3.059E3,4.1E2,7.87E2,1.928E3,1.131E3,2.95E2,1.15E2,2.01E2,5.86E2,7.56E2,1.172E3,1.029E3,1.02E2],"tree_param":{"num_deleted":"0","num_feature":"5","num_nodes":"15","size_leaf_vector":"1"}},{"base_weights":[-1.4371825E-3,-1.4578791E0,7.672846E-1,-2.8617542E0,-7.8130955E-1,4.0895274E-1,1.4152651E0,-1.1731212E0,-7.7743065E-1,-2.8412178E-1,1.4078976E-1,3.1786535E-2,2.0341992E-1,4.0043706E-1,9.480862E-1],"categories":[],"categories_nodes":[],"categories_segments":[],"categories_sizes":[],"default_left":[0,0,0,0,0,0,0,0,0,0,0,0,0,0,0],"id":3,"left_children":[1,3,5,7,9,11,13,-1,-1,-1,-1,-1,-1,-1,-1],"loss_changes":[4.7672495E3,1.394948E3,6.4654065E2,1.25364746E2,2.0650531E2,1.463754E2,1.3508875E2,0E0,0E0,0E0,0E0,0E0,0E0,0E0,0E0],"parents":[2147483647,0,0,1,1,2,2,3,3,4,4,5,5,6,6],"right_children":[2,4,6,8,10,12,14,-1,-1,-1,-1,-1,-1,-1,-1],"split_conditions":[1.67E1,1.27E1,2.02E1,7.8E0,2.35E1,1.86E1,2.31E1,-1.1731212E0,-7.7743065E-1,-2.8412178E-1,1.4078976E-1,3.1786535E-2,2.0341992E-1,4.0043706E-1,9.480862E-1],"split_indices":[4,4,4,4,1,4,4,0,0,0,0,0,0,0,0],"split_type":[0,0,0,0,0,0,0,0,0,0,0,0,0,0,0],"sum_hessian":[4.256E3,1.47E3,2.786E3,4.77E2,9.93E2,1.795E3,9.91E2,9.5E1,3.82E2,8.77E2,1.16E2,8.45E2,9.5E2,9.49E2,4.2E1],"tree_param":{"num_deleted":"0","num_feature":"5","num_nodes":"15","size_leaf_vector":"1"}},{"base_weights":[-1.1257629E-3,-1.424832E0,4.049725E-1,-2.2792022E0,-9.3648404E-1,9.95055E-3,8.228063E-1,-9.0862644E-1,-6.328753E-1,-3.1464142E-1,4.1107666E-2,-4.7974825E-2,1.2105979E-1,1.9799198E-1,4.189789E-1],"categories":[],"categories_nodes":[],"categories_segments":[],"categories_sizes":[],"default_left":[0,0,0,0,0,0,0,0,0,0,0,0,0,0,0],"id":4,"left_children":[1,3,5,7,9,11,13,-1,-1,-1,-1,-1,-1,-1,-1],"loss_changes":[2.461824E3,3.9214795E2,5.468141E2,3.721875E1,7.285181E1,1.13987946E2,1.4950378E2,0E0,0E0,0E0,0E0,0E0,0E0,0E0,0E0],"parents":[2147483647,0,0,1,1,2,2,3,3,4,4,5,5,6,6],"right_children":[2,4,6,8,10,12,14,-1,-1,-1,-1,-1,-1,-1,-1],"split_conditions":[1.52E1,1.01E1,1.92E1,7.2E0,2.07E1,2.82E1,2.14E1,-9.0862644E-1,-6.328753E-1,-3.1464142E-1,4.1107666E-2,-4.7974825E-2,1.2105979E-1,1.9799198E-1,4.189789E-1],"split_indices":[4,4,4,4,1,1,4,0,0,0,0,0,0,0,0],"split_type":[0,0,0,0,0,0,0,0,0,0,0,0,0,0,0],"sum_hessian":[4.256E3,9.44E2,3.312E3,3.42E2,6.02E2,1.703E3,1.609E3,6E1,2.82E2,5.45E2,5.7E1,1.19E3,5.13E2,1.255E3,3.54E2],"tree_param":{"num_deleted":"0","num_feature":"5","num_nodes":"15","size_leaf_vector":"1"}},{"base_weights":[-1.0523094E-3,-7.8162766E-1,3.680406E-1,-1.3873094E0,-3.880874E-1,1.971502E-1,7.5453955E-1,-4.9328843E-1,-3.1001016E-1,-1.3780245E-1,8.56985E-2,1.1725216E-3,1.0014422E-1,2.140749E-1,8.810866E-1],"categories":[],"categories_nodes":[],"categories_segments":[],"categories_sizes":[],"default_left":[0,0,0,0,0,0,0,0,0,0,0,0,0,0,0],"id":5,"left_children":[1,3,5,7,9,11,13,-1,-1,-1,-1,-1,-1,-1,-1],"loss_changes":[1.2267499E3,3.2529993E2,1.907987E2,4.7236206E1,3.9977356E1,5.297547E1,7.7098755E1,0E0,0E0,0E0,0E0,0E0,0E0,0E0,0E0],"parents":[2147483647,0,0,1,1,2,2,3,3,4,4,5,5,6,6],"right_children":[2,4,6,8,10,12,14,-1,-1,-1,-1,-1,-1,-1,-1],"split_conditions":[1.64E1,1.33E1,2.04E1,9.7E0,2.59E1,1.84E1,2.4E1,-4.9328843E-1,-3.1001016E-1,-1.3780245E-1,8.56985E-2,1.1725216E-3,1.0014422E-1,2.140749E-1,8.810866E-1],"split_indices":[4,4,4,4,1,4,4,0,0,0,0,0,0,0,0],"split_type":[0,0,0,0,0,0,0,0,0,0,0,0,0,0,0],"sum_hessian":[4.256E3,1.366E3,2.89E3,5.37E2,8.29E2,2.005E3,8.85E2,3.09E2,2.28E2,7.5E2,7.9E1,8.31E2,1.174E3,8.7E2,1.5E1],"tree_param":{"num_deleted":"0","num_feature":"5","num_nodes":"15","size_leaf_vector":"1"}},{"base_weights":[-6.5652176E-4,-8.737066E-1,1.6701229E-1,-1.1922506E0,-6.6282064E-1,-9.72608E-2,3.6103085E-1,-5.445866E-1,-3.211758E-1,-2.225227E-1,4.1905448E-2,-5.727666E-2,7.370851E-2,6.199671E-2,1.9153725E-1],"categories":[],"categories_nodes":[],"categories_segments":[],"categories_sizes":[],"default_left":[0,0,0,0,0,0,0,0,0,0,0,0,0,0,0],"id":6,"left_children":[1,3,5,7,9,11,13,-1,-1,-1,-1,-1,-1,-1,-1],"loss_changes":[6.232995E2,4.5292786E1,1.8318542E2,1.8674652E1,2.6387665E1,4.864707E1,8.809326E1,0E0,0E0,0E0,0E0,0E0,0E0,0E0,0E0],"parents":[2147483647,0,0,1,1,2,2,3,3,4,4,5,5,6,6],"right_children":[2,4,6,8,10,12,14,-1,-1,-1,-1,-1,-1,-1,-1],"split_conditions":[1.41E1,9.3E0,1.84E1,6.9E0,1.92E1,2.68E1,1.3888889E1,-5.445866E-1,-3.211758E-1,-2.225227E-1,4.1905448E-2,-5.727666E-2,7.370851E-2,6.199671E-2,1.9153725E-1],"split_indices":[4,4,4,4,1,1,2,0,0,0,0,0,0,0,0],"split_type":[0,0,0,0,0,0,0,0,0,0,0,0,0,0,0],"sum_hessian":[4.256E3,6.85E2,3.571E3,2.71E2,4.14E2,1.512E3,2.059E3,4.2E1,2.29E2,3.77E2,3.7E1,1.188E3,3.24E2,1.324E3,7.35E2],"tree_param":{"num_deleted":"0","num_feature":"5","num_nodes":"15","size_leaf_vector":"1"}},{"base_weights":[-6.4205425E-4,-3.608637E-1,2.0869604E-1,-6.870926E-1,-1.7585725E-1,1.402387E-1,5.579606E-1,-3.4573188E-1,-1.8508077E-1,-6.755876E-2,6.885534E-2,2.060398E-2,8.7938204E-2,1.5373042E-1,6.8730766E-1],"categories":[],"categories_nodes":[],"categories_segments":[],"categories_sizes":[],"default_left":[0,0,0,0,0,0,0,0,0,0,0,0,0,0,0],"id":7,"left_children":[1,3,5,7,9,11,13,-1,-1,-1,-1,-1,-1,-1,-1],"loss_changes":[3.2108762E2,9.433388E1,6.431063E1,1.7767365E1,2.0052319E1,2.4628868E1,3.3620636E1,0E0,0E0,0E0,0E0,0E0,0E0,0E0,0E0],"parents":[2147483647,0,0,1,1,2,2,3,3,4,4,5,5,6,6],"right_children":[2,4,6,8,10,12,14,-1,-1,-1,-1,-1,-1,-1,-1],"split_conditions":[1.7E1,1.35E1,2.12E1,7.5E0,2.63E1,1.2777778E1,2.48E1,-3.4573188E-1,-1.8508077E-1,-6.755876E-2,6.885534E-2,2.060398E-2,8.7938204E-2,1.5373042E-1,6.8730766E-1],"split_indices":[4,4,4,4,1,2,4,0,0,0,0,0,0,0,0],"split_type":[0,0,0,0,0,0,0,0,0,0,0,0,0,0,0],"sum_hessian":[4.256E3,1.564E3,2.692E3,5.65E2,9.99E2,2.252E3,4.4E2,7.2E1,4.93E2,8.91E2,1.08E2,1.535E3,7.17E2,4.3E2,1E1],"tree_param":{"num_deleted":"0","num_feature":"5","num_nodes":"15","size_leaf_vector":"1"}},{"base_weights":[-3.5061454E-4,-3.786724E-1,1.00332804E-1,-5.71299E-1,-2.3543084E-1,3.174997E-2,3.4508193E-1,-3.1418028E-1,-1.5873316E-1,-7.331946E-2,6.560678E-1,-2.2491142E-2,7.207165E-2,9.525041E-2,4.699091E-1],"categories":[],"categories_nodes":[],"categories_segments":[],"categories_sizes":[],"default_left":[0,0,0,0,0,0,0,0,0,0,0,0,0,0,0],"id":8,"left_children":[1,3,5,7,9,11,13,-1,-1,-1,-1,-1,-1,-1,-1],"loss_changes":[1.6219023E2,2.456047E1,5.6438988E1,7.096527E0,1.1721207E1,5.8491066E1,2.429383E1,0E0,0E0,0E0,0E0,0E0,0E0,0E0,0E0],"parents":[2147483647,0,0,1,1,2,2,3,3,4,4,5,5,6,6],"right_children":[2,4,6,8,10,12,14,-1,-1,-1,-1,-1,-1,-1,-1],"split_conditions":[1.5E1,1.03E1,1.4444445E1,6.7E0,3.0285E1,4.68E1,2.35E1,-3.1418028E-1,-1.5873316E-1,-7.331946E-2,6.560678E-1,-2.2491142E-2,7.207165E-2,9.525041E-2,4.699091E-1],"split_indices":[4,4,2,4,3,1,4,0,0,0,0,0,0,0,0],"split_type":[0,0,0,0,0,0,0,0,0,0,0,0,0,0,0],"sum_hessian":[4.256E3,8.94E2,3.362E3,3.8E2,5.14E2,2.627E3,7.35E2,2.9E1,3.51E2,5.13E2,1E0,1.738E3,8.89E2,7.2E2,1.5E1],"tree_param":{"num_deleted":"0","num_feature":"5","num_nodes":"15","size_leaf_vector":"1"}},{"base_weights":[-7.506315E-5,-1.8733527E-1,1.0874866E-1,-2.7997532E-1,-2.734633E-2,1.7409582E-2,2.1868514E-1,-1.01133816E-1,2.7347943E-2,-1.4238989E-2,2.7612898E-1,-4.9468353E-2,5.393981E-2,5.6553423E-2,2.1604821E-1],"categories":[],"categories_nodes":[],"categories_segments":[],"categories_sizes":[],"default_left":[0,0,0,0,0,0,0,0,0,0,0,0,0,0,0],"id":9,"left_children":[1,3,5,7,9,11,13,-1,-1,-1,-1,-1,-1,-1,-1],"loss_changes":[8.677102E1,2.3187809E1,2.7037945E1,2.104557E1,1.1006855E1,4.3607204E1,1.8354801E1,0E0,0E0,0E0,0E0,0E0,0E0,0E0,0E0],"parents":[2147483647,0,0,1,1,2,2,3,3,4,4,5,5,6,6],"right_children":[2,4,6,8,10,12,14,-1,-1,-1,-1,-1,-1,-1,-1],"split_conditions":[1.7E1,7.5E0,1.1944445E1,2.41E1,2.49E1,4.68E1,2.27E1,-1.01133816E-1,2.7347943E-2,-1.4238989E-2,2.7612898E-1,-4.9468353E-2,5.393981E-2,5.6553423E-2,2.1604821E-1],"split_indices":[4,2,2,1,1,1,4,0,0,0,0,0,0,0,0],"split_type":[0,0,0,0,0,0,0,0,0,0,0,0,0,0,0],"sum_hessian":[4.256E3,1.564E3,2.692E3,9.9E2,5.74E2,1.471E3,1.221E3,8.58E2,1.32E2,5.63E2,1.1E1,6.93E2,7.78E2,1.153E3,6.8E1],"tree_param":{"num_deleted":"0","num_feature":"5","num_nodes":"15","size_leaf_vector":"1"}},{"base_weights":[5.693113E-5,-1.12703025E-1,1.03865236E-1,-2.2981289E-1,7.265367E-2,-2.2927143E-2,1.5950091E-1,-5.3500406E-2,-1.0777159E-1,-8.853114E-2,2.82568E-2,-4.5580134E-2,4.7976547E-3,4.5995526E-2,3.9751676E-1],"categories":[],"categories_nodes":[],"categories_segments":[],"categories_sizes":[],"default_left":[0,0,0,0,0,0,0,0,0,0,0,0,0,0,0],"id":10,"left_children":[1,3,5,7,9,11,13,-1,-1,-1,-1,-1,-1,-1,-1],"loss_changes":[4.9841675E1,4.432088E1,1.5642775E1,8.270859E0,6.2924366E0,3.4015458E0,1.09013405E1,0E0,0E0,0E0,0E0,0E0,0E0,0E0,0E0],"parents":[2147483647,0,0,1,1,2,2,3,3,4,4,5,5,6,6],"right_children":[2,4,6,8,10,12,14,-1,-1,-1,-1,-1,-1,-1,-1],"split_conditions":[8.333333E0,4.43E1,1.92E1,1.64E1,1.64E1,1.49E1,2.54E1,-5.3500406E-2,-1.0777159E-1,-8.853114E-2,2.82568E-2,-4.5580134E-2,4.7976547E-3,4.5995526E-2,3.9751676E-1],"split_indices":[2,1,1,4,4,4,4,0,0,0,0,0,0,0,0],"split_type":[0,0,0,0,0,0,0,0,0,0,0,0,0,0,0],"sum_hessian":[4.256E3,2.04E3,2.216E3,1.25E3,7.9E2,6.76E2,1.54E3,8.96E2,3.54E2,4.3E1,7.47E2,1.56E2,5.2E2,1.533E3,7E0],"tree_param":{"num_deleted":"0","num_feature":"5","num_nodes":"15","size_leaf_vector":"1"}},{"base_weights":[8.218054E-5,-1.05094716E-1,5.95535E-2,-1.7535397E-1,3.4809303E-2,4.039278E-2,3.1887814E-1,-1.0640777E-1,-4.296039E-2,-9.839871E-3,4.857025E-2,-1.5827861E-3,3.4099594E-2,8.2789674E-2,2.7650687E-1],"categories":[],"categories_nodes":[],"categories_segments":[],"categories_sizes":[],"default_left":[0,0,0,0,0,0,0,0,0,0,0,0,0,0,0],"id":11,"left_children":[1,3,5,7,9,11,13,-1,-1,-1,-1,-1,-1,-1,-1],"loss_changes":[2.6633833E1,1.5123955E1,1.3502382E1,5.853813E0,4.4304543E0,8.480032E0,4.5829983E0,0E0,0E0,0E0,0E0,0E0,0E0,0E0,0E0],"parents":[2147483647,0,0,1,1,2,2,3,3,4,4,5,5,6,6],"right_children":[2,4,6,8,10,12,14,-1,-1,-1,-1,-1,-1,-1,-1],"split_conditions":[5.5555553E0,4.82E1,1.75E1,8.6E0,1.94E1,2.25E1,2.36E1,-1.0640777E-1,-4.296039E-2,-9.839871E-3,4.857025E-2,-1.5827861E-3,3.4099594E-2,8.2789674E-2,2.7650687E-1],"split_indices":[2,1,2,4,4,1,4,0,0,0,0,0,0,0,0],"split_type":[0,0,0,0,0,0,0,0,0,0,0,0,0,0,0],"sum_hessian":[4.256E3,1.537E3,2.719E3,1.023E3,5.14E2,2.533E3,1.86E2,1.54E2,8.69E2,3.36E2,1.78E2,1.561E3,9.72E2,1.75E2,1.1E1],"tree_param":{"num_deleted":"0","num_feature":"5","num_nodes":"15","size_leaf_vector":"1"}},{"base_weights":[1.2368508E-4,-4.6736494E-2,7.719551E-2,-9.834324E-2,5.7411883E-2,5.006912E-2,2.2249368E-1,-1.0937349E-1,-2.4147686E-2,5.5336617E-3,6.34896E-2,1.2739812E-2,9.61116E-2,6.0882684E-2,2.3876633E-1],"categories":[],"categories_nodes":[],"categories_segments":[],"categories_sizes":[],"default_left":[0,0,0,0,0,0,0,0,0,0,0,0,0,0,0],"id":12,"left_children":[1,3,5,7,9,11,13,-1,-1,-1,-1,-1,-1,-1,-1],"loss_changes":[1.5378187E1,1.4238006E1,6.3345356E0,8.387423E0,5.2723446E0,2.7772684E0,2.674778E0,0E0,0E0,0E0,0E0,0E0,0E0,0E0,0E0],"parents":[2147483647,0,0,1,1,2,2,3,3,4,4,5,5,6,6],"right_children":[2,4,6,8,10,12,14,-1,-1,-1,-1,-1,-1,-1,-1],"split_conditions":[1.1666667E1,4.43E1,2.16E1,5.16E2,5.83E2,7.53E2,2.54E1,-1.0937349E-1,-2.4147686E-2,5.5336617E-3,6.34896E-2,1.2739812E-2,9.61116E-2,6.0882684E-2,2.3876633E-1],"split_indices":[2,1,4,0,0,0,4,0,0,0,0,0,0,0,0],"split_type":[0,0,0,0,0,0,0,0,0,0,0,0,0,0,0],"sum_hessian":[4.256E3,2.647E3,1.609E3,1.77E3,8.77E2,1.357E3,2.52E2,1.1E2,1.66E3,7.01E2,1.76E2,1.321E3,3.6E1,2.45E2,7E0],"tree_param":{"num_deleted":"0","num_feature":"5","num_nodes":"15","size_leaf_vector":"1"}},{"base_weights":[1.6754592E-4,-1.4014862E-1,1.8162474E-2,8.371048E-1,-1.5003636E-1,5.3740414E-3,1.4606841E-1,1.8454887E-2,5.9091884E-1,-1.5975651E-1,-3.888639E-2,4.1727534E-1,1.2481887E-3,3.584108E-2,1.0884402E-1],"categories":[],"categories_nodes":[],"categories_segments":[],"categories_sizes":[],"default_left":[0,0,0,0,0,0,0,0,0,0,0,0,0,0,0],"id":13,"left_children":[1,3,5,7,9,11,13,-1,-1,-1,-1,-1,-1,-1,-1],"loss_changes":[1.0751383E1,4.8024073E0,6.1724086E0,4.271083E0,3.6790361E0,5.764216E0,1.9340553E0,0E0,0E0,0E0,0E0,0E0,0E0,0E0,0E0],"parents":[2147483647,0,0,1,1,2,2,3,3,4,4,5,5,6,6],"right_children":[2,4,6,8,10,12,14,-1,-1,-1,-1,-1,-1,-1,-1],"split_conditions":[1.41E1,5.23E2,1.6666666E1,3.0285E1,6.6E0,1.13E1,2.26E1,1.8454887E-2,5.9091884E-1,-1.5975651E-1,-3.888639E-2,4.1727534E-1,1.2481887E-3,3.584108E-2,1.0884402E-1],"split_indices":[1,0,2,3,4,4,4,0,0,0,0,0,0,0,0],"split_type":[0,0,0,0,0,0,0,0,0,0,0,0,0,0,0],"sum_hessian":[4.256E3,4.83E2,3.773E3,4E0,4.79E2,3.431E3,3.42E2,3E0,1E0,2.3E1,4.56E2,2E0,3.429E3,3.06E2,3.6E1],"tree_param":{"num_deleted":"0","num_feature":"5","num_nodes":"15","size_leaf_vector":"1"}},{"base_weights":[3.465029E-4,-4.368284E-2,3.67447E-2,-8.056135E-2,2.9231016E-2,2.4710368E-2,1.9771847E-1,-1.1487931E-2,-5.114446E-2,-1.5059639E-2,2.2730619E-2,8.649111E-3,-1.3297027E-1,3.9256997E-2,1.9212498E-1],"categories":[],"categories_nodes":[],"categories_segments":[],"categories_sizes":[],"default_left":[0,0,0,0,0,0,0,0,0,0,0,0,0,0,0],"id":14,"left_children":[1,3,5,7,9,11,13,-1,-1,-1,-1,-1,-1,-1,-1],"loss_changes":[6.8238244E0,5.18397E0,4.510754E0,4.8584557E0,2.3991232E0,4.196389E0,4.7113323E0,0E0,0E0,0E0,0E0,0E0,0E0,0E0,0E0],"parents":[2147483647,0,0,1,1,2,2,3,3,4,4,5,5,6,6],"right_children":[2,4,6,8,10,12,14,-1,-1,-1,-1,-1,-1,-1,-1],"split_conditions":[7.5E0,4.89E1,4.68E1,1.65E1,2.965E1,3.0225E1,3.0195E1,-1.1487931E-2,-5.114446E-2,-1.5059639E-2,2.2730619E-2,8.649111E-3,-1.3297027E-1,3.9256997E-2,1.9212498E-1],"split_indices":[2,1,1,4,3,3,3,0,0,0,0,0,0,0,0],"split_type":[0,0,0,0,0,0,0,0,0,0,0,0,0,0,0],"sum_hessian":[4.256E3,1.926E3,2.33E3,1.279E3,6.47E2,2.169E3,1.61E2,8.71E2,4.08E2,2.39E2,4.08E2,2.151E3,1.8E1,1.41E2,2E1],"tree_param":{"num_deleted":"0","num_feature":"5","num_nodes":"15","size_leaf_vector":"1"}},{"base_weights":[2.545655E-4,-5.6067735E-2,2.0601094E-2,-2.5963804E-1,-3.1171687E-2,1.6808955E-2,6.090592E-1,4.0635827E-1,-8.519147E-2,-1.1194236E-2,7.7789806E-2,-5.6816597E-2,6.6114706E-3,2.527058E-1,-7.7787444E-2],"categories":[],"categories_nodes":[],"categories_segments":[],"categories_sizes":[],"default_left":[0,0,0,0,0,0,0,0,0,0,0,0,0,0,0],"id":15,"left_children":[1,3,5,7,9,11,13,-1,-1,-1,-1,-1,-1,-1,-1],"loss_changes":[4.879521E0,5.718855E0,6.969943E0,5.215886E0,1.8081466E0,3.3564997E0,4.2700253E0,0E0,0E0,0E0,0E0,0E0,0E0,0E0,0E0],"parents":[2147483647,0,0,1,1,2,2,3,3,4,4,5,5,6,6],"right_children":[2,4,6,8,10,12,14,-1,-1,-1,-1,-1,-1,-1,-1],"split_conditions":[2.9485E1,1.6666666E0,5.44E1,2.883E1,7.64E2,-2.2222223E0,3.0195E1,4.0635827E-1,-8.519147E-2,-1.1194236E-2,7.7789806E-2,-5.6816597E-2,6.6114706E-3,2.527058E-1,-7.7787444E-2],"split_indices":[3,2,1,3,0,2,3,0,0,0,0,0,0,0,0],"split_type":[0,0,0,0,0,0,0,0,0,0,0,0,0,0,0],"sum_hessian":[4.256E3,1.129E3,3.127E3,1.22E2,1.007E3,3.108E3,1.9E1,1E0,1.21E2,9.87E2,2E1,7.6E1,3.032E3,1.5E1,4E0],"tree_param":{"num_deleted":"0","num_feature":"5","num_nodes":"15","size_leaf_vector":"1"}},{"base_weights":[2.9885088E-4,-1.1507321E-2,8.883276E-2,-1.6099928E-2,1.8241188E-1,7.6471545E-2,3.6773336E-1,-9.475242E-3,1.0091543E-2,8.1220716E-2,1.3035769E-2,-1.439993E-1,2.3939127E-2,1.7214109E-1,8.024211E-2],"categories":[],"categories_nodes":[],"categories_segments":[],"categories_sizes":[],"default_left":[0,0,0,0,0,0,0,0,0,0,0,0,0,0,0],"id":16,"left_children":[1,3,5,7,9,11,13,-1,-1,-1,-1,-1,-1,-1,-1],"loss_changes":[4.450637E0,3.3489013E0,1.6991017E0,2.8283195E0,1.0560236E0,9.2842317E-1,2.8039384E-1,0E0,0E0,0E0,0E0,0E0,0E0,0E0,0E0],"parents":[2147483647,0,0,1,1,2,2,3,3,4,4,5,5,6,6],"right_children":[2,4,6,8,10,12,14,-1,-1,-1,-1,-1,-1,-1,-1],"split_conditions":[2.11E1,7.42E2,2E1,4.43E1,1.84E1,0E0,5.05E2,-9.475242E-3,1.0091543E-2,8.1220716E-2,1.3035769E-2,-1.439993E-1,2.3939127E-2,1.7214109E-1,8.024211E-2],"split_indices":[4,0,2,1,4,2,0,0,0,0,0,0,0,0,0],"split_type":[0,0,0,0,0,0,0,0,0,0,0,0,0,0,0],"sum_hessian":[4.256E3,3.756E3,5E2,3.67E3,8.6E1,4.8E2,2E1,2.799E3,8.71E2,5.2E1,3.4E1,2E0,4.78E2,5E0,1.5E1],"tree_param":{"num_deleted":"0","num_feature":"5","num_nodes":"15","size_leaf_vector":"1"}},{"base_weights":[2.6281737E-4,-8.330861E-3,7.334686E-2,-2.6529744E-1,-5.946814E-3,3.5914138E-2,1.3377348E-1,-1.4137422E-1,-5.2764658E-2,-6.211936E-3,1.0631902E-2,2.5306137E-3,3.774905E-2,3.595644E-2,1.7157087E-1],"categories":[],"categories_nodes":[],"categories_segments":[],"categories_sizes":[],"default_left":[0,0,0,0,0,0,0,0,0,0,0,0,0,0,0],"id":17,"left_children":[1,3,5,7,9,11,13,-1,-1,-1,-1,-1,-1,-1,-1],"loss_changes":[2.6742659E0,2.3325062E0,1.0085413E0,5.6164336E-1,2.307302E0,6.8581563E-1,9.7424436E-1,0E0,0E0,0E0,0E0,0E0,0E0,0E0,0E0],"parents":[2147483647,0,0,1,1,2,2,3,3,4,4,5,5,6,6],"right_children":[2,4,6,8,10,12,14,-1,-1,-1,-1,-1,-1,-1,-1],"split_conditions":[1.611111E1,6.5E0,2.9815E1,6.4E0,2.993E1,6.72E2,2.6E1,-1.4137422E-1,-5.2764658E-2,-6.211936E-3,1.0631902E-2,2.5306137E-3,3.774905E-2,3.595644E-2,1.7157087E-1],"split_indices":[2,1,3,4,3,0,4,0,0,0,0,0,0,0,0],"split_type":[0,0,0,0,0,0,0,0,0,0,0,0,0,0,0],"sum_hessian":[4.256E3,3.809E3,4.47E2,3.4E1,3.775E3,2.77E2,1.7E2,9E0,2.5E1,2.783E3,9.92E2,2.13E2,6.4E1,1.66E2,4E0],"tree_param":{"num_deleted":"0","num_feature":"5","num_nodes":"15","size_leaf_vector":"1"}},{"base_weights":[1.9783656E-4,-8.298575E-2,6.3673058E-3,-2.1947642E-1,4.9508475E-2,4.314877E-3,3.5785887E-1,-3.2280676E-2,-9.05246E-2,3.6144316E-2,-2.1532651E-2,-3.420877E-3,1.2830253E-2,-1.8688403E-2,1.8972217E-1],"categories":[],"categories_nodes":[],"categories_segments":[],"categories_sizes":[],"default_left":[0,0,0,0,0,0,0,0,0,0,0,0,0,0,0],"id":18,"left_children":[1,3,5,7,9,11,13,-1,-1,-1,-1,-1,-1,-1,-1],"loss_changes":[2.1852145E0,5.327628E0,2.8581302E0,1.3021317E0,1.299823E0,2.3829958E0,2.6925023E0,0E0,0E0,0E0,0E0,0E0,0E0,0E0,0E0],"parents":[2147483647,0,0,1,1,2,2,3,3,4,4,5,5,6,6],"right_children":[2,4,6,8,10,12,14,-1,-1,-1,-1,-1,-1,-1,-1],"split_conditions":[4.95E2,1.88E1,5.44E1,2.9485E1,2.989E1,2.9905E1,5.47E2,-3.2280676E-2,-9.05246E-2,3.6144316E-2,-2.1532651E-2,-3.420877E-3,1.2830253E-2,-1.8688403E-2,1.8972217E-1],"split_indices":[0,4,1,3,3,3,0,0,0,0,0,0,0,0,0],"split_type":[0,0,0,0,0,0,0,0,0,0,0,0,0,0,0],"sum_hessian":[4.256E3,2.93E2,3.963E3,1.44E2,1.49E2,3.941E3,2.2E1,6.2E1,8.2E1,9.4E1,5.5E1,2.798E3,1.143E3,9E0,1.3E1],"tree_param":{"num_deleted":"0","num_feature":"5","num_nodes":"15","size_leaf_vector":"1"}},{"base_weights":[1.5578182E-4,-5.430022E-3,9.325959E-2,-1.0050917E-2,1.1054771E-1,6.0787473E-2,4.1374162E-1,-1.31378E-2,5.5718527E-4,1.7096275E-2,5.7381224E-2,1.11164395E-2,5.8244932E-2,2.4846832E-1,6.1963536E-2],"categories":[],"categories_nodes":[],"categories_segments":[],"categories_sizes":[],"default_left":[0,0,0,0,0,0,0,0,0,0,0,0,0,0,0],"id":19,"left_children":[1,3,5,7,9,11,13,-1,-1,-1,-1,-1,-1,-1,-1],"loss_changes":[2.2144E0,2.1539056E0,2.4828713E0,1.55265E0,6.549244E-1,6.8911564E-1,1.7182953E0,0E0,0E0,0E0,0E0,0E0,0E0,0E0,0E0],"parents":[2147483647,0,0,1,1,2,2,3,3,4,4,5,5,6,6],"right_children":[2,4,6,8,10,12,14,-1,-1,-1,-1,-1,-1,-1,-1],"split_conditions":[7.14E2,2.21E1,2.51E1,2.95E1,2.9815E1,7.64E2,1.86E1,-1.31378E-2,5.5718527E-4,1.7096275E-2,5.7381224E-2,1.11164395E-2,5.8244932E-2,2.4846832E-1,6.1963536E-2],"split_indices":[0,4,1,3,3,0,4,0,0,0,0,0,0,0,0],"split_type":[0,0,0,0,0,0,0,0,0,0,0,0,0,0,0],"sum_hessian":[4.256E3,4.016E3,2.4E2,3.863E3,1.53E2,2.19E2,2.1E1,1.007E3,2.856E3,9.3E1,6E1,1.87E2,3.2E1,6E0,1.5E1],"tree_param":{"num_deleted":"0","num_feature":"5","num_nodes":"15","size_leaf_vector":"1"}},{"base_weights":[2.1300273E-4,-5.379595E-2,7.2688153E-3,-1.1957337E-1,3.9652444E-2,2.9843661E-3,7.664762E-2,3.5024142E-1,-3.8428802E-2,7.823139E-3,2.8215182E-1,-9.342041E-3,4.099122E-3,2.698724E-1,1.7145984E-2],"categories":[],"categories_nodes":[],"categories_segments":[],"categories_sizes":[],"default_left":[0,0,0,0,0,0,0,0,0,0,0,0,0,0,0],"id":20,"left_children":[1,3,5,7,9,11,13,-1,-1,-1,-1,-1,-1,-1,-1],"loss_changes":[1.622636E0,3.028964E0,1.1192145E0,3.31959E0,2.4702654E0,1.2934169E0,3.4618757E0,0E0,0E0,0E0,0E0,0E0,0E0,0E0,0E0],"parents":[2147483647,0,0,1,1,2,2,3,3,4,4,5,5,6,6],"right_children":[2,4,6,8,10,12,14,-1,-1,-1,-1,-1,-1,-1,-1],"split_conditions":[1.6666666E0,3.0015E1,5.2E1,2.883E1,6.54E2,5.69E2,2.2222223E0,3.5024142E-1,-3.8428802E-2,7.823139E-3,2.8215182E-1,-9.342041E-3,4.099122E-3,2.698724E-1,1.7145984E-2],"split_indices":[2,3,1,3,0,0,2,0,0,0,0,0,0,0,0],"split_type":[0,0,0,0,0,0,0,0,0,0,0,0,0,0,0],"sum_hessian":[4.256E3,4.91E2,3.765E3,2.88E2,2.03E2,3.547E3,2.18E2,1E0,2.87E2,2.01E2,2E0,8.45E2,2.702E3,4E0,2.14E2],"tree_param":{"num_deleted":"0","num_feature":"5","num_nodes":"15","size_leaf_vector":"1"}},{"base_weights":[3.568888E-4,-6.1902326E-2,5.5529866E-3,-9.013224E-2,-5.3456333E-2,1.8920451E-1,3.5681792E-3,-8.462417E-3,-2.9703332E-2,3.3616078E-1,2.6649587E-2,-7.97147E-3,5.3462177E-3],"categories":[],"categories_nodes":[],"categories_segments":[],"categories_sizes":[],"default_left":[0,0,0,0,0,0,0,0,0,0,0,0,0],"id":21,"left_children":[1,3,5,-1,7,9,11,-1,-1,-1,-1,-1,-1],"loss_changes":[1.3775045E0,6.4475906E-1,1.4318609E0,0E0,3.629641E-1,3.8266253E0,1.671064E0,0E0,0E0,0E0,0E0,0E0,0E0],"parents":[2147483647,0,0,1,1,2,2,4,4,5,5,6,6],"right_children":[2,4,6,-1,8,10,12,-1,-1,-1,-1,-1,-1],"split_conditions":[9.9E0,6.4E0,2.8845E1,-9.013224E-2,8.9E0,1.55E1,5.69E2,-8.462417E-3,-2.9703332E-2,3.3616078E-1,2.6649587E-2,-7.97147E-3,5.3462177E-3],"split_indices":[4,4,3,0,4,4,0,0,0,0,0,0,0],"split_type":[0,0,0,0,0,0,0,0,0,0,0,0,0],"sum_hessian":[4.256E3,3.27E2,3.929E3,1E1,3.17E2,4.1E1,3.888E3,2.05E2,1.12E2,3E0,3.8E1,1.248E3,2.64E3],"tree_param":{"num_deleted":"0","num_feature":"5","num_nodes":"13","size_leaf_vector":"1"}},{"base_weights":[3.0408252E-4,-8.819988E-3,3.277529E-2,-3.0374448E-3,-2.3740497E-1,-2.5177467E-1,4.712582E-2,-1.8320044E-3,8.353635E-2,1.8523762E-1,-1.0537725E-1,1.6188595E-2,-1.4955674E-1,1.7846671E-1,1.3007677E-2],"categories":[],"categories_nodes":[],"categories_segments":[],"categories_sizes":[],"default_left":[0,0,0,0,0,0,0,0,0,0,0,0,0,0,0],"id":22,"left_children":[1,3,5,7,9,11,13,-1,-1,-1,-1,-1,-1,-1,-1],"loss_changes":[1.2615088E0,4.392951E0,3.825801E0,2.8035398E0,8.197813E0,3.4216936E0,1.8106039E0,0E0,0E0,0E0,0E0,0E0,0E0,0E0,0E0],"parents":[2147483647,0,0,1,1,2,2,3,3,4,4,5,5,6,6],"right_children":[2,4,6,8,10,12,14,-1,-1,-1,-1,-1,-1,-1,-1],"split_conditions":[4.43E1,3.31E1,1.64E1,2.82E1,1.67E1,1.57E1,1.66E1,-1.8320044E-3,8.353635E-2,1.8523762E-1,-1.0537725E-1,1.6188595E-2,-1.4955674E-1,1.7846671E-1,1.3007677E-2],"split_indices":[1,1,4,1,4,4,4,0,0,0,0,0,0,0,0],"split_type":[0,0,0,0,0,0,0,0,0,0,0,0,0,0,0],"sum_hessian":[4.256E3,3.323E3,9.33E2,3.242E3,8.1E1,4.4E1,8.89E2,3.208E3,3.4E1,9E0,7.2E1,2E1,2.4E1,5E0,8.84E2],"tree_param":{"num_deleted":"0","num_feature":"5","num_nodes":"15","size_leaf_vector":"1"}},{"base_weights":[2.639375E-4,-1.6840715E-3,1.413221E-1,-3.2177316E-3,1.7096038E-1,2.774911E-1,8.736801E-2,-1.4923597E-3,3.994325E-2,2.5705138E-2,2.5592136E-1,4.6524357E-2,1.2381625E-1,-1.8719252E-2,5.9308525E-2],"categories":[],"categories_nodes":[],"categories_segments":[],"categories_sizes":[],"default_left":[0,0,0,0,0,0,0,0,0,0,0,0,0,0,0],"id":23,"left_children":[1,3,5,7,9,11,13,-1,-1,-1,-1,-1,-1,-1,-1],"loss_changes":[1.1699873E0,1.1126173E0,4.018749E-1,9.9819267E-1,2.0791247E0,2.0085025E-1,7.228329E-1,0E0,0E0,0E0,0E0,0E0,0E0,0E0,0E0],"parents":[2147483647,0,0,1,1,2,2,3,3,4,4,5,5,6,6],"right_children":[2,4,6,8,10,12,14,-1,-1,-1,-1,-1,-1,-1,-1],"split_conditions":[2.29E1,5.44E1,2.31E1,7.53E2,6.12E2,1.5555555E1,2.36E1,-1.4923597E-3,3.994325E-2,2.5705138E-2,2.5592136E-1,4.6524357E-2,1.2381625E-1,-1.8719252E-2,5.9308525E-2],"split_indices":[4,1,4,0,0,2,4,0,0,0,0,0,0,0,0],"split_type":[0,0,0,0,0,0,0,0,0,0,0,0,0,0,0],"sum_hessian":[4.256E3,4.199E3,5.7E1,4.163E3,3.6E1,1.5E1,4.2E1,4.111E3,5.2E1,3.3E1,3E0,9E0,6E0,1.8E1,2.4E1],"tree_param":{"num_deleted":"0","num_feature":"5","num_nodes":"15","size_leaf_vector":"1"}},{"base_weights":[3.089777E-4,-5.25796E-3,4.2054836E-2,1.3811298E-3,-1.4115854E-1,4.788633E-2,-2.2206497E-1,-1.4042533E-3,5.7845023E-2,-3.5728093E-2,-9.4816476E-2,-1.6743135E-1,1.5078611E-2,-1.752308E-1,2.0477077E-2],"categories":[],"categories_nodes":[],"categories_segments":[],"categories_sizes":[],"default_left":[0,0,0,0,0,0,0,0,0,0,0,0,0,0,0],"id":24,"left_children":[1,3,5,7,9,11,13,-1,-1,-1,-1,-1,-1,-1,-1],"loss_changes":[9.895334E-1,3.3899713E0,7.8228056E-1,4.1588945E0,6.3769746E-1,7.349222E-1,1.1960511E0,0E0,0E0,0E0,0E0,0E0,0E0,0E0,0E0],"parents":[2147483647,0,0,1,1,2,2,3,3,4,4,5,5,6,6],"right_children":[2,4,6,8,10,12,14,-1,-1,-1,-1,-1,-1,-1,-1],"split_conditions":[2.11E1,2.08E1,3.0225E1,2.06E1,3.003E1,4.35E2,4.68E1,-1.4042533E-3,5.7845023E-2,-3.5728093E-2,-9.4816476E-2,-1.6743135E-1,1.5078611E-2,-1.752308E-1,2.0477077E-2],"split_indices":[4,4,3,4,3,0,1,0,0,0,0,0,0,0,0],"split_type":[0,0,0,0,0,0,0,0,0,0,0,0,0,0,0],"sum_hessian":[4.256E3,3.756E3,5E2,3.582E3,1.74E2,4.9E2,1E1,3.473E3,1.09E2,1.56E2,1.8E1,1E0,4.89E2,4E0,6E0],"tree_param":{"num_deleted":"0","num_feature":"5","num_nodes":"15","size_leaf_vector":"1"}},{"base_weights":[1.2631626E-4,-3.8636618E-3,5.1838633E-2,-1.4043877E-2,1.8552426E-2,1.2865199E-1,-4.9808055E-2,1.520674E-2,-5.962768E-3,2.2586675E-2,1.8542063E-3,8.904843E-3,1.4114296E-1,-1.5642068E-1,1.1718173E-2],"categories":[],"categories_nodes":[],"categories_segments":[],"categories_sizes":[],"default_left":[0,0,0,0,0,0,0,0,0,0,0,0,0,0,0],"id":25,"left_children":[1,3,5,7,9,11,13,-1,-1,-1,-1,-1,-1,-1,-1],"loss_changes":[8.785513E-1,9.0233755E-1,2.387794E0,1.0274953E0,8.6641705E-1,5.872471E0,5.5524774E0,0E0,0E0,0E0,0E0,0E0,0E0,0E0,0E0],"parents":[2147483647,0,0,1,1,2,2,3,3,4,4,5,5,6,6],"right_children":[2,4,6,8,10,12,14,-1,-1,-1,-1,-1,-1,-1,-1],"split_conditions":[3.018E1,1.2777778E1,1.9E1,2.906E1,1.73E1,2.41E1,4.01E1,1.520674E-2,-5.962768E-3,2.2586675E-2,1.8542063E-3,8.904843E-3,1.4114296E-1,-1.5642068E-1,1.1718173E-2],"split_indices":[3,2,4,3,4,1,1,0,0,0,0,0,0,0,0],"split_type":[0,0,0,0,0,0,0,0,0,0,0,0,0,0,0],"sum_hessian":[4.256E3,3.952E3,3.04E2,2.718E3,1.234E3,1.73E2,1.31E2,2.24E2,2.494E3,2.2E2,1.014E3,1.35E2,3.8E1,2E1,1.11E2],"tree_param":{"num_deleted":"0","num_feature":"5","num_nodes":"15","size_leaf_vector":"1"}},{"base_weights":[9.7389704E-5,-1.522661E-1,1.3601473E-3,6.203461E-3,-1.6337419E-1,-1.043355E-2,1.6177144E-2,-5.3419072E-2,-3.7081004E-3,-6.629677E-3,4.907741E-3,-2.3713548E-2,7.2116307E-3],"categories":[],"categories_nodes":[],"categories_segments":[],"categories_sizes":[],"default_left":[0,0,0,0,0,0,0,0,0,0,0,0,0],"id":26,"left_children":[1,3,5,-1,7,9,11,-1,-1,-1,-1,-1,-1],"loss_changes":[8.1924605E-1,7.061607E-2,7.381261E-1,0E0,7.100296E-2,7.3547137E-1,1.403283E0,0E0,0E0,0E0,0E0,0E0,0E0],"parents":[2147483647,0,0,1,1,2,2,4,4,5,5,6,6],"right_children":[2,4,6,-1,8,10,12,-1,-1,-1,-1,-1,-1],"split_conditions":[6.5E0,-7.7777777E0,2.98E1,6.203461E-3,6.29E2,6.72E2,4.95E2,-5.3419072E-2,-3.7081004E-3,-6.629677E-3,4.907741E-3,-2.3713548E-2,7.2116307E-3],"split_indices":[1,2,3,0,0,0,0,0,0,0,0,0,0],"split_type":[0,0,0,0,0,0,0,0,0,0,0,0,0],"sum_hessian":[4.256E3,3.4E1,4.222E3,2E0,3.2E1,2.351E3,1.871E3,2.9E1,3E0,1.638E3,7.13E2,1.42E2,1.729E3],"tree_param":{"num_deleted":"0","num_feature":"5","num_nodes":"13","size_leaf_vector":"1"}},{"base_weights":[5.2043353E-5,-6.960249E-3,2.500794E-2,-3.3094233E-3,-1.5126108E-1,-1.8698438E-1,3.5698555E-2,-2.041342E-3,4.3323662E-2,1.19702585E-1,-7.538795E-2,-1.2638666E-1,1.3245437E-4,1.3633776E-1,9.8457495E-3],"categories":[],"categories_nodes":[],"categories_segments":[],"categories_sizes":[],"default_left":[0,0,0,0,0,0,0,0,0,0,0,0,0,0,0],"id":27,"left_children":[1,3,5,7,9,11,13,-1,-1,-1,-1,-1,-1,-1,-1],"loss_changes":[7.4514073E-1,1.7506397E0,2.1234255E0,1.6753255E0,4.613927E0,1.9763482E0,1.0582258E0,0E0,0E0,0E0,0E0,0E0,0E0,0E0,0E0],"parents":[2147483647,0,0,1,1,2,2,3,3,4,4,5,5,6,6],"right_children":[2,4,6,8,10,12,14,-1,-1,-1,-1,-1,-1,-1,-1],"split_conditions":[4.43E1,3.31E1,1.64E1,2.73E1,1.71E1,2.9485E1,1.66E1,-2.041342E-3,4.3323662E-2,1.19702585E-1,-7.538795E-2,-1.2638666E-1,1.3245437E-4,1.3633776E-1,9.8457495E-3],"split_indices":[1,1,4,1,4,3,4,0,0,0,0,0,0,0,0],"split_type":[0,0,0,0,0,0,0,0,0,0,0,0,0,0,0],"sum_hessian":[4.256E3,3.323E3,9.33E2,3.242E3,8.1E1,4.4E1,8.89E2,3.168E3,7.4E1,1.2E1,6.9E1,1.9E1,2.5E1,5E0,8.84E2],"tree_param":{"num_deleted":"0","num_feature":"5","num_nodes":"15","size_leaf_vector":"1"}},{"base_weights":[6.1134066E-5,-1.1448488E-3,1.376393E-1,-3.7894822E-3,5.5925954E-2,-2.2732535E-2,4.027311E-1,1.2392822E-2,-2.0185262E-3,1.446086E-2,9.822179E-2,-3.964819E-2,9.827357E-2,1.4902431E-1,-1.2292271E-1],"categories":[],"categories_nodes":[],"categories_segments":[],"categories_sizes":[],"default_left":[0,0,0,0,0,0,0,0,0,0,0,0,0,0,0],"id":28,"left_children":[1,3,5,7,9,11,13,-1,-1,-1,-1,-1,-1,-1,-1],"loss_changes":[7.0646584E-1,6.3729316E-1,1.5821457E0,5.3508824E-1,3.7629437E-1,9.6330607E-1,1.2729423E0,0E0,0E0,0E0,0E0,0E0,0E0,0E0,0E0],"parents":[2147483647,0,0,1,1,2,2,3,3,4,4,5,5,6,6],"right_children":[2,4,6,8,10,12,14,-1,-1,-1,-1,-1,-1,-1,-1],"split_conditions":[5.44E1,1.75E1,5.47E2,2.906E1,2.6E1,1.99E1,5.6E1,1.2392822E-2,-2.0185262E-3,1.446086E-2,9.822179E-2,-3.964819E-2,9.827357E-2,1.4902431E-1,-1.2292271E-1],"split_indices":[1,2,0,3,4,4,1,0,0,0,0,0,0,0,0],"split_type":[0,0,0,0,0,0,0,0,0,0,0,0,0,0,0],"sum_hessian":[4.256E3,4.22E3,3.6E1,4.034E3,1.86E2,2.3E1,1.3E1,2.46E2,3.788E3,1.82E2,4E0,1.8E1,5E0,1.2E1,1E0],"tree_param":{"num_deleted":"0","num_feature":"5","num_nodes":"15","size_leaf_vector":"1"}},{"base_weights":[9.132837E-5,-4.906469E-2,3.2618686E-3,-2.3381002E-2,-1.7693938E-1,-8.0761255E-4,6.53661E-2,-1.4191362E-2,4.3750733E-2,-6.4010285E-2,-1.54708E-2,-9.72176E-5,-1.3625379E-1,1.7697112E-1,5.659011E-3],"categories":[],"categories_nodes":[],"categories_segments":[],"categories_sizes":[],"default_left":[0,0,0,0,0,0,0,0,0,0,0,0,0,0,0],"id":29,"left_children":[1,3,5,7,9,11,13,-1,-1,-1,-1,-1,-1,-1,-1],"loss_changes":[6.636183E-1,8.432108E-1,1.0109807E0,8.813236E-1,1.8537807E-1,8.2306015E-1,5.9894104E0,0E0,0E0,0E0,0E0,0E0,0E0,0E0,0E0],"parents":[2147483647,0,0,1,1,2,2,3,3,4,4,5,5,6,6],"right_children":[2,4,6,8,10,12,14,-1,-1,-1,-1,-1,-1,-1,-1],"split_conditions":[9.2E0,8.9E0,3.018E1,8.7E0,9.1E0,3.0165E1,1.58E1,-1.4191362E-2,4.3750733E-2,-6.4010285E-2,-1.54708E-2,-9.72176E-5,-1.3625379E-1,1.7697112E-1,5.659011E-3],"split_indices":[4,4,3,4,4,3,4,0,0,0,0,0,0,0,0],"split_type":[0,0,0,0,0,0,0,0,0,0,0,0,0,0,0],"sum_hessian":[4.256E3,2.57E2,3.999E3,2.15E2,4.2E1,3.754E3,2.45E2,1.89E2,2.6E1,3.2E1,1E1,3.751E3,3E0,1.9E1,2.26E2],"tree_param":{"num_deleted":"0","num_feature":"5","num_nodes":"15","size_leaf_vector":"1"}},{"base_weights":[6.3118925E-5,-8.397837E-3,1.5977459E-2,3.0538074E-3,-1.2481216E-1,1.1131621E-1,3.501233E-3,-1.2833993E-3,5.12687E-2,-3.8346637E-2,9.3248464E-2,4.8220786E-4,4.9417704E-2,3.64352E-3,-2.6673298E-2],"categories":[],"categories_nodes":[],"categories_segments":[],"categories_sizes":[],"default_left":[0,0,0,0,0,0,0,0,0,0,0,0,0,0,0],"id":30,"left_children":[1,3,5,7,9,11,13,-1,-1,-1,-1,-1,-1,-1,-1],"loss_changes":[5.733415E-1,3.7064977E0,1.7576439E0,3.116569E0,3.662336E-1,1.0017083E0,1.0459048E0,0E0,0E0,0E0,0E0,0E0,0E0,0E0,0E0],"parents":[2147483647,0,0,1,1,2,2,3,3,4,4,5,5,6,6],"right_children":[2,4,6,8,10,12,14,-1,-1,-1,-1,-1,-1,-1,-1],"split_conditions":[1.94E1,1.9E1,1.97E1,1.88E1,7.64E2,5.57E2,3.009E1,-1.2833993E-3,5.12687E-2,-3.8346637E-2,9.3248464E-2,4.8220786E-4,4.9417704E-2,3.64352E-3,-2.6673298E-2],"split_indices":[4,4,4,4,0,0,3,0,0,0,0,0,0,0,0],"split_type":[0,0,0,0,0,0,0,0,0,0,0,0,0,0,0],"sum_hessian":[4.256E3,2.779E3,1.477E3,2.531E3,2.48E2,1.7E2,1.307E3,2.426E3,1.05E2,2.47E2,1E0,5.6E1,1.14E2,1.196E3,1.11E2],"tree_param":{"num_deleted":"0","num_feature":"5","num_nodes":"15","size_leaf_vector":"1"}},{"base_weights":[7.5389224E-5,-5.9094727E-3,2.0443646E-2,-2.9050163E-3,-2.0463485E-1,-1.06073454E-1,3.135428E-2,-1.3650729E-3,4.440653E-2,6.441937E-2,-1.1878947E-1,-4.9143862E-2,1.0451438E-1,9.0442464E-2,6.9624656E-3],"categories":[],"categories_nodes":[],"categories_segments":[],"categories_sizes":[],"default_left":[0,0,0,0,0,0,0,0,0,0,0,0,0,0,0],"id":31,"left_children":[1,3,5,7,9,11,13,-1,-1,-1,-1,-1,-1,-1,-1],"loss_changes":[5.190543E-1,1.9643356E0,1.3381547E0,8.059387E-1,4.016656E0,2.0775452E0,1.9535766E0,0E0,0E0,0E0,0E0,0E0,0E0,0E0,0E0],"parents":[2147483647,0,0,1,1,2,2,3,3,4,4,5,5,6,6],"right_children":[2,4,6,8,10,12,14,-1,-1,-1,-1,-1,-1,-1,-1],"split_conditions":[4.21E1,3.31E1,1.7E1,2.82E1,1.85E1,6.12E2,1.73E1,-1.3650729E-3,4.440653E-2,6.441937E-2,-1.1878947E-1,-4.9143862E-2,1.0451438E-1,9.0442464E-2,6.9624656E-3],"split_indices":[1,1,4,1,4,0,4,0,0,0,0,0,0,0,0],"split_type":[0,0,0,0,0,0,0,0,0,0,0,0,0,0,0],"sum_hessian":[4.256E3,3.29E3,9.66E2,3.242E3,4.8E1,7.6E1,8.9E2,3.208E3,3.4E1,1.5E1,3.3E1,6.8E1,8E0,2.5E1,8.65E2],"tree_param":{"num_deleted":"0","num_feature":"5","num_nodes":"15","size_leaf_vector":"1"}},{"base_weights":[8.6318505E-5,-2.8368188E-3,4.292286E-2,-7.023676E-3,2.6773565E-2,2.8751392E-2,3.0202907E-1,-7.3174114E-4,-2.8658526E-2,-1.4061557E-1,8.618811E-3,6.097264E-3,9.876791E-2,1.6994476E-1,-4.34968E-2],"categories":[],"categories_nodes":[],"categories_segments":[],"categories_sizes":[],"default_left":[0,0,0,0,0,0,0,0,0,0,0,0,0,0,0],"id":32,"left_children":[1,3,5,7,9,11,13,-1,-1,-1,-1,-1,-1,-1,-1],"loss_changes":[5.331709E-1,4.943502E-1,9.90077E-1,1.4170637E0,4.9219385E-1,6.4913714E-1,1.7371521E0,0E0,0E0,0E0,0E0,0E0,0E0,0E0,0E0],"parents":[2147483647,0,0,1,1,2,2,3,3,4,4,5,5,6,6],"right_children":[2,4,6,8,10,12,14,-1,-1,-1,-1,-1,-1,-1,-1],"split_conditions":[7.1E2,2.11E1,2.68E1,2.08E1,4.35E2,2.994E1,2.03E1,-7.3174114E-4,-2.8658526E-2,-1.4061557E-1,8.618811E-3,6.097264E-3,9.876791E-2,1.6994476E-1,-4.34968E-2],"split_indices":[0,4,1,4,0,3,4,0,0,0,0,0,0,0,0],"split_type":[0,0,0,0,0,0,0,0,0,0,0,0,0,0,0],"sum_hessian":[4.256E3,3.985E3,2.71E2,3.492E3,4.93E2,2.58E2,1.3E1,3.321E3,1.71E2,1E0,4.92E2,2.52E2,6E0,8E0,5E0],"tree_param":{"num_deleted":"0","num_feature":"5","num_nodes":"15","size_leaf_vector":"1"}},{"base_weights":[7.7031546E-5,-4.4836264E-2,2.5005518E-3,-1.2731697E-1,5.1971246E-2,6.721531E-4,1.0325629E-1,-1.0821192E-1,-2.9247787E-2,1.7476732E-1,1.2251942E-2,-2.1410047E-3,7.003657E-3,1.1942496E-2,1.628907E-1],"categories":[],"categories_nodes":[],"categories_segments":[],"categories_sizes":[],"default_left":[0,0,0,0,0,0,0,0,0,0,0,0,0,0,0],"id":33,"left_children":[1,3,5,7,9,11,13,-1,-1,-1,-1,-1,-1,-1,-1],"loss_changes":[4.634792E-1,1.7472925E0,7.4418604E-1,7.8619456E-1,5.727338E-1,7.0288837E-1,1.9871045E0,0E0,0E0,0E0,0E0,0E0,0E0,0E0,0E0],"parents":[2147483647,0,0,1,1,2,2,3,3,4,4,5,5,6,6],"right_children":[2,4,6,8,10,12,14,-1,-1,-1,-1,-1,-1,-1,-1],"split_conditions":[4.88E2,1.87E1,5.35E1,-5.555556E-1,2.8785E1,2.993E1,6.12E2,-1.0821192E-1,-2.9247787E-2,1.7476732E-1,1.2251942E-2,-2.1410047E-3,7.003657E-3,1.1942496E-2,1.628907E-1],"split_indices":[0,4,1,2,3,3,0,0,0,0,0,0,0,0,0],"split_type":[0,0,0,0,0,0,0,0,0,0,0,0,0,0,0],"sum_hessian":[4.256E3,2.17E2,4.039E3,1.17E2,1E2,3.968E3,7.1E1,1.2E1,1.05E2,1E0,9.9E1,2.952E3,1.016E3,6.3E1,8E0],"tree_param":{"num_deleted":"0","num_feature":"5","num_nodes":"15","size_leaf_vector":"1"}},{"base_weights":[1.08166314E-4,-5.20273E-4,1.4031059E-1,-1.5006076E-4,-2.2431858E-1,1.286884E-1,5.9378505E-2,-3.5523048E-3,2.1026444E-3,-2.273226E-3,-9.284987E-2,-3.9482497E-2,2.8818881E-2],"categories":[],"categories_nodes":[],"categories_segments":[],"categories_sizes":[],"default_left":[0,0,0,0,0,0,0,0,0,0,0,0,0],"id":34,"left_children":[1,3,5,7,9,-1,11,-1,-1,-1,-1,-1,-1],"loss_changes":[3.7515178E-1,3.5117963E-1,4.183899E-1,3.5436007E-1,1.2689039E-1,0E0,1.2474257E-1,0E0,0E0,0E0,0E0,0E0,0E0],"parents":[2147483647,0,0,1,1,2,2,3,3,4,4,6,6],"right_children":[2,4,6,8,10,-1,12,-1,-1,-1,-1,-1,-1],"split_conditions":[7.84E2,3.0375E1,1.95E1,1.96E1,7.5E0,1.286884E-1,2.15E1,-3.5523048E-3,2.1026444E-3,-2.273226E-3,-9.284987E-2,-3.9482497E-2,2.8818881E-2],"split_indices":[0,3,1,1,1,0,1,0,0,0,0,0,0],"split_type":[0,0,0,0,0,0,0,0,0,0,0,0,0],"sum_hessian":[4.256E3,4.238E3,1.8E1,4.232E3,6E0,3E0,1.5E1,1.607E3,2.625E3,2E0,4E0,2E0,1.3E1],"tree_param":{"num_deleted":"0","num_feature":"5","num_nodes":"13","size_leaf_vector":"1"}},{"base_weights":[8.1143975E-5,3.9096594E-2,-2.321473E-3,2.5812503E-2,3.87519E-1,-4.223908E-2,2.963223E-3,2.1951165E-2,-1.3281034E-2,1.5977131E-1,4.948895E-2,-2.5981035E-2,6.3284915E-3,-1.3343707E-2,2.2193005E-3],"categories":[],"categories_nodes":[],"categories_segments":[],"categories_sizes":[],"default_left":[0,0,0,0,0,0,0,0,0,0,0,0,0,0,0],"id":35,"left_children":[1,3,5,7,9,11,13,-1,-1,-1,-1,-1,-1,-1,-1],"loss_changes":[3.9913845E-1,1.1332306E0,8.4625536E-1,7.964746E-1,2.02685E-1,1.3196114E0,7.457054E-1,0E0,0E0,0E0,0E0,0E0,0E0,0E0,0E0],"parents":[2147483647,0,0,1,1,2,2,3,3,4,4,5,5,6,6],"right_children":[2,4,6,8,10,12,14,-1,-1,-1,-1,-1,-1,-1,-1],"split_conditions":[2.906E1,5.28E1,2.9315E1,1.36E1,1.8E1,1.76E1,1.5E1,2.1951165E-2,-1.3281034E-2,1.5977131E-1,4.948895E-2,-2.5981035E-2,6.3284915E-3,-1.3343707E-2,2.2193005E-3],"split_indices":[3,1,3,4,4,4,1,0,0,0,0,0,0,0,0],"split_type":[0,0,0,0,0,0,0,0,0,0,0,0,0,0,0],"sum_hessian":[4.256E3,2.46E2,4.01E3,2.38E2,8E0,4.68E2,3.542E3,1.42E2,9.6E1,4E0,4E0,2.75E2,1.93E2,3.02E2,3.24E3],"tree_param":{"num_deleted":"0","num_feature":"5","num_nodes":"15","size_leaf_vector":"1"}},{"base_weights":[1.0027616E-4,-1.4883016E-2,6.3832365E-3,1.7194454E-1,-2.994474E-2,3.2231203E-1,4.7940486E-3,1.6593456E-2,1.8021636E-1,-2.2504508E-2,1.0087578E-2,7.514872E-1,-3.755011E-3,-5.553407E-3,6.0868026E-3],"categories":[],"categories_nodes":[],"categories_segments":[],"categories_sizes":[],"default_left":[0,0,0,0,0,0,0,0,0,0,0,0,0,0,0],"id":36,"left_children":[1,3,5,7,9,11,13,-1,-1,-1,-1,-1,-1,-1,-1],"loss_changes":[4.008466E-1,3.5450916E0,1.5046656E0,4.6676674E0,3.3403845E0,1.099354E1,1.0786921E0,0E0,0E0,0E0,0E0,0E0,0E0,0E0,0E0],"parents":[2147483647,0,0,1,1,2,2,3,3,4,4,5,5,6,6],"right_children":[2,4,6,8,10,12,14,-1,-1,-1,-1,-1,-1,-1,-1],"split_conditions":[5.69E2,1.44E1,5.7E2,1.96E1,1.95E1,1.52E1,1.83E1,1.6593456E-2,1.8021636E-1,-2.2504508E-2,1.0087578E-2,7.514872E-1,-3.755011E-3,-5.553407E-3,6.0868026E-3],"split_indices":[0,4,0,1,4,1,1,0,0,0,0,0,0,0,0],"split_type":[0,0,0,0,0,0,0,0,0,0,0,0,0,0,0],"sum_hessian":[4.256E3,1.257E3,2.999E3,9.3E1,1.164E3,1.4E1,2.985E3,7.4E1,1.9E1,6.81E2,4.83E2,1E0,1.3E1,1.192E3,1.793E3],"tree_param":{"num_deleted":"0","num_feature":"5","num_nodes":"15","size_leaf_vector":"1"}},{"base_weights":[2.894872E-4,9.387454E-3,-1.3057176E-2,4.632414E-3,1.1817137E-1,-1.075252E-1,-2.396763E-3,-1.1148489E-2,5.7727965E-3,6.1351456E-2,1.8824847E-2,-3.6819734E-2,1.5380252E-2,-5.7210536E-3,1.3227395E-2],"categories":[],"categories_nodes":[],"categories_segments":[],"categories_sizes":[],"default_left":[0,0,0,0,0,0,0,0,0,0,0,0,0,0,0],"id":37,"left_children":[1,3,5,7,9,11,13,-1,-1,-1,-1,-1,-1,-1,-1],"loss_changes":[5.170394E-1,1.309185E0,1.7379417E0,1.4826922E0,4.9435234E-1,4.2888212E-1,1.2038193E0,0E0,0E0,0E0,0E0,0E0,0E0,0E0,0E0],"parents":[2147483647,0,0,1,1,2,2,3,3,4,4,5,5,6,6],"right_children":[2,4,6,8,10,12,14,-1,-1,-1,-1,-1,-1,-1,-1],"split_conditions":[1.9E1,1.88E1,1.93E1,5.69E2,5.5555553E0,3.0225E1,4.68E1,-1.1148489E-2,5.7727965E-3,6.1351456E-2,1.8824847E-2,-3.6819734E-2,1.5380252E-2,-5.7210536E-3,1.3227395E-2],"split_indices":[4,4,4,0,2,3,1,0,0,0,0,0,0,0,0],"split_type":[0,0,0,0,0,0,0,0,0,0,0,0,0,0,0],"sum_hessian":[4.256E3,2.531E3,1.725E3,2.426E3,1.05E2,1.74E2,1.551E3,6.28E2,1.798E3,4E1,6.5E1,1.59E2,1.5E1,1.142E3,4.09E2],"tree_param":{"num_deleted":"0","num_feature":"5","num_nodes":"15","size_leaf_vector":"1"}},{"base_weights":[2.1657268E-4,-5.5563456E-4,8.830496E-2,-2.201717E-3,4.3826863E-2,5.0147876E-2,2.1929398E-1,-2.939992E-4,-3.0738743E-2,-6.2608174E-3,9.5015086E-2,5.7244558E-2,-2.5726577E-2],"categories":[],"categories_nodes":[],"categories_segments":[],"categories_sizes":[],"default_left":[0,0,0,0,0,0,0,0,0,0,0,0,0],"id":38,"left_children":[1,3,5,7,9,11,-1,-1,-1,-1,-1,-1,-1],"loss_changes":[2.896208E-1,3.0847117E-1,8.70679E-1,4.9855855E-1,2.6725097E0,7.0457995E-1,0E0,0E0,0E0,0E0,0E0,0E0,0E0],"parents":[2147483647,0,0,1,1,2,2,3,3,4,4,5,5],"right_children":[2,4,6,8,10,12,-1,-1,-1,-1,-1,-1,-1],"split_conditions":[5.44E1,3.0285E1,6.16E2,3.0255E1,5.99E2,5.49E1,2.1929398E-1,-2.939992E-4,-3.0738743E-2,-6.2608174E-3,9.5015086E-2,5.7244558E-2,-2.5726577E-2],"split_indices":[1,3,0,3,0,1,0,0,0,0,0,0,0],"split_type":[0,0,0,0,0,0,0,0,0,0,0,0,0],"sum_hessian":[4.256E3,4.22E3,3.6E1,4.07E3,1.5E2,3.5E1,1E0,4.022E3,4.8E1,1.22E2,2.8E1,1.7E1,1.8E1],"tree_param":{"num_deleted":"0","num_feature":"5","num_nodes":"13","size_leaf_vector":"1"}},{"base_weights":[2.2381652E-4,5.509505E-4,-1.9847195E-1,-4.297952E-3,1.463408E-2,6.861528E-3,-8.4593296E-2,-1.5390596E-3,5.1211435E-2,-7.896684E-3,1.0293996E-2,9.043837E-3,-5.956149E-3],"categories":[],"categories_nodes":[],"categories_segments":[],"categories_sizes":[],"default_left":[0,0,0,0,0,0,0,0,0,0,0,0,0],"id":39,"left_children":[1,3,5,7,9,11,-1,-1,-1,-1,-1,-1,-1],"loss_changes":[2.7681497E-1,2.90354E-1,1.219604E-1,4.6155196E-1,8.7862617E-1,2.464685E-3,0E0,0E0,0E0,0E0,0E0,0E0,0E0],"parents":[2147483647,0,0,1,1,2,2,3,3,4,4,5,5],"right_children":[2,4,6,8,10,12,-1,-1,-1,-1,-1,-1,-1],"split_conditions":[3.0375E1,2.993E1,7.5E0,2.36E1,1.83E1,-4.4444447E0,-8.4593296E-2,-1.5390596E-3,5.1211435E-2,-7.896684E-3,1.0293996E-2,9.043837E-3,-5.956149E-3],"split_indices":[3,3,1,4,1,2,0,0,0,0,0,0,0],"split_type":[0,0,0,0,0,0,0,0,0,0,0,0,0],"sum_hessian":[4.256E3,4.25E3,6E0,3.162E3,1.088E3,2E0,4E0,3.148E3,1.4E1,3.53E2,7.35E2,1E0,1E0],"tree_param":{"num_deleted":"0","num_feature":"5","num_nodes":"13","size_leaf_vector":"1"}},{"base_weights":[1.4987013E-4,1.1559866E-2,-7.183928E-3,-5.902454E-3,1.5575382E-1,-1.4593643E-1,1.3987138E-3,3.9291536E-3,-2.1011038E-2,2.0617768E-2,1.6683309E-1,-4.822716E-2,1.3167487E-1,1.6448328E-2,-2.7564622E-3],"categories":[],"categories_nodes":[],"categories_segments":[],"categories_sizes":[],"default_left":[0,0,0,0,0,0,0,0,0,0,0,0,0,0,0],"id":40,"left_children":[1,3,5,7,9,11,13,-1,-1,-1,-1,-1,-1,-1,-1],"loss_changes":[3.5630292E-1,4.195842E0,3.0869207E0,1.8128695E0,6.2333746E0,1.3794217E0,1.3818187E0,0E0,0E0,0E0,0E0,0E0,0E0,0E0,0E0],"parents":[2147483647,0,0,1,1,2,2,3,3,4,4,5,5,6,6],"right_children":[2,4,6,8,10,12,14,-1,-1,-1,-1,-1,-1,-1,-1],"split_conditions":[1.73E1,2.36E1,1.76E1,1.78E1,3.0015E1,5.49E1,2.08E1,3.9291536E-3,-2.1011038E-2,2.0617768E-2,1.6683309E-1,-4.822716E-2,1.3167487E-1,1.6448328E-2,-2.7564622E-3],"split_indices":[4,1,4,1,3,1,1,0,0,0,0,0,0,0,0],"split_type":[0,0,0,0,0,0,0,0,0,0,0,0,0,0,0],"sum_hessian":[4.256E3,1.665E3,2.591E3,1.486E3,1.79E2,1.5E2,2.441E3,1.147E3,3.39E2,1.48E2,3.1E1,1.47E2,3E0,4.03E2,2.038E3],"tree_param":{"num_deleted":"0","num_feature":"5","num_nodes":"15","size_leaf_vector":"1"}},{"base_weights":[1.6753764E-4,3.6273338E-4,-1.2458783E-1,7.0387805E-3,-9.4272075E-3,7.790579E-4,2.0270223E-2,-2.1312168E-2,2.877682E-4],"categories":[],"categories_nodes":[],"categories_segments":[],"categories_sizes":[],"default_left":[0,0,0,0,0,0,0,0,0],"id":41,"left_children":[1,3,-1,5,7,-1,-1,-1,-1],"loss_changes":[3.4537664E-1,2.7823046E-1,0E0,6.8031776E-1,1.1046098E0,0E0,0E0,0E0,0E0],"parents":[2147483647,0,0,1,1,3,3,4,4],"right_children":[2,4,-1,6,8,-1,-1,-1,-1],"split_conditions":[5.6E1,1.9E1,-1.2458783E-1,3.018E1,1.94E1,7.790579E-4,2.0270223E-2,-2.1312168E-2,2.877682E-4],"split_indices":[1,4,0,3,4,0,0,0,0],"split_type":[0,0,0,0,0,0,0,0,0],"sum_hessian":[4.256E3,4.255E3,1E0,2.53E3,1.725E3,2.358E3,1.72E2,2.48E2,1.477E3],"tree_param":{"num_deleted":"0","num_feature":"5","num_nodes":"9","size_leaf_vector":"1"}},{"base_weights":[8.819247E-5,-5.724356E-2,1.3964865E-3,-3.2423356E-1,-2.2018455E-2,1.09819E-1,2.1163351E-4,1.5569516E-1,-1.3813612E-1,-4.0416117E-4,-7.564884E-2,-2.6671295E-3,3.1838176E-1,-1.4221686E-3,4.9272613E-3],"categories":[],"categories_nodes":[],"categories_segments":[],"categories_sizes":[],"default_left":[0,0,0,0,0,0,0,0,0,0,0,0,0,0,0],"id":42,"left_children":[1,3,5,7,9,11,13,-1,-1,-1,-1,-1,-1,-1,-1],"loss_changes":[3.1938383E-1,8.8631225E-1,5.347755E-1,1.502463E0,4.0403685E-1,5.0920277E0,3.3078334E-1,0E0,0E0,0E0,0E0,0E0,0E0,0E0,0E0],"parents":[2147483647,0,0,1,1,2,2,3,3,4,4,5,5,6,6],"right_children":[2,4,6,8,10,12,14,-1,-1,-1,-1,-1,-1,-1,-1],"split_conditions":[-2.2222223E0,4.95E2,-1.1111112E0,2.947E1,1.59E1,3.0285E1,4.01E1,1.5569516E-1,-1.3813612E-1,-4.0416117E-4,-7.564884E-2,-2.6671295E-3,3.1838176E-1,-1.4221686E-3,4.9272613E-3],"split_indices":[2,0,2,3,4,3,1,0,0,0,0,0,0,0,0],"split_type":[0,0,0,0,0,0,0,0,0,0,0,0,0,0,0],"sum_hessian":[4.256E3,9.4E1,4.162E3,1E1,8.4E1,4.4E1,4.118E3,1E0,9E0,7.8E1,6E0,4E1,4E0,3.155E3,9.63E2],"tree_param":{"num_deleted":"0","num_feature":"5","num_nodes":"15","size_leaf_vector":"1"}},{"base_weights":[1.2339531E-4,-4.0899683E-2,1.6627302E-3,-7.897993E-2,-9.058307E-3,2.560749E-1,1.165547E-3,-1.5610583E-2,-4.1811876E-2,1.03291035E-1,-9.227679E-3,-3.8625743E-2,1.5381655E-1,1.0950567E-2,-4.3681168E-4],"categories":[],"categories_nodes":[],"categories_segments":[],"categories_sizes":[],"default_left":[0,0,0,0,0,0,0,0,0,0,0,0,0,0,0],"id":43,"left_children":[1,3,5,7,9,11,13,-1,-1,-1,-1,-1,-1,-1,-1],"loss_changes":[2.6889014E-1,1.8601379E-1,5.188144E-1,1.0665646E-1,6.6238475E-1,8.561322E-1,3.7958798E-1,0E0,0E0,0E0,0E0,0E0,0E0,0E0,0E0],"parents":[2147483647,0,0,1,1,2,2,3,3,4,4,5,5,6,6],"right_children":[2,4,6,8,10,12,14,-1,-1,-1,-1,-1,-1,-1,-1],"split_conditions":[9.1E0,6.1E2,-3.8888888E0,5.97E2,6.12E2,1.64E1,1.13E1,-1.5610583E-2,-4.1811876E-2,1.03291035E-1,-9.227679E-3,-3.8625743E-2,1.5381655E-1,1.0950567E-2,-4.3681168E-4],"split_indices":[1,0,2,0,0,1,4,0,0,0,0,0,0,0,0],"split_type":[0,0,0,0,0,0,0,0,0,0,0,0,0,0,0],"sum_hessian":[4.256E3,1.53E2,4.103E3,6.9E1,8.4E1,7E0,4.096E3,4.9E1,2E1,4E0,8E1,3E0,4E0,2.82E2,3.814E3],"tree_param":{"num_deleted":"0","num_feature":"5","num_nodes":"15","size_leaf_vector":"1"}},{"base_weights":[1.2445931E-4,-1.9610017E-3,3.0685203E-2,-4.8654834E-3,2.2386586E-2,1.6853152E-2,1.7291419E-1,-1.8289658E-3,1.6990317E-2,1.1905737E-2,-1.0493799E-2,1.3587003E-2,-1.4176897E-2,1.14693835E-1,6.536255E-3],"categories":[],"categories_nodes":[],"categories_segments":[],"categories_sizes":[],"default_left":[0,0,0,0,0,0,0,0,0,0,0,0,0,0,0],"id":44,"left_children":[1,3,5,7,9,11,13,-1,-1,-1,-1,-1,-1,-1,-1],"loss_changes":[2.7137253E-1,2.819874E-1,5.321965E-1,2.7002645E-1,4.2315158E-1,4.5608515E-1,7.511675E-1,0E0,0E0,0E0,0E0,0E0,0E0,0E0,0E0],"parents":[2147483647,0,0,1,1,2,2,3,3,4,4,5,5,6,6],"right_children":[2,4,6,8,10,12,14,-1,-1,-1,-1,-1,-1,-1,-1],"split_conditions":[7.1E2,1.611111E1,2.51E1,2.22E1,2.18E1,1.81E1,1.92E1,-1.8289658E-3,1.6990317E-2,1.1905737E-2,-1.0493799E-2,1.3587003E-2,-1.4176897E-2,1.14693835E-1,6.536255E-3],"split_indices":[0,2,1,4,4,4,4,0,0,0,0,0,0,0,0],"split_type":[0,0,0,0,0,0,0,0,0,0,0,0,0,0,0],"sum_hessian":[4.256E3,3.985E3,2.71E2,3.561E3,4.24E2,2.48E2,2.3E1,3.492E3,6.9E1,3.26E2,9.8E1,1.72E2,7.6E1,9E0,1.4E1],"tree_param":{"num_deleted":"0","num_feature":"5","num_nodes":"15","size_leaf_vector":"1"}},{"base_weights":[1.1949537E-4,2.8603149E-4,-1.0629874E-1,-1.2053752E-1,7.417945E-4,-2.1633912E-2,-1.2703572E-1,-9.7249274E-4,4.2695957E-3],"categories":[],"categories_nodes":[],"categories_segments":[],"categories_sizes":[],"default_left":[0,0,0,0,0,0,0,0,0],"id":45,"left_children":[1,3,-1,5,7,-1,-1,-1,-1],"loss_changes":[2.5138566E-1,2.3445414E-1,0E0,2.041595E-1,2.279461E-1,0E0,0E0,0E0,0E0],"parents":[2147483647,0,0,1,1,3,3,4,4],"right_children":[2,4,-1,6,8,-1,-1,-1,-1],"split_conditions":[5.6E1,4.35E2,-1.0629874E-1,2E1,4.01E1,-2.1633912E-2,-1.2703572E-1,-9.7249274E-4,4.2695957E-3],"split_indices":[1,0,0,4,1,0,0,0,0],"split_type":[0,0,0,0,0,0,0,0,0],"sum_hessian":[4.256E3,4.255E3,1E0,1.5E1,4.24E3,1.4E1,1E0,3.274E3,9.66E2],"tree_param":{"num_deleted":"0","num_feature":"5","num_nodes":"9","size_leaf_vector":"1"}},{"base_weights":[2.4922554E-5,-5.6308415E-4,9.216683E-2,4.384671E-3,-1.4546917E-2,1.7652416E-1,4.0181264E-2,7.49133E-5,1.340031E-2,-1.3090981E-3,-3.5773337E-2,-1.9174577E-3,6.691561E-2,3.9281107E-2,-4.832411E-3],"categories":[],"categories_nodes":[],"categories_segments":[],"categories_sizes":[],"default_left":[0,0,0,0,0,0,0,0,0,0,0,0,0,0,0],"id":46,"left_children":[1,3,5,7,9,11,13,-1,-1,-1,-1,-1,-1,-1,-1],"loss_changes":[2.3069641E-1,2.9280066E-1,1.1131184E-1,5.206826E-1,1.1786548E0,8.6532414E-2,9.406356E-2,0E0,0E0,0E0,0E0,0E0,0E0,0E0,0E0],"parents":[2147483647,0,0,1,1,2,2,3,3,4,4,5,5,6,6],"right_children":[2,4,6,8,10,12,14,-1,-1,-1,-1,-1,-1,-1,-1],"split_conditions":[1.9444445E1,2E1,2.21E1,1.95E1,3.009E1,2.09E1,5.06E2,7.49133E-5,1.340031E-2,-1.3090981E-3,-3.5773337E-2,-1.9174577E-3,6.691561E-2,3.9281107E-2,-4.832411E-3],"split_indices":[2,4,4,4,3,4,0,0,0,0,0,0,0,0,0],"split_type":[0,0,0,0,0,0,0,0,0,0,0,0,0,0,0],"sum_hessian":[4.256E3,4.23E3,2.6E1,3.125E3,1.105E3,9E0,1.7E1,2.835E3,2.9E2,1.008E3,9.7E1,2E0,7E0,6E0,1.1E1],"tree_param":{"num_deleted":"0","num_feature":"5","num_nodes":"15","size_leaf_vector":"1"}},{"base_weights":[3.5161167E-5,-6.065504E-4,7.529269E-2,5.4037835E-2,-1.4339518E-3,2.7219835E-1,9.312562E-3,1.0556019E-1,-1.1471178E-2,-7.3628545E-2,-3.4201858E-4,1.0952493E-1,1.9446516E-2,1.2497191E-2,-8.223382E-2],"categories":[],"categories_nodes":[],"categories_segments":[],"categories_sizes":[],"default_left":[0,0,0,0,0,0,0,0,0,0,0,0,0,0,0],"id":47,"left_children":[1,3,5,7,9,11,13,-1,-1,-1,-1,-1,-1,-1,-1],"loss_changes":[2.0563164E-1,1.9096611E-1,4.6517217E-1,1.7448356E0,2.9802352E-1,1.4969379E-1,2.6810366E-1,0E0,0E0,0E0,0E0,0E0,0E0,0E0,0E0],"parents":[2147483647,0,0,1,1,2,2,3,3,4,4,5,5,6,6],"right_children":[2,4,6,8,10,12,14,-1,-1,-1,-1,-1,-1,-1,-1],"split_conditions":[7.64E2,2.8845E1,1.1111111E1,3.0555556E0,2.886E1,1.77E1,1.96E1,1.0556019E-1,-1.1471178E-2,-7.3628545E-2,-3.4201858E-4,1.0952493E-1,1.9446516E-2,1.2497191E-2,-8.223382E-2],"split_indices":[0,3,2,2,3,4,4,0,0,0,0,0,0,0,0],"split_type":[0,0,0,0,0,0,0,0,0,0,0,0,0,0,0],"sum_hessian":[4.256E3,4.221E3,3.5E1,6.2E1,4.159E3,8E0,2.7E1,1.4E1,4.8E1,4E0,4.155E3,5E0,3E0,2.5E1,2E0],"tree_param":{"num_deleted":"0","num_feature":"5","num_nodes":"15","size_leaf_vector":"1"}},{"base_weights":[4.2922515E-5,1.8440175E-4,-9.031391E-2,-1.4350748E-1,4.5490084E-4,-4.972632E-2,-1.5353346E-2,2.5868965E-3,-1.4310232E-3],"categories":[],"categories_nodes":[],"categories_segments":[],"categories_sizes":[],"default_left":[0,0,0,0,0,0,0,0,0],"id":48,"left_children":[1,3,-1,5,7,-1,-1,-1,-1],"loss_changes":[1.8139471E-1,1.6548973E-1,0E0,7.949442E-3,1.8138027E-1,0E0,0E0,0E0,0E0],"parents":[2147483647,0,0,1,1,3,3,4,4],"right_children":[2,4,-1,6,8,-1,-1,-1,-1],"split_conditions":[5.6E1,6.2E0,-9.031391E-2,6.1E0,1.73E1,-4.972632E-2,-1.5353346E-2,2.5868965E-3,-1.4310232E-3],"split_indices":[1,4,0,4,4,0,0,0,0],"split_type":[0,0,0,0,0,0,0,0,0],"sum_hessian":[4.256E3,4.255E3,1E0,7E0,4.248E3,5E0,2E0,1.657E3,2.591E3],"tree_param":{"num_deleted":"0","num_feature":"5","num_nodes":"9","size_leaf_vector":"1"}},{"base_weights":[-6.557099E-6,-1.7841553E-2,2.3395312E-3,7.4873893E-3,-1.797561E-1,7.741273E-1,9.0092217E-4,-3.4556496E-3,6.859013E-2,1.5228616E-1,-7.670657E-2,3.4663475E-1,-3.583546E-2,3.0472444E-2,-4.6241976E-4],"categories":[],"categories_nodes":[],"categories_segments":[],"categories_sizes":[],"default_left":[0,0,0,0,0,0,0,0,0,0,0,0,0,0,0],"id":49,"left_children":[1,3,5,7,9,11,13,-1,-1,-1,-1,-1,-1,-1,-1],"loss_changes":[1.7816517E-1,2.0314026E0,4.1773643E0,1.8057877E0,3.6268044E0,2.5232077E0,9.239202E-1,0E0,0E0,0E0,0E0,0E0,0E0,0E0,0E0],"parents":[2147483647,0,0,1,1,2,2,3,3,4,4,5,5,6,6],"right_children":[2,4,6,8,10,12,14,-1,-1,-1,-1,-1,-1,-1,-1],"split_conditions":[1.45E1,1.12E1,1.2E1,1.05E1,5.23E2,1.7E1,1.52E1,-3.4556496E-3,6.859013E-2,1.5228616E-1,-7.670657E-2,3.4663475E-1,-3.583546E-2,3.0472444E-2,-4.6241976E-4],"split_indices":[1,4,4,4,0,1,1,0,0,0,0,0,0,0,0],"split_type":[0,0,0,0,0,0,0,0,0,0,0,0,0,0,0],"sum_hessian":[4.256E3,4.94E2,3.762E3,4.28E2,6.6E1,6E0,3.756E3,3.95E2,3.3E1,6E0,6E1,4E0,2E0,8.8E1,3.668E3],"tree_param":{"num_deleted":"0","num_feature":"5","num_nodes":"15","size_leaf_vector":"1"}}]},"name":"gbtree"},"learner_model_param":{"base_score":"1.733522E1","boost_from_average":"1","num_class":"0","num_feature":"5","num_target":"1"},"objective":{"name":"reg:squarederror","reg_loss_param":{"scale_pos_weight":"1"}}},"version":[2,0,3]}