{"learner":{"attributes":{"scikit_learn":"{\"_estimator_type\": \"regressor\"}"},"feature_names":[],"feature_types":[],"gradient_booster":{"model":{"gbtree_model_param":{"num_parallel_tree":"1","num_trees":"10"},"iteration_indptr":[0,1,2,3,4,5,6,7,8,9,10],"tree_info":[0,0,0,0,0,0,0,0,0,0],"trees":[{"base_weights":[-8.121846E-7,-2.171455E0,1.5412576E0,-4.3082576E0,-1.2999405E0,7.966631E-1,2.9444513E0,-5.5609813E0,-3.4140334E0,-1.9612325E0,-7.5587416E-1,3.090755E-1,1.3859533E0,2.4629889E0,3.9960341E0,-6.7083697E0,-5.049903E0,-3.599666E0,-2.5116968E0,-2.4357812E0,-1.6711407E0,-8.5294235E-1,5.8169127E-2,4.2009868E-2,6.4293903E-1,1.1274152E0,1.6688391E0,2.2084692E0,2.9861982E0,3.5575283E0,4.6117105E0,-2.0492485E0,-1.3031491E0,-1.5810952E0,-1.3098915E0,-1.1940385E0,-9.6278757E-1,-9.5944875E-1,-6.009866E-1,-7.6299495E-1,-5.176776E-1,-5.342855E-1,-3.2303122E-1,-3.254095E-1,-1.751534E-1,-8.416431E-3,1.7305455E-1,-1.0348559E-2,2.2773139E-1,1.7284203E-1,4.0918142E-1,3.0843052E-1,5.0302875E-1,4.7715628E-1,6.863558E-1,6.092737E-1,7.2175914E-1,8.652517E-1,1.0781444E0,1.0233467E0,1.2006154E0,-1.836465E-1,1.3915077E0],"categories":[],"categories_nodes":[],"categories_segments":[],"categories_sizes":[],"default_left":[0,0,0,0,0,0,0,0,0,0,0,0,0,0,0,0,0,0,0,0,0,0,0,0,0,0,0,0,0,0,0,0,0,0,0,0,0,0,0,0,0,0,0,0,0,0,0,0,0,0,0,0,0,0,0,0,0,0,0,0,0,0,0],"id":0,"left_children":[1,3,5,7,9,11,13,15,17,19,21,23,25,27,29,31,33,35,37,39,41,43,45,47,49,51,53,55,57,59,61,-1,-1,-1,-1,-1,-1,-1,-1,-1,-1,-1,-1,-1,-1,-1,-1,-1,-1,-1,-1,-1,-1,-1,-1,-1,-1,-1,-1,-1,-1,-1,-1],"loss_changes":[2.831369E4,6.5346367E3,5.167377E3,1.1202734E3,8.965449E2,9.287986E2,8.58458E2,2.1358789E2,9.0791016E1,1.509375E2,1.0838275E2,1.578815E2,1.0519092E2,1.5040918E2,1.2857227E2,7.1015625E0,2.158789E1,6.0299805E1,3.0238647E1,2.8068848E1,4.3900757E1,7.5763855E1,6.5903983E0,5.4064644E1,3.7117676E1,4.017633E1,3.0151611E1,2.3047607E1,1.337793E1,7.039551E0,3.3465332E1,0E0,0E0,0E0,0E0,0E0,0E0,0E0,0E0,0E0,0E0,0E0,0E0,0E0,0E0,0E0,0E0,0E0,0E0,0E0,0E0,0E0,0E0,0E0,0E0,0E0,0E0,0E0,0E0,0E0,0E0,0E0,0E0],"parents":[2147483647,0,0,1,1,2,2,3,3,4,4,5,5,6,6,7,7,8,8,9,9,10,10,11,11,12,12,13,13,14,14,15,15,16,16,17,17,18,18,19,19,20,20,21,21,22,22,23,23,24,24,25,25,26,26,27,27,28,28,29,29,30,30],"right_children":[2,4,6,8,10,12,14,16,18,20,22,24,26,28,30,32,34,36,38,40,42,44,46,48,50,52,54,56,58,60,62,-1,-1,-1,-1,-1,-1,-1,-1,-1,-1,-1,-1,-1,-1,-1,-1,-1,-1,-1,-1,-1,-1,-1,-1,-1,-1,-1,-1,-1,-1,-1,-1],"split_conditions":[1.98E1,1.72E1,2.2E1,1.55E1,1.87E1,2.1E1,2.35E1,1.4E1,2.98E1,1.79E1,4.29E1,2.05E1,2.15E1,2.29E1,2.44E1,3.37E1,2.54E1,1.65E1,-4.2261825E0,3.24E1,3.71E1,1.93E1,6.64E1,4.46E1,5.27E1,4.25E1,6.1E1,2.24E1,6.17E1,5.89E1,-5.5555553E0,-2.0492485E0,-1.3031491E0,-1.5810952E0,-1.3098915E0,-1.1940385E0,-9.6278757E-1,-9.5944875E-1,-6.009866E-1,-7.6299495E-1,-5.176776E-1,-5.342855E-1,-3.2303122E-1,-3.254095E-1,-1.751534E-1,-8.416431E-3,1.7305455E-1,-1.0348559E-2,2.2773139E-1,1.7284203E-1,4.0918142E-1,3.0843052E-1,5.0302875E-1,4.7715628E-1,6.863558E-1,6.092737E-1,7.2175914E-1,8.652517E-1,1.0781444E0,1.0233467E0,1.2006154E0,-1.836465E-1,1.3915077E0],"split_indices":[4,4,4,4,4,4,4,4,0,4,0,4,4,4,4,0,0,4,3,0,0,4,0,0,0,0,0,4,0,0,1,0,0,0,0,0,0,0,0,0,0,0,0,0,0,0,0,0,0,0,0,0,0,0,0,0,0,0,0,0,0,0,0],"split_type":[0,0,0,0,0,0,0,0,0,0,0,0,0,0,0,0,0,0,0,0,0,0,0,0,0,0,0,0,0,0,0,0,0,0,0,0,0,0,0,0,0,0,0,0,0,0,0,0,0,0,0,0,0,0,0,0,0,0,0,0,0,0,0],"sum_hessian":[8.458E3,3.511E3,4.947E3,1.016E3,2.495E3,3.233E3,1.714E3,4.21E2,5.95E2,1.125E3,1.37E3,1.77E3,1.463E3,1.178E3,5.36E2,1.26E2,2.95E2,4.91E2,1.04E2,4.24E2,7.01E2,1.224E3,1.46E2,9.84E2,7.86E2,7.67E2,6.96E2,7.96E2,3.82E2,3.17E2,2.19E2,1.18E2,8E0,2.18E2,7.7E1,2.44E2,2.47E2,4.2E1,6.2E1,3.66E2,5.8E1,5.9E2,1.11E2,6.56E2,5.68E2,1.26E2,2E1,8.9E2,9.4E1,7.21E2,6.5E1,6.52E2,1.15E2,6.21E2,7.5E1,4.25E2,3.71E2,3.32E2,5E1,2.45E2,7.2E1,1E0,2.18E2],"tree_param":{"num_deleted":"0","num_feature":"5","num_nodes":"63","size_leaf_vector":"1"}},{"base_weights":[-3.4973884E-4,-1.6748286E0,9.8646986E-1,-3.2290888E0,-1.1041136E0,3.822741E-1,1.9216479E0,-4.076565E0,-2.6238291E0,-1.7373505E0,-7.9089457E-1,2.1018991E-2,7.744937E-1,1.5325017E0,2.645525E0,-1.476738E0,-3.7500389E0,-2.799863E0,-2.0260653E0,-1.8154818E0,-1.20431E0,-1.0653677E0,-5.822569E-1,-1.9292621E-1,2.2453976E-1,6.962266E-1,1.2374643E0,1.3487872E0,1.7912902E0,2.495122E0,3.886663E0,-1.1703029E0,-9.6768653E-1,-9.2866415E-1,-7.3124737E-1,-6.5674907E-1,-1.2903498E-1,-5.899866E-1,-4.6693924E-1,-4.1963956E-1,-1.6946787E-1,-3.3989263E-1,-1.5358104E-1,-1.995976E-1,3.4763683E-2,-7.7113755E-2,5.529468E-2,3.93179E-2,1.4225715E-1,1.5028934E-1,2.5080776E-1,3.070693E-1,4.2474023E-1,3.9194363E-1,5.170984E-1,5.138195E-1,7.225272E-1,6.824011E-1,8.4219086E-1,-1.5609942E-1,1.1854489E0],"categories":[],"categories_nodes":[],"categories_segments":[],"categories_sizes":[],"default_left":[0,0,0,0,0,0,0,0,0,0,0,0,0,0,0,0,0,0,0,0,0,0,0,0,0,0,0,0,0,0,0,0,0,0,0,0,0,0,0,0,0,0,0,0,0,0,0,0,0,0,0,0,0,0,0,0,0,0,0,0,0],"id":1,"left_children":[1,3,5,7,9,11,13,15,17,19,21,23,25,27,29,-1,31,33,35,37,39,41,43,45,47,49,51,53,55,57,59,-1,-1,-1,-1,-1,-1,-1,-1,-1,-1,-1,-1,-1,-1,-1,-1,-1,-1,-1,-1,-1,-1,-1,-1,-1,-1,-1,-1,-1,-1],"loss_changes":[1.3979377E4,2.7790781E3,3.0069233E3,4.2120215E2,4.540188E2,4.5835522E2,5.844043E2,7.793652E1,4.630957E1,2.9423584E1,8.745398E1,7.341208E1,5.5339417E1,6.229004E1,1.26385254E2,0E0,7.6845703E0,3.3063477E1,2.9252777E1,2.2776855E1,1.1645752E1,2.4226868E1,5.0878967E1,1.9930407E1,2.0101345E1,3.585956E1,7.0574036E0,1.0436401E1,2.312146E1,3.8554688E1,2.4056519E1,0E0,0E0,0E0,0E0,0E0,0E0,0E0,0E0,0E0,0E0,0E0,0E0,0E0,0E0,0E0,0E0,0E0,0E0,0E0,0E0,0E0,0E0,0E0,0E0,0E0,0E0,0E0,0E0,0E0,0E0],"parents":[2147483647,0,0,1,1,2,2,3,3,4,4,5,5,6,6,7,7,8,8,9,9,10,10,11,11,12,12,13,13,14,14,16,16,17,17,18,18,19,19,20,20,21,21,22,22,23,23,24,24,25,25,26,26,27,27,28,28,29,29,30,30],"right_children":[2,4,6,8,10,12,14,16,18,20,22,24,26,28,30,-1,32,34,36,38,40,42,44,46,48,50,52,54,56,58,60,-1,-1,-1,-1,-1,-1,-1,-1,-1,-1,-1,-1,-1,-1,-1,-1,-1,-1,-1,-1,-1,-1,-1,-1,-1,-1,-1,-1,-1,-1],"split_conditions":[1.95E1,1.68E1,2.17E1,1.52E1,1.81E1,2.07E1,2.32E1,1.35E1,2.54E1,3.87E1,1.88E1,2.01E1,4.35E1,2.24E1,2.52E1,-1.476738E0,2.54E1,1.62E1,2.9955E1,1.77E1,2.9875E1,4.72E1,4.35E1,3.57E1,3.03E1,2.11E1,6.1E1,5.81E1,5.81E1,2.4E1,-5.5555553E0,-1.1703029E0,-9.6768653E-1,-9.2866415E-1,-7.3124737E-1,-6.5674907E-1,-1.2903498E-1,-5.899866E-1,-4.6693924E-1,-4.1963956E-1,-1.6946787E-1,-3.3989263E-1,-1.5358104E-1,-1.995976E-1,3.4763683E-2,-7.7113755E-2,5.529468E-2,3.93179E-2,1.4225715E-1,1.5028934E-1,2.5080776E-1,3.070693E-1,4.2474023E-1,3.9194363E-1,5.170984E-1,5.138195E-1,7.225272E-1,6.824011E-1,8.4219086E-1,-1.5609942E-1,1.1854489E0],"split_indices":[4,4,4,4,4,4,4,4,0,0,4,4,0,4,4,0,0,4,2,4,2,0,0,0,0,4,0,0,0,4,1,0,0,0,0,0,0,0,0,0,0,0,0,0,0,0,0,0,0,0,0,0,0,0,0,0,0,0,0,0,0],"split_type":[0,0,0,0,0,0,0,0,0,0,0,0,0,0,0,0,0,0,0,0,0,0,0,0,0,0,0,0,0,0,0,0,0,0,0,0,0,0,0,0,0,0,0,0,0,0,0,0,0,0,0,0,0,0,0,0,0,0,0,0,0],"sum_hessian":[8.458E3,3.136E3,5.322E3,8.41E2,2.295E3,3.234E3,2.088E3,3.48E2,4.93E2,7.58E2,1.537E3,1.684E3,1.55E3,1.36E3,7.28E2,9.3E1,2.55E2,3.78E2,1.15E2,6.59E2,9.9E1,6.62E2,8.75E2,8.21E2,8.63E2,1.328E3,2.22E2,7.99E2,5.61E2,6.52E2,7.6E1,1.93E2,6.2E1,2.04E2,1.74E2,1.04E2,1.1E1,4.12E2,2.47E2,7.5E1,2.4E1,5.89E2,7.3E1,7.82E2,9.3E1,7.02E2,1.19E2,6.29E2,2.34E2,5.56E2,7.72E2,1.04E2,1.18E2,7.22E2,7.7E1,5.01E2,6E1,3.87E2,2.65E2,1E0,7.5E1],"tree_param":{"num_deleted":"0","num_feature":"5","num_nodes":"61","size_leaf_vector":"1"}},{"base_weights":[-5.2510714E-4,-1.0360738E0,7.871816E-1,-2.1322448E0,-6.1324614E-1,4.3505168E-1,1.4909501E0,-2.7148335E0,-1.6306669E0,-9.9835294E-1,-3.6805847E-1,2.1968807E-1,7.5318015E-1,1.2457436E0,1.9749337E0,-3.3569634E0,-2.4768598E0,1.8422735E0,-1.653123E0,-1.139542E0,-8.099721E-1,-4.4982848E-1,-8.701581E-2,-9.922737E-3,3.1893554E-1,6.931193E-1,1.1025107E0,1.0684626E0,1.4340523E0,1.819143E0,2.6137106E0,-1.0392526E0,-6.525192E-1,-7.70454E-1,-6.5398264E-1,-3.5985363E-1,9.768118E-1,-5.2499485E-1,-2.9414105E-1,-3.705568E-1,-2.6920784E-1,-2.7008417E-1,-1.5851986E-1,-1.9905497E-1,-1.00729294E-1,-4.2945135E-2,9.772961E-2,-1.925764E-2,1.3532549E-1,8.7723956E-2,1.9521864E-1,1.633522E-1,2.3488948E-1,2.809621E-1,4.4910592E-1,3.096702E-1,4.1722974E-1,4.128827E-1,5.5216646E-1,5.008934E-1,6.0649705E-1,-1.3268453E-1,7.9440224E-1],"categories":[],"categories_nodes":[],"categories_segments":[],"categories_sizes":[],"default_left":[0,0,0,0,0,0,0,0,0,0,0,0,0,0,0,0,0,0,0,0,0,0,0,0,0,0,0,0,0,0,0,0,0,0,0,0,0,0,0,0,0,0,0,0,0,0,0,0,0,0,0,0,0,0,0,0,0,0,0,0,0,0,0],"id":2,"left_children":[1,3,5,7,9,11,13,15,17,19,21,23,25,27,29,31,33,35,37,39,41,43,45,47,49,51,53,55,57,59,61,-1,-1,-1,-1,-1,-1,-1,-1,-1,-1,-1,-1,-1,-1,-1,-1,-1,-1,-1,-1,-1,-1,-1,-1,-1,-1,-1,-1,-1,-1,-1,-1],"loss_changes":[6.900895E3,1.6927534E3,1.1901167E3,2.927544E2,2.4881604E2,2.193512E2,1.8765869E2,6.335327E1,4.586145E1,2.6365845E1,3.7051956E1,4.357438E1,2.6364319E1,3.4054565E1,4.868506E1,8.177612E0,3.7832031E0,2.1107147E1,3.3857788E1,1.2419434E1,1.07890625E1,3.0244904E1,8.504166E0,1.4489711E1,1.1557632E1,1.43411255E1,1.0907639E1,5.0215454E0,9.53894E0,9.794434E0,1.1966675E1,0E0,0E0,0E0,0E0,0E0,0E0,0E0,0E0,0E0,0E0,0E0,0E0,0E0,0E0,0E0,0E0,0E0,0E0,0E0,0E0,0E0,0E0,0E0,0E0,0E0,0E0,0E0,0E0,0E0,0E0,0E0,0E0],"parents":[2147483647,0,0,1,1,2,2,3,3,4,4,5,5,6,6,7,7,8,8,9,9,10,10,11,11,12,12,13,13,14,14,15,15,16,16,17,17,18,18,19,19,20,20,21,21,22,22,23,23,24,24,25,25,26,26,27,27,28,28,29,29,30,30],"right_children":[2,4,6,8,10,12,14,16,18,20,22,24,26,28,30,32,34,36,38,40,42,44,46,48,50,52,54,56,58,60,62,-1,-1,-1,-1,-1,-1,-1,-1,-1,-1,-1,-1,-1,-1,-1,-1,-1,-1,-1,-1,-1,-1,-1,-1,-1,-1,-1,-1,-1,-1,-1,-1],"split_conditions":[1.99E1,1.72E1,2.21E1,1.57E1,1.86E1,2.12E1,2.35E1,1.39E1,1.48E1,1.81E1,3.03E1,2.03E1,4.87E1,2.27E1,2.5E1,2.49E1,2.54E1,-5.448976E0,3.81E1,2.3E1,3.06E1,1.91E1,6.58E1,4.46E1,5.6E1,2.15E1,9.444445E0,5.39E1,5.98E1,4.41E1,-5.5555553E0,-1.0392526E0,-6.525192E-1,-7.70454E-1,-6.5398264E-1,-3.5985363E-1,9.768118E-1,-5.2499485E-1,-2.9414105E-1,-3.705568E-1,-2.6920784E-1,-2.7008417E-1,-1.5851986E-1,-1.9905497E-1,-1.00729294E-1,-4.2945135E-2,9.772961E-2,-1.925764E-2,1.3532549E-1,8.7723956E-2,1.9521864E-1,1.633522E-1,2.3488948E-1,2.809621E-1,4.4910592E-1,3.096702E-1,4.1722974E-1,4.128827E-1,5.5216646E-1,5.008934E-1,6.0649705E-1,-1.3268453E-1,7.9440224E-1],"split_indices":[4,4,4,4,4,4,4,4,0,4,0,4,0,4,4,0,0,3,0,0,0,4,0,0,0,4,1,0,0,0,1,0,0,0,0,0,0,0,0,0,0,0,0,0,0,0,0,0,0,0,0,0,0,0,0,0,0,0,0,0,0,0,0],"split_type":[0,0,0,0,0,0,0,0,0,0,0,0,0,0,0,0,0,0,0,0,0,0,0,0,0,0,0,0,0,0,0,0,0,0,0,0,0,0,0,0,0,0,0,0,0,0,0,0,0,0,0,0,0,0,0,0,0,0,0,0,0,0,0],"sum_hessian":[8.458E3,3.654E3,4.804E3,1.016E3,2.638E3,3.203E3,1.601E3,4.68E2,5.48E2,1.025E3,1.613E3,1.911E3,1.292E3,1.065E3,5.36E2,1.23E2,3.45E2,3E0,5.45E2,5.83E2,4.42E2,1.249E3,3.64E2,5.77E2,1.334E3,1.105E3,1.87E2,5.52E2,5.13E2,4.34E2,1.02E2,1.11E2,1.2E1,2.58E2,8.7E1,1E0,2E0,4.75E2,7E1,4.15E2,1.68E2,3.33E2,1.09E2,4.33E2,8.16E2,3.21E2,4.3E1,5.17E2,6E1,1.237E3,9.7E1,4.19E2,6.86E2,1.34E2,5.3E1,5E2,5.2E1,4.53E2,6E1,2.55E2,1.79E2,1E0,1.01E2],"tree_param":{"num_deleted":"0","num_feature":"5","num_nodes":"63","size_leaf_vector":"1"}},{"base_weights":[-3.2552268E-4,-8.290164E-1,4.8804635E-1,-1.6014127E0,-5.453985E-1,1.908586E-1,9.4803405E-1,-2.092451E0,-1.3271714E0,-7.883348E-1,-3.5533473E-1,9.619452E-3,3.8763303E-1,7.2288805E-1,1.2670445E0,-2.7137353E0,-1.9573393E0,1.6329029E-1,-1.3441287E0,-9.600239E-1,-6.6930324E-1,-4.189196E-1,-1.529731E-1,-4.7511682E-2,1.5697552E-1,3.3809796E-1,5.965128E-1,6.953426E-1,1.0894252E0,1.110223E0,1.5983204E0,-8.265282E-1,-9.687067E-2,-5.9977484E-1,-3.7959602E-1,-3.4742182E-1,4.3314925E-1,-4.684147E-1,-3.647072E-1,-2.913273E-1,-1.2607013E-1,-2.3454763E-1,-1.2649986E-1,7.19963E-1,-1.2727344E-1,-8.7285995E-2,3.5756335E-2,-3.4634013E-2,2.7203774E-2,2.8161583E-2,9.926858E-2,8.142662E-2,1.296772E-1,1.3502109E-1,2.0855868E-1,1.9821206E-1,3.0074534E-1,1.8606737E-1,3.768508E-1,3.1883177E-1,4.603348E-1,4.398493E-1,6.26689E-1],"categories":[],"categories_nodes":[],"categories_segments":[],"categories_sizes":[],"default_left":[0,0,0,0,0,0,0,0,0,0,0,0,0,0,0,0,0,0,0,0,0,0,0,0,0,0,0,0,0,0,0,0,0,0,0,0,0,0,0,0,0,0,0,0,0,0,0,0,0,0,0,0,0,0,0,0,0,0,0,0,0,0,0],"id":3,"left_children":[1,3,5,7,9,11,13,15,17,19,21,23,25,27,29,31,33,35,37,39,41,43,45,47,49,51,53,55,57,59,61,-1,-1,-1,-1,-1,-1,-1,-1,-1,-1,-1,-1,-1,-1,-1,-1,-1,-1,-1,-1,-1,-1,-1,-1,-1,-1,-1,-1,-1,-1,-1,-1],"loss_changes":[3.4238406E3,6.863347E2,7.2748755E2,1.1060913E2,1.0573401E2,1.153668E2,1.4912439E2,1.9871216E1,1.3943359E1,1.993689E1,1.6534515E1,1.4192832E1,1.5846329E1,1.1630859E1,4.3059326E1,4.1533203E0,4.7209473E0,1.3516472E1,1.308606E1,2.0411987E0,1.6333405E1,1.574353E1,1.167605E1,1.1416894E1,5.1381407E0,7.7680664E0,3.964714E0,1.1507629E1,5.792755E0,1.0225586E1,1.4768677E1,0E0,0E0,0E0,0E0,0E0,0E0,0E0,0E0,0E0,0E0,0E0,0E0,0E0,0E0,0E0,0E0,0E0,0E0,0E0,0E0,0E0,0E0,0E0,0E0,0E0,0E0,0E0,0E0,0E0,0E0,0E0,0E0],"parents":[2147483647,0,0,1,1,2,2,3,3,4,4,5,5,6,6,7,7,8,8,9,9,10,10,11,11,12,12,13,13,14,14,15,15,16,16,17,17,18,18,19,19,20,20,21,21,22,22,23,23,24,24,25,25,26,26,27,27,28,28,29,29,30,30],"right_children":[2,4,6,8,10,12,14,16,18,20,22,24,26,28,30,32,34,36,38,40,42,44,46,48,50,52,54,56,58,60,62,-1,-1,-1,-1,-1,-1,-1,-1,-1,-1,-1,-1,-1,-1,-1,-1,-1,-1,-1,-1,-1,-1,-1,-1,-1,-1,-1,-1,-1,-1,-1,-1],"split_conditions":[1.95E1,1.68E1,2.17E1,1.5E1,1.84E1,2.07E1,2.3E1,1.31E1,1.48E1,1.76E1,3.01E1,2.71E1,3.83E1,1.6944445E1,2.42E1,3.0075E1,3.0015E1,1.55E1,1.58E1,6.52E1,2.33E1,1.55E1,6.9444447E0,2.03E1,5.15E1,2.13E1,2.12E1,6.1E1,2.9755E1,6.49E1,2.55E1,-8.265282E-1,-9.687067E-2,-5.9977484E-1,-3.7959602E-1,-3.4742182E-1,4.3314925E-1,-4.684147E-1,-3.647072E-1,-2.913273E-1,-1.2607013E-1,-2.3454763E-1,-1.2649986E-1,7.19963E-1,-1.2727344E-1,-8.7285995E-2,3.5756335E-2,-3.4634013E-2,2.7203774E-2,2.8161583E-2,9.926858E-2,8.142662E-2,1.296772E-1,1.3502109E-1,2.0855868E-1,1.9821206E-1,3.0074534E-1,1.8606737E-1,3.768508E-1,3.1883177E-1,4.603348E-1,4.398493E-1,6.26689E-1],"split_indices":[4,4,4,4,4,4,4,4,0,4,0,0,0,1,4,2,2,4,4,0,0,0,1,4,0,4,4,0,2,0,4,0,0,0,0,0,0,0,0,0,0,0,0,0,0,0,0,0,0,0,0,0,0,0,0,0,0,0,0,0,0,0,0],"split_type":[0,0,0,0,0,0,0,0,0,0,0,0,0,0,0,0,0,0,0,0,0,0,0,0,0,0,0,0,0,0,0,0,0,0,0,0,0,0,0,0,0,0,0,0,0,0,0,0,0,0,0,0,0,0,0,0,0,0,0,0,0,0,0],"sum_hessian":[8.458E3,3.136E3,5.322E3,8.41E2,2.295E3,3.234E3,2.088E3,2.99E2,5.42E2,1.006E3,1.289E3,1.684E3,1.55E3,1.226E3,8.62E2,5E1,2.49E2,6E0,5.36E2,4.09E2,5.97E2,9.8E2,3.09E2,1.214E3,4.7E2,1.255E3,2.95E2,1.143E3,8.3E1,5.88E2,2.74E2,4.9E1,1E0,2.33E2,1.6E1,3E0,3E0,1.95E2,3.41E2,4E2,9E0,4.09E2,1.88E2,1E0,9.79E2,2.05E2,1.04E2,8.14E2,4E2,3.46E2,1.24E2,7.37E2,5.18E2,1.21E2,1.74E2,1.03E3,1.13E2,2.3E1,6E1,5.32E2,5.6E1,2.19E2,5.5E1],"tree_param":{"num_deleted":"0","num_feature":"5","num_nodes":"63","size_leaf_vector":"1"}},{"base_weights":[-1.4576798E-4,-6.735589E-1,2.979751E-1,-1.249242E0,-4.9229738E-1,6.742854E-2,6.281326E-1,-1.5582249E0,-1.070979E0,-7.079045E-1,-3.908558E-1,-4.4210248E-2,2.2890913E-1,4.7427022E-1,8.7741274E-1,-1.6698784E0,-8.818811E-1,-1.2751815E0,-9.458073E-1,-7.398261E-1,-4.1855937E-1,-4.1758838E-1,-1.3759091E-1,-1.0908199E-1,4.8825208E-2,2.0787054E-1,5.216856E-1,4.1196588E-1,5.7587457E-1,7.7147174E-1,1.1227019E0,-6.807266E-1,-4.7610313E-1,8.860537E-1,-3.2628167E-1,5.7503704E-2,-3.9205572E-1,-3.2405114E-1,2.2658244E-2,1.1874437E-1,-2.2336398E-1,-1.9336377E-1,-1.6436841E-2,-1.428259E-1,-8.5795596E-2,1.3875522E-1,-6.076156E-2,-4.7426153E-2,7.1833725E-3,-1.4049937E-2,3.8157746E-2,3.7320588E-2,7.604266E-2,1.1265074E-1,2.3415725E-1,9.38156E-2,1.4411923E-1,1.6348365E-1,2.321187E-1,2.0435789E-1,2.5934064E-1,2.801765E-1,4.045196E-1],"categories":[],"categories_nodes":[],"categories_segments":[],"categories_sizes":[],"default_left":[0,0,0,0,0,0,0,0,0,0,0,0,0,0,0,0,0,0,0,0,0,0,0,0,0,0,0,0,0,0,0,0,0,0,0,0,0,0,0,0,0,0,0,0,0,0,0,0,0,0,0,0,0,0,0,0,0,0,0,0,0,0,0],"id":4,"left_children":[1,3,5,7,9,11,13,15,17,19,21,23,25,27,29,31,33,35,37,39,41,43,45,47,49,51,53,55,57,59,61,-1,-1,-1,-1,-1,-1,-1,-1,-1,-1,-1,-1,-1,-1,-1,-1,-1,-1,-1,-1,-1,-1,-1,-1,-1,-1,-1,-1,-1,-1,-1,-1],"loss_changes":[1.6984169E3,2.702755E2,4.4630585E2,3.253601E1,4.2941498E1,6.22771E1,9.2057434E1,1.5518494E1,8.941376E0,5.5184937E0,9.055527E0,1.233559E1,8.588921E0,9.21405E0,2.3015137E1,5.9327393E0,3.003941E1,7.126068E0,3.4388992E1,3.334259E0,5.3081436E0,9.232925E0,5.1605043E0,7.8526487E0,6.3030024E0,4.9893456E0,3.263668E0,6.159195E0,3.035843E0,4.8263245E0,1.0457642E1,0E0,0E0,0E0,0E0,0E0,0E0,0E0,0E0,0E0,0E0,0E0,0E0,0E0,0E0,0E0,0E0,0E0,0E0,0E0,0E0,0E0,0E0,0E0,0E0,0E0,0E0,0E0,0E0,0E0,0E0,0E0,0E0],"parents":[2147483647,0,0,1,1,2,2,3,3,4,4,5,5,6,6,7,7,8,8,9,9,10,10,11,11,12,12,13,13,14,14,15,15,16,16,17,17,18,18,19,19,20,20,21,21,22,22,23,23,24,24,25,25,26,26,27,27,28,28,29,29,30,30],"right_children":[2,4,6,8,10,12,14,16,18,20,22,24,26,28,30,32,34,36,38,40,42,44,46,48,50,52,54,56,58,60,62,-1,-1,-1,-1,-1,-1,-1,-1,-1,-1,-1,-1,-1,-1,-1,-1,-1,-1,-1,-1,-1,-1,-1,-1,-1,-1,-1,-1,-1,-1,-1,-1],"split_conditions":[1.91E1,1.62E1,2.15E1,1.47E1,1.76E1,2.06E1,2.29E1,2.49E1,-5.25E0,4.19E1,4.72E1,2E1,6.1E1,2.22E1,2.42E1,1.26E1,2.57E1,1.3888888E0,3.44E1,1.48E1,3.0555556E0,1.2222222E1,4.96E1,2.66E1,9.444445E0,2.09E1,2.977E1,1E1,1.5833333E1,2.983E1,-3.4862298E-1,-6.807266E-1,-4.7610313E-1,8.860537E-1,-3.2628167E-1,5.7503704E-2,-3.9205572E-1,-3.2405114E-1,2.2658244E-2,1.1874437E-1,-2.2336398E-1,-1.9336377E-1,-1.6436841E-2,-1.428259E-1,-8.5795596E-2,1.3875522E-1,-6.076156E-2,-4.7426153E-2,7.1833725E-3,-1.4049937E-2,3.8157746E-2,3.7320588E-2,7.604266E-2,1.1265074E-1,2.3415725E-1,9.38156E-2,1.4411923E-1,1.6348365E-1,2.321187E-1,2.0435789E-1,2.5934064E-1,2.801765E-1,4.045196E-1],"split_indices":[4,4,4,4,4,4,4,0,3,0,0,4,0,4,4,4,0,1,0,0,1,1,0,0,1,4,2,1,1,2,3,0,0,0,0,0,0,0,0,0,0,0,0,0,0,0,0,0,0,0,0,0,0,0,0,0,0,0,0,0,0,0,0],"split_type":[0,0,0,0,0,0,0,0,0,0,0,0,0,0,0,0,0,0,0,0,0,0,0,0,0,0,0,0,0,0,0,0,0,0,0,0,0,0,0,0,0,0,0,0,0,0,0,0,0,0,0,0,0,0,0,0,0,0,0,0,0,0,0],"sum_hessian":[8.458E3,2.595E3,5.863E3,6.2E2,1.975E3,3.453E3,2.41E3,2.24E2,3.96E2,6.3E2,1.345E3,2.042E3,1.411E3,1.492E3,9.18E2,1.91E2,3.3E1,1.47E2,2.49E2,5.66E2,6.4E1,1.216E3,1.29E2,1.203E3,8.39E2,1.318E3,9.3E1,9.28E2,5.64E2,6.44E2,2.74E2,2E1,1.71E2,1E0,3.2E1,3E0,1.44E2,2.2E2,2.9E1,2E0,5.64E2,3.9E1,2.5E1,8.4E2,3.76E2,1.2E1,1.17E2,8.79E2,3.24E2,3.78E2,4.61E2,4.67E2,8.51E2,6.1E1,3.2E1,3.81E2,5.47E2,4.91E2,7.3E1,3.31E2,3.13E2,1.52E2,1.22E2],"tree_param":{"num_deleted":"0","num_feature":"5","num_nodes":"63","size_leaf_vector":"1"}},{"base_weights":[-3.9573257E-5,-3.8497263E-1,2.5822976E-1,-8.073922E-1,-2.543234E-1,1.2875268E-1,5.1091814E-1,-1.079031E0,-6.8024534E-1,-3.934294E-1,-1.446251E-1,4.0248085E-2,2.2375374E-1,4.5429602E-1,8.1494015E-1,-1.1505731E0,-6.905184E-1,-9.6194404E-1,-6.07469E-1,-4.4814315E-1,-2.7590084E-1,6.3339245E-1,-1.4763284E-1,2.7622306E-3,1.7037871E-1,1.8580091E-1,3.316434E-1,4.1187778E-1,7.215718E-1,8.443482E-1,-1.0555519E0,-4.2510268E-1,-3.1465745E-1,7.5314575E-1,-2.4894692E-1,-2.5926888E-1,-4.1688064E-1,-2.0157187E-1,1.6042602E-1,-1.5733561E-1,-1.1520278E-1,-9.2734426E-2,1.7438132E-1,-4.7478307E-2,6.944954E-2,-4.0447928E-2,1.3716762E-2,4.34507E-3,7.30642E-2,1.9558365E-2,6.600707E-2,3.142683E-2,1.1672117E-1,1.022954E-1,1.6150336E-1,1.6310664E-1,3.2738888E-1,2.2674246E-1,4.412836E-1],"categories":[],"categories_nodes":[],"categories_segments":[],"categories_sizes":[],"default_left":[0,0,0,0,0,0,0,0,0,0,0,0,0,0,0,0,0,0,0,0,0,0,0,0,0,0,0,0,0,0,0,0,0,0,0,0,0,0,0,0,0,0,0,0,0,0,0,0,0,0,0,0,0,0,0,0,0,0,0],"id":5,"left_children":[1,3,5,7,9,11,13,15,17,19,21,23,25,27,29,31,33,35,37,39,41,-1,43,45,47,49,51,53,55,57,-1,-1,-1,-1,-1,-1,-1,-1,-1,-1,-1,-1,-1,-1,-1,-1,-1,-1,-1,-1,-1,-1,-1,-1,-1,-1,-1,-1,-1],"loss_changes":[8.410628E2,1.8727106E2,1.6558215E2,2.6965515E1,3.9557266E1,2.8149479E1,2.9152405E1,6.2654114E0,1.067067E1,7.232773E0,1.0170685E1,8.46296E0,6.551346E0,1.6119324E1,3.7124283E1,4.286194E0,2.0811674E1,3.4375763E0,3.2670395E1,3.611023E0,1.0599701E1,0E0,5.887438E0,7.973991E0,4.422246E0,4.926235E0,5.4185944E0,1.1041382E1,1.2362907E1,1.3701126E1,0E0,0E0,0E0,0E0,0E0,0E0,0E0,0E0,0E0,0E0,0E0,0E0,0E0,0E0,0E0,0E0,0E0,0E0,0E0,0E0,0E0,0E0,0E0,0E0,0E0,0E0,0E0,0E0,0E0],"parents":[2147483647,0,0,1,1,2,2,3,3,4,4,5,5,6,6,7,7,8,8,9,9,10,10,11,11,12,12,13,13,14,14,15,15,16,16,17,17,18,18,19,19,20,20,22,22,23,23,24,24,25,25,26,26,27,27,28,28,29,29],"right_children":[2,4,6,8,10,12,14,16,18,20,22,24,26,28,30,32,34,36,38,40,42,-1,44,46,48,50,52,54,56,58,-1,-1,-1,-1,-1,-1,-1,-1,-1,-1,-1,-1,-1,-1,-1,-1,-1,-1,-1,-1,-1,-1,-1,-1,-1,-1,-1,-1,-1],"split_conditions":[1.97E1,1.67E1,2.2E1,1.48E1,1.85E1,2.09E1,5.68E1,2.49E1,2.933E1,2.27E1,1.55E1,3.35E1,3.6E1,1.5555555E1,1.6666666E1,1.32E1,2.57E1,5.81E1,4.72E1,7.5E0,1.5833333E1,6.3339245E-1,6.58E1,6.6666665E0,2.7777777E0,6.9444447E0,-7.7819443E0,3.63E1,2.34E1,2.51E1,-1.0555519E0,-4.2510268E-1,-3.1465745E-1,7.5314575E-1,-2.4894692E-1,-2.5926888E-1,-4.1688064E-1,-2.0157187E-1,1.6042602E-1,-1.5733561E-1,-1.1520278E-1,-9.2734426E-2,1.7438132E-1,-4.7478307E-2,6.944954E-2,-4.0447928E-2,1.3716762E-2,4.34507E-3,7.30642E-2,1.9558365E-2,6.600707E-2,3.142683E-2,1.1672117E-1,1.022954E-1,1.6150336E-1,1.6310664E-1,3.2738888E-1,2.2674246E-1,4.412836E-1],"split_indices":[4,4,4,4,4,4,0,0,2,0,0,0,0,1,1,4,0,0,0,1,1,0,0,1,1,1,3,0,4,4,0,0,0,0,0,0,0,0,0,0,0,0,0,0,0,0,0,0,0,0,0,0,0,0,0,0,0,0,0],"split_type":[0,0,0,0,0,0,0,0,0,0,0,0,0,0,0,0,0,0,0,0,0,0,0,0,0,0,0,0,0,0,0,0,0,0,0,0,0,0,0,0,0,0,0,0,0,0,0,0,0,0,0,0,0,0,0,0,0,0,0],"sum_hessian":[8.458E3,3.396E3,5.062E3,8.01E2,2.595E3,3.348E3,1.714E3,2.53E2,5.48E2,1.143E3,1.452E3,1.734E3,1.614E3,1.447E3,2.67E2,2.12E2,4.1E1,1.1E2,4.38E2,7.78E2,3.65E2,1E0,1.451E3,1.347E3,3.87E2,1.196E3,4.18E2,1.251E3,1.96E2,2.66E2,1E0,5.5E1,1.57E2,1E0,4E1,9.2E1,1.8E1,4.15E2,2.3E1,3.52E2,4.26E2,3.52E2,1.3E1,1.412E3,3.9E1,3.2E2,1.027E3,1.24E2,2.63E2,2.65E2,9.31E2,8.5E1,3.33E2,8.04E2,4.47E2,1.34E2,6.2E1,2.35E2,3.1E1],"tree_param":{"num_deleted":"0","num_feature":"5","num_nodes":"59","size_leaf_vector":"1"}},{"base_weights":[-8.716441E-6,-3.4686786E-1,1.4457886E-1,-6.764837E-1,-2.7020445E-1,3.1468686E-2,3.1158042E-1,-1.1935663E0,-6.4836425E-1,-3.8293734E-1,-2.0885949E-1,-3.593683E-2,9.611321E-2,2.173693E-1,4.334889E-1,-3.7470436E-1,3.9442065E-3,-7.559455E-1,-5.5576205E-1,1.2917888E0,-3.918582E-1,-2.2251716E-1,4.8046112E-2,-5.591318E-2,1.6493918E-1,8.970738E-2,4.295923E-1,1.9196324E-1,3.409291E-1,3.866657E-1,6.489114E-1,-2.0018367E-1,-2.902908E-1,-2.0214115E-1,1.8928822E-2,-3.5842368E-1,7.5566465E-1,-1.3218339E-1,-6.823622E-2,-7.6051295E-2,-3.531791E-2,-2.8297225E-2,3.3294505E-1,-4.109696E-2,-4.9494323E-3,-2.946981E-3,7.597385E-2,1.6792146E-2,4.71752E-2,6.637378E-2,4.0950033E-1,2.3089066E-2,6.7241564E-2,1.0931058E-1,-1.3835642E-1,8.8759795E-2,1.5563664E-1,2.054254E-1,-8.972191E-1],"categories":[],"categories_nodes":[],"categories_segments":[],"categories_sizes":[],"default_left":[0,0,0,0,0,0,0,0,0,0,0,0,0,0,0,0,0,0,0,0,0,0,0,0,0,0,0,0,0,0,0,0,0,0,0,0,0,0,0,0,0,0,0,0,0,0,0,0,0,0,0,0,0,0,0,0,0,0,0],"id":6,"left_children":[1,3,5,7,9,11,13,15,17,19,21,23,25,27,29,-1,-1,31,33,35,37,39,41,43,45,47,49,51,53,55,57,-1,-1,-1,-1,-1,-1,-1,-1,-1,-1,-1,-1,-1,-1,-1,-1,-1,-1,-1,-1,-1,-1,-1,-1,-1,-1,-1,-1],"loss_changes":[4.2428183E2,6.271295E1,1.1277984E2,6.04541E0,1.3896439E1,1.5520147E1,2.759645E1,1.5553551E0,4.0330048E0,1.1128532E1,4.6106377E0,7.007494E0,3.8450909E0,4.210106E0,1.0340195E1,0E0,0E0,3.1833649E0,1.786699E1,1.5214262E1,5.574539E0,4.0128784E0,1.0232703E1,5.0692263E0,2.4408612E0,4.058277E0,6.3242254E0,4.171318E0,4.5111275E0,1.0223679E1,2.6310532E1,0E0,0E0,0E0,0E0,0E0,0E0,0E0,0E0,0E0,0E0,0E0,0E0,0E0,0E0,0E0,0E0,0E0,0E0,0E0,0E0,0E0,0E0,0E0,0E0,0E0,0E0,0E0,0E0],"parents":[2147483647,0,0,1,1,2,2,3,3,4,4,5,5,6,6,7,7,8,8,9,9,10,10,11,11,12,12,13,13,14,14,17,17,18,18,19,19,20,20,21,21,22,22,23,23,24,24,25,25,26,26,27,27,28,28,29,29,30,30],"right_children":[2,4,6,8,10,12,14,16,18,20,22,24,26,28,30,-1,-1,32,34,36,38,40,42,44,46,48,50,52,54,56,58,-1,-1,-1,-1,-1,-1,-1,-1,-1,-1,-1,-1,-1,-1,-1,-1,-1,-1,-1,-1,-1,-1,-1,-1,-1,-1,-1,-1],"split_conditions":[1.9E1,1.57E1,2.15E1,1.26E1,1.75E1,2.03E1,2.27E1,3.0075E1,-4.446262E0,1.48E1,1.5833333E1,4.8E1,8.356239E0,4.64E1,5.98E1,-3.7470436E-1,3.9442065E-3,2.76E1,2.45E1,-5.448976E0,2.54E1,3.03E1,2.32E1,6.6666665E0,-5.142301E0,2.92E1,1.5555555E1,6.9444447E0,1.5555555E1,2.992E1,1.6666666E1,-2.0018367E-1,-2.902908E-1,-2.0214115E-1,1.8928822E-2,-3.5842368E-1,7.5566465E-1,-1.3218339E-1,-6.823622E-2,-7.6051295E-2,-3.531791E-2,-2.8297225E-2,3.3294505E-1,-4.109696E-2,-4.9494323E-3,-2.946981E-3,7.597385E-2,1.6792146E-2,4.71752E-2,6.637378E-2,4.0950033E-1,2.3089066E-2,6.7241564E-2,1.0931058E-1,-1.3835642E-1,8.8759795E-2,1.5563664E-1,2.054254E-1,-8.972191E-1],"split_indices":[4,4,4,4,4,4,4,2,3,0,1,0,3,0,0,0,0,0,0,3,0,0,0,1,3,0,1,1,1,2,1,0,0,0,0,0,0,0,0,0,0,0,0,0,0,0,0,0,0,0,0,0,0,0,0,0,0,0,0],"split_type":[0,0,0,0,0,0,0,0,0,0,0,0,0,0,0,0,0,0,0,0,0,0,0,0,0,0,0,0,0,0,0,0,0,0,0,0,0,0,0,0,0,0,0,0,0,0,0,0,0,0,0,0,0,0,0,0,0,0,0],"sum_hessian":[8.458E3,2.488E3,5.97E3,4.68E2,2.02E3,3.56E3,2.41E3,2.2E1,4.46E2,7.1E2,1.31E3,1.743E3,1.817E3,1.361E3,1.049E3,2.1E1,1E0,2.03E2,2.43E2,3E0,7.07E2,1.244E3,6.6E1,1.586E3,1.57E2,1.784E3,3.3E1,1.131E3,2.3E2,8.64E2,1.85E2,1.46E2,5.7E1,2.04E2,3.9E1,1E0,2E0,5.44E2,1.63E2,9.59E2,2.85E2,5.9E1,7E0,5.18E2,1.068E3,5.3E1,1.04E2,1.191E3,5.93E2,2.8E1,5E0,2.48E2,8.83E2,2.24E2,6E0,5.14E2,3.5E2,1.84E2,1E0],"tree_param":{"num_deleted":"0","num_feature":"5","num_nodes":"59","size_leaf_vector":"1"}},{"base_weights":[-6.195602E-5,-2.430703E-1,1.0123562E-1,-4.432324E-1,-1.7643374E-1,1.18469E-2,2.0635426E-1,-7.207172E-1,-4.07808E-1,-2.2983561E-1,-1.1743345E-1,-4.114142E-3,1.5297842E-1,1.5994701E-1,3.5033855E-1,-3.724822E-1,-6.6956073E-1,-5.169075E-1,-3.3472505E-1,-2.7816537E-1,-1.2497785E-1,1.0319971E0,-1.21184416E-1,-4.4590447E-2,6.901338E-2,1.436717E-1,4.794405E-1,1.4624272E-1,2.8642863E-1,3.1807163E-1,6.972901E-1,-2.1297622E-1,-1.01865545E-1,-1.3314678E-1,-2.0421432E-1,-1.3504797E-1,5.0692018E-2,-3.606082E-2,-9.131244E-2,-5.3676423E-2,9.5929764E-2,-8.539267E-2,5.4979134E-1,-6.3830465E-2,-2.796279E-2,-2.8153343E-2,-1.838953E-3,-1.2147143E-4,4.7101498E-2,2.6262688E-2,6.354184E-2,4.214371E-2,1.3631031E-1,7.480092E-2,1.55282E-1,7.514233E-2,1.2705824E-1,6.609887E-2,2.868444E-1],"categories":[],"categories_nodes":[],"categories_segments":[],"categories_sizes":[],"default_left":[0,0,0,0,0,0,0,0,0,0,0,0,0,0,0,0,0,0,0,0,0,0,0,0,0,0,0,0,0,0,0,0,0,0,0,0,0,0,0,0,0,0,0,0,0,0,0,0,0,0,0,0,0,0,0,0,0,0,0],"id":7,"left_children":[1,3,5,7,9,11,13,15,17,19,21,23,25,27,29,-1,31,33,35,37,39,41,43,45,47,49,-1,51,53,55,57,-1,-1,-1,-1,-1,-1,-1,-1,-1,-1,-1,-1,-1,-1,-1,-1,-1,-1,-1,-1,-1,-1,-1,-1,-1,-1,-1,-1],"loss_changes":[2.0825269E2,3.312036E1,5.6103584E1,5.810341E0,5.861717E0,7.272042E0,1.8279144E1,1.0073051E0,4.236229E0,4.931629E0,3.9622746E0,8.58984E0,4.1818748E0,3.5582657E0,7.256508E0,0E0,6.246891E-1,2.331684E0,1.9496277E1,2.7372856E0,7.5184317E0,3.6841109E0,2.2552843E0,3.5380507E0,6.3159704E0,1.2320185E0,0E0,3.267826E0,1.6030731E0,4.2637024E0,6.703367E0,0E0,0E0,0E0,0E0,0E0,0E0,0E0,0E0,0E0,0E0,0E0,0E0,0E0,0E0,0E0,0E0,0E0,0E0,0E0,0E0,0E0,0E0,0E0,0E0,0E0,0E0,0E0,0E0],"parents":[2147483647,0,0,1,1,2,2,3,3,4,4,5,5,6,6,7,7,8,8,9,9,10,10,11,11,12,12,13,13,14,14,16,16,17,17,18,18,19,19,20,20,21,21,22,22,23,23,24,24,25,25,27,27,28,28,29,29,30,30],"right_children":[2,4,6,8,10,12,14,16,18,20,22,24,26,28,30,-1,32,34,36,38,40,42,44,46,48,50,-1,52,54,56,58,-1,-1,-1,-1,-1,-1,-1,-1,-1,-1,-1,-1,-1,-1,-1,-1,-1,-1,-1,-1,-1,-1,-1,-1,-1,-1,-1,-1],"split_conditions":[1.9E1,1.62E1,2.13E1,1.33E1,1.81E1,1.6666666E1,2.33E1,1.24E1,-4.9809737E0,2.9875E1,1.55E1,2.66E1,8.452365E0,5.362311E0,2.55E1,-3.724822E-1,6.6666665E0,2.76E1,2.54E1,-1.0392304E1,3.6E1,1.48E1,3.6111112E0,-2.2981334E0,7.2222223E0,1.7777779E1,4.794405E-1,1.9444445E1,4.14E1,5.8170724E-16,2.9665E1,-2.1297622E-1,-1.01865545E-1,-1.3314678E-1,-2.0421432E-1,-1.3504797E-1,5.0692018E-2,-3.606082E-2,-9.131244E-2,-5.3676423E-2,9.5929764E-2,-8.539267E-2,5.4979134E-1,-6.3830465E-2,-2.796279E-2,-2.8153343E-2,-1.838953E-3,-1.2147143E-4,4.7101498E-2,2.6262688E-2,6.354184E-2,4.214371E-2,1.3631031E-1,7.480092E-2,1.55282E-1,7.514233E-2,1.2705824E-1,6.609887E-2,2.868444E-1],"split_indices":[4,4,4,4,4,1,4,4,3,2,0,0,3,3,4,0,1,0,0,3,0,0,1,3,1,1,0,1,0,3,2,0,0,0,0,0,0,0,0,0,0,0,0,0,0,0,0,0,0,0,0,0,0,0,0,0,0,0,0],"split_type":[0,0,0,0,0,0,0,0,0,0,0,0,0,0,0,0,0,0,0,0,0,0,0,0,0,0,0,0,0,0,0,0,0,0,0,0,0,0,0,0,0,0,0,0,0,0,0,0,0,0,0,0,0,0,0,0,0,0,0],"sum_hessian":[8.458E3,2.488E3,5.97E3,6.2E2,1.868E3,3.227E3,2.743E3,6.8E1,5.52E2,9.79E2,8.89E2,2.9E3,3.27E2,2.076E3,6.67E2,4E0,6.4E1,2.19E2,3.33E2,6.69E2,3.1E2,2E0,8.87E2,1.867E3,1.033E3,3.26E2,1E0,1.875E3,2.01E2,6.12E2,5.5E1,5.6E1,8E0,1.54E2,6.5E1,2.71E2,6.2E1,9.6E1,5.73E2,2.77E2,3.3E1,1E0,1E0,2.06E2,6.81E2,8.18E2,1.049E3,5.78E2,4.55E2,1.8E2,1.46E2,1.842E3,3.3E1,1.75E2,2.6E1,3.75E2,2.37E2,2E1,3.5E1],"tree_param":{"num_deleted":"0","num_feature":"5","num_nodes":"59","size_leaf_vector":"1"}},{"base_weights":[4.295875E-5,-1.24937564E-1,1.0190972E-1,-2.9837686E-1,-8.4352754E-2,6.7834586E-2,2.1903113E-1,-4.1187727E-1,-2.3600538E-1,-1.3658912E-1,-4.499378E-2,5.691794E-2,2.0662901E-1,1.502913E-1,2.9698485E-1,-4.3581417E-1,-2.8577566E-2,-2.275122E-1,-4.4213364E-1,8.6478233E-1,-1.3875985E-1,4.6732265E-1,-4.6792574E-2,-1.3232582E-2,8.448778E-2,8.123208E-2,3.486968E-1,-1.4581933E-2,2.7131152E-1,3.0759925E-1,-1.5321592E0,-1.3269328E-1,1.6656047E-1,-1.0411248E-1,1.2913607E-1,-7.951169E-2,-1.3573912E-3,4.6173593E-1,-7.258387E-2,-5.0777506E-2,-2.28113E-2,-2.4721159E-2,1.0613266E-3,-5.7284866E-2,1.6338752E-3,2.407124E-2,1.1626927E-1,4.050131E-2,-7.3118854E-1,8.355524E-2,2.9239374E-1,1.4725451E-2,-1.5418318E-1,4.23968E-2,1.2235556E-1,8.864323E-2,2.998471E-1,8.443594E-2,-7.739076E-1],"categories":[],"categories_nodes":[],"categories_segments":[],"categories_sizes":[],"default_left":[0,0,0,0,0,0,0,0,0,0,0,0,0,0,0,0,0,0,0,0,0,0,0,0,0,0,0,0,0,0,0,0,0,0,0,0,0,0,0,0,0,0,0,0,0,0,0,0,0,0,0,0,0,0,0,0,0,0,0],"id":8,"left_children":[1,3,5,7,9,11,13,15,17,19,21,23,25,27,29,31,33,35,-1,37,39,-1,41,43,45,47,49,51,53,55,57,-1,-1,-1,-1,-1,-1,-1,-1,-1,-1,-1,-1,-1,-1,-1,-1,-1,-1,-1,-1,-1,-1,-1,-1,-1,-1,-1,-1],"loss_changes":[1.0770732E2,2.6715996E1,1.8586857E1,4.999817E0,6.3262405E0,5.461033E0,5.581814E0,2.3179932E0,4.574091E0,2.9958038E0,5.1411853E0,6.4801474E0,4.6569834E0,1.1177632E1,1.0004196E1,1.7843361E0,2.4883442E0,3.8899212E0,0E0,2.6113098E0,2.5141125E0,0E0,3.1494114E0,3.1413295E0,3.0669575E0,1.942425E1,5.131772E0,7.591904E0,5.6751995E0,3.8059158E0,6.4255176E0,0E0,0E0,0E0,0E0,0E0,0E0,0E0,0E0,0E0,0E0,0E0,0E0,0E0,0E0,0E0,0E0,0E0,0E0,0E0,0E0,0E0,0E0,0E0,0E0,0E0,0E0,0E0,0E0],"parents":[2147483647,0,0,1,1,2,2,3,3,4,4,5,5,6,6,7,7,8,8,9,9,10,10,11,11,12,12,13,13,14,14,15,15,16,16,17,17,19,19,20,20,22,22,23,23,24,24,25,25,26,26,27,27,28,28,29,29,30,30],"right_children":[2,4,6,8,10,12,14,16,18,20,22,24,26,28,30,32,34,36,-1,38,40,-1,42,44,46,48,50,52,54,56,58,-1,-1,-1,-1,-1,-1,-1,-1,-1,-1,-1,-1,-1,-1,-1,-1,-1,-1,-1,-1,-1,-1,-1,-1,-1,-1,-1,-1],"split_conditions":[2E1,1.65E1,2.27E1,1.48E1,1.86E1,6.1E1,3.77E1,1.0555555E1,6.64E1,1.48E1,1.55E1,7.2222223E0,2.962E1,2.9815E1,1.6666666E1,7.6604443E0,-2.7470188E0,4.14E1,-4.4213364E-1,2.9485E1,1.1111111E1,4.6732265E-1,2.31E1,-7.6604443E0,8.356239E0,1.4444445E1,1.3055555E1,2.9785E1,1.2777778E1,2.68E1,4.14E1,-1.3269328E-1,1.6656047E-1,-1.0411248E-1,1.2913607E-1,-7.951169E-2,-1.3573912E-3,4.6173593E-1,-7.258387E-2,-5.0777506E-2,-2.28113E-2,-2.4721159E-2,1.0613266E-3,-5.7284866E-2,1.6338752E-3,2.407124E-2,1.1626927E-1,4.050131E-2,-7.3118854E-1,8.355524E-2,2.9239374E-1,1.4725451E-2,-1.5418318E-1,4.23968E-2,1.2235556E-1,8.864323E-2,2.998471E-1,8.443594E-2,-7.739076E-1],"split_indices":[4,4,4,4,4,0,0,1,0,0,0,1,2,2,1,3,3,0,0,2,1,0,0,3,3,1,1,2,1,4,0,0,0,0,0,0,0,0,0,0,0,0,0,0,0,0,0,0,0,0,0,0,0,0,0,0,0,0,0],"split_type":[0,0,0,0,0,0,0,0,0,0,0,0,0,0,0,0,0,0,0,0,0,0,0,0,0,0,0,0,0,0,0,0,0,0,0,0,0,0,0,0,0,0,0,0,0,0,0,0,0,0,0,0,0,0,0,0,0,0,0],"sum_hessian":[8.458E3,3.798E3,4.66E3,7.19E2,3.079E3,3.611E3,1.049E3,2.53E2,4.66E2,1.322E3,1.757E3,3.349E3,2.62E2,5.59E2,4.9E2,2.38E2,1.5E1,4.64E2,2E0,2E0,1.32E3,1E0,1.756E3,9.45E2,2.404E3,1.4E2,1.22E2,2.37E2,3.22E2,4.88E2,2E0,2.37E2,1E0,9E0,6E0,3.97E2,6.7E1,1E0,1E0,8.87E2,4.33E2,1.028E3,7.28E2,8.9E1,8.56E2,2.372E3,3.2E1,1.38E2,2E0,1.11E2,1.1E1,2.11E2,2.6E1,1.66E2,1.56E2,4.81E2,7E0,1E0,1E0],"tree_param":{"num_deleted":"0","num_feature":"5","num_nodes":"59","size_leaf_vector":"1"}},{"base_weights":[5.3038902E-6,-7.232137E-2,8.777378E-2,-1.7775732E-1,-3.637301E-2,5.942445E-2,1.6507488E-1,-2.621336E-1,-1.3491195E-1,-5.5072524E-2,2.9464532E-2,5.0305046E-2,3.396889E-1,1.2794967E-1,3.204644E-1,-2.544869E-1,-3.5370702E-1,4.909424E-1,-1.3926427E-1,-7.966183E-2,1.5392397E-2,2.4578374E-2,2.9016548E-1,1.4269475E-2,1.0148212E-1,2.6410818E-1,6.398137E-1,1.3267802E-1,-6.7781717E-1,-3.6902964E-1,3.3465147E-1,-8.232346E-2,-8.462412E-3,-7.102044E-2,-2.8646184E-2,-4.7387697E-2,-1.8442102E-2,-2.889833E-3,1.1904415E-1,9.349289E-3,-3.7435398E-2,4.3179333E-1,2.7316036E-2,6.8693E-3,-2.103777E-1,2.3475636E-2,9.620282E-2,8.3525375E-2,1.8089391E-2,1.9770718E-1,4.9867634E-2,3.677793E-2,1.9048041E-1,7.472935E-2,-6.578216E-1,6.3096665E-2,1.6237698E-1],"categories":[],"categories_nodes":[],"categories_segments":[],"categories_sizes":[],"default_left":[0,0,0,0,0,0,0,0,0,0,0,0,0,0,0,0,0,0,0,0,0,0,0,0,0,0,0,0,0,0,0,0,0,0,0,0,0,0,0,0,0,0,0,0,0,0,0,0,0,0,0,0,0,0,0,0,0],"id":9,"left_children":[1,3,5,7,9,11,13,15,17,19,21,23,25,27,29,31,-1,-1,33,35,37,39,41,43,45,47,49,51,53,-1,55,-1,-1,-1,-1,-1,-1,-1,-1,-1,-1,-1,-1,-1,-1,-1,-1,-1,-1,-1,-1,-1,-1,-1,-1,-1,-1],"loss_changes":[5.3704094E1,1.7572708E1,8.36585E0,4.2268753E0,4.261333E0,7.134161E0,5.8720894E0,2.4763832E0,6.272254E0,4.670808E0,9.686193E-1,4.998165E0,1.8271818E0,3.248374E0,4.745245E0,1.7686195E0,0E0,0E0,3.318429E0,2.8356047E0,6.666328E0,7.446102E-1,3.0722675E0,9.844612E0,5.677809E0,1.9319868E-1,4.511404E-2,4.1009674E0,7.567222E0,0E0,4.920826E0,0E0,0E0,0E0,0E0,0E0,0E0,0E0,0E0,0E0,0E0,0E0,0E0,0E0,0E0,0E0,0E0,0E0,0E0,0E0,0E0,0E0,0E0,0E0,0E0,0E0,0E0],"parents":[2147483647,0,0,1,1,2,2,3,3,4,4,5,5,6,6,7,7,8,8,9,9,10,10,11,11,12,12,13,13,14,14,15,15,18,18,19,19,20,20,21,21,22,22,23,23,24,24,25,25,26,26,27,27,28,28,30,30],"right_children":[2,4,6,8,10,12,14,16,18,20,22,24,26,28,30,32,-1,-1,34,36,38,40,42,44,46,48,50,52,54,-1,56,-1,-1,-1,-1,-1,-1,-1,-1,-1,-1,-1,-1,-1,-1,-1,-1,-1,-1,-1,-1,-1,-1,-1,-1,-1,-1],"split_conditions":[2.06E1,1.75E1,3.95E1,1.54E1,1.3888889E1,1.9444445E1,2.4E1,6.6E1,1.33E1,3.2E1,5.5E1,-1.6532732E-15,2.37E1,1.6666666E1,-5.5555553E0,1.0555555E1,-3.5370702E-1,4.909424E-1,2.947E1,1.83E1,3.0165E1,3.39E1,-1.0606602E1,-2.6047227E-1,2.36E1,2.63E1,2.388889E1,1.5833333E1,5.89E1,-3.6902964E-1,6.33E1,-8.232346E-2,-8.462412E-3,-7.102044E-2,-2.8646184E-2,-4.7387697E-2,-1.8442102E-2,-2.889833E-3,1.1904415E-1,9.349289E-3,-3.7435398E-2,4.3179333E-1,2.7316036E-2,6.8693E-3,-2.103777E-1,2.3475636E-2,9.620282E-2,8.3525375E-2,1.8089391E-2,1.9770718E-1,4.9867634E-2,3.677793E-2,1.9048041E-1,7.472935E-2,-6.578216E-1,6.3096665E-2,1.6237698E-1],"split_indices":[4,4,0,4,1,1,4,0,0,0,0,3,4,1,1,1,0,0,2,4,2,0,3,3,4,0,1,1,0,0,0,0,0,0,0,0,0,0,0,0,0,0,0,0,0,0,0,0,0,0,0,0,0,0,0,0,0],"split_type":[0,0,0,0,0,0,0,0,0,0,0,0,0,0,0,0,0,0,0,0,0,0,0,0,0,0,0,0,0,0,0,0,0,0,0,0,0,0,0,0,0,0,0,0,0,0,0,0,0,0,0,0,0,0,0,0,0],"sum_hessian":[8.458E3,4.637E3,3.821E3,1.178E3,3.459E3,2.797E3,1.024E3,3.95E2,7.83E2,2.694E3,7.65E2,2.71E3,8.7E1,8.28E2,1.96E2,3.93E2,2E0,1E0,7.82E2,1.997E3,6.97E2,7.52E2,1.3E1,1.591E3,1.119E3,7.1E1,1.6E1,8.24E2,4E0,1E0,1.95E2,3.61E2,3.2E1,2.41E2,5.41E2,3.75E2,1.622E3,6.55E2,4.2E1,7.21E2,3.1E1,1E0,1.2E1,1.573E3,1.8E1,1.013E3,1.06E2,6.6E1,5E0,1.5E1,1E0,8.09E2,1.5E1,3E0,1E0,1.23E2,7.2E1],"tree_param":{"num_deleted":"0","num_feature":"5","num_nodes":"57","size_leaf_vector":"1"}}]},"name":"gbtree"},"learner_model_param":{"base_score":"2.002431E1","boost_from_average":"1","num_class":"0","num_feature":"5","num_target":"1"},"objective":{"name":"reg:squarederror","reg_loss_param":{"scale_pos_weight":"1"}}},"version":[2,0,3]}