{"learner":{"attributes":{"scikit_learn":"{\"_estimator_type\": \"regressor\"}"},"feature_names":[],"feature_types":[],"gradient_booster":{"model":{"gbtree_model_param":{"num_parallel_tree":"1","num_trees":"50"},"iteration_indptr":[0,1,2,3,4,5,6,7,8,9,10,11,12,13,14,15,16,17,18,19,20,21,22,23,24,25,26,27,28,29,30,31,32,33,34,35,36,37,38,39,40,41,42,43,44,45,46,47,48,49,50],"tree_info":[0,0,0,0,0,0,0,0,0,0,0,0,0,0,0,0,0,0,0,0,0,0,0,0,0,0,0,0,0,0,0,0,0,0,0,0,0,0,0,0,0,0,0,0,0,0,0,0,0,0],"trees":[{"base_weights":[-6.212754E-8,-1.7687438E0,1.1930895E0,-4.8374524E0,-1.3247123E0,5.875859E-1,2.4988973E0,-1.5957733E0,-1.0342252E0,-6.002549E-1,-2.4432324E-1,3.4514096E-2,2.9167733E-1,6.374912E-1,1.071856E0],"categories":[],"categories_nodes":[],"categories_segments":[],"categories_sizes":[],"default_left":[0,0,0,0,0,0,0,0,0,0,0,0,0,0,0],"id":0,"left_children":[1,3,5,7,9,11,13,-1,-1,-1,-1,-1,-1,-1,-1],"loss_changes":[1.2117168E4,3.1452935E3,2.7097427E3,1.772168E2,6.960288E2,4.2596265E2,4.285244E2,0E0,0E0,0E0,0E0,0E0,0E0,0E0,0E0],"parents":[2147483647,0,0,1,1,2,2,3,3,4,4,5,5,6,6],"right_children":[2,4,6,8,10,12,14,-1,-1,-1,-1,-1,-1,-1,-1],"split_conditions":[1.73E1,1.45E1,1.92E1,1.31E1,1.62E1,1.81E1,2.06E1,-1.5957733E0,-1.0342252E0,-6.002549E-1,-2.4432324E-1,3.4514096E-2,2.9167733E-1,6.374912E-1,1.071856E0],"split_indices":[5,5,5,5,5,5,5,0,0,0,0,0,0,0,0],"split_type":[0,0,0,0,0,0,0,0,0,0,0,0,0,0,0],"sum_hessian":[5.74E3,2.312E3,3.428E3,2.91E2,2.021E3,2.343E3,1.085E3,2.14E2,7.7E1,8.68E2,1.153E3,1.052E3,1.291E3,8.07E2,2.78E2],"tree_param":{"num_deleted":"0","num_feature":"6","num_nodes":"15","size_leaf_vector":"1"}},{"base_weights":[-2.5060022E-4,-1.0943614E0,9.5803475E-1,-2.8567896E0,-6.9297874E-1,5.9797454E-1,1.987062E0,-1.1098146E0,-6.40406E-1,-3.3064082E-1,-9.7336546E-2,9.252631E-2,2.8913966E-1,5.3556544E-1,8.585798E-1],"categories":[],"categories_nodes":[],"categories_segments":[],"categories_sizes":[],"default_left":[0,0,0,0,0,0,0,0,0,0,0,0,0,0,0],"id":1,"left_children":[1,3,5,7,9,11,13,-1,-1,-1,-1,-1,-1,-1,-1],"loss_changes":[6.020317E3,1.8945818E3,1.1329482E3,2.9449683E2,3.291057E2,2.4004816E2,1.3492456E2,0E0,0E0,0E0,0E0,0E0,0E0,0E0,0E0],"parents":[2147483647,0,0,1,1,2,2,3,3,4,4,5,5,6,6],"right_children":[2,4,6,8,10,12,14,-1,-1,-1,-1,-1,-1,-1,-1],"split_conditions":[1.76E1,1.52E1,1.96E1,1.28E1,1.66E1,1.85E1,2.12E1,-1.1098146E0,-6.40406E-1,-3.3064082E-1,-9.7336546E-2,9.252631E-2,2.8913966E-1,5.3556544E-1,8.585798E-1],"split_indices":[5,5,5,1,5,5,5,0,0,0,0,0,0,0,0],"split_type":[0,0,0,0,0,0,0,0,0,0,0,0,0,0,0],"sum_hessian":[5.74E3,2.68E3,3.06E3,4.96E2,2.184E3,2.268E3,7.92E2,2.27E2,2.69E2,1.034E3,1.15E3,1.267E3,1.001E3,6.46E2,1.46E2],"tree_param":{"num_deleted":"0","num_feature":"6","num_nodes":"15","size_leaf_vector":"1"}},{"base_weights":[-2.4544116E-4,-1.0068684E0,5.250768E-1,-2.1963725E0,-7.1449506E-1,1.7306405E-1,1.1582057E0,-8.479437E-1,-5.253684E-1,-3.387193E-1,-1.649157E-1,-1.737739E-2,1.08375005E-1,2.645581E-1,4.9162433E-1],"categories":[],"categories_nodes":[],"categories_segments":[],"categories_sizes":[],"default_left":[0,0,0,0,0,0,0,0,0,0,0,0,0,0,0],"id":2,"left_children":[1,3,5,7,9,11,13,-1,-1,-1,-1,-1,-1,-1,-1],"loss_changes":[3.0363774E3,6.8320825E2,8.406859E2,1.0387964E2,1.0744751E2,1.05476295E2,1.7756323E2,0E0,0E0,0E0,0E0,0E0,0E0,0E0,0E0],"parents":[2147483647,0,0,1,1,2,2,3,3,4,4,5,5,6,6],"right_children":[2,4,6,8,10,12,14,-1,-1,-1,-1,-1,-1,-1,-1],"split_conditions":[1.7E1,1.49E1,1.89E1,1.26E1,1.58E1,1.79E1,2.01E1,-8.479437E-1,-5.253684E-1,-3.387193E-1,-1.649157E-1,-1.737739E-2,1.08375005E-1,2.645581E-1,4.9162433E-1],"split_indices":[5,5,5,5,5,5,5,0,0,0,0,0,0,0,0],"split_type":[0,0,0,0,0,0,0,0,0,0,0,0,0,0,0],"sum_hessian":[5.74E3,1.968E3,3.772E3,3.87E2,1.581E3,2.425E3,1.347E3,1.58E2,2.29E2,4.48E2,1.133E3,1.089E3,1.336E3,8.57E2,4.9E2],"tree_param":{"num_deleted":"0","num_feature":"6","num_nodes":"15","size_leaf_vector":"1"}},{"base_weights":[-3.515354E-4,-7.726605E-1,3.3932507E-1,-1.8050597E0,-6.01452E-1,1.4274639E-1,9.6092284E-1,-6.2133205E-1,-4.560494E-1,-2.9582492E-1,-1.4081857E-1,-1.6331531E-2,1.2181676E-1,2.469975E-1,4.4852892E-1],"categories":[],"categories_nodes":[],"categories_segments":[],"categories_sizes":[],"default_left":[0,0,0,0,0,0,0,0,0,0,0,0,0,0,0],"id":3,"left_children":[1,3,5,7,9,11,13,-1,-1,-1,-1,-1,-1,-1,-1],"loss_changes":[1.5063291E3,3.0894348E2,4.8716806E2,1.572467E1,7.603162E1,1.5739355E2,6.9183105E1,0E0,0E0,0E0,0E0,0E0,0E0,0E0,0E0],"parents":[2147483647,0,0,1,1,2,2,3,3,4,4,5,5,6,6],"right_children":[2,4,6,8,10,12,14,-1,-1,-1,-1,-1,-1,-1,-1],"split_conditions":[1.68E1,1.33E1,4.33E1,1.23E1,1.55E1,1.83E1,2.08E1,-6.2133205E-1,-4.560494E-1,-2.9582492E-1,-1.4081857E-1,-1.6331531E-2,1.2181676E-1,2.469975E-1,4.4852892E-1],"split_indices":[5,1,1,5,5,5,5,0,0,0,0,0,0,0,0],"split_type":[0,0,0,0,0,0,0,0,0,0,0,0,0,0,0],"sum_hessian":[5.74E3,1.753E3,3.987E3,2.48E2,1.505E3,3.03E3,9.57E2,1.25E2,1.23E2,3.83E2,1.122E3,1.733E3,1.297E3,7.63E2,1.94E2],"tree_param":{"num_deleted":"0","num_feature":"6","num_nodes":"15","size_leaf_vector":"1"}},{"base_weights":[-3.707112E-4,-3.8206095E-1,3.586169E-1,-9.4778043E-1,-2.3138884E-1,2.1656689E-1,7.759668E-1,-4.084219E-1,-2.2314331E-1,-9.145822E-2,4.0860202E-2,3.0819854E-2,1.1769428E-1,2.1705931E-1,5.2223665E-1],"categories":[],"categories_nodes":[],"categories_segments":[],"categories_sizes":[],"default_left":[0,0,0,0,0,0,0,0,0,0,0,0,0,0,0],"id":4,"left_children":[1,3,5,7,9,11,13,-1,-1,-1,-1,-1,-1,-1,-1],"loss_changes":[7.867807E2,2.3699841E2,1.7525491E2,4.8342102E1,5.9430992E1,4.4153023E1,3.6734528E1,0E0,0E0,0E0,0E0,0E0,0E0,0E0,0E0],"parents":[2147483647,0,0,1,1,2,2,3,3,4,4,5,5,6,6],"right_children":[2,4,6,8,10,12,14,-1,-1,-1,-1,-1,-1,-1,-1],"split_conditions":[1.77E1,1.54E1,5.09E1,1.29E1,3.01E1,1.88E1,2.18E1,-4.084219E-1,-2.2314331E-1,-9.145822E-2,4.0860202E-2,3.0819854E-2,1.1769428E-1,2.1705931E-1,5.2223665E-1],"split_indices":[5,5,1,5,1,5,5,0,0,0,0,0,0,0,0],"split_type":[0,0,0,0,0,0,0,0,0,0,0,0,0,0,0],"sum_hessian":[5.74E3,2.782E3,2.958E3,5.84E2,2.198E3,2.208E3,7.5E2,1.91E2,3.93E2,1.832E3,3.66E2,1.341E3,8.67E2,7.13E2,3.7E1],"tree_param":{"num_deleted":"0","num_feature":"6","num_nodes":"15","size_leaf_vector":"1"}},{"base_weights":[-2.239613E-4,-3.5633877E-1,2.0052709E-1,-8.319237E-1,-2.6533788E-1,1.1143692E-1,6.176717E-1,-3.5525367E-1,-2.1788983E-1,-9.630557E-2,5.0151292E-2,1.4523846E-2,7.6784626E-2,1.7749844E-1,5.515978E-1],"categories":[],"categories_nodes":[],"categories_segments":[],"categories_sizes":[],"default_left":[0,0,0,0,0,0,0,0,0,0,0,0,0,0,0],"id":5,"left_children":[1,3,5,7,9,11,13,-1,-1,-1,-1,-1,-1,-1,-1],"loss_changes":[4.10498E2,8.936606E1,1.3639551E2,1.1492554E1,4.1932922E1,2.7556702E1,1.9427933E1,0E0,0E0,0E0,0E0,0E0,0E0,0E0,0E0],"parents":[2147483647,0,0,1,1,2,2,3,3,4,4,5,5,6,6],"right_children":[2,4,6,8,10,12,14,-1,-1,-1,-1,-1,-1,-1,-1],"split_conditions":[1.71E1,1.47E1,1.98E1,1.21E1,3.72E1,1.87E1,2.25E1,-3.5525367E-1,-2.1788983E-1,-9.630557E-2,5.0151292E-2,1.4523846E-2,7.6784626E-2,1.7749844E-1,5.515978E-1],"split_indices":[5,5,5,5,1,5,5,0,0,0,0,0,0,0,0],"split_type":[0,0,0,0,0,0,0,0,0,0,0,0,0,0,0],"sum_hessian":[5.74E3,2.069E3,3.671E3,3.31E2,1.738E3,3.026E3,6.45E2,7.4E1,2.57E2,1.54E3,1.98E2,2.108E3,9.18E2,6.33E2,1.2E1],"tree_param":{"num_deleted":"0","num_feature":"6","num_nodes":"15","size_leaf_vector":"1"}},{"base_weights":[-1.21772966E-4,-3.50006E-1,1.0815486E-1,-6.6017354E-1,-2.8344655E-1,3.473613E-2,3.892586E-1,-3.3870533E-1,-1.836604E-1,-9.912082E-2,-7.958175E-3,-3.1536434E-2,3.239652E-2,8.199328E-2,1.653323E-1],"categories":[],"categories_nodes":[],"categories_segments":[],"categories_sizes":[],"default_left":[0,0,0,0,0,0,0,0,0,0,0,0,0,0,0],"id":6,"left_children":[1,3,5,7,9,11,13,-1,-1,-1,-1,-1,-1,-1,-1],"loss_changes":[2.1753154E2,2.782759E1,9.048532E1,4.6842804E0,1.3490776E1,3.564306E1,1.6888931E1,0E0,0E0,0E0,0E0,0E0,0E0,0E0,0E0],"parents":[2147483647,0,0,1,1,2,2,3,3,4,4,5,5,6,6],"right_children":[2,4,6,8,10,12,14,-1,-1,-1,-1,-1,-1,-1,-1],"split_conditions":[1.64E1,1.41E1,4.88E1,1.17E1,2.91E1,7.2222223E0,1.99E1,-3.3870533E-1,-1.836604E-1,-9.912082E-2,-7.958175E-3,-3.1536434E-2,3.239652E-2,8.199328E-2,1.653323E-1],"split_indices":[5,5,1,5,1,2,5,0,0,0,0,0,0,0,0],"split_type":[0,0,0,0,0,0,0,0,0,0,0,0,0,0,0],"sum_hessian":[5.74E3,1.356E3,4.384E3,2.38E2,1.118E3,3.477E3,9.07E2,2E1,2.18E2,9.45E2,1.73E2,1.195E3,2.282E3,5.3E2,3.77E2],"tree_param":{"num_deleted":"0","num_feature":"6","num_nodes":"15","size_leaf_vector":"1"}},{"base_weights":[-1.5161728E-4,-1.4187928E-1,1.4286543E-1,-3.4952497E-1,-7.666536E-2,8.891394E-2,3.4447685E-1,-1.7338747E-1,-9.2654005E-2,-3.422695E-2,1.226922E-2,1.5812287E-2,6.2280264E-2,9.10592E-2,2.2654267E-1],"categories":[],"categories_nodes":[],"categories_segments":[],"categories_sizes":[],"default_left":[0,0,0,0,0,0,0,0,0,0,0,0,0,0,0],"id":7,"left_children":[1,3,5,7,9,11,13,-1,-1,-1,-1,-1,-1,-1,-1],"loss_changes":[1.1638731E2,3.902656E1,3.1056519E1,6.223877E0,9.666458E0,9.6835785E0,9.910339E0,0E0,0E0,0E0,0E0,0E0,0E0,0E0,0E0],"parents":[2147483647,0,0,1,1,2,2,3,3,4,4,5,5,6,6],"right_children":[2,4,6,8,10,12,14,-1,-1,-1,-1,-1,-1,-1,-1],"split_conditions":[1.78E1,1.56E1,1.99E1,1.22E1,2.49E1,3.51E1,2.17E1,-1.7338747E-1,-9.2654005E-2,-3.422695E-2,1.226922E-2,1.5812287E-2,6.2280264E-2,9.10592E-2,2.2654267E-1],"split_indices":[5,5,5,5,1,1,5,0,0,0,0,0,0,0,0],"split_type":[0,0,0,0,0,0,0,0,0,0,0,0,0,0,0],"sum_hessian":[5.74E3,2.883E3,2.857E3,6.88E2,2.195E3,2.255E3,6.02E2,1.02E2,5.86E2,1.665E3,5.3E2,1.729E3,5.26E2,5.49E2,5.3E1],"tree_param":{"num_deleted":"0","num_feature":"6","num_nodes":"15","size_leaf_vector":"1"}},{"base_weights":[-8.718155E-5,-1.6075969E-1,6.426022E-2,-1.7918934E-1,1.9203843E-1,3.0742881E-3,1.6347022E-1,-7.172633E-2,-2.9117012E-2,7.981855E-2,-6.639638E-2,-8.96447E-3,2.1898586E-2,3.703353E-2,1.0078441E-1],"categories":[],"categories_nodes":[],"categories_segments":[],"categories_sizes":[],"default_left":[0,0,0,0,0,0,0,0,0,0,0,0,0,0,0],"id":8,"left_children":[1,3,5,7,9,11,13,-1,-1,-1,-1,-1,-1,-1,-1],"loss_changes":[5.9365723E1,1.0710609E1,2.488755E1,7.656315E0,2.5679445E0,5.8482056E0,1.075552E1,0E0,0E0,0E0,0E0,0E0,0E0,0E0,0E0],"parents":[2147483647,0,0,1,1,2,2,3,3,4,4,5,5,6,6],"right_children":[2,4,6,8,10,12,14,-1,-1,-1,-1,-1,-1,-1,-1],"split_conditions":[1.67E1,4.33E1,1.87E1,1.59E1,6.6666665E0,1.1666667E1,5.47E1,-7.172633E-2,-2.9117012E-2,7.981855E-2,-6.639638E-2,-8.96447E-3,2.1898586E-2,3.703353E-2,1.0078441E-1],"split_indices":[5,1,5,5,2,2,1,0,0,0,0,0,0,0,0],"split_type":[0,0,0,0,0,0,0,0,0,0,0,0,0,0,0],"sum_hessian":[5.74E3,1.641E3,4.099E3,1.56E3,8.1E1,2.536E3,1.563E3,9.01E2,6.59E2,6.9E1,1.2E1,1.724E3,8.12E2,1.27E3,2.93E2],"tree_param":{"num_deleted":"0","num_feature":"6","num_nodes":"15","size_leaf_vector":"1"}},{"base_weights":[-4.9719973E-5,-5.1973302E-2,1.0068684E-1,-1.5202928E-1,-1.50118945E-2,8.635701E-2,4.1849735E-1,-5.821459E-2,-1.0460529E-2,-1.0260005E-2,2.1885304E-2,1.0563377E-2,5.051074E-2,1.0180942E-1,2.9104277E-1],"categories":[],"categories_nodes":[],"categories_segments":[],"categories_sizes":[],"default_left":[0,0,0,0,0,0,0,0,0,0,0,0,0,0,0],"id":9,"left_children":[1,3,5,7,9,11,13,-1,-1,-1,-1,-1,-1,-1,-1],"loss_changes":[3.0034126E1,1.4010233E1,8.8581505E0,5.0245647E0,4.6744432E0,7.837921E0,3.3376331E0,0E0,0E0,0E0,0E0,0E0,0E0,0E0,0E0],"parents":[2147483647,0,0,1,1,2,2,3,3,4,4,5,5,6,6],"right_children":[2,4,6,8,10,12,14,-1,-1,-1,-1,-1,-1,-1,-1],"split_conditions":[1.84E1,1.6E1,2.15E1,1.87E1,2.94E1,1.0555555E1,2.26E1,-5.821459E-2,-1.0460529E-2,-1.0260005E-2,2.1885304E-2,1.0563377E-2,5.051074E-2,1.0180942E-1,2.9104277E-1],"split_indices":[5,5,5,1,1,2,5,0,0,0,0,0,0,0,0],"split_type":[0,0,0,0,0,0,0,0,0,0,0,0,0,0,0],"sum_hessian":[5.74E3,3.788E3,1.952E3,1.021E3,2.767E3,1.869E3,8.3E1,7.51E2,2.7E2,2.272E3,4.95E2,1.152E3,7.17E2,7.4E1,9E0],"tree_param":{"num_deleted":"0","num_feature":"6","num_nodes":"15","size_leaf_vector":"1"}},{"base_weights":[3.4314337E-5,-2.4441918E-2,1.345428E-1,-7.241498E-2,5.5045683E-2,8.9899026E-2,2.2854409E-1,-7.851379E-2,-1.909022E-2,1.0439126E-2,6.2797464E-2,6.463053E-3,4.3015093E-2,8.680488E-2,2.0128507E-2],"categories":[],"categories_nodes":[],"categories_segments":[],"categories_sizes":[],"default_left":[0,0,0,0,0,0,0,0,0,0,0,0,0,0,0],"id":10,"left_children":[1,3,5,7,9,11,13,-1,-1,-1,-1,-1,-1,-1,-1],"loss_changes":[1.8904156E1,1.8528822E1,3.6892262E0,5.0198307E0,5.706397E0,2.194148E0,2.768612E0,0E0,0E0,0E0,0E0,0E0,0E0,0E0,0E0],"parents":[2147483647,0,0,1,1,2,2,3,3,4,4,5,5,6,6],"right_children":[2,4,6,8,10,12,14,-1,-1,-1,-1,-1,-1,-1,-1],"split_conditions":[5.09E1,1E1,5.24E2,1.24E1,1.94E1,1.94E1,1.5E0,-7.851379E-2,-1.909022E-2,1.0439126E-2,6.2797464E-2,6.463053E-3,4.3015093E-2,8.680488E-2,2.0128507E-2],"split_indices":[1,2,0,5,5,5,4,0,0,0,0,0,0,0,0],"split_type":[0,0,0,0,0,0,0,0,0,0,0,0,0,0,0],"sum_hessian":[5.74E3,4.857E3,8.83E2,3.029E3,1.828E3,6E2,2.83E2,1.33E2,2.896E3,1.617E3,2.11E2,2.64E2,3.36E2,2.05E2,7.8E1],"tree_param":{"num_deleted":"0","num_feature":"6","num_nodes":"15","size_leaf_vector":"1"}},{"base_weights":[4.7276397E-5,-1.1947339E-2,1.5441266E-1,-6.429243E-2,2.474649E-2,1.40632E-1,6.0434514E-1,-2.6676774E-2,4.28135E-3,3.146284E-3,4.078329E-2,2.7522273E-2,8.005273E-2,1.0700684E-1,2.377658E-1],"categories":[],"categories_nodes":[],"categories_segments":[],"categories_sizes":[],"default_left":[0,0,0,0,0,0,0,0,0,0,0,0,0,0,0],"id":11,"left_children":[1,3,5,7,9,11,13,-1,-1,-1,-1,-1,-1,-1,-1],"loss_changes":[1.0631614E1,1.0235304E1,2.4819603E0,4.250601E0,4.9661207E0,2.4622574E0,2.766328E-1,0E0,0E0,0E0,0E0,0E0,0E0,0E0,0E0],"parents":[2147483647,0,0,1,1,2,2,3,3,4,4,5,5,6,6],"right_children":[2,4,6,8,10,12,14,-1,-1,-1,-1,-1,-1,-1,-1],"split_conditions":[5.47E1,5.5555553E0,2.25E1,3.51E1,1.95E1,5.29E2,5.11E2,-2.6676774E-2,4.28135E-3,3.146284E-3,4.078329E-2,2.7522273E-2,8.005273E-2,1.0700684E-1,2.377658E-1],"split_indices":[1,2,5,1,5,0,0,0,0,0,0,0,0,0,0],"split_type":[0,0,0,0,0,0,0,0,0,0,0,0,0,0,0],"sum_hessian":[5.74E3,5.327E3,4.13E2,2.195E3,3.132E3,4.02E2,1.1E1,1.671E3,5.24E2,2.777E3,3.55E2,2.91E2,1.11E2,6E0,5E0],"tree_param":{"num_deleted":"0","num_feature":"6","num_nodes":"15","size_leaf_vector":"1"}},{"base_weights":[1.151499E-4,-8.28218E-2,1.3697019E-2,-3.618403E-1,-7.159764E-2,7.175332E-3,1.4465751E-1,-1.3414186E-1,-7.231356E-2,-2.9243262E-2,-7.871392E-3,-3.6116897E-3,1.8104285E-2,1.3933702E-1,3.7123255E-2],"categories":[],"categories_nodes":[],"categories_segments":[],"categories_sizes":[],"default_left":[0,0,0,0,0,0,0,0,0,0,0,0,0,0,0],"id":12,"left_children":[1,3,5,7,9,11,13,-1,-1,-1,-1,-1,-1,-1,-1],"loss_changes":[6.4680195E0,2.5045457E0,4.213009E0,2.1163464E-1,9.107399E-1,4.8035874E0,1.507534E0,0E0,0E0,0E0,0E0,0E0,0E0,0E0,0E0],"parents":[2147483647,0,0,1,1,2,2,3,3,4,4,5,5,6,6],"right_children":[2,4,6,8,10,12,14,-1,-1,-1,-1,-1,-1,-1,-1],"split_conditions":[1.66E1,1.19E1,5.59E1,1.16E1,1.57E1,1.2222222E1,2.9015E1,-1.3414186E-1,-7.231356E-2,-2.9243262E-2,-7.871392E-3,-3.6116897E-3,1.8104285E-2,1.3933702E-1,3.7123255E-2],"split_indices":[1,5,1,5,5,2,3,0,0,0,0,0,0,0,0],"split_type":[0,0,0,0,0,0,0,0,0,0,0,0,0,0,0],"sum_hessian":[5.74E3,8.07E2,4.933E3,3E1,7.77E2,4.7E3,2.33E2,1.6E1,1.4E1,4.94E2,2.83E2,3.453E3,1.247E3,1.3E1,2.2E2],"tree_param":{"num_deleted":"0","num_feature":"6","num_nodes":"15","size_leaf_vector":"1"}},{"base_weights":[7.1855146E-5,-8.274427E-3,9.822397E-2,-1.05144165E-1,-1.7900426E-3,-5.8560073E-2,1.4204043E-1,-4.1157816E-2,6.389144E-3,-6.624441E-3,8.321801E-3,-6.548283E-4,-1.202085E-1,3.6051232E-2,1.393869E-1],"categories":[],"categories_nodes":[],"categories_segments":[],"categories_sizes":[],"default_left":[0,0,0,0,0,0,0,0,0,0,0,0,0,0,0],"id":13,"left_children":[1,3,5,7,9,11,13,-1,-1,-1,-1,-1,-1,-1,-1],"loss_changes":[4.7038693E0,3.3239315E0,3.0996933E0,1.3482721E0,2.9732103E0,1.9087014E0,2.4274464E0,0E0,0E0,0E0,0E0,0E0,0E0,0E0,0E0],"parents":[2147483647,0,0,1,1,2,2,3,3,4,4,5,5,6,6],"right_children":[2,4,6,8,10,12,14,-1,-1,-1,-1,-1,-1,-1,-1],"split_conditions":[2.02E1,4.76E2,2.9375E1,4.4444447E0,2.9845E1,2.14E1,2.22E1,-4.1157816E-2,6.389144E-3,-6.624441E-3,8.321801E-3,-6.548283E-4,-1.202085E-1,3.6051232E-2,1.393869E-1],"split_indices":[5,0,3,2,3,5,5,0,0,0,0,0,0,0,0],"split_type":[0,0,0,0,0,0,0,0,0,0,0,0,0,0,0],"sum_hessian":[5.74E3,5.291E3,4.49E2,3.31E2,4.96E3,9.8E1,3.51E2,2.64E2,6.7E1,2.94E3,2.02E3,8.5E1,1.3E1,3.3E2,2.1E1],"tree_param":{"num_deleted":"0","num_feature":"6","num_nodes":"15","size_leaf_vector":"1"}},{"base_weights":[5.3985008E-5,-1.4943851E-2,4.4777036E-2,-1.2616457E-1,-8.134653E-3,4.2867856E-4,9.126661E-2,-4.6672538E-2,-1.0627095E-2,-1.9215386E-2,-6.5924664E-4,-1.804269E-2,1.1445531E-2,1.9241564E-2,5.3029764E-2],"categories":[],"categories_nodes":[],"categories_segments":[],"categories_sizes":[],"default_left":[0,0,0,0,0,0,0,0,0,0,0,0,0,0,0],"id":14,"left_children":[1,3,5,7,9,11,13,-1,-1,-1,-1,-1,-1,-1,-1],"loss_changes":[3.8514395E0,3.255467E0,2.9729848E0,6.563368E-1,1.3453995E0,1.6908535E0,1.621541E0,0E0,0E0,0E0,0E0,0E0,0E0,0E0,0E0],"parents":[2147483647,0,0,1,1,2,2,3,3,4,4,5,5,6,6],"right_children":[2,4,6,8,10,12,14,-1,-1,-1,-1,-1,-1,-1,-1],"split_conditions":[3.27E1,5.555556E-1,5.14E2,3.0015E1,1.5E1,2.9485E1,2.9985E1,-4.6672538E-2,-1.0627095E-2,-1.9215386E-2,-6.5924664E-4,-1.804269E-2,1.1445531E-2,1.9241564E-2,5.3029764E-2],"split_indices":[1,2,0,3,5,3,3,0,0,0,0,0,0,0,0],"split_type":[0,0,0,0,0,0,0,0,0,0,0,0,0,0,0],"sum_hessian":[5.74E3,4.299E3,1.441E3,2.47E2,4.052E3,7.38E2,7.03E2,1.86E2,6.1E1,3.88E2,3.664E3,2.83E2,4.55E2,5.35E2,1.68E2],"tree_param":{"num_deleted":"0","num_feature":"6","num_nodes":"15","size_leaf_vector":"1"}},{"base_weights":[3.6182148E-5,-5.495277E-3,7.1223564E-2,-1.4572722E-2,4.4642948E-2,6.6078104E-2,1.4367211E-1,-2.8595693E-2,-3.2239768E-3,5.6283013E-3,4.1235246E-2,1.6310444E-2,7.327102E-2],"categories":[],"categories_nodes":[],"categories_segments":[],"categories_sizes":[],"default_left":[0,0,0,0,0,0,0,0,0,0,0,0,0],"id":15,"left_children":[1,3,5,7,9,11,-1,-1,-1,-1,-1,-1,-1],"loss_changes":[2.2610254E0,2.4255672E0,8.368113E-1,1.3929394E0,1.9598945E0,8.420757E-1,0E0,0E0,0E0,0E0,0E0,0E0,0E0],"parents":[2147483647,0,0,1,1,2,2,3,3,4,4,5,5],"right_children":[2,4,6,8,10,12,-1,-1,-1,-1,-1,-1,-1],"split_conditions":[5.47E1,1.3888889E1,2.3E1,-5.555556E-1,2.41E1,5.75E2,1.4367211E-1,-2.8595693E-2,-3.2239768E-3,5.6283013E-3,4.1235246E-2,1.6310444E-2,7.327102E-2],"split_indices":[1,2,5,2,1,0,0,0,0,0,0,0,0],"split_type":[0,0,0,0,0,0,0,0,0,0,0,0,0],"sum_hessian":[5.74E3,5.327E3,4.13E2,4.511E3,8.16E2,4.09E2,4E0,2.03E2,4.308E3,6.39E2,1.77E2,3.85E2,2.4E1],"tree_param":{"num_deleted":"0","num_feature":"6","num_nodes":"13","size_leaf_vector":"1"}},{"base_weights":[6.8336805E-5,-1.5627068E-1,1.6914116E-3,-2.685505E-1,-1.082468E-1,-4.3196592E-2,7.3966505E-3,-8.457182E-2,-8.229161E-3,-3.38415E-2,-2.9607776E-3,-1.0899729E-2,-1.5635294E-1,1.3591246E-3,4.6049524E-2],"categories":[],"categories_nodes":[],"categories_segments":[],"categories_sizes":[],"default_left":[0,0,0,0,0,0,0,0,0,0,0,0,0,0,0],"id":16,"left_children":[1,3,5,7,9,11,13,-1,-1,-1,-1,-1,-1,-1,-1],"loss_changes":[1.4570427E0,2.8906488E-1,1.4557176E0,4.701221E-2,1.8168867E-2,2.0841415E0,2.1111217E0,0E0,0E0,0E0,0E0,0E0,0E0,0E0,0E0],"parents":[2147483647,0,0,1,1,2,2,3,3,4,4,5,5,6,6],"right_children":[2,4,6,8,10,12,14,-1,-1,-1,-1,-1,-1,-1,-1],"split_conditions":[1.2E1,1.16E1,2.9165E1,2.9725E1,8.333333E0,2.14E1,2.14E1,-8.457182E-2,-8.229161E-3,-3.38415E-2,-2.9607776E-3,-1.0899729E-2,-1.5635294E-1,1.3591246E-3,4.6049524E-2],"split_indices":[5,5,3,3,2,5,5,0,0,0,0,0,0,0,0],"split_type":[0,0,0,0,0,0,0,0,0,0,0,0,0,0,0],"sum_hessian":[5.74E3,5.8E1,5.682E3,1.6E1,4.2E1,6.4E2,5.042E3,1.5E1,1E0,4E1,2E0,6.32E2,8E0,4.946E3,9.6E1],"tree_param":{"num_deleted":"0","num_feature":"6","num_nodes":"15","size_leaf_vector":"1"}},{"base_weights":[3.8721737E-6,-7.2726435E-3,3.0676266E-2,-3.5069477E-2,4.967809E-3,4.4121258E-2,-1.0737933E-1,-3.270698E-2,-6.7688455E-3,7.378227E-4,6.4544E-2,1.2146966E-2,1.4734998E-1,2.9096877E-2,-4.8307527E-2],"categories":[],"categories_nodes":[],"categories_segments":[],"categories_sizes":[],"default_left":[0,0,0,0,0,0,0,0,0,0,0,0,0,0,0],"id":17,"left_children":[1,3,5,7,9,11,13,-1,-1,-1,-1,-1,-1,-1,-1],"loss_changes":[1.2815464E0,1.5792552E0,2.0483658E0,1.3099946E0,1.6986775E0,1.6099968E0,1.090043E0,0E0,0E0,0E0,0E0,0E0,0E0,0E0,0E0],"parents":[2147483647,0,0,1,1,2,2,3,3,4,4,5,5,6,6],"right_children":[2,4,6,8,10,12,14,-1,-1,-1,-1,-1,-1,-1,-1],"split_conditions":[4.17E1,4.4444447E0,5.362311E0,4.8E2,2.05E1,5.142301E0,1.68E1,-3.270698E-2,-6.7688455E-3,7.378227E-4,6.4544E-2,1.2146966E-2,1.4734998E-1,2.9096877E-2,-4.8307527E-2],"split_indices":[1,2,4,0,5,4,5,0,0,0,0,0,0,0,0],"split_type":[0,0,0,0,0,0,0,0,0,0,0,0,0,0,0],"sum_hessian":[5.74E3,4.64E3,1.1E3,1.418E3,3.222E3,1.003E3,9.7E1,2.04E2,1.214E3,3.185E3,3.7E1,9.96E2,7E0,2E1,7.7E1],"tree_param":{"num_deleted":"0","num_feature":"6","num_nodes":"15","size_leaf_vector":"1"}},{"base_weights":[3.1375737E-5,-1.4492392E-2,1.0894348E-2,-2.0833518E-3,-4.111911E-2,-1.0940869E-2,2.8716195E-2,-2.1113853E-3,3.206355E-2,-1.143003E-1,-1.1265898E-2,-2.8210623E-2,-2.188447E-3,-1.7999751E-2,1.1314813E-2],"categories":[],"categories_nodes":[],"categories_segments":[],"categories_sizes":[],"default_left":[0,0,0,0,0,0,0,0,0,0,0,0,0,0,0],"id":18,"left_children":[1,3,5,7,9,11,13,-1,-1,-1,-1,-1,-1,-1,-1],"loss_changes":[9.0592283E-1,8.1173676E-1,1.2786518E0,9.0610135E-1,9.3230975E-1,4.467957E-1,1.4466136E0,0E0,0E0,0E0,0E0,0E0,0E0,0E0,0E0],"parents":[2147483647,0,0,1,1,2,2,3,3,4,4,5,5,6,6],"right_children":[2,4,6,8,10,12,14,-1,-1,-1,-1,-1,-1,-1,-1],"split_conditions":[2.9635E1,-1.83697E-15,1.95E1,5.63E1,-3.0555556E0,1.41E1,4.74E2,-2.1113853E-3,3.206355E-2,-1.143003E-1,-1.1265898E-2,-2.8210623E-2,-2.188447E-3,-1.7999751E-2,1.1314813E-2],"split_indices":[3,4,1,1,2,5,0,0,0,0,0,0,0,0,0],"split_type":[0,0,0,0,0,0,0,0,0,0,0,0,0,0,0],"sum_hessian":[5.74E3,2.456E3,3.284E3,1.676E3,7.8E2,1.476E3,1.808E3,1.604E3,7.2E1,7E0,7.73E2,6.1E1,1.415E3,1.66E2,1.642E3],"tree_param":{"num_deleted":"0","num_feature":"6","num_nodes":"15","size_leaf_vector":"1"}},{"base_weights":[-1.1083287E-6,-8.0109835E-2,1.3465683E-3,-1.9778949E-1,-6.0712907E-2,-1.3636885E-2,8.774449E-3,-6.38026E-2,-2.8738976E-3,-2.200065E-2,-4.300479E-3,-2.1350125E-2,-2.1743781E-3,2.8387987E-4,1.2879736E-2],"categories":[],"categories_nodes":[],"categories_segments":[],"categories_sizes":[],"default_left":[0,0,0,0,0,0,0,0,0,0,0,0,0,0,0],"id":19,"left_children":[1,3,5,7,9,11,13,-1,-1,-1,-1,-1,-1,-1,-1],"loss_changes":[6.1991006E-1,2.048409E-1,6.2860423E-1,3.438425E-2,4.7537804E-2,6.875527E-1,1.0096432E0,0E0,0E0,0E0,0E0,0E0,0E0,0E0,0E0],"parents":[2147483647,0,0,1,1,2,2,3,3,4,4,5,5,6,6],"right_children":[2,4,6,8,10,12,14,-1,-1,-1,-1,-1,-1,-1,-1],"split_conditions":[1.14E1,1.15E1,5.14E2,2.9725E1,2.9665E1,2.9165E1,3.27E1,-6.38026E-2,-2.8738976E-3,-2.200065E-2,-4.300479E-3,-2.1350125E-2,-2.1743781E-3,2.8387987E-4,1.2879736E-2],"split_indices":[1,5,0,3,3,3,1,0,0,0,0,0,0,0,0],"split_type":[0,0,0,0,0,0,0,0,0,0,0,0,0,0,0],"sum_hessian":[5.74E3,9.4E1,5.646E3,1.2E1,8.2E1,1.871E3,3.775E3,1.1E1,1E0,6.4E1,1.8E1,1.86E2,1.685E3,3.072E3,7.03E2],"tree_param":{"num_deleted":"0","num_feature":"6","num_nodes":"15","size_leaf_vector":"1"}},{"base_weights":[-1.8996243E-5,-3.1203867E-4,1.0086651E-1,-2.6911125E-3,3.983673E-2,-1.4190676E-3,1.5937902E-2,1.0175479E-2,1.03471E-1],"categories":[],"categories_nodes":[],"categories_segments":[],"categories_sizes":[],"default_left":[0,0,0,0,0,0,0,0,0],"id":20,"left_children":[1,3,-1,5,7,-1,-1,-1,-1],"loss_changes":[5.6578165E-1,5.4808754E-1,0E0,6.168037E-1,5.678756E-1,0E0,0E0,0E0,0E0],"parents":[2147483647,0,0,1,1,3,3,4,4],"right_children":[2,4,-1,6,8,-1,-1,-1,-1],"split_conditions":[2.32E1,6.58E2,1.0086651E-1,5.61E1,5.28E1,-1.4190676E-3,1.5937902E-2,1.0175479E-2,1.03471E-1],"split_indices":[5,0,0,1,1,0,0,0,0],"split_type":[0,0,0,0,0,0,0,0,0],"sum_hessian":[5.74E3,5.736E3,4E0,5.416E3,3.2E2,5.226E3,1.9E2,3.15E2,5E0],"tree_param":{"num_deleted":"0","num_feature":"6","num_nodes":"9","size_leaf_vector":"1"}},{"base_weights":[2.6586931E-5,-3.8312534E-3,2.3282202E-2,7.012845E-2,-5.3160866E-3,1.5187899E-2,1.4455765E-1,1.2583491E-2,1.1352797E-1,-1.0900084E-2,-4.426641E-4,5.7981285E-4,1.9173956E-2,9.69084E-2,1.8366609E-2],"categories":[],"categories_nodes":[],"categories_segments":[],"categories_sizes":[],"default_left":[0,0,0,0,0,0,0,0,0,0,0,0,0,0,0],"id":21,"left_children":[1,3,5,7,9,11,13,-1,-1,-1,-1,-1,-1,-1,-1],"loss_changes":[5.151513E-1,5.412257E-1,7.998045E-1,8.2695156E-1,5.751964E-1,4.9525326E-1,7.387433E-1,0E0,0E0,0E0,0E0,0E0,0E0,0E0,0E0],"parents":[2147483647,0,0,1,1,2,2,3,3,4,4,5,5,6,6],"right_children":[2,4,6,8,10,12,14,-1,-1,-1,-1,-1,-1,-1,-1],"split_conditions":[1.3888889E1,2.8905E1,3.59E1,5.6E1,2.9165E1,1.9E1,-3.8567257E0,1.2583491E-2,1.1352797E-1,-1.0900084E-2,-4.426641E-4,5.7981285E-4,1.9173956E-2,9.69084E-2,1.8366609E-2],"split_indices":[2,3,1,1,3,5,4,0,0,0,0,0,0,0,0],"split_type":[0,0,0,0,0,0,0,0,0,0,0,0,0,0,0],"sum_hessian":[5.74E3,4.924E3,8.16E2,9.6E1,4.828E3,7.66E2,5E1,8.9E1,7E0,5.31E2,4.297E3,6.03E2,1.63E2,1.5E1,3.5E1],"tree_param":{"num_deleted":"0","num_feature":"6","num_nodes":"15","size_leaf_vector":"1"}},{"base_weights":[6.203285E-5,-4.479658E-2,1.781737E-3,-3.4339905E-2,-2.525874E-1,-1.6949665E-2,6.3998057E-3,8.963022E-3,-1.8069783E-2,-3.3103306E-2,-1.3150978E-1,-3.5856431E-3,-8.972252E-2,1.3224839E-3,2.6799394E-2],"categories":[],"categories_nodes":[],"categories_segments":[],"categories_sizes":[],"default_left":[0,0,0,0,0,0,0,0,0,0,0,0,0,0,0],"id":22,"left_children":[1,3,5,7,9,11,13,-1,-1,-1,-1,-1,-1,-1,-1],"loss_changes":[4.429609E-1,4.5196003E-1,4.7846946E-1,3.3933637E-1,2.1588588E-1,1.5388862E0,7.3242235E-1,0E0,0E0,0E0,0E0,0E0,0E0,0E0,0E0],"parents":[2147483647,0,0,1,1,2,2,3,3,4,4,5,5,6,6],"right_children":[2,4,6,8,10,12,14,-1,-1,-1,-1,-1,-1,-1,-1],"split_conditions":[4.65E2,8.550504E0,-7.524443E0,1.97E1,-5.555556E-1,3.0165E1,5.63E1,8.963022E-3,-1.8069783E-2,-3.3103306E-2,-1.3150978E-1,-3.5856431E-3,-8.972252E-2,1.3224839E-3,2.6799394E-2],"split_indices":[0,4,4,1,2,3,1,0,0,0,0,0,0,0,0],"split_type":[0,0,0,0,0,0,0,0,0,0,0,0,0,0,0],"sum_hessian":[5.74E3,2.11E2,5.529E3,2.02E2,9E0,1.093E3,4.436E3,5.8E1,1.44E2,6E0,3E0,1.075E3,1.8E1,4.333E3,1.03E2],"tree_param":{"num_deleted":"0","num_feature":"6","num_nodes":"15","size_leaf_vector":"1"}},{"base_weights":[2.2136674E-6,-5.802937E-4,1.1475609E-1,-1.0147261E-1,-2.9837605E-5,-2.016884E-1,1.6687557E-1,-4.2925246E-2,-2.0298265E-2,-1.3367456E-3,3.350951E-3,-2.2735262E-2,7.541128E-2],"categories":[],"categories_nodes":[],"categories_segments":[],"categories_sizes":[],"default_left":[0,0,0,0,0,0,0,0,0,0,0,0,0],"id":23,"left_children":[1,3,5,7,9,-1,11,-1,-1,-1,-1,-1,-1],"loss_changes":[3.8382363E-1,3.1727868E-1,1.301789E0,3.3934504E-2,2.8175348E-1,0E0,5.9315145E-1,0E0,0E0,0E0,0E0,0E0,0E0],"parents":[2147483647,0,0,1,1,2,2,3,3,4,4,6,6],"right_children":[2,4,6,8,10,-1,12,-1,-1,-1,-1,-1,-1],"split_conditions":[2.21E1,1.19E1,2.899E1,1.15E1,2.9955E1,-2.016884E-1,4.94E2,-4.2925246E-2,-2.0298265E-2,-1.3367456E-3,3.350951E-3,-2.2735262E-2,7.541128E-2],"split_indices":[5,5,3,5,3,0,0,0,0,0,0,0,0],"split_type":[0,0,0,0,0,0,0,0,0,0,0,0,0],"sum_hessian":[5.74E3,5.712E3,2.8E1,3E1,5.682E3,1E0,2.7E1,1.2E1,1.8E1,4.073E3,1.609E3,7E0,2E1],"tree_param":{"num_deleted":"0","num_feature":"6","num_nodes":"13","size_leaf_vector":"1"}},{"base_weights":[-3.492365E-5,-1.7974647E-3,2.7452668E-2,-1.4629291E-2,3.4153063E-3,1.4865148E-1,1.2459116E-2,7.947601E-4,-1.1160781E-2,3.8704984E-2,6.67632E-4,-1.0938907E-2,5.748833E-2,-2.049586E-2,1.5430823E-2],"categories":[],"categories_nodes":[],"categories_segments":[],"categories_sizes":[],"default_left":[0,0,0,0,0,0,0,0,0,0,0,0,0,0,0],"id":24,"left_children":[1,3,5,7,9,11,13,-1,-1,-1,-1,-1,-1,-1,-1],"loss_changes":[2.7818936E-1,3.6098504E-1,6.2689936E-1,6.0815954E-1,5.7329726E-1,3.0929744E-1,9.7640234E-1,0E0,0E0,0E0,0E0,0E0,0E0,0E0,0E0],"parents":[2147483647,0,0,1,1,2,2,3,3,4,4,5,5,6,6],"right_children":[2,4,6,8,10,12,14,-1,-1,-1,-1,-1,-1,-1,-1],"split_conditions":[2.04E1,5.12E2,3.56E1,4.96E2,2.889E1,2.65E1,5.26E1,7.947601E-4,-1.1160781E-2,3.8704984E-2,6.67632E-4,-1.0938907E-2,5.748833E-2,-2.049586E-2,1.5430823E-2],"split_indices":[5,0,1,0,3,1,1,0,0,0,0,0,0,0,0],"split_type":[0,0,0,0,0,0,0,0,0,0,0,0,0,0,0],"sum_hessian":[5.74E3,5.395E3,3.45E2,1.558E3,3.837E3,3.7E1,3.08E2,8.83E2,6.75E2,3.5E1,3.802E3,7E0,3E1,1E2,2.08E2],"tree_param":{"num_deleted":"0","num_feature":"6","num_nodes":"15","size_leaf_vector":"1"}},{"base_weights":[-1.2250919E-5,1.5131205E-3,-3.256731E-2,-1.6684255E-2,4.2926916E-3,-1.9655736E-2,-2.0291233E-1,-8.717999E-3,1.0225297E-3,1.2946511E-2,-3.517693E-5,-8.883812E-3,6.369475E-2,-1.2656888E-1,-1.7478704E-2],"categories":[],"categories_nodes":[],"categories_segments":[],"categories_sizes":[],"default_left":[0,0,0,0,0,0,0,0,0,0,0,0,0,0,0],"id":25,"left_children":[1,3,5,7,9,11,13,-1,-1,-1,-1,-1,-1,-1,-1],"loss_changes":[2.8513905E-1,2.7750784E-1,5.6126314E-1,1.8087624E-1,8.1560683E-1,5.606235E-1,5.455877E-1,0E0,0E0,0E0,0E0,0E0,0E0,0E0,0E0],"parents":[2147483647,0,0,1,1,2,2,3,3,4,4,5,5,6,6],"right_children":[2,4,6,8,10,12,14,-1,-1,-1,-1,-1,-1,-1,-1],"split_conditions":[7.7942286E0,1.66E1,5.26E1,1.57E1,1.62E1,4.65E1,1.84E1,-8.717999E-3,1.0225297E-3,1.2946511E-2,-3.517693E-5,-8.883812E-3,6.369475E-2,-1.2656888E-1,-1.7478704E-2],"split_indices":[4,1,1,5,5,1,5,0,0,0,0,0,0,0,0],"split_type":[0,0,0,0,0,0,0,0,0,0,0,0,0,0,0],"sum_hessian":[5.74E3,5.484E3,2.56E2,7.26E2,4.758E3,2.39E2,1.7E1,4.49E2,2.77E2,4.84E2,4.274E3,2.3E2,9E0,6E0,1.1E1],"tree_param":{"num_deleted":"0","num_feature":"6","num_nodes":"15","size_leaf_vector":"1"}},{"base_weights":[-2.3839035E-5,-3.5402887E-2,1.3324687E-3,-1.4864999E-1,-2.2173362E-2,-2.1644672E-3,1.3688172E-2,-1.3515519E-1,-1.6961893E-2,-3.7754218E-3,-5.8340695E-2,-2.3684483E-2,-1.07890315E-4,6.9590984E-3,-2.3102865E-2],"categories":[],"categories_nodes":[],"categories_segments":[],"categories_sizes":[],"default_left":[0,0,0,0,0,0,0,0,0,0,0,0,0,0,0],"id":26,"left_children":[1,3,5,7,9,11,13,-1,-1,-1,-1,-1,-1,-1,-1],"loss_changes":[2.755284E-1,3.1432348E-1,2.3896493E-1,5.862401E-1,3.130995E-1,5.9739834E-1,1.0539489E0,0E0,0E0,0E0,0E0,0E0,0E0,0E0,0E0],"parents":[2147483647,0,0,1,1,2,2,3,3,4,4,5,5,6,6],"right_children":[2,4,6,8,10,12,14,-1,-1,-1,-1,-1,-1,-1,-1],"split_conditions":[4.65E2,-4.788282E0,3.51E1,-5.555556E-1,8.550504E0,-5.555556E-1,5.362311E0,-1.3515519E-1,-1.6961893E-2,-3.7754218E-3,-5.8340695E-2,-2.3684483E-2,-1.07890315E-4,6.9590984E-3,-2.3102865E-2],"split_indices":[0,4,1,2,4,2,4,0,0,0,0,0,0,0,0],"split_type":[0,0,0,0,0,0,0,0,0,0,0,0,0,0,0],"sum_hessian":[5.74E3,2.11E2,5.529E3,2.1E1,1.9E2,4.31E3,1.219E3,4E0,1.7E1,1.81E2,9E0,9.8E1,4.212E3,1.104E3,1.15E2],"tree_param":{"num_deleted":"0","num_feature":"6","num_nodes":"15","size_leaf_vector":"1"}},{"base_weights":[-6.0677507E-5,-1.3733686E-2,3.1757422E-3,3.8350013E-3,-6.690428E-2,-8.168313E-3,1.041321E-2,-5.2467263E-3,1.2644332E-2,-1.0246955E-2,-5.404686E-2,-7.19725E-4,-3.5890974E-2,1.0205673E-3,1.5082139E-2],"categories":[],"categories_nodes":[],"categories_segments":[],"categories_sizes":[],"default_left":[0,0,0,0,0,0,0,0,0,0,0,0,0,0,0],"id":27,"left_children":[1,3,5,7,9,11,13,-1,-1,-1,-1,-1,-1,-1,-1],"loss_changes":[2.54092E-1,1.0268736E0,3.8128567E-1,6.763837E-1,1.0063344E0,1.1630554E0,7.921413E-1,0E0,0E0,0E0,0E0,0E0,0E0,0E0,0E0],"parents":[2147483647,0,0,1,1,2,2,3,3,4,4,5,5,6,6],"right_children":[2,4,6,8,10,12,14,-1,-1,-1,-1,-1,-1,-1,-1],"split_conditions":[-7.524443E0,-8.999026E0,2.9635E1,-1.125833E1,1.91E1,6.38E2,4.25E1,-5.2467263E-3,1.2644332E-2,-1.0246955E-2,-5.404686E-2,-7.19725E-4,-3.5890974E-2,1.0205673E-3,1.5082139E-2],"split_indices":[4,4,3,4,5,0,1,0,0,0,0,0,0,0,0],"split_type":[0,0,0,0,0,0,0,0,0,0,0,0,0,0,0],"sum_hessian":[5.74E3,1.098E3,4.642E3,8.26E2,2.72E2,1.808E3,2.834E3,5.31E2,2.95E2,2.12E2,6E1,1.72E3,8.8E1,2.411E3,4.23E2],"tree_param":{"num_deleted":"0","num_feature":"6","num_nodes":"15","size_leaf_vector":"1"}},{"base_weights":[-5.5929733E-5,-1.7130758E-3,2.792988E-2,-6.419638E-4,-5.6467507E-2,2.347752E-2,2.5776577E-1,1.4895325E-3,-2.7267789E-3,-1.0117894E-1,-4.852827E-3,-1.723537E-4,2.1544838E-2,1.8857576E-1,-2.5437213E-2],"categories":[],"categories_nodes":[],"categories_segments":[],"categories_sizes":[],"default_left":[0,0,0,0,0,0,0,0,0,0,0,0,0,0,0],"id":28,"left_children":[1,3,5,7,9,11,13,-1,-1,-1,-1,-1,-1,-1,-1],"loss_changes":[2.6629576E-1,3.1789523E-1,3.2243136E-1,2.5193015E-1,1.1711643E0,3.674361E-1,8.15459E-1,0E0,0E0,0E0,0E0,0E0,0E0,0E0,0E0],"parents":[2147483647,0,0,1,1,2,2,3,3,4,4,5,5,6,6],"right_children":[2,4,6,8,10,12,14,-1,-1,-1,-1,-1,-1,-1,-1],"split_conditions":[6.58E2,6.5E2,5.28E1,1.81E1,2.9545E1,1.9E1,2.6047227E0,1.4895325E-3,-2.7267789E-3,-1.0117894E-1,-4.852827E-3,-1.723537E-4,2.1544838E-2,1.8857576E-1,-2.5437213E-2],"split_indices":[0,0,1,5,3,5,4,0,0,0,0,0,0,0,0],"split_type":[0,0,0,0,0,0,0,0,0,0,0,0,0,0,0],"sum_hessian":[5.74E3,5.42E3,3.2E2,5.317E3,1.03E2,3.15E2,5E0,3.196E3,2.121E3,1.2E1,9.1E1,2.11E2,1.04E2,2E0,3E0],"tree_param":{"num_deleted":"0","num_feature":"6","num_nodes":"15","size_leaf_vector":"1"}},{"base_weights":[-2.5522955E-5,-2.680511E-3,1.5979178E-2,2.8559233E-3,-1.2152219E-2,-8.34843E-4,4.196232E-2,-1.2647641E-4,2.6456667E-2,-7.3455474E-3,4.5449655E-3,-3.131381E-3,1.6001321E-2,-2.205189E-2,1.447821E-2],"categories":[],"categories_nodes":[],"categories_segments":[],"categories_sizes":[],"default_left":[0,0,0,0,0,0,0,0,0,0,0,0,0,0,0],"id":29,"left_children":[1,3,5,7,9,11,13,-1,-1,-1,-1,-1,-1,-1,-1],"loss_changes":[2.4399106E-1,2.582992E-1,3.5696694E-1,8.6956155E-1,6.121824E-1,2.5910822E-1,2.3699939E-1,0E0,0E0,0E0,0E0,0E0,0E0,0E0,0E0],"parents":[2147483647,0,0,1,1,2,2,3,3,4,4,5,5,6,6],"right_children":[2,4,6,8,10,12,14,-1,-1,-1,-1,-1,-1,-1,-1],"split_conditions":[1.3888889E1,1.81E1,1.86E1,1.8E1,5.28E1,2.41E1,2.9485E1,-1.2647641E-4,2.6456667E-2,-7.3455474E-3,4.5449655E-3,-3.131381E-3,1.6001321E-2,-2.205189E-2,1.447821E-2],"split_indices":[2,5,5,5,1,1,3,0,0,0,0,0,0,0,0],"split_type":[0,0,0,0,0,0,0,0,0,0,0,0,0,0,0],"sum_hessian":[5.74E3,4.924E3,8.16E2,3.108E3,1.816E3,4.96E2,3.2E2,2.994E3,1.14E2,1.251E3,5.65E2,4.22E2,7.4E1,1.6E1,3.04E2],"tree_param":{"num_deleted":"0","num_feature":"6","num_nodes":"15","size_leaf_vector":"1"}},{"base_weights":[-1.3059574E-5,-2.3108507E-2,1.4815305E-3,-8.3905905E-2,-9.422695E-3,-1.1185484E-1,1.90305E-3,-5.7543922E-2,5.0843577E-3,5.075218E-2,-6.401512E-3,8.844073E-3,-7.6841384E-2,1.2773089E-2,2.9928604E-4],"categories":[],"categories_nodes":[],"categories_segments":[],"categories_sizes":[],"default_left":[0,0,0,0,0,0,0,0,0,0,0,0,0,0,0],"id":30,"left_children":[1,3,5,7,9,11,13,-1,-1,-1,-1,-1,-1,-1,-1],"loss_changes":[1.9820338E-1,2.8959888E-1,2.578553E-1,6.997529E-1,6.1224633E-1,4.153963E-1,1.9786784E-1,0E0,0E0,0E0,0E0,0E0,0E0,0E0,0E0],"parents":[2147483647,0,0,1,1,2,2,3,3,4,4,5,5,6,6],"right_children":[2,4,6,8,10,12,14,-1,-1,-1,-1,-1,-1,-1,-1],"split_conditions":[4.73E2,-3.8567257E0,-3.3333333E0,1.3888888E0,-3.0781813E0,-6.840403E-1,4.79E2,-5.7543922E-2,5.0843577E-3,5.075218E-2,-6.401512E-3,8.844073E-3,-7.6841384E-2,1.2773089E-2,2.9928604E-4],"split_indices":[0,4,2,2,4,4,0,0,0,0,0,0,0,0,0],"split_type":[0,0,0,0,0,0,0,0,0,0,0,0,0,0,0],"sum_hessian":[5.74E3,3.48E2,5.392E3,6.3E1,2.85E2,1.9E1,5.373E3,3E1,3.3E1,1.7E1,2.68E2,1E1,9E0,1.16E2,5.257E3],"tree_param":{"num_deleted":"0","num_feature":"6","num_nodes":"15","size_leaf_vector":"1"}},{"base_weights":[-2.0306235E-5,-1.4502276E-2,1.7995257E-3,-7.760672E-3,-3.1587547E-1,8.372064E-2,6.4305606E-4,1.1921956E-3,-2.9109197E-2,-1.3601376E-1,4.2368606E-2,3.2352436E-2,-3.5913277E-2,-2.0185944E-2,5.221002E-4],"categories":[],"categories_nodes":[],"categories_segments":[],"categories_sizes":[],"default_left":[0,0,0,0,0,0,0,0,0,0,0,0,0,0,0],"id":31,"left_children":[1,3,5,7,9,11,13,-1,-1,-1,-1,-1,-1,-1,-1],"loss_changes":[1.5132871E-1,1.2998929E0,4.8321116E-1,6.5824866E-1,9.439795E-1,3.6130217E-1,3.7511563E-1,0E0,0E0,0E0,0E0,0E0,0E0,0E0,0E0],"parents":[2147483647,0,0,1,1,2,2,3,3,4,4,5,5,6,6],"right_children":[2,4,6,8,10,12,14,-1,-1,-1,-1,-1,-1,-1,-1],"split_conditions":[2.9165E1,2.11E1,2.921E1,2.9135E1,2.2574263E0,7.5E0,2.924E1,1.1921956E-3,-2.9109197E-2,-1.3601376E-1,4.2368606E-2,3.2352436E-2,-3.5913277E-2,-2.0185944E-2,5.221002E-4],"split_indices":[3,5,3,3,4,2,3,0,0,0,0,0,0,0,0],"split_type":[0,0,0,0,0,0,0,0,0,0,0,0,0,0,0],"sum_hessian":[5.74E3,6.4E2,5.1E3,6.27E2,1.3E1,7E1,5.03E3,5.55E2,7.2E1,1E1,3E0,6.3E1,7E0,7.9E1,4.951E3],"tree_param":{"num_deleted":"0","num_feature":"6","num_nodes":"15","size_leaf_vector":"1"}},{"base_weights":[-3.9729897E-5,3.0914601E-2,-9.212808E-4,4.4390094E-2,-8.041126E-2,-3.3688948E-2,1.031275E-3,1.3226795E-1,9.236011E-3,-8.8678315E-2,-8.2881525E-3,-2.6905509E-3,1.7078746E-3],"categories":[],"categories_nodes":[],"categories_segments":[],"categories_sizes":[],"default_left":[0,0,0,0,0,0,0,0,0,0,0,0,0],"id":32,"left_children":[1,3,5,7,-1,9,11,-1,-1,-1,-1,-1,-1],"loss_changes":[1.5668786E-1,6.5243405E-1,3.57239E-1,8.116758E-1,0E0,4.9034363E-1,2.4571402E-1,0E0,0E0,0E0,0E0,0E0,0E0],"parents":[2147483647,0,0,1,1,2,2,3,3,5,5,6,6],"right_children":[2,4,6,8,-1,10,12,-1,-1,-1,-1,-1,-1],"split_conditions":[-1.6852978E1,5.69E1,-1.1667262E1,4.4444447E0,-8.041126E-2,4.76E2,5.13E2,1.3226795E-1,9.236011E-3,-8.8678315E-2,-8.2881525E-3,-2.6905509E-3,1.7078746E-3],"split_indices":[4,1,4,2,0,0,0,0,0,0,0,0,0],"split_type":[0,0,0,0,0,0,0,0,0,0,0,0,0],"sum_hessian":[5.74E3,1.58E2,5.582E3,1.52E2,6E0,3.13E2,5.269E3,4E0,1.48E2,6E0,3.07E2,1.675E3,3.594E3],"tree_param":{"num_deleted":"0","num_feature":"6","num_nodes":"13","size_leaf_vector":"1"}},{"base_weights":[-3.3715485E-5,-1.8245135E-4,5.118977E-2,3.6675088E-2,-8.1620406E-4,-5.9721996E-3,4.1242674E-2,-7.278203E-3,2.516564E-4],"categories":[],"categories_nodes":[],"categories_segments":[],"categories_sizes":[],"default_left":[0,0,0,0,0,0,0,0,0],"id":33,"left_children":[1,3,-1,5,7,-1,-1,-1,-1],"loss_changes":[1.4576179E-1,1.3403803E-1,0E0,5.559797E-1,2.189023E-1,0E0,0E0,0E0,0E0],"parents":[2147483647,0,0,1,1,3,3,4,4],"right_children":[2,4,-1,6,8,-1,-1,-1,-1],"split_conditions":[2.32E1,2.8905E1,5.118977E-2,4.17E1,2.9105E1,-5.9721996E-3,4.1242674E-2,-7.278203E-3,2.516564E-4],"split_indices":[5,3,0,1,3,0,0,0,0],"split_type":[0,0,0,0,0,0,0,0,0],"sum_hessian":[5.74E3,5.736E3,4E0,9.6E1,5.64E3,6.2E1,3.4E1,3.71E2,5.269E3],"tree_param":{"num_deleted":"0","num_feature":"6","num_nodes":"9","size_leaf_vector":"1"}},{"base_weights":[-9.855853E-6,-1.1793326E-3,1.8228602E-2,1.8199221E-3,-2.002326E-2,3.7269436E-2,-8.542312E-2,-3.9436974E-4,2.3664132E-2,-2.6691308E-2,-4.4553122E-4,4.3548983E-2,3.1785702E-3,-5.804976E-3,-9.452005E-2],"categories":[],"categories_nodes":[],"categories_segments":[],"categories_sizes":[],"default_left":[0,0,0,0,0,0,0,0,0,0,0,0,0,0,0],"id":34,"left_children":[1,3,5,7,9,11,13,-1,-1,-1,-1,-1,-1,-1,-1],"loss_changes":[1.2247389E-1,3.0500618E-1,6.860545E-1,1.1247383E0,9.4698775E-1,8.417107E-1,8.132613E-1,0E0,0E0,0E0,0E0,0E0,0E0,0E0,0E0],"parents":[2147483647,0,0,1,1,2,2,3,3,4,4,5,5,6,6],"right_children":[2,4,6,8,10,12,14,-1,-1,-1,-1,-1,-1,-1,-1],"split_conditions":[2.04E1,1.92E1,5.43E2,1.9E1,1.94E1,2.06E1,3.0165E1,-3.9436974E-4,2.3664132E-2,-2.6691308E-2,-4.4553122E-4,4.3548983E-2,3.1785702E-3,-5.804976E-3,-9.452005E-2],"split_indices":[5,5,0,5,5,5,3,0,0,0,0,0,0,0,0],"split_type":[0,0,0,0,0,0,0,0,0,0,0,0,0,0,0],"sum_hessian":[5.74E3,5.395E3,3.45E2,4.655E3,7.4E2,2.92E2,5.3E1,4.474E3,1.81E2,1.56E2,5.84E2,5.7E1,2.35E2,4.2E1,1.1E1],"tree_param":{"num_deleted":"0","num_feature":"6","num_nodes":"15","size_leaf_vector":"1"}},{"base_weights":[-1.6447684E-5,-9.895349E-4,2.4179308E-2,2.79261E-4,-3.2146815E-2,1.9043172E-2,3.927695E-1,-4.8302445E-3,8.036624E-4,-1.0235482E-1,-7.4119796E-3,-2.1294456E-2,1.0423225E-2,1.3854218E-2,1.6289206E-1],"categories":[],"categories_nodes":[],"categories_segments":[],"categories_sizes":[],"default_left":[0,0,0,0,0,0,0,0,0,0,0,0,0,0,0],"id":35,"left_children":[1,3,5,7,9,11,13,-1,-1,-1,-1,-1,-1,-1,-1],"loss_changes":[1.3519336E-1,2.182269E-1,4.1279513E-1,2.0856068E-1,4.8821813E-1,3.1342956E-1,1.3110217E-1,0E0,0E0,0E0,0E0,0E0,0E0,0E0,0E0],"parents":[2147483647,0,0,1,1,2,2,3,3,4,4,5,5,6,6],"right_children":[2,4,6,8,10,12,14,-1,-1,-1,-1,-1,-1,-1,-1],"split_conditions":[3.0255E1,3.021E1,9.641814E0,1.6666666E0,-8.356239E0,4.82E2,2.19E1,-4.8302445E-3,8.036624E-4,-1.0235482E-1,-7.4119796E-3,-2.1294456E-2,1.0423225E-2,1.3854218E-2,1.6289206E-1],"split_indices":[3,3,4,2,4,0,1,0,0,0,0,0,0,0,0],"split_type":[0,0,0,0,0,0,0,0,0,0,0,0,0,0,0],"sum_hessian":[5.74E3,5.519E3,2.21E2,5.304E3,2.15E2,2.19E2,2E0,6.77E2,4.627E3,4E0,2.11E2,3.2E1,1.87E2,1E0,1E0],"tree_param":{"num_deleted":"0","num_feature":"6","num_nodes":"15","size_leaf_vector":"1"}},{"base_weights":[-2.137586E-6,9.96321E-4,-2.1311644E-2,-3.975569E-2,1.5992002E-3,-4.307122E-3,-8.368631E-2,-2.7839493E-2,-8.709164E-3,3.9682253E-3,-2.8106765E-4,-8.191515E-3,1.01041375E-2,-3.76872E-2,1.0956746E-2],"categories":[],"categories_nodes":[],"categories_segments":[],"categories_sizes":[],"default_left":[0,0,0,0,0,0,0,0,0,0,0,0,0,0,0],"id":36,"left_children":[1,3,5,7,9,11,13,-1,-1,-1,-1,-1,-1,-1,-1],"loss_changes":[1.2217054E-1,1.34822E-1,2.7222696E-1,4.281719E-2,1.5943658E-1,1.7826766E-1,2.818585E-1,0E0,0E0,0E0,0E0,0E0,0E0,0E0,0E0],"parents":[2147483647,0,0,1,1,2,2,3,3,4,4,5,5,6,6],"right_children":[2,4,6,8,10,12,14,-1,-1,-1,-1,-1,-1,-1,-1],"split_conditions":[7.7942286E0,1.14E1,2.47E1,1.15E1,1.62E1,5.5555553E0,5.81E2,-2.7839493E-2,-8.709164E-3,3.9682253E-3,-2.8106765E-4,-8.191515E-3,1.01041375E-2,-3.76872E-2,1.0956746E-2],"split_indices":[4,1,1,5,5,2,0,0,0,0,0,0,0,0,0],"split_type":[0,0,0,0,0,0,0,0,0,0,0,0,0,0,0],"sum_hessian":[5.74E3,5.484E3,2.56E2,7.9E1,5.405E3,2.02E2,5.4E1,1.2E1,6.7E1,9.67E2,4.438E3,1.26E2,7.6E1,4E1,1.4E1],"tree_param":{"num_deleted":"0","num_feature":"6","num_nodes":"15","size_leaf_vector":"1"}},{"base_weights":[-1.2056231E-5,-9.400848E-3,1.9678688E-3,-1.9443547E-2,5.7118083E-3,3.0122565E-2,-1.1220986E-3,1.45631E-3,-1.2324729E-2,1.2693318E-2,-1.5610622E-3,2.872515E-3,3.3928033E-2,-3.905251E-2,3.4542504E-4],"categories":[],"categories_nodes":[],"categories_segments":[],"categories_sizes":[],"default_left":[0,0,0,0,0,0,0,0,0,0,0,0,0,0,0],"id":37,"left_children":[1,3,5,7,9,11,13,-1,-1,-1,-1,-1,-1,-1,-1],"loss_changes":[1.0673855E-1,1.518829E-1,4.1257402E-1,3.1619298E-1,1.6001758E-1,7.9848945E-1,1.2541579E0,0E0,0E0,0E0,0E0,0E0,0E0,0E0,0E0],"parents":[2147483647,0,0,1,1,2,2,3,3,4,4,5,5,6,6],"right_children":[2,4,6,8,10,12,14,-1,-1,-1,-1,-1,-1,-1,-1],"split_conditions":[1.7E1,1.59E1,1.62E1,1.45E1,1.62E1,1.6E1,1.63E1,1.45631E-3,-1.2324729E-2,1.2693318E-2,-1.5610622E-3,2.872515E-3,3.3928033E-2,-3.905251E-2,3.4542504E-4],"split_indices":[1,5,5,5,5,5,5,0,0,0,0,0,0,0,0],"split_type":[0,0,0,0,0,0,0,0,0,0,0,0,0,0,0],"sum_hessian":[5.74E3,9.99E2,4.741E3,6E2,3.99E2,4.68E2,4.273E3,2.83E2,3.17E2,9.1E1,3.08E2,3.76E2,9.2E1,7.3E1,4.2E3],"tree_param":{"num_deleted":"0","num_feature":"6","num_nodes":"15","size_leaf_vector":"1"}},{"base_weights":[-8.640047E-6,-3.7830953E-2,4.5813897E-4,1.2951688E-2,-1.05972864E-1,6.716902E-2,-6.173469E-4,-1.1923621E-2,3.2082904E-2,-8.575556E-3,-9.456475E-2,1.5816674E-2,2.0293981E-1,-8.180162E-3,2.0369346E-4],"categories":[],"categories_nodes":[],"categories_segments":[],"categories_sizes":[],"default_left":[0,0,0,0,0,0,0,0,0,0,0,0,0,0,0],"id":38,"left_children":[1,3,5,7,9,11,13,-1,-1,-1,-1,-1,-1,-1,-1],"loss_changes":[1.0137274E-1,2.4360235E-1,4.069882E-1,2.0732631E-1,4.767743E-1,7.565491E-1,1.9289373E-1,0E0,0E0,0E0,0E0,0E0,0E0,0E0,0E0],"parents":[2147483647,0,0,1,1,2,2,3,3,4,4,5,5,6,6],"right_children":[2,4,6,8,10,12,14,-1,-1,-1,-1,-1,-1,-1,-1],"split_conditions":[-1.9918585E1,5.37E2,-1.6852978E1,3.09E1,2.8E1,6.61E2,-1.2256711E1,-1.1923621E-2,3.2082904E-2,-8.575556E-3,-9.456475E-2,1.5816674E-2,2.0293981E-1,-8.180162E-3,2.0369346E-4],"split_indices":[4,0,4,1,1,0,4,0,0,0,0,0,0,0,0],"split_type":[0,0,0,0,0,0,0,0,0,0,0,0,0,0,0],"sum_hessian":[5.74E3,6.9E1,5.671E3,4E1,2.9E1,8.9E1,5.582E3,2.6E1,1.4E1,2.2E1,7E0,8.8E1,1E0,2.58E2,5.324E3],"tree_param":{"num_deleted":"0","num_feature":"6","num_nodes":"15","size_leaf_vector":"1"}},{"base_weights":[1.5877074E-5,-7.244334E-3,2.2023274E-3,1.6876929E-2,-3.5360914E-2,3.0445835E-2,-1.7600667E-3,2.0027715E-3,3.7890926E-2,2.81633E-3,-1.6448913E-2,7.876683E-3,2.3278047E-1,-7.98986E-3,4.336888E-4],"categories":[],"categories_nodes":[],"categories_segments":[],"categories_sizes":[],"default_left":[0,0,0,0,0,0,0,0,0,0,0,0,0,0,0],"id":39,"left_children":[1,3,5,7,9,11,13,-1,-1,-1,-1,-1,-1,-1,-1],"loss_changes":[9.114911E-2,9.0193444E-1,4.939208E-1,7.98398E-1,5.354333E-1,1.6758336E0,3.0869126E-1,0E0,0E0,0E0,0E0,0E0,0E0,0E0,0E0],"parents":[2147483647,0,0,1,1,2,2,3,3,4,4,5,5,6,6],"right_children":[2,4,6,8,10,12,14,-1,-1,-1,-1,-1,-1,-1,-1],"split_conditions":[2.9405E1,1.72E1,2.953E1,4.17E1,2.41E1,6.45E2,2.962E1,2.0027715E-3,3.7890926E-2,2.81633E-3,-1.6448913E-2,7.876683E-3,2.3278047E-1,-7.98986E-3,4.336888E-4],"split_indices":[3,5,3,1,1,0,3,0,0,0,0,0,0,0,0],"split_type":[0,0,0,0,0,0,0,0,0,0,0,0,0,0,0],"sum_hessian":[5.74E3,1.328E3,4.412E3,7.15E2,6.13E2,5.42E2,3.87E3,6.55E2,6E1,1.86E2,4.27E2,5.4E2,2E0,4.41E2,3.429E3],"tree_param":{"num_deleted":"0","num_feature":"6","num_nodes":"15","size_leaf_vector":"1"}},{"base_weights":[5.6582572E-5,-1.4159742E-3,1.2606189E-2,7.283573E-4,-2.2041162E-2,-4.9216915E-2,2.5589796E-2,-2.9224512E-4,2.4482286E-2,-1.48472665E-2,1.0313409E-2,-7.037271E-2,-3.2230008E-3,1.0312649E-1,6.6972934E-3],"categories":[],"categories_nodes":[],"categories_segments":[],"categories_sizes":[],"default_left":[0,0,0,0,0,0,0,0,0,0,0,0,0,0,0],"id":40,"left_children":[1,3,5,7,9,11,13,-1,-1,-1,-1,-1,-1,-1,-1],"loss_changes":[1.0611158E-1,2.2729985E-1,4.852796E-1,6.411994E-1,7.51268E-1,7.462785E-1,5.107689E-1,0E0,0E0,0E0,0E0,0E0,0E0,0E0,0E0],"parents":[2147483647,0,0,1,1,2,2,3,3,4,4,5,5,6,6],"right_children":[2,4,6,8,10,12,14,-1,-1,-1,-1,-1,-1,-1,-1],"split_conditions":[1.99E1,1.92E1,1.3888888E0,1.91E1,5.01E1,-4.648801E0,1.9444444E0,-2.9224512E-4,2.4482286E-2,-1.48472665E-2,1.0313409E-2,-7.037271E-2,-3.2230008E-3,1.0312649E-1,6.6972934E-3],"split_indices":[5,5,2,5,1,4,2,0,0,0,0,0,0,0,0],"split_type":[0,0,0,0,0,0,0,0,0,0,0,0,0,0,0],"sum_hessian":[5.74E3,5.138E3,6.02E2,4.655E3,4.83E2,1.04E2,4.98E2,4.56E3,9.5E1,3.25E2,1.58E2,1.7E1,8.7E1,4E0,4.94E2],"tree_param":{"num_deleted":"0","num_feature":"6","num_nodes":"15","size_leaf_vector":"1"}},{"base_weights":[4.904421E-5,2.8829694E-2,-6.071674E-4,1.629243E-2,2.148521E-1,-1.6554195E-2,9.998468E-4,3.0784167E-2,-2.1768033E-3,7.113743E-3,1.576542E-1,-3.2894274E-3,-9.868966E-2,1.7842423E-2,5.2326297E-5],"categories":[],"categories_nodes":[],"categories_segments":[],"categories_sizes":[],"default_left":[0,0,0,0,0,0,0,0,0,0,0,0,0,0,0],"id":41,"left_children":[1,3,5,7,9,11,13,-1,-1,-1,-1,-1,-1,-1,-1],"loss_changes":[1.0844317E-1,2.9502267E-1,1.438871E-1,2.4670564E-1,4.6257707E-1,8.939417E-1,2.4619804E-1,0E0,0E0,0E0,0E0,0E0,0E0,0E0,0E0],"parents":[2147483647,0,0,1,1,2,2,3,3,4,4,5,5,6,6],"right_children":[2,4,6,8,10,12,14,-1,-1,-1,-1,-1,-1,-1,-1],"split_conditions":[2.895E1,5.63E1,2.9165E1,4.92E2,5.33E2,2.11E1,2.921E1,3.0784167E-2,-2.1768033E-3,7.113743E-3,1.576542E-1,-3.2894274E-3,-9.868966E-2,1.7842423E-2,5.2326297E-5],"split_indices":[3,1,3,0,0,5,3,0,0,0,0,0,0,0,0],"split_type":[0,0,0,0,0,0,0,0,0,0,0,0,0,0,0],"sum_hessian":[5.74E3,1.27E2,5.613E3,1.2E2,7E0,5.13E2,5.1E3,2.5E1,9.5E1,5E0,2E0,5.05E2,8E0,7E1,5.03E3],"tree_param":{"num_deleted":"0","num_feature":"6","num_nodes":"15","size_leaf_vector":"1"}},{"base_weights":[5.39772E-5,-1.6150615E-3,1.011513E-2,2.9822844E-3,-8.261465E-3,-6.53022E-3,2.641356E-2,-1.488661E-3,5.690029E-3,-2.831846E-3,5.213682E-2,1.4745702E-2,-4.4073397E-3,3.4524634E-2,3.9967718E-3],"categories":[],"categories_nodes":[],"categories_segments":[],"categories_sizes":[],"default_left":[0,0,0,0,0,0,0,0,0,0,0,0,0,0,0],"id":42,"left_children":[1,3,5,7,9,11,13,-1,-1,-1,-1,-1,-1,-1,-1],"loss_changes":[9.64218E-2,1.5051202E-1,2.2181894E-1,3.6988458E-1,4.3356267E-1,1.8476237E-1,4.7786033E-1,0E0,0E0,0E0,0E0,0E0,0E0,0E0,0E0],"parents":[2147483647,0,0,1,1,2,2,3,3,4,4,5,5,6,6],"right_children":[2,4,6,8,10,12,14,-1,-1,-1,-1,-1,-1,-1,-1],"split_conditions":[1.3888889E1,7.2222223E0,1.93E1,5.29E2,2.21E1,2.9605E1,5.3E2,-1.488661E-3,5.690029E-3,-2.831846E-3,5.213682E-2,1.4745702E-2,-4.4073397E-3,3.4524634E-2,3.9967718E-3],"split_indices":[2,2,1,0,5,3,0,0,0,0,0,0,0,0,0],"split_type":[0,0,0,0,0,0,0,0,0,0,0,0,0,0,0],"sum_hessian":[5.74E3,4.924E3,8.16E2,2.911E3,2.013E3,4.04E2,4.12E2,1.945E3,9.66E2,2.001E3,1.2E1,5.1E1,3.53E2,5.2E1,3.6E2],"tree_param":{"num_deleted":"0","num_feature":"6","num_nodes":"15","size_leaf_vector":"1"}},{"base_weights":[5.567242E-5,-5.444049E-4,2.4244E-2,-2.265233E-2,3.121476E-4,1.1396534E-2,1.7270574E-1,-5.0085043E-3,-6.6427715E-2,2.5037942E-2,-1.8212998E-4,5.6631877E-3,-2.3853665E-2,1.0256901E-1,-7.5808526E-3],"categories":[],"categories_nodes":[],"categories_segments":[],"categories_sizes":[],"default_left":[0,0,0,0,0,0,0,0,0,0,0,0,0,0,0],"id":43,"left_children":[1,3,5,7,9,11,13,-1,-1,-1,-1,-1,-1,-1,-1],"loss_changes":[8.334305E-2,1.0610883E-1,2.6315442E-1,2.4379183E-1,4.1240823E-1,8.922953E-2,3.7709132E-1,0E0,0E0,0E0,0E0,0E0,0E0,0E0,0E0],"parents":[2147483647,0,0,1,1,2,2,3,3,4,4,5,5,6,6],"right_children":[2,4,6,8,10,12,14,-1,-1,-1,-1,-1,-1,-1,-1],"split_conditions":[6.78E2,1.4E1,3.72E1,1.37E1,1.45E1,3.41E1,7.3E2,-5.0085043E-3,-6.6427715E-2,2.5037942E-2,-1.8212998E-4,5.6631877E-3,-2.3853665E-2,1.0256901E-1,-7.5808526E-3],"split_indices":[0,5,1,5,5,1,0,0,0,0,0,0,0,0,0],"split_type":[0,0,0,0,0,0,0,0,0,0,0,0,0,0,0],"sum_hessian":[5.74E3,5.602E3,1.38E2,2.08E2,5.394E3,1.28E2,1E1,2.03E2,5E0,5.8E1,5.336E3,1.19E2,9E0,5E0,5E0],"tree_param":{"num_deleted":"0","num_feature":"6","num_nodes":"15","size_leaf_vector":"1"}},{"base_weights":[4.351021E-5,-7.0186323E-3,2.0734705E-3,1.7060321E-3,-8.924296E-2,3.9656546E-2,-1.58266E-4,-2.3724213E-3,2.1714488E-2,2.7513487E-2,-3.13E-2,4.271387E-3,6.371273E-2,-2.4003197E-2,6.069318E-4],"categories":[],"categories_nodes":[],"categories_segments":[],"categories_sizes":[],"default_left":[0,0,0,0,0,0,0,0,0,0,0,0,0,0,0],"id":44,"left_children":[1,3,5,7,9,11,13,-1,-1,-1,-1,-1,-1,-1,-1],"loss_changes":[8.231678E-2,9.19833E-1,3.7409112E-1,7.88772E-1,3.4544134E-1,1.094546E0,7.3366654E-1,0E0,0E0,0E0,0E0,0E0,0E0,0E0,0E0],"parents":[2147483647,0,0,1,1,2,2,3,3,4,4,5,5,6,6],"right_children":[2,4,6,8,10,12,14,-1,-1,-1,-1,-1,-1,-1,-1],"split_conditions":[1.63E1,1.62E1,1.66E1,1.6E1,2.9195E1,3.05E1,1.67E1,-2.3724213E-3,2.1714488E-2,2.7513487E-2,-3.13E-2,4.271387E-3,6.371273E-2,-2.4003197E-2,6.069318E-4],"split_indices":[5,5,5,5,3,1,5,0,0,0,0,0,0,0,0],"split_type":[0,0,0,0,0,0,0,0,0,0,0,0,0,0,0],"sum_hessian":[5.74E3,1.281E3,4.459E3,1.159E3,1.22E2,2.49E2,4.21E3,1.021E3,1.38E2,9E0,1.13E2,2.18E2,3.1E1,1.11E2,4.099E3],"tree_param":{"num_deleted":"0","num_feature":"6","num_nodes":"15","size_leaf_vector":"1"}},{"base_weights":[4.1306008E-5,2.7545474E-3,-5.1377895E-3,7.1411766E-4,1.0899052E-1,-6.50059E-2,6.855753E-4,6.5990525E-6,2.8444832E-2,-5.0749592E-2,3.5851408E-2,8.037711E-2,-2.291219E-2,5.0201323E-3,-5.0041997E-3],"categories":[],"categories_nodes":[],"categories_segments":[],"categories_sizes":[],"default_left":[0,0,0,0,0,0,0,0,0,0,0,0,0,0,0],"id":45,"left_children":[1,3,5,7,9,11,13,-1,-1,-1,-1,-1,-1,-1,-1],"loss_changes":[8.0687456E-2,8.1670034E-1,6.8824774E-1,2.4084844E-1,2.2786093E-1,6.827964E-1,5.0193346E-1,0E0,0E0,0E0,0E0,0E0,0E0,0E0,0E0],"parents":[2147483647,0,0,1,1,2,2,3,3,4,4,5,5,6,6],"right_children":[2,4,6,8,10,12,14,-1,-1,-1,-1,-1,-1,-1,-1],"split_conditions":[2.54E1,1.97E1,2.77E1,2.51E1,5.02E2,-1.7320509E1,-1.9283628E0,6.5990525E-6,2.8444832E-2,-5.0749592E-2,3.5851408E-2,8.037711E-2,-2.291219E-2,5.0201323E-3,-5.0041997E-3],"split_indices":[1,5,1,1,0,4,4,0,0,0,0,0,0,0,0],"split_type":[0,0,0,0,0,0,0,0,0,0,0,0,0,0,0],"sum_hessian":[5.74E3,3.767E3,1.973E3,3.697E3,7E1,1.74E2,1.799E3,3.671E3,2.6E1,2E0,6.8E1,5E0,1.69E2,9.35E2,8.64E2],"tree_param":{"num_deleted":"0","num_feature":"6","num_nodes":"15","size_leaf_vector":"1"}},{"base_weights":[4.1816817E-5,-5.14627E-3,3.7118783E-3,-6.3425135E-3,9.929473E-2,5.3827036E-2,-4.871079E-4,-1.275732E-3,-2.7137259E-2,5.8145743E-2,-1.0661293E-1,4.028151E-2,4.8041786E-3,-1.090438E-3,1.2177504E-2],"categories":[],"categories_nodes":[],"categories_segments":[],"categories_sizes":[],"default_left":[0,0,0,0,0,0,0,0,0,0,0,0,0,0,0],"id":46,"left_children":[1,3,5,7,9,11,13,-1,-1,-1,-1,-1,-1,-1,-1],"loss_changes":[1.09331176E-1,2.9785457E-1,7.0771194E-1,4.1328815E-1,1.2292718E0,7.88734E-1,4.0150428E-1,0E0,0E0,0E0,0E0,0E0,0E0,0E0,0E0],"parents":[2147483647,0,0,1,1,2,2,3,3,4,4,5,5,6,6],"right_children":[2,4,6,8,10,12,14,-1,-1,-1,-1,-1,-1,-1,-1],"split_conditions":[-2.7361612E0,5.74E1,-2.052121E0,5.64E1,-3.7622216E0,1.69E1,2E1,-1.275732E-3,-2.7137259E-2,5.8145743E-2,-1.0661293E-1,4.028151E-2,4.8041786E-3,-1.090438E-3,1.2177504E-2],"split_indices":[4,1,4,1,4,5,5,0,0,0,0,0,0,0,0],"split_type":[0,0,0,0,0,0,0,0,0,0,0,0,0,0,0],"sum_hessian":[5.74E3,2.378E3,3.362E3,2.352E3,2.6E1,2.59E2,3.103E3,2.296E3,5.6E1,2.2E1,4E0,8.2E1,1.77E2,2.883E3,2.2E2],"tree_param":{"num_deleted":"0","num_feature":"6","num_nodes":"15","size_leaf_vector":"1"}},{"base_weights":[2.590901E-5,3.2976293E-3,-4.6057124E-3,3.3821742E-4,6.762256E-2,-5.4449067E-2,-1.6037248E-3,7.7983283E-4,-1.655165E-2,-3.6533486E-2,2.3794593E-2,9.417601E-2,-1.7862234E-2,5.3955596E-3,-2.9663825E-3],"categories":[],"categories_nodes":[],"categories_segments":[],"categories_sizes":[],"default_left":[0,0,0,0,0,0,0,0,0,0,0,0,0,0,0],"id":47,"left_children":[1,3,5,7,9,11,13,-1,-1,-1,-1,-1,-1,-1,-1],"loss_changes":[8.701069E-2,6.405518E-1,3.5558113E-1,4.040715E-1,3.3742213E-1,2.7190092E-1,3.6416936E-1,0E0,0E0,0E0,0E0,0E0,0E0,0E0,0E0],"parents":[2147483647,0,0,1,1,2,2,3,3,4,4,5,5,6,6],"right_children":[2,4,6,8,10,12,14,-1,-1,-1,-1,-1,-1,-1,-1],"split_conditions":[1.81E1,1.8E1,1.82E1,5.27E1,8.333333E-1,-1.1111112E0,2.09E1,7.7983283E-4,-1.655165E-2,-3.6533486E-2,2.3794593E-2,9.417601E-2,-1.7862234E-2,5.3955596E-3,-2.9663825E-3],"split_indices":[5,5,5,1,2,2,1,0,0,0,0,0,0,0,0],"split_type":[0,0,0,0,0,0,0,0,0,0,0,0,0,0,0],"sum_hessian":[5.74E3,3.364E3,2.376E3,3.217E3,1.47E2,1.34E2,2.242E3,3.092E3,1.25E2,8E0,1.39E2,1E0,1.33E2,6.66E2,1.576E3],"tree_param":{"num_deleted":"0","num_feature":"6","num_nodes":"15","size_leaf_vector":"1"}},{"base_weights":[2.6595071E-5,8.724738E-3,-1.8321767E-3,-4.3878034E-3,5.9062757E-2,-4.2896707E-2,6.2382815E-4,-1.836714E-3,5.8119886E-2,-7.7363676E-3,3.488661E-2,4.715753E-2,-2.2128006E-2,5.395666E-5,7.438488E-2],"categories":[],"categories_nodes":[],"categories_segments":[],"categories_sizes":[],"default_left":[0,0,0,0,0,0,0,0,0,0,0,0,0,0,0],"id":48,"left_children":[1,3,5,7,9,11,13,-1,-1,-1,-1,-1,-1,-1,-1],"loss_changes":[9.283569E-2,6.675792E-1,4.7717026E-1,2.7714154E-1,1.0178313E0,1.6604241E0,4.9023867E-1,0E0,0E0,0E0,0E0,0E0,0E0,0E0,0E0],"parents":[2147483647,0,0,1,1,2,2,3,3,4,4,5,5,6,6],"right_children":[2,4,6,8,10,12,14,-1,-1,-1,-1,-1,-1,-1,-1],"split_conditions":[4.96E2,4.9E2,5.03E2,1.0724622E1,-3E0,-1.0284602E1,5.8E1,-1.836714E-3,5.8119886E-2,-7.7363676E-3,3.488661E-2,4.715753E-2,-2.2128006E-2,5.395666E-5,7.438488E-2],"split_indices":[0,0,0,4,4,4,1,0,0,0,0,0,0,0,0],"split_type":[0,0,0,0,0,0,0,0,0,0,0,0,0,0,0],"sum_hessian":[5.74E3,1.01E3,4.73E3,8.02E2,2.08E2,2.66E2,4.464E3,7.96E2,6E0,8.4E1,1.24E2,3.5E1,2.31E2,4.457E3,7E0],"tree_param":{"num_deleted":"0","num_feature":"6","num_nodes":"15","size_leaf_vector":"1"}},{"base_weights":[5.073361E-5,8.650692E-4,-1.732935E-2,3.0165524E-4,3.5415564E-2,-2.3652837E-2,1.1374625E-1,1.4754386E-3,-1.2888468E-3,-3.7079756E-3,5.379115E-2,-2.6900103E-2,-2.5282318E-3,-4.0562153E-3,8.838725E-2],"categories":[],"categories_nodes":[],"categories_segments":[],"categories_sizes":[],"default_left":[0,0,0,0,0,0,0,0,0,0,0,0,0,0,0],"id":49,"left_children":[1,3,5,7,9,11,13,-1,-1,-1,-1,-1,-1,-1,-1],"loss_changes":[8.126863E-2,1.0676159E-1,2.157061E-1,1.1459731E-1,6.071573E-1,2.4649696E-1,2.8022087E-1,0E0,0E0,0E0,0E0,0E0,0E0,0E0,0E0],"parents":[2147483647,0,0,1,1,2,2,3,3,4,4,5,5,6,6],"right_children":[2,4,6,8,10,12,14,-1,-1,-1,-1,-1,-1,-1,-1],"split_conditions":[7.7942286E0,7.5E0,3.0225E1,7.2222223E0,2.94E1,5.22E2,2.19E1,1.4754386E-3,-1.2888468E-3,-3.7079756E-3,5.379115E-2,-2.6900103E-2,-2.5282318E-3,-4.0562153E-3,8.838725E-2],"split_indices":[4,4,3,2,1,0,1,0,0,0,0,0,0,0,0],"split_type":[0,0,0,0,0,0,0,0,0,0,0,0,0,0,0],"sum_hessian":[5.74E3,5.484E3,2.56E2,5.397E3,8.7E1,2.45E2,1.1E1,2.693E3,2.704E3,6.6E1,2.1E1,4.5E1,2E2,7E0,4E0],"tree_param":{"num_deleted":"0","num_feature":"6","num_nodes":"15","size_leaf_vector":"1"}}]},"name":"gbtree"},"learner_model_param":{"base_score":"1.7574007E1","boost_from_average":"1","num_class":"0","num_feature":"6","num_target":"1"},"objective":{"name":"reg:squarederror","reg_loss_param":{"scale_pos_weight":"1"}}},"version":[2,0,3]}