{"learner":{"attributes":{"scikit_learn":"{\"_estimator_type\": \"regressor\"}"},"feature_names":[],"feature_types":[],"gradient_booster":{"model":{"gbtree_model_param":{"num_parallel_tree":"1","num_trees":"50"},"iteration_indptr":[0,1,2,3,4,5,6,7,8,9,10,11,12,13,14,15,16,17,18,19,20,21,22,23,24,25,26,27,28,29,30,31,32,33,34,35,36,37,38,39,40,41,42,43,44,45,46,47,48,49,50],"tree_info":[0,0,0,0,0,0,0,0,0,0,0,0,0,0,0,0,0,0,0,0,0,0,0,0,0,0,0,0,0,0,0,0,0,0,0,0,0,0,0,0,0,0,0,0,0,0,0,0,0,0],"trees":[{"base_weights":[-6.212754E-8,-1.7687438E0,1.1930895E0,-4.8374524E0,-1.3247123E0,5.875859E-1,2.4988973E0,-1.5957733E0,-1.0342252E0,-6.002549E-1,-2.4432324E-1,3.4514096E-2,2.9167733E-1,6.374912E-1,1.071856E0],"categories":[],"categories_nodes":[],"categories_segments":[],"categories_sizes":[],"default_left":[0,0,0,0,0,0,0,0,0,0,0,0,0,0,0],"id":0,"left_children":[1,3,5,7,9,11,13,-1,-1,-1,-1,-1,-1,-1,-1],"loss_changes":[1.2117168E4,3.1452935E3,2.7097427E3,1.772168E2,6.960288E2,4.2596265E2,4.285244E2,0E0,0E0,0E0,0E0,0E0,0E0,0E0,0E0],"parents":[2147483647,0,0,1,1,2,2,3,3,4,4,5,5,6,6],"right_children":[2,4,6,8,10,12,14,-1,-1,-1,-1,-1,-1,-1,-1],"split_conditions":[1.73E1,1.45E1,1.92E1,1.31E1,1.62E1,1.81E1,2.06E1,-1.5957733E0,-1.0342252E0,-6.002549E-1,-2.4432324E-1,3.4514096E-2,2.9167733E-1,6.374912E-1,1.071856E0],"split_indices":[4,4,4,4,4,4,4,0,0,0,0,0,0,0,0],"split_type":[0,0,0,0,0,0,0,0,0,0,0,0,0,0,0],"sum_hessian":[5.74E3,2.312E3,3.428E3,2.91E2,2.021E3,2.343E3,1.085E3,2.14E2,7.7E1,8.68E2,1.153E3,1.052E3,1.291E3,8.07E2,2.78E2],"tree_param":{"num_deleted":"0","num_feature":"5","num_nodes":"15","size_leaf_vector":"1"}},{"base_weights":[-2.5060022E-4,-1.0943614E0,9.5803475E-1,-2.8567896E0,-6.9297874E-1,5.9797454E-1,1.987062E0,-1.1098146E0,-6.40406E-1,-3.3064082E-1,-9.7336546E-2,9.252631E-2,2.8913966E-1,5.3556544E-1,8.585798E-1],"categories":[],"categories_nodes":[],"categories_segments":[],"categories_sizes":[],"default_left":[0,0,0,0,0,0,0,0,0,0,0,0,0,0,0],"id":1,"left_children":[1,3,5,7,9,11,13,-1,-1,-1,-1,-1,-1,-1,-1],"loss_changes":[6.020317E3,1.8945818E3,1.1329482E3,2.9449683E2,3.291057E2,2.4004816E2,1.3492456E2,0E0,0E0,0E0,0E0,0E0,0E0,0E0,0E0],"parents":[2147483647,0,0,1,1,2,2,3,3,4,4,5,5,6,6],"right_children":[2,4,6,8,10,12,14,-1,-1,-1,-1,-1,-1,-1,-1],"split_conditions":[1.76E1,1.52E1,1.96E1,1.28E1,1.66E1,1.85E1,2.12E1,-1.1098146E0,-6.40406E-1,-3.3064082E-1,-9.7336546E-2,9.252631E-2,2.8913966E-1,5.3556544E-1,8.585798E-1],"split_indices":[4,4,4,0,4,4,4,0,0,0,0,0,0,0,0],"split_type":[0,0,0,0,0,0,0,0,0,0,0,0,0,0,0],"sum_hessian":[5.74E3,2.68E3,3.06E3,4.96E2,2.184E3,2.268E3,7.92E2,2.27E2,2.69E2,1.034E3,1.15E3,1.267E3,1.001E3,6.46E2,1.46E2],"tree_param":{"num_deleted":"0","num_feature":"5","num_nodes":"15","size_leaf_vector":"1"}},{"base_weights":[-2.4544116E-4,-1.0068684E0,5.250768E-1,-2.1963725E0,-7.1449506E-1,1.7306405E-1,1.1582057E0,-8.479437E-1,-5.253684E-1,-3.387193E-1,-1.649157E-1,-1.737739E-2,1.08375005E-1,2.645581E-1,4.9162433E-1],"categories":[],"categories_nodes":[],"categories_segments":[],"categories_sizes":[],"default_left":[0,0,0,0,0,0,0,0,0,0,0,0,0,0,0],"id":2,"left_children":[1,3,5,7,9,11,13,-1,-1,-1,-1,-1,-1,-1,-1],"loss_changes":[3.0363774E3,6.8320825E2,8.406859E2,1.0387964E2,1.0744751E2,1.05476295E2,1.7756323E2,0E0,0E0,0E0,0E0,0E0,0E0,0E0,0E0],"parents":[2147483647,0,0,1,1,2,2,3,3,4,4,5,5,6,6],"right_children":[2,4,6,8,10,12,14,-1,-1,-1,-1,-1,-1,-1,-1],"split_conditions":[1.7E1,1.49E1,1.89E1,1.26E1,1.58E1,1.79E1,2.01E1,-8.479437E-1,-5.253684E-1,-3.387193E-1,-1.649157E-1,-1.737739E-2,1.08375005E-1,2.645581E-1,4.9162433E-1],"split_indices":[4,4,4,4,4,4,4,0,0,0,0,0,0,0,0],"split_type":[0,0,0,0,0,0,0,0,0,0,0,0,0,0,0],"sum_hessian":[5.74E3,1.968E3,3.772E3,3.87E2,1.581E3,2.425E3,1.347E3,1.58E2,2.29E2,4.48E2,1.133E3,1.089E3,1.336E3,8.57E2,4.9E2],"tree_param":{"num_deleted":"0","num_feature":"5","num_nodes":"15","size_leaf_vector":"1"}},{"base_weights":[-3.515354E-4,-7.726605E-1,3.3932507E-1,-1.8050597E0,-6.01452E-1,1.4274639E-1,9.6092284E-1,-6.2133205E-1,-4.560494E-1,-2.9582492E-1,-1.4081857E-1,-1.6331531E-2,1.2181676E-1,2.469975E-1,4.4852892E-1],"categories":[],"categories_nodes":[],"categories_segments":[],"categories_sizes":[],"default_left":[0,0,0,0,0,0,0,0,0,0,0,0,0,0,0],"id":3,"left_children":[1,3,5,7,9,11,13,-1,-1,-1,-1,-1,-1,-1,-1],"loss_changes":[1.5063291E3,3.0894348E2,4.8716806E2,1.572467E1,7.603162E1,1.5739355E2,6.9183105E1,0E0,0E0,0E0,0E0,0E0,0E0,0E0,0E0],"parents":[2147483647,0,0,1,1,2,2,3,3,4,4,5,5,6,6],"right_children":[2,4,6,8,10,12,14,-1,-1,-1,-1,-1,-1,-1,-1],"split_conditions":[1.68E1,1.33E1,4.33E1,1.23E1,1.55E1,1.83E1,2.08E1,-6.2133205E-1,-4.560494E-1,-2.9582492E-1,-1.4081857E-1,-1.6331531E-2,1.2181676E-1,2.469975E-1,4.4852892E-1],"split_indices":[4,0,0,4,4,4,4,0,0,0,0,0,0,0,0],"split_type":[0,0,0,0,0,0,0,0,0,0,0,0,0,0,0],"sum_hessian":[5.74E3,1.753E3,3.987E3,2.48E2,1.505E3,3.03E3,9.57E2,1.25E2,1.23E2,3.83E2,1.122E3,1.733E3,1.297E3,7.63E2,1.94E2],"tree_param":{"num_deleted":"0","num_feature":"5","num_nodes":"15","size_leaf_vector":"1"}},{"base_weights":[-3.707112E-4,-3.8206095E-1,3.586169E-1,-9.4778043E-1,-2.3138884E-1,2.1656689E-1,7.759668E-1,-4.084219E-1,-2.2314331E-1,-9.145822E-2,4.0860202E-2,3.0819854E-2,1.1769428E-1,2.1705931E-1,5.2223665E-1],"categories":[],"categories_nodes":[],"categories_segments":[],"categories_sizes":[],"default_left":[0,0,0,0,0,0,0,0,0,0,0,0,0,0,0],"id":4,"left_children":[1,3,5,7,9,11,13,-1,-1,-1,-1,-1,-1,-1,-1],"loss_changes":[7.867807E2,2.3699841E2,1.7525491E2,4.8342102E1,5.9430992E1,4.4153023E1,3.6734528E1,0E0,0E0,0E0,0E0,0E0,0E0,0E0,0E0],"parents":[2147483647,0,0,1,1,2,2,3,3,4,4,5,5,6,6],"right_children":[2,4,6,8,10,12,14,-1,-1,-1,-1,-1,-1,-1,-1],"split_conditions":[1.77E1,1.54E1,5.09E1,1.29E1,3.01E1,1.88E1,2.18E1,-4.084219E-1,-2.2314331E-1,-9.145822E-2,4.0860202E-2,3.0819854E-2,1.1769428E-1,2.1705931E-1,5.2223665E-1],"split_indices":[4,4,0,4,0,4,4,0,0,0,0,0,0,0,0],"split_type":[0,0,0,0,0,0,0,0,0,0,0,0,0,0,0],"sum_hessian":[5.74E3,2.782E3,2.958E3,5.84E2,2.198E3,2.208E3,7.5E2,1.91E2,3.93E2,1.832E3,3.66E2,1.341E3,8.67E2,7.13E2,3.7E1],"tree_param":{"num_deleted":"0","num_feature":"5","num_nodes":"15","size_leaf_vector":"1"}},{"base_weights":[-2.239613E-4,-3.5633877E-1,2.0052709E-1,-8.319237E-1,-2.6533788E-1,1.1143692E-1,6.176717E-1,-3.5525367E-1,-2.1788983E-1,-9.630557E-2,5.0151292E-2,1.4523846E-2,7.6784626E-2,1.7749844E-1,5.515978E-1],"categories":[],"categories_nodes":[],"categories_segments":[],"categories_sizes":[],"default_left":[0,0,0,0,0,0,0,0,0,0,0,0,0,0,0],"id":5,"left_children":[1,3,5,7,9,11,13,-1,-1,-1,-1,-1,-1,-1,-1],"loss_changes":[4.10498E2,8.936606E1,1.3639551E2,1.1492554E1,4.1932922E1,2.7556702E1,1.9427933E1,0E0,0E0,0E0,0E0,0E0,0E0,0E0,0E0],"parents":[2147483647,0,0,1,1,2,2,3,3,4,4,5,5,6,6],"right_children":[2,4,6,8,10,12,14,-1,-1,-1,-1,-1,-1,-1,-1],"split_conditions":[1.71E1,1.47E1,1.98E1,1.21E1,3.72E1,1.87E1,2.25E1,-3.5525367E-1,-2.1788983E-1,-9.630557E-2,5.0151292E-2,1.4523846E-2,7.6784626E-2,1.7749844E-1,5.515978E-1],"split_indices":[4,4,4,4,0,4,4,0,0,0,0,0,0,0,0],"split_type":[0,0,0,0,0,0,0,0,0,0,0,0,0,0,0],"sum_hessian":[5.74E3,2.069E3,3.671E3,3.31E2,1.738E3,3.026E3,6.45E2,7.4E1,2.57E2,1.54E3,1.98E2,2.108E3,9.18E2,6.33E2,1.2E1],"tree_param":{"num_deleted":"0","num_feature":"5","num_nodes":"15","size_leaf_vector":"1"}},{"base_weights":[-1.21772966E-4,-3.50006E-1,1.0815486E-1,-6.6017354E-1,-2.8344655E-1,3.473613E-2,3.892586E-1,-3.3870533E-1,-1.836604E-1,-9.912082E-2,-7.958175E-3,-3.1536434E-2,3.239652E-2,8.199328E-2,1.653323E-1],"categories":[],"categories_nodes":[],"categories_segments":[],"categories_sizes":[],"default_left":[0,0,0,0,0,0,0,0,0,0,0,0,0,0,0],"id":6,"left_children":[1,3,5,7,9,11,13,-1,-1,-1,-1,-1,-1,-1,-1],"loss_changes":[2.1753154E2,2.782759E1,9.048532E1,4.6842804E0,1.3490776E1,3.564306E1,1.6888931E1,0E0,0E0,0E0,0E0,0E0,0E0,0E0,0E0],"parents":[2147483647,0,0,1,1,2,2,3,3,4,4,5,5,6,6],"right_children":[2,4,6,8,10,12,14,-1,-1,-1,-1,-1,-1,-1,-1],"split_conditions":[1.64E1,1.41E1,4.88E1,1.17E1,2.91E1,7.2222223E0,1.99E1,-3.3870533E-1,-1.836604E-1,-9.912082E-2,-7.958175E-3,-3.1536434E-2,3.239652E-2,8.199328E-2,1.653323E-1],"split_indices":[4,4,0,4,0,1,4,0,0,0,0,0,0,0,0],"split_type":[0,0,0,0,0,0,0,0,0,0,0,0,0,0,0],"sum_hessian":[5.74E3,1.356E3,4.384E3,2.38E2,1.118E3,3.477E3,9.07E2,2E1,2.18E2,9.45E2,1.73E2,1.195E3,2.282E3,5.3E2,3.77E2],"tree_param":{"num_deleted":"0","num_feature":"5","num_nodes":"15","size_leaf_vector":"1"}},{"base_weights":[-1.5161728E-4,-1.4187928E-1,1.4286543E-1,-3.4952497E-1,-7.666536E-2,8.891394E-2,3.4447685E-1,-1.7338747E-1,-9.2654005E-2,-3.422695E-2,1.226922E-2,1.5812287E-2,6.2280264E-2,9.10592E-2,2.2654267E-1],"categories":[],"categories_nodes":[],"categories_segments":[],"categories_sizes":[],"default_left":[0,0,0,0,0,0,0,0,0,0,0,0,0,0,0],"id":7,"left_children":[1,3,5,7,9,11,13,-1,-1,-1,-1,-1,-1,-1,-1],"loss_changes":[1.1638731E2,3.902656E1,3.1056519E1,6.223877E0,9.666458E0,9.6835785E0,9.910339E0,0E0,0E0,0E0,0E0,0E0,0E0,0E0,0E0],"parents":[2147483647,0,0,1,1,2,2,3,3,4,4,5,5,6,6],"right_children":[2,4,6,8,10,12,14,-1,-1,-1,-1,-1,-1,-1,-1],"split_conditions":[1.78E1,1.56E1,1.99E1,1.22E1,2.49E1,3.51E1,2.17E1,-1.7338747E-1,-9.2654005E-2,-3.422695E-2,1.226922E-2,1.5812287E-2,6.2280264E-2,9.10592E-2,2.2654267E-1],"split_indices":[4,4,4,4,0,0,4,0,0,0,0,0,0,0,0],"split_type":[0,0,0,0,0,0,0,0,0,0,0,0,0,0,0],"sum_hessian":[5.74E3,2.883E3,2.857E3,6.88E2,2.195E3,2.255E3,6.02E2,1.02E2,5.86E2,1.665E3,5.3E2,1.729E3,5.26E2,5.49E2,5.3E1],"tree_param":{"num_deleted":"0","num_feature":"5","num_nodes":"15","size_leaf_vector":"1"}},{"base_weights":[-8.718155E-5,-1.6075969E-1,6.426022E-2,-1.7918934E-1,1.9203843E-1,3.0742881E-3,1.6347022E-1,-7.172633E-2,-2.9117012E-2,7.981855E-2,-6.639638E-2,-8.96447E-3,2.1898586E-2,3.703353E-2,1.0078441E-1],"categories":[],"categories_nodes":[],"categories_segments":[],"categories_sizes":[],"default_left":[0,0,0,0,0,0,0,0,0,0,0,0,0,0,0],"id":8,"left_children":[1,3,5,7,9,11,13,-1,-1,-1,-1,-1,-1,-1,-1],"loss_changes":[5.9365723E1,1.0710609E1,2.488755E1,7.656315E0,2.5679445E0,5.8482056E0,1.075552E1,0E0,0E0,0E0,0E0,0E0,0E0,0E0,0E0],"parents":[2147483647,0,0,1,1,2,2,3,3,4,4,5,5,6,6],"right_children":[2,4,6,8,10,12,14,-1,-1,-1,-1,-1,-1,-1,-1],"split_conditions":[1.67E1,4.33E1,1.87E1,1.59E1,6.6666665E0,1.1666667E1,5.47E1,-7.172633E-2,-2.9117012E-2,7.981855E-2,-6.639638E-2,-8.96447E-3,2.1898586E-2,3.703353E-2,1.0078441E-1],"split_indices":[4,0,4,4,1,1,0,0,0,0,0,0,0,0,0],"split_type":[0,0,0,0,0,0,0,0,0,0,0,0,0,0,0],"sum_hessian":[5.74E3,1.641E3,4.099E3,1.56E3,8.1E1,2.536E3,1.563E3,9.01E2,6.59E2,6.9E1,1.2E1,1.724E3,8.12E2,1.27E3,2.93E2],"tree_param":{"num_deleted":"0","num_feature":"5","num_nodes":"15","size_leaf_vector":"1"}},{"base_weights":[-4.9719973E-5,-5.1973302E-2,1.0068684E-1,-1.5202928E-1,-1.50118945E-2,8.635701E-2,4.1849735E-1,-5.821459E-2,-1.0460529E-2,-1.0260005E-2,2.1885304E-2,1.0563377E-2,5.051074E-2,1.0180942E-1,2.9104277E-1],"categories":[],"categories_nodes":[],"categories_segments":[],"categories_sizes":[],"default_left":[0,0,0,0,0,0,0,0,0,0,0,0,0,0,0],"id":9,"left_children":[1,3,5,7,9,11,13,-1,-1,-1,-1,-1,-1,-1,-1],"loss_changes":[3.0034126E1,1.4010233E1,8.8581505E0,5.0245647E0,4.6744432E0,7.837921E0,3.3376331E0,0E0,0E0,0E0,0E0,0E0,0E0,0E0,0E0],"parents":[2147483647,0,0,1,1,2,2,3,3,4,4,5,5,6,6],"right_children":[2,4,6,8,10,12,14,-1,-1,-1,-1,-1,-1,-1,-1],"split_conditions":[1.84E1,1.6E1,2.15E1,1.87E1,2.94E1,1.0555555E1,2.26E1,-5.821459E-2,-1.0460529E-2,-1.0260005E-2,2.1885304E-2,1.0563377E-2,5.051074E-2,1.0180942E-1,2.9104277E-1],"split_indices":[4,4,4,0,0,1,4,0,0,0,0,0,0,0,0],"split_type":[0,0,0,0,0,0,0,0,0,0,0,0,0,0,0],"sum_hessian":[5.74E3,3.788E3,1.952E3,1.021E3,2.767E3,1.869E3,8.3E1,7.51E2,2.7E2,2.272E3,4.95E2,1.152E3,7.17E2,7.4E1,9E0],"tree_param":{"num_deleted":"0","num_feature":"5","num_nodes":"15","size_leaf_vector":"1"}},{"base_weights":[3.4314337E-5,-2.4441918E-2,1.345428E-1,-7.241498E-2,5.5045683E-2,1.1369762E-1,3.3434147E-1,-7.851379E-2,-1.909022E-2,1.0439126E-2,6.2797464E-2,1.7523142E-2,6.3174576E-2,5.352967E-2,1.5987995E-1],"categories":[],"categories_nodes":[],"categories_segments":[],"categories_sizes":[],"default_left":[0,0,0,0,0,0,0,0,0,0,0,0,0,0,0],"id":10,"left_children":[1,3,5,7,9,11,13,-1,-1,-1,-1,-1,-1,-1,-1],"loss_changes":[1.8904156E1,1.8528822E1,3.6437054E0,5.0198307E0,5.706397E0,4.283577E0,2.4747772E0,0E0,0E0,0E0,0E0,0E0,0E0,0E0,0E0],"parents":[2147483647,0,0,1,1,2,2,3,3,4,4,5,5,6,6],"right_children":[2,4,6,8,10,12,14,-1,-1,-1,-1,-1,-1,-1,-1],"split_conditions":[5.09E1,1E1,1.0555555E1,1.24E1,1.94E1,5.55E1,2.983E1,-7.851379E-2,-1.909022E-2,1.0439126E-2,6.2797464E-2,1.7523142E-2,6.3174576E-2,5.352967E-2,1.5987995E-1],"split_indices":[0,1,1,4,4,0,2,0,0,0,0,0,0,0,0],"split_type":[0,0,0,0,0,0,0,0,0,0,0,0,0,0,0],"sum_hessian":[5.74E3,4.857E3,8.83E2,3.029E3,1.828E3,8.01E2,8.2E1,1.33E2,2.896E3,1.617E3,2.11E2,5.11E2,2.9E2,4.7E1,3.5E1],"tree_param":{"num_deleted":"0","num_feature":"5","num_nodes":"15","size_leaf_vector":"1"}},{"base_weights":[7.128354E-5,-2.328142E-2,7.784313E-2,-8.8922575E-2,1.6709577E-2,-1.00288205E-4,1.12977475E-1,-6.7818716E-2,-2.2784611E-2,1.8282996E-3,3.8705204E-2,-1.751985E-2,3.457218E-2,3.0811053E-2,1.6349256E-1],"categories":[],"categories_nodes":[],"categories_segments":[],"categories_sizes":[],"default_left":[0,0,0,0,0,0,0,0,0,0,0,0,0,0,0],"id":11,"left_children":[1,3,5,7,9,11,13,-1,-1,-1,-1,-1,-1,-1,-1],"loss_changes":[1.0428518E1,1.159373E1,3.6312494E0,2.9577103E0,3.2717328E0,2.7838588E0,4.0006647E0,0E0,0E0,0E0,0E0,0E0,0E0,0E0,0E0],"parents":[2147483647,0,0,1,1,2,2,3,3,4,4,5,5,6,6],"right_children":[2,4,6,8,10,12,14,-1,-1,-1,-1,-1,-1,-1,-1],"split_conditions":[3.51E1,5.5555553E0,2.9405E1,-5.555556E-1,1.94E1,5.54E1,2.22E1,-6.7818716E-2,-2.2784611E-2,1.8282996E-3,3.8705204E-2,-1.751985E-2,3.457218E-2,3.0811053E-2,1.6349256E-1],"split_indices":[0,1,2,1,4,0,4,0,0,0,0,0,0,0,0],"split_type":[0,0,0,0,0,0,0,0,0,0,0,0,0,0,0],"sum_hessian":[5.74E3,4.415E3,1.325E3,1.671E3,2.744E3,4.12E2,9.13E2,1.43E2,1.528E3,2.508E3,2.36E2,2.74E2,1.38E2,8.93E2,2E1],"tree_param":{"num_deleted":"0","num_feature":"5","num_nodes":"15","size_leaf_vector":"1"}},{"base_weights":[7.7631514E-5,-8.3179355E-2,1.3711918E-2,-3.489553E-1,-7.24824E-2,4.3343166E-3,1.0714487E-1,-1.2940209E-1,-6.96966E-2,-2.9638657E-2,-7.909357E-3,-4.1494737E-3,1.6256506E-2,-8.843359E-3,4.357969E-2],"categories":[],"categories_nodes":[],"categories_segments":[],"categories_sizes":[],"default_left":[0,0,0,0,0,0,0,0,0,0,0,0,0,0,0],"id":12,"left_children":[1,3,5,7,9,11,13,-1,-1,-1,-1,-1,-1,-1,-1],"loss_changes":[6.5180345E0,2.2718458E0,4.322593E0,1.9766402E-1,9.415021E-1,4.062559E0,2.3479552E0,0E0,0E0,0E0,0E0,0E0,0E0,0E0,0E0],"parents":[2147483647,0,0,1,1,2,2,3,3,4,4,5,5,6,6],"right_children":[2,4,6,8,10,12,14,-1,-1,-1,-1,-1,-1,-1,-1],"split_conditions":[1.66E1,1.19E1,2.02E1,1.16E1,1.57E1,1.1666667E1,2.9375E1,-1.2940209E-1,-6.96966E-2,-2.9638657E-2,-7.909357E-3,-4.1494737E-3,1.6256506E-2,-8.843359E-3,4.357969E-2],"split_indices":[0,4,4,4,4,1,2,0,0,0,0,0,0,0,0],"split_type":[0,0,0,0,0,0,0,0,0,0,0,0,0,0,0],"sum_hessian":[5.74E3,8.07E2,4.933E3,3E1,7.77E2,4.484E3,4.49E2,1.6E1,1.4E1,4.94E2,2.83E2,3.287E3,1.197E3,9.8E1,3.51E2],"tree_param":{"num_deleted":"0","num_feature":"5","num_nodes":"15","size_leaf_vector":"1"}},{"base_weights":[2.1778693E-5,-7.92209E-3,1.02255866E-1,-6.297768E-2,4.766296E-3,8.715961E-2,3.4393826E-1,-2.1954883E-2,1.853737E-2,-1.1243976E-2,6.2685446E-3,2.7964855E-2,-1.1971527E-1,1.4545234E-1,1.6568692E-2],"categories":[],"categories_nodes":[],"categories_segments":[],"categories_sizes":[],"default_left":[0,0,0,0,0,0,0,0,0,0,0,0,0,0,0],"id":13,"left_children":[1,3,5,7,9,11,13,-1,-1,-1,-1,-1,-1,-1,-1],"loss_changes":[4.663272E0,3.7222629E0,1.4805007E0,1.275275E0,2.9518526E0,1.1886022E0,9.495418E-1,0E0,0E0,0E0,0E0,0E0,0E0,0E0,0E0],"parents":[2147483647,0,0,1,1,2,2,3,3,4,4,5,5,6,6],"right_children":[2,4,6,8,10,12,14,-1,-1,-1,-1,-1,-1,-1,-1],"split_conditions":[5.47E1,2.5E0,1.0555555E1,3.0255E1,1.67E1,9.444445E0,5.63E1,-2.1954883E-2,1.853737E-2,-1.1243976E-2,6.2685446E-3,2.7964855E-2,-1.1971527E-1,1.4545234E-1,1.6568692E-2],"split_indices":[0,1,1,2,4,1,0,0,0,0,0,0,0,0,0],"split_type":[0,0,0,0,0,0,0,0,0,0,0,0,0,0,0],"sum_hessian":[5.74E3,5.327E3,4.13E2,9.97E2,4.33E3,3.9E2,2.3E1,9.22E2,7.5E1,1.196E3,3.134E3,3.86E2,4E0,1.5E1,8E0],"tree_param":{"num_deleted":"0","num_feature":"5","num_nodes":"15","size_leaf_vector":"1"}},{"base_weights":[2.5495381E-5,-1.272543E-2,3.8048346E-2,-4.729804E-2,2.2552828E-3,5.0369777E-2,-7.510817E-2,-1.25541035E-2,-6.967159E-2,-7.932084E-3,4.817076E-3,-1.4815886E-3,2.250547E-2,3.958045E-2,-3.6142733E-2],"categories":[],"categories_nodes":[],"categories_segments":[],"categories_sizes":[],"default_left":[0,0,0,0,0,0,0,0,0,0,0,0,0,0,0],"id":14,"left_children":[1,3,5,7,9,11,13,-1,-1,-1,-1,-1,-1,-1,-1],"loss_changes":[2.7838733E0,2.2271729E0,2.0142915E0,1.3008332E0,1.1889576E0,1.7739799E0,1.3497074E0,0E0,0E0,0E0,0E0,0E0,0E0,0E0,0E0],"parents":[2147483647,0,0,1,1,2,2,3,3,4,4,5,5,6,6],"right_children":[2,4,6,8,10,12,14,-1,-1,-1,-1,-1,-1,-1,-1],"split_conditions":[3.27E1,4.4444447E0,5.362311E0,3.09E1,-5E0,2.939E1,3.66E1,-1.25541035E-2,-6.967159E-2,-7.932084E-3,4.817076E-3,-1.4815886E-3,2.250547E-2,3.958045E-2,-3.6142733E-2],"split_indices":[0,1,3,0,3,2,0,0,0,0,0,0,0,0,0],"split_type":[0,0,0,0,0,0,0,0,0,0,0,0,0,0,0],"sum_hessian":[5.74E3,4.299E3,1.441E3,1.299E3,3E3,1.3E3,1.41E2,1.263E3,3.6E1,9.74E2,2.026E3,4.01E2,8.99E2,2.5E1,1.16E2],"tree_param":{"num_deleted":"0","num_feature":"5","num_nodes":"15","size_leaf_vector":"1"}},{"base_weights":[7.187857E-6,-3.7515843E-3,8.848287E-2,-1.1932586E-2,4.3236192E-2,4.4537926E-1,6.5473676E-2,-4.036816E-2,-2.8189071E-3,5.652679E-3,3.9210543E-2,-6.1668206E-2,1.5337917E-1,-1.3468447E-1,2.1666477E-2],"categories":[],"categories_nodes":[],"categories_segments":[],"categories_sizes":[],"default_left":[0,0,0,0,0,0,0,0,0,0,0,0,0,0,0],"id":15,"left_children":[1,3,5,7,9,11,13,-1,-1,-1,-1,-1,-1,-1,-1],"loss_changes":[1.9095584E0,2.1178303E0,1.8924236E0,1.4580073E0,1.7407128E0,7.0551324E-1,7.995748E-1,0E0,0E0,0E0,0E0,0E0,0E0,0E0,0E0],"parents":[2147483647,0,0,1,1,2,2,3,3,4,4,5,5,6,6],"right_children":[2,4,6,8,10,12,14,-1,-1,-1,-1,-1,-1,-1,-1],"split_conditions":[5.59E1,1.3888889E1,2.9015E1,1.14E1,2.41E1,-1E1,2.9045E1,-4.036816E-2,-2.8189071E-3,5.652679E-3,3.9210543E-2,-6.1668206E-2,1.5337917E-1,-1.3468447E-1,2.1666477E-2],"split_indices":[0,1,2,0,0,3,2,0,0,0,0,0,0,0,0],"split_type":[0,0,0,0,0,0,0,0,0,0,0,0,0,0,0],"sum_hessian":[5.74E3,5.507E3,2.33E2,4.691E3,8.16E2,1.3E1,2.2E2,9.4E1,4.597E3,6.39E2,1.77E2,1E0,1.2E1,2E0,2.18E2],"tree_param":{"num_deleted":"0","num_feature":"5","num_nodes":"15","size_leaf_vector":"1"}},{"base_weights":[1.6684733E-6,-5.6966785E-2,4.41675E-3,-8.929293E-2,1.252519E-2,-5.278463E-3,3.0088456E-2,-3.309384E-2,1.2190504E-2,7.480428E-2,-1.87895E-2,-2.745154E-3,1.6638614E-2,3.191961E-3,2.7060656E-2],"categories":[],"categories_nodes":[],"categories_segments":[],"categories_sizes":[],"default_left":[0,0,0,0,0,0,0,0,0,0,0,0,0,0,0],"id":16,"left_children":[1,3,5,7,9,11,13,-1,-1,-1,-1,-1,-1,-1,-1],"loss_changes":[1.44423E0,9.288851E-1,1.3265077E0,7.746432E-1,2.365062E0,9.1045874E-1,1.7071345E0,0E0,0E0,0E0,0E0,0E0,0E0,0E0,0E0],"parents":[2147483647,0,0,1,1,2,2,3,3,4,4,5,5,6,6],"right_children":[2,4,6,8,10,12,14,-1,-1,-1,-1,-1,-1,-1,-1],"split_conditions":[5.555556E-1,4.44E1,2.9955E1,3.0225E1,5.18E1,5.54E1,2.94E1,-3.309384E-2,1.2190504E-2,7.480428E-2,-1.87895E-2,-2.745154E-3,1.6638614E-2,3.191961E-3,2.7060656E-2],"split_indices":[1,0,2,2,0,0,0,0,0,0,0,0,0,0,0],"split_type":[0,0,0,0,0,0,0,0,0,0,0,0,0,0,0],"sum_hessian":[5.74E3,4.12E2,5.328E3,2.81E2,1.31E2,3.868E3,1.46E3,2.42E2,3.9E1,3.1E1,1E2,3.637E3,2.31E2,1.104E3,3.56E2],"tree_param":{"num_deleted":"0","num_feature":"5","num_nodes":"15","size_leaf_vector":"1"}},{"base_weights":[1.4646982E-5,-4.4403665E-4,1.3155413E-1,-4.8928812E-2,3.1899065E-3,-7.618293E-2,-1.2580103E-2,-1.0361803E-2,2.2701568E-3],"categories":[],"categories_nodes":[],"categories_segments":[],"categories_sizes":[],"default_left":[0,0,0,0,0,0,0,0,0],"id":17,"left_children":[1,3,-1,5,7,-1,-1,-1,-1],"loss_changes":[1.1548957E0,1.0107872E0,0E0,5.629926E-1,8.816754E-1,0E0,0E0,0E0,0E0],"parents":[2147483647,0,0,1,1,3,3,4,4],"right_children":[2,4,-1,6,8,-1,-1,-1,-1],"split_conditions":[2.3E1,1.53E1,1.3155413E-1,1.15E1,2.9165E1,-7.618293E-2,-1.2580103E-2,-1.0361803E-2,2.2701568E-3],"split_indices":[4,0,0,4,2,0,0,0,0],"split_type":[0,0,0,0,0,0,0,0,0],"sum_hessian":[5.74E3,5.735E3,5E0,3.99E2,5.336E3,1.2E1,3.87E2,5.54E2,4.782E3],"tree_param":{"num_deleted":"0","num_feature":"5","num_nodes":"9","size_leaf_vector":"1"}},{"base_weights":[1.6686892E-5,-3.1281497E-2,4.7694873E-3,1.9535746E-2,-4.77513E-2,-9.371082E-4,5.263787E-2,1.427433E-1,-3.5589999E-3,-1.8088927E-2,2.5856618E-3,-8.695173E-4,2.5351722E-2,-2.2991192E-2,1.9870613E-2],"categories":[],"categories_nodes":[],"categories_segments":[],"categories_sizes":[],"default_left":[0,0,0,0,0,0,0,0,0,0,0,0,0,0,0],"id":18,"left_children":[1,3,5,7,9,11,13,-1,-1,-1,-1,-1,-1,-1,-1],"loss_changes":[8.5414594E-1,6.3450396E-1,1.3617793E0,2.6703966E0,4.050212E-1,7.4680305E-1,9.384781E-1,0E0,0E0,0E0,0E0,0E0,0E0,0E0,0E0],"parents":[2147483647,0,0,1,1,2,2,3,3,4,4,5,5,6,6],"right_children":[2,4,6,8,10,12,14,-1,-1,-1,-1,-1,-1,-1,-1],"split_conditions":[1.6666666E0,1.61E1,1.98E1,-4.301823E0,5.5E1,5.59E1,2.9165E1,1.427433E-1,-3.5589999E-3,-1.8088927E-2,2.5856618E-3,-8.695173E-4,2.5351722E-2,-2.2991192E-2,1.9870613E-2],"split_indices":[1,4,4,3,0,0,2,0,0,0,0,0,0,0,0],"split_type":[0,0,0,0,0,0,0,0,0,0,0,0,0,0,0],"sum_hessian":[5.74E3,7.56E2,4.984E3,1.85E2,5.71E2,4.454E3,5.3E2,1.1E1,1.74E2,4.67E2,1.04E2,4.355E3,9.9E1,5E1,4.8E2],"tree_param":{"num_deleted":"0","num_feature":"5","num_nodes":"15","size_leaf_vector":"1"}},{"base_weights":[3.7117883E-5,-4.2543365E-3,2.590661E-2,-5.1248805E-3,1.4289422E-1,-4.974876E-3,5.612718E-2,-8.6428394E-4,-1.5913138E-2,-2.2762872E-1,6.0658474E-2,-3.8895274E-3,9.282102E-3,-2.1550696E-2,1.9579215E-2],"categories":[],"categories_nodes":[],"categories_segments":[],"categories_sizes":[],"default_left":[0,0,0,0,0,0,0,0,0,0,0,0,0,0,0],"id":19,"left_children":[1,3,5,7,9,11,13,-1,-1,-1,-1,-1,-1,-1,-1],"loss_changes":[6.3746303E-1,6.3162124E-1,7.6274943E-1,5.264062E-1,1.7040143E0,1.1662409E-1,4.8755956E-1,0E0,0E0,0E0,0E0,0E0,0E0,0E0,0E0],"parents":[2147483647,0,0,1,1,2,2,3,3,4,4,5,5,6,6],"right_children":[2,4,6,8,10,12,14,-1,-1,-1,-1,-1,-1,-1,-1],"split_conditions":[1.3888889E1,2.21E1,1.93E1,7.7942286E0,2.899E1,1.87E1,2.9485E1,-8.6428394E-4,-1.5913138E-2,-2.2762872E-1,6.0658474E-2,-3.8895274E-3,9.282102E-3,-2.1550696E-2,1.9579215E-2],"split_indices":[1,4,0,3,2,4,2,0,0,0,0,0,0,0,0],"split_type":[0,0,0,0,0,0,0,0,0,0,0,0,0,0,0],"sum_hessian":[5.74E3,4.924E3,8.16E2,4.896E3,2.8E1,4.04E2,4.12E2,4.678E3,2.18E2,1E0,2.7E1,3.31E2,7.3E1,2.7E1,3.85E2],"tree_param":{"num_deleted":"0","num_feature":"5","num_nodes":"15","size_leaf_vector":"1"}},{"base_weights":[-5.6374924E-6,-1.23794585E-1,6.663049E-4,-6.986709E-2,-9.3857326E-2,7.752742E-2,-3.0121958E-4,-3.0526973E-2,1.8672945E-4,1.124872E-2,1.3145249E-1,-8.471186E-3,8.533412E-4],"categories":[],"categories_nodes":[],"categories_segments":[],"categories_sizes":[],"default_left":[0,0,0,0,0,0,0,0,0,0,0,0,0],"id":20,"left_children":[1,3,5,-1,7,9,11,-1,-1,-1,-1,-1,-1],"loss_changes":[4.7761336E-1,7.938841E-2,4.2472196E-1,0E0,1.9467622E-2,1.0086207E0,4.9580133E-1,0E0,0E0,0E0,0E0,0E0,0E0],"parents":[2147483647,0,0,1,1,2,2,4,4,5,5,6,6],"right_children":[2,4,6,-1,8,10,12,-1,-1,-1,-1,-1,-1],"split_conditions":[1.19E1,-4E0,2.889E1,-6.986709E-2,2.9725E1,5.63E1,2.9165E1,-3.0526973E-2,1.8672945E-4,1.124872E-2,1.3145249E-1,-8.471186E-3,8.533412E-4],"split_indices":[4,3,2,0,2,0,2,0,0,0,0,0,0],"split_type":[0,0,0,0,0,0,0,0,0,0,0,0,0],"sum_hessian":[5.74E3,3E1,5.71E3,5E0,2.5E1,7E1,5.64E3,2.3E1,2E0,6.4E1,6E0,5.7E2,5.07E3],"tree_param":{"num_deleted":"0","num_feature":"5","num_nodes":"13","size_leaf_vector":"1"}},{"base_weights":[2.6179946E-6,-2.4849025E-4,2.881237E-1,-2.089387E-2,2.889193E-3,2.4491215E-2,9.580079E-2,-1.5695655E-3,-2.3116639E-2,1.492133E-4,1.3098273E-2],"categories":[],"categories_nodes":[],"categories_segments":[],"categories_sizes":[],"default_left":[0,0,0,0,0,0,0,0,0,0,0],"id":21,"left_children":[1,3,5,7,9,-1,-1,-1,-1,-1,-1],"loss_changes":[4.1543055E-1,3.7169558E-1,6.154746E-3,6.654555E-1,4.8571754E-1,0E0,0E0,0E0,0E0,0E0,0E0],"parents":[2147483647,0,0,1,1,2,2,3,3,4,4],"right_children":[2,4,6,8,10,-1,-1,-1,-1,-1,-1],"split_conditions":[2.32E1,1.6666666E0,4.65E1,1.92E1,2.04E1,2.4491215E-2,9.580079E-2,-1.5695655E-3,-2.3116639E-2,1.492133E-4,1.3098273E-2],"split_indices":[4,1,0,4,4,0,0,0,0,0,0],"split_type":[0,0,0,0,0,0,0,0,0,0,0],"sum_hessian":[5.74E3,5.736E3,4E0,7.56E2,4.98E3,1E0,3E0,5.92E2,1.64E2,4.705E3,2.75E2],"tree_param":{"num_deleted":"0","num_feature":"5","num_nodes":"11","size_leaf_vector":"1"}},{"base_weights":[2.1209744E-5,-3.8482614E-2,1.6569892E-3,-3.3021085E-2,-7.215515E-2,8.471677E-2,7.5750594E-4,-1.0677694E-2,8.298283E-2,3.347644E-3,3.7522066E-2,7.1108213E-4,-1.0959654E-2],"categories":[],"categories_nodes":[],"categories_segments":[],"categories_sizes":[],"default_left":[0,0,0,0,0,0,0,0,0,0,0,0,0],"id":22,"left_children":[1,3,5,7,-1,9,11,-1,-1,-1,-1,-1,-1],"loss_changes":[3.6165354E-1,2.5025743E-1,4.1144338E-1,1.9215907E-1,0E0,1.737495E-1,3.278474E-1,0E0,0E0,0E0,0E0,0E0,0E0],"parents":[2147483647,0,0,1,1,2,2,3,3,5,5,6,6],"right_children":[2,4,6,8,-1,10,12,-1,-1,-1,-1,-1,-1],"split_conditions":[1.4E1,1.37E1,1.45E1,1.28E1,-7.215515E-2,2.918E1,7.7942286E0,-1.0677694E-2,8.298283E-2,3.347644E-3,3.7522066E-2,7.1108213E-4,-1.0959654E-2],"split_indices":[4,4,4,0,0,2,3,0,0,0,0,0,0],"split_type":[0,0,0,0,0,0,0,0,0,0,0,0,0],"sum_hessian":[5.74E3,2.33E2,5.507E3,2.28E2,5E0,5.8E1,5.449E3,2.27E2,1E0,2.1E1,3.7E1,5.224E3,2.25E2],"tree_param":{"num_deleted":"0","num_feature":"5","num_nodes":"13","size_leaf_vector":"1"}},{"base_weights":[1.9864034E-5,-1.3144845E-3,3.8590774E-2,-4.454511E-3,1.68816E-2,3.0569062E-1,2.0669289E-2,6.73387E-4,-5.041199E-3,2.5542532E-3,2.9505588E-2,3.9553285E-2,1.56812E-1,-4.7698826E-2,1.2445522E-2],"categories":[],"categories_nodes":[],"categories_segments":[],"categories_sizes":[],"default_left":[0,0,0,0,0,0,0,0,0,0,0,0,0,0,0],"id":23,"left_children":[1,3,5,7,9,11,13,-1,-1,-1,-1,-1,-1,-1,-1],"loss_changes":[2.95523E-1,3.171811E-1,9.127521E-1,3.916856E-1,5.561091E-1,3.838135E-1,6.835134E-1,0E0,0E0,0E0,0E0,0E0,0E0,0E0,0E0],"parents":[2147483647,0,0,1,1,2,2,3,3,4,4,5,5,6,6],"right_children":[2,4,6,8,10,12,14,-1,-1,-1,-1,-1,-1,-1,-1],"split_conditions":[5.61E1,1.3888889E1,2.9015E1,1.81E1,3.15E1,4.4444447E0,-1.1E1,6.73387E-4,-5.041199E-3,2.5542532E-3,2.9505588E-2,3.9553285E-2,1.56812E-1,-4.7698826E-2,1.2445522E-2],"split_indices":[0,1,2,4,0,1,3,0,0,0,0,0,0,0,0],"split_type":[0,0,0,0,0,0,0,0,0,0,0,0,0,0,0],"sum_hessian":[5.74E3,5.549E3,1.91E2,4.733E3,8.16E2,1.1E1,1.8E2,3.069E3,1.664E3,7.41E2,7.5E1,7E0,4E0,1.8E1,1.62E2],"tree_param":{"num_deleted":"0","num_feature":"5","num_nodes":"15","size_leaf_vector":"1"}},{"base_weights":[4.6873232E-5,-1.5883958E-2,3.4063808E-3,-3.039372E-2,1.1467468E-3,4.49229E-2,-1.1501595E-3,-5.7334662E-3,-2.1857161E-2,6.740819E-3,-2.8244343E-3,6.6664424E-3,4.093982E-2,-3.9753344E-2,3.492056E-4],"categories":[],"categories_nodes":[],"categories_segments":[],"categories_sizes":[],"default_left":[0,0,0,0,0,0,0,0,0,0,0,0,0,0,0],"id":24,"left_children":[1,3,5,7,9,11,13,-1,-1,-1,-1,-1,-1,-1,-1],"loss_changes":[3.0731097E-1,2.4714634E-1,8.971037E-1,2.5731075E-1,1.0402862E-1,9.7162455E-1,1.299419E0,0E0,0E0,0E0,0E0,0E0,0E0,0E0,0E0],"parents":[2147483647,0,0,1,1,2,2,3,3,4,4,5,5,6,6],"right_children":[2,4,6,8,10,12,14,-1,-1,-1,-1,-1,-1,-1,-1],"split_conditions":[1.7E1,1.57E1,1.62E1,1.52E1,1.62E1,1.6E1,1.63E1,-5.7334662E-3,-2.1857161E-2,6.740819E-3,-2.8244343E-3,6.6664424E-3,4.093982E-2,-3.9753344E-2,3.492056E-4],"split_indices":[0,4,4,4,4,4,4,0,0,0,0,0,0,0,0],"split_type":[0,0,0,0,0,0,0,0,0,0,0,0,0,0,0],"sum_hessian":[5.74E3,9.99E2,4.741E3,5.39E2,4.6E2,4.68E2,4.273E3,4.27E2,1.12E2,1.52E2,3.08E2,3.76E2,9.2E1,7.3E1,4.2E3],"tree_param":{"num_deleted":"0","num_feature":"5","num_nodes":"15","size_leaf_vector":"1"}},{"base_weights":[3.0272058E-5,-1.8959597E-4,2.1021907E-1,-1.00526296E-1,2.6723187E-4,7.514134E-2,2.5942994E-2,-1.0037471E-3,-1.0914717E-1,-3.866592E-3,1.0204277E-3],"categories":[],"categories_nodes":[],"categories_segments":[],"categories_sizes":[],"default_left":[0,0,0,0,0,0,0,0,0,0,0],"id":25,"left_children":[1,3,5,7,9,-1,-1,-1,-1,-1,-1],"loss_changes":[2.6535326E-1,2.629456E-1,8.225411E-3,6.640547E-1,2.3552577E-1,0E0,0E0,0E0,0E0,0E0,0E0],"parents":[2147483647,0,0,1,1,2,2,3,3,4,4],"right_children":[2,4,6,8,10,-1,-1,-1,-1,-1,-1],"split_conditions":[2.3E1,-3.8888888E0,-4E0,-5.2094454E-1,-7.524443E0,7.514134E-2,2.5942994E-2,-1.0037471E-3,-1.0914717E-1,-3.866592E-3,1.0204277E-3],"split_indices":[4,1,3,3,3,0,0,0,0,0,0],"split_type":[0,0,0,0,0,0,0,0,0,0,0],"sum_hessian":[5.74E3,5.735E3,5E0,2.5E1,5.71E3,3E0,2E0,1.9E1,6E0,1.098E3,4.612E3],"tree_param":{"num_deleted":"0","num_feature":"5","num_nodes":"11","size_leaf_vector":"1"}},{"base_weights":[1.9035779E-5,5.4242504E-3,-8.105288E-3,-1.7454149E-3,3.5884343E-2,-3.806328E-2,4.2516105E-3,7.756083E-5,-9.866285E-2,8.690794E-2,8.361514E-3,-1.0219926E-2,-9.8347604E-2,-1.2189257E-2,3.9436775E-3],"categories":[],"categories_nodes":[],"categories_segments":[],"categories_sizes":[],"default_left":[0,0,0,0,0,0,0,0,0,0,0,0,0,0,0],"id":26,"left_children":[1,3,5,7,9,11,13,-1,-1,-1,-1,-1,-1,-1,-1],"loss_changes":[2.5215262E-1,7.530668E-1,8.4937286E-1,1.8303919E0,1.3280513E0,7.64785E-1,6.492078E-1,0E0,0E0,0E0,0E0,0E0,0E0,0E0,0E0],"parents":[2147483647,0,0,1,1,2,2,3,3,4,4,5,5,6,6],"right_children":[2,4,6,8,10,12,14,-1,-1,-1,-1,-1,-1,-1,-1],"split_conditions":[9.18485E-16,4.88E1,2.9605E1,4.72E1,1.66E1,5.67E1,2.5E0,7.756083E-5,-9.866285E-2,8.690794E-2,8.361514E-3,-1.0219926E-2,-9.8347604E-2,-1.2189257E-2,3.9436775E-3],"split_indices":[3,0,2,0,4,0,1,0,0,0,0,0,0,0,0],"split_type":[0,0,0,0,0,0,0,0,0,0,0,0,0,0,0],"sum_hessian":[5.74E3,3.447E3,2.293E3,2.791E3,6.56E2,6.69E2,1.624E3,2.775E3,1.6E1,1.9E1,6.37E2,6.61E2,8E0,2.68E2,1.356E3],"tree_param":{"num_deleted":"0","num_feature":"5","num_nodes":"15","size_leaf_vector":"1"}},{"base_weights":[-8.024087E-6,-1.1305714E-1,3.27669E-4,-1.2352413E-1,8.162213E-3,7.7733113E-3,-4.660073E-3,-1.9917049E-2,-4.81755E-2,-1.3283915E-3,1.2300835E-2,-3.53315E-2,-3.1548704E-4],"categories":[],"categories_nodes":[],"categories_segments":[],"categories_sizes":[],"default_left":[0,0,0,0,0,0,0,0,0,0,0,0,0],"id":27,"left_children":[1,3,5,7,-1,9,11,-1,-1,-1,-1,-1,-1],"loss_changes":[2.1790688E-1,2.831927E-2,2.1264523E-1,2.3217663E-2,0E0,9.314822E-1,1.399448E0,0E0,0E0,0E0,0E0,0E0,0E0],"parents":[2147483647,0,0,1,1,2,2,3,3,5,5,6,6],"right_children":[2,4,6,8,-1,10,12,-1,-1,-1,-1,-1,-1],"split_conditions":[1.16E1,2.9725E1,1.73E1,-5.555556E-1,8.162213E-3,2.1E1,1.74E1,-1.9917049E-2,-4.81755E-2,-1.3283915E-3,1.2300835E-2,-3.53315E-2,-3.1548704E-4],"split_indices":[4,2,4,1,0,0,4,0,0,0,0,0,0],"split_type":[0,0,0,0,0,0,0,0,0,0,0,0,0],"sum_hessian":[5.74E3,1.6E1,5.724E3,1.5E1,1E0,2.296E3,3.428E3,7E0,8E0,1.68E3,6.16E2,1.05E2,3.323E3],"tree_param":{"num_deleted":"0","num_feature":"5","num_nodes":"13","size_leaf_vector":"1"}},{"base_weights":[-2.08707E-5,-1.5165396E-3,2.3304708E-2,1.3911201E-3,-1.9784484E-2,1.806222E-1,3.8828E-3,-4.72236E-4,2.2287764E-2,-1.5371158E-2,7.160379E-3,-5.069542E-3,7.0157304E-2,-1.13964025E-2,1.7872922E-2],"categories":[],"categories_nodes":[],"categories_segments":[],"categories_sizes":[],"default_left":[0,0,0,0,0,0,0,0,0,0,0,0,0,0,0],"id":28,"left_children":[1,3,5,7,9,11,13,-1,-1,-1,-1,-1,-1,-1,-1],"loss_changes":[2.0032357E-1,2.866467E-1,1.0564692E0,1.0066055E0,1.018606E0,4.0352583E-1,7.228315E-1,0E0,0E0,0E0,0E0,0E0,0E0,0E0,0E0],"parents":[2147483647,0,0,1,1,2,2,3,3,4,4,5,5,6,6],"right_children":[2,4,6,8,10,12,14,-1,-1,-1,-1,-1,-1,-1,-1],"split_conditions":[2.04E1,1.92E1,3.56E1,1.9E1,2.9955E1,2.7E1,-2.598076E0,-4.72236E-4,2.2287764E-2,-1.5371158E-2,7.160379E-3,-5.069542E-3,7.0157304E-2,-1.13964025E-2,1.7872922E-2],"split_indices":[4,4,0,4,2,0,3,0,0,0,0,0,0,0,0],"split_type":[0,0,0,0,0,0,0,0,0,0,0,0,0,0,0],"sum_hessian":[5.74E3,5.395E3,3.45E2,4.655E3,7.4E2,3.7E1,3.08E2,4.474E3,1.81E2,4.3E2,3.1E2,8E0,2.9E1,1.76E2,1.32E2],"tree_param":{"num_deleted":"0","num_feature":"5","num_nodes":"15","size_leaf_vector":"1"}},{"base_weights":[6.7310367E-7,3.5341855E-2,-1.0058196E-3,-1.8923482E-2,9.792939E-2,-3.513503E-2,1.0278765E-3,-4.1975375E-2,2.5828187E-3,-1.307834E-2,4.227092E-2,-1.769747E-4,-1.954586E-2,1.1425757E-2,-4.9694744E-4],"categories":[],"categories_nodes":[],"categories_segments":[],"categories_sizes":[],"default_left":[0,0,0,0,0,0,0,0,0,0,0,0,0,0,0],"id":29,"left_children":[1,3,5,7,9,11,13,-1,-1,-1,-1,-1,-1,-1,-1],"loss_changes":[2.0424661E-1,5.4187024E-1,3.8754347E-1,2.8769854E-1,4.5619583E-1,3.255701E-1,5.2430815E-1,0E0,0E0,0E0,0E0,0E0,0E0,0E0,0E0],"parents":[2147483647,0,0,1,1,2,2,3,3,4,4,5,5,6,6],"right_children":[2,4,6,8,10,12,14,-1,-1,-1,-1,-1,-1,-1,-1],"split_conditions":[-1.6852978E1,-1.9052559E1,-1.1667262E1,1.69E1,2.9315E1,1.92E1,-8.999026E0,-4.1975375E-2,2.5828187E-3,-1.307834E-2,4.227092E-2,-1.769747E-4,-1.954586E-2,1.1425757E-2,-4.9694744E-4],"split_indices":[3,3,3,4,2,0,3,0,0,0,0,0,0,0,0],"split_type":[0,0,0,0,0,0,0,0,0,0,0,0,0,0,0],"sum_hessian":[5.74E3,1.58E2,5.582E3,8.5E1,7.3E1,3.13E2,5.269E3,1.5E1,7E1,1.7E1,5.6E1,1.46E2,1.67E2,3.55E2,4.914E3],"tree_param":{"num_deleted":"0","num_feature":"5","num_nodes":"15","size_leaf_vector":"1"}},{"base_weights":[-2.1870887E-6,-2.8018146E-3,1.17989695E-2,-3.3158662E-3,2.9531288E-1,2.0953959E-2,-8.2113355E-2,-1.7695257E-2,-4.0901345E-4,1.07873075E-1,-2.3180295E-2,5.2966108E-3,1.2882644E-1,3.8014263E-2,-4.118503E-2],"categories":[],"categories_nodes":[],"categories_segments":[],"categories_sizes":[],"default_left":[0,0,0,0,0,0,0,0,0,0,0,0,0,0,0],"id":30,"left_children":[1,3,5,7,9,11,13,-1,-1,-1,-1,-1,-1,-1,-1],"loss_changes":[1.8970904E-1,7.121957E-1,9.4832325E-1,5.035971E-1,2.1933186E-1,1.3451744E0,1.1464568E0,0E0,0E0,0E0,0E0,0E0,0E0,0E0,0E0],"parents":[2147483647,0,0,1,1,2,2,3,3,4,4,5,5,6,6],"right_children":[2,4,6,8,10,12,14,-1,-1,-1,-1,-1,-1,-1,-1],"split_conditions":[4.17E1,2.13E1,5.362311E0,-5.555556E-1,-1.9283628E0,5.142301E0,1.68E1,-1.7695257E-2,-4.0901345E-4,1.07873075E-1,-2.3180295E-2,5.2966108E-3,1.2882644E-1,3.8014263E-2,-4.118503E-2],"split_indices":[0,4,3,1,3,3,4,0,0,0,0,0,0,0,0],"split_type":[0,0,0,0,0,0,0,0,0,0,0,0,0,0,0],"sum_hessian":[5.74E3,4.64E3,1.1E3,4.633E3,7E0,1.003E3,9.7E1,1.56E2,4.477E3,6E0,1E0,9.96E2,7E0,2E1,7.7E1],"tree_param":{"num_deleted":"0","num_feature":"5","num_nodes":"15","size_leaf_vector":"1"}},{"base_weights":[3.236662E-5,4.770646E-3,-6.675392E-3,1.1849534E-3,8.2702994E-2,-4.013463E-2,1.1460782E-4,9.918819E-4,-1.3963693E-2,1.9917022E-2,6.394058E-2,-8.365653E-3,-1.1302304E-1,1.5229485E-2,-2.2958487E-3],"categories":[],"categories_nodes":[],"categories_segments":[],"categories_sizes":[],"default_left":[0,0,0,0,0,0,0,0,0,0,0,0,0,0,0],"id":31,"left_children":[1,3,5,7,9,11,13,-1,-1,-1,-1,-1,-1,-1,-1],"loss_changes":[1.8249938E-1,9.402225E-1,5.40031E-1,3.2598227E-1,3.0075407E-1,1.6428821E0,7.781863E-1,0E0,0E0,0E0,0E0,0E0,0E0,0E0,0E0],"parents":[2147483647,0,0,1,1,2,2,3,3,4,4,5,5,6,6],"right_children":[2,4,6,8,10,12,14,-1,-1,-1,-1,-1,-1,-1,-1],"split_conditions":[1.81E1,1.8E1,2.939E1,5.25E1,4E0,2.14E1,2.953E1,9.918819E-4,-1.3963693E-2,1.9917022E-2,6.394058E-2,-8.365653E-3,-1.1302304E-1,1.5229485E-2,-2.2958487E-3],"split_indices":[4,4,2,0,3,4,2,0,0,0,0,0,0,0,0],"split_type":[0,0,0,0,0,0,0,0,0,0,0,0,0,0,0],"sum_hessian":[5.74E3,3.364E3,2.376E3,3.217E3,1.47E2,4E2,1.976E3,3.081E3,1.36E2,1.32E2,1.5E1,3.87E2,1.3E1,2.62E2,1.714E3],"tree_param":{"num_deleted":"0","num_feature":"5","num_nodes":"15","size_leaf_vector":"1"}},{"base_weights":[1.6305155E-5,4.502982E-2,-7.5718056E-4,2.7263924E-2,2.695536E-1,-1.13460064E-1,-3.1617406E-4,1.3425577E-2,-3.565922E-2,1.8817693E-1,3.1618122E-2,-3.0355863E-3,-7.848203E-2,-3.3922817E-3,6.8065105E-4],"categories":[],"categories_nodes":[],"categories_segments":[],"categories_sizes":[],"default_left":[0,0,0,0,0,0,0,0,0,0,0,0,0,0,0],"id":32,"left_children":[1,3,5,7,9,11,13,-1,-1,-1,-1,-1,-1,-1,-1],"loss_changes":[1.9992028E-1,3.795708E-1,2.805359E-1,2.378686E-1,3.4493428E-1,3.341661E-1,1.5982021E-1,0E0,0E0,0E0,0E0,0E0,0E0,0E0,0E0],"parents":[2147483647,0,0,1,1,2,2,3,3,4,4,5,5,6,6],"right_children":[2,4,6,8,10,12,14,-1,-1,-1,-1,-1,-1,-1,-1],"split_conditions":[2.8905E1,5.63E1,-3.8888888E0,5.56E1,5.64E1,-9.5506495E-1,-7.524443E0,1.3425577E-2,-3.565922E-2,1.8817693E-1,3.1618122E-2,-3.0355863E-3,-7.848203E-2,-3.3922817E-3,6.8065105E-4],"split_indices":[2,0,1,0,0,3,3,0,0,0,0,0,0,0,0],"split_type":[0,0,0,0,0,0,0,0,0,0,0,0,0,0,0],"sum_hessian":[5.74E3,9.6E1,5.644E3,9E1,6E0,2.1E1,5.623E3,8.1E1,9E0,1E0,5E0,1.3E1,8E0,1.07E3,4.553E3],"tree_param":{"num_deleted":"0","num_feature":"5","num_nodes":"15","size_leaf_vector":"1"}},{"base_weights":[3.1079715E-5,-2.8042938E-3,1.1982885E-2,-3.9871694E-3,8.912662E-2,1.148624E-1,5.205525E-3,2.6217784E-4,-7.898729E-3,1.9144049E-2,9.06271E-2,6.825391E-2,-1.3343564E-2,3.7868044E-3,-2.3648774E-2],"categories":[],"categories_nodes":[],"categories_segments":[],"categories_sizes":[],"default_left":[0,0,0,0,0,0,0,0,0,0,0,0,0,0,0],"id":33,"left_children":[1,3,5,7,9,11,13,-1,-1,-1,-1,-1,-1,-1,-1],"loss_changes":[1.9458364E-1,5.050309E-1,7.6707596E-1,4.9776542E-1,2.9877844E-1,1.2307097E0,6.454861E-1,0E0,0E0,0E0,0E0,0E0,0E0,0E0,0E0],"parents":[2147483647,0,0,1,1,2,2,3,3,4,4,5,5,6,6],"right_children":[2,4,6,8,10,12,14,-1,-1,-1,-1,-1,-1,-1,-1],"split_conditions":[4.17E1,2.04E1,1.66E1,2.54E1,3.95E1,3.0555556E0,5.362311E0,2.6217784E-4,-7.898729E-3,1.9144049E-2,9.06271E-2,6.825391E-2,-1.3343564E-2,3.7868044E-3,-2.3648774E-2],"split_indices":[0,4,4,0,0,1,3,0,0,0,0,0,0,0,0],"split_type":[0,0,0,0,0,0,0,0,0,0,0,0,0,0,0],"sum_hessian":[5.74E3,4.64E3,1.1E3,4.582E3,5.8E1,6.7E1,1.033E3,3.764E3,8.18E2,5.3E1,5E0,3.9E1,2.8E1,9.5E2,8.3E1],"tree_param":{"num_deleted":"0","num_feature":"5","num_nodes":"15","size_leaf_vector":"1"}},{"base_weights":[4.6128367E-5,-1.1856536E-4,1.5748565E-1,2.093048E-4,-6.9452636E-2,5.7419874E-2,1.7931556E-2,-2.6844998E-4,1.1127074E-2,4.7222553E-3,-1.3423565E-1],"categories":[],"categories_nodes":[],"categories_segments":[],"categories_sizes":[],"default_left":[0,0,0,0,0,0,0,0,0,0,0],"id":34,"left_children":[1,3,5,7,9,-1,-1,-1,-1,-1,-1],"loss_changes":[1.4887878E-1,1.3040859E-1,8.442834E-3,2.325538E-1,8.765269E-1,0E0,0E0,0E0,0E0,0E0,0E0],"parents":[2147483647,0,0,1,1,2,2,3,3,4,4],"right_children":[2,4,6,8,10,-1,-1,-1,-1,-1,-1],"split_conditions":[2.3E1,5.94E1,-4E0,5.61E1,5.142301E0,5.7419874E-2,1.7931556E-2,-2.6844998E-4,1.1127074E-2,4.7222553E-3,-1.3423565E-1],"split_indices":[4,0,3,0,3,0,0,0,0,0,0],"split_type":[0,0,0,0,0,0,0,0,0,0,0],"sum_hessian":[5.74E3,5.735E3,5E0,5.709E3,2.6E1,3E0,2E0,5.544E3,1.65E2,2.2E1,4E0],"tree_param":{"num_deleted":"0","num_feature":"5","num_nodes":"11","size_leaf_vector":"1"}},{"base_weights":[2.5025438E-5,-9.874612E-4,2.5200255E-2,-1.8231181E-2,1.516499E-3,1.985533E-2,4.0876135E-1,4.5761424E-3,-1.2585868E-2,2.685656E-4,3.2350324E-2,6.404856E-5,3.0928265E-2,1.9016363E-2,1.6492625E-1],"categories":[],"categories_nodes":[],"categories_segments":[],"categories_sizes":[],"default_left":[0,0,0,0,0,0,0,0,0,0,0,0,0,0,0],"id":35,"left_children":[1,3,5,7,9,11,13,-1,-1,-1,-1,-1,-1,-1,-1],"loss_changes":[1.4636058E-1,2.3836796E-1,4.4700724E-1,5.566648E-1,3.1834608E-1,3.5967016E-1,1.11237764E-1,0E0,0E0,0E0,0E0,0E0,0E0,0E0,0E0],"parents":[2147483647,0,0,1,1,2,2,3,3,4,4,5,5,6,6],"right_children":[2,4,6,8,10,12,14,-1,-1,-1,-1,-1,-1,-1,-1],"split_conditions":[3.0255E1,1.6666666E0,9.641814E0,2.946E1,5.74E1,3.45E1,2.19E1,4.5761424E-3,-1.2585868E-2,2.685656E-4,3.2350324E-2,6.404856E-5,3.0928265E-2,1.9016363E-2,1.6492625E-1],"split_indices":[2,1,3,2,0,0,0,0,0,0,0,0,0,0,0],"split_type":[0,0,0,0,0,0,0,0,0,0,0,0,0,0,0],"sum_hessian":[5.74E3,5.519E3,2.21E2,6.99E2,4.82E3,2.19E2,2E0,2.9E2,4.09E2,4.793E3,2.7E1,1.78E2,4.1E1,1E0,1E0],"tree_param":{"num_deleted":"0","num_feature":"5","num_nodes":"15","size_leaf_vector":"1"}},{"base_weights":[5.897149E-5,5.0633317E-3,-4.3241545E-3,1.7539085E-3,7.2720386E-2,-9.992237E-3,1.8513499E-2,-1.7809152E-3,6.4953887E-3,1.5758848E-2,1.216731E-1,-2.722426E-3,-1.1479808E-1,-2.5881133E-3,1.5854882E-2],"categories":[],"categories_nodes":[],"categories_segments":[],"categories_sizes":[],"default_left":[0,0,0,0,0,0,0,0,0,0,0,0,0,0,0],"id":36,"left_children":[1,3,5,7,9,11,13,-1,-1,-1,-1,-1,-1,-1,-1],"loss_changes":[1.2594923E-1,6.001639E-1,3.964183E-1,3.9139223E-1,8.1877947E-1,8.352494E-1,5.679834E-1,0E0,0E0,0E0,0E0,0E0,0E0,0E0,0E0],"parents":[2147483647,0,0,1,1,2,2,3,3,4,4,5,5,6,6],"right_children":[2,4,6,8,10,12,14,-1,-1,-1,-1,-1,-1,-1,-1],"split_conditions":[1.76E1,1.75E1,3.8302221E0,2.1E1,3.87E1,3.6466117E0,1.9E1,-1.7809152E-3,6.4953887E-3,1.5758848E-2,1.216731E-1,-2.722426E-3,-1.1479808E-1,-2.5881133E-3,1.5854882E-2],"split_indices":[4,4,3,0,0,3,4,0,0,0,0,0,0,0,0],"split_type":[0,0,0,0,0,0,0,0,0,0,0,0,0,0,0],"sum_hessian":[5.74E3,2.68E3,3.06E3,2.556E3,1.24E2,2.452E3,6.08E2,1.844E3,7.12E2,1.18E2,6E0,2.447E3,5E0,3.4E2,2.68E2],"tree_param":{"num_deleted":"0","num_feature":"5","num_nodes":"15","size_leaf_vector":"1"}},{"base_weights":[4.768604E-5,4.5894696E-3,-5.7265786E-3,-3.3044314E-3,2.7047606E-2,-2.647526E-2,2.826327E-3,-1.2080834E-3,5.0478462E-2,1.8193757E-2,3.5583416E-3,-6.708578E-3,-8.204055E-2,-2.2729578E-4,2.5113488E-2],"categories":[],"categories_nodes":[],"categories_segments":[],"categories_sizes":[],"default_left":[0,0,0,0,0,0,0,0,0,0,0,0,0,0,0],"id":37,"left_children":[1,3,5,7,9,11,13,-1,-1,-1,-1,-1,-1,-1,-1],"loss_changes":[1.5058666E-1,5.6987476E-1,4.486975E-1,2.9557505E-1,4.2584014E-1,7.436674E-1,5.192586E-1,0E0,0E0,0E0,0E0,0E0,0E0,0E0,0E0],"parents":[2147483647,0,0,1,1,2,2,3,3,4,4,5,5,6,6],"right_children":[2,4,6,8,10,12,14,-1,-1,-1,-1,-1,-1,-1,-1],"split_conditions":[-1.6532732E-15,-2.7361612E0,2.9605E1,2.22E1,-2.052121E0,2.1E1,2.03E1,-1.2080834E-3,5.0478462E-2,1.8193757E-2,3.5583416E-3,-6.708578E-3,-8.204055E-2,-2.2729578E-4,2.5113488E-2],"split_indices":[3,3,2,4,3,4,4,0,0,0,0,0,0,0,0],"split_type":[0,0,0,0,0,0,0,0,0,0,0,0,0,0,0],"sum_hessian":[5.74E3,3.213E3,2.527E3,2.378E3,8.35E2,7.37E2,1.79E3,2.369E3,9E0,2.59E2,5.76E2,7.26E2,1.1E1,1.715E3,7.5E1],"tree_param":{"num_deleted":"0","num_feature":"5","num_nodes":"15","size_leaf_vector":"1"}},{"base_weights":[3.4140077E-5,5.8545275E-3,-3.891958E-3,3.7844284E-4,2.8462268E-2,-8.207078E-2,-1.3977198E-3,-1.8925497E-3,9.170244E-3,1.2086882E-2,-6.469054E-2,5.9743505E-2,-2.6818091E-2,-7.675578E-3,1.0631002E-3],"categories":[],"categories_nodes":[],"categories_segments":[],"categories_sizes":[],"default_left":[0,0,0,0,0,0,0,0,0,0,0,0,0,0,0],"id":38,"left_children":[1,3,5,7,9,11,13,-1,-1,-1,-1,-1,-1,-1,-1],"loss_changes":[1.3121274E-1,2.8634304E-1,6.685286E-1,3.76281E-1,1.310735E0,2.3608822E-1,3.9737514E-1,0E0,0E0,0E0,0E0,0E0,0E0,0E0,0E0],"parents":[2147483647,0,0,1,1,2,2,3,3,4,4,5,5,6,6],"right_children":[2,4,6,8,10,12,14,-1,-1,-1,-1,-1,-1,-1,-1],"split_conditions":[1.73E1,1.69E1,1.74E1,2.65E1,5.29E1,-1.8021345E1,2.9405E1,-1.8925497E-3,9.170244E-3,1.2086882E-2,-6.469054E-2,5.9743505E-2,-2.6818091E-2,-7.675578E-3,1.0631002E-3],"split_indices":[4,4,4,0,0,3,2,0,0,0,0,0,0,0,0],"split_type":[0,0,0,0,0,0,0,0,0,0,0,0,0,0,0],"sum_hessian":[5.74E3,2.312E3,3.428E3,1.862E3,4.5E2,1.05E2,3.323E3,1.525E3,3.37E2,4.3E2,2E1,2E0,1.03E2,5.63E2,2.76E3],"tree_param":{"num_deleted":"0","num_feature":"5","num_nodes":"15","size_leaf_vector":"1"}},{"base_weights":[2.0731162E-5,2.771531E-2,-7.6799514E-4,3.841313E-2,-2.1006775E-1,-1.2707692E-2,1.6519969E-3,1.1574922E-1,7.949105E-3,-2.2970581E-2,-8.731499E-2,-2.1469814E-3,-8.451146E-2,1.4947195E-2,1.3507692E-4],"categories":[],"categories_nodes":[],"categories_segments":[],"categories_sizes":[],"default_left":[0,0,0,0,0,0,0,0,0,0,0,0,0,0,0],"id":39,"left_children":[1,3,5,7,9,11,13,-1,-1,-1,-1,-1,-1,-1,-1],"loss_changes":[1.2542447E-1,4.1252717E-1,1.6133603E-1,6.2317634E-1,5.3392112E-2,1.4031104E0,2.6876187E-1,0E0,0E0,0E0,0E0,0E0,0E0,0E0,0E0],"parents":[2147483647,0,0,1,1,2,2,3,3,4,4,5,5,6,6],"right_children":[2,4,6,8,10,12,14,-1,-1,-1,-1,-1,-1,-1,-1],"split_conditions":[-1.6852978E1,5.69E1,-7.524443E0,4.4444447E0,-1.9918585E1,3.0165E1,-6.9732013E0,1.1574922E-1,7.949105E-3,-2.2970581E-2,-8.731499E-2,-2.1469814E-3,-8.451146E-2,1.4947195E-2,1.3507692E-4],"split_indices":[3,0,3,1,3,2,3,0,0,0,0,0,0,0,0],"split_type":[0,0,0,0,0,0,0,0,0,0,0,0,0,0,0],"sum_hessian":[5.74E3,1.58E2,5.582E3,1.52E2,6E0,9.4E2,4.642E3,4E0,1.48E2,3E0,3E0,9.22E2,1.8E1,1.12E2,4.53E3],"tree_param":{"num_deleted":"0","num_feature":"5","num_nodes":"15","size_leaf_vector":"1"}},{"base_weights":[4.1663657E-6,1.1492798E-2,-1.9289167E-3,-1.1203376E-2,4.502698E-2,-5.9897758E-2,8.778345E-4,-2.8558485E-3,-6.452966E-2,2.2409917E-3,3.3845797E-2,-4.372629E-3,-4.5467004E-2,-1.008894E-4,1.3348096E-2],"categories":[],"categories_nodes":[],"categories_segments":[],"categories_sizes":[],"default_left":[0,0,0,0,0,0,0,0,0,0,0,0,0,0,0],"id":40,"left_children":[1,3,5,7,9,11,13,-1,-1,-1,-1,-1,-1,-1,-1],"loss_changes":[1.2752104E-1,6.299322E-1,7.9974324E-1,1.6756016E-1,8.495471E-1,9.4079345E-1,2.4832277E-1,0E0,0E0,0E0,0E0,0E0,0E0,0E0,0E0],"parents":[2147483647,0,0,1,1,2,2,3,3,4,4,5,5,6,6],"right_children":[2,4,6,8,10,12,14,-1,-1,-1,-1,-1,-1,-1,-1],"split_conditions":[-8.999026E0,2.46E1,-7.7134514E0,2.42E1,-1.125833E1,2.6E1,5.63E1,-2.8558485E-3,-6.452966E-2,2.2409917E-3,3.3845797E-2,-4.372629E-3,-4.5467004E-2,-1.008894E-4,1.3348096E-2],"split_indices":[3,0,3,0,3,0,0,0,0,0,0,0,0,0,0],"split_type":[0,0,0,0,0,0,0,0,0,0,0,0,0,0,0],"sum_hessian":[5.74E3,8.26E2,4.914E3,4.93E2,3.33E2,2.26E2,4.688E3,4.9E2,3E0,2.15E2,1.18E2,1.52E2,7.4E1,4.562E3,1.26E2],"tree_param":{"num_deleted":"0","num_feature":"5","num_nodes":"15","size_leaf_vector":"1"}},{"base_weights":[-8.759983E-6,3.5911886E-4,-7.787613E-2,1.6135367E-4,1.0289469E-1,-1.5574413E-2,-3.4888878E-1,1.1716321E-3,-1.386921E-3,9.604312E-2,-2.0094723E-2,8.6892545E-2,-4.210066E-2,-1.17456295E-1,-2.6754E-2],"categories":[],"categories_nodes":[],"categories_segments":[],"categories_sizes":[],"default_left":[0,0,0,0,0,0,0,0,0,0,0,0,0,0,0],"id":41,"left_children":[1,3,5,7,9,11,13,-1,-1,-1,-1,-1,-1,-1,-1],"loss_changes":[1.6448325E-1,1.15871996E-1,4.5044917E-1,1.0221341E-1,4.2740595E-1,9.1646665E-1,2.0443976E-2,0E0,0E0,0E0,0E0,0E0,0E0,0E0,0E0],"parents":[2147483647,0,0,1,1,2,2,3,3,4,4,5,5,6,6],"right_children":[2,4,6,8,10,12,14,-1,-1,-1,-1,-1,-1,-1,-1],"split_conditions":[5.94E1,3.047E1,5.142301E0,-1.6532732E-15,2.5E0,1.78E1,1.78E1,1.1716321E-3,-1.386921E-3,9.604312E-2,-2.0094723E-2,8.6892545E-2,-4.210066E-2,-1.17456295E-1,-2.6754E-2],"split_indices":[0,2,3,3,1,4,4,0,0,0,0,0,0,0,0],"split_type":[0,0,0,0,0,0,0,0,0,0,0,0,0,0,0],"sum_hessian":[5.74E3,5.714E3,2.6E1,5.704E3,1E1,2.2E1,4E0,3.2E3,2.504E3,4E0,6E0,6E0,1.6E1,3E0,1E0],"tree_param":{"num_deleted":"0","num_feature":"5","num_nodes":"15","size_leaf_vector":"1"}},{"base_weights":[-1.0164996E-5,3.719357E-3,-5.2898587E-3,1.0110412E-3,6.25818E-2,-6.163477E-2,-1.8962548E-3,8.997776E-4,-1.3117191E-2,1.16360765E-2,4.1489117E-2,7.57061E-2,-1.9758362E-2,-2.7260073E-3,6.124396E-3],"categories":[],"categories_nodes":[],"categories_segments":[],"categories_sizes":[],"default_left":[0,0,0,0,0,0,0,0,0,0,0,0,0,0,0],"id":42,"left_children":[1,3,5,7,9,11,13,-1,-1,-1,-1,-1,-1,-1,-1],"loss_changes":[1.1306417E-1,5.363786E-1,4.543948E-1,2.8634945E-1,2.6127785E-1,1.9577223E-1,3.6001912E-1,0E0,0E0,0E0,0E0,0E0,0E0,0E0,0E0],"parents":[2147483647,0,0,1,1,2,2,3,3,4,4,5,5,6,6],"right_children":[2,4,6,8,10,12,14,-1,-1,-1,-1,-1,-1,-1,-1],"split_conditions":[1.81E1,1.8E1,1.82E1,5.25E1,2.32E1,-1.1111112E0,5.29E1,8.997776E-4,-1.3117191E-2,1.16360765E-2,4.1489117E-2,7.57061E-2,-1.9758362E-2,-2.7260073E-3,6.124396E-3],"split_indices":[4,4,4,0,0,1,0,0,0,0,0,0,0,0,0],"split_type":[0,0,0,0,0,0,0,0,0,0,0,0,0,0,0],"sum_hessian":[5.74E3,3.364E3,2.376E3,3.217E3,1.47E2,1.34E2,2.242E3,3.081E3,1.36E2,1.13E2,3.4E1,1E0,1.33E2,1.696E3,5.46E2],"tree_param":{"num_deleted":"0","num_feature":"5","num_nodes":"15","size_leaf_vector":"1"}},{"base_weights":[1.0109845E-5,-1.836808E-3,1.11436E-2,2.68348E-3,-9.570291E-3,1.3287215E-2,-1.4713287E-1,2.8932327E-4,1.4229206E-2,-6.564362E-3,3.2561705E-3,2.0481136E-3,4.014468E-2,9.8344805E-3,-6.560955E-2],"categories":[],"categories_nodes":[],"categories_segments":[],"categories_sizes":[],"default_left":[0,0,0,0,0,0,0,0,0,0,0,0,0,0,0],"id":43,"left_children":[1,3,5,7,9,11,13,-1,-1,-1,-1,-1,-1,-1,-1],"loss_changes":[1.1807058E-1,1.7219172E-1,2.7914992E-1,2.3910956E-1,4.5710483E-1,6.2744385E-1,1.4880192E-1,0E0,0E0,0E0,0E0,0E0,0E0,0E0,0E0],"parents":[2147483647,0,0,1,1,2,2,3,3,4,4,5,5,6,6],"right_children":[2,4,6,8,10,12,14,-1,-1,-1,-1,-1,-1,-1,-1],"split_conditions":[1.3888889E1,1.81E1,5.29E1,1.8E1,5.09E1,3.59E1,-3.8567257E0,2.8932327E-4,1.4229206E-2,-6.564362E-3,3.2561705E-3,2.0481136E-3,4.014468E-2,9.8344805E-3,-6.560955E-2],"split_indices":[1,4,0,4,0,0,3,0,0,0,0,0,0,0,0],"split_type":[0,0,0,0,0,0,0,0,0,0,0,0,0,0,0],"sum_hessian":[5.74E3,4.924E3,8.16E2,3.108E3,1.816E3,8.06E2,1E1,2.994E3,1.14E2,1.133E3,6.83E2,7.66E2,4E1,3E0,7E0],"tree_param":{"num_deleted":"0","num_feature":"5","num_nodes":"15","size_leaf_vector":"1"}},{"base_weights":[6.675388E-6,7.5004395E-4,-2.828689E-2,2.9731242E-4,6.36157E-2,-2.920227E-1,-2.6805736E-3,9.754938E-4,-1.7775855E-3,8.581499E-2,-2.795756E-4,-1.369348E-1,5.761485E-2,1.1615892E-2,-2.283971E-2],"categories":[],"categories_nodes":[],"categories_segments":[],"categories_sizes":[],"default_left":[0,0,0,0,0,0,0,0,0,0,0,0,0,0,0],"id":44,"left_children":[1,3,5,7,9,11,13,-1,-1,-1,-1,-1,-1,-1,-1],"loss_changes":[1.2076907E-1,1.5922189E-1,9.9195254E-1,1.021587E-1,5.7457066E-1,1.1223875E0,4.1347197E-1,0E0,0E0,0E0,0E0,0E0,0E0,0E0,0E0],"parents":[2147483647,0,0,1,1,2,2,3,3,4,4,5,5,6,6],"right_children":[2,4,6,8,10,12,14,-1,-1,-1,-1,-1,-1,-1,-1],"split_conditions":[2.12E1,2.1E1,2.9135E1,2.54E1,2.9195E1,2.2574263E0,7.5E0,9.754938E-4,-1.7775855E-3,8.581499E-2,-2.795756E-4,-1.369348E-1,5.761485E-2,1.1615892E-2,-2.283971E-2],"split_indices":[4,4,2,0,2,3,1,0,0,0,0,0,0,0,0],"split_type":[0,0,0,0,0,0,0,0,0,0,0,0,0,0,0],"sum_hessian":[5.74E3,5.594E3,1.46E2,5.555E3,3.9E1,1.2E1,1.34E2,3.767E3,1.788E3,8E0,3.1E1,9E0,3E0,8.6E1,4.8E1],"tree_param":{"num_deleted":"0","num_feature":"5","num_nodes":"15","size_leaf_vector":"1"}},{"base_weights":[4.082477E-6,-8.892323E-2,2.058718E-4,-1.1772978E-1,-3.5693962E-2,4.6528905E-4,-5.4596443E-2,-4.7063828E-3,-3.9019816E-2,-1.4517975E-2,4.1703703E-3,-9.999387E-5,6.255486E-3,-9.187861E-2,-3.1131986E-3],"categories":[],"categories_nodes":[],"categories_segments":[],"categories_sizes":[],"default_left":[0,0,0,0,0,0,0,0,0,0,0,0,0,0,0],"id":45,"left_children":[1,3,5,7,9,11,13,-1,-1,-1,-1,-1,-1,-1,-1],"loss_changes":[1.0303816E-1,1.5731327E-2,8.147268E-2,8.030057E-3,4.4516674E-3,9.2855E-2,2.9728943E-1,0E0,0E0,0E0,0E0,0E0,0E0,0E0,0E0],"parents":[2147483647,0,0,1,1,2,2,3,3,4,4,5,5,6,6],"right_children":[2,4,6,8,10,12,14,-1,-1,-1,-1,-1,-1,-1,-1],"split_conditions":[1.15E1,-2.7470188E0,5.94E1,-1.9444444E0,5.555556E-1,3.0255E1,-6.75E0,-4.7063828E-3,-3.9019816E-2,-1.4517975E-2,4.1703703E-3,-9.999387E-5,6.255486E-3,-9.187861E-2,-3.1131986E-3],"split_indices":[4,3,0,1,1,2,3,0,0,0,0,0,0,0,0],"split_type":[0,0,0,0,0,0,0,0,0,0,0,0,0,0,0],"sum_hessian":[5.74E3,1.2E1,5.728E3,7E0,5E0,5.702E3,2.6E1,1E0,6E0,4E0,1E0,5.488E3,2.14E2,3E0,2.3E1],"tree_param":{"num_deleted":"0","num_feature":"5","num_nodes":"15","size_leaf_vector":"1"}},{"base_weights":[-2.2660271E-5,2.5060631E-2,-5.9455883E-4,-1.6673E-2,8.637658E-2,-7.668962E-2,-3.360884E-4,5.4709287E-3,-5.2520413E-2,7.4592005E-3,1.132522E-1,-9.095192E-2,-9.663239E-3,8.102911E-4,-1.8736165E-3],"categories":[],"categories_nodes":[],"categories_segments":[],"categories_sizes":[],"default_left":[0,0,0,0,0,0,0,0,0,0,0,0,0,0,0],"id":46,"left_children":[1,3,5,7,9,11,13,-1,-1,-1,-1,-1,-1,-1,-1],"loss_changes":[8.237011E-2,3.289841E-1,1.10392205E-1,4.289626E-1,9.218401E-1,1.8163519E-1,1.0044767E-1,0E0,0E0,0E0,0E0,0E0,0E0,0E0,0E0],"parents":[2147483647,0,0,1,1,2,2,3,3,4,4,5,5,6,6],"right_children":[2,4,6,8,10,12,14,-1,-1,-1,-1,-1,-1,-1,-1],"split_conditions":[2.895E1,-4.499513E0,-3.8888888E0,-5.9166555E0,1.93E1,-2.9583278E0,2.54E1,5.4709287E-3,-5.2520413E-2,7.4592005E-3,1.132522E-1,-9.095192E-2,-9.663239E-3,8.102911E-4,-1.8736165E-3],"split_indices":[2,3,1,3,4,3,0,0,0,0,0,0,0,0,0],"split_type":[0,0,0,0,0,0,0,0,0,0,0,0,0,0,0],"sum_hessian":[5.74E3,1.27E2,5.613E3,7.6E1,5.1E1,1.8E1,5.595E3,6.3E1,1.3E1,4.3E1,8E0,2E0,1.6E1,3.696E3,1.899E3],"tree_param":{"num_deleted":"0","num_feature":"5","num_nodes":"15","size_leaf_vector":"1"}},{"base_weights":[-2.1134825E-5,4.8187193E-3,-2.360413E-3,1.3089018E-2,-1.103375E-2,-2.8019119E-2,2.2252856E-3,2.4048076E-3,2.3410762E-2,-2.370282E-3,-1.22572064E-1,-3.4700336E-3,-2.907877E-2,1.5846434E-1,5.712821E-4],"categories":[],"categories_nodes":[],"categories_segments":[],"categories_sizes":[],"default_left":[0,0,0,0,0,0,0,0,0,0,0,0,0,0,0],"id":47,"left_children":[1,3,5,7,9,11,13,-1,-1,-1,-1,-1,-1,-1,-1],"loss_changes":[6.500964E-2,2.4544123E-1,4.555362E-1,4.0462866E-1,7.9632926E-1,6.6437995E-1,5.5366266E-1,0E0,0E0,0E0,0E0,0E0,0E0,0E0,0E0],"parents":[2147483647,0,0,1,1,2,2,3,3,4,4,5,5,6,6],"right_children":[2,4,6,8,10,12,14,-1,-1,-1,-1,-1,-1,-1,-1],"split_conditions":[2.953E1,-2.7554554E-15,2.9635E1,2.04E1,2.13E1,1.85E1,2.965E1,2.4048076E-3,2.3410762E-2,-2.370282E-3,-1.22572064E-1,-3.4700336E-3,-2.907877E-2,1.5846434E-1,5.712821E-4],"split_indices":[2,3,2,4,4,4,2,0,0,0,0,0,0,0,0],"split_type":[0,0,0,0,0,0,0,0,0,0,0,0,0,0,0],"sum_hessian":[5.74E3,1.87E3,3.87E3,1.229E3,6.41E2,5.86E2,3.284E3,1.141E3,8.8E1,6.37E2,4E0,4.74E2,1.12E2,1E0,3.283E3],"tree_param":{"num_deleted":"0","num_feature":"5","num_nodes":"15","size_leaf_vector":"1"}},{"base_weights":[-1.0546731E-5,-3.1489044E-2,3.7794153E-4,5.4298945E-2,-6.689022E-2,6.762401E-2,-4.3795686E-4,-6.4207716E-3,1.1441431E-1,-7.498465E-3,-3.854505E-2,-1.3249268E-2,4.711203E-2,-4.848173E-3,2.2715007E-4],"categories":[],"categories_nodes":[],"categories_segments":[],"categories_sizes":[],"default_left":[0,0,0,0,0,0,0,0,0,0,0,0,0,0,0],"id":48,"left_children":[1,3,5,7,9,11,13,-1,-1,-1,-1,-1,-1,-1,-1],"loss_changes":[7.021875E-2,2.1622178E-1,3.1122932E-1,5.281354E-1,1.258121E-1,6.8664086E-1,1.05332844E-1,0E0,0E0,0E0,0E0,0E0,0E0,0E0,0E0],"parents":[2147483647,0,0,1,1,2,2,3,3,4,4,5,5,6,6],"right_children":[2,4,6,8,10,12,14,-1,-1,-1,-1,-1,-1,-1,-1],"split_conditions":[-1.9918585E1,2.9015E1,-1.7320509E1,3.09E1,2.54E1,2.9375E1,-1.125833E1,-6.4207716E-3,1.1441431E-1,-7.498465E-3,-3.854505E-2,-1.3249268E-2,4.711203E-2,-4.848173E-3,2.2715007E-4],"split_indices":[3,2,3,0,0,2,3,0,0,0,0,0,0,0,0],"split_type":[0,0,0,0,0,0,0,0,0,0,0,0,0,0,0],"sum_hessian":[5.74E3,6.9E1,5.671E3,2E1,4.9E1,6.7E1,5.604E3,1.7E1,3E0,3E1,1.9E1,3E1,3.7E1,3.95E2,5.209E3],"tree_param":{"num_deleted":"0","num_feature":"5","num_nodes":"15","size_leaf_vector":"1"}},{"base_weights":[8.677589E-6,-2.1387364E-3,5.244762E-3,8.905326E-4,-5.6754675E-2,3.2762926E-2,-7.053608E-3,-6.236909E-4,2.8029779E-2,2.4605341E-2,-2.5868097E-2,6.648571E-3,3.532208E-2,-1.2001122E-2,6.433107E-3],"categories":[],"categories_nodes":[],"categories_segments":[],"categories_sizes":[],"default_left":[0,0,0,0,0,0,0,0,0,0,0,0,0,0,0],"id":49,"left_children":[1,3,5,7,9,11,13,-1,-1,-1,-1,-1,-1,-1,-1],"loss_changes":[6.456326E-2,6.737482E-1,5.654068E-1,1.0606623E0,8.8232064E-1,4.6222758E-1,1.0853909E0,0E0,0E0,0E0,0E0,0E0,0E0,0E0,0E0],"parents":[2147483647,0,0,1,1,2,2,3,3,4,4,5,5,6,6],"right_children":[2,4,6,8,10,12,14,-1,-1,-1,-1,-1,-1,-1,-1],"split_conditions":[1.86E1,5.27E1,2.41E1,4.44E1,1.68E1,1.97E1,5.09E1,-6.236909E-4,2.8029779E-2,2.4605341E-2,-2.5868097E-2,6.648571E-3,3.532208E-2,-1.2001122E-2,6.433107E-3],"split_indices":[4,0,0,0,4,4,0,0,0,0,0,0,0,0,0],"split_type":[0,0,0,0,0,0,0,0,0,0,0,0,0,0,0],"sum_hessian":[5.74E3,4.071E3,1.669E3,3.858E3,2.13E2,5.15E2,1.154E3,3.739E3,1.19E2,3.7E1,1.76E2,4.59E2,5.6E1,5.35E2,6.19E2],"tree_param":{"num_deleted":"0","num_feature":"5","num_nodes":"15","size_leaf_vector":"1"}}]},"name":"gbtree"},"learner_model_param":{"base_score":"1.7574007E1","boost_from_average":"1","num_class":"0","num_feature":"5","num_target":"1"},"objective":{"name":"reg:squarederror","reg_loss_param":{"scale_pos_weight":"1"}}},"version":[2,0,3]}