{"learner":{"attributes":{"scikit_learn":"{\"_estimator_type\": \"regressor\"}"},"feature_names":[],"feature_types":[],"gradient_booster":{"model":{"gbtree_model_param":{"num_parallel_tree":"1","num_trees":"50"},"iteration_indptr":[0,1,2,3,4,5,6,7,8,9,10,11,12,13,14,15,16,17,18,19,20,21,22,23,24,25,26,27,28,29,30,31,32,33,34,35,36,37,38,39,40,41,42,43,44,45,46,47,48,49,50],"tree_info":[0,0,0,0,0,0,0,0,0,0,0,0,0,0,0,0,0,0,0,0,0,0,0,0,0,0,0,0,0,0,0,0,0,0,0,0,0,0,0,0,0,0,0,0,0,0,0,0,0,0],"trees":[{"base_weights":[6.7687516E-8,-1.0752085E0,1.3121722E0,-6.0654014E-1,-4.151779E0,7.6942307E-1,1.7627721E0,-6.269645E-1,4.9766563E-2,-1.0440652E-2,-1.4441121E0,7.3885655E-1,-2.7184302E-2,2.958084E-1,8.425165E-1],"categories":[],"categories_nodes":[],"categories_segments":[],"categories_sizes":[],"default_left":[0,0,0,0,0,0,0,0,0,0,0,0,0,0,0],"id":0,"left_children":[1,3,5,7,9,11,13,-1,-1,-1,-1,-1,-1,-1,-1],"loss_changes":[3.2266338E3,1.809939E3,2.5054333E2,1.2515334E3,4.5220605E2,6.832817E2,4.5367383E2,0E0,0E0,0E0,0E0,0E0,0E0,0E0,0E0],"parents":[2147483647,0,0,1,1,2,2,3,3,4,4,5,5,6,6],"right_children":[2,4,6,8,10,12,14,-1,-1,-1,-1,-1,-1,-1,-1],"split_conditions":[2.9755E1,1.6666666E1,2.989E1,2.9405E1,2.9345E1,1.1944445E1,1.25E1,-6.269645E-1,4.9766563E-2,-1.0440652E-2,-1.4441121E0,7.3885655E-1,-2.7184302E-2,2.958084E-1,8.425165E-1],"split_indices":[2,1,2,2,2,1,1,0,0,0,0,0,0,0,0],"split_type":[0,0,0,0,0,0,0,0,0,0,0,0,0,0,0],"sum_hessian":[2.285E3,1.256E3,1.029E3,1.091E3,1.65E2,4.68E2,5.61E2,3.73E2,7.18E2,2.3E1,1.42E2,1.57E2,3.11E2,3.23E2,2.38E2],"tree_param":{"num_deleted":"0","num_feature":"3","num_nodes":"15","size_leaf_vector":"1"}},{"base_weights":[-7.942118E-5,-6.7786664E-1,1.0638181E0,-3.394787E-1,-2.9208362E0,1.1908458E0,-1.1892697E0,-4.290084E-1,5.3336117E-2,-7.4389745E-3,-1.0010961E0,4.1045263E-1,1.02581255E-1,5.8257574E-1,-6.860825E-1],"categories":[],"categories_nodes":[],"categories_segments":[],"categories_sizes":[],"default_left":[0,0,0,0,0,0,0,0,0,0,0,0,0,0,0],"id":1,"left_children":[1,3,5,7,9,11,13,-1,-1,-1,-1,-1,-1,-1,-1],"loss_changes":[1.649147E3,1.0593229E3,2.5613837E2,6.856404E2,2.204668E2,1.2643445E2,1.6941788E2,0E0,0E0,0E0,0E0,0E0,0E0,0E0,0E0],"parents":[2147483647,0,0,1,1,2,2,3,3,4,4,5,5,6,6],"right_children":[2,4,6,8,10,12,14,-1,-1,-1,-1,-1,-1,-1,-1],"split_conditions":[2.98E1,1.6666666E1,1.58E3,2.942E1,2.9345E1,3.006E1,5.5555553E0,-4.290084E-1,5.3336117E-2,-7.4389745E-3,-1.0010961E0,4.1045263E-1,1.02581255E-1,5.8257574E-1,-6.860825E-1],"split_indices":[2,1,0,2,2,2,1,0,0,0,0,0,0,0,0],"split_type":[0,0,0,0,0,0,0,0,0,0,0,0,0,0,0],"sum_hessian":[2.285E3,1.396E3,8.89E2,1.214E3,1.82E2,8.42E2,4.7E1,3.9E2,8.24E2,2.3E1,1.59E2,6.96E2,1.46E2,1.2E1,3.5E1],"tree_param":{"num_deleted":"0","num_feature":"3","num_nodes":"15","size_leaf_vector":"1"}},{"base_weights":[-4.8196508E-4,-4.7549745E-1,7.451328E-1,2.372535E0,-6.687743E-1,9.121475E-1,-3.5526973E-1,2.332515E-1,8.056035E-1,-1.3900326E-1,-6.9440603E-1,1.7140561E-1,3.8282406E-1,7.7269447E-1,-2.0419517E-1],"categories":[],"categories_nodes":[],"categories_segments":[],"categories_sizes":[],"default_left":[0,0,0,0,0,0,0,0,0,0,0,0,0,0,0],"id":2,"left_children":[1,3,5,7,9,11,13,-1,-1,-1,-1,-1,-1,-1,-1],"loss_changes":[8.100065E2,7.7057764E2,1.6389133E2,4.2317932E1,4.415266E2,9.514343E1,1.1428551E2,0E0,0E0,0E0,0E0,0E0,0E0,0E0,0E0],"parents":[2147483647,0,0,1,1,2,2,3,3,4,4,5,5,6,6],"right_children":[2,4,6,8,10,12,14,-1,-1,-1,-1,-1,-1,-1,-1],"split_conditions":[2.98E1,2.5E0,6.32E2,2.8875E1,1.6944445E1,2.994E1,2.7777777E0,2.332515E-1,8.056035E-1,-1.3900326E-1,-6.9440603E-1,1.7140561E-1,3.8282406E-1,7.7269447E-1,-2.0419517E-1],"split_indices":[2,1,0,2,1,2,1,0,0,0,0,0,0,0,0],"split_type":[0,0,0,0,0,0,0,0,0,0,0,0,0,0,0],"sum_hessian":[2.285E3,1.396E3,8.89E2,8.8E1,1.308E3,7.72E2,1.17E2,1.5E1,7.3E1,1.164E3,1.44E2,4E2,3.72E2,1.1E1,1.06E2],"tree_param":{"num_deleted":"0","num_feature":"3","num_nodes":"15","size_leaf_vector":"1"}},{"base_weights":[2.4368786E-4,-7.3348355E-1,3.1528768E-1,5.7230437E-1,-1.6278148E0,3.9673567E-1,-1.4442998E0,7.19902E-1,6.6432126E-2,-1.180104E0,-3.053571E-1,1.783711E-1,-1.2091999E-1,2.8428316E-1,-7.202653E-1],"categories":[],"categories_nodes":[],"categories_segments":[],"categories_sizes":[],"default_left":[0,0,0,0,0,0,0,0,0,0,0,0,0,0,0],"id":3,"left_children":[1,3,5,7,9,11,13,-1,-1,-1,-1,-1,-1,-1,-1],"loss_changes":[5.286547E2,8.032151E2,2.2987677E2,1.789928E2,5.698401E2,2.4232948E2,1.6472769E2,0E0,0E0,0E0,0E0,0E0,0E0,0E0,0E0],"parents":[2147483647,0,0,1,1,2,2,3,3,4,4,5,5,6,6],"right_children":[2,4,6,8,10,12,14,-1,-1,-1,-1,-1,-1,-1,-1],"split_conditions":[2.959E1,1.2222222E1,1.58E3,1.1111112E0,2.9255E1,1.611111E1,7.5E0,7.19902E-1,6.6432126E-2,-1.180104E0,-3.053571E-1,1.783711E-1,-1.2091999E-1,2.8428316E-1,-7.202653E-1],"split_indices":[2,1,0,1,2,1,1,0,0,0,0,0,0,0,0],"split_type":[0,0,0,0,0,0,0,0,0,0,0,0,0,0,0],"sum_hessian":[2.285E3,6.86E2,1.599E3,2.79E2,4.07E2,1.529E3,7E1,4.4E1,2.35E2,8.4E1,3.23E2,1.226E3,3.03E2,2E1,5E1],"tree_param":{"num_deleted":"0","num_feature":"3","num_nodes":"15","size_leaf_vector":"1"}},{"base_weights":[-3.0088145E-4,-7.49695E-1,1.6485392E-1,5.983535E-1,-1.8787237E0,2.8494564E-1,-8.142586E-1,6.018213E-1,9.920005E-2,-8.424391E-1,-1.9369037E-1,1.3567123E-1,-1.1718676E-1,-9.653851E-1,-5.2548155E-2],"categories":[],"categories_nodes":[],"categories_segments":[],"categories_sizes":[],"default_left":[0,0,0,0,0,0,0,0,0,0,0,0,0,0,0],"id":4,"left_children":[1,3,5,7,9,11,13,-1,-1,-1,-1,-1,-1,-1,-1],"loss_changes":[2.8305273E2,6.2970416E2,2.2058316E2,7.055701E1,2.560462E2,1.8891507E2,3.1435626E2,0E0,0E0,0E0,0E0,0E0,0E0,0E0,0E0],"parents":[2147483647,0,0,1,1,2,2,3,3,4,4,5,5,6,6],"right_children":[2,4,6,8,10,12,14,-1,-1,-1,-1,-1,-1,-1,-1],"split_conditions":[2.9405E1,1.2222222E1,6.32E2,1.1111112E0,1.4444445E1,1.611111E1,2.965E1,6.018213E-1,9.920005E-2,-8.424391E-1,-1.9369037E-1,1.3567123E-1,-1.1718676E-1,-9.653851E-1,-5.2548155E-2],"split_indices":[2,1,0,1,1,1,2,0,0,0,0,0,0,0,0],"split_type":[0,0,0,0,0,0,0,0,0,0,0,0,0,0,0],"sum_hessian":[2.285E3,4.12E2,1.873E3,1.88E2,2.24E2,1.669E3,2.04E2,2.9E1,1.59E2,1.27E2,9.7E1,1.338E3,3.31E2,4.2E1,1.62E2],"tree_param":{"num_deleted":"0","num_feature":"3","num_nodes":"15","size_leaf_vector":"1"}},{"base_weights":[-7.943998E-4,-1.6731404E-1,5.1032156E-1,1.1577816E-2,-1.0002255E0,-1.7015899E-2,1.5511358E0,-2.4040449E-1,5.5492103E-2,4.3298015E-1,-3.757295E-1,5.726318E-1,-5.8989506E-2,4.057258E-1,1.1298261E0],"categories":[],"categories_nodes":[],"categories_segments":[],"categories_sizes":[],"default_left":[0,0,0,0,0,0,0,0,0,0,0,0,0,0,0],"id":5,"left_children":[1,3,5,7,9,11,13,-1,-1,-1,-1,-1,-1,-1,-1],"loss_changes":[1.9464879E2,2.5703848E2,3.084859E2,2.0044957E2,1.8976794E2,1.2974268E2,7.809454E1,0E0,0E0,0E0,0E0,0E0,0E0,0E0,0E0],"parents":[2147483647,0,0,1,1,2,2,3,3,4,4,5,5,6,6],"right_children":[2,4,6,8,10,12,14,-1,-1,-1,-1,-1,-1,-1,-1],"split_conditions":[2.989E1,1.611111E1,1.3333333E1,2.933E1,2.9345E1,3.3333333E0,1.888889E1,-2.4040449E-1,5.5492103E-2,4.3298015E-1,-3.757295E-1,5.726318E-1,-5.8989506E-2,4.057258E-1,1.1298261E0],"split_indices":[2,1,1,2,2,1,1,0,0,0,0,0,0,0,0],"split_type":[0,0,0,0,0,0,0,0,0,0,0,0,0,0,0],"sum_hessian":[2.285E3,1.724E3,5.61E2,1.42E3,3.04E2,3.73E2,1.88E2,2.49E2,1.171E3,2.8E1,2.76E2,3.1E1,3.42E2,1.74E2,1.4E1],"tree_param":{"num_deleted":"0","num_feature":"3","num_nodes":"15","size_leaf_vector":"1"}},{"base_weights":[2.845057E-4,1.0112969E0,-7.1187004E-2,7.1296567E-1,1.4773629E0,-3.0482616E-2,-1.8411928E0,3.813171E-1,-7.923982E-2,1.9679181E-1,7.8410006E-1,-3.0160376E-1,1.47774005E-2,-7.9708934E-2,-7.446336E-1],"categories":[],"categories_nodes":[],"categories_segments":[],"categories_sizes":[],"default_left":[0,0,0,0,0,0,0,0,0,0,0,0,0,0,0],"id":6,"left_children":[1,3,5,7,9,11,13,-1,-1,-1,-1,-1,-1,-1,-1],"loss_changes":[1.6525511E2,1.9942032E1,1.5383626E2,5.159488E1,5.241974E1,1.6244044E2,4.7809265E1,0E0,0E0,0E0,0E0,0E0,0E0,0E0,0E0],"parents":[2147483647,0,0,1,1,2,2,3,3,4,4,5,5,6,6],"right_children":[2,4,6,8,10,12,14,-1,-1,-1,-1,-1,-1,-1,-1],"split_conditions":[3.3333333E0,1.6666666E0,1.896E3,2.968E1,2.9725E1,2.9255E1,8.055555E0,3.813171E-1,-7.923982E-2,1.9679181E-1,7.8410006E-1,-3.0160376E-1,1.47774005E-2,-7.9708934E-2,-7.446336E-1],"split_indices":[1,1,0,2,2,2,1,0,0,0,0,0,0,0,0],"split_type":[0,0,0,0,0,0,0,0,0,0,0,0,0,0,0],"sum_hessian":[2.285E3,1.5E2,2.135E3,9.3E1,5.7E1,2.088E3,4.7E1,5.9E1,3.4E1,3.4E1,2.3E1,1.57E2,1.931E3,1.4E1,3.3E1],"tree_param":{"num_deleted":"0","num_feature":"3","num_nodes":"15","size_leaf_vector":"1"}},{"base_weights":[2.7431798E-4,9.895935E-1,-4.9714375E-2,-1.4158942E-1,1.6903474E0,-2.0110047E0,3.5828095E-2,2.2091477E-1,-1.2224295E0,8.042554E-1,2.6087519E-2,-1.2254474E-1,-1.3690108E0,3.3054225E-2,-1.6024558E-1],"categories":[],"categories_nodes":[],"categories_segments":[],"categories_sizes":[],"default_left":[0,0,0,0,0,0,0,0,0,0,0,0,0,0,0],"id":7,"left_children":[1,3,5,7,9,11,13,-1,-1,-1,-1,-1,-1,-1,-1],"loss_changes":[1.13102806E2,8.743424E1,3.6531525E2,1.5148894E2,1.0776196E2,3.7034604E2,8.850493E1,0E0,0E0,0E0,0E0,0E0,0E0,0E0,0E0],"parents":[2147483647,0,0,1,1,2,2,3,3,4,4,5,5,6,6],"right_children":[2,4,6,8,10,12,14,-1,-1,-1,-1,-1,-1,-1,-1],"split_conditions":[2.9135E1,5.5555553E0,2.9255E1,3.8888888E0,1.3055555E1,1.2777778E1,6.32E2,2.2091477E-1,-1.2224295E0,8.042554E-1,2.6087519E-2,-1.2254474E-1,-1.3690108E0,3.3054225E-2,-1.6024558E-1],"split_indices":[2,1,2,1,1,1,0,0,0,0,0,0,0,0,0],"split_type":[0,0,0,0,0,0,0,0,0,0,0,0,0,0,0],"sum_hessian":[2.285E3,1.09E2,2.176E3,4.2E1,6.7E1,9E1,2.086E3,3.5E1,7E0,4.1E1,2.6E1,5.6E1,3.4E1,1.846E3,2.4E2],"tree_param":{"num_deleted":"0","num_feature":"3","num_nodes":"15","size_leaf_vector":"1"}},{"base_weights":[-5.9091626E-4,-1.6733047E-1,2.6113465E-1,6.8342763E-1,-2.4854141E-1,4.3760043E-1,-5.1114744E-1,1.4763115E-1,1.1268911E0,-5.200375E-1,-4.5124117E-2,3.8193963E-2,2.9368365E-1,1.9103216E-2,-2.5900728E-1],"categories":[],"categories_nodes":[],"categories_segments":[],"categories_sizes":[],"default_left":[0,0,0,0,0,0,0,0,0,0,0,0,0,0,0],"id":8,"left_children":[1,3,5,7,9,11,13,-1,-1,-1,-1,-1,-1,-1,-1],"loss_changes":[9.980474E1,9.6689804E1,1.21514084E2,6.987705E1,1.8566708E2,1.2165541E2,3.3663185E1,0E0,0E0,0E0,0E0,0E0,0E0,0E0,0E0],"parents":[2147483647,0,0,1,1,2,2,3,3,4,4,5,5,6,6],"right_children":[2,4,6,8,10,12,14,-1,-1,-1,-1,-1,-1,-1,-1],"split_conditions":[2.98E1,2.9165E1,3.006E1,1.5555555E1,2.9255E1,2.994E1,6.9444447E0,1.4763115E-1,1.1268911E0,-5.200375E-1,-4.5124117E-2,3.8193963E-2,2.9368365E-1,1.9103216E-2,-2.5900728E-1],"split_indices":[2,2,2,1,2,2,1,0,0,0,0,0,0,0,0],"split_type":[0,0,0,0,0,0,0,0,0,0,0,0,0,0,0],"sum_hessian":[2.285E3,1.396E3,8.89E2,1.21E2,1.275E3,7.24E2,1.65E2,1.15E2,6E0,7.8E1,1.197E3,4.61E2,2.63E2,6.3E1,1.02E2],"tree_param":{"num_deleted":"0","num_feature":"3","num_nodes":"15","size_leaf_vector":"1"}},{"base_weights":[-6.313243E-5,-2.931323E-2,1.3085876E0,5.015477E-2,-8.956967E-1,-4.5619125E0,2.7085001E0,-2.9501503E-2,1.1169289E-1,-5.532419E-1,-5.7412315E-2,1.767633E-1,-1.7770034E0,2.008088E0,3.6211556E-1],"categories":[],"categories_nodes":[],"categories_segments":[],"categories_sizes":[],"default_left":[0,0,0,0,0,0,0,0,0,0,0,0,0,0,0],"id":9,"left_children":[1,3,5,7,9,11,13,-1,-1,-1,-1,-1,-1,-1,-1],"loss_changes":[8.7542244E1,1.5406186E2,4.2326532E2,9.810406E1,1.25232864E2,7.361914E1,2.3724237E2,0E0,0E0,0E0,0E0,0E0,0E0,0E0,0E0],"parents":[2147483647,0,0,1,1,2,2,3,3,4,4,5,5,6,6],"right_children":[2,4,6,8,10,12,14,-1,-1,-1,-1,-1,-1,-1,-1],"split_conditions":[1.888889E1,1.7222221E1,2.9515E1,1.3888889E1,2.971E1,2.9285E1,2.968E1,-2.9501503E-2,1.1169289E-1,-5.532419E-1,-5.7412315E-2,1.767633E-1,-1.7770034E0,2.008088E0,3.6211556E-1],"split_indices":[1,1,2,1,2,2,2,0,0,0,0,0,0,0,0],"split_type":[0,0,0,0,0,0,0,0,0,0,0,0,0,0,0],"sum_hessian":[2.285E3,2.236E3,4.9E1,2.049E3,1.87E2,9E0,4E1,1.403E3,6.46E2,7.9E1,1.08E2,2E0,7E0,1E1,3E1],"tree_param":{"num_deleted":"0","num_feature":"3","num_nodes":"15","size_leaf_vector":"1"}},{"base_weights":[6.1412626E-5,5.3863704E-1,-6.902084E-2,-7.253949E-2,7.7761257E-1,8.8115853E-1,-1.0699262E-1,2.2138904E-1,-3.8576278E-1,3.2345748E-1,-2.0261284E-2,-2.282695E-1,4.6195194E-1,-4.593648E-1,-1.6415788E-2],"categories":[],"categories_nodes":[],"categories_segments":[],"categories_sizes":[],"default_left":[0,0,0,0,0,0,0,0,0,0,0,0,0,0,0],"id":10,"left_children":[1,3,5,7,9,11,13,-1,-1,-1,-1,-1,-1,-1,-1],"loss_changes":[8.509013E1,3.8031036E1,7.322844E1,7.372146E1,4.757724E1,8.553584E1,1.4509155E2,0E0,0E0,0E0,0E0,0E0,0E0,0E0,0E0],"parents":[2147483647,0,0,1,1,2,2,3,3,4,4,5,5,6,6],"right_children":[2,4,6,8,10,12,14,-1,-1,-1,-1,-1,-1,-1,-1],"split_conditions":[7.2222223E0,2.9405E1,2.9165E1,2.5E0,3.012E1,2.9E1,2.9255E1,2.2138904E-1,-3.8576278E-1,3.2345748E-1,-2.0261284E-2,-2.282695E-1,4.6195194E-1,-4.593648E-1,-1.6415788E-2],"split_indices":[1,2,2,1,2,2,2,0,0,0,0,0,0,0,0],"split_type":[0,0,0,0,0,0,0,0,0,0,0,0,0,0,0],"sum_hessian":[2.285E3,2.59E2,2.026E3,7.3E1,1.86E2,7.7E1,1.949E3,4.4E1,2.9E1,1.37E2,4.9E1,2.2E1,5.5E1,6.8E1,1.881E3],"tree_param":{"num_deleted":"0","num_feature":"3","num_nodes":"15","size_leaf_vector":"1"}},{"base_weights":[-2.194838E-6,-2.1378124E-2,9.5635694E-1,5.7515718E-2,-4.342476E-1,-3.2942939E0,1.9697753E0,-2.426536E-2,1.3968524E-1,7.4977994E-1,-1.7892754E-1,1.8898866E-1,-1.306231E0,1.4649048E0,2.6175115E-1],"categories":[],"categories_nodes":[],"categories_segments":[],"categories_sizes":[],"default_left":[0,0,0,0,0,0,0,0,0,0,0,0,0,0,0],"id":11,"left_children":[1,3,5,7,9,11,13,-1,-1,-1,-1,-1,-1,-1,-1],"loss_changes":[4.6753296E1,7.289047E1,2.2187338E2,1.06166176E2,1.7228484E2,4.4332542E1,1.2680081E2,0E0,0E0,0E0,0E0,0E0,0E0,0E0,0E0],"parents":[2147483647,0,0,1,1,2,2,3,3,4,4,5,5,6,6],"right_children":[2,4,6,8,10,12,14,-1,-1,-1,-1,-1,-1,-1,-1],"split_conditions":[1.888889E1,1.611111E1,2.9515E1,1.3888889E1,2.933E1,2.9285E1,2.968E1,-2.426536E-2,1.3968524E-1,7.4977994E-1,-1.7892754E-1,1.8898866E-1,-1.306231E0,1.4649048E0,2.6175115E-1],"split_indices":[1,1,2,1,2,2,2,0,0,0,0,0,0,0,0],"split_type":[0,0,0,0,0,0,0,0,0,0,0,0,0,0,0],"sum_hessian":[2.285E3,2.236E3,4.9E1,1.878E3,3.58E2,9E0,4E1,1.403E3,4.75E2,1.8E1,3.4E2,2E0,7E0,1E1,3E1],"tree_param":{"num_deleted":"0","num_feature":"3","num_nodes":"15","size_leaf_vector":"1"}},{"base_weights":[5.6524144E-4,4.0175185E-1,-5.0894592E-2,-2.891275E-1,5.361833E-1,-2.339598E-2,-1.38233E0,7.971116E-2,-8.2491827E-1,2.2096337E-1,1.2766668E-2,-3.1109901E-2,1.1273437E-1,-6.2790823E-1,-3.2757188E-3],"categories":[],"categories_nodes":[],"categories_segments":[],"categories_sizes":[],"default_left":[0,0,0,0,0,0,0,0,0,0,0,0,0,0,0],"id":12,"left_children":[1,3,5,7,9,11,13,-1,-1,-1,-1,-1,-1,-1,-1],"loss_changes":[4.7214912E1,2.4302761E1,7.418145E1,5.9434986E1,2.1529705E1,6.373305E1,3.9938126E1,0E0,0E0,0E0,0E0,0E0,0E0,0E0,0E0],"parents":[2147483647,0,0,1,1,2,2,3,3,4,4,5,5,6,6],"right_children":[2,4,6,8,10,12,14,-1,-1,-1,-1,-1,-1,-1,-1],"split_conditions":[7.2222223E0,2.9135E1,1.896E3,3.8888888E0,3.0045E1,2.994E1,1.3611111E1,7.971116E-2,-8.2491827E-1,2.2096337E-1,1.2766668E-2,-3.1109901E-2,1.1273437E-1,-6.2790823E-1,-3.2757188E-3],"split_indices":[1,2,0,1,2,2,1,0,0,0,0,0,0,0,0],"split_type":[0,0,0,0,0,0,0,0,0,0,0,0,0,0,0],"sum_hessian":[2.285E3,2.59E2,2.026E3,4.2E1,2.17E2,1.986E3,4E1,3.5E1,7E0,1.54E2,6.3E1,1.654E3,3.32E2,2.6E1,1.4E1],"tree_param":{"num_deleted":"0","num_feature":"3","num_nodes":"15","size_leaf_vector":"1"}},{"base_weights":[-6.854064E-5,-1.1077286E-1,1.3503379E-1,5.4586112E-2,-8.339217E-1,2.2411115E-1,-4.521667E-1,-3.7191916E-2,2.819393E-1,-3.209688E-1,2.4191006E-1,-6.9744956E-1,7.75376E-2,-2.3810853E-1,8.3992995E-2],"categories":[],"categories_nodes":[],"categories_segments":[],"categories_sizes":[],"default_left":[0,0,0,0,0,0,0,0,0,0,0,0,0,0,0],"id":13,"left_children":[1,3,5,7,9,11,13,-1,-1,-1,-1,-1,-1,-1,-1],"loss_changes":[3.4205315E1,1.5035652E2,5.397679E1,1.6197263E2,9.143614E1,7.895799E1,3.422871E1,0E0,0E0,0E0,0E0,0E0,0E0,0E0,0E0],"parents":[2147483647,0,0,1,1,2,2,3,3,4,4,5,5,6,6],"right_children":[2,4,6,8,10,12,14,-1,-1,-1,-1,-1,-1,-1,-1],"split_conditions":[2.9755E1,2.9695E1,3.0075E1,2.965E1,1.6944445E1,5.555556E-1,8.888889E0,-3.7191916E-2,2.819393E-1,-3.209688E-1,2.4191006E-1,-6.9744956E-1,7.75376E-2,-2.3810853E-1,8.3992995E-2],"split_indices":[2,2,2,2,1,1,1,0,0,0,0,0,0,0,0],"split_type":[0,0,0,0,0,0,0,0,0,0,0,0,0,0,0],"sum_hessian":[2.285E3,1.256E3,1.029E3,1.023E3,2.33E2,8.94E2,1.35E2,8.52E2,1.71E2,2.04E2,2.9E1,1.1E1,8.83E2,9.2E1,4.3E1],"tree_param":{"num_deleted":"0","num_feature":"3","num_nodes":"15","size_leaf_vector":"1"}},{"base_weights":[-3.1407355E-4,1.8165356E-1,-1.1817329E-1,7.8476375E-1,3.3752926E-2,-8.4520864E-1,2.8468076E-2,-8.201485E-3,4.1883633E-1,-1.5218584E-1,7.2486356E-2,-4.344532E-1,-1.2849621E-2,1.2551007E-1,-5.9383944E-2],"categories":[],"categories_nodes":[],"categories_segments":[],"categories_sizes":[],"default_left":[0,0,0,0,0,0,0,0,0,0,0,0,0,0,0],"id":14,"left_children":[1,3,5,7,9,11,13,-1,-1,-1,-1,-1,-1,-1,-1],"loss_changes":[4.9048306E1,8.016465E1,1.4800354E2,8.7915924E1,8.143465E1,1.1266524E2,1.0213306E2,0E0,0E0,0E0,0E0,0E0,0E0,0E0,0E0],"parents":[2147483647,0,0,1,1,2,2,3,3,4,4,5,5,6,6],"right_children":[2,4,6,8,10,12,14,-1,-1,-1,-1,-1,-1,-1,-1],"split_conditions":[1.2222222E1,2.939E1,2.942E1,7.7777777E0,2.971E1,1.4444445E1,2.9695E1,-8.201485E-3,4.1883633E-1,-1.5218584E-1,7.2486356E-2,-4.344532E-1,-1.2849621E-2,1.2551007E-1,-5.9383944E-2],"split_indices":[1,2,2,1,2,1,2,0,0,0,0,0,0,0,0],"split_type":[0,0,0,0,0,0,0,0,0,0,0,0,0,0,0],"sum_hessian":[2.285E3,8.98E2,1.387E3,1.76E2,7.22E2,2.32E2,1.155E3,7.6E1,1E2,2E2,5.22E2,1.32E2,1E2,4.24E2,7.31E2],"tree_param":{"num_deleted":"0","num_feature":"3","num_nodes":"15","size_leaf_vector":"1"}},{"base_weights":[-2.4184248E-4,3.6418423E-1,-4.6986066E-2,-3.0678533E-2,5.184926E-1,-1.6723515E-2,-7.929953E-1,2.579961E-1,-1.8713215E-1,-1.7954873E-2,2.1559153E-1,-2.6253043E-2,1.260087E-1,-5.7413614E-1,4.261167E-2],"categories":[],"categories_nodes":[],"categories_segments":[],"categories_sizes":[],"default_left":[0,0,0,0,0,0,0,0,0,0,0,0,0,0,0],"id":15,"left_children":[1,3,5,7,9,11,13,-1,-1,-1,-1,-1,-1,-1,-1],"loss_changes":[3.8958694E1,1.5857868E1,4.5748577E1,3.96269E1,2.1688782E1,6.0292496E1,8.306214E1,0E0,0E0,0E0,0E0,0E0,0E0,0E0,0E0],"parents":[2147483647,0,0,1,1,2,2,3,3,4,4,5,5,6,6],"right_children":[2,4,6,8,10,12,14,-1,-1,-1,-1,-1,-1,-1,-1],"split_conditions":[7.2222223E0,2.9405E1,3.0075E1,1.1111112E0,1.1111112E0,2.994E1,8.888889E0,2.579961E-1,-1.8713215E-1,-1.7954873E-2,2.1559153E-1,-2.6253043E-2,1.260087E-1,-5.7413614E-1,4.261167E-2],"split_indices":[1,2,2,1,1,2,1,0,0,0,0,0,0,0,0],"split_type":[0,0,0,0,0,0,0,0,0,0,0,0,0,0,0],"sum_hessian":[2.285E3,2.59E2,2.026E3,7.3E1,1.86E2,1.948E3,7.8E1,2.9E1,4.4E1,4.8E1,1.38E2,1.677E3,2.71E2,3.5E1,4.3E1],"tree_param":{"num_deleted":"0","num_feature":"3","num_nodes":"15","size_leaf_vector":"1"}},{"base_weights":[-2.4070177E-4,5.7548333E-2,-2.1272422E-1,-5.363243E-2,4.5258692E-1,2.2651362E0,-3.511114E-1,3.5215728E-2,-1.0721131E-1,-6.3941914E-1,2.035521E-1,8.8685715E-1,2.5914928E-1,-3.4783491E-1,1.2767408E-2],"categories":[],"categories_nodes":[],"categories_segments":[],"categories_sizes":[],"default_left":[0,0,0,0,0,0,0,0,0,0,0,0,0,0,0],"id":16,"left_children":[1,3,5,7,9,11,13,-1,-1,-1,-1,-1,-1,-1,-1],"loss_changes":[2.8082535E1,7.899368E1,1.6847542E2,7.297248E1,2.320368E2,2.2624176E1,1.4770251E2,0E0,0E0,0E0,0E0,0E0,0E0,0E0,0E0],"parents":[2147483647,0,0,1,1,2,2,3,3,4,4,5,5,6,6],"right_children":[2,4,6,8,10,12,14,-1,-1,-1,-1,-1,-1,-1,-1],"split_conditions":[1.5555555E1,1.3888889E1,2.93E1,1.2222222E1,2.933E1,1.6944445E1,2.965E1,3.5215728E-2,-1.0721131E-1,-6.3941914E-1,2.035521E-1,8.8685715E-1,2.5914928E-1,-3.4783491E-1,1.2767408E-2],"split_indices":[1,1,2,1,2,1,2,0,0,0,0,0,0,0,0],"split_type":[0,0,0,0,0,0,0,0,0,0,0,0,0,0,0],"sum_hessian":[2.285E3,1.797E3,4.88E2,1.403E3,3.94E2,2.5E1,4.63E2,8.98E2,5.05E2,3.1E1,3.63E2,1.6E1,9E0,1.51E2,3.12E2],"tree_param":{"num_deleted":"0","num_feature":"3","num_nodes":"15","size_leaf_vector":"1"}},{"base_weights":[-3.5888057E-5,-7.1218056E-3,1.4661081E0,3.0675452E-2,-2.9653835E-1,-7.7495015E-1,2.6529655E0,2.2924721E-2,-1.0941596E-1,-3.119065E-1,8.454571E-3,1.4523923E0,-3.8783658E-1],"categories":[],"categories_nodes":[],"categories_segments":[],"categories_sizes":[],"default_left":[0,0,0,0,0,0,0,0,0,0,0,0,0],"id":17,"left_children":[1,3,5,7,9,-1,11,-1,-1,-1,-1,-1,-1],"loss_changes":[2.3759638E1,2.4906607E1,5.9718094E1,3.645205E1,6.3495354E1,0E0,8.397072E1,0E0,0E0,0E0,0E0,0E0,0E0],"parents":[2147483647,0,0,1,1,2,2,3,3,4,4,6,6],"right_children":[2,4,6,8,10,-1,12,-1,-1,-1,-1,-1,-1],"split_conditions":[2.0555555E1,6.32E2,2.9515E1,1.7222221E1,9.48E2,-7.7495015E-1,2.111111E1,2.2924721E-2,-1.0941596E-1,-3.119065E-1,8.454571E-3,1.4523923E0,-3.8783658E-1],"split_indices":[1,0,2,1,0,0,1,0,0,0,0,0,0],"split_type":[0,0,0,0,0,0,0,0,0,0,0,0,0],"sum_hessian":[2.285E3,2.275E3,1E1,2.013E3,2.62E2,2E0,8E0,1.805E3,2.08E2,7.9E1,1.83E2,5E0,3E0],"tree_param":{"num_deleted":"0","num_feature":"3","num_nodes":"13","size_leaf_vector":"1"}},{"base_weights":[-6.901825E-5,4.614682E-1,-1.9632779E-2,-2.4932617E-1,1.4968107E0,-6.573558E-1,3.8731382E-3,-1.5888418E-1,1.0580455E0,-3.3612686E-1,6.3718253E-1,7.547886E-2,-1.5664407E0,9.506419E-3,-9.696808E-2],"categories":[],"categories_nodes":[],"categories_segments":[],"categories_sizes":[],"default_left":[0,0,0,0,0,0,0,0,0,0,0,0,0,0,0],"id":18,"left_children":[1,3,5,7,9,11,13,-1,-1,-1,-1,-1,-1,-1,-1],"loss_changes":[2.0650276E1,6.881334E1,3.2891186E1,6.1138645E1,6.475092E1,3.249014E2,1.9271265E1,0E0,0E0,0E0,0E0,0E0,0E0,0E0,0E0],"parents":[2147483647,0,0,1,1,2,2,3,3,4,4,5,5,6,6],"right_children":[2,4,6,8,10,12,14,-1,-1,-1,-1,-1,-1,-1,-1],"split_conditions":[2.912E1,2.9E1,2.924E1,1.5555555E1,5.5555553E0,1.3055555E1,3.006E1,-1.5888418E-1,1.0580455E0,-3.3612686E-1,6.3718253E-1,7.547886E-2,-1.5664407E0,9.506419E-3,-9.696808E-2],"split_indices":[2,2,2,1,1,1,2,0,0,0,0,0,0,0,0],"split_type":[0,0,0,0,0,0,0,0,0,0,0,0,0,0,0],"sum_hessian":[2.285E3,9.2E1,2.193E3,5.5E1,3.7E1,7.7E1,2.116E3,5.2E1,3E0,7E0,3E1,6.5E1,1.2E1,1.951E3,1.65E2],"tree_param":{"num_deleted":"0","num_feature":"3","num_nodes":"15","size_leaf_vector":"1"}},{"base_weights":[-2.1373319E-4,3.8047546E-1,-2.7125651E-2,2.31095E-1,8.3448297E-1,-9.228363E-3,-8.054654E-1,1.0074646E-1,-2.7063468E-1,4.7939384E-1,9.008059E-2,-7.919095E-3,2.1182565E-1,1.563362E-1,-4.1011015E-1],"categories":[],"categories_nodes":[],"categories_segments":[],"categories_sizes":[],"default_left":[0,0,0,0,0,0,0,0,0,0,0,0,0,0,0],"id":19,"left_children":[1,3,5,7,9,11,13,-1,-1,-1,-1,-1,-1,-1,-1],"loss_changes":[2.3430563E1,1.0047953E1,2.9747408E1,1.3950825E1,1.4611399E1,2.5673546E1,3.6470894E1,0E0,0E0,0E0,0E0,0E0,0E0,0E0,0E0],"parents":[2147483647,0,0,1,1,2,2,3,3,4,4,5,5,6,6],"right_children":[2,4,6,8,10,12,14,-1,-1,-1,-1,-1,-1,-1,-1],"split_conditions":[3.3333333E0,2.9845E1,1.896E3,2.9785E1,3.0045E1,1.888889E1,8.055555E0,1.0074646E-1,-2.7063468E-1,4.7939384E-1,9.008059E-2,-7.919095E-3,2.1182565E-1,1.563362E-1,-4.1011015E-1],"split_indices":[1,2,0,2,2,1,1,0,0,0,0,0,0,0,0],"split_type":[0,0,0,0,0,0,0,0,0,0,0,0,0,0,0],"sum_hessian":[2.285E3,1.5E2,2.135E3,1.14E2,3.6E1,2.088E3,4.7E1,1.05E2,9E0,1.4E1,2.2E1,2.04E3,4.8E1,1.4E1,3.3E1],"tree_param":{"num_deleted":"0","num_feature":"3","num_nodes":"15","size_leaf_vector":"1"}},{"base_weights":[3.4051825E-6,-1.008213E0,5.3214687E-3,5.730403E-1,-1.782896E0,4.9369448E-1,-1.2933732E-2,-7.2433805E-1,-2.8783295E-1,5.36004E-2,5.0630933E-1,-1.2125202E-1,2.7302718E-3],"categories":[],"categories_nodes":[],"categories_segments":[],"categories_sizes":[],"default_left":[0,0,0,0,0,0,0,0,0,0,0,0,0],"id":20,"left_children":[1,3,5,-1,7,9,11,-1,-1,-1,-1,-1,-1],"loss_changes":[1.2262348E1,3.0535095E1,2.0288803E1,0E0,2.8840942E0,3.054216E1,1.8917765E1,0E0,0E0,0E0,0E0,0E0,0E0],"parents":[2147483647,0,0,1,1,2,2,4,4,5,5,6,6],"right_children":[2,4,6,-1,8,10,12,-1,-1,-1,-1,-1,-1],"split_conditions":[2.88E1,2.8725E1,2.912E1,5.730403E-1,2.8755E1,2.909E1,2.927E1,-7.2433805E-1,-2.8783295E-1,5.36004E-2,5.0630933E-1,-1.2125202E-1,2.7302718E-3],"split_indices":[2,2,2,0,2,2,2,0,0,0,0,0,0],"split_type":[0,0,0,0,0,0,0,0,0,0,0,0,0],"sum_hessian":[2.285E3,1.1E1,2.274E3,2E0,9E0,8.1E1,2.193E3,4E0,5E0,6.5E1,1.6E1,1.16E2,2.077E3],"tree_param":{"num_deleted":"0","num_feature":"3","num_nodes":"13","size_leaf_vector":"1"}},{"base_weights":[3.303094E-6,8.0403656E-2,-6.518273E-2,1.6462089E-1,-6.5050244E-1,-2.1581156E0,-1.9447591E-2,2.8363856E-2,3.856089E-1,4.8863655E-1,-3.3125207E-1,-2.4116284E-1,-1.0664072E0,-1.8922169E-2,1.591948E-1],"categories":[],"categories_nodes":[],"categories_segments":[],"categories_sizes":[],"default_left":[0,0,0,0,0,0,0,0,0,0,0,0,0,0,0],"id":21,"left_children":[1,3,5,7,9,11,13,-1,-1,-1,-1,-1,-1,-1,-1],"loss_changes":[1.1986121E1,6.31393E1,1.2085312E2,7.2052765E1,1.1140761E2,4.820749E1,2.9719856E1,0E0,0E0,0E0,0E0,0E0,0E0,0E0,0E0],"parents":[2147483647,0,0,1,1,2,2,3,3,4,4,5,5,6,6],"right_children":[2,4,6,8,10,12,14,-1,-1,-1,-1,-1,-1,-1,-1],"split_conditions":[2.9695E1,1.6944445E1,2.971E1,2.968E1,2.9345E1,1.2777778E1,1.75E1,2.8363856E-2,3.856089E-1,4.8863655E-1,-3.3125207E-1,-2.4116284E-1,-1.0664072E0,-1.8922169E-2,1.591948E-1],"split_indices":[2,1,2,2,2,1,1,0,0,0,0,0,0,0,0],"split_type":[0,0,0,0,0,0,0,0,0,0,0,0,0,0,0],"sum_hessian":[2.285E3,1.023E3,1.262E3,9.18E2,1.05E2,2.6E1,1.236E3,8.65E2,5.3E1,1.7E1,8.8E1,1.4E1,1.2E1,1.146E3,9E1],"tree_param":{"num_deleted":"0","num_feature":"3","num_nodes":"15","size_leaf_vector":"1"}},{"base_weights":[-2.5839065E-4,-2.0494299E-2,2.6343074E-1,1.4863479E-2,-9.86667E-1,-8.7292683E-1,5.476778E-1,1.1963822E-2,-1.1528211E-1,4.2844322E-1,-3.5386667E-1,3.8505262E-1,-6.028458E-1,6.36157E-1,5.2521627E-2],"categories":[],"categories_nodes":[],"categories_segments":[],"categories_sizes":[],"default_left":[0,0,0,0,0,0,0,0,0,0,0,0,0,0,0],"id":22,"left_children":[1,3,5,7,9,11,13,-1,-1,-1,-1,-1,-1,-1,-1],"loss_changes":[1.220347E1,7.257416E1,5.3128113E1,2.0484133E1,3.6618774E1,8.345943E1,7.6401474E1,0E0,0E0,0E0,0E0,0E0,0E0,0E0,0E0],"parents":[2147483647,0,0,1,1,2,2,3,3,4,4,5,5,6,6],"right_children":[2,4,6,8,10,12,14,-1,-1,-1,-1,-1,-1,-1,-1],"split_conditions":[1.75E1,1.7222221E1,2.9515E1,1.264E3,2.9485E1,2.933E1,2.968E1,1.1963822E-2,-1.1528211E-1,4.2844322E-1,-3.5386667E-1,3.8505262E-1,-6.028458E-1,6.36157E-1,5.2521627E-2],"split_indices":[1,1,2,0,2,2,2,0,0,0,0,0,0,0,0],"split_type":[0,0,0,0,0,0,0,0,0,0,0,0,0,0,0],"sum_hessian":[2.285E3,2.123E3,1.62E2,2.049E3,7.4E1,3.2E1,1.3E2,1.929E3,1.2E2,5E0,6.9E1,1.1E1,2.1E1,2.4E1,1.06E2],"tree_param":{"num_deleted":"0","num_feature":"3","num_nodes":"15","size_leaf_vector":"1"}},{"base_weights":[1.2514081E-5,1.0138342E-1,-4.59071E-2,-1.0480533E-3,1.1225625E0,-1.3551663E-1,5.4323775E-1,1.0669486E-1,-4.1296024E-2,4.291721E-1,1.4623762E-4,2.0320537E-2,-1.118092E-1,1.317956E-1,6.204693E-1],"categories":[],"categories_nodes":[],"categories_segments":[],"categories_sizes":[],"default_left":[0,0,0,0,0,0,0,0,0,0,0,0,0,0,0],"id":23,"left_children":[1,3,5,7,9,11,13,-1,-1,-1,-1,-1,-1,-1,-1],"loss_changes":[1.0645784E1,7.4581604E1,8.3169785E1,3.1672653E1,2.246405E1,6.592475E1,3.2054382E1,0E0,0E0,0E0,0E0,0E0,0E0,0E0,0E0],"parents":[2147483647,0,0,1,1,2,2,3,3,4,4,5,5,6,6],"right_children":[2,4,6,8,10,12,14,-1,-1,-1,-1,-1,-1,-1,-1],"split_conditions":[1.1111111E1,1.0555555E1,2.994E1,2.953E1,2.9905E1,2.9695E1,6.32E2,1.0669486E-1,-4.1296024E-2,4.291721E-1,1.4623762E-4,2.0320537E-2,-1.118092E-1,1.317956E-1,6.204693E-1],"split_indices":[1,1,2,2,2,2,0,0,0,0,0,0,0,0,0],"split_type":[0,0,0,0,0,0,0,0,0,0,0,0,0,0,0],"sum_hessian":[2.285E3,7.12E2,1.573E3,6.48E2,6.4E1,1.366E3,2.07E2,1.79E2,4.69E2,5E1,1.4E1,7.36E2,6.3E2,1.95E2,1.2E1],"tree_param":{"num_deleted":"0","num_feature":"3","num_nodes":"15","size_leaf_vector":"1"}},{"base_weights":[5.1421777E-4,-6.0900927E-2,9.81658E-2,4.7794867E-2,-2.538982E-1,-2.0960848E-1,2.7091148E-1,6.327013E-2,-8.116541E-2,-4.4468048E-1,-4.0984463E-2,7.4816803E-3,-5.1306033E-1,4.1369036E-1,2.085357E-2],"categories":[],"categories_nodes":[],"categories_segments":[],"categories_sizes":[],"default_left":[0,0,0,0,0,0,0,0,0,0,0,0,0,0,0],"id":24,"left_children":[1,3,5,7,9,11,13,-1,-1,-1,-1,-1,-1,-1,-1],"loss_changes":[1.3715775E1,2.9465235E1,4.700296E1,4.6736774E1,7.269557E1,1.11965965E2,1.2621388E2,0E0,0E0,0E0,0E0,0E0,0E0,0E0,0E0],"parents":[2147483647,0,0,1,1,2,2,3,3,4,4,5,5,6,6],"right_children":[2,4,6,8,10,12,14,-1,-1,-1,-1,-1,-1,-1,-1],"split_conditions":[1.3888889E1,1.2222222E1,2.965E1,2.9875E1,2.9255E1,6.32E2,2.9695E1,6.327013E-2,-8.116541E-2,-4.4468048E-1,-4.0984463E-2,7.4816803E-3,-5.1306033E-1,4.1369036E-1,2.085357E-2],"split_indices":[1,1,2,2,2,0,2,0,0,0,0,0,0,0,0],"split_type":[0,0,0,0,0,0,0,0,0,0,0,0,0,0,0],"sum_hessian":[2.285E3,1.403E3,8.82E2,8.98E2,5.05E2,3.17E2,5.65E2,5.94E2,3.04E2,4.3E1,4.62E2,2.75E2,4.2E1,8.6E1,4.79E2],"tree_param":{"num_deleted":"0","num_feature":"3","num_nodes":"15","size_leaf_vector":"1"}},{"base_weights":[1.0861743E-4,-8.000516E-2,9.7878434E-2,2.8487132E-4,-4.3101794E-1,4.420923E-3,3.2635006E-1,-1.3569756E-1,3.198619E-2,-1.9462435E-1,3.2135108E-1,5.8780875E-2,-1.7010798E-1,3.0070636E-1,2.7440414E-2],"categories":[],"categories_nodes":[],"categories_segments":[],"categories_sizes":[],"default_left":[0,0,0,0,0,0,0,0,0,0,0,0,0,0,0],"id":25,"left_children":[1,3,5,7,9,11,13,-1,-1,-1,-1,-1,-1,-1,-1],"loss_changes":[1.7913404E1,3.5425938E1,2.1991518E1,4.933194E1,7.722958E1,8.022188E1,4.7383926E1,0E0,0E0,0E0,0E0,0E0,0E0,0E0,0E0],"parents":[2147483647,0,0,1,1,2,2,3,3,4,4,5,5,6,6],"right_children":[2,4,6,8,10,12,14,-1,-1,-1,-1,-1,-1,-1,-1],"split_conditions":[2.9755E1,2.9695E1,1.4444445E1,9.444445E0,1.6944445E1,1.2777778E1,1.5555555E1,-1.3569756E-1,3.198619E-2,-1.9462435E-1,3.2135108E-1,5.8780875E-2,-1.7010798E-1,3.0070636E-1,2.7440414E-2],"split_indices":[2,2,1,1,1,1,1,0,0,0,0,0,0,0,0],"split_type":[0,0,0,0,0,0,0,0,0,0,0,0,0,0,0],"sum_hessian":[2.285E3,1.256E3,1.029E3,1.023E3,2.33E2,7.31E2,2.98E2,1.94E2,8.29E2,2.04E2,2.9E1,5.48E2,1.83E2,7.6E1,2.22E2],"tree_param":{"num_deleted":"0","num_feature":"3","num_nodes":"15","size_leaf_vector":"1"}},{"base_weights":[1.8094007E-4,-2.2638073E-2,2.594533E-1,2.1097045E-3,-6.481645E-1,-8.004718E-2,1.2870753E0,1.052688E-2,-8.133561E-2,-6.9534963E-1,1.3663751E-1,1.7465433E-1,-9.446339E-2,1.9364016E-1,6.4945877E-1],"categories":[],"categories_nodes":[],"categories_segments":[],"categories_sizes":[],"default_left":[0,0,0,0,0,0,0,0,0,0,0,0,0,0,0],"id":26,"left_children":[1,3,5,7,9,11,13,-1,-1,-1,-1,-1,-1,-1,-1],"loss_changes":[1.3530625E1,3.254115E1,6.464549E1,1.8238853E1,1.4847034E2,2.1954937E1,2.4509636E1,0E0,0E0,0E0,0E0,0E0,0E0,0E0,0E0],"parents":[2147483647,0,0,1,1,2,2,3,3,4,4,5,5,6,6],"right_children":[2,4,6,8,10,12,14,-1,-1,-1,-1,-1,-1,-1,-1],"split_conditions":[9.48E2,6.32E2,1.4444445E1,1.7222221E1,2.965E1,1.264E3,2.971E1,1.052688E-2,-8.133561E-2,-6.9534963E-1,1.3663751E-1,1.7465433E-1,-9.446339E-2,1.9364016E-1,6.4945877E-1],"split_indices":[0,0,1,1,2,0,2,0,0,0,0,0,0,0,0],"split_type":[0,0,0,0,0,0,0,0,0,0,0,0,0,0,0],"sum_hessian":[2.285E3,2.101E3,1.84E2,2.022E3,7.9E1,1.39E2,4.5E1,1.805E3,2.17E2,3.1E1,4.8E1,3.6E1,1.03E2,2.7E1,1.8E1],"tree_param":{"num_deleted":"0","num_feature":"3","num_nodes":"15","size_leaf_vector":"1"}},{"base_weights":[2.5519222E-4,2.093511E-1,-2.9511334E-2,-2.0984945E-1,2.8266907E-1,-3.5559526E-1,7.481792E-3,4.638799E-2,-4.8118195E-1,9.106822E-2,-3.1244916E-1,-3.0663288E-1,-1.096879E-2,-1.4963372E-2,1.0794137E-1],"categories":[],"categories_nodes":[],"categories_segments":[],"categories_sizes":[],"default_left":[0,0,0,0,0,0,0,0,0,0,0,0,0,0,0],"id":27,"left_children":[1,3,5,7,9,11,13,-1,-1,-1,-1,-1,-1,-1,-1],"loss_changes":[1.4234377E1,8.818775E0,2.4152514E1,2.2096851E1,7.038513E0,4.3341152E1,3.6374165E1,0E0,0E0,0E0,0E0,0E0,0E0,0E0,0E0],"parents":[2147483647,0,0,1,1,2,2,3,3,4,4,5,5,6,6],"right_children":[2,4,6,8,10,12,14,-1,-1,-1,-1,-1,-1,-1,-1],"split_conditions":[7.5E0,2.9135E1,9.444445E0,3.0555556E0,3.0345E1,2.9695E1,2.994E1,4.638799E-2,-4.8118195E-1,9.106822E-2,-3.1244916E-1,-3.0663288E-1,-1.096879E-2,-1.4963372E-2,1.0794137E-1],"split_indices":[1,2,1,1,2,2,2,0,0,0,0,0,0,0,0],"split_type":[0,0,0,0,0,0,0,0,0,0,0,0,0,0,0],"sum_hessian":[2.285E3,2.84E2,2.001E3,4.2E1,2.42E2,2.03E2,1.798E3,3.4E1,8E0,2.39E2,3E0,6.5E1,1.38E2,1.547E3,2.51E2],"tree_param":{"num_deleted":"0","num_feature":"3","num_nodes":"15","size_leaf_vector":"1"}},{"base_weights":[-2.0672174E-4,3.608961E-2,-1.3366398E-1,8.343998E-2,-2.7016753E-1,1.2157911E0,-2.664944E-1,1.5022031E-2,1.6063422E-1,3.4048155E-1,-1.1456152E-1,2.083879E-1,7.2154087E-1,-8.3975685E-1,-5.1556475E-2],"categories":[],"categories_nodes":[],"categories_segments":[],"categories_sizes":[],"default_left":[0,0,0,0,0,0,0,0,0,0,0,0,0,0,0],"id":28,"left_children":[1,3,5,7,9,11,13,-1,-1,-1,-1,-1,-1,-1,-1],"loss_changes":[1.1078228E1,2.6096043E1,8.797661E1,2.3470829E1,3.8259853E1,2.5602493E1,1.0642198E2,0E0,0E0,0E0,0E0,0E0,0E0,0E0,0E0],"parents":[2147483647,0,0,1,1,2,2,3,3,4,4,5,5,6,6],"right_children":[2,4,6,8,10,12,14,-1,-1,-1,-1,-1,-1,-1,-1],"split_conditions":[1.5555555E1,2.9985E1,2.9345E1,2.994E1,1.9444444E0,6.32E2,2.939E1,1.5022031E-2,1.6063422E-1,3.4048155E-1,-1.1456152E-1,2.083879E-1,7.2154087E-1,-8.3975685E-1,-5.1556475E-2],"split_indices":[1,2,2,2,1,0,2,0,0,0,0,0,0,0,0],"split_type":[0,0,0,0,0,0,0,0,0,0,0,0,0,0,0],"sum_hessian":[2.285E3,1.797E3,4.88E2,1.557E3,2.4E2,4.3E1,4.45E2,1.451E3,1.06E2,1.7E1,2.23E2,3.1E1,1.2E1,1.5E1,4.3E2],"tree_param":{"num_deleted":"0","num_feature":"3","num_nodes":"15","size_leaf_vector":"1"}},{"base_weights":[4.7894573E-5,-9.665079E-1,5.14619E-3,4.0785933E-1,-1.5676688E0,1.3226048E0,1.0794837E-3,-6.1118424E-1,-2.745142E-1,6.2315226E-1,-1.1276375E-1,2.6194457E-2,-1.1211028E-2],"categories":[],"categories_nodes":[],"categories_segments":[],"categories_sizes":[],"default_left":[0,0,0,0,0,0,0,0,0,0,0,0,0],"id":29,"left_children":[1,3,5,-1,7,9,11,-1,-1,-1,-1,-1,-1],"loss_changes":[1.1269896E1,1.8911179E1,1.2187379E1,0E0,1.2005806E0,9.752133E0,7.5266166E0,0E0,0E0,0E0,0E0,0E0,0E0],"parents":[2147483647,0,0,1,1,2,2,4,4,5,5,6,6],"right_children":[2,4,6,-1,8,10,12,-1,-1,-1,-1,-1,-1],"split_conditions":[2.88E1,2.8725E1,2.8845E1,4.0785933E-1,2.8755E1,6.32E2,1.1111111E1,-6.1118424E-1,-2.745142E-1,6.2315226E-1,-1.1276375E-1,2.6194457E-2,-1.1211028E-2],"split_indices":[2,2,2,0,2,0,1,0,0,0,0,0,0],"split_type":[0,0,0,0,0,0,0,0,0,0,0,0,0],"sum_hessian":[2.285E3,1.1E1,2.274E3,2E0,9E0,6E0,2.268E3,4E0,5E0,4E0,2E0,6.99E2,1.569E3],"tree_param":{"num_deleted":"0","num_feature":"3","num_nodes":"13","size_leaf_vector":"1"}},{"base_weights":[5.426718E-5,2.4109986E-3,-4.0351912E-1,-3.8216696E-3,1.7753037E0,2.9475258E-3,-6.5588884E-2,-4.580972E-1,9.3917006E-1],"categories":[],"categories_nodes":[],"categories_segments":[],"categories_sizes":[],"default_left":[0,0,0,0,0,0,0,0,0],"id":30,"left_children":[1,3,-1,5,7,-1,-1,-1,-1],"loss_changes":[7.25005E0,2.5233597E1,0E0,6.6740856E0,4.0584164E1,0E0,0E0,0E0,0E0],"parents":[2147483647,0,0,1,1,3,3,4,4],"right_children":[2,4,-1,6,8,-1,-1,-1,-1],"split_conditions":[2.111111E1,2.0555555E1,-4.0351912E-1,3.0075E1,2.9515E1,2.9475258E-3,-6.5588884E-2,-4.580972E-1,9.3917006E-1],"split_indices":[1,1,0,2,2,0,0,0,0],"split_type":[0,0,0,0,0,0,0,0,0],"sum_hessian":[2.285E3,2.282E3,3E0,2.275E3,7E0,2.14E3,1.35E2,2E0,5E0],"tree_param":{"num_deleted":"0","num_feature":"3","num_nodes":"9","size_leaf_vector":"1"}},{"base_weights":[4.4514098E-5,-7.1907735E-1,3.8376648E-3,3.2569793E-1,-1.1885908E0,3.2774702E-1,-8.270086E-3,-4.6520743E-1,-2.0662253E-1,-6.0710464E-2,2.512311E-1,-1.3557962E-1,2.424109E-3],"categories":[],"categories_nodes":[],"categories_segments":[],"categories_sizes":[],"default_left":[0,0,0,0,0,0,0,0,0,0,0,0,0],"id":31,"left_children":[1,3,5,-1,7,9,11,-1,-1,-1,-1,-1,-1],"loss_changes":[6.238368E0,1.1458584E1,8.924837E0,0E0,7.4193096E-1,2.2325409E1,1.5919086E1,0E0,0E0,0E0,0E0,0E0,0E0],"parents":[2147483647,0,0,1,1,2,2,4,4,5,5,6,6],"right_children":[2,4,6,-1,8,10,12,-1,-1,-1,-1,-1,-1],"split_conditions":[2.88E1,2.8725E1,2.912E1,3.2569793E-1,2.8755E1,5.5555553E0,2.924E1,-4.6520743E-1,-2.0662253E-1,-6.0710464E-2,2.512311E-1,-1.3557962E-1,2.424109E-3],"split_indices":[2,2,2,0,2,1,2,0,0,0,0,0,0],"split_type":[0,0,0,0,0,0,0,0,0,0,0,0,0],"sum_hessian":[2.285E3,1.1E1,2.274E3,2E0,9E0,8.1E1,2.193E3,4E0,5E0,4E1,4.1E1,7.7E1,2.116E3],"tree_param":{"num_deleted":"0","num_feature":"3","num_nodes":"13","size_leaf_vector":"1"}},{"base_weights":[-9.514273E-5,1.3160256E-1,-1.8843269E-2,4.246643E-2,4.3264073E-1,-1.4323301E-2,-1.8212539E0,-7.18497E-2,5.3258017E-2,2.1453659E-1,-1.4314595E-1,-5.569047E-3,8.4347695E-1,-2.2374822E-1,-6.868788E-1],"categories":[],"categories_nodes":[],"categories_segments":[],"categories_sizes":[],"default_left":[0,0,0,0,0,0,0,0,0,0,0,0,0,0,0],"id":32,"left_children":[1,3,5,7,9,11,13,-1,-1,-1,-1,-1,-1,-1,-1],"loss_changes":[5.6468086E0,7.6291394E0,1.6283884E1,8.458713E0,1.70462E1,2.3993032E1,8.1069374E-1,0E0,0E0,0E0,0E0,0E0,0E0,0E0,0E0],"parents":[2147483647,0,0,1,1,2,2,3,3,4,4,5,5,6,6],"right_children":[2,4,6,8,10,12,14,-1,-1,-1,-1,-1,-1,-1,-1],"split_conditions":[7.5E0,6.32E2,4.74E3,2.946E1,3.0105E1,4.424E3,5.372E3,-7.18497E-2,5.3258017E-2,2.1453659E-1,-1.4314595E-1,-5.569047E-3,8.4347695E-1,-2.2374822E-1,-6.868788E-1],"split_indices":[1,0,0,2,2,0,0,0,0,0,0,0,0,0,0],"split_type":[0,0,0,0,0,0,0,0,0,0,0,0,0,0,0],"sum_hessian":[2.285E3,2.84E2,2.001E3,2.2E2,6.4E1,1.997E3,4E0,7.1E1,1.49E2,4.9E1,1.5E1,1.995E3,2E0,2E0,2E0],"tree_param":{"num_deleted":"0","num_feature":"3","num_nodes":"15","size_leaf_vector":"1"}},{"base_weights":[-7.532242E-5,-1.3950406E-2,1.8072683E-1,9.123644E-3,-6.444551E-1,-1.1861063E-1,9.6829194E-1,9.86816E-4,2.7691618E-1,-2.0074483E-2,-4.1324356E-1,5.6852367E-2,-7.329107E-1,1.1067773E0,-1.5454984E-1],"categories":[],"categories_nodes":[],"categories_segments":[],"categories_sizes":[],"default_left":[0,0,0,0,0,0,0,0,0,0,0,0,0,0,0],"id":33,"left_children":[1,3,5,7,9,11,13,-1,-1,-1,-1,-1,-1,-1,-1],"loss_changes":[5.737283E0,3.090646E1,3.8541733E1,1.0927777E1,3.1659105E1,8.569058E1,1.8354031E2,0E0,0E0,0E0,0E0,0E0,0E0,0E0,0E0],"parents":[2147483647,0,0,1,1,2,2,3,3,4,4,5,5,6,6],"right_children":[2,4,6,8,10,12,14,-1,-1,-1,-1,-1,-1,-1,-1],"split_conditions":[1.75E1,1.7222221E1,2.989E1,1.6944445E1,2.9755E1,2.9845E1,2.992E1,9.86816E-4,2.7691618E-1,-2.0074483E-2,-4.1324356E-1,5.6852367E-2,-7.329107E-1,1.1067773E0,-1.5454984E-1],"split_indices":[1,1,2,1,2,2,2,0,0,0,0,0,0,0,0],"split_type":[0,0,0,0,0,0,0,0,0,0,0,0,0,0,0],"sum_hessian":[2.285E3,2.123E3,1.62E2,2.049E3,7.4E1,1.18E2,4.4E1,2.037E3,1.2E1,4.2E1,3.2E1,1.05E2,1.3E1,1.5E1,2.9E1],"tree_param":{"num_deleted":"0","num_feature":"3","num_nodes":"15","size_leaf_vector":"1"}},{"base_weights":[4.8484182E-8,-3.9168593E-2,6.227952E-2,5.644102E-2,-1.3762306E-1,2.449974E-1,-8.544204E-2,-3.4126707E-3,2.198086E-1,-5.9495255E-2,2.569964E-1,-3.85222E-1,1.2771615E-1,3.465272E-1,-4.643115E-2],"categories":[],"categories_nodes":[],"categories_segments":[],"categories_sizes":[],"default_left":[0,0,0,0,0,0,0,0,0,0,0,0,0,0,0],"id":34,"left_children":[1,3,5,7,9,11,13,-1,-1,-1,-1,-1,-1,-1,-1],"loss_changes":[5.5789127E0,1.322389E1,2.3854315E1,3.2707413E1,4.193012E1,1.09700294E2,4.2234833E1,0E0,0E0,0E0,0E0,0E0,0E0,0E0,0E0],"parents":[2147483647,0,0,1,1,2,2,3,3,4,4,5,5,6,6],"right_children":[2,4,6,8,10,12,14,-1,-1,-1,-1,-1,-1,-1,-1],"split_conditions":[1.3888889E1,1.1111111E1,1.5555555E1,1.0555555E1,9.48E2,2.936E1,2.93E1,-3.4126707E-3,2.198086E-1,-5.9495255E-2,2.569964E-1,-3.85222E-1,1.2771615E-1,3.465272E-1,-4.643115E-2],"split_indices":[1,1,1,1,0,2,2,0,0,0,0,0,0,0,0],"split_type":[0,0,0,0,0,0,0,0,0,0,0,0,0,0,0],"sum_hessian":[2.285E3,1.403E3,8.82E2,7.12E2,6.91E2,3.94E2,4.88E2,6.48E2,6.4E1,6.52E2,3.9E1,4.1E1,3.53E2,2.5E1,4.63E2],"tree_param":{"num_deleted":"0","num_feature":"3","num_nodes":"15","size_leaf_vector":"1"}},{"base_weights":[1.9974499E-4,2.0348547E-1,-1.1255709E-2,4.9289054E-1,-8.3304685E-1,-6.4723706E-1,3.4700078E-3,-4.0167905E-2,3.0774623E-1,-1.8190192E0,-5.1624894E-2,4.4366382E-2,-1.0222431E0,-1.9360755E-2,2.7201617E-2],"categories":[],"categories_nodes":[],"categories_segments":[],"categories_sizes":[],"default_left":[0,0,0,0,0,0,0,0,0,0,0,0,0,0,0],"id":35,"left_children":[1,3,5,7,9,11,13,-1,-1,-1,-1,-1,-1,-1,-1],"loss_changes":[5.3257675E0,3.700788E1,2.0278078E1,3.2204407E1,9.229755E1,1.08045975E2,1.2560191E1,0E0,0E0,0E0,0E0,0E0,0E0,0E0,0E0],"parents":[2147483647,0,0,1,1,2,2,3,3,4,4,5,5,6,6],"right_children":[2,4,6,8,10,12,14,-1,-1,-1,-1,-1,-1,-1,-1],"split_conditions":[2.9165E1,1.3055555E1,2.924E1,5.5555553E0,1.3611111E1,1.3055555E1,1.3333333E1,-4.0167905E-2,3.0774623E-1,-1.8190192E0,-5.1624894E-2,4.4366382E-2,-1.0222431E0,-1.9360755E-2,2.7201617E-2],"split_indices":[2,1,2,1,1,1,1,0,0,0,0,0,0,0,0],"split_type":[0,0,0,0,0,0,0,0,0,0,0,0,0,0,0],"sum_hessian":[2.285E3,1.21E2,2.164E3,9.5E1,2.6E1,4.8E1,2.116E3,4.4E1,5.1E1,2E0,2.4E1,3.8E1,1E1,1.189E3,9.27E2],"tree_param":{"num_deleted":"0","num_feature":"3","num_nodes":"15","size_leaf_vector":"1"}},{"base_weights":[-9.85794E-4,-7.7773565E-1,3.1117813E-3,2.0060809E-1,-1.1338909E0,5.0647295E-1,-3.6130394E-3,-4.1090736E-1,-1.872457E-1,-6.77737E-2,6.72142E-1,-3.204122E-1,1.2066918E-3],"categories":[],"categories_nodes":[],"categories_segments":[],"categories_sizes":[],"default_left":[0,0,0,0,0,0,0,0,0,0,0,0,0],"id":36,"left_children":[1,3,5,-1,7,9,11,-1,-1,-1,-1,-1,-1],"loss_changes":[7.2782803E0,6.9400654E0,7.7027364E0,0E0,3.4706974E-1,3.8604843E1,1.8258148E1,0E0,0E0,0E0,0E0,0E0,0E0],"parents":[2147483647,0,0,1,1,2,2,4,4,5,5,6,6],"right_children":[2,4,6,-1,8,10,12,-1,-1,-1,-1,-1,-1],"split_conditions":[2.88E1,2.8725E1,2.8905E1,2.0060809E-1,2.877E1,2.7777777E0,2.9E1,-4.1090736E-1,-1.872457E-1,-6.77737E-2,6.72142E-1,-3.204122E-1,1.2066918E-3],"split_indices":[2,2,2,0,2,1,2,0,0,0,0,0,0],"split_type":[0,0,0,0,0,0,0,0,0,0,0,0,0],"sum_hessian":[2.285E3,1.1E1,2.274E3,2E0,9E0,2.9E1,2.245E3,5E0,4E0,2.1E1,8E0,1.5E1,2.23E3],"tree_param":{"num_deleted":"0","num_feature":"3","num_nodes":"13","size_leaf_vector":"1"}},{"base_weights":[-7.3920935E-4,5.199833E-1,-5.7966732E-3,3.432414E-1,9.340881E-1,3.0789431E-3,-2.8415462E-1,1.9562975E-1,-1.1262834E-3,-1.4969499E-2,3.4225953E-1,-1.0648728E-3,1.6071042E-1,8.316969E-2,-2.6601547E-1],"categories":[],"categories_nodes":[],"categories_segments":[],"categories_sizes":[],"default_left":[0,0,0,0,0,0,0,0,0,0,0,0,0,0,0],"id":37,"left_children":[1,3,5,7,9,11,13,-1,-1,-1,-1,-1,-1,-1,-1],"loss_changes":[6.023276E0,1.2895551E0,5.596781E0,1.8243773E0,1.2777214E0,7.754875E0,2.392482E1,0E0,0E0,0E0,0E0,0E0,0E0,0E0,0E0],"parents":[2147483647,0,0,1,1,2,2,3,3,4,4,5,5,6,6],"right_children":[2,4,6,8,10,12,14,-1,-1,-1,-1,-1,-1,-1,-1],"split_conditions":[-2.5E0,6.32E2,1.896E3,2.9075E1,-5.5555553E0,1.58E3,8.055555E0,1.9562975E-1,-1.1262834E-3,-1.4969499E-2,3.4225953E-1,-1.0648728E-3,1.6071042E-1,8.316969E-2,-2.6601547E-1],"split_indices":[1,0,0,2,1,0,1,0,0,0,0,0,0,0,0],"split_type":[0,0,0,0,0,0,0,0,0,0,0,0,0,0,0],"sum_hessian":[2.285E3,2.1E1,2.264E3,1.6E1,5E0,2.195E3,6.9E1,8E0,8E0,1E0,4E0,2.169E3,2.6E1,3.6E1,3.3E1],"tree_param":{"num_deleted":"0","num_feature":"3","num_nodes":"15","size_leaf_vector":"1"}},{"base_weights":[-2.9937326E-4,-5.497137E-1,3.571577E-3,-1.025696E-1,-1.1099603E0,2.0678425E0,8.406891E-4,-1.644322E-1,2.1082915E-1,-4.6828142E-1,-1.8521449E-1,8.8281816E-1,4.7710992E-2,-9.6514076E-4,1.4446257E-1],"categories":[],"categories_nodes":[],"categories_segments":[],"categories_sizes":[],"default_left":[0,0,0,0,0,0,0,0,0,0,0,0,0,0,0],"id":38,"left_children":[1,3,5,7,9,11,13,-1,-1,-1,-1,-1,-1,-1,-1],"loss_changes":[4.8637257E0,3.8943276E0,1.2800553E1,3.973254E0,5.9129906E-1,4.541953E0,4.427464E0,0E0,0E0,0E0,0E0,0E0,0E0,0E0,0E0],"parents":[2147483647,0,0,1,1,2,2,3,3,4,4,5,5,6,6],"right_children":[2,4,6,8,10,12,14,-1,-1,-1,-1,-1,-1,-1,-1],"split_conditions":[2.883E1,1.0555555E1,2.8845E1,2.8755E1,2.8785E1,6.32E2,3.0285E1,-1.644322E-1,2.1082915E-1,-4.6828142E-1,-1.8521449E-1,8.8281816E-1,4.7710992E-2,-9.6514076E-4,1.4446257E-1],"split_indices":[2,1,2,2,2,0,2,0,0,0,0,0,0,0,0],"split_type":[0,0,0,0,0,0,0,0,0,0,0,0,0,0,0],"sum_hessian":[2.285E3,1.5E1,2.27E3,9E0,6E0,2E0,2.268E3,6E0,3E0,2E0,4E0,1E0,1E0,2.25E3,1.8E1],"tree_param":{"num_deleted":"0","num_feature":"3","num_nodes":"15","size_leaf_vector":"1"}},{"base_weights":[-5.3280974E-6,1.0306293E-2,-1.6309571E-1,1.8478277E-1,-1.9506503E-2,-3.8088614E-1,3.0094075E-1,-5.1295094E-2,1.8018416E-1,-2.416919E-1,2.1054682E-3,-1.8411968E-2,-3.890786E-1,-8.4487975E-2,2.5352845E-1],"categories":[],"categories_nodes":[],"categories_segments":[],"categories_sizes":[],"default_left":[0,0,0,0,0,0,0,0,0,0,0,0,0,0,0],"id":39,"left_children":[1,3,5,7,9,11,13,-1,-1,-1,-1,-1,-1,-1,-1],"loss_changes":[3.8461075E0,1.1192314E1,1.3859151E1,4.655545E1,3.833157E1,2.7140331E1,1.4186279E1,0E0,0E0,0E0,0E0,0E0,0E0,0E0,0E0],"parents":[2147483647,0,0,1,1,2,2,3,3,4,4,5,5,6,6],"right_children":[2,4,6,8,10,12,14,-1,-1,-1,-1,-1,-1,-1,-1],"split_conditions":[3.0075E1,8.888889E0,8.888889E0,2.9695E1,9.444445E0,7.7777777E0,3.018E1,-5.1295094E-2,1.8018416E-1,-2.416919E-1,2.1054682E-3,-1.8411968E-2,-3.890786E-1,-8.4487975E-2,2.5352845E-1],"split_indices":[2,1,1,2,1,1,2,0,0,0,0,0,0,0,0],"split_type":[0,0,0,0,0,0,0,0,0,0,0,0,0,0,0],"sum_hessian":[2.285E3,2.15E3,1.35E2,3.13E2,1.837E3,9.2E1,4.3E1,1.69E2,1.44E2,5.9E1,1.778E3,6.9E1,2.3E1,2.1E1,2.2E1],"tree_param":{"num_deleted":"0","num_feature":"3","num_nodes":"15","size_leaf_vector":"1"}},{"base_weights":[-1.5642571E-4,7.682488E-2,-3.225572E-2,-8.8109195E-2,5.123705E-1,-2.6982203E0,-7.242143E-3,3.1843033E-2,-3.5896116E-1,1.9045819E-2,3.3022133E-1,4.0068525E-1,-1.1453944E0,1.7737095E-1,-9.891017E-3],"categories":[],"categories_nodes":[],"categories_segments":[],"categories_sizes":[],"default_left":[0,0,0,0,0,0,0,0,0,0,0,0,0,0,0],"id":40,"left_children":[1,3,5,7,9,11,13,-1,-1,-1,-1,-1,-1,-1,-1],"loss_changes":[5.6512885E0,4.8390987E1,1.0761055E2,1.0541608E2,4.879026E1,7.285337E1,2.4655663E1,0E0,0E0,0E0,0E0,0E0,0E0,0E0,0E0],"parents":[2147483647,0,0,1,1,2,2,3,3,4,4,5,5,6,6],"right_children":[2,4,6,8,10,12,14,-1,-1,-1,-1,-1,-1,-1,-1],"split_conditions":[2.9575E1,1.4444445E1,2.959E1,1.3055555E1,2.945E1,1.0555555E1,2.9605E1,3.1843033E-2,-3.5896116E-1,1.9045819E-2,3.3022133E-1,4.0068525E-1,-1.1453944E0,1.7737095E-1,-9.891017E-3],"split_indices":[2,1,2,1,2,1,2,0,0,0,0,0,0,0,0],"split_type":[0,0,0,0,0,0,0,0,0,0,0,0,0,0,0],"sum_hessian":[2.285E3,6.72E2,1.613E3,4.88E2,1.84E2,1.4E1,1.599E3,4.16E2,7.2E1,1.05E2,7.9E1,3E0,1.1E1,6.5E1,1.534E3],"tree_param":{"num_deleted":"0","num_feature":"3","num_nodes":"15","size_leaf_vector":"1"}},{"base_weights":[-3.5232527E-4,2.6764423E-2,-1.00056954E-1,4.8172574E-2,-2.9288962E-1,-2.1729805E-1,6.167338E-1,-1.3146127E-3,7.033887E-2,-4.030532E-1,-7.238848E-3,-3.827124E-2,-4.726667E-1,2.631288E-1,-6.789754E-1],"categories":[],"categories_nodes":[],"categories_segments":[],"categories_sizes":[],"default_left":[0,0,0,0,0,0,0,0,0,0,0,0,0,0,0],"id":41,"left_children":[1,3,5,7,9,11,13,-1,-1,-1,-1,-1,-1,-1,-1],"loss_changes":[6.1832566E0,1.2318186E1,4.1228268E1,1.6507668E1,3.1874832E1,5.1107426E1,5.372399E1,0E0,0E0,0E0,0E0,0E0,0E0,0E0,0E0],"parents":[2147483647,0,0,1,1,2,2,3,3,4,4,5,5,6,6],"right_children":[2,4,6,8,10,12,14,-1,-1,-1,-1,-1,-1,-1,-1],"split_conditions":[1.5555555E1,1.264E3,2.9955E1,1.3888889E1,1.58E3,2.992E1,1.888889E1,-1.3146127E-3,7.033887E-2,-4.030532E-1,-7.238848E-3,-3.827124E-2,-4.726667E-1,2.631288E-1,-6.789754E-1],"split_indices":[1,0,2,1,0,2,1,0,0,0,0,0,0,0,0],"split_type":[0,0,0,0,0,0,0,0,0,0,0,0,0,0,0],"sum_hessian":[2.285E3,1.797E3,4.88E2,1.685E3,1.12E2,4.2E2,6.8E1,1.315E3,3.7E2,2.2E1,9E1,3.95E2,2.5E1,6.3E1,5E0],"tree_param":{"num_deleted":"0","num_feature":"3","num_nodes":"15","size_leaf_vector":"1"}},{"base_weights":[-8.013263E-4,9.116235E-2,-2.854176E-2,3.9059803E-2,1.0603667E0,-6.6387546E-1,-1.4488725E-2,9.722338E-2,-5.3797472E-2,-1.3592468E-1,6.903994E-1,-3.6909497E-1,3.1355733E-1,1.160618E-1,-1.0290968E-2],"categories":[],"categories_nodes":[],"categories_segments":[],"categories_sizes":[],"default_left":[0,0,0,0,0,0,0,0,0,0,0,0,0,0,0],"id":42,"left_children":[1,3,5,7,9,11,13,-1,-1,-1,-1,-1,-1,-1,-1],"loss_changes":[5.8344445E0,2.6722527E1,1.5677525E1,3.1428886E1,5.1752388E1,3.8073162E1,1.3692044E1,0E0,0E0,0E0,0E0,0E0,0E0,0E0,0E0],"parents":[2147483647,0,0,1,1,2,2,3,3,4,4,5,5,6,6],"right_children":[2,4,6,8,10,12,14,-1,-1,-1,-1,-1,-1,-1,-1],"split_conditions":[2.9485E1,2.947E1,1.1111112E0,1.2222222E1,1.2777778E1,3.0195E1,5.5555553E0,9.722338E-2,-5.3797472E-2,-1.3592468E-1,6.903994E-1,-3.6909497E-1,3.1355733E-1,1.160618E-1,-1.0290968E-2],"split_indices":[2,2,1,1,1,2,1,0,0,0,0,0,0,0,0],"split_type":[0,0,0,0,0,0,0,0,0,0,0,0,0,0,0],"sum_hessian":[2.285E3,5.29E2,1.756E3,5.03E2,2.6E1,3.7E1,1.719E3,2.18E2,2.85E2,1.2E1,1.4E1,2.8E1,9E0,8E1,1.639E3],"tree_param":{"num_deleted":"0","num_feature":"3","num_nodes":"15","size_leaf_vector":"1"}},{"base_weights":[-2.7742275E-4,-7.0935455E-3,3.0468145E-1,-8.9193444E-4,-4.6329567E-1,-2.049907E0,8.7154007E-1,-1.5126637E-3,6.8615156E-1,-5.986636E-1,5.53778E-2,2.47701E-1,-7.38347E-1,3.572949E-1,-7.143157E-1],"categories":[],"categories_nodes":[],"categories_segments":[],"categories_sizes":[],"default_left":[0,0,0,0,0,0,0,0,0,0,0,0,0,0,0],"id":43,"left_children":[1,3,5,7,9,11,13,-1,-1,-1,-1,-1,-1,-1,-1],"loss_changes":[4.753926E0,6.3284807E0,6.852251E1,2.097892E1,3.0150166E1,1.3857899E1,4.5435505E1,0E0,0E0,0E0,0E0,0E0,0E0,0E0,0E0],"parents":[2147483647,0,0,1,1,2,2,3,3,4,4,5,5,6,6],"right_children":[2,4,6,8,10,12,14,-1,-1,-1,-1,-1,-1,-1,-1],"split_conditions":[1.888889E1,1.8333334E1,2.9515E1,1.8055555E1,2.9545E1,2.9255E1,3.0015E1,-1.5126637E-3,6.8615156E-1,-5.986636E-1,5.53778E-2,2.47701E-1,-7.38347E-1,3.572949E-1,-7.143157E-1],"split_indices":[1,1,2,1,2,2,2,0,0,0,0,0,0,0,0],"split_type":[0,0,0,0,0,0,0,0,0,0,0,0,0,0,0],"sum_hessian":[2.285E3,2.236E3,4.9E1,2.207E3,2.9E1,9E0,4E1,2.204E3,3E0,8E0,2.1E1,1E0,8E0,3.7E1,3E0],"tree_param":{"num_deleted":"0","num_feature":"3","num_nodes":"15","size_leaf_vector":"1"}},{"base_weights":[-5.031698E-4,4.015324E-3,-4.656798E-1,-7.62306E-4,1.2016927E0,-2.4067184E-1,-5.431519E-1,-3.8015523E-3,4.599936E-2,5.486284E-1,-1.1800022E-2,-4.133369E-1,1.2312735E-2],"categories":[],"categories_nodes":[],"categories_segments":[],"categories_sizes":[],"default_left":[0,0,0,0,0,0,0,0,0,0,0,0,0],"id":44,"left_children":[1,3,5,7,9,11,-1,-1,-1,-1,-1,-1,-1],"loss_changes":[4.806808E0,1.296138E1,6.2213883E0,4.143948E0,7.0758085E0,6.463394E0,0E0,0E0,0E0,0E0,0E0,0E0,0E0],"parents":[2147483647,0,0,1,1,2,2,3,3,4,4,5,5],"right_children":[2,4,6,8,10,12,-1,-1,-1,-1,-1,-1,-1],"split_conditions":[5.372E3,4.424E3,7.5E0,1.75E1,3.0075E1,2.8875E1,-5.431519E-1,-3.8015523E-3,4.599936E-2,5.486284E-1,-1.1800022E-2,-4.133369E-1,1.2312735E-2],"split_indices":[0,0,1,1,2,2,0,0,0,0,0,0,0],"split_type":[0,0,0,0,0,0,0,0,0,0,0,0,0],"sum_hessian":[2.285E3,2.264E3,2.1E1,2.256E3,8E0,1.9E1,2E0,2.095E3,1.61E2,5E0,3E0,3E0,1.6E1],"tree_param":{"num_deleted":"0","num_feature":"3","num_nodes":"13","size_leaf_vector":"1"}},{"base_weights":[-5.1199086E-4,2.3581235E-2,-8.9099124E-2,5.1646657E-2,-1.57952E-1,8.466153E-1,-1.81212E-1,2.1743907E-2,-9.583563E-2,-2.8523985E-1,-5.1168496E-5,1.2520173E-1,5.514514E-1,-2.1690936E-1,1.1745733E-2],"categories":[],"categories_nodes":[],"categories_segments":[],"categories_sizes":[],"default_left":[0,0,0,0,0,0,0,0,0,0,0,0,0,0,0],"id":45,"left_children":[1,3,5,7,9,11,13,-1,-1,-1,-1,-1,-1,-1,-1],"loss_changes":[4.8812246E0,9.168619E0,4.2300983E1,1.2068226E1,3.014812E1,1.7961521E1,5.327967E1,0E0,0E0,0E0,0E0,0E0,0E0,0E0,0E0],"parents":[2147483647,0,0,1,1,2,2,3,3,4,4,5,5,6,6],"right_children":[2,4,6,8,10,12,14,-1,-1,-1,-1,-1,-1,-1,-1],"split_conditions":[1.5555555E1,2.9985E1,2.9345E1,1.264E3,3.003E1,6.32E2,2.9635E1,2.1743907E-2,-9.583563E-2,-2.8523985E-1,-5.1168496E-5,1.2520173E-1,5.514514E-1,-2.1690936E-1,1.1745733E-2],"split_indices":[1,2,2,0,2,0,2,0,0,0,0,0,0,0,0],"split_type":[0,0,0,0,0,0,0,0,0,0,0,0,0,0,0],"sum_hessian":[2.285E3,1.797E3,4.88E2,1.557E3,2.4E2,4.3E1,4.45E2,1.475E3,8.2E1,3.9E1,2.01E2,3.1E1,1.2E1,1.28E2,3.17E2],"tree_param":{"num_deleted":"0","num_feature":"3","num_nodes":"15","size_leaf_vector":"1"}},{"base_weights":[-3.0936563E-4,-5.0862753E-1,3.2720524E-3,1.6432856E-1,-6.9866616E-1,1.7282819E0,9.89857E-4,-3.2226992E-1,-1.3230483E-1,7.511055E-1,2.662139E-2,-5.785879E-4,1.8007506E-1],"categories":[],"categories_nodes":[],"categories_segments":[],"categories_sizes":[],"default_left":[0,0,0,0,0,0,0,0,0,0,0,0,0],"id":46,"left_children":[1,3,5,-1,7,9,11,-1,-1,-1,-1,-1,-1],"loss_changes":[4.1633267E0,3.594779E0,8.938783E0,0E0,8.809533E-1,3.5917501E0,3.9694827E0,0E0,0E0,0E0,0E0,0E0,0E0],"parents":[2147483647,0,0,1,1,2,2,4,4,5,5,6,6],"right_children":[2,4,6,-1,8,10,12,-1,-1,-1,-1,-1,-1],"split_conditions":[2.883E1,2.8725E1,2.8845E1,1.6432856E-1,2.8755E1,6.32E2,2.0555555E1,-3.2226992E-1,-1.3230483E-1,7.511055E-1,2.662139E-2,-5.785879E-4,1.8007506E-1],"split_indices":[2,2,2,0,2,0,1,0,0,0,0,0,0],"split_type":[0,0,0,0,0,0,0,0,0,0,0,0,0],"sum_hessian":[2.285E3,1.5E1,2.27E3,2E0,1.3E1,2E0,2.268E3,4E0,9E0,1E0,1E0,2.258E3,1E1],"tree_param":{"num_deleted":"0","num_feature":"3","num_nodes":"13","size_leaf_vector":"1"}},{"base_weights":[7.5217045E-5,1.9074449E-3,-3.137063E-1,-2.0342951E-3,1.123094E0,1.3950854E-2,-1.2425527E-2,-1.5868747E-1,8.722158E-1],"categories":[],"categories_nodes":[],"categories_segments":[],"categories_sizes":[],"default_left":[0,0,0,0,0,0,0,0,0],"id":47,"left_children":[1,3,-1,5,7,-1,-1,-1,-1],"loss_changes":[4.382144E0,1.0091833E1,0E0,4.352711E0,2.5119831E1,0E0,0E0,0E0,0E0],"parents":[2147483647,0,0,1,1,3,3,4,4],"right_children":[2,4,-1,6,8,-1,-1,-1,-1],"split_conditions":[2.111111E1,2.0555555E1,-3.137063E-1,2.9695E1,2.9665E1,1.3950854E-2,-1.2425527E-2,-1.5868747E-1,8.722158E-1],"split_indices":[1,1,0,2,2,0,0,0,0],"split_type":[0,0,0,0,0,0,0,0,0],"sum_hessian":[2.285E3,2.282E3,3E0,2.275E3,7E0,1.019E3,1.256E3,4E0,3E0],"tree_param":{"num_deleted":"0","num_feature":"3","num_nodes":"9","size_leaf_vector":"1"}},{"base_weights":[2.2817109E-4,-3.60535E-2,5.7177912E-2,-9.821237E-3,-1.0873699E0,6.4099616E-1,-2.088582E-2,3.2356826E-3,-1.3735694E-1,2.1158682E-1,-5.9261805E-1,1.2938137E-1,1.0546606E0,-4.377141E-2,9.483526E-2],"categories":[],"categories_nodes":[],"categories_segments":[],"categories_sizes":[],"default_left":[0,0,0,0,0,0,0,0,0,0,0,0,0,0,0],"id":48,"left_children":[1,3,5,7,9,11,13,-1,-1,-1,-1,-1,-1,-1,-1],"loss_changes":[4.7254677E0,3.8516357E1,4.0575165E1,1.2598194E1,5.5518623E1,6.1784405E1,3.31617E1,0E0,0E0,0E0,0E0,0E0,0E0,0E0,0E0],"parents":[2147483647,0,0,1,1,2,2,3,3,4,4,5,5,6,6],"right_children":[2,4,6,8,10,12,14,-1,-1,-1,-1,-1,-1,-1,-1],"split_conditions":[2.98E1,2.9785E1,2.9815E1,1.7777779E1,1.1944445E1,1.7777779E1,1.4444445E1,3.2356826E-3,-1.3735694E-1,2.1158682E-1,-5.9261805E-1,1.2938137E-1,1.0546606E0,-4.377141E-2,9.483526E-2],"split_indices":[2,2,2,1,1,1,1,0,0,0,0,0,0,0,0],"split_type":[0,0,0,0,0,0,0,0,0,0,0,0,0,0,0],"sum_hessian":[2.285E3,1.396E3,8.89E2,1.363E3,3.3E1,1.04E2,7.85E2,1.304E3,5.9E1,1.1E1,2.2E1,9.8E1,6E0,5.73E2,2.12E2],"tree_param":{"num_deleted":"0","num_feature":"3","num_nodes":"15","size_leaf_vector":"1"}},{"base_weights":[4.7465274E-4,2.7269166E-2,-9.804684E-2,-2.018804E-1,5.4790087E-2,1.7798249E0,-1.329799E-1,3.604275E-2,-5.3005326E-1,-7.3802085E-3,7.8786135E-2,-4.3998495E-2,1.7045056E0,-6.349164E-2,1.0192823E-1],"categories":[],"categories_nodes":[],"categories_segments":[],"categories_sizes":[],"default_left":[0,0,0,0,0,0,0,0,0,0,0,0,0,0,0],"id":49,"left_children":[1,3,5,7,9,11,13,-1,-1,-1,-1,-1,-1,-1,-1],"loss_changes":[6.037338E0,1.1349979E1,3.231498E1,9.747542E1,2.6505165E1,6.8485214E1,1.7958015E1,0E0,0E0,0E0,0E0,0E0,0E0,0E0,0E0],"parents":[2147483647,0,0,1,1,2,2,3,3,4,4,5,5,6,6],"right_children":[2,4,6,8,10,12,14,-1,-1,-1,-1,-1,-1,-1,-1],"split_conditions":[1.5555555E1,2.927E1,2.9225E1,1.3055555E1,1.3333333E1,2.9105E1,2.9955E1,3.604275E-2,-5.3005326E-1,-7.3802085E-3,7.8786135E-2,-4.3998495E-2,1.7045056E0,-6.349164E-2,1.0192823E-1],"split_indices":[1,2,2,1,1,2,2,0,0,0,0,0,0,0,0],"split_type":[0,0,0,0,0,0,0,0,0,0,0,0,0,0,0],"sum_hessian":[2.285E3,1.797E3,4.88E2,1.92E2,1.605E3,8E0,4.8E2,1.6E2,3.2E1,1.162E3,4.43E2,6E0,2E0,4.12E2,6.8E1],"tree_param":{"num_deleted":"0","num_feature":"3","num_nodes":"15","size_leaf_vector":"1"}}]},"name":"gbtree"},"learner_model_param":{"base_score":"-3.5198958E0","boost_from_average":"1","num_class":"0","num_feature":"3","num_target":"1"},"objective":{"name":"reg:squarederror","reg_loss_param":{"scale_pos_weight":"1"}}},"version":[2,0,3]}