{"learner":{"attributes":{"scikit_learn":"{\"_estimator_type\": \"regressor\"}"},"feature_names":[],"feature_types":[],"gradient_booster":{"model":{"gbtree_model_param":{"num_parallel_tree":"1","num_trees":"50"},"iteration_indptr":[0,1,2,3,4,5,6,7,8,9,10,11,12,13,14,15,16,17,18,19,20,21,22,23,24,25,26,27,28,29,30,31,32,33,34,35,36,37,38,39,40,41,42,43,44,45,46,47,48,49,50],"tree_info":[0,0,0,0,0,0,0,0,0,0,0,0,0,0,0,0,0,0,0,0,0,0,0,0,0,0,0,0,0,0,0,0,0,0,0,0,0,0,0,0,0,0,0,0,0,0,0,0,0,0],"trees":[{"base_weights":[-5.557424E-7,-2.286359E0,1.4989825E0,-4.6300993E0,-1.5069818E0,6.925785E-1,2.866698E0,-1.7168285E0,-1.1460788E0,-6.521112E-1,-2.6270252E-1,4.715399E-2,3.627724E-1,7.1957946E-1,1.1909056E0],"categories":[],"categories_nodes":[],"categories_segments":[],"categories_sizes":[],"default_left":[0,0,0,0,0,0,0,0,0,0,0,0,0,0,0],"id":0,"left_children":[1,3,5,7,9,11,13,-1,-1,-1,-1,-1,-1,-1,-1],"loss_changes":[3.407335E4,7.184576E3,6.621117E3,8.470879E2,1.2422954E3,1.0451588E3,1.1402969E3,0E0,0E0,0E0,0E0,0E0,0E0,0E0,0E0],"parents":[2147483647,0,0,1,1,2,2,3,3,4,4,5,5,6,6],"right_children":[2,4,6,8,10,12,14,-1,-1,-1,-1,-1,-1,-1,-1],"split_conditions":[1.97E1,1.68E1,2.19E1,1.52E1,1.86E1,2.08E1,2.35E1,-1.7168285E0,-1.1460788E0,-6.521112E-1,-2.6270252E-1,4.715399E-2,3.627724E-1,7.1957946E-1,1.1909056E0],"split_indices":[3,3,3,3,3,3,3,0,0,0,0,0,0,0,0],"split_type":[0,0,0,0,0,0,0,0,0,0,0,0,0,0,0],"sum_hessian":[9.94E3,3.936E3,6.004E3,9.81E2,2.955E3,3.778E3,2.226E3,4.15E2,5.66E2,1.436E3,1.519E3,1.856E3,1.922E3,1.565E3,6.61E2],"tree_param":{"num_deleted":"0","num_feature":"4","num_nodes":"15","size_leaf_vector":"1"}},{"base_weights":[-1.468623E-4,-1.8339497E0,9.3135715E-1,-3.4596536E0,-1.2960546E0,2.2607914E-1,1.8383093E0,-1.5063065E0,-9.393156E-1,-5.895712E-1,-2.8229123E-1,-5.5547673E-2,1.5856062E-1,4.109526E-1,7.6927733E-1],"categories":[],"categories_nodes":[],"categories_segments":[],"categories_sizes":[],"default_left":[0,0,0,0,0,0,0,0,0,0,0,0,0,0,0],"id":1,"left_children":[1,3,5,7,9,11,13,-1,-1,-1,-1,-1,-1,-1,-1],"loss_changes":[1.6982871E4,2.9240762E3,4.21682E3,4.1115234E2,5.964678E2,4.6155322E2,9.772871E2,0E0,0E0,0E0,0E0,0E0,0E0,0E0,0E0],"parents":[2147483647,0,0,1,1,2,2,3,3,4,4,5,5,6,6],"right_children":[2,4,6,8,10,12,14,-1,-1,-1,-1,-1,-1,-1,-1],"split_conditions":[1.93E1,1.65E1,2.15E1,1.4E1,1.79E1,2.03E1,2.29E1,-1.5063065E0,-9.393156E-1,-5.895712E-1,-2.8229123E-1,-5.5547673E-2,1.5856062E-1,4.109526E-1,7.6927733E-1],"split_indices":[3,3,3,3,3,3,3,0,0,0,0,0,0,0,0],"split_type":[0,0,0,0,0,0,0,0,0,0,0,0,0,0,0],"sum_hessian":[9.94E3,3.348E3,6.592E3,8.31E2,2.517E3,3.709E3,2.883E3,1.42E2,6.89E2,8.71E2,1.646E3,1.572E3,2.137E3,1.754E3,1.129E3],"tree_param":{"num_deleted":"0","num_feature":"4","num_nodes":"15","size_leaf_vector":"1"}},{"base_weights":[-3.07424E-4,-1.0664179E0,7.921251E-1,-2.0702677E0,-5.858223E-1,4.669905E-1,1.6568338E0,-8.253704E-1,-4.778904E-1,-2.105478E-1,5.8323514E-2,5.6229573E-2,2.4027339E-1,4.364475E-1,7.3864186E-1],"categories":[],"categories_nodes":[],"categories_segments":[],"categories_sizes":[],"default_left":[0,0,0,0,0,0,0,0,0,0,0,0,0,0,0],"id":2,"left_children":[1,3,5,7,9,11,13,-1,-1,-1,-1,-1,-1,-1,-1],"loss_changes":[8.399206E3,2.0438755E3,1.602606E3,4.4155225E2,2.5971918E2,3.8688068E2,2.4987158E2,0E0,0E0,0E0,0E0,0E0,0E0,0E0,0E0],"parents":[2147483647,0,0,1,1,2,2,3,3,4,4,5,5,6,6],"right_children":[2,4,6,8,10,12,14,-1,-1,-1,-1,-1,-1,-1,-1],"split_conditions":[1.99E1,1.75E1,2.24E1,1.57E1,3.81E1,2.12E1,2.42E1,-8.253704E-1,-4.778904E-1,-2.105478E-1,5.8323514E-2,5.6229573E-2,2.4027339E-1,4.364475E-1,7.3864186E-1],"split_indices":[3,3,3,3,1,3,3,0,0,0,0,0,0,0,0],"split_type":[0,0,0,0,0,0,0,0,0,0,0,0,0,0,0],"sum_hessian":[9.94E3,4.238E3,5.702E3,1.371E3,2.867E3,4.145E3,1.557E3,5.63E2,8.08E2,2.496E3,3.71E2,2.257E3,1.888E3,1.247E3,3.1E2],"tree_param":{"num_deleted":"0","num_feature":"4","num_nodes":"15","size_leaf_vector":"1"}},{"base_weights":[-2.1298557E-4,-1.0018197E0,4.4387922E-1,-1.832805E0,-7.566771E-1,1.0909187E-1,9.0864325E-1,-6.18461E-1,-2.6061645E-1,-2.6184082E-1,-4.9813073E-2,1.3759153E-2,2.2651748E-1,1.9067818E-1,3.7437594E-1],"categories":[],"categories_nodes":[],"categories_segments":[],"categories_sizes":[],"default_left":[0,0,0,0,0,0,0,0,0,0,0,0,0,0,0],"id":3,"left_children":[1,3,5,7,9,11,13,-1,-1,-1,-1,-1,-1,-1,-1],"loss_changes":[4.4222583E3,6.207434E2,1.0716537E3,1.5146802E2,1.6172205E2,1.6354233E2,2.6637842E2,0E0,0E0,0E0,0E0,0E0,0E0,0E0,0E0],"parents":[2147483647,0,0,1,1,2,2,3,3,4,4,5,5,6,6],"right_children":[2,4,6,8,10,12,14,-1,-1,-1,-1,-1,-1,-1,-1],"split_conditions":[1.91E1,1.61E1,2.15E1,2.54E1,3.27E1,4.92E1,2.27E1,-6.18461E-1,-2.6061645E-1,-2.6184082E-1,-4.9813073E-2,1.3759153E-2,2.2651748E-1,1.9067818E-1,3.7437594E-1],"split_indices":[3,3,3,1,1,1,3,0,0,0,0,0,0,0,0],"split_type":[0,0,0,0,0,0,0,0,0,0,0,0,0,0,0],"sum_hessian":[9.94E3,3.053E3,6.887E3,6.94E2,2.359E3,4.004E3,2.883E3,5.6E2,1.34E2,1.971E3,3.88E2,3.648E3,3.56E2,1.599E3,1.284E3],"tree_param":{"num_deleted":"0","num_feature":"4","num_nodes":"15","size_leaf_vector":"1"}},{"base_weights":[-1.8799203E-4,-7.789038E-1,2.8778023E-1,-1.7579691E0,-6.7226744E-1,-2.0756753E-2,5.7403266E-1,-7.061099E-1,-4.1160843E-1,-2.6451403E-1,-1.3090499E-1,-2.102733E-2,1.1404654E-1,1.4056571E-1,3.84417E-1],"categories":[],"categories_nodes":[],"categories_segments":[],"categories_sizes":[],"default_left":[0,0,0,0,0,0,0,0,0,0,0,0,0,0,0],"id":4,"left_children":[1,3,5,7,9,11,13,-1,-1,-1,-1,-1,-1,-1,-1],"loss_changes":[2.2294475E3,2.790382E2,6.410346E2,5.723883E1,1.19291016E2,6.9133514E1,2.803147E2,0E0,0E0,0E0,0E0,0E0,0E0,0E0,0E0],"parents":[2147483647,0,0,1,1,2,2,3,3,4,4,5,5,6,6],"right_children":[2,4,6,8,10,12,14,-1,-1,-1,-1,-1,-1,-1,-1],"split_conditions":[1.88E1,1.47E1,2.1E1,1.35E1,1.77E1,4.28E1,5.68E1,-7.061099E-1,-4.1160843E-1,-2.6451403E-1,-1.3090499E-1,-2.102733E-2,1.1404654E-1,1.4056571E-1,3.84417E-1],"split_indices":[3,3,3,3,3,1,1,0,0,0,0,0,0,0,0],"split_type":[0,0,0,0,0,0,0,0,0,0,0,0,0,0,0],"sum_hessian":[9.94E3,2.683E3,7.257E3,2.62E2,2.421E3,3.493E3,3.764E3,1.01E2,1.61E2,1.281E3,1.14E3,3.111E3,3.82E2,3.277E3,4.87E2],"tree_param":{"num_deleted":"0","num_feature":"4","num_nodes":"15","size_leaf_vector":"1"}},{"base_weights":[-2.2174804E-4,-3.711985E-1,3.1948525E-1,-6.7961985E-1,-1.5716416E-1,2.2519863E-1,7.9514796E-1,-2.3442778E-1,3.4559595E-3,-6.583936E-2,1.6600762E-2,5.5348117E-2,2.1964845E-1,2.0463584E-1,5.0200206E-1],"categories":[],"categories_nodes":[],"categories_segments":[],"categories_sizes":[],"default_left":[0,0,0,0,0,0,0,0,0,0,0,0,0,0,0],"id":5,"left_children":[1,3,5,7,9,11,13,-1,-1,-1,-1,-1,-1,-1,-1],"loss_changes":[1.1791597E3,3.036839E2,2.3931256E2,1.3264172E2,3.5995277E1,9.185968E1,8.65058E1,0E0,0E0,0E0,0E0,0E0,0E0,0E0,0E0],"parents":[2147483647,0,0,1,1,2,2,3,3,4,4,5,5,6,6],"right_children":[2,4,6,8,10,12,14,-1,-1,-1,-1,-1,-1,-1,-1],"split_conditions":[2.01E1,1.81E1,2.32E1,3.69E1,3.04E1,6.09E1,2.5E1,-2.3442778E-1,3.4559595E-3,-6.583936E-2,1.6600762E-2,5.5348117E-2,2.1964845E-1,2.0463584E-1,5.0200206E-1],"split_indices":[3,3,3,1,1,1,3,0,0,0,0,0,0,0,0],"split_type":[0,0,0,0,0,0,0,0,0,0,0,0,0,0,0],"sum_hessian":[9.94E3,4.601E3,5.339E3,1.884E3,2.717E3,4.457E3,8.82E2,1.642E3,2.42E2,2.101E3,6.16E2,4.127E3,3.3E2,7.83E2,9.9E1],"tree_param":{"num_deleted":"0","num_feature":"4","num_nodes":"15","size_leaf_vector":"1"}},{"base_weights":[-8.4268126E-5,-2.360591E-1,2.61515E-1,-8.306761E-1,-1.718726E-1,2.1267912E-1,7.8210616E-1,-4.971775E-1,-2.1432866E-1,-6.635223E-2,4.1294124E-2,5.338655E-2,1.7630577E-1,2.0951372E-1,5.522107E-1],"categories":[],"categories_nodes":[],"categories_segments":[],"categories_sizes":[],"default_left":[0,0,0,0,0,0,0,0,0,0,0,0,0,0,0],"id":6,"left_children":[1,3,5,7,9,11,13,-1,-1,-1,-1,-1,-1,-1,-1],"loss_changes":[6.137281E2,1.9935294E2,1.1970557E2,4.77247E1,7.204135E1,5.604506E1,3.4522293E1,0E0,0E0,0E0,0E0,0E0,0E0,0E0,0E0],"parents":[2147483647,0,0,1,1,2,2,3,3,4,4,5,5,6,6],"right_children":[2,4,6,8,10,12,14,-1,-1,-1,-1,-1,-1,-1,-1],"split_conditions":[2.05E1,1.55E1,2.4E1,1.31E1,3.81E1,6.09E1,2.59E1,-4.971775E-1,-2.1432866E-1,-6.635223E-2,4.1294124E-2,5.338655E-2,1.7630577E-1,2.0951372E-1,5.522107E-1],"split_indices":[3,3,3,3,1,1,3,0,0,0,0,0,0,0,0],"split_type":[0,0,0,0,0,0,0,0,0,0,0,0,0,0,0],"sum_hessian":[9.94E3,5.226E3,4.714E3,5.08E2,4.718E3,4.311E3,4.03E2,6.1E1,4.47E2,4.07E3,6.48E2,3.947E3,3.64E2,3.75E2,2.8E1],"tree_param":{"num_deleted":"0","num_feature":"4","num_nodes":"15","size_leaf_vector":"1"}},{"base_weights":[-3.3186352E-5,-3.4404853E-1,9.6869424E-2,-4.3791538E-1,-4.0358257E-2,2.3592956E-2,3.3675107E-1,-3.0038244E-1,-1.11629486E-1,-6.734427E-2,4.949151E-2,-8.716383E-3,4.219146E-2,9.282553E-2,2.9823923E-1],"categories":[],"categories_nodes":[],"categories_segments":[],"categories_sizes":[],"default_left":[0,0,0,0,0,0,0,0,0,0,0,0,0,0,0],"id":7,"left_children":[1,3,5,7,9,11,13,-1,-1,-1,-1,-1,-1,-1,-1],"loss_changes":[3.3142633E2,6.226895E1,1.3634212E2,6.151178E1,1.958268E1,3.6625725E1,3.2304153E1,0E0,0E0,0E0,0E0,0E0,0E0,0E0,0E0],"parents":[2147483647,0,0,1,1,2,2,3,3,4,4,5,5,6,6],"right_children":[2,4,6,8,10,12,14,-1,-1,-1,-1,-1,-1,-1,-1],"split_conditions":[1.84E1,2.55E1,2.22E1,1.45E1,4.66E2,2.93E1,2.52E1,-3.0038244E-1,-1.11629486E-1,-6.734427E-2,4.949151E-2,-8.716383E-3,4.219146E-2,9.282553E-2,2.9823923E-1],"split_indices":[3,1,3,3,0,1,3,0,0,0,0,0,0,0,0],"split_type":[0,0,0,0,0,0,0,0,0,0,0,0,0,0,0],"sum_hessian":[9.94E3,2.184E3,7.756E3,1.668E3,5.16E2,5.942E3,1.814E3,1.73E2,1.495E3,2.72E2,2.44E2,4.099E3,1.843E3,1.743E3,7.1E1],"tree_param":{"num_deleted":"0","num_feature":"4","num_nodes":"15","size_leaf_vector":"1"}},{"base_weights":[-2.3400948E-5,-1.7535533E-1,1.0129124E-1,-3.4183106E-1,-9.5294476E-2,5.3432334E-2,2.7843645E-1,-1.2929483E-1,-7.827585E-4,-9.5334664E-2,-2.1628391E-2,9.893669E-3,1.0590976E-1,6.751536E-2,1.7036809E-1],"categories":[],"categories_nodes":[],"categories_segments":[],"categories_sizes":[],"default_left":[0,0,0,0,0,0,0,0,0,0,0,0,0,0,0],"id":8,"left_children":[1,3,5,7,9,11,13,-1,-1,-1,-1,-1,-1,-1,-1],"loss_changes":[1.7660663E2,4.8495354E1,5.3404846E1,3.5745148E1,1.2674824E1,3.0394766E1,2.0578896E1,0E0,0E0,0E0,0E0,0E0,0E0,0E0,0E0],"parents":[2147483647,0,0,1,1,2,2,3,3,4,4,5,5,6,6],"right_children":[2,4,6,8,10,12,14,-1,-1,-1,-1,-1,-1,-1,-1],"split_conditions":[1.95E1,1.72E1,4.06E1,2.54E1,3.99E2,1.7777779E1,2.41E1,-1.2929483E-1,-7.827585E-4,-9.5334664E-2,-2.1628391E-2,9.893669E-3,1.0590976E-1,6.751536E-2,1.7036809E-1],"split_indices":[3,3,1,1,0,2,3,0,0,0,0,0,0,0,0],"split_type":[0,0,0,0,0,0,0,0,0,0,0,0,0,0,0],"sum_hessian":[9.94E3,3.64E3,6.3E3,1.181E3,2.459E3,4.961E3,1.339E3,9.35E2,2.46E2,2.31E2,2.228E3,4.645E3,3.16E2,1.132E3,2.07E2],"tree_param":{"num_deleted":"0","num_feature":"4","num_nodes":"15","size_leaf_vector":"1"}},{"base_weights":[-5.2043893E-6,-9.1195926E-2,1.0876397E-1,-6.572354E-1,-7.899202E-2,7.463605E-2,2.674806E-1,-3.213547E-1,-1.6048425E-1,-4.864641E-2,-9.408712E-3,1.9321237E-2,1.4101717E-1,7.5782984E-2,5.13546E-1],"categories":[],"categories_nodes":[],"categories_segments":[],"categories_sizes":[],"default_left":[0,0,0,0,0,0,0,0,0,0,0,0,0,0,0],"id":9,"left_children":[1,3,5,7,9,11,13,-1,-1,-1,-1,-1,-1,-1,-1],"loss_changes":[9.861211E1,3.7305973E1,2.4539211E1,5.1977234E0,2.0968456E1,1.5073154E1,1.679319E1,0E0,0E0,0E0,0E0,0E0,0E0,0E0,0E0],"parents":[2147483647,0,0,1,1,2,2,3,3,4,4,5,5,6,6],"right_children":[2,4,6,8,10,12,14,-1,-1,-1,-1,-1,-1,-1,-1],"split_conditions":[2.06E1,1.37E1,4.66E1,1.26E1,4.66E2,1.9444445E1,2.68E1,-3.213547E-1,-1.6048425E-1,-4.864641E-2,-9.408712E-3,1.9321237E-2,1.4101717E-1,7.5782984E-2,5.13546E-1],"split_indices":[3,3,1,3,0,2,3,0,0,0,0,0,0,0,0],"split_type":[0,0,0,0,0,0,0,0,0,0,0,0,0,0,0],"sum_hessian":[9.94E3,5.407E3,4.533E3,1.13E2,5.294E3,3.732E3,8.01E2,2.4E1,8.9E1,1.927E3,3.367E3,3.639E3,9.3E1,7.94E2,7E0],"tree_param":{"num_deleted":"0","num_feature":"4","num_nodes":"15","size_leaf_vector":"1"}},{"base_weights":[1.7557546E-5,-1.4382698E-1,3.786561E-2,-1.8197858E-1,1.8129651E-1,5.558992E-3,1.5809637E-1,-1.6314486E-1,-4.992551E-2,3.2837916E-2,3.660728E-1,-1.9341875E-2,1.608849E-2,-4.972724E-1,4.870979E-2],"categories":[],"categories_nodes":[],"categories_segments":[],"categories_sizes":[],"default_left":[0,0,0,0,0,0,0,0,0,0,0,0,0,0,0],"id":10,"left_children":[1,3,5,7,9,11,13,-1,-1,-1,-1,-1,-1,-1,-1],"loss_changes":[5.4126587E1,2.5721642E1,3.0572048E1,1.0348022E1,1.6136765E1,2.0891876E1,1.3191982E1,0E0,0E0,0E0,0E0,0E0,0E0,0E0,0E0],"parents":[2147483647,0,0,1,1,2,2,3,3,4,4,5,5,6,6],"right_children":[2,4,6,8,10,12,14,-1,-1,-1,-1,-1,-1,-1,-1],"split_conditions":[1.83E1,4.18E1,2.23E1,1.33E1,5.8E2,7.7777777E0,-5.5555553E0,-1.6314486E-1,-4.992551E-2,3.2837916E-2,3.660728E-1,-1.9341875E-2,1.608849E-2,-4.972724E-1,4.870979E-2],"split_indices":[3,1,3,3,0,2,2,0,0,0,0,0,0,0,0],"split_type":[0,0,0,0,0,0,0,0,0,0,0,0,0,0,0],"sum_hessian":[9.94E3,2.07E3,7.87E3,1.853E3,2.17E2,6.204E3,1.666E3,7.5E1,1.778E3,2.04E2,1.3E1,2.525E3,3.679E3,3E0,1.663E3],"tree_param":{"num_deleted":"0","num_feature":"4","num_nodes":"15","size_leaf_vector":"1"}},{"base_weights":[-1.4420619E-5,-3.9442E-2,9.117746E-2,-9.0351425E-2,6.1214905E-2,6.7034565E-2,3.7637565E-1,-2.6730625E-2,-8.7729037E-1,1.42437415E-2,1.4568618E-1,1.2443071E-2,6.961461E-2,1.2657867E-1,-5.8111258E-2],"categories":[],"categories_nodes":[],"categories_segments":[],"categories_sizes":[],"default_left":[0,0,0,0,0,0,0,0,0,0,0,0,0,0,0],"id":11,"left_children":[1,3,5,7,9,11,13,-1,-1,-1,-1,-1,-1,-1,-1],"loss_changes":[3.5746216E1,3.557389E1,2.0638187E1,1.606157E1,1.3571421E1,1.1664071E1,6.158478E0,0E0,0E0,0E0,0E0,0E0,0E0,0E0,0E0],"parents":[2147483647,0,0,1,1,2,2,3,3,4,4,5,5,6,6],"right_children":[2,4,6,8,10,12,14,-1,-1,-1,-1,-1,-1,-1,-1],"split_conditions":[3.14E1,1.25E1,5.8E2,2.55E1,2.38E1,6.53E1,6.63E2,-2.6730625E-2,-8.7729037E-1,1.42437415E-2,1.4568618E-1,1.2443071E-2,6.961461E-2,1.2657867E-1,-5.8111258E-2],"split_indices":[1,2,0,3,3,1,0,0,0,0,0,0,0,0,0],"split_type":[0,0,0,0,0,0,0,0,0,0,0,0,0,0,0],"sum_hessian":[9.94E3,6.94E3,3E3,4.609E3,2.331E3,2.767E3,2.33E2,4.608E3,1E0,2.259E3,7.2E1,2.397E3,3.7E2,2.16E2,1.7E1],"tree_param":{"num_deleted":"0","num_feature":"4","num_nodes":"15","size_leaf_vector":"1"}},{"base_weights":[-6.965804E-5,-1.3183992E-1,1.771031E-2,-1.8309799E-1,3.8870533E-3,5.215936E-3,1.6179033E-1,-1.0509164E-1,-4.423932E-2,1.3533658E-1,-1.3441437E-2,-3.6909508E-3,3.2682784E-2,-3.6337785E-2,7.258677E-2],"categories":[],"categories_nodes":[],"categories_segments":[],"categories_sizes":[],"default_left":[0,0,0,0,0,0,0,0,0,0,0,0,0,0,0],"id":12,"left_children":[1,3,5,7,9,11,13,-1,-1,-1,-1,-1,-1,-1,-1],"loss_changes":[2.3292814E1,8.224009E0,1.5768815E1,5.06048E0,7.0976367E0,1.4651593E1,1.5882727E1,0E0,0E0,0E0,0E0,0E0,0E0,0E0,0E0],"parents":[2147483647,0,0,1,1,2,2,3,3,4,4,5,5,6,6],"right_children":[2,4,6,8,10,12,14,-1,-1,-1,-1,-1,-1,-1,-1],"split_conditions":[1.72E1,2.16E1,5.97E1,1.43E1,1.44E1,5.92E2,4.01E2,-1.0509164E-1,-4.423932E-2,1.3533658E-1,-1.3441437E-2,-3.6909508E-3,3.2682784E-2,-3.6337785E-2,7.258677E-2],"split_indices":[3,1,1,3,3,0,0,0,0,0,0,0,0,0,0],"split_type":[0,0,0,0,0,0,0,0,0,0,0,0,0,0,0],"sum_hessian":[9.94E3,1.181E3,8.759E3,8.57E2,3.24E2,8.061E3,6.98E2,1.49E2,7.08E2,3.1E1,2.93E2,6.897E3,1.164E3,1.54E2,5.44E2],"tree_param":{"num_deleted":"0","num_feature":"4","num_nodes":"15","size_leaf_vector":"1"}},{"base_weights":[-4.507519E-5,-6.2890355E-3,2.545408E-1,-4.245666E-2,3.6263477E-2,-1.9163489E0,2.9040897E-1,-2.3266274E-2,5.2181827E-3,6.9564367E-3,6.939911E-2,-8.513806E-1,1.2726146E-1,6.46447E-2,2.0566317E-1],"categories":[],"categories_nodes":[],"categories_segments":[],"categories_sizes":[],"default_left":[0,0,0,0,0,0,0,0,0,0,0,0,0,0,0],"id":13,"left_children":[1,3,5,7,9,11,13,-1,-1,-1,-1,-1,-1,-1,-1],"loss_changes":[1.5804054E1,1.4936223E1,1.9088593E1,1.1021158E1,1.1367621E1,9.831953E0,6.809719E0,0E0,0E0,0E0,0E0,0E0,0E0,0E0,0E0],"parents":[2147483647,0,0,1,1,2,2,3,3,4,4,5,5,6,6],"right_children":[2,4,6,8,10,12,14,-1,-1,-1,-1,-1,-1,-1,-1],"split_conditions":[2.44E1,9.444445E0,-5E0,3.32E1,4.66E1,4.01E2,2.57E1,-2.3266274E-2,5.2181827E-3,6.9564367E-3,6.939911E-2,-8.513806E-1,1.2726146E-1,6.46447E-2,2.0566317E-1],"split_indices":[3,2,2,1,1,0,3,0,0,0,0,0,0,0,0],"split_type":[0,0,0,0,0,0,0,0,0,0,0,0,0,0,0],"sum_hessian":[9.94E3,9.703E3,2.37E2,5.245E3,4.458E3,3E0,2.34E2,3.306E3,1.939E3,4.179E3,2.79E2,2E0,1E0,1.98E2,3.6E1],"tree_param":{"num_deleted":"0","num_feature":"4","num_nodes":"15","size_leaf_vector":"1"}},{"base_weights":[-7.1383205E-5,-1.9073643E-2,5.5304524E-2,-1.2993872E-1,-7.693675E-3,2.8652817E-2,2.9092678E-1,-2.6343802E-2,-1.09021045E-1,-1.204472E-2,1.6235426E-2,2.4901717E-3,4.550487E-2,8.0117404E-2,2.4078323E-1],"categories":[],"categories_nodes":[],"categories_segments":[],"categories_sizes":[],"default_left":[0,0,0,0,0,0,0,0,0,0,0,0,0,0,0],"id":14,"left_children":[1,3,5,7,9,11,13,-1,-1,-1,-1,-1,-1,-1,-1],"loss_changes":[1.0461645E1,9.337667E0,1.594219E1,6.7443666E0,1.3471296E1,5.7152324E0,2.9366798E0,0E0,0E0,0E0,0E0,0E0,0E0,0E0,0E0],"parents":[2147483647,0,0,1,1,2,2,3,3,4,4,5,5,6,6],"right_children":[2,4,6,8,10,12,14,-1,-1,-1,-1,-1,-1,-1,-1],"split_conditions":[2.17E1,4.01E2,1.5833333E1,5.5E1,2.46E1,6.09E1,2.47E1,-2.6343802E-2,-1.09021045E-1,-1.204472E-2,1.6235426E-2,2.4901717E-3,4.550487E-2,8.0117404E-2,2.4078323E-1],"split_indices":[3,0,2,1,1,1,3,0,0,0,0,0,0,0,0],"split_type":[0,0,0,0,0,0,0,0,0,0,0,0,0,0,0],"sum_hessian":[9.94E3,7.401E3,2.539E3,6.88E2,6.713E3,2.282E3,2.57E2,5.84E2,1.04E2,4.402E3,2.311E3,1.959E3,3.23E2,2.47E2,1E1],"tree_param":{"num_deleted":"0","num_feature":"4","num_nodes":"15","size_leaf_vector":"1"}},{"base_weights":[-2.6142054E-5,-1.24819055E-1,6.2075756E-3,-1.0428147E-1,-6.695753E-1,2.2026842E0,4.8143943E-3,-3.710706E-2,1.4276251E-1,-2.2902554E-1,-8.750044E-2,-2.766459E-2,1.3584967E0,-1.0665928E-3,2.4652379E-2],"categories":[],"categories_nodes":[],"categories_segments":[],"categories_sizes":[],"default_left":[0,0,0,0,0,0,0,0,0,0,0,0,0,0,0],"id":15,"left_children":[1,3,5,7,9,11,13,-1,-1,-1,-1,-1,-1,-1,-1],"loss_changes":[7.7341146E0,5.2220893E0,2.8965391E1,5.204726E0,3.8022232E-1,3.2440212E1,6.1280613E0,0E0,0E0,0E0,0E0,0E0,0E0,0E0,0E0],"parents":[2147483647,0,0,1,1,2,2,3,3,4,4,5,5,6,6],"right_children":[2,4,6,8,10,12,14,-1,-1,-1,-1,-1,-1,-1,-1],"split_conditions":[1.54E1,5.97E1,1.48E1,4.7E1,4.53E2,4.26E2,1.611111E1,-3.710706E-2,1.4276251E-1,-2.2902554E-1,-8.750044E-2,-2.766459E-2,1.3584967E0,-1.0665928E-3,2.4652379E-2],"split_indices":[3,1,1,1,0,0,2,0,0,0,0,0,0,0,0],"split_type":[0,0,0,0,0,0,0,0,0,0,0,0,0,0,0],"sum_hessian":[9.94E3,4.72E2,9.468E3,4.56E2,1.6E1,5E0,9.463E3,4.42E2,1.4E1,1.2E1,4E0,3E0,2E0,8.54E3,9.23E2],"tree_param":{"num_deleted":"0","num_feature":"4","num_nodes":"15","size_leaf_vector":"1"}},{"base_weights":[9.641138E-5,-1.1371424E-2,5.6736775E-2,-1.5009278E-2,1.6737124E-1,3.1772804E-2,1.7332505E-1,-5.3851986E-3,6.9161445E-2,6.79709E-2,-9.314599E-1,1.0791095E-2,-2.8063565E-1,1.3838337E-1,3.2942176E-2],"categories":[],"categories_nodes":[],"categories_segments":[],"categories_sizes":[],"default_left":[0,0,0,0,0,0,0,0,0,0,0,0,0,0,0],"id":16,"left_children":[1,3,5,7,9,11,13,-1,-1,-1,-1,-1,-1,-1,-1],"loss_changes":[6.457745E0,5.3786945E0,4.8666806E0,5.857245E0,3.2665833E1,5.636361E0,5.3449364E0,0E0,0E0,0E0,0E0,0E0,0E0,0E0,0E0],"parents":[2147483647,0,0,1,1,2,2,3,3,4,4,5,5,6,6],"right_children":[2,4,6,8,10,12,14,-1,-1,-1,-1,-1,-1,-1,-1],"split_conditions":[5.8E2,6.66E1,2.81E1,2.49E1,1.1666667E1,2.8E1,1.92E1,-5.3851986E-3,6.9161445E-2,6.79709E-2,-9.314599E-1,1.0791095E-2,-2.8063565E-1,1.3838337E-1,3.2942176E-2],"split_indices":[0,1,1,3,2,1,3,0,0,0,0,0,0,0,0],"split_type":[0,0,0,0,0,0,0,0,0,0,0,0,0,0,0],"sum_hessian":[9.94E3,8.267E3,1.673E3,8.103E3,1.64E2,1.379E3,2.94E2,8.008E3,9.5E1,1.62E2,2E0,1.374E3,5E0,5.2E1,2.42E2],"tree_param":{"num_deleted":"0","num_feature":"4","num_nodes":"15","size_leaf_vector":"1"}},{"base_weights":[-2.3501774E-5,-4.7716E-2,1.2144982E-2,-1.5075201E0,-4.5523267E-2,-2.218064E-2,4.0429406E-2,-7.052602E-1,2.6876165E-2,-1.7075967E-2,4.5266457E-2,-9.422701E-3,3.1560425E-2,1.0840643E-2,7.429202E-2],"categories":[],"categories_nodes":[],"categories_segments":[],"categories_sizes":[],"default_left":[0,0,0,0,0,0,0,0,0,0,0,0,0,0,0],"id":17,"left_children":[1,3,5,7,9,11,13,-1,-1,-1,-1,-1,-1,-1,-1],"loss_changes":[5.769793E0,6.400514E0,7.6912403E0,4.251355E0,4.527972E0,4.2105184E0,3.855227E0,0E0,0E0,0E0,0E0,0E0,0E0,0E0,0E0],"parents":[2147483647,0,0,1,1,2,2,3,3,4,4,5,5,6,6],"right_children":[2,4,6,8,10,12,14,-1,-1,-1,-1,-1,-1,-1,-1],"split_conditions":[4.26E2,-5.5555553E0,2.28E1,3.96E2,2.44E1,2.17E1,6.66E1,-7.052602E-1,2.6876165E-2,-1.7075967E-2,4.5266457E-2,-9.422701E-3,3.1560425E-2,1.0840643E-2,7.429202E-2],"split_indices":[0,2,1,0,3,3,1,0,0,0,0,0,0,0,0],"split_type":[0,0,0,0,0,0,0,0,0,0,0,0,0,0,0],"sum_hessian":[9.94E3,2.02E3,7.92E3,2E0,2.018E3,3.578E3,4.342E3,1E0,1E0,1.908E3,1.1E2,3.337E3,2.41E2,4.255E3,8.7E1],"tree_param":{"num_deleted":"0","num_feature":"4","num_nodes":"15","size_leaf_vector":"1"}},{"base_weights":[-7.142638E-5,-4.4589326E-1,1.0524637E-3,-2.2039843E-1,-3.3696812E-1,-2.652985E-3,1.0086698E-1,-1.07252456E-1,-3.0421544E-2,-2.215911E-3,2.208073E-2,2.224885E-2,8.637938E-2],"categories":[],"categories_nodes":[],"categories_segments":[],"categories_sizes":[],"default_left":[0,0,0,0,0,0,0,0,0,0,0,0,0],"id":18,"left_children":[1,3,5,-1,7,9,11,-1,-1,-1,-1,-1,-1],"loss_changes":[4.981454E0,5.387955E-1,3.668145E0,0E0,6.0516357E-2,3.452272E0,1.7520106E0,0E0,0E0,0E0,0E0,0E0,0E0],"parents":[2147483647,0,0,1,1,2,2,4,4,5,5,6,6],"right_children":[2,4,6,-1,8,10,12,-1,-1,-1,-1,-1,-1],"split_conditions":[1.26E1,4.21E2,1.7777779E1,-2.2039843E-1,2.49E1,6.25E2,2.2222221E1,-1.07252456E-1,-3.0421544E-2,-2.215911E-3,2.208073E-2,2.224885E-2,8.637938E-2],"split_indices":[3,0,2,0,1,0,2,0,0,0,0,0,0],"split_type":[0,0,0,0,0,0,0,0,0,0,0,0,0],"sum_hessian":[9.94E3,2.4E1,9.916E3,5E0,1.9E1,9.562E3,3.54E2,1.7E1,2E0,9.004E3,5.58E2,3.11E2,4.3E1],"tree_param":{"num_deleted":"0","num_feature":"4","num_nodes":"13","size_leaf_vector":"1"}},{"base_weights":[-7.27516E-5,-6.66332E-3,4.4327732E-2,-1.8790372E-1,-4.4161095E-3,3.3507663E-1,3.2039832E-2,-7.742618E-2,3.8036957E-2,-9.793457E-2,-1.0414643E-3,6.481277E-2,2.0266804E-1,3.943399E-3,5.6905888E-2],"categories":[],"categories_nodes":[],"categories_segments":[],"categories_sizes":[],"default_left":[0,0,0,0,0,0,0,0,0,0,0,0,0,0,0],"id":19,"left_children":[1,3,5,7,9,11,13,-1,-1,-1,-1,-1,-1,-1,-1],"loss_changes":[2.9092746E0,3.525039E0,4.5801764E0,2.3738713E0,2.6002111E0,1.961565E0,3.6732922E0,0E0,0E0,0E0,0E0,0E0,0E0,0E0,0E0],"parents":[2147483647,0,0,1,1,2,2,3,3,4,4,5,5,6,6],"right_children":[2,4,6,8,10,12,14,-1,-1,-1,-1,-1,-1,-1,-1],"split_conditions":[2.27E1,3.37E2,3.11E2,5.79E1,1.26E1,6.45E1,5.96E2,-7.742618E-2,3.8036957E-2,-9.793457E-2,-1.0414643E-3,6.481277E-2,2.0266804E-1,3.943399E-3,5.6905888E-2],"split_indices":[3,0,0,1,3,1,0,0,0,0,0,0,0,0,0],"split_type":[0,0,0,0,0,0,0,0,0,0,0,0,0,0,0],"sum_hessian":[9.94E3,8.656E3,1.284E3,1.05E2,8.551E3,5.1E1,1.233E3,8.6E1,1.9E1,2.4E1,8.527E3,3.9E1,1.2E1,1.102E3,1.31E2],"tree_param":{"num_deleted":"0","num_feature":"4","num_nodes":"15","size_leaf_vector":"1"}},{"base_weights":[-3.1753105E-5,-4.8360035E-2,5.6689554E-3,-6.338692E-1,-4.2398266E-2,-5.278064E-4,8.966586E-2,2.7743308E-2,-1.8944228E-2,-1.22952135E-2,3.2061741E-3,9.155763E-2,8.8905785E-3],"categories":[],"categories_nodes":[],"categories_segments":[],"categories_sizes":[],"default_left":[0,0,0,0,0,0,0,0,0,0,0,0,0],"id":20,"left_children":[1,3,5,-1,7,9,11,-1,-1,-1,-1,-1,-1],"loss_changes":[2.7390735E0,1.2821816E1,4.628932E0,0E0,2.935935E0,3.7585912E0,7.8961763E0,0E0,0E0,0E0,0E0,0E0,0E0],"parents":[2147483647,0,0,1,1,2,2,4,4,5,5,6,6],"right_children":[2,4,6,-1,8,10,12,-1,-1,-1,-1,-1,-1],"split_conditions":[4.01E2,-5E0,5.89E1,-6.338692E-1,-5.555556E-1,1.83E1,1.94E1,2.7743308E-2,-1.8944228E-2,-1.22952135E-2,3.2061741E-3,9.155763E-2,8.8905785E-3],"split_indices":[0,2,1,0,2,3,3,0,0,0,0,0,0],"split_type":[0,0,0,0,0,0,0,0,0,0,0,0,0],"sum_hessian":[9.94E3,1.048E3,8.892E3,2E0,1.046E3,8.282E3,6.1E2,1.39E2,9.07E2,1.797E3,6.485E3,1.32E2,4.78E2],"tree_param":{"num_deleted":"0","num_feature":"4","num_nodes":"13","size_leaf_vector":"1"}},{"base_weights":[-7.6063225E-5,-2.585674E-2,7.7843633E-3,-3.0546667E-2,3.336282E-1,6.8377047E-3,4.0715748E-1,-1.5827654E-2,5.7248087E-3,1.2924281E-2,2.2975773E-1,8.057676E-2,1.6357265E-3,5.935669E-3,1.3630271E-1],"categories":[],"categories_nodes":[],"categories_segments":[],"categories_sizes":[],"default_left":[0,0,0,0,0,0,0,0,0,0,0,0,0,0,0],"id":21,"left_children":[1,3,5,7,9,11,13,-1,-1,-1,-1,-1,-1,-1,-1],"loss_changes":[2.0147164E0,3.9266715E0,2.8777318E0,2.529858E0,3.734511E0,2.7550204E0,3.2001638E-1,0E0,0E0,0E0,0E0,0E0,0E0,0E0,0E0],"parents":[2147483647,0,0,1,1,2,2,3,3,4,4,5,5,6,6],"right_children":[2,4,6,8,10,12,14,-1,-1,-1,-1,-1,-1,-1,-1],"split_conditions":[3.3333333E0,5.72E2,2.57E1,2.13E1,1.9444444E0,3.6111112E0,4.01E2,-1.5827654E-2,5.7248087E-3,1.2924281E-2,2.2975773E-1,8.057676E-2,1.6357265E-3,5.935669E-3,1.3630271E-1],"split_indices":[2,0,3,3,2,2,0,0,0,0,0,0,0,0,0],"split_type":[0,0,0,0,0,0,0,0,0,0,0,0,0,0,0],"sum_hessian":[9.94E3,2.322E3,7.618E3,2.293E3,2.9E1,7.601E3,1.7E1,1.584E3,7.09E2,1.8E1,1.1E1,3.9E1,7.562E3,2E0,1.5E1],"tree_param":{"num_deleted":"0","num_feature":"4","num_nodes":"15","size_leaf_vector":"1"}},{"base_weights":[-7.832869E-6,-9.2004455E-4,2.0519851E-1,-1.9594474E-1,-1.4855538E-4,1.5655598E-1,1.659897E-1,-5.0824016E-1,-2.0752246E-2,-4.4255046E-4,5.7271615E-2,5.073847E-2,-5.0064184E-2],"categories":[],"categories_nodes":[],"categories_segments":[],"categories_sizes":[],"default_left":[0,0,0,0,0,0,0,0,0,0,0,0,0],"id":22,"left_children":[1,3,5,7,9,11,-1,-1,-1,-1,-1,-1,-1],"loss_changes":[1.8610607E0,1.4892184E0,6.58407E-1,7.289936E0,2.4993436E0,1.9087696E-1,0E0,0E0,0E0,0E0,0E0,0E0,0E0],"parents":[2147483647,0,0,1,1,2,2,3,3,4,4,5,5],"right_children":[2,4,6,8,10,12,-1,-1,-1,-1,-1,-1,-1],"split_conditions":[2.2222221E1,-5E0,2.44E1,4.01E2,2.52E1,6.1E2,1.659897E-1,-5.0824016E-1,-2.0752246E-2,-4.4255046E-4,5.7271615E-2,5.073847E-2,-5.0064184E-2],"split_indices":[2,2,3,0,3,0,0,0,0,0,0,0,0],"split_type":[0,0,0,0,0,0,0,0,0,0,0,0,0],"sum_hessian":[9.94E3,9.897E3,4.3E1,3.8E1,9.859E3,3.9E1,4E0,2E0,3.6E1,9.792E3,6.7E1,3.8E1,1E0],"tree_param":{"num_deleted":"0","num_feature":"4","num_nodes":"13","size_leaf_vector":"1"}},{"base_weights":[-3.6265432E-5,-5.4709747E-2,2.6948142E-3,-3.5926607E-2,-5.564265E-1,1.7998532E0,1.5551645E-3,1.9218837E-1,-1.29944375E-2,-1.8515761E-1,-8.614524E-2,-9.538866E-3,1.0926304E0,-1.4273187E-3,9.049008E-3],"categories":[],"categories_nodes":[],"categories_segments":[],"categories_sizes":[],"default_left":[0,0,0,0,0,0,0,0,0,0,0,0,0,0,0],"id":23,"left_children":[1,3,5,7,9,11,13,-1,-1,-1,-1,-1,-1,-1,-1],"loss_changes":[1.484514E0,4.4374743E0,1.9390953E1,2.312066E0,1.0093832E-1,2.036192E1,1.7093465E0,0E0,0E0,0E0,0E0,0E0,0E0,0E0,0E0],"parents":[2147483647,0,0,1,1,2,2,3,3,4,4,5,5,6,6],"right_children":[2,4,6,8,10,12,14,-1,-1,-1,-1,-1,-1,-1,-1],"split_conditions":[1.54E1,5.97E1,1.48E1,-3.8888888E0,4.53E2,4.26E2,4.06E1,1.9218837E-1,-1.29944375E-2,-1.8515761E-1,-8.614524E-2,-9.538866E-3,1.0926304E0,-1.4273187E-3,9.049008E-3],"split_indices":[3,1,1,2,0,0,1,0,0,0,0,0,0,0,0],"split_type":[0,0,0,0,0,0,0,0,0,0,0,0,0,0,0],"sum_hessian":[9.94E3,4.72E2,9.468E3,4.56E2,1.6E1,5E0,9.463E3,4E0,4.52E2,1.2E1,4E0,3E0,2E0,7.753E3,1.71E3],"tree_param":{"num_deleted":"0","num_feature":"4","num_nodes":"15","size_leaf_vector":"1"}},{"base_weights":[7.4708834E-5,-2.4425574E-2,6.325813E-3,3.3799455E-2,-4.530443E-2,-1.02921445E-2,2.1823281E-2,-9.050597E-2,1.4232098E-2,-2.712536E-1,-1.3062004E-2,-5.048968E-3,1.8398507E-2,1.1191922E-1,5.794752E-3],"categories":[],"categories_nodes":[],"categories_segments":[],"categories_sizes":[],"default_left":[0,0,0,0,0,0,0,0,0,0,0,0,0,0,0],"id":24,"left_children":[1,3,5,7,9,11,13,-1,-1,-1,-1,-1,-1,-1,-1],"loss_changes":[1.5226566E0,2.4584045E0,2.0401695E0,2.4580677E0,2.2155678E0,1.791101E0,3.6028514E0,0E0,0E0,0E0,0E0,0E0,0E0,0E0,0E0],"parents":[2147483647,0,0,1,1,2,2,3,3,4,4,5,5,6,6],"right_children":[2,4,6,8,10,12,14,-1,-1,-1,-1,-1,-1,-1,-1],"split_conditions":[4.26E2,2.18E1,2.32E1,1.44E1,-5.5555553E0,2.17E1,1.44E1,-9.050597E-2,1.4232098E-2,-2.712536E-1,-1.3062004E-2,-5.048968E-3,1.8398507E-2,1.1191922E-1,5.794752E-3],"split_indices":[0,1,1,3,2,3,3,0,0,0,0,0,0,0,0],"split_type":[0,0,0,0,0,0,0,0,0,0,0,0,0,0,0],"sum_hessian":[9.94E3,2.02E3,7.92E3,5.33E2,1.487E3,3.822E3,4.098E3,2E1,5.13E2,2E0,1.485E3,3.503E3,3.19E2,2.8E1,4.07E3],"tree_param":{"num_deleted":"0","num_feature":"4","num_nodes":"15","size_leaf_vector":"1"}},{"base_weights":[2.9140741E-5,-3.8758789E-3,3.8141087E-2,-2.141755E-3,-1.6008303E-1,3.8564717E-3,1.2662828E-1,-1.197981E-3,2.8837476E-2,-1.1676234E0,-2.468591E-2,1.305594E-2,-5.2105434E-2,5.73297E-2,4.7530057E-3],"categories":[],"categories_nodes":[],"categories_segments":[],"categories_sizes":[],"default_left":[0,0,0,0,0,0,0,0,0,0,0,0,0,0,0],"id":25,"left_children":[1,3,5,7,9,11,13,-1,-1,-1,-1,-1,-1,-1,-1],"loss_changes":[1.4796458E0,2.442476E0,2.8026958E0,1.6233077E0,2.8423073E1,4.7044907E0,1.8397074E0,0E0,0E0,0E0,0E0,0E0,0E0,0E0,0E0],"parents":[2147483647,0,0,1,1,2,2,3,3,4,4,5,5,6,6],"right_children":[2,4,6,8,10,12,14,-1,-1,-1,-1,-1,-1,-1,-1],"split_conditions":[1.611111E1,1.5555555E1,2.17E1,6.66E1,4.26E2,2.13E1,5.69E2,-1.197981E-3,2.8837476E-2,-1.1676234E0,-2.468591E-2,1.305594E-2,-5.2105434E-2,5.73297E-2,4.7530057E-3],"split_indices":[2,2,3,1,0,3,0,0,0,0,0,0,0,0,0],"split_type":[0,0,0,0,0,0,0,0,0,0,0,0,0,0,0],"sum_hessian":[9.94E3,9.017E3,9.23E2,8.919E3,9.8E1,6.66E2,2.57E2,8.755E3,1.64E2,1E0,9.7E1,5.45E2,1.21E2,1.62E2,9.5E1],"tree_param":{"num_deleted":"0","num_feature":"4","num_nodes":"15","size_leaf_vector":"1"}},{"base_weights":[-9.456649E-5,-3.1148072E-3,4.500591E-2,-1.7171752E-3,-1.4325432E-1,2.5004707E-3,1.24155946E-1,-3.643948E-2,-2.0885612E-4,-1.060553E-2,-2.3887515E-1,3.6437397E-3,-2.2037528E-2,3.0461484E-1,2.9540423E-2],"categories":[],"categories_nodes":[],"categories_segments":[],"categories_sizes":[],"default_left":[0,0,0,0,0,0,0,0,0,0,0,0,0,0,0],"id":26,"left_children":[1,3,5,7,9,11,13,-1,-1,-1,-1,-1,-1,-1,-1],"loss_changes":[1.3542465E0,1.8248098E0,2.0990171E0,1.128018E0,6.454167E0,2.9908013E-1,4.8908486E0,0E0,0E0,0E0,0E0,0E0,0E0,0E0,0E0],"parents":[2147483647,0,0,1,1,2,2,3,3,4,4,5,5,6,6],"right_children":[2,4,6,8,10,12,14,-1,-1,-1,-1,-1,-1,-1,-1],"split_conditions":[6.25E2,6.2E2,2.39E1,1.33E1,2.93E1,2.15E1,2.4E1,-3.643948E-2,-2.0885612E-4,-1.060553E-2,-2.3887515E-1,3.6437397E-3,-2.2037528E-2,3.0461484E-1,2.9540423E-2],"split_indices":[0,0,1,3,1,3,1,0,0,0,0,0,0,0,0],"split_type":[0,0,0,0,0,0,0,0,0,0,0,0,0,0,0],"sum_hessian":[9.94E3,9.317E3,6.23E2,9.226E3,9.1E1,4.06E2,2.17E2,7.7E1,9.149E3,7.9E1,1.2E1,3.61E2,4.5E1,5E0,2.12E2],"tree_param":{"num_deleted":"0","num_feature":"4","num_nodes":"15","size_leaf_vector":"1"}},{"base_weights":[-6.238187E-5,-2.1198525E-1,4.718658E-4,1.4636707E-1,-2.6147547E-1,-1.2969799E-2,8.581116E-3,-5.628678E-2,-2.1477148E-1,-1.5037411E-4,-3.173327E-2,2.7527803E-4,2.5225611E-2],"categories":[],"categories_nodes":[],"categories_segments":[],"categories_sizes":[],"default_left":[0,0,0,0,0,0,0,0,0,0,0,0,0],"id":27,"left_children":[1,3,5,-1,7,9,11,-1,-1,-1,-1,-1,-1],"loss_changes":[1.125613E0,9.934964E-1,1.0810825E0,0E0,6.7114234E-1,4.318537E0,3.5793185E0,0E0,0E0,0E0,0E0,0E0,0E0],"parents":[2147483647,0,0,1,1,2,2,4,4,5,5,6,6],"right_children":[2,4,6,-1,8,10,12,-1,-1,-1,-1,-1,-1],"split_conditions":[-6.111111E0,4.32E2,4.66E2,1.4636707E-1,4.06E1,4.55E2,4.7E1,-5.628678E-2,-2.1477148E-1,-1.5037411E-4,-3.173327E-2,2.7527803E-4,2.5225611E-2],"split_indices":[2,0,0,0,1,0,1,0,0,0,0,0,0],"split_type":[0,0,0,0,0,0,0,0,0,0,0,0,0],"sum_hessian":[9.94E3,2.4E1,9.916E3,1E0,2.3E1,3.731E3,6.185E3,2.1E1,2E0,3.29E3,4.41E2,5.616E3,5.69E2],"tree_param":{"num_deleted":"0","num_feature":"4","num_nodes":"13","size_leaf_vector":"1"}},{"base_weights":[-5.64103E-5,-2.9045524E-2,3.3630922E-3,-3.7965873E-1,-2.5474848E-2,2.3050096E-3,1.7029116E-1,1.9880587E-2,-1.4695559E-2,-1.1957155E-1,7.7311584E-4,1.1772943E-1,-3.0335428E-2],"categories":[],"categories_nodes":[],"categories_segments":[],"categories_sizes":[],"default_left":[0,0,0,0,0,0,0,0,0,0,0,0,0],"id":28,"left_children":[1,3,5,-1,7,9,11,-1,-1,-1,-1,-1,-1],"loss_changes":[9.855326E-1,4.5991793E0,1.5703218E0,0E0,2.261542E0,9.6486175E-1,3.4159741E0,0E0,0E0,0E0,0E0,0E0,0E0],"parents":[2147483647,0,0,1,1,2,2,4,4,5,5,6,6],"right_children":[2,4,6,-1,8,10,12,-1,-1,-1,-1,-1,-1],"split_conditions":[4.01E2,-5E0,2.5E1,-3.7965873E-1,2.19E1,1.24E1,4.84E2,1.9880587E-2,-1.4695559E-2,-1.1957155E-1,7.7311584E-4,1.1772943E-1,-3.0335428E-2],"split_indices":[0,2,3,0,1,3,0,0,0,0,0,0,0],"split_type":[0,0,0,0,0,0,0,0,0,0,0,0,0],"sum_hessian":[9.94E3,1.048E3,8.892E3,2E0,1.046E3,8.837E3,5.5E1,2.13E2,8.33E2,5E0,8.832E3,3E1,2.5E1],"tree_param":{"num_deleted":"0","num_feature":"4","num_nodes":"13","size_leaf_vector":"1"}},{"base_weights":[-7.974774E-5,-3.8733194E-4,3.3939955E-1,5.726847E-6,-5.856371E-1,-4.9613315E-1,7.952688E-1,-2.3811447E-4,5.5163156E-2,2.8599644E-2,2.6449227E-1],"categories":[],"categories_nodes":[],"categories_segments":[],"categories_sizes":[],"default_left":[0,0,0,0,0,0,0,0,0,0,0],"id":29,"left_children":[1,3,5,7,-1,-1,9,-1,-1,-1,-1],"loss_changes":[1.0381556E0,7.620084E0,9.492848E0,1.4600955E0,0E0,0E0,3.9959097E-1,0E0,0E0,0E0,0E0],"parents":[2147483647,0,0,1,1,2,2,3,3,6,6],"right_children":[2,4,6,8,-1,-1,10,-1,-1,-1,-1],"split_conditions":[2.68E1,2.66E1,4.6E1,6.76E1,-5.856371E-1,-4.9613315E-1,4.92E1,-2.3811447E-4,5.5163156E-2,2.8599644E-2,2.6449227E-1],"split_indices":[3,3,1,1,0,0,1,0,0,0,0],"split_type":[0,0,0,0,0,0,0,0,0,0,0],"sum_hessian":[9.94E3,9.932E3,8E0,9.931E3,1E0,1E0,7E0,9.889E3,4.2E1,1E0,6E0],"tree_param":{"num_deleted":"0","num_feature":"4","num_nodes":"11","size_leaf_vector":"1"}},{"base_weights":[-1.2932844E-4,8.8911176E-2,-1.1529776E-3,1.466054E-2,2.1085758E0,-3.4218542E-2,2.8902204E-3,-4.8628896E-3,6.8249874E-2,-4.7832873E-2,8.7531894E-1,2.001651E-1,-1.1440345E-2,1.4438721E-2,-6.9860567E-4],"categories":[],"categories_nodes":[],"categories_segments":[],"categories_sizes":[],"default_left":[0,0,0,0,0,0,0,0,0,0,0,0,0,0,0],"id":30,"left_children":[1,3,5,7,9,11,13,-1,-1,-1,-1,-1,-1,-1,-1],"loss_changes":[9.061872E-1,1.6914722E1,1.3141439E0,7.264291E-1,7.805914E0,2.9672465E0,2.068088E0,0E0,0E0,0E0,0E0,0E0,0E0,0E0,0E0],"parents":[2147483647,0,0,1,1,2,2,3,3,4,4,5,5,6,6],"right_children":[2,4,6,8,10,12,14,-1,-1,-1,-1,-1,-1,-1,-1],"split_conditions":[1.48E1,1.55E1,1.72E1,5.38E2,4.26E2,3.53E2,1.97E1,-4.8628896E-3,6.8249874E-2,-4.7832873E-2,8.7531894E-1,2.001651E-1,-1.1440345E-2,1.4438721E-2,-6.9860567E-4],"split_indices":[1,3,3,0,0,0,1,0,0,0,0,0,0,0,0],"split_type":[0,0,0,0,0,0,0,0,0,0,0,0,0,0,0],"sum_hessian":[9.94E3,1.12E2,9.828E3,1.09E2,3E0,1.07E3,8.758E3,9.6E1,1.3E1,1E0,2E0,5E0,1.065E3,9.05E2,7.853E3],"tree_param":{"num_deleted":"0","num_feature":"4","num_nodes":"15","size_leaf_vector":"1"}},{"base_weights":[1.904557E-5,2.166567E-3,-3.4330316E-2,-3.223287E-4,1.1789553E-1,-2.5024503E-2,-7.991495E-1,-2.7213874E-4,6.1553985E-2,-2.8358141E-2,5.2819524E-2,-4.00152E-2,8.3490545E-3,-9.924012E-1,5.1098064E-2],"categories":[],"categories_nodes":[],"categories_segments":[],"categories_sizes":[],"default_left":[0,0,0,0,0,0,0,0,0,0,0,0,0,0,0],"id":31,"left_children":[1,3,5,7,9,11,13,-1,-1,-1,-1,-1,-1,-1,-1],"loss_changes":[7.3338205E-1,2.6952028E0,4.1436005E0,1.1011351E0,2.450879E0,3.3198228E0,1.7589367E1,0E0,0E0,0E0,0E0,0E0,0E0,0E0,0E0],"parents":[2147483647,0,0,1,1,2,2,3,3,4,4,5,5,6,6],"right_children":[2,4,6,8,10,12,14,-1,-1,-1,-1,-1,-1,-1,-1],"split_conditions":[6.35E1,5.89E1,1.5555555E1,2.57E1,4.06E2,6.53E1,4.26E2,-2.7213874E-4,6.1553985E-2,-2.8358141E-2,5.2819524E-2,-4.00152E-2,8.3490545E-3,-9.924012E-1,5.1098064E-2],"split_indices":[1,1,2,3,0,1,0,0,0,0,0,0,0,0,0],"split_type":[0,0,0,0,0,0,0,0,0,0,0,0,0,0,0],"sum_hessian":[9.94E3,9.356E3,5.84E2,9.16E3,1.96E2,5.78E2,6E0,9.135E3,2.5E1,4.2E1,1.54E2,1.89E2,3.89E2,1E0,5E0],"tree_param":{"num_deleted":"0","num_feature":"4","num_nodes":"15","size_leaf_vector":"1"}},{"base_weights":[-7.541692E-5,-1.7206237E-3,4.4354647E-2,-7.89547E-3,1.18596675E-2,1.7565449E-1,2.2755474E-2,-1.9733578E-3,-2.1891819E-1,4.3430156E-3,-1.2661992E-1,4.2765215E-2,1.9402906E-1,-1.0568433E-2,2.235417E-2],"categories":[],"categories_nodes":[],"categories_segments":[],"categories_sizes":[],"default_left":[0,0,0,0,0,0,0,0,0,0,0,0,0,0,0],"id":32,"left_children":[1,3,5,7,9,11,13,-1,-1,-1,-1,-1,-1,-1,-1],"loss_changes":[7.2673E-1,8.04023E-1,1.0027716E0,6.2638555E0,3.4095218E0,6.8757784E-1,9.209734E-1,0E0,0E0,0E0,0E0,0E0,0E0,0E0,0E0],"parents":[2147483647,0,0,1,1,2,2,3,3,4,4,5,5,6,6],"right_children":[2,4,6,8,10,12,14,-1,-1,-1,-1,-1,-1,-1,-1],"split_conditions":[1.7777779E1,3.14E1,1.98E1,2.48E1,6.63E2,2.44E1,2.27E1,-1.9733578E-3,-2.1891819E-1,4.3430156E-3,-1.2661992E-1,4.2765215E-2,1.9402906E-1,-1.0568433E-2,2.235417E-2],"split_indices":[2,1,3,3,0,1,1,0,0,0,0,0,0,0,0],"split_type":[0,0,0,0,0,0,0,0,0,0,0,0,0,0,0],"sum_hessian":[9.94E3,9.586E3,3.54E2,6.59E3,2.996E3,4.9E1,3.05E2,6.579E3,1.1E1,2.979E3,1.7E1,4.7E1,2E0,1.44E2,1.61E2],"tree_param":{"num_deleted":"0","num_feature":"4","num_nodes":"15","size_leaf_vector":"1"}},{"base_weights":[-6.186738E-5,-7.2303656E-3,1.0613718E-2,-1.6883895E-2,2.1793596E-2,5.3370288E-3,7.7991374E-2,-7.3732296E-4,-1.110703E-2,7.371637E-3,-1.48279E-1,1.9216482E-3,-2.9545844E-1,8.6072735E-2,9.341995E-3],"categories":[],"categories_nodes":[],"categories_segments":[],"categories_sizes":[],"default_left":[0,0,0,0,0,0,0,0,0,0,0,0,0,0,0],"id":33,"left_children":[1,3,5,7,9,11,13,-1,-1,-1,-1,-1,-1,-1,-1],"loss_changes":[7.608408E-1,1.6669003E0,1.4195744E0,1.2968619E0,2.1414533E0,3.9261694E0,2.8296103E0,0E0,0E0,0E0,0E0,0E0,0E0,0E0,0E0],"parents":[2147483647,0,0,1,1,2,2,3,3,4,4,5,5,6,6],"right_children":[2,4,6,8,10,12,14,-1,-1,-1,-1,-1,-1,-1,-1],"split_conditions":[5.17E2,1E1,4.7E1,5E0,6.69E1,2.56E1,5.36E2,-7.3732296E-4,-1.110703E-2,7.371637E-3,-1.48279E-1,1.9216482E-3,-2.9545844E-1,8.6072735E-2,9.341995E-3],"split_indices":[0,2,1,2,1,3,0,0,0,0,0,0,0,0,0],"split_type":[0,0,0,0,0,0,0,0,0,0,0,0,0,0,0],"sum_hessian":[9.94E3,5.947E3,3.993E3,4.463E3,1.484E3,3.704E3,2.89E2,2.601E3,1.862E3,1.477E3,7E0,3.701E3,3E0,5.2E1,2.37E2],"tree_param":{"num_deleted":"0","num_feature":"4","num_nodes":"15","size_leaf_vector":"1"}},{"base_weights":[-7.820005E-5,-2.1628288E-3,3.1051043E-2,-1.1114257E-3,-1.0758819E-1,1.0933481E-2,1.6024807E-1,2.2326339E-2,-6.143076E-4,-7.825274E-3,-1.8026248E-1,6.5093294E-2,-8.6351926E-4,1.8531825E-1,-3.6139982E-3],"categories":[],"categories_nodes":[],"categories_segments":[],"categories_sizes":[],"default_left":[0,0,0,0,0,0,0,0,0,0,0,0,0,0,0],"id":34,"left_children":[1,3,5,7,9,11,13,-1,-1,-1,-1,-1,-1,-1,-1],"loss_changes":[6.451676E-1,1.0327299E0,1.6201048E0,6.5267277E-1,3.6831694E0,1.5402331E0,6.62843E0,0E0,0E0,0E0,0E0,0E0,0E0,0E0,0E0],"parents":[2147483647,0,0,1,1,2,2,3,3,4,4,5,5,6,6],"right_children":[2,4,6,8,10,12,14,-1,-1,-1,-1,-1,-1,-1,-1],"split_conditions":[6.25E2,6.2E2,2.96E1,1.48E1,2.93E1,6.28E2,3.6E1,2.2326339E-2,-6.143076E-4,-7.825274E-3,-1.8026248E-1,6.5093294E-2,-8.6351926E-4,1.8531825E-1,-3.6139982E-3],"split_indices":[0,0,1,1,1,0,1,0,0,0,0,0,0,0,0],"split_type":[0,0,0,0,0,0,0,0,0,0,0,0,0,0,0],"sum_hessian":[9.94E3,9.317E3,6.23E2,9.226E3,9.1E1,5.4E2,8.3E1,1.12E2,9.114E3,7.9E1,1.2E1,3.3E1,5.07E2,2.2E1,6.1E1],"tree_param":{"num_deleted":"0","num_feature":"4","num_nodes":"15","size_leaf_vector":"1"}},{"base_weights":[-4.6842284E-5,-1.3152515E-3,5.167034E-2,-2.9831044E-2,1.5106414E-3,8.862936E-2,-3.1522864E-1,1.2522645E-2,-1.9725187E-2,-5.17472E-3,1.8949303E-3,6.7425766E-3,1.0446734E-1,-5.4267913E-1,6.9150925E-2],"categories":[],"categories_nodes":[],"categories_segments":[],"categories_sizes":[],"default_left":[0,0,0,0,0,0,0,0,0,0,0,0,0,0,0],"id":35,"left_children":[1,3,5,7,9,11,13,-1,-1,-1,-1,-1,-1,-1,-1],"loss_changes":[6.521831E-1,7.8201836E-1,3.2552722E0,2.2522635E0,7.9618007E-1,3.7187762E0,1.8350494E1,0E0,0E0,0E0,0E0,0E0,0E0,0E0,0E0],"parents":[2147483647,0,0,1,1,2,2,3,3,4,4,5,5,6,6],"right_children":[2,4,6,8,10,12,14,-1,-1,-1,-1,-1,-1,-1,-1],"split_conditions":[2.44E1,3.98E2,5.56E2,2.43E1,3.3333333E0,4.9E2,5.67E2,1.2522645E-2,-1.9725187E-2,-5.17472E-3,1.8949303E-3,6.7425766E-3,1.0446734E-1,-5.4267913E-1,6.9150925E-2],"split_indices":[3,0,0,1,2,0,0,0,0,0,0,0,0,0,0],"split_type":[0,0,0,0,0,0,0,0,0,0,0,0,0,0,0],"sum_hessian":[9.94E3,9.703E3,2.37E2,8.74E2,8.829E3,2.16E2,2.1E1,2.92E2,5.82E2,1.8E3,7.029E3,1.73E2,4.3E1,5E0,1.6E1],"tree_param":{"num_deleted":"0","num_feature":"4","num_nodes":"15","size_leaf_vector":"1"}},{"base_weights":[-6.962475E-5,-8.577458E-2,6.080979E-4,-6.0516667E-2,-4.4243678E-1,1.4856869E-1,-2.5184927E-4,-5.9761498E-2,-4.6975994E-3,-4.3867707E-2,-2.4409218E-1,9.945843E-3,5.008623E-1,-1.6683709E-3,3.5553032E-3],"categories":[],"categories_nodes":[],"categories_segments":[],"categories_sizes":[],"default_left":[0,0,0,0,0,0,0,0,0,0,0,0,0,0,0],"id":36,"left_children":[1,3,5,7,9,11,13,-1,-1,-1,-1,-1,-1,-1,-1],"loss_changes":[5.7746714E-1,6.758916E-1,1.255116E0,4.5725545E-1,4.307983E-1,9.950678E0,6.3031584E-1,0E0,0E0,0E0,0E0,0E0,0E0,0E0,0E0],"parents":[2147483647,0,0,1,1,2,2,3,3,4,4,5,5,6,6],"right_children":[2,4,6,8,10,12,14,-1,-1,-1,-1,-1,-1,-1,-1],"split_conditions":[1.33E1,3.74E1,1.48E1,4.43E2,4.4444447E0,1.55E1,3.14E1,-5.9761498E-2,-4.6975994E-3,-4.3867707E-2,-2.4409218E-1,9.945843E-3,5.008623E-1,-1.6683709E-3,3.5553032E-3],"split_indices":[3,1,1,0,2,3,1,0,0,0,0,0,0,0,0],"split_type":[0,0,0,0,0,0,0,0,0,0,0,0,0,0,0],"sum_hessian":[9.94E3,7.7E1,9.863E3,7.3E1,4E0,5.6E1,9.807E3,1.7E1,5.6E1,3E0,1E0,5.3E1,3E0,6.817E3,2.99E3],"tree_param":{"num_deleted":"0","num_feature":"4","num_nodes":"15","size_leaf_vector":"1"}},{"base_weights":[-3.227268E-5,-1.4798477E-1,3.4070754E-4,1.22978784E-1,-1.8831158E-1,6.1433148E-2,-1.2585401E-3,-3.8203057E-2,-1.7179205E-1,-1.816778E-2,5.0553642E-2,2.7957014E-4,-1.383479E-2],"categories":[],"categories_nodes":[],"categories_segments":[],"categories_sizes":[],"default_left":[0,0,0,0,0,0,0,0,0,0,0,0,0],"id":37,"left_children":[1,3,5,-1,7,9,11,-1,-1,-1,-1,-1,-1],"loss_changes":[5.4862815E-1,6.3966674E-1,9.689874E-1,0E0,4.8944026E-1,3.3150995E0,9.497019E-1,0E0,0E0,0E0,0E0,0E0,0E0],"parents":[2147483647,0,0,1,1,2,2,4,4,5,5,6,6],"right_children":[2,4,6,-1,8,10,12,-1,-1,-1,-1,-1,-1],"split_conditions":[-6.111111E0,4.32E2,-1.6666666E0,1.22978784E-1,4.06E1,3.14E1,6.48E1,-3.8203057E-2,-1.7179205E-1,-1.816778E-2,5.0553642E-2,2.7957014E-4,-1.383479E-2],"split_indices":[2,0,2,0,1,1,1,0,0,0,0,0,0],"split_type":[0,0,0,0,0,0,0,0,0,0,0,0,0],"sum_hessian":[9.94E3,2.4E1,9.916E3,1E0,2.3E1,2.52E2,9.664E3,2.1E1,2E0,1.18E2,1.34E2,9.215E3,4.49E2],"tree_param":{"num_deleted":"0","num_feature":"4","num_nodes":"13","size_leaf_vector":"1"}},{"base_weights":[-3.0190156E-5,-4.5618846E-4,9.580075E-2,-2.5566487E-4,-1.9870834E-1,7.020464E-2,8.4422834E-2,-2.5526053E-4,4.081557E-2,-4.988574E-1,4.4621088E-2,2.7459476E-2,-7.963371E-3],"categories":[],"categories_nodes":[],"categories_segments":[],"categories_sizes":[],"default_left":[0,0,0,0,0,0,0,0,0,0,0,0,0],"id":38,"left_children":[1,3,5,7,9,11,-1,-1,-1,-1,-1,-1,-1],"loss_changes":[4.0587324E-1,3.934366E-1,1.8928161E-1,8.024176E-1,5.3344474E0,8.496423E-2,0E0,0E0,0E0,0E0,0E0,0E0,0E0],"parents":[2147483647,0,0,1,1,2,2,3,3,4,4,5,5],"right_children":[2,4,6,8,10,12,-1,-1,-1,-1,-1,-1,-1],"split_conditions":[2.2222221E1,2.66E1,2.44E1,6.76E1,2.68E1,2.36E1,8.4422834E-2,-2.5526053E-4,4.081557E-2,-4.988574E-1,4.4621088E-2,2.7459476E-2,-7.963371E-3],"split_indices":[2,3,3,1,3,1,0,0,0,0,0,0,0],"split_type":[0,0,0,0,0,0,0,0,0,0,0,0,0],"sum_hessian":[9.94E3,9.897E3,4.3E1,9.888E3,9E0,3.9E1,4E0,9.846E3,4.2E1,1E0,8E0,3.2E1,7E0],"tree_param":{"num_deleted":"0","num_feature":"4","num_nodes":"13","size_leaf_vector":"1"}},{"base_weights":[-5.197242E-5,9.8560326E-5,-2.9921037E-1,-1.5084328E-4,4.9554405E-1,-4.3956986E-1,3.5860348E-1,4.012884E-5,-4.2402878E-1,3.479576E-2,1.6843115E-1,-1.088047E-3,1.4416677E-1],"categories":[],"categories_nodes":[],"categories_segments":[],"categories_sizes":[],"default_left":[0,0,0,0,0,0,0,0,0,0,0,0,0],"id":39,"left_children":[1,3,5,7,9,-1,11,-1,-1,-1,-1,-1,-1],"loss_changes":[4.4770384E-1,1.227949E0,4.360566E0,3.995516E0,5.993247E-2,0E0,1.7844224E-1,0E0,0E0,0E0,0E0,0E0,0E0],"parents":[2147483647,0,0,1,1,2,2,3,3,4,4,6,6],"right_children":[2,4,6,8,10,-1,12,-1,-1,-1,-1,-1,-1],"split_conditions":[2.71E1,2.68E1,4.6E1,2.66E1,3.11E2,-4.3956986E-1,3.11E2,4.012884E-5,-4.2402878E-1,3.479576E-2,1.6843115E-1,-1.088047E-3,1.4416677E-1],"split_indices":[3,3,1,3,0,0,0,0,0,0,0,0,0],"split_type":[0,0,0,0,0,0,0,0,0,0,0,0,0],"sum_hessian":[9.94E3,9.936E3,4E0,9.932E3,4E0,1E0,3E0,9.931E3,1E0,1E0,3E0,1E0,2E0],"tree_param":{"num_deleted":"0","num_feature":"4","num_nodes":"13","size_leaf_vector":"1"}},{"base_weights":[-8.8338486E-5,-4.709479E-2,7.588071E-4,-8.471693E-2,3.097662E-1,5.494997E-1,-1.4167624E-4,-6.6919955E-3,-1.1344205E-1,1.2014612E0,-5.1444665E-2,4.006011E-2,5.292043E-1,7.182438E-2,-2.3461643E-4],"categories":[],"categories_nodes":[],"categories_segments":[],"categories_sizes":[],"default_left":[0,0,0,0,0,0,0,0,0,0,0,0,0,0,0],"id":40,"left_children":[1,3,5,7,9,11,13,-1,-1,-1,-1,-1,-1,-1,-1],"loss_changes":[3.9589936E-1,2.3891964E0,4.825771E0,2.9215844E0,3.0917233E1,7.8475924E0,1.4960557E0,0E0,0E0,0E0,0E0,0E0,0E0,0E0,0E0],"parents":[2147483647,0,0,1,1,2,2,3,3,4,4,5,5,6,6],"right_children":[2,4,6,8,10,12,14,-1,-1,-1,-1,-1,-1,-1,-1],"split_conditions":[1.43E1,3.39E1,1.44E1,1.4E1,3.71E1,7.5E0,1.48E1,-6.6919955E-3,-1.1344205E-1,1.2014612E0,-5.1444665E-2,4.006011E-2,5.292043E-1,7.182438E-2,-2.3461643E-4],"split_indices":[3,1,3,3,1,2,1,0,0,0,0,0,0,0,0],"split_type":[0,0,0,0,0,0,0,0,0,0,0,0,0,0,0],"sum_hessian":[9.94E3,1.75E2,9.765E3,1.59E2,1.6E1,1.5E1,9.75E3,1.32E2,2.7E1,1E0,1.5E1,1.2E1,3E0,2.5E1,9.725E3],"tree_param":{"num_deleted":"0","num_feature":"4","num_nodes":"15","size_leaf_vector":"1"}},{"base_weights":[1.06217216E-4,2.4139036E-4,-2.685581E-1,4.6322763E-5,3.877144E-1,-3.7359926E-1,2.8696775E-1,8.646958E-5,-3.6038935E-1,2.961159E-2,1.305871E-1,-8.897782E-4,1.15380295E-1],"categories":[],"categories_nodes":[],"categories_segments":[],"categories_sizes":[],"default_left":[0,0,0,0,0,0,0,0,0,0,0,0,0],"id":41,"left_children":[1,3,5,7,9,-1,11,-1,-1,-1,-1,-1,-1],"loss_changes":[3.6108422E-1,7.510546E-1,3.0704823E0,2.8870366E0,2.5783956E-2,0E0,1.143693E-1,0E0,0E0,0E0,0E0,0E0,0E0],"parents":[2147483647,0,0,1,1,2,2,3,3,4,4,6,6],"right_children":[2,4,6,8,10,-1,12,-1,-1,-1,-1,-1,-1],"split_conditions":[2.71E1,2.68E1,4.6E1,2.66E1,3.11E2,-3.7359926E-1,3.11E2,8.646958E-5,-3.6038935E-1,2.961159E-2,1.305871E-1,-8.897782E-4,1.15380295E-1],"split_indices":[3,3,1,3,0,0,0,0,0,0,0,0,0],"split_type":[0,0,0,0,0,0,0,0,0,0,0,0,0],"sum_hessian":[9.94E3,9.936E3,4E0,9.932E3,4E0,1E0,3E0,9.931E3,1E0,1E0,3E0,1E0,2E0],"tree_param":{"num_deleted":"0","num_feature":"4","num_nodes":"13","size_leaf_vector":"1"}},{"base_weights":[2.8735902E-5,-2.4139452E-1,1.7452E-4,-3.024516E-1,-2.3856068E-2,-2.3639274E-3,1.27043985E-2,-1.07320406E-1,-2.0490361E-2,-9.840549E-5,-1.7682785E-2,3.098075E-3,1.1135929E-1],"categories":[],"categories_nodes":[],"categories_segments":[],"categories_sizes":[],"default_left":[0,0,0,0,0,0,0,0,0,0,0,0,0],"id":42,"left_children":[1,3,5,7,-1,9,11,-1,-1,-1,-1,-1,-1],"loss_changes":[3.499223E-1,3.5250425E-2,3.160588E-1,2.7344495E-2,0E0,9.5178795E-1,1.4229354E0,0E0,0E0,0E0,0E0,0E0,0E0],"parents":[2147483647,0,0,1,1,2,2,3,3,5,5,6,6],"right_children":[2,4,6,8,-1,10,12,-1,-1,-1,-1,-1,-1],"split_conditions":[1.24E1,4.21E2,5.8E2,2.5E0,-2.3856068E-2,5.7E2,6.61E1,-1.07320406E-1,-2.0490361E-2,-9.840549E-5,-1.7682785E-2,3.098075E-3,1.1135929E-1],"split_indices":[3,0,0,2,0,0,1,0,0,0,0,0,0],"split_type":[0,0,0,0,0,0,0,0,0,0,0,0,0],"sum_hessian":[9.94E3,5E0,9.935E3,3E0,2E0,8.262E3,1.673E3,2E0,1E0,7.976E3,2.86E2,1.663E3,1E1],"tree_param":{"num_deleted":"0","num_feature":"4","num_nodes":"13","size_leaf_vector":"1"}},{"base_weights":[1.5244783E-5,1.2683491E-3,-2.4849845E-2,-3.7895213E-4,5.074264E-2,-2.1932906E-1,1.5483856E-2,5.697528E-4,-2.2535596E-2,-2.5551182E-3,5.979911E-2,-2.1266137E-1,-3.243492E-2,1.3065642E-1,-3.835828E-3],"categories":[],"categories_nodes":[],"categories_segments":[],"categories_sizes":[],"default_left":[0,0,0,0,0,0,0,0,0,0,0,0,0,0,0],"id":43,"left_children":[1,3,5,7,9,11,13,-1,-1,-1,-1,-1,-1,-1,-1],"loss_changes":[3.097787E-1,7.7140784E-1,3.745016E0,1.5599552E0,2.687303E0,4.3877087E0,4.707846E0,0E0,0E0,0E0,0E0,0E0,0E0,0E0,0E0],"parents":[2147483647,0,0,1,1,2,2,3,3,4,4,5,5,6,6],"right_children":[2,4,6,8,10,12,14,-1,-1,-1,-1,-1,-1,-1,-1],"split_conditions":[6.48E1,5.89E1,6.53E1,5.12E1,9.444445E0,2.2222223E0,1.82E1,5.697528E-4,-2.2535596E-2,-2.5551182E-3,5.979911E-2,-2.1266137E-1,-3.243492E-2,1.3065642E-1,-3.835828E-3],"split_indices":[1,1,1,1,2,2,3,0,0,0,0,0,0,0,0],"split_type":[0,0,0,0,0,0,0,0,0,0,0,0,0,0,0],"sum_hessian":[9.94E3,9.464E3,4.76E2,9.16E3,3.04E2,8.1E1,3.95E2,8.89E3,2.7E2,2.18E2,8.6E1,1.4E1,6.7E1,2.4E1,3.71E2],"tree_param":{"num_deleted":"0","num_feature":"4","num_nodes":"15","size_leaf_vector":"1"}},{"base_weights":[1.8916155E-6,-6.1409525E-4,5.358183E-2,-1.3055253E-3,8.93261E-2,-3.04224E-1,7.216881E-2,1.5796069E-4,-1.0874311E-2,9.358432E-2,2.4669783E-3,3.2655384E-2,-9.386325E-2],"categories":[],"categories_nodes":[],"categories_segments":[],"categories_sizes":[],"default_left":[0,0,0,0,0,0,0,0,0,0,0,0,0],"id":44,"left_children":[1,3,5,7,9,-1,11,-1,-1,-1,-1,-1,-1],"loss_changes":[3.2813102E-1,6.113561E-1,2.315626E0,6.244972E-1,1.3515781E0,0E0,1.6159952E0,0E0,0E0,0E0,0E0,0E0,0E0],"parents":[2147483647,0,0,1,1,2,2,3,3,4,4,6,6],"right_children":[2,4,6,8,10,-1,12,-1,-1,-1,-1,-1,-1],"split_conditions":[2.49E1,6.72E1,-5.5555553E0,6.35E1,1.3888888E0,-3.04224E-1,6.72E1,1.5796069E-4,-1.0874311E-2,9.358432E-2,2.4669783E-3,3.2655384E-2,-9.386325E-2],"split_indices":[3,1,2,1,2,0,1,0,0,0,0,0,0],"split_type":[0,0,0,0,0,0,0,0,0,0,0,0,0],"sum_hessian":[9.94E3,9.828E3,1.12E2,9.754E3,7.4E1,1E0,1.11E2,9.269E3,4.85E2,1.9E1,5.5E1,1.02E2,9E0],"tree_param":{"num_deleted":"0","num_feature":"4","num_nodes":"13","size_leaf_vector":"1"}},{"base_weights":[-2.7200871E-5,-3.3446169E-3,1.0340768E-2,-6.795887E-2,4.518836E-4,4.2286843E-2,-1.7660495E-2,-8.543713E-3,-4.063609E-2,6.537437E-4,-6.0804505E-2,1.2671582E-1,4.660517E-3,-1.2201245E-1,-1.8363972E-3],"categories":[],"categories_nodes":[],"categories_segments":[],"categories_sizes":[],"default_left":[0,0,0,0,0,0,0,0,0,0,0,0,0,0,0],"id":45,"left_children":[1,3,5,7,9,11,13,-1,-1,-1,-1,-1,-1,-1,-1],"loss_changes":[3.4195393E-1,1.8476909E0,2.1565652E0,1.109979E0,2.4968452E0,1.1442982E1,5.766244E0,0E0,0E0,0E0,0E0,0E0,0E0,0E0,0E0],"parents":[2147483647,0,0,1,1,2,2,3,3,4,4,5,5,6,6],"right_children":[2,4,6,8,10,12,14,-1,-1,-1,-1,-1,-1,-1,-1],"split_conditions":[3.52E1,8.333333E-1,5E0,2.03E1,3.46E1,1.69E1,1.54E1,-8.543713E-3,-4.063609E-2,6.537437E-4,-6.0804505E-2,1.2671582E-1,4.660517E-3,-1.2201245E-1,-1.8363972E-3],"split_indices":[1,2,2,3,1,3,3,0,0,0,0,0,0,0,0],"split_type":[0,0,0,0,0,0,0,0,0,0,0,0,0,0,0],"sum_hessian":[9.94E3,7.531E3,2.409E3,4.17E2,7.114E3,1.125E3,1.284E3,2.64E2,1.53E2,7.055E3,5.9E1,7.3E1,1.052E3,3.6E1,1.248E3],"tree_param":{"num_deleted":"0","num_feature":"4","num_nodes":"15","size_leaf_vector":"1"}},{"base_weights":[-2.9448593E-5,1.0176598E-4,-2.607994E-1,-5.7207882E-5,9.476967E-2,-3.2322723E-1,2.1271276E-1,4.170828E-5,-2.9236022E-1,-6.424141E-3,8.9367874E-2],"categories":[],"categories_nodes":[],"categories_segments":[],"categories_sizes":[],"default_left":[0,0,0,0,0,0,0,0,0,0,0],"id":46,"left_children":[1,3,5,7,-1,-1,9,-1,-1,-1,-1],"loss_changes":[3.4017593E-1,4.9889016E-1,2.1625903E0,1.8995925E0,0E0,0E0,8.6150736E-2,0E0,0E0,0E0,0E0],"parents":[2147483647,0,0,1,1,2,2,3,3,6,6],"right_children":[2,4,6,8,-1,-1,10,-1,-1,-1,-1],"split_conditions":[2.71E1,2.68E1,4.6E1,2.66E1,9.476967E-2,-3.2322723E-1,3.11E2,4.170828E-5,-2.9236022E-1,-6.424141E-3,8.9367874E-2],"split_indices":[3,3,1,3,0,0,0,0,0,0,0],"split_type":[0,0,0,0,0,0,0,0,0,0,0],"sum_hessian":[9.94E3,9.936E3,4E0,9.932E3,4E0,1E0,3E0,9.931E3,1E0,1E0,2E0],"tree_param":{"num_deleted":"0","num_feature":"4","num_nodes":"11","size_leaf_vector":"1"}},{"base_weights":[-6.491077E-5,-1.5957436E-2,2.079499E-3,8.17935E-3,-1.3380004E-1,9.260572E-2,6.1694045E-5,-1.307192E-3,5.0729517E-2,2.2883116E-1,-4.676294E-2,1.4314976E-1,1.7847804E-2,-1.1710871E-1,1.5532093E-4],"categories":[],"categories_nodes":[],"categories_segments":[],"categories_sizes":[],"default_left":[0,0,0,0,0,0,0,0,0,0,0,0,0,0,0],"id":47,"left_children":[1,3,5,7,9,11,13,-1,-1,-1,-1,-1,-1,-1,-1],"loss_changes":[3.3882332E-1,3.3631065E0,1.6001332E0,1.9818105E0,4.0973024E0,2.4037976E0,1.5260899E0,0E0,0E0,0E0,0E0,0E0,0E0,0E0,0E0],"parents":[2147483647,0,0,1,1,2,2,3,3,4,4,5,5,6,6],"right_children":[2,4,6,8,10,12,14,-1,-1,-1,-1,-1,-1,-1,-1],"split_conditions":[1.72E1,1.68E1,1.75E1,4.7E1,3.53E2,1.73E1,1.68E1,-1.307192E-3,5.0729517E-2,2.2883116E-1,-4.676294E-2,1.4314976E-1,1.7847804E-2,-1.1710871E-1,1.5532093E-4],"split_indices":[3,3,3,1,0,1,1,0,0,0,0,0,0,0,0],"split_type":[0,0,0,0,0,0,0,0,0,0,0,0,0,0,0],"sum_hessian":[9.94E3,1.181E3,8.759E3,9.81E2,2E2,1.9E2,8.569E3,9.11E2,7E1,4E0,1.96E2,1.4E1,1.76E2,9E0,8.56E3],"tree_param":{"num_deleted":"0","num_feature":"4","num_nodes":"15","size_leaf_vector":"1"}},{"base_weights":[-1.7008615E-5,-1.1609108E-1,2.7560696E-4,9.04109E-2,-1.4604235E-1,4.6679106E-2,-9.391225E-4,-9.419441E-3,-9.102133E-2,8.657695E-3,1.4304666E-1,4.8445314E-4,-6.8770875E-3],"categories":[],"categories_nodes":[],"categories_segments":[],"categories_sizes":[],"default_left":[0,0,0,0,0,0,0,0,0,0,0,0,0],"id":48,"left_children":[1,3,5,-1,7,9,11,-1,-1,-1,-1,-1,-1],"loss_changes":[3.376789E-1,3.565997E-1,5.590423E-1,0E0,4.2344928E-1,1.9255357E0,5.4270434E-1,0E0,0E0,0E0,0E0,0E0,0E0],"parents":[2147483647,0,0,1,1,2,2,4,4,5,5,6,6],"right_children":[2,4,6,-1,8,10,12,-1,-1,-1,-1,-1,-1],"split_conditions":[-6.111111E0,4.32E2,-1.6666666E0,9.04109E-2,-7.2222223E0,5.29E2,5.12E1,-9.419441E-3,-9.102133E-2,8.657695E-3,1.4304666E-1,4.8445314E-4,-6.8770875E-3],"split_indices":[2,0,2,0,2,0,1,0,0,0,0,0,0],"split_type":[0,0,0,0,0,0,0,0,0,0,0,0,0],"sum_hessian":[9.94E3,2.4E1,9.916E3,1E0,2.3E1,2.52E2,9.664E3,1.4E1,9E0,2.43E2,9E0,8.659E3,1.005E3],"tree_param":{"num_deleted":"0","num_feature":"4","num_nodes":"13","size_leaf_vector":"1"}},{"base_weights":[1.7759198E-6,-3.688526E-3,8.53706E-3,-1.8433911E-3,-1.7257991E-1,1.0867357E-2,-2.9365838E-1,-1.8029371E-2,3.6011115E-4,1.8139E-2,-3.3263516E-1,2.2256554E-3,1.1221511E-1,-1.6345613E-1,2.6214296E-2],"categories":[],"categories_nodes":[],"categories_segments":[],"categories_sizes":[],"default_left":[0,0,0,0,0,0,0,0,0,0,0,0,0,0,0],"id":49,"left_children":[1,3,5,7,9,11,13,-1,-1,-1,-1,-1,-1,-1,-1],"loss_changes":[3.1315088E-1,2.162688E0,2.1165118E0,1.2176793E0,1.6430239E1,3.7282403E0,2.2490628E0,0E0,0E0,0E0,0E0,0E0,0E0,0E0,0E0],"parents":[2147483647,0,0,1,1,2,2,3,3,4,4,5,5,6,6],"right_children":[2,4,6,8,10,12,14,-1,-1,-1,-1,-1,-1,-1,-1],"split_conditions":[3.14E1,2.41E1,6.57E2,8.333333E-1,5.53E2,6.37E2,2.09E1,-1.8029371E-2,3.6011115E-4,1.8139E-2,-3.3263516E-1,2.2256554E-3,1.1221511E-1,-1.6345613E-1,2.6214296E-2],"split_indices":[1,3,0,2,0,0,3,0,0,0,0,0,0,0,0],"split_type":[0,0,0,0,0,0,0,0,0,0,0,0,0,0,0],"sum_hessian":[9.94E3,6.94E3,3E3,6.866E3,7.4E1,2.978E3,2.2E1,3.4E2,6.526E3,6E1,1.4E1,2.951E3,2.7E1,1.3E1,9E0],"tree_param":{"num_deleted":"0","num_feature":"4","num_nodes":"15","size_leaf_vector":"1"}}]},"name":"gbtree"},"learner_model_param":{"base_score":"2.0047153E1","boost_from_average":"1","num_class":"0","num_feature":"4","num_target":"1"},"objective":{"name":"reg:squarederror","reg_loss_param":{"scale_pos_weight":"1"}}},"version":[2,0,3]}