{"learner":{"attributes":{"scikit_learn":"{\"_estimator_type\": \"regressor\"}"},"feature_names":[],"feature_types":[],"gradient_booster":{"model":{"gbtree_model_param":{"num_parallel_tree":"1","num_trees":"50"},"iteration_indptr":[0,1,2,3,4,5,6,7,8,9,10,11,12,13,14,15,16,17,18,19,20,21,22,23,24,25,26,27,28,29,30,31,32,33,34,35,36,37,38,39,40,41,42,43,44,45,46,47,48,49,50],"tree_info":[0,0,0,0,0,0,0,0,0,0,0,0,0,0,0,0,0,0,0,0,0,0,0,0,0,0,0,0,0,0,0,0,0,0,0,0,0,0,0,0,0,0,0,0,0,0,0,0,0,0],"trees":[{"base_weights":[5.145821E-7,-9.165748E-1,5.5104506E-1,-1.6735973E0,-5.524082E-1,2.0820262E-1,1.0772969E0,-6.032647E-1,-4.024327E-1,-2.3908888E-1,-1.1145497E-1,8.0329245E-3,1.2208502E-1,2.6451552E-1,4.4773573E-1],"categories":[],"categories_nodes":[],"categories_segments":[],"categories_sizes":[],"default_left":[0,0,0,0,0,0,0,0,0,0,0,0,0,0,0],"id":0,"left_children":[1,3,5,7,9,11,13,-1,-1,-1,-1,-1,-1,-1,-1],"loss_changes":[1.0788376E3,2.2017273E2,2.4045789E2,2.6430542E1,2.3725082E1,2.9160023E1,4.1392944E1,0E0,0E0,0E0,0E0,0E0,0E0,0E0,0E0],"parents":[2147483647,0,0,1,1,2,2,3,3,4,4,5,5,6,6],"right_children":[2,4,6,8,10,12,14,-1,-1,-1,-1,-1,-1,-1,-1],"split_conditions":[1.96E1,1.87E1,2.04E1,1.81E1,1.92E1,2E1,2.1E1,-6.032647E-1,-4.024327E-1,-2.3908888E-1,-1.1145497E-1,8.0329245E-3,1.2208502E-1,2.6451552E-1,4.4773573E-1],"split_indices":[6,6,6,6,6,6,6,0,0,0,0,0,0,0,0],"split_type":[0,0,0,0,0,0,0,0,0,0,0,0,0,0,0],"sum_hessian":[2.134E3,8.01E2,1.333E3,2.59E2,5.42E2,8.08E2,5.25E2,1.26E2,1.33E2,2.29E2,3.13E2,4.23E2,3.85E2,3.59E2,1.66E2],"tree_param":{"num_deleted":"0","num_feature":"7","num_nodes":"15","size_leaf_vector":"1"}},{"base_weights":[-2.4037863E-4,-5.8643323E-1,4.2988834E-1,-1.1243106E0,-3.2140207E-1,2.3494816E-1,8.6968714E-1,-4.6128336E-1,-2.8728175E-1,-1.4521283E-1,-5.7419084E-2,3.7551094E-2,1.2826228E-1,2.4312867E-1,5.129939E-1],"categories":[],"categories_nodes":[],"categories_segments":[],"categories_sizes":[],"default_left":[0,0,0,0,0,0,0,0,0,0,0,0,0,0,0],"id":1,"left_children":[1,3,5,7,9,11,13,-1,-1,-1,-1,-1,-1,-1,-1],"loss_changes":[5.385675E2,1.2850769E2,1.054205E2,1.905957E1,1.2741837E1,1.8023254E1,1.7436432E1,0E0,0E0,0E0,0E0,0E0,0E0,0E0,0E0],"parents":[2147483647,0,0,1,1,2,2,3,3,4,4,5,5,6,6],"right_children":[2,4,6,8,10,12,14,-1,-1,-1,-1,-1,-1,-1,-1],"split_conditions":[1.97E1,1.88E1,2.06E1,1.79E1,1.93E1,2.02E1,2.17E1,-4.6128336E-1,-2.8728175E-1,-1.4521283E-1,-5.7419084E-2,3.7551094E-2,1.2826228E-1,2.4312867E-1,5.129939E-1],"split_indices":[6,6,6,6,6,6,6,0,0,0,0,0,0,0,0],"split_type":[0,0,0,0,0,0,0,0,0,0,0,0,0,0,0],"sum_hessian":[2.134E3,9.03E2,1.231E3,2.97E2,6.06E2,8.54E2,3.77E2,8.3E1,2.14E2,2.68E2,3.38E2,5.45E2,3.09E2,3.54E2,2.3E1],"tree_param":{"num_deleted":"0","num_feature":"7","num_nodes":"15","size_leaf_vector":"1"}},{"base_weights":[-1.8215581E-4,-3.7094492E-1,3.4445655E-1,-7.589644E-1,-1.7836784E-1,2.1867475E-1,6.7151445E-1,-2.9305068E-1,-1.675992E-1,-8.526195E-2,-2.622402E-2,4.4597577E-2,1.00907266E-1,1.7645076E-1,3.0144495E-1],"categories":[],"categories_nodes":[],"categories_segments":[],"categories_sizes":[],"default_left":[0,0,0,0,0,0,0,0,0,0,0,0,0,0,0],"id":2,"left_children":[1,3,5,7,9,11,13,-1,-1,-1,-1,-1,-1,-1,-1],"loss_changes":[2.729364E2,7.675528E1,4.5392838E1,1.4335403E1,6.607811E0,6.5499916E0,7.93721E0,0E0,0E0,0E0,0E0,0E0,0E0,0E0,0E0],"parents":[2147483647,0,0,1,1,2,2,3,3,4,4,5,5,6,6],"right_children":[2,4,6,8,10,12,14,-1,-1,-1,-1,-1,-1,-1,-1],"split_conditions":[1.98E1,1.89E1,2.07E1,1.83E1,1.94E1,2.03E1,2.13E1,-2.9305068E-1,-1.675992E-1,-8.526195E-2,-2.622402E-2,4.4597577E-2,1.00907266E-1,1.7645076E-1,3.0144495E-1],"split_indices":[6,6,6,6,6,6,6,0,0,0,0,0,0,0,0],"split_type":[0,0,0,0,0,0,0,0,0,0,0,0,0,0,0],"sum_hessian":[2.134E3,1.028E3,1.106E3,3.4E2,6.88E2,8E2,3.06E2,1.61E2,1.79E2,3.17E2,3.71E2,5.03E2,2.97E2,2.47E2,5.9E1],"tree_param":{"num_deleted":"0","num_feature":"7","num_nodes":"15","size_leaf_vector":"1"}},{"base_weights":[-1.0334345E-4,-3.5238683E-1,1.7864889E-1,-6.576365E-1,-2.3348974E-1,7.368336E-2,4.0551925E-1,-2.529153E-1,-1.6629861E-1,-1.0557115E-1,-5.304241E-2,-9.017843E-3,4.433584E-2,1.1249311E-1,2.788424E-1],"categories":[],"categories_nodes":[],"categories_segments":[],"categories_sizes":[],"default_left":[0,0,0,0,0,0,0,0,0,0,0,0,0,0,0],"id":3,"left_children":[1,3,5,7,9,11,13,-1,-1,-1,-1,-1,-1,-1,-1],"loss_changes":[1.3450703E2,2.594133E1,3.371394E1,3.382782E0,3.4212627E0,7.461444E0,6.820709E0,0E0,0E0,0E0,0E0,0E0,0E0,0E0,0E0],"parents":[2147483647,0,0,1,1,2,2,3,3,4,4,5,5,6,6],"right_children":[2,4,6,8,10,12,14,-1,-1,-1,-1,-1,-1,-1,-1],"split_conditions":[1.95E1,1.84E1,2.05E1,1.78E1,1.9E1,1.99E1,2.17E1,-2.529153E-1,-1.6629861E-1,-1.0557115E-1,-5.304241E-2,-9.017843E-3,4.433584E-2,1.1249311E-1,2.788424E-1],"split_indices":[6,6,6,6,6,6,6,0,0,0,0,0,0,0,0],"split_type":[0,0,0,0,0,0,0,0,0,0,0,0,0,0,0],"sum_hessian":[2.134E3,7.18E2,1.416E3,2E2,5.18E2,9.69E2,4.47E2,6.9E1,1.31E2,1.66E2,3.52E2,4.04E2,5.65E2,4.24E2,2.3E1],"tree_param":{"num_deleted":"0","num_feature":"7","num_nodes":"15","size_leaf_vector":"1"}},{"base_weights":[-1.4329057E-4,-1.8419434E-1,1.7093952E-1,-4.453798E-1,-1.1137829E-1,1.0792056E-1,3.789481E-1,-1.7812486E-1,-1.12650216E-1,-6.7608126E-2,-2.1251608E-2,1.1401079E-2,4.499505E-2,-2.5335294E-1,1.175567E-1],"categories":[],"categories_nodes":[],"categories_segments":[],"categories_sizes":[],"default_left":[0,0,0,0,0,0,0,0,0,0,0,0,0,0,0],"id":4,"left_children":[1,3,5,7,9,11,13,-1,-1,-1,-1,-1,-1,-1,-1],"loss_changes":[6.72583E1,1.9520428E1,1.44702E1,2.0994644E0,3.7083921E0,2.497017E0,4.389431E0,0E0,0E0,0E0,0E0,0E0,0E0,0E0,0E0],"parents":[2147483647,0,0,1,1,2,2,3,3,4,4,5,5,6,6],"right_children":[2,4,6,8,10,12,14,-1,-1,-1,-1,-1,-1,-1,-1],"split_conditions":[1.98E1,1.85E1,2.08E1,1.78E1,1.91E1,2.01E1,1.59E1,-1.7812486E-1,-1.12650216E-1,-6.7608126E-2,-2.1251608E-2,1.1401079E-2,4.499505E-2,-2.5335294E-1,1.175567E-1],"split_indices":[6,6,6,6,6,6,4,0,0,0,0,0,0,0,0],"split_type":[0,0,0,0,0,0,0,0,0,0,0,0,0,0,0],"sum_hessian":[2.134E3,1.028E3,1.106E3,2.23E2,8.05E2,8.5E2,2.56E2,6.9E1,1.54E2,2.1E2,5.95E2,3.2E2,5.3E2,2E0,2.54E2],"tree_param":{"num_deleted":"0","num_feature":"7","num_nodes":"15","size_leaf_vector":"1"}},{"base_weights":[-3.1511366E-4,-1.7808188E-1,8.988576E-2,-3.2786584E-1,-1.1972996E-1,5.488734E-2,2.8855652E-1,-1.7803062E-1,-9.1443054E-2,-7.763781E-2,-3.274172E-2,1.6816758E-3,3.2633856E-2,-1.6573936E-1,9.0981595E-2],"categories":[],"categories_nodes":[],"categories_segments":[],"categories_sizes":[],"default_left":[0,0,0,0,0,0,0,0,0,0,0,0,0,0,0],"id":5,"left_children":[1,3,5,7,9,11,13,-1,-1,-1,-1,-1,-1,-1,-1],"loss_changes":[3.4250126E1,6.244936E0,9.836791E0,1.0498161E0,7.361369E-1,3.2024076E0,2.7912579E0,0E0,0E0,0E0,0E0,0E0,0E0,0E0,0E0],"parents":[2147483647,0,0,1,1,2,2,3,3,4,4,5,5,6,6],"right_children":[2,4,6,8,10,12,14,-1,-1,-1,-1,-1,-1,-1,-1],"split_conditions":[1.95E1,1.84E1,2.09E1,1.74E1,5.34E2,2.01E1,1.81E1,-1.7803062E-1,-9.1443054E-2,-7.763781E-2,-3.274172E-2,1.6816758E-3,3.2633856E-2,-1.6573936E-1,9.0981595E-2],"split_indices":[6,6,6,6,0,6,1,0,0,0,0,0,0,0,0],"split_type":[0,0,0,0,0,0,0,0,0,0,0,0,0,0,0],"sum_hessian":[2.134E3,7.18E2,1.416E3,2E2,5.18E2,1.205E3,2.11E2,1.4E1,1.86E2,3.5E1,4.83E2,6.3E2,5.75E2,3E0,2.08E2],"tree_param":{"num_deleted":"0","num_feature":"7","num_nodes":"15","size_leaf_vector":"1"}},{"base_weights":[-4.1804972E-4,-1.3409825E-1,5.909615E-2,-2.6382625E-1,-9.979397E-2,4.324515E-2,3.0897844E-1,-1.088142E-1,-6.295595E-2,-4.267845E-2,-1.9756898E-2,3.2589955E-3,2.9389907E-2,-1.695345E-1,1.00763194E-1],"categories":[],"categories_nodes":[],"categories_segments":[],"categories_sizes":[],"default_left":[0,0,0,0,0,0,0,0,0,0,0,0,0,0,0],"id":6,"left_children":[1,3,5,7,9,11,13,-1,-1,-1,-1,-1,-1,-1,-1],"loss_changes":[1.6993708E1,2.9019184E0,5.8408246E0,6.550913E-1,7.4296236E-1,2.4637496E0,2.258875E0,0E0,0E0,0E0,0E0,0E0,0E0,0E0,0E0],"parents":[2147483647,0,0,1,1,2,2,3,3,4,4,5,5,6,6],"right_children":[2,4,6,8,10,12,14,-1,-1,-1,-1,-1,-1,-1,-1],"split_conditions":[1.94E1,1.82E1,2.12E1,5.73E2,1.9E1,2.03E1,4.92E2,-1.088142E-1,-6.295595E-2,-4.267845E-2,-1.9756898E-2,3.2589955E-3,2.9389907E-2,-1.695345E-1,1.00763194E-1],"split_indices":[6,6,6,0,6,6,0,0,0,0,0,0,0,0,0],"split_type":[0,0,0,0,0,0,0,0,0,0,0,0,0,0,0],"sum_hessian":[2.134E3,6.57E2,1.477E3,1.36E2,5.21E2,1.39E3,8.7E1,4.6E1,9E1,2.3E2,2.91E2,8.74E2,5.16E2,2E0,8.5E1],"tree_param":{"num_deleted":"0","num_feature":"7","num_nodes":"15","size_leaf_vector":"1"}},{"base_weights":[-4.19673E-4,-6.852945E-2,6.289142E-2,-1.3220432E-1,-3.3179212E-2,5.7407726E-2,5.199497E-1,-7.7698335E-2,-3.4104265E-2,-5.7748687E-2,-8.377329E-3,5.5822516E-3,2.8131438E-2,-1.7708875E-2,1.7193513E-1],"categories":[],"categories_nodes":[],"categories_segments":[],"categories_sizes":[],"default_left":[0,0,0,0,0,0,0,0,0,0,0,0,0,0,0],"id":7,"left_children":[1,3,5,7,9,11,13,-1,-1,-1,-1,-1,-1,-1,-1],"loss_changes":[9.210653E0,2.3118129E0,2.7447023E0,8.324895E-1,5.496703E-1,1.5432131E0,4.3400764E-1,0E0,0E0,0E0,0E0,0E0,0E0,0E0,0E0],"parents":[2147483647,0,0,1,1,2,2,3,3,4,4,5,5,6,6],"right_children":[2,4,6,8,10,12,14,-1,-1,-1,-1,-1,-1,-1,-1],"split_conditions":[1.98E1,1.9E1,2.2E1,1.76E1,5.28E2,1.4444445E1,5.45E2,-7.7698335E-2,-3.4104265E-2,-5.7748687E-2,-8.377329E-3,5.5822516E-3,2.8131438E-2,-1.7708875E-2,1.7193513E-1],"split_indices":[6,6,6,6,0,5,0,0,0,0,0,0,0,0,0],"split_type":[0,0,0,0,0,0,0,0,0,0,0,0,0,0,0],"sum_hessian":[2.134E3,1.028E3,1.106E3,3.66E2,6.62E2,1.094E3,1.2E1,4.5E1,3.21E2,2E1,6.42E2,5.3E2,5.64E2,1E0,1.1E1],"tree_param":{"num_deleted":"0","num_feature":"7","num_nodes":"15","size_leaf_vector":"1"}},{"base_weights":[-2.8945602E-4,-7.2322026E-2,2.9438464E-2,-1.9147317E-1,-6.0006175E-2,2.2418935E-2,2.8719664E-1,-7.7910095E-2,-4.54726E-2,-4.3604102E-2,-1.4483944E-2,-1.6672973E-3,1.579672E-2,6.077639E-2,1.2043437E-1],"categories":[],"categories_nodes":[],"categories_segments":[],"categories_sizes":[],"default_left":[0,0,0,0,0,0,0,0,0,0,0,0,0,0,0],"id":8,"left_children":[1,3,5,7,9,11,13,-1,-1,-1,-1,-1,-1,-1,-1],"loss_changes":[4.573972E0,9.0419793E-1,2.7292848E0,1.1851859E-1,5.604007E-1,1.2463365E0,3.0533743E-1,0E0,0E0,0E0,0E0,0E0,0E0,0E0,0E0],"parents":[2147483647,0,0,1,1,2,2,3,3,4,4,5,5,6,6],"right_children":[2,4,6,8,10,12,14,-1,-1,-1,-1,-1,-1,-1,-1],"split_conditions":[1.8E1,1.77E1,2.14E1,5.62E2,5.35E2,2.01E1,1.7777779E1,-7.7910095E-2,-4.54726E-2,-4.3604102E-2,-1.4483944E-2,-1.6672973E-3,1.579672E-2,6.077639E-2,1.2043437E-1],"split_indices":[4,6,6,0,0,6,5,0,0,0,0,0,0,0,0],"split_type":[0,0,0,0,0,0,0,0,0,0,0,0,0,0,0],"sum_hessian":[2.134E3,6.23E2,1.511E3,5.7E1,5.66E2,1.472E3,3.9E1,1.9E1,3.8E1,6.7E1,4.99E2,7.65E2,7.07E2,2.4E1,1.5E1],"tree_param":{"num_deleted":"0","num_feature":"7","num_nodes":"15","size_leaf_vector":"1"}},{"base_weights":[-1.9608616E-4,-2.5295045E-2,4.764587E-2,-9.815346E-2,-1.3009467E-2,3.345059E-2,1.4292513E-1,-6.379887E-2,-2.4455775E-2,-9.430124E-3,3.3187647E-3,2.7932528E-2,5.943743E-3,3.531136E-2,1.0365892E-1],"categories":[],"categories_nodes":[],"categories_segments":[],"categories_sizes":[],"default_left":[0,0,0,0,0,0,0,0,0,0,0,0,0,0,0],"id":9,"left_children":[1,3,5,7,9,11,13,-1,-1,-1,-1,-1,-1,-1,-1],"loss_changes":[2.5648775E0,1.252769E0,9.8931813E-1,3.674283E-1,5.325592E-1,5.19686E-1,4.447615E-1,0E0,0E0,0E0,0E0,0E0,0E0,0E0,0E0],"parents":[2147483647,0,0,1,1,2,2,3,3,4,4,5,5,6,6],"right_children":[2,4,6,8,10,12,14,-1,-1,-1,-1,-1,-1,-1,-1],"split_conditions":[1.4444445E1,1.66E1,2.11E1,5.35E2,1.98E1,1.5E1,2.2E1,-6.379887E-2,-2.4455775E-2,-9.430124E-3,3.3187647E-3,2.7932528E-2,5.943743E-3,3.531136E-2,1.0365892E-1],"split_indices":[5,4,6,0,6,2,6,0,0,0,0,0,0,0,0],"split_type":[0,0,0,0,0,0,0,0,0,0,0,0,0,0,0],"sum_hessian":[2.134E3,1.4E3,7.34E2,2.01E2,1.199E3,6.4E2,9.4E1,2.4E1,1.77E2,6.79E2,5.2E2,1.18E2,5.22E2,8.5E1,9E0],"tree_param":{"num_deleted":"0","num_feature":"7","num_nodes":"15","size_leaf_vector":"1"}},{"base_weights":[-1.0044536E-4,-5.3471133E-2,1.3508826E-2,-1.8586375E-1,-4.8615515E-2,3.348643E-3,5.9665523E-2,-5.931288E-2,-2.1773148E-2,-9.482959E-3,-2.2899494E-2,-6.635226E-4,1.2571436E-2,-1.1526357E-1,1.9150771E-2],"categories":[],"categories_nodes":[],"categories_segments":[],"categories_sizes":[],"default_left":[0,0,0,0,0,0,0,0,0,0,0,0,0,0,0],"id":10,"left_children":[1,3,5,7,9,11,13,-1,-1,-1,-1,-1,-1,-1,-1],"loss_changes":[1.5514499E0,2.6996028E-1,7.9797107E-1,5.780399E-3,1.9554621E-1,2.9937693E-1,5.92826E-1,0E0,0E0,0E0,0E0,0E0,0E0,0E0,0E0],"parents":[2147483647,0,0,1,1,2,2,3,3,4,4,5,5,6,6],"right_children":[2,4,6,8,10,12,14,-1,-1,-1,-1,-1,-1,-1,-1],"split_conditions":[1.91E1,1.74E1,2.07E1,1.1944445E1,6.07E2,2.04E1,1.59E1,-5.931288E-2,-2.1773148E-2,-9.482959E-3,-2.2899494E-2,-6.635226E-4,1.2571436E-2,-1.1526357E-1,1.9150771E-2],"split_indices":[6,6,6,5,0,1,4,0,0,0,0,0,0,0,0],"split_type":[0,0,0,0,0,0,0,0,0,0,0,0,0,0,0],"sum_hessian":[2.134E3,4.33E2,1.701E3,1.4E1,4.19E2,1.395E3,3.06E2,1.2E1,2E0,2.61E2,1.58E2,1.22E3,1.75E2,2E0,3.04E2],"tree_param":{"num_deleted":"0","num_feature":"7","num_nodes":"15","size_leaf_vector":"1"}},{"base_weights":[-1.6283218E-4,-1.2060955E-2,3.6164004E-2,-5.708794E-2,-5.629099E-3,2.9175406E-2,1.470404E-1,-2.5979858E-2,-1.15356315E-2,-1.8314851E-2,-5.268997E-4,2.5101896E-2,3.482026E-3,5.5852592E-2,-4.119873E-3],"categories":[],"categories_nodes":[],"categories_segments":[],"categories_sizes":[],"default_left":[0,0,0,0,0,0,0,0,0,0,0,0,0,0,0],"id":11,"left_children":[1,3,5,7,9,11,13,-1,-1,-1,-1,-1,-1,-1,-1],"loss_changes":[9.232283E-1,4.6565646E-1,4.0406668E-1,1.0721463E-1,3.0230683E-1,4.7488108E-1,1.97604E-1,0E0,0E0,0E0,0E0,0E0,0E0,0E0,0E0],"parents":[2147483647,0,0,1,1,2,2,3,3,4,4,5,5,6,6],"right_children":[2,4,6,8,10,12,14,-1,-1,-1,-1,-1,-1,-1,-1],"split_conditions":[1.5555555E1,1.84E1,2.14E1,5.73E2,5.28E2,1.5833333E1,6.14E2,-2.5979858E-2,-1.15356315E-2,-1.8314851E-2,-5.268997E-4,2.5101896E-2,3.482026E-3,5.5852592E-2,-4.119873E-3],"split_indices":[5,6,6,0,0,2,3,0,0,0,0,0,0,0,0],"split_type":[0,0,0,0,0,0,0,0,0,0,0,0,0,0,0],"sum_hessian":[2.134E3,1.608E3,5.26E2,2E2,1.408E3,4.96E2,3E1,7.6E1,1.24E2,9.1E1,1.317E3,1.2E2,3.76E2,2.4E1,6E0],"tree_param":{"num_deleted":"0","num_feature":"7","num_nodes":"15","size_leaf_vector":"1"}},{"base_weights":[-1.0324965E-4,-1.5683038E-2,1.7168423E-2,-2.1172991E-2,1.8483358E-2,-2.6000118E-1,1.8249126E-2,-7.1699955E-2,-6.0744425E-3,2.801445E-1,-1.6703063E-3,-2.3178577E-2,-8.8548094E-2,3.5394535E-3,2.0505525E-2],"categories":[],"categories_nodes":[],"categories_segments":[],"categories_sizes":[],"default_left":[0,0,0,0,0,0,0,0,0,0,0,0,0,0,0],"id":12,"left_children":[1,3,5,7,9,11,13,-1,-1,-1,-1,-1,-1,-1,-1],"loss_changes":[5.7477427E-1,2.1103463E-1,3.081768E-1,1.9017124E-1,3.4394898E0,2.8951466E-3,3.2563516E-1,0E0,0E0,0E0,0E0,0E0,0E0,0E0,0E0],"parents":[2147483647,0,0,1,1,2,2,3,3,4,4,5,5,6,6],"right_children":[2,4,6,8,10,12,14,-1,-1,-1,-1,-1,-1,-1,-1],"split_conditions":[1.99E1,1.97E1,1.61E1,1.48E1,1.81E1,4.49E2,2.11E1,-7.1699955E-2,-6.0744425E-3,2.801445E-1,-1.6703063E-3,-2.3178577E-2,-8.8548094E-2,3.5394535E-3,2.0505525E-2],"split_indices":[6,1,4,1,4,0,6,0,0,0,0,0,0,0,0],"split_type":[0,0,0,0,0,0,0,0,0,0,0,0,0,0,0],"sum_hessian":[2.134E3,1.122E3,1.012E3,9.67E2,1.55E2,3E0,1.009E3,3E0,9.64E2,3E0,1.52E2,1E0,2E0,8.95E2,1.14E2],"tree_param":{"num_deleted":"0","num_feature":"7","num_nodes":"15","size_leaf_vector":"1"}},{"base_weights":[-1.9357578E-5,-1.7880578E-2,1.1421715E-2,-7.91272E-2,-1.3030545E-2,1.1876703E-1,8.1006E-3,-4.4995595E-2,-7.726177E-3,9.931911E-3,-6.7704623E-3,4.5540676E-2,2.280106E-2,1.8416623E-3,3.89439E-2],"categories":[],"categories_nodes":[],"categories_segments":[],"categories_sizes":[],"default_left":[0,0,0,0,0,0,0,0,0,0,0,0,0,0,0],"id":13,"left_children":[1,3,5,7,9,11,13,-1,-1,-1,-1,-1,-1,-1,-1],"loss_changes":[4.3649468E-1,2.4670702E-1,4.6320885E-1,2.2683501E-1,3.4133673E-1,4.3557882E-2,3.010038E-1,0E0,0E0,0E0,0E0,0E0,0E0,0E0,0E0],"parents":[2147483647,0,0,1,1,2,2,3,3,4,4,5,5,6,6],"right_children":[2,4,6,8,10,12,14,-1,-1,-1,-1,-1,-1,-1,-1],"split_conditions":[1.25E1,1.6E1,1.2222222E1,5.62E2,5.6E2,1.96E1,2.18E1,-4.4995595E-2,-7.726177E-3,9.931911E-3,-6.7704623E-3,4.5540676E-2,2.280106E-2,1.8416623E-3,3.89439E-2],"split_indices":[5,4,2,3,3,6,6,0,0,0,0,0,0,0,0],"split_type":[0,0,0,0,0,0,0,0,0,0,0,0,0,0,0],"sum_hessian":[2.134E3,8.33E2,1.301E3,6E1,7.73E2,3.8E1,1.263E3,2.5E1,3.5E1,1.32E2,6.41E2,2E1,1.8E1,1.244E3,1.9E1],"tree_param":{"num_deleted":"0","num_feature":"7","num_nodes":"15","size_leaf_vector":"1"}},{"base_weights":[1.4097406E-5,-2.3946928E-2,5.757504E-3,-2.2276692E-2,-5.674782E-2,-2.8855069E-2,9.589723E-3,-1.4600131E-2,-3.4717333E-3,-9.323193E-3,3.2007027E-2,1.19820155E-1,2.19339E-3],"categories":[],"categories_nodes":[],"categories_segments":[],"categories_sizes":[],"default_left":[0,0,0,0,0,0,0,0,0,0,0,0,0],"id":14,"left_children":[1,3,5,7,-1,9,11,-1,-1,-1,-1,-1,-1],"loss_changes":[2.9395214E-1,1.0975094E-1,2.2882059E-1,1.1525747E-1,0E0,5.5124357E-2,1.3754952E0,0E0,0E0,0E0,0E0,0E0,0E0],"parents":[2147483647,0,0,1,1,2,2,3,3,5,5,6,6],"right_children":[2,4,6,8,-1,10,12,-1,-1,-1,-1,-1,-1],"split_conditions":[1.74E1,2.09E1,5.5E2,1.82E1,-5.674782E-2,2.16E1,5.45E2,-1.4600131E-2,-3.4717333E-3,-9.323193E-3,3.2007027E-2,1.19820155E-1,2.19339E-3],"split_indices":[4,6,0,6,0,6,3,0,0,0,0,0,0],"split_type":[0,0,0,0,0,0,0,0,0,0,0,0,0],"sum_hessian":[2.134E3,4.12E2,1.722E3,4.09E2,3E0,1.71E2,1.551E3,1.17E2,2.92E2,1.69E2,2E0,8E0,1.543E3],"tree_param":{"num_deleted":"0","num_feature":"7","num_nodes":"13","size_leaf_vector":"1"}},{"base_weights":[4.253432E-5,-2.2683535E-3,4.759037E-2,-3.518494E-2,2.35478E-4,1.283919E-1,3.277139E-2,-2.636063E-2,-6.6828365E-3,5.2793466E-2,-3.50055E-4,6.75351E-2,1.1668651E-2,-1.7775298E-4,2.221586E-2],"categories":[],"categories_nodes":[],"categories_segments":[],"categories_sizes":[],"default_left":[0,0,0,0,0,0,0,0,0,0,0,0,0,0,0],"id":15,"left_children":[1,3,5,7,9,11,13,-1,-1,-1,-1,-1,-1,-1,-1],"loss_changes":[2.3469688E-1,1.678929E-1,1.1433464E-1,9.597498E-2,4.6697968E-1,1.21092185E-1,1.17115304E-1,0E0,0E0,0E0,0E0,0E0,0E0,0E0,0E0],"parents":[2147483647,0,0,1,1,2,2,3,3,4,4,5,5,6,6],"right_children":[2,4,6,8,10,12,14,-1,-1,-1,-1,-1,-1,-1,-1],"split_conditions":[1.8055555E1,5.35E2,1.7777779E1,1.68E1,5.31E2,6.19E2,1.96E1,-2.636063E-2,-6.6828365E-3,5.2793466E-2,-3.50055E-4,6.75351E-2,1.1668651E-2,-1.7775298E-4,2.221586E-2],"split_indices":[5,0,2,1,3,0,1,0,0,0,0,0,0,0,0],"split_type":[0,0,0,0,0,0,0,0,0,0,0,0,0,0,0],"sum_hessian":[2.134E3,2.036E3,9.8E1,1.43E2,1.893E3,1.4E1,8.4E1,2.7E1,1.16E2,1.4E1,1.879E3,6E0,8E0,4.7E1,3.7E1],"tree_param":{"num_deleted":"0","num_feature":"7","num_nodes":"15","size_leaf_vector":"1"}},{"base_weights":[8.708141E-5,-7.636433E-3,1.0755249E-2,-1.9266076E-2,-1.1399523E-3,4.1417575E-1,7.1169133E-3,1.6910745E-2,-6.890017E-3,5.5788453E-3,-4.5035486E-3,4.7238123E-1,7.037054E-3,7.201207E-2,1.7383246E-3],"categories":[],"categories_nodes":[],"categories_segments":[],"categories_sizes":[],"default_left":[0,0,0,0,0,0,0,0,0,0,0,0,0,0,0],"id":16,"left_children":[1,3,5,7,9,11,13,-1,-1,-1,-1,-1,-1,-1,-1],"loss_changes":[1.7599706E-1,9.358666E-2,1.3136505E0,1.2556984E-1,2.1820547E-1,3.5902743E0,2.7276525E-1,0E0,0E0,0E0,0E0,0E0,0E0,0E0,0E0],"parents":[2147483647,0,0,1,1,2,2,3,3,4,4,5,5,6,6],"right_children":[2,4,6,8,10,12,14,-1,-1,-1,-1,-1,-1,-1,-1],"split_conditions":[1.9E1,1.1666667E1,1.81E1,5.2E2,1.3055555E1,5.55E2,6.9444447E0,1.6910745E-2,-6.890017E-3,5.5788453E-3,-4.5035486E-3,4.7238123E-1,7.037054E-3,7.201207E-2,1.7383246E-3],"split_indices":[1,5,4,3,2,0,2,0,0,0,0,0,0,0,0],"split_type":[0,0,0,0,0,0,0,0,0,0,0,0,0,0,0],"sum_hessian":[2.134E3,1.238E3,8.96E2,4.43E2,7.95E2,7E0,8.89E2,2E1,4.23E2,3.28E2,4.67E2,1E0,6E0,4E0,8.85E2],"tree_param":{"num_deleted":"0","num_feature":"7","num_nodes":"15","size_leaf_vector":"1"}},{"base_weights":[3.2533472E-4,-6.165093E-3,1.2696441E-2,1.9063814E-2,-1.0982713E-2,1.2381029E-1,8.284176E-3,2.0709413E-3,1.3853341E-1,-9.516697E-3,-1.6993482E-3,1.2591671E-2,5.4769672E-2,-3.2472117E-3,6.446898E-3],"categories":[],"categories_nodes":[],"categories_segments":[],"categories_sizes":[],"default_left":[0,0,0,0,0,0,0,0,0,0,0,0,0,0,0],"id":17,"left_children":[1,3,5,7,9,11,13,-1,-1,-1,-1,-1,-1,-1,-1],"loss_changes":[1.7150547E-1,1.7049155E-1,3.5931826E-1,1.2081459E0,1.296408E-1,1.2697303E-1,1.7888454E-1,0E0,0E0,0E0,0E0,0E0,0E0,0E0,0E0],"parents":[2147483647,0,0,1,1,2,2,3,3,4,4,5,5,6,6],"right_children":[2,4,6,8,10,12,14,-1,-1,-1,-1,-1,-1,-1,-1],"split_conditions":[1.4444445E1,9.444445E0,1.3611111E1,1.1111111E1,1.1111111E1,1.87E1,5.99E2,2.0709413E-3,1.3853341E-1,-9.516697E-3,-1.6993482E-3,1.2591671E-2,5.4769672E-2,-3.2472117E-3,6.446898E-3],"split_indices":[5,2,2,5,5,4,0,0,0,0,0,0,0,0,0],"split_type":[0,0,0,0,0,0,0,0,0,0,0,0,0,0,0],"sum_hessian":[2.134E3,1.4E3,7.34E2,2.24E2,1.176E3,2.7E1,7.07E2,2.19E2,5E0,2.39E2,9.37E2,1.2E1,1.5E1,2.89E2,4.18E2],"tree_param":{"num_deleted":"0","num_feature":"7","num_nodes":"15","size_leaf_vector":"1"}},{"base_weights":[3.2116982E-4,-2.105106E-3,2.502685E-2,-3.4514454E-4,-3.59991E-2,6.1758295E-2,4.681972E-3,-7.849327E-4,1.5386288E-2,-1.2013343E-2,1.3690681E-2,5.043648E-3,2.7840085E-2,-1.9066309E-3,3.5593208E-2],"categories":[],"categories_nodes":[],"categories_segments":[],"categories_sizes":[],"default_left":[0,0,0,0,0,0,0,0,0,0,0,0,0,0,0],"id":18,"left_children":[1,3,5,7,9,11,13,-1,-1,-1,-1,-1,-1,-1,-1],"loss_changes":[1.2803055E-1,1.1601094E-1,1.4244452E-1,2.1708997E-1,3.3530764E-2,9.331459E-2,1.567269E-1,0E0,0E0,0E0,0E0,0E0,0E0,0E0,0E0],"parents":[2147483647,0,0,1,1,2,2,3,3,4,4,5,5,6,6],"right_children":[2,4,6,8,10,12,14,-1,-1,-1,-1,-1,-1,-1,-1],"split_conditions":[1.75E1,1.7222221E1,1.7777779E1,1.6666666E1,2.14E1,5.95E2,2.15E1,-7.849327E-4,1.5386288E-2,-1.2013343E-2,1.3690681E-2,5.043648E-3,2.7840085E-2,-1.9066309E-3,3.5593208E-2],"split_indices":[5,2,2,5,6,0,6,0,0,0,0,0,0,0,0],"split_type":[0,0,0,0,0,0,0,0,0,0,0,0,0,0,0],"sum_hessian":[2.134E3,1.944E3,1.9E2,1.849E3,9.5E1,6.7E1,1.23E2,1.772E3,7.7E1,9.1E1,4E0,2.8E1,3.9E1,1.13E2,1E1],"tree_param":{"num_deleted":"0","num_feature":"7","num_nodes":"15","size_leaf_vector":"1"}},{"base_weights":[2.643737E-4,-1.0789108E-1,7.2188885E-4,-1.4056778E-2,-5.4044154E-2,-2.2882114E-3,2.3127548E-2,-1.2368966E-2,5.340576E-3,-7.2261775E-3,-5.5774573E-5,-1.0720696E-2,8.590034E-3],"categories":[],"categories_nodes":[],"categories_segments":[],"categories_sizes":[],"default_left":[0,0,0,0,0,0,0,0,0,0,0,0,0],"id":19,"left_children":[1,3,5,7,-1,9,11,-1,-1,-1,-1,-1,-1],"loss_changes":[1.0572358E-1,5.8488607E-2,1.4350478E-1,5.06247E-3,0E0,8.596894E-2,8.269516E-2,0E0,0E0,0E0,0E0,0E0,0E0],"parents":[2147483647,0,0,1,1,2,2,3,3,5,5,6,6],"right_children":[2,4,6,8,-1,10,12,-1,-1,-1,-1,-1,-1],"split_conditions":[4.7E2,2.1E1,2.08E1,1.3055555E1,-5.4044154E-2,8.611111E0,5.15E2,-1.2368966E-2,5.340576E-3,-7.2261775E-3,-5.5774573E-5,-1.0720696E-2,8.590034E-3],"split_indices":[3,6,6,5,0,5,3,0,0,0,0,0,0],"split_type":[0,0,0,0,0,0,0,0,0,0,0,0,0],"sum_hessian":[2.134E3,8E0,2.126E3,4E0,4E0,1.875E3,2.51E2,2E0,2E0,1.64E2,1.711E3,2.1E1,2.3E2],"tree_param":{"num_deleted":"0","num_feature":"7","num_nodes":"13","size_leaf_vector":"1"}},{"base_weights":[1.516713E-4,1.9127427E-2,-2.0826021E-3,5.3786696E-3,2.4292418E-1,-2.876608E-2,5.731336E-4,-4.5445035E-4,1.0978289E-1,1.5471984E-2,3.8087025E-1,-5.8798315E-3,-3.94419E-2,-5.8469265E-3,1.1628832E-3],"categories":[],"categories_nodes":[],"categories_segments":[],"categories_sizes":[],"default_left":[0,0,0,0,0,0,0,0,0,0,0,0,0,0,0],"id":20,"left_children":[1,3,5,7,9,11,13,-1,-1,-1,-1,-1,-1,-1,-1],"loss_changes":[9.0557486E-2,6.9100195E-1,1.3543811E-1,5.299768E-1,2.4883628E0,1.6029884E-1,1.1532013E-1,0E0,0E0,0E0,0E0,0E0,0E0,0E0,0E0],"parents":[2147483647,0,0,1,1,2,2,3,3,4,4,5,5,6,6],"right_children":[2,4,6,8,10,12,14,-1,-1,-1,-1,-1,-1,-1,-1],"split_conditions":[9.444445E0,1.0555555E1,1.86E1,2.04E1,1.95E1,1.94E1,5.59E2,-4.5445035E-4,1.0978289E-1,1.5471984E-2,3.8087025E-1,-5.8798315E-3,-3.94419E-2,-5.8469265E-3,1.1628832E-3],"split_indices":[2,5,6,4,1,1,0,0,0,0,0,0,0,0,0],"split_type":[0,0,0,0,0,0,0,0,0,0,0,0,0,0,0],"sum_hessian":[2.134E3,2.24E2,1.91E3,2.12E2,1.2E1,1.72E2,1.738E3,2.09E2,3E0,1.1E1,1E0,1.59E2,1.3E1,2.45E2,1.493E3],"tree_param":{"num_deleted":"0","num_feature":"7","num_nodes":"15","size_leaf_vector":"1"}},{"base_weights":[3.1906145E-4,-4.2018414E-2,5.8228977E-4,1.296154E-1,2.7883681E-4,-3.3636667E-2,9.844437E-2,-2.1750959E-4,1.083572E-2],"categories":[],"categories_nodes":[],"categories_segments":[],"categories_sizes":[],"default_left":[0,0,0,0,0,0,0,0,0],"id":21,"left_children":[1,-1,3,5,7,-1,-1,-1,-1],"loss_changes":[7.89743E-2,0E0,8.3443336E-2,2.7675653E-1,7.658925E-2,0E0,0E0,0E0,0E0],"parents":[2147483647,0,0,2,2,3,3,4,4],"right_children":[2,-1,4,6,8,-1,-1,-1,-1],"split_conditions":[1.48E1,-4.2018414E-2,1.49E1,5.72E2,1.888889E1,-3.3636667E-2,9.844437E-2,-2.1750959E-4,1.083572E-2],"split_indices":[1,0,4,3,5,0,0,0,0],"split_type":[0,0,0,0,0,0,0,0,0],"sum_hessian":[2.134E3,3E0,2.131E3,4E0,2.127E3,2E0,2E0,2.07E3,5.7E1],"tree_param":{"num_deleted":"0","num_feature":"7","num_nodes":"9","size_leaf_vector":"1"}},{"base_weights":[2.3892334E-4,1.5852602E-2,-1.5995469E-3,4.4942684E-3,2.0073509E-1,-1.2115072E-2,3.32831E-3,-2.5399346E-4,8.51306E-2,1.1276865E-2,3.2377225E-1,-1.4284066E-2,-2.7406155E-3,1.4989175E-2,-5.6616374E-4],"categories":[],"categories_nodes":[],"categories_segments":[],"categories_sizes":[],"default_left":[0,0,0,0,0,0,0,0,0,0,0,0,0,0,0],"id":22,"left_children":[1,3,5,7,9,11,13,-1,-1,-1,-1,-1,-1,-1,-1],"loss_changes":[6.1311133E-2,4.7158816E-1,9.906644E-2,3.1794685E-1,1.8226476E0,6.408739E-2,3.167785E-1,0E0,0E0,0E0,0E0,0E0,0E0,0E0,0E0],"parents":[2147483647,0,0,1,1,2,2,3,3,4,4,5,5,6,6],"right_children":[2,4,6,8,10,12,14,-1,-1,-1,-1,-1,-1,-1,-1],"split_conditions":[9.444445E0,1.0555555E1,1.25E1,2.04E1,1.95E1,1.63E1,1.2777778E1,-2.5399346E-4,8.51306E-2,1.1276865E-2,3.2377225E-1,-1.4284066E-2,-2.7406155E-3,1.4989175E-2,-5.6616374E-4],"split_indices":[2,5,5,4,1,4,2,0,0,0,0,0,0,0,0],"split_type":[0,0,0,0,0,0,0,0,0,0,0,0,0,0,0],"sum_hessian":[2.134E3,2.24E2,1.91E3,2.12E2,1.2E1,6.09E2,1.301E3,2.09E2,3E0,1.1E1,1E0,4.6E1,5.63E2,1.3E2,1.171E3],"tree_param":{"num_deleted":"0","num_feature":"7","num_nodes":"15","size_leaf_vector":"1"}},{"base_weights":[3.628858E-4,-1.1817646E-1,5.8511586E-4,-4.812012E-2,-1.5190507E-2,-8.264774E-4,2.5350422E-2,5.821704E-4,-4.1382564E-3,-3.997472E-3,1.2323216E-2],"categories":[],"categories_nodes":[],"categories_segments":[],"categories_sizes":[],"default_left":[0,0,0,0,0,0,0,0,0,0,0],"id":23,"left_children":[1,3,5,-1,-1,7,9,-1,-1,-1,-1],"loss_changes":[5.6311462E-2,3.285583E-3,7.455256E-2,0E0,0E0,7.243713E-2,7.049557E-2,0E0,0E0,0E0,0E0],"parents":[2147483647,0,0,1,1,2,2,5,5,6,6],"right_children":[2,4,6,-1,-1,8,10,-1,-1,-1,-1],"split_conditions":[4.68E2,1E1,2.11E1,-4.812012E-2,-1.5190507E-2,1.5833333E1,5.45E2,5.821704E-4,-4.1382564E-3,-3.997472E-3,1.2323216E-2],"split_indices":[3,2,6,0,0,2,0,0,0,0,0],"split_type":[0,0,0,0,0,0,0,0,0,0,0],"sum_hessian":[2.134E3,3E0,2.131E3,1E0,2E0,2.017E3,1.14E2,1.663E3,3.54E2,3.3E1,8.1E1],"tree_param":{"num_deleted":"0","num_feature":"7","num_nodes":"11","size_leaf_vector":"1"}},{"base_weights":[2.2704774E-4,-2.984205E-3,8.37177E-3,-2.8968303E-4,-2.134947E-2,-1.1469445E-2,1.3784372E-2,-1.0587734E-3,6.3723517E-3,-1.3661763E-2,1.6150292E-3,-2.7163697E-2,-2.2746094E-3,2.9439578E-2,2.841419E-3],"categories":[],"categories_nodes":[],"categories_segments":[],"categories_sizes":[],"default_left":[0,0,0,0,0,0,0,0,0,0,0,0,0,0,0],"id":24,"left_children":[1,3,5,7,9,11,13,-1,-1,-1,-1,-1,-1,-1,-1],"loss_changes":[5.58654E-2,7.580577E-2,6.502323E-2,9.333141E-2,1.2699087E-1,3.927573E-2,1.7187034E-1,0E0,0E0,0E0,0E0,0E0,0E0,0E0,0E0],"parents":[2147483647,0,0,1,1,2,2,3,3,4,4,5,5,6,6],"right_children":[2,4,6,8,10,12,14,-1,-1,-1,-1,-1,-1,-1,-1],"split_conditions":[2.03E1,1.5555555E1,5.58E2,1.4444445E1,1.6666666E1,4.7E2,5.6E2,-1.0587734E-3,6.3723517E-3,-1.3661763E-2,1.6150292E-3,-2.7163697E-2,-2.2746094E-3,2.9439578E-2,2.841419E-3],"split_indices":[6,2,0,5,5,3,3,0,0,0,0,0,0,0,0],"split_type":[0,0,0,0,0,0,0,0,0,0,0,0,0,0,0],"sum_hessian":[2.134E3,1.531E3,6.03E2,1.336E3,1.95E2,1.29E2,4.74E2,1.162E3,1.74E2,1.02E2,9.3E1,5E0,1.24E2,2.2E1,4.52E2],"tree_param":{"num_deleted":"0","num_feature":"7","num_nodes":"15","size_leaf_vector":"1"}},{"base_weights":[1.5693861E-4,-5.5597942E-2,5.5117067E-4,-2.635025E-2,-3.5890754E-2,2.151831E-2,-7.615202E-4,3.0756E-3,-1.24590695E-2,1.4004839E-4,4.6568908E-2,-1.0414114E-2,7.618137E-5],"categories":[],"categories_nodes":[],"categories_segments":[],"categories_sizes":[],"default_left":[0,0,0,0,0,0,0,0,0,0,0,0,0],"id":25,"left_children":[1,3,5,-1,7,9,11,-1,-1,-1,-1,-1,-1],"loss_changes":[4.695872E-2,6.376844E-3,5.839346E-2,0E0,3.2881983E-3,3.5178033E-1,6.8859436E-2,0E0,0E0,0E0,0E0,0E0,0E0],"parents":[2147483647,0,0,1,1,2,2,4,4,5,5,6,6],"right_children":[2,4,6,-1,8,10,12,-1,-1,-1,-1,-1,-1],"split_conditions":[1.74E1,1.73E1,8.333333E0,-2.635025E-2,5.38E2,8.888889E0,8.611111E0,3.0756E-3,-1.24590695E-2,1.4004839E-4,4.6568908E-2,-1.0414114E-2,7.618137E-5],"split_indices":[6,6,2,0,0,5,5,0,0,0,0,0,0],"split_type":[0,0,0,0,0,0,0,0,0,0,0,0,0],"sum_hessian":[2.134E3,1.4E1,2.12E3,4E0,1E1,1.24E2,1.996E3,1E0,9E0,1.08E2,1.6E1,5.7E1,1.939E3],"tree_param":{"num_deleted":"0","num_feature":"7","num_nodes":"13","size_leaf_vector":"1"}},{"base_weights":[1.1008573E-4,9.65611E-3,-1.9293546E-3,1.7803366E-3,1.2016075E-1,-8.810824E-3,4.3633026E-3,2.2404425E-2,-3.7067384E-4,1.1897179E-2,2.0919019E-1,-2.8198815E-3,4.7636606E-2,2.3233185E-3,-4.358859E-3],"categories":[],"categories_nodes":[],"categories_segments":[],"categories_sizes":[],"default_left":[0,0,0,0,0,0,0,0,0,0,0,0,0,0,0],"id":26,"left_children":[1,3,5,7,9,11,13,-1,-1,-1,-1,-1,-1,-1,-1],"loss_changes":[4.158398E-2,3.2702246E-1,7.625124E-2,7.7484235E-2,1.1338912E0,8.448199E-2,5.8880653E-2,0E0,0E0,0E0,0E0,0E0,0E0,0E0,0E0],"parents":[2147483647,0,0,1,1,2,2,3,3,4,4,5,5,6,6],"right_children":[2,4,6,8,10,12,14,-1,-1,-1,-1,-1,-1,-1,-1],"split_conditions":[1.0555555E1,1.1111111E1,1.99E1,5.2E2,1.96E1,1.8055555E1,1.7777779E1,2.2404425E-2,-3.7067384E-4,1.1897179E-2,2.0919019E-1,-2.8198815E-3,4.7636606E-2,2.3233185E-3,-4.358859E-3],"split_indices":[2,5,6,3,1,2,2,0,0,0,0,0,0,0,0],"split_type":[0,0,0,0,0,0,0,0,0,0,0,0,0,0,0],"sum_hessian":[2.134E3,3.75E2,1.759E3,3.51E2,2.4E1,8.4E2,9.19E2,1.3E1,3.38E2,2.2E1,2E0,8.38E2,2E0,7.8E2,1.39E2],"tree_param":{"num_deleted":"0","num_feature":"7","num_nodes":"15","size_leaf_vector":"1"}},{"base_weights":[2.1056771E-4,-1.2909974E-5,7.9510055E-2,-1.9424826E-4,2.8925085E-2,-5.187321E-3,1.02328494E-1,1.7794986E-4,-1.0293448E-2,3.870006E-2,-6.5374374E-4],"categories":[],"categories_nodes":[],"categories_segments":[],"categories_sizes":[],"default_left":[0,0,0,0,0,0,0,0,0,0,0],"id":27,"left_children":[1,3,5,7,-1,-1,9,-1,-1,-1,-1],"loss_changes":[3.7836783E-2,3.7264816E-2,1.5022468E-2,5.7160955E-2,0E0,0E0,1.4218096E-2,0E0,0E0,0E0,0E0],"parents":[2147483647,0,0,1,1,2,2,3,3,6,6],"right_children":[2,4,6,8,-1,-1,10,-1,-1,-1,-1],"split_conditions":[2.23E1,7.64E2,5.45E2,1.888889E1,2.8925085E-2,-5.187321E-3,5.97E2,1.7794986E-4,-1.0293448E-2,3.870006E-2,-6.5374374E-4],"split_indices":[6,0,0,2,0,0,0,0,0,0,0],"split_type":[0,0,0,0,0,0,0,0,0,0,0],"sum_hessian":[2.134E3,2.129E3,5E0,2.126E3,3E0,1E0,4E0,2.079E3,4.7E1,3E0,1E0],"tree_param":{"num_deleted":"0","num_feature":"7","num_nodes":"11","size_leaf_vector":"1"}},{"base_weights":[1.7216167E-4,-2.0300278E-3,8.635969E-3,2.0061388E-4,-3.1573657E-2,5.4831125E-2,-7.9883044E-5,-3.4095376E-4,1.4043943E-2,-5.4574857E-4,-1.2890979E-2,7.376242E-3,3.4669306E-2,-9.880218E-4,1.6136605E-2],"categories":[],"categories_nodes":[],"categories_segments":[],"categories_sizes":[],"default_left":[0,0,0,0,0,0,0,0,0,0,0,0,0,0,0],"id":28,"left_children":[1,3,5,7,9,11,13,-1,-1,-1,-1,-1,-1,-1,-1],"loss_changes":[3.9811596E-2,1.11708954E-1,1.7756426E-1,9.834263E-2,4.027357E-2,1.2573417E-1,6.457328E-2,0E0,0E0,0E0,0E0,0E0,0E0,0E0,0E0],"parents":[2147483647,0,0,1,1,2,2,3,3,4,4,5,5,6,6],"right_children":[2,4,6,8,10,12,14,-1,-1,-1,-1,-1,-1,-1,-1],"split_conditions":[1.611111E1,1.5555555E1,1.5833333E1,1.5555555E1,5.75E2,2.04E1,6.94E2,-3.4095376E-4,1.4043943E-2,-5.4574857E-4,-1.2890979E-2,7.376242E-3,3.4669306E-2,-9.880218E-4,1.6136605E-2],"split_indices":[5,2,2,5,3,6,0,0,0,0,0,0,0,0,0],"split_type":[0,0,0,0,0,0,0,0,0,0,0,0,0,0,0],"sum_hessian":[2.134E3,1.694E3,4.4E2,1.576E3,1.18E2,6.9E1,3.71E2,1.533E3,4.3E1,3.3E1,8.5E1,4.7E1,2.2E1,3.51E2,2E1],"tree_param":{"num_deleted":"0","num_feature":"7","num_nodes":"15","size_leaf_vector":"1"}},{"base_weights":[1.4779584E-4,-1.1039543E-1,3.0320225E-4,-9.503175E-3,-4.017477E-2,1.5152301E-2,-9.904804E-4,6.579317E-2,7.3692185E-4,-1.3641054E-2,4.4447897E-5],"categories":[],"categories_nodes":[],"categories_segments":[],"categories_sizes":[],"default_left":[0,0,0,0,0,0,0,0,0,0,0],"id":29,"left_children":[1,3,5,-1,-1,7,9,-1,-1,-1,-1],"loss_changes":[3.671091E-2,1.3123788E-3,4.0989984E-2,0E0,0E0,4.4268847E-1,9.9425554E-2,0E0,0E0,0E0,0E0],"parents":[2147483647,0,0,1,1,2,2,5,5,6,6],"right_children":[2,4,6,-1,-1,8,10,-1,-1,-1,-1],"split_conditions":[4.57E2,4.49E2,1.65E1,-9.503175E-3,-4.017477E-2,5.29E2,1.82E1,6.579317E-2,7.3692185E-4,-1.3641054E-2,4.4447897E-5],"split_indices":[3,0,1,0,0,3,6,0,0,0,0],"split_type":[0,0,0,0,0,0,0,0,0,0,0],"sum_hessian":[2.134E3,2E0,2.132E3,1E0,1E0,1.7E2,1.962E3,9E0,1.61E2,4.8E1,1.914E3],"tree_param":{"num_deleted":"0","num_feature":"7","num_nodes":"11","size_leaf_vector":"1"}},{"base_weights":[1.05555446E-4,-1.5683543E-2,1.2980324E-3,-6.223162E-2,-6.7635635E-3,1.3059756E-1,3.1385847E-4,5.002617E-3,-6.663902E-2,-1.5268136E-2,-5.148349E-4,1.6535397E-1,7.0482404E-3,-1.4629542E-4,8.80313E-3],"categories":[],"categories_nodes":[],"categories_segments":[],"categories_sizes":[],"default_left":[0,0,0,0,0,0,0,0,0,0,0,0,0,0,0],"id":30,"left_children":[1,3,5,7,9,11,13,-1,-1,-1,-1,-1,-1,-1,-1],"loss_changes":[4.0218424E-2,6.186028E-2,2.526839E-1,3.0651468E-1,2.8201269E-2,6.627376E-1,4.589833E-2,0E0,0E0,0E0,0E0,0E0,0E0,0E0,0E0],"parents":[2147483647,0,0,1,1,2,2,3,3,4,4,5,5,6,6],"right_children":[2,4,6,8,10,12,14,-1,-1,-1,-1,-1,-1,-1,-1],"split_conditions":[5.35E2,1.67E1,5.31E2,1.2777778E1,4.83E2,1.65E1,1.888889E1,5.002617E-3,-6.663902E-2,-1.5268136E-2,-5.148349E-4,1.6535397E-1,7.0482404E-3,-1.4629542E-4,8.80313E-3],"split_indices":[0,1,3,2,3,4,5,0,0,0,0,0,0,0,0],"split_type":[0,0,0,0,0,0,0,0,0,0,0,0,0,0,0],"sum_hessian":[2.134E3,1.49E2,1.985E3,2.3E1,1.26E2,1.4E1,1.971E3,1.6E1,7E0,1.2E1,1.14E2,2E0,1.2E1,1.919E3,5.2E1],"tree_param":{"num_deleted":"0","num_feature":"7","num_nodes":"15","size_leaf_vector":"1"}},{"base_weights":[1.2297173E-4,-2.8721524E-2,3.0276654E-4,1.0326958E-1,6.0690974E-5,6.318698E-2,-4.892178E-2,-2.1250772E-3,6.420753E-4],"categories":[],"categories_nodes":[],"categories_segments":[],"categories_sizes":[],"default_left":[0,0,0,0,0,0,0,0,0],"id":31,"left_children":[1,-1,3,5,7,-1,-1,-1,-1],"loss_changes":[3.682652E-2,0E0,5.3135432E-2,1.7731094E-1,3.1630777E-2,0E0,0E0,0E0,0E0],"parents":[2147483647,0,0,2,2,3,3,4,4],"right_children":[2,-1,4,6,8,-1,-1,-1,-1],"split_conditions":[1.48E1,-2.8721524E-2,1.49E1,1.3055555E1,5.7E2,6.318698E-2,-4.892178E-2,-2.1250772E-3,6.420753E-4],"split_indices":[1,0,4,2,0,0,0,0,0],"split_type":[0,0,0,0,0,0,0,0,0],"sum_hessian":[2.134E3,3E0,2.131E3,4E0,2.127E3,3E0,1E0,4.79E2,1.648E3],"tree_param":{"num_deleted":"0","num_feature":"7","num_nodes":"9","size_leaf_vector":"1"}},{"base_weights":[7.800743E-5,-1.8704794E-2,8.3733257E-4,8.933115E-2,-2.3872782E-2,8.028096E-2,-3.0079216E-4,4.2866137E-2,7.155037E-3,-4.9650427E-3,-2.9361945E-2,8.766381E-3,9.585698E-2,-1.9382942E-2,-2.3303946E-5],"categories":[],"categories_nodes":[],"categories_segments":[],"categories_sizes":[],"default_left":[0,0,0,0,0,0,0,0,0,0,0,0,0,0,0],"id":32,"left_children":[1,3,5,7,9,11,13,-1,-1,-1,-1,-1,-1,-1,-1],"loss_changes":[3.0465573E-2,4.8473842E-2,1.8564977E-1,1.0619722E-2,4.1730423E-2,3.4491658E-1,2.9049953E-2,0E0,0E0,0E0,0E0,0E0,0E0,0E0,0E0],"parents":[2147483647,0,0,1,1,2,2,3,3,4,4,5,5,6,6],"right_children":[2,4,6,8,10,12,14,-1,-1,-1,-1,-1,-1,-1,-1],"split_conditions":[7.5E0,1.52E1,7.7777777E0,5.88E2,1.9E1,1.9E1,1.5E1,4.2866137E-2,7.155037E-3,-4.9650427E-3,-2.9361945E-2,8.766381E-3,9.585698E-2,-1.9382942E-2,-2.3303946E-5],"split_indices":[5,1,2,0,1,1,1,0,0,0,0,0,0,0,0],"split_type":[0,0,0,0,0,0,0,0,0,0,0,0,0,0,0],"sum_hessian":[2.134E3,8.2E1,2.052E3,3E0,7.9E1,2.8E1,2.024E3,1E0,2E0,7.3E1,6E0,2.4E1,4E0,6E0,2.018E3],"tree_param":{"num_deleted":"0","num_feature":"7","num_nodes":"15","size_leaf_vector":"1"}},{"base_weights":[1.01470054E-4,2.2713216E-3,-6.0798577E-3,1.4571015E-3,1.4432652E-1,2.761689E-2,-8.963797E-3,5.507995E-4,-2.9341223E-2,5.0248004E-2,-6.1512E-3,-9.3148556E-4,2.1649616E-2,-3.0778106E-2,-2.068287E-3],"categories":[],"categories_nodes":[],"categories_segments":[],"categories_sizes":[],"default_left":[0,0,0,0,0,0,0,0,0,0,0,0,0,0,0],"id":33,"left_children":[1,3,5,7,9,11,13,-1,-1,-1,-1,-1,-1,-1,-1],"loss_changes":[2.8649632E-2,1.8265481E-1,5.4182112E-2,5.9339665E-2,3.7801653E-2,6.0442988E-2,9.850177E-2,0E0,0E0,0E0,0E0,0E0,0E0,0E0,0E0],"parents":[2147483647,0,0,1,1,2,2,3,3,4,4,5,5,6,6],"right_children":[2,4,6,8,10,12,14,-1,-1,-1,-1,-1,-1,-1,-1],"split_conditions":[6.36E2,6.46E2,1.1111111E1,6.44E2,1.7777779E1,6.54E2,1.7E1,5.507995E-4,-2.9341223E-2,5.0248004E-2,-6.1512E-3,-9.3148556E-4,2.1649616E-2,-3.0778106E-2,-2.068287E-3],"split_indices":[3,0,2,0,2,3,1,0,0,0,0,0,0,0,0],"split_type":[0,0,0,0,0,0,0,0,0,0,0,0,0,0,0],"sum_hessian":[2.134E3,1.58E3,5.54E2,1.572E3,8E0,4.3E1,5.11E2,1.567E3,5E0,7E0,1E0,2.6E1,1.7E1,1E1,5.01E2],"tree_param":{"num_deleted":"0","num_feature":"7","num_nodes":"15","size_leaf_vector":"1"}},{"base_weights":[7.2028095E-5,-1.1614301E-3,9.089911E-3,-6.1449856E-3,2.5553354E-3,2.138754E-2,-9.807344E-3,2.9538956E-3,-5.8280164E-3,1.814858E-2,1.8257771E-4,4.2091147E-3,6.0893442E-2,6.9237277E-3,-7.5512533E-3],"categories":[],"categories_nodes":[],"categories_segments":[],"categories_sizes":[],"default_left":[0,0,0,0,0,0,0,0,0,0,0,0,0,0,0],"id":34,"left_children":[1,3,5,7,9,11,13,-1,-1,-1,-1,-1,-1,-1,-1],"loss_changes":[2.3758551E-2,3.481987E-2,5.993436E-2,1.7074224E-1,1.214425E-1,2.0556673E-1,5.21165E-2,0E0,0E0,0E0,0E0,0E0,0E0,0E0,0E0],"parents":[2147483647,0,0,1,1,2,2,3,3,4,4,5,5,6,6],"right_children":[2,4,6,8,10,12,14,-1,-1,-1,-1,-1,-1,-1,-1],"split_conditions":[2.08E1,5.99E2,6.05E2,1.2222222E1,5.96E2,6.12E2,2.1E1,2.9538956E-3,-5.8280164E-3,1.814858E-2,1.8257771E-4,4.2091147E-3,6.0893442E-2,6.9237277E-3,-7.5512533E-3],"split_indices":[6,0,3,2,3,0,6,0,0,0,0,0,0,0,0],"split_type":[0,0,0,0,0,0,0,0,0,0,0,0,0,0,0],"sum_hessian":[2.134E3,1.878E3,2.56E2,8.02E2,1.076E3,1.55E2,1.01E2,3.64E2,4.38E2,3.4E1,1.042E3,1.5E2,5E0,3.2E1,6.9E1],"tree_param":{"num_deleted":"0","num_feature":"7","num_nodes":"15","size_leaf_vector":"1"}},{"base_weights":[8.764512E-5,-1.3627679E-2,1.2659888E-3,-4.6439614E-2,-3.0934385E-3,1.3978629E-1,4.8674035E-4,-4.2786196E-2,-4.4795396E-3,-2.4326611E-3,1.7220326E-2,5.532503E-3,1.0425869E-1,3.276868E-3,-3.743186E-4],"categories":[],"categories_nodes":[],"categories_segments":[],"categories_sizes":[],"default_left":[0,0,0,0,0,0,0,0,0,0,0,0,0,0,0],"id":35,"left_children":[1,3,5,7,9,11,13,-1,-1,-1,-1,-1,-1,-1,-1],"loss_changes":[3.4521766E-2,5.827099E-2,2.1225335E-1,1.2211906E-1,3.9604846E-2,2.7088398E-1,3.5437647E-2,0E0,0E0,0E0,0E0,0E0,0E0,0E0,0E0],"parents":[2147483647,0,0,1,1,2,2,3,3,4,4,5,5,6,6],"right_children":[2,4,6,8,10,12,14,-1,-1,-1,-1,-1,-1,-1,-1],"split_conditions":[8.611111E0,5.59E2,7.7777777E0,1.88E1,1.94E1,1.89E1,1.72E1,-4.2786196E-2,-4.4795396E-3,-2.4326611E-3,1.7220326E-2,5.532503E-3,1.0425869E-1,3.276868E-3,-3.743186E-4],"split_indices":[5,3,2,6,4,1,1,0,0,0,0,0,0,0,0],"split_type":[0,0,0,0,0,0,0,0,0,0,0,0,0,0,0],"sum_hessian":[2.134E3,1.68E2,1.966E3,4E1,1.28E2,1E1,1.956E3,9E0,3.1E1,1.19E2,9E0,7E0,3E0,2.78E2,1.678E3],"tree_param":{"num_deleted":"0","num_feature":"7","num_nodes":"15","size_leaf_vector":"1"}},{"base_weights":[9.851835E-5,-4.2640683E-3,3.3802192E-3,1.2085886E-2,-7.894132E-3,2.7920227E-2,-1.7843265E-3,2.509153E-4,7.066956E-2,-3.109977E-2,-1.8199882E-3,2.1964349E-2,3.4759426E-3,-1.9404449E-2,1.8352286E-4],"categories":[],"categories_nodes":[],"categories_segments":[],"categories_sizes":[],"default_left":[0,0,0,0,0,0,0,0,0,0,0,0,0,0,0],"id":36,"left_children":[1,3,5,7,9,11,13,-1,-1,-1,-1,-1,-1,-1,-1],"loss_changes":[3.0580575E-2,5.452063E-2,1.5454344E-1,4.196461E-1,1.3081366E-1,1.5599467E-1,1.519512E-1,0E0,0E0,0E0,0E0,0E0,0E0,0E0,0E0],"parents":[2147483647,0,0,1,1,2,2,3,3,4,4,5,5,6,6],"right_children":[2,4,6,8,10,12,14,-1,-1,-1,-1,-1,-1,-1,-1],"split_conditions":[1.2777778E1,1.66E1,1.3055555E1,1.82E1,1.8E1,1.79E1,1.86E1,2.509153E-4,7.066956E-2,-3.109977E-2,-1.8199882E-3,2.1964349E-2,3.4759426E-3,-1.9404449E-2,1.8352286E-4],"split_indices":[5,1,2,4,6,4,6,0,0,0,0,0,0,0,0],"split_type":[0,0,0,0,0,0,0,0,0,0,0,0,0,0,0],"sum_hessian":[2.134E3,9.16E2,1.218E3,1.66E2,7.5E2,2.11E2,1.007E3,1.59E2,7E0,1.3E1,7.37E2,5.5E1,1.56E2,3.6E1,9.71E2],"tree_param":{"num_deleted":"0","num_feature":"7","num_nodes":"15","size_leaf_vector":"1"}},{"base_weights":[8.972221E-5,-2.9184045E-3,3.3624058E-3,1.8045394E-2,-7.009062E-3,7.386491E-2,1.0113008E-3,2.2881466E-3,1.1559769E-1,-1.0603766E-3,-8.41191E-3,3.54494E-2,-4.052019E-3,-2.177179E-2,8.972322E-4],"categories":[],"categories_nodes":[],"categories_segments":[],"categories_sizes":[],"default_left":[0,0,0,0,0,0,0,0,0,0,0,0,0,0,0],"id":37,"left_children":[1,3,5,7,9,11,13,-1,-1,-1,-1,-1,-1,-1,-1],"loss_changes":[2.1028135E-2,9.55726E-2,1.6949654E-1,6.934683E-1,6.800251E-2,1.2932394E-1,1.4456354E-1,0E0,0E0,0E0,0E0,0E0,0E0,0E0,0E0],"parents":[2147483647,0,0,1,1,2,2,3,3,4,4,5,5,6,6],"right_children":[2,4,6,8,10,12,14,-1,-1,-1,-1,-1,-1,-1,-1],"split_conditions":[1.3333333E1,5.58E2,1.2777778E1,5.76E2,2E1,6.3E2,1.66E1,2.2881466E-3,1.1559769E-1,-1.0603766E-3,-8.41191E-3,3.54494E-2,-4.052019E-3,-2.177179E-2,8.972322E-4],"split_indices":[5,3,2,0,1,3,4,0,0,0,0,0,0,0,0],"split_type":[0,0,0,0,0,0,0,0,0,0,0,0,0,0,0],"sum_hessian":[2.134E3,1.112E3,1.022E3,1.81E2,9.31E2,3.2E1,9.9E2,1.77E2,4E0,8E2,1.31E2,2.1E1,1.1E1,2.5E1,9.65E2],"tree_param":{"num_deleted":"0","num_feature":"7","num_nodes":"15","size_leaf_vector":"1"}},{"base_weights":[1.1881844E-4,-5.7196133E-3,1.824713E-3,-1.0166768E-2,3.7791952E-2,1.3919942E-1,3.969825E-4,1.7235322E-3,-4.8511312E-3,1.4657365E-1,1.6388473E-3,9.603573E-2,1.7672187E-2,-3.6312622E-4,5.5305967E-3],"categories":[],"categories_nodes":[],"categories_segments":[],"categories_sizes":[],"default_left":[0,0,0,0,0,0,0,0,0,0,0,0,0,0,0],"id":38,"left_children":[1,3,5,7,9,11,13,-1,-1,-1,-1,-1,-1,-1,-1],"loss_changes":[2.1274501E-2,9.384601E-2,3.2415432E-1,4.2030405E-2,6.531405E-1,2.2809193E-1,4.7486942E-2,0E0,0E0,0E0,0E0,0E0,0E0,0E0,0E0],"parents":[2147483647,0,0,1,1,2,2,3,3,4,4,5,5,6,6],"right_children":[2,4,6,8,10,12,14,-1,-1,-1,-1,-1,-1,-1,-1],"split_conditions":[5.7E2,2.03E1,5.6E2,5.31E2,1.81E1,1.85E1,1.75E1,1.7235322E-3,-4.8511312E-3,1.4657365E-1,1.6388473E-3,9.603573E-2,1.7672187E-2,-3.6312622E-4,5.5305967E-3],"split_indices":[0,1,3,3,4,6,5,0,0,0,0,0,0,0,0],"split_type":[0,0,0,0,0,0,0,0,0,0,0,0,0,0,0],"sum_hessian":[2.134E3,4.82E2,1.652E3,4.38E2,4.4E1,1.6E1,1.636E3,1.2E2,3.18E2,2E0,4.2E1,4E0,1.2E1,1.503E3,1.33E2],"tree_param":{"num_deleted":"0","num_feature":"7","num_nodes":"15","size_leaf_vector":"1"}},{"base_weights":[2.0611158E-4,8.7431725E-4,-1.4475074E-2,2.6171716E-4,4.6605427E-2,1.1043358E-1,-1.8433874E-2,4.0811335E-4,-3.883549E-3,1.9383743E-2,-8.1563955E-3,3.938141E-2,1.0313702E-2,-6.963092E-3,2.0508844E-2],"categories":[],"categories_nodes":[],"categories_segments":[],"categories_sizes":[],"default_left":[0,0,0,0,0,0,0,0,0,0,0,0,0,0,0],"id":39,"left_children":[1,3,5,7,9,11,13,-1,-1,-1,-1,-1,-1,-1,-1],"loss_changes":[2.0957114E-2,5.7222202E-2,4.802315E-2,2.9284036E-2,3.7634328E-2,2.4144351E-4,3.931336E-2,0E0,0E0,0E0,0E0,0E0,0E0,0E0,0E0],"parents":[2147483647,0,0,1,1,2,2,3,3,4,4,5,5,6,6],"right_children":[2,4,6,8,10,12,14,-1,-1,-1,-1,-1,-1,-1,-1],"split_conditions":[1.8333334E1,1.8333334E1,1.99E1,1.6944445E1,2.12E1,7.05E2,2.23E1,4.0811335E-4,-3.883549E-3,1.9383743E-2,-8.1563955E-3,3.938141E-2,1.0313702E-2,-6.963092E-3,2.0508844E-2],"split_indices":[2,5,6,2,1,0,6,0,0,0,0,0,0,0,0],"split_type":[0,0,0,0,0,0,0,0,0,0,0,0,0,0,0],"sum_hessian":[2.134E3,2.042E3,9.2E1,2.016E3,2.6E1,2E0,9E1,1.862E3,1.54E2,2.1E1,5E0,1E0,1E0,8.6E1,4E0],"tree_param":{"num_deleted":"0","num_feature":"7","num_nodes":"15","size_leaf_vector":"1"}},{"base_weights":[1.7748169E-4,-5.2205496E-2,3.4962982E-4,-3.0795021E-2,4.927063E-2,7.683907E-2,1.0907023E-4,1.891222E-2,3.2595636E-3,-2.0390797E-2,7.114994E-5],"categories":[],"categories_nodes":[],"categories_segments":[],"categories_sizes":[],"default_left":[0,0,0,0,0,0,0,0,0,0,0],"id":40,"left_children":[1,3,5,-1,7,-1,9,-1,-1,-1,-1],"loss_changes":[1.9270893E-2,4.0890075E-2,1.3097045E-1,0E0,9.015887E-4,0E0,1.8573526E-2,0E0,0E0,0E0,0E0],"parents":[2147483647,0,0,1,1,2,2,4,4,6,6],"right_children":[2,4,6,-1,8,-1,10,-1,-1,-1,-1],"split_conditions":[1.5E1,5.63E2,1.49E1,-3.0795021E-2,5.63E2,7.683907E-2,4.68E2,1.891222E-2,3.2595636E-3,-2.0390797E-2,7.114994E-5],"split_indices":[1,3,4,0,0,0,3,0,0,0,0],"split_type":[0,0,0,0,0,0,0,0,0,0,0],"sum_hessian":[2.134E3,6E0,2.128E3,4E0,2E0,1E0,2.127E3,1E0,1E0,3E0,2.124E3],"tree_param":{"num_deleted":"0","num_feature":"7","num_nodes":"11","size_leaf_vector":"1"}},{"base_weights":[1.4724553E-4,-1.2915581E-2,7.5519324E-4,4.5216423E-3,-5.9365198E-2,5.786365E-2,1.0425233E-4,-2.429587E-2,5.058344E-3,-1.3874646E-1,-7.4222265E-3,1.6976196E-1,2.7152407E-3,-1.8653503E-3,5.5330707E-4],"categories":[],"categories_nodes":[],"categories_segments":[],"categories_sizes":[],"default_left":[0,0,0,0,0,0,0,0,0,0,0,0,0,0,0],"id":41,"left_children":[1,3,5,7,9,11,13,-1,-1,-1,-1,-1,-1,-1,-1],"loss_changes":[1.696489E-2,7.7213906E-2,7.586657E-2,7.522425E-2,3.5146335E-1,5.652183E-1,2.222267E-2,0E0,0E0,0E0,0E0,0E0,0E0,0E0,0E0],"parents":[2147483647,0,0,1,1,2,2,3,3,4,4,5,5,6,6],"right_children":[2,4,6,8,10,12,14,-1,-1,-1,-1,-1,-1,-1,-1],"split_conditions":[5.2E2,5.13E2,5.22E2,1.86E1,5.02E2,1.65E1,1.1111111E1,-2.429587E-2,5.058344E-3,-1.3874646E-1,-7.4222265E-3,1.6976196E-1,2.7152407E-3,-1.8653503E-3,5.5330707E-4],"split_indices":[0,0,3,6,3,1,5,0,0,0,0,0,0,0,0],"split_type":[0,0,0,0,0,0,0,0,0,0,0,0,0,0,0],"sum_hessian":[2.134E3,9.4E1,2.04E3,6.9E1,2.5E1,2.2E1,2.018E3,8E0,6.1E1,1E0,2.4E1,1E0,2.1E1,4.35E2,1.583E3],"tree_param":{"num_deleted":"0","num_feature":"7","num_nodes":"15","size_leaf_vector":"1"}},{"base_weights":[1.0589224E-4,4.4908207E-3,-1.880821E-3,-1.6108917E-3,3.2551724E-2,-3.0472081E-2,-3.434102E-4,7.861497E-3,-2.4093383E-3,1.6306125E-2,2.6054648E-3,-1.157559E-2,5.313206E-2,2.5383439E-2,-5.1073154E-4],"categories":[],"categories_nodes":[],"categories_segments":[],"categories_sizes":[],"default_left":[0,0,0,0,0,0,0,0,0,0,0,0,0,0,0],"id":42,"left_children":[1,3,5,7,9,11,13,-1,-1,-1,-1,-1,-1,-1,-1],"loss_changes":[1.8607702E-2,1.14084676E-1,6.460561E-2,9.807475E-2,6.1449036E-2,1.3314366E-1,1.613207E-1,0E0,0E0,0E0,0E0,0E0,0E0,0E0,0E0],"parents":[2147483647,0,0,1,1,2,2,3,3,4,4,5,5,6,6],"right_children":[2,4,6,8,10,12,14,-1,-1,-1,-1,-1,-1,-1,-1],"split_conditions":[1.2222222E1,1.1666667E1,1.66E1,5.57E2,1.96E1,1.84E1,1.68E1,7.861497E-3,-2.4093383E-3,1.6306125E-2,2.6054648E-3,-1.157559E-2,5.313206E-2,2.5383439E-2,-5.1073154E-4],"split_indices":[2,5,1,0,6,4,4,0,0,0,0,0,0,0,0],"split_type":[0,0,0,0,0,0,0,0,0,0,0,0,0,0,0],"sum_hessian":[2.134E3,6.65E2,1.469E3,5.47E2,1.18E2,7.4E1,1.395E3,1.02E2,4.45E2,6.1E1,5.7E1,7.2E1,2E0,2.1E1,1.374E3],"tree_param":{"num_deleted":"0","num_feature":"7","num_nodes":"15","size_leaf_vector":"1"}},{"base_weights":[1.1684319E-4,-1.02203125E-2,1.0278015E-3,2.05156E-2,-1.5069923E-2,1.0395119E-1,4.4757358E-4,-2.0096684E-3,3.758114E-2,-4.9518507E-2,-2.3022017E-3,1.4311838E-1,5.6802183E-3,1.0459328E-2,-5.0358753E-6],"categories":[],"categories_nodes":[],"categories_segments":[],"categories_sizes":[],"default_left":[0,0,0,0,0,0,0,0,0,0,0,0,0,0,0],"id":43,"left_children":[1,3,5,7,9,11,13,-1,-1,-1,-1,-1,-1,-1,-1],"loss_changes":[2.0115197E-2,2.6096065E-2,1.1718193E-1,6.925959E-2,1.6513231E-1,3.3989555E-1,3.1213045E-2,0E0,0E0,0E0,0E0,0E0,0E0,0E0,0E0],"parents":[2147483647,0,0,1,1,2,2,3,3,4,4,5,5,6,6],"right_children":[2,4,6,8,10,12,14,-1,-1,-1,-1,-1,-1,-1,-1],"split_conditions":[5.38E2,1.65E1,5.31E2,1.25E1,1.66E1,9.444445E0,1.57E1,-2.0096684E-3,3.758114E-2,-4.9518507E-2,-2.3022017E-3,1.4311838E-1,5.6802183E-3,1.0459328E-2,-5.0358753E-6],"split_indices":[0,4,3,5,4,2,1,0,0,0,0,0,0,0,0],"split_type":[0,0,0,0,0,0,0,0,0,0,0,0,0,0,0],"sum_hessian":[2.134E3,1.72E2,1.962E3,2.3E1,1.49E2,1E1,1.952E3,1.9E1,4E0,6E0,1.43E2,1E0,9E0,2.5E1,1.927E3],"tree_param":{"num_deleted":"0","num_feature":"7","num_nodes":"15","size_leaf_vector":"1"}},{"base_weights":[1.4938963E-4,-1.8689461E-2,2.958413E-4,-7.736079E-2,4.0512928E-4,2.48909E-4,-3.5061266E-2,-7.6739E-5,4.776251E-3],"categories":[],"categories_nodes":[],"categories_segments":[],"categories_sizes":[],"default_left":[0,0,0,0,0,0,0,0,0],"id":44,"left_children":[1,-1,3,5,7,-1,-1,-1,-1],"loss_changes":[1.9544195E-2,0E0,1.8116998E-2,9.364907E-3,2.18364E-2,0E0,0E0,0E0,0E0],"parents":[2147483647,0,0,2,2,3,3,4,4],"right_children":[2,-1,4,6,8,-1,-1,-1,-1],"split_conditions":[1.73E1,-1.8689461E-2,4.57E2,4.49E2,2.12E1,2.48909E-4,-3.5061266E-2,-7.6739E-5,4.776251E-3],"split_indices":[6,0,3,0,6,0,0,0,0],"split_type":[0,0,0,0,0,0,0,0,0],"sum_hessian":[2.134E3,4E0,2.13E3,2E0,2.128E3,1E0,1E0,2.042E3,8.6E1],"tree_param":{"num_deleted":"0","num_feature":"7","num_nodes":"9","size_leaf_vector":"1"}},{"base_weights":[8.1299506E-5,6.257904E-3,-1.2382941E-3,1.0289658E-3,7.9631045E-2,-6.326864E-3,2.4338495E-3,7.5857464E-4,-2.1972574E-2,1.3175684E-1,3.191159E-3,3.3874125E-3,-3.0549401E-3,8.895541E-3,-3.6479725E-4],"categories":[],"categories_nodes":[],"categories_segments":[],"categories_sizes":[],"default_left":[0,0,0,0,0,0,0,0,0,0,0,0,0,0,0],"id":45,"left_children":[1,3,5,7,9,11,13,-1,-1,-1,-1,-1,-1,-1,-1],"loss_changes":[1.7409299E-2,1.4417559E-1,3.2902688E-2,3.939019E-2,6.1551124E-1,5.025519E-2,1.0166207E-1,0E0,0E0,0E0,0E0,0E0,0E0,0E0,0E0],"parents":[2147483647,0,0,1,1,2,2,3,3,4,4,5,5,6,6],"right_children":[2,4,6,8,10,12,14,-1,-1,-1,-1,-1,-1,-1,-1],"split_conditions":[1.0555555E1,1.1111111E1,1.3333333E1,2.07E1,5.45E2,1.69E1,1.3611111E1,7.5857464E-4,-2.1972574E-2,1.3175684E-1,3.191159E-3,3.3874125E-3,-3.0549401E-3,8.895541E-3,-3.6479725E-4],"split_indices":[2,5,5,4,3,1,2,0,0,0,0,0,0,0,0],"split_type":[0,0,0,0,0,0,0,0,0,0,0,0,0,0,0],"sum_hessian":[2.134E3,3.75E2,1.759E3,3.51E2,2.4E1,7.37E2,1.022E3,3.45E2,6E0,3E0,2.1E1,1.32E2,6.05E2,1.2E2,9.02E2],"tree_param":{"num_deleted":"0","num_feature":"7","num_nodes":"15","size_leaf_vector":"1"}},{"base_weights":[1.14193455E-4,-2.6697768E-3,3.821977E-3,-3.5186976E-3,6.576144E-2,1.5761417E-1,2.2933956E-3,-5.717938E-4,-9.973563E-3,5.3651504E-2,2.5153595E-3,1.1907292E-2,6.298819E-2,2.7835956E-2,4.7657348E-4],"categories":[],"categories_nodes":[],"categories_segments":[],"categories_sizes":[],"default_left":[0,0,0,0,0,0,0,0,0,0,0,0,0,0,0],"id":46,"left_children":[1,3,5,7,9,11,13,-1,-1,-1,-1,-1,-1,-1,-1],"loss_changes":[2.204844E-2,7.110447E-2,2.1497536E-1,5.775287E-2,9.582058E-2,4.7222197E-2,5.776586E-2,0E0,0E0,0E0,0E0,0E0,0E0,0E0,0E0],"parents":[2147483647,0,0,1,1,2,2,3,3,4,4,5,5,6,6],"right_children":[2,4,6,8,10,12,14,-1,-1,-1,-1,-1,-1,-1,-1],"split_conditions":[6.12E2,6.28E2,5.95E2,6.09E2,6.3E2,1.5E1,1.59E1,-5.717938E-4,-9.973563E-3,5.3651504E-2,2.5153595E-3,1.1907292E-2,6.298819E-2,2.7835956E-2,4.7657348E-4],"split_indices":[0,3,3,0,3,2,1,0,0,0,0,0,0,0,0],"split_type":[0,0,0,0,0,0,0,0,0,0,0,0,0,0,0],"sum_hessian":[2.134E3,1.219E3,9.15E2,1.205E3,1.4E1,8E0,9.07E2,1.144E3,6.1E1,4E0,1E1,3E0,5E0,6E0,9.01E2],"tree_param":{"num_deleted":"0","num_feature":"7","num_nodes":"15","size_leaf_vector":"1"}},{"base_weights":[1.4974964E-4,4.967244E-5,2.137642E-2,5.395982E-4,-1.9187784E-2,-2.1787503E-4,2.74275E-3,-2.1205852E-2,-1.6702652E-3],"categories":[],"categories_nodes":[],"categories_segments":[],"categories_sizes":[],"default_left":[0,0,0,0,0,0,0,0,0],"id":47,"left_children":[1,3,-1,5,7,-1,-1,-1,-1],"loss_changes":[1.5189095E-2,2.011372E-2,0E0,2.2668665E-2,3.6781706E-2,0E0,0E0,0E0,0E0],"parents":[2147483647,0,0,1,1,3,3,4,4],"right_children":[2,4,-1,6,8,-1,-1,-1,-1],"split_conditions":[7.65E2,1.888889E1,2.137642E-2,2.07E1,5.49E2,-2.1787503E-4,2.74275E-3,-2.1205852E-2,-1.6702652E-3],"split_indices":[0,2,0,6,3,0,0,0,0],"split_type":[0,0,0,0,0,0,0,0,0],"sum_hessian":[2.134E3,2.132E3,2E0,2.08E3,5.2E1,1.814E3,2.66E2,1E1,4.2E1],"tree_param":{"num_deleted":"0","num_feature":"7","num_nodes":"9","size_leaf_vector":"1"}},{"base_weights":[1.0494348E-4,1.532979E-3,-5.4155146E-3,-5.820659E-4,2.8603407E-2,-1.6275754E-2,2.1949827E-3,3.7887035E-4,-4.070751E-3,4.8163934E-3,3.5365257E-2,-1.3955961E-2,-3.339221E-3,8.140714E-3,-7.860543E-4],"categories":[],"categories_nodes":[],"categories_segments":[],"categories_sizes":[],"default_left":[0,0,0,0,0,0,0,0,0,0,0,0,0,0,0],"id":48,"left_children":[1,3,5,7,9,11,13,-1,-1,-1,-1,-1,-1,-1,-1],"loss_changes":[1.6839383E-2,9.717867E-2,3.6319874E-2,3.7755363E-2,1.3591212E-1,2.7646974E-2,3.1175368E-2,0E0,0E0,0E0,0E0,0E0,0E0,0E0,0E0],"parents":[2147483647,0,0,1,1,2,2,3,3,4,4,5,5,6,6],"right_children":[2,4,6,8,10,12,14,-1,-1,-1,-1,-1,-1,-1,-1],"split_conditions":[1.5833333E1,1.5555555E1,1.7222221E1,1.4444445E1,2.1E1,1.81E1,1.6944445E1,3.7887035E-4,-4.070751E-3,4.8163934E-3,3.5365257E-2,-1.3955961E-2,-3.339221E-3,8.140714E-3,-7.860543E-4],"split_indices":[2,5,5,2,1,1,2,0,0,0,0,0,0,0,0],"split_type":[0,0,0,0,0,0,0,0,0,0,0,0,0,0,0],"sum_hessian":[2.134E3,1.696E3,4.38E2,1.574E3,1.22E2,1.8E2,2.58E2,1.379E3,1.95E2,1.08E2,1.4E1,2.5E1,1.55E2,4.1E1,2.17E2],"tree_param":{"num_deleted":"0","num_feature":"7","num_nodes":"15","size_leaf_vector":"1"}},{"base_weights":[8.54385E-5,1.056551E-3,-7.962501E-3,7.62739E-4,1.405735E-1,-4.7114614E-2,-5.3003537E-3,-6.896434E-4,1.4851436E-3,5.166512E-2,6.8464284E-3,6.3857757E-3,-4.5594713E-3],"categories":[],"categories_nodes":[],"categories_segments":[],"categories_sizes":[],"default_left":[0,0,0,0,0,0,0,0,0,0,0,0,0],"id":49,"left_children":[1,3,5,7,9,-1,11,-1,-1,-1,-1,-1,-1],"loss_changes":[1.6694408E-2,7.8023076E-2,9.0452135E-2,2.4409695E-2,1.0974139E-2,0E0,6.0058057E-2,0E0,0E0,0E0,0E0,0E0,0E0],"parents":[2147483647,0,0,1,1,2,2,3,3,4,4,6,6],"right_children":[2,4,6,8,10,-1,12,-1,-1,-1,-1,-1,-1],"split_conditions":[2.06E1,2.23E1,8.611111E0,6.1E2,6.34E2,-4.7114614E-2,5.94E2,-6.896434E-4,1.4851436E-3,5.166512E-2,6.8464284E-3,6.3857757E-3,-4.5594713E-3],"split_indices":[4,1,2,3,0,0,3,0,0,0,0,0,0],"split_type":[0,0,0,0,0,0,0,0,0,0,0,0,0],"sum_hessian":[2.134E3,1.905E3,2.29E2,1.902E3,3E0,3E0,2.26E2,1.099E3,8.03E2,2E0,1E0,6.1E1,1.65E2],"tree_param":{"num_deleted":"0","num_feature":"7","num_nodes":"13","size_leaf_vector":"1"}}]},"name":"gbtree"},"learner_model_param":{"base_score":"1.972446E1","boost_from_average":"1","num_class":"0","num_feature":"7","num_target":"1"},"objective":{"name":"reg:squarederror","reg_loss_param":{"scale_pos_weight":"1"}}},"version":[2,0,3]}