{"learner":{"attributes":{"scikit_learn":"{\"_estimator_type\": \"regressor\"}"},"feature_names":[],"feature_types":[],"gradient_booster":{"model":{"gbtree_model_param":{"num_parallel_tree":"1","num_trees":"50"},"iteration_indptr":[0,1,2,3,4,5,6,7,8,9,10,11,12,13,14,15,16,17,18,19,20,21,22,23,24,25,26,27,28,29,30,31,32,33,34,35,36,37,38,39,40,41,42,43,44,45,46,47,48,49,50],"tree_info":[0,0,0,0,0,0,0,0,0,0,0,0,0,0,0,0,0,0,0,0,0,0,0,0,0,0,0,0,0,0,0,0,0,0,0,0,0,0,0,0,0,0,0,0,0,0,0,0,0,0],"trees":[{"base_weights":[5.264587E-7,-2.2353926E0,1.2639838E0,-4.978451E0,1.2605481E0,4.9040586E-1,2.7094371E0,-6.339045E0,-3.8824387E0,1.0811914E0,2.3218439E0,-1.9410217E-1,1.965732E0,2.2099357E0,3.923817E0,-8.408676E0,-6.0867124E0,-7.9887414E0,-3.2768033E0,1.3370908E0,5.305604E-1,9.218202E-1,2.1355848E0,-2.6992006E0,1.9221567E-1,1.7004541E0,2.4680882E0,1.8421059E0,3.1580162E0,3.5860422E0,5.125732E0,-2.6794074E0,-9.20453E-1,-2.1370232E0,-1.6303784E0,-9.198617E-1,-2.8169372E0,-1.059812E0,-3.801464E-1,-2.762585E-2,4.276392E-1,-2.8008583E-1,2.1677066E-1,7.068518E-1,4.9016848E-1,-2.033606E0,-4.5646718E-1,-3.0055833E-1,8.431701E-2,2.9285544E-1,5.6981516E-1,3.3668762E-1,7.777229E-1,4.15221E-1,6.4905E-1,4.8335424E-1,9.909667E-1,1.0798513E0,9.9716954E-2,1.2753329E0,1.8330566E0],"categories":[],"categories_nodes":[],"categories_segments":[],"categories_sizes":[],"default_left":[0,0,0,0,0,0,0,0,0,0,0,0,0,0,0,0,0,0,0,0,0,0,0,0,0,0,0,0,0,0,0,0,0,0,0,0,0,0,0,0,0,0,0,0,0,0,0,0,0,0,0,0,0,0,0,0,0,0,0,0,0],"id":0,"left_children":[1,3,5,7,9,11,13,15,17,19,21,23,25,27,29,31,33,35,37,39,41,-1,43,45,47,49,51,53,55,57,59,-1,-1,-1,-1,-1,-1,-1,-1,-1,-1,-1,-1,-1,-1,-1,-1,-1,-1,-1,-1,-1,-1,-1,-1,-1,-1,-1,-1,-1,-1],"loss_changes":[1.2030977E4,1.4755032E4,3.0400962E3,1.2608281E3,1.26357056E2,1.7908855E3,5.663706E2,1.4883496E2,1.1675459E3,8.1157104E1,7.0043335E0,1.1734491E3,7.069751E1,2.2922778E2,9.3262695E1,8.146094E1,1.9452344E2,3.9190894E2,2.1151904E2,5.01463E1,5.29657E1,0E0,5.1142273E0,7.679629E2,1.1177484E2,5.1599E1,2.9214355E1,6.8843994E1,3.667993E1,8.352051E0,2.39646E1,0E0,0E0,0E0,0E0,0E0,0E0,0E0,0E0,0E0,0E0,0E0,0E0,0E0,0E0,0E0,0E0,0E0,0E0,0E0,0E0,0E0,0E0,0E0,0E0,0E0,0E0,0E0,0E0,0E0,0E0],"parents":[2147483647,0,0,1,1,2,2,3,3,4,4,5,5,6,6,7,7,8,8,9,9,10,10,11,11,12,12,13,13,14,14,15,15,16,16,17,17,18,18,19,19,20,20,22,22,23,23,24,24,25,25,26,26,27,27,28,28,29,29,30,30],"right_children":[2,4,6,8,10,12,14,16,18,20,22,24,26,28,30,32,34,36,38,40,42,-1,44,46,48,50,52,54,56,58,60,-1,-1,-1,-1,-1,-1,-1,-1,-1,-1,-1,-1,-1,-1,-1,-1,-1,-1,-1,-1,-1,-1,-1,-1,-1,-1,-1,-1,-1,-1],"split_conditions":[5.5555553E0,2.23E2,1.3611111E1,2.9485E1,3.0165E1,2.23E2,1.6944445E1,0E0,-2.5E0,5.485E3,3.021E1,7.5E0,1.1111111E1,2.23E2,1.888889E1,2.9435E1,2.9045E1,3.0135E1,3.0255E1,6.72E2,0E0,9.218202E-1,3.472E3,2.9135E1,8.333333E0,1.791E3,2.9255E1,1.5E1,2.93E1,3.0045E1,2.9815E1,-2.6794074E0,-9.20453E-1,-2.1370232E0,-1.6303784E0,-9.198617E-1,-2.8169372E0,-1.059812E0,-3.801464E-1,-2.762585E-2,4.276392E-1,-2.8008583E-1,2.1677066E-1,7.068518E-1,4.9016848E-1,-2.033606E0,-4.5646718E-1,-3.0055833E-1,8.431701E-2,2.9285544E-1,5.6981516E-1,3.3668762E-1,7.777229E-1,4.15221E-1,6.4905E-1,4.8335424E-1,9.909667E-1,1.0798513E0,9.9716954E-2,1.2753329E0,1.8330566E0],"split_indices":[1,0,1,2,2,0,1,1,1,0,2,1,1,0,1,2,2,2,2,0,1,0,0,2,1,0,2,1,2,2,2,0,0,0,0,0,0,0,0,0,0,0,0,0,0,0,0,0,0,0,0,0,0,0,0,0,0,0,0,0,0],"split_type":[0,0,0,0,0,0,0,0,0,0,0,0,0,0,0,0,0,0,0,0,0,0,0,0,0,0,0,0,0,0,0,0,0,0,0,0,0,0,0,0,0,0,0,0,0,0,0,0,0,0,0,0,0,0,0,0,0,0,0,0,0],"sum_hessian":[4.256E3,1.537E3,2.719E3,8.61E2,6.76E2,1.772E3,9.47E2,3.82E2,4.79E2,5.8E2,9.6E1,1.211E3,5.61E2,6.73E2,2.74E2,3.8E1,3.44E2,6E1,4.19E2,3.95E2,1.85E2,1.6E1,8E1,1.61E2,1.05E3,3.7E2,1.91E2,4.87E2,1.86E2,2.17E2,5.7E1,3.4E1,4E0,1.29E2,2.15E2,1.4E1,4.6E1,3.71E2,4.8E1,2.3E1,3.72E2,2.1E1,1.64E2,5.3E1,2.7E1,3.5E1,1.26E2,7.2E1,9.78E2,8.1E1,2.89E2,1.7E1,1.74E2,2.03E2,2.84E2,1.7E1,1.69E2,2.16E2,1E0,3.3E1,2.4E1],"tree_param":{"num_deleted":"0","num_feature":"3","num_nodes":"61","size_leaf_vector":"1"}},{"base_weights":[-9.3688903E-4,-1.5713339E0,8.870306E-1,-3.4994676E0,8.86011E-1,2.8872606E-1,1.850242E0,-4.456567E0,-2.7284915E0,7.5741374E-1,1.6471347E0,-2.208567E-1,1.3610477E0,1.5212624E0,2.7622643E0,-2.2710066E0,-4.5770802E0,-6.315196E0,-2.361115E0,-1.0326197E-2,8.8002753E-1,1.0903153E0,1.8253314E0,-1.9048116E0,5.8306452E-2,5.3485245E-1,1.4649291E0,1.2736216E0,2.1818645E0,2.6070051E0,4.429246E0,-1.5407768E0,-1.7749527E-1,-1.6638297E0,-1.2396264E0,-7.6680666E-1,-2.052446E0,-5.3851527E-1,-9.71883E-1,-4.2855072E-1,4.939767E-2,1.613844E-1,3.7855887E-1,4.2141291E-1,1.0211417E-1,3.785067E-1,6.0535616E-1,-1.3884169E0,-2.9220295E-1,-4.2516783E-2,8.976034E-2,2.5237116E-1,7.733801E-2,4.6647447E-1,2.1787402E-1,-9.617137E-2,4.0833768E-1,2.116614E-1,6.75859E-1,7.2682214E-1,9.170242E-1,9.271858E-1,1.4920251E0],"categories":[],"categories_nodes":[],"categories_segments":[],"categories_sizes":[],"default_left":[0,0,0,0,0,0,0,0,0,0,0,0,0,0,0,0,0,0,0,0,0,0,0,0,0,0,0,0,0,0,0,0,0,0,0,0,0,0,0,0,0,0,0,0,0,0,0,0,0,0,0,0,0,0,0,0,0,0,0,0,0,0,0],"id":1,"left_children":[1,3,5,7,9,11,13,15,17,19,21,23,25,27,29,31,33,35,37,39,41,43,45,47,49,51,53,55,57,59,61,-1,-1,-1,-1,-1,-1,-1,-1,-1,-1,-1,-1,-1,-1,-1,-1,-1,-1,-1,-1,-1,-1,-1,-1,-1,-1,-1,-1,-1,-1,-1,-1],"loss_changes":[5.937616E3,7.290282E3,1.5669849E3,6.2391016E2,6.501611E1,9.177677E2,3.0843604E2,9.048389E1,6.1757056E2,5.4701813E1,7.634491E0,5.3555286E2,4.56485E1,1.2285974E2,5.9626953E1,1.02808014E2,1.331792E2,6.9563354E1,2.1149829E2,2.033615E1,6.476083E1,5.6520233E0,5.2670746E0,4.0612994E2,4.716825E1,5.0461082E0,3.0776855E1,7.8694824E1,2.0212524E1,1.3643555E1,6.548157E-1,0E0,0E0,0E0,0E0,0E0,0E0,0E0,0E0,0E0,0E0,0E0,0E0,0E0,0E0,0E0,0E0,0E0,0E0,0E0,0E0,0E0,0E0,0E0,0E0,0E0,0E0,0E0,0E0,0E0,0E0,0E0,0E0],"parents":[2147483647,0,0,1,1,2,2,3,3,4,4,5,5,6,6,7,7,8,8,9,9,10,10,11,11,12,12,13,13,14,14,15,15,16,16,17,17,18,18,19,19,20,20,21,21,22,22,23,23,24,24,25,25,26,26,27,27,28,28,29,29,30,30],"right_children":[2,4,6,8,10,12,14,16,18,20,22,24,26,28,30,32,34,36,38,40,42,44,46,48,50,52,54,56,58,60,62,-1,-1,-1,-1,-1,-1,-1,-1,-1,-1,-1,-1,-1,-1,-1,-1,-1,-1,-1,-1,-1,-1,-1,-1,-1,-1,-1,-1,-1,-1,-1,-1],"split_conditions":[5.5555553E0,2.23E2,1.3055555E1,2.9485E1,3.0165E1,2.23E2,1.6944445E1,2.883E1,-3.3333333E0,5.555556E-1,2.239E3,7.5E0,2.9315E1,2.23E2,2E1,2.874E1,2.9045E1,3.0135E1,3.006E1,-3.3333333E0,2.965E1,3.0315E1,1.9444444E0,2.9345E1,1.1666667E1,2.915E1,5.485E3,2.927E1,2.909E1,1.8055555E1,2.9665E1,-1.5407768E0,-1.7749527E-1,-1.6638297E0,-1.2396264E0,-7.6680666E-1,-2.052446E0,-5.3851527E-1,-9.71883E-1,-4.2855072E-1,4.939767E-2,1.613844E-1,3.7855887E-1,4.2141291E-1,1.0211417E-1,3.785067E-1,6.0535616E-1,-1.3884169E0,-2.9220295E-1,-4.2516783E-2,8.976034E-2,2.5237116E-1,7.733801E-2,4.6647447E-1,2.1787402E-1,-9.617137E-2,4.0833768E-1,2.116614E-1,6.75859E-1,7.2682214E-1,9.170242E-1,9.271858E-1,1.4920251E0],"split_indices":[1,0,1,2,2,0,1,2,1,1,0,1,2,0,1,2,2,2,2,1,2,2,1,2,1,2,0,2,2,1,2,0,0,0,0,0,0,0,0,0,0,0,0,0,0,0,0,0,0,0,0,0,0,0,0,0,0,0,0,0,0,0,0],"split_type":[0,0,0,0,0,0,0,0,0,0,0,0,0,0,0,0,0,0,0,0,0,0,0,0,0,0,0,0,0,0,0,0,0,0,0,0,0,0,0,0,0,0,0,0,0,0,0,0,0,0,0,0,0,0,0,0,0,0,0,0,0,0,0],"sum_hessian":[4.256E3,1.537E3,2.719E3,8.61E2,6.76E2,1.678E3,1.041E3,3.82E2,4.79E2,5.8E2,9.6E1,1.138E3,5.4E2,7.67E2,2.74E2,2.1E1,3.61E2,4.3E1,4.36E2,8E1,5E2,2.5E1,7.1E1,1.61E2,9.77E2,6.1E1,4.79E2,5.6E2,2.07E2,2.53E2,2.1E1,7E0,1.4E1,1.1E2,2.51E2,6E0,3.7E1,2.67E2,1.69E2,8E0,7.2E1,2.65E2,2.35E2,1.7E1,8E0,2E1,5.1E1,4E1,1.21E2,5.34E2,4.43E2,2.8E1,3.3E1,4.26E2,5.3E1,2.9E1,5.31E2,1E1,1.97E2,1.84E2,6.9E1,8E0,1.3E1],"tree_param":{"num_deleted":"0","num_feature":"3","num_nodes":"63","size_leaf_vector":"1"}},{"base_weights":[-1.27612E-3,-1.1046695E0,6.226284E-1,-2.460012E0,6.226715E-1,2.9195306E-1,1.5004811E0,-3.131664E0,-1.9189643E0,8.313966E-1,3.0882937E-1,-1.0206491E-2,1.0603663E0,1.2832483E0,2.1406708E0,-4.7487826E0,-2.9397821E0,-4.104802E0,-1.5969285E0,3.7409404E-1,9.7374046E-1,1.325683E0,1.3293676E-1,-1.1034927E0,2.1644777E-1,8.6309254E-1,1.3881679E0,1.1134709E0,1.772783E0,1.9859991E0,3.210436E0,-1.5300169E0,-4.0203422E-1,-1.0400187E0,-7.5789183E-1,-4.667867E-1,-1.4492782E0,-5.431587E-1,1.7184526E-2,-5.267467E-2,1.6942337E-1,-2.0946285E-2,3.0594254E-1,4.5622975E-1,-9.974146E-3,-3.3527786E-1,1.07890315E-1,-1.0369225E0,-1.7488101E-1,1.6386066E-2,1.5813525E-1,2.150477E-1,4.9117243E-1,2.5417328E-1,4.4669893E-1,-3.815757E-2,3.5092783E-1,1.250818E-1,5.488602E-1,5.6083244E-1,7.6251477E-1,7.0617086E-1,1.1184167E0],"categories":[],"categories_nodes":[],"categories_segments":[],"categories_sizes":[],"default_left":[0,0,0,0,0,0,0,0,0,0,0,0,0,0,0,0,0,0,0,0,0,0,0,0,0,0,0,0,0,0,0,0,0,0,0,0,0,0,0,0,0,0,0,0,0,0,0,0,0,0,0,0,0,0,0,0,0,0,0,0,0,0,0],"id":2,"left_children":[1,3,5,7,9,11,13,15,17,19,21,23,25,27,29,31,33,35,37,39,41,43,45,47,49,51,53,55,57,59,61,-1,-1,-1,-1,-1,-1,-1,-1,-1,-1,-1,-1,-1,-1,-1,-1,-1,-1,-1,-1,-1,-1,-1,-1,-1,-1,-1,-1,-1,-1,-1,-1],"loss_changes":[2.931258E3,3.6022031E3,7.89135E2,3.072373E2,4.4091278E1,4.5903745E2,1.0072131E2,1.0488306E2,3.3132556E2,2.6063995E1,4.8472878E1,3.52112E2,3.4885864E1,4.4402527E1,2.4565613E1,3.9862976E1,6.64104E1,1.0538098E2,1.4850659E2,1.0369174E1,1.49263E1,1.06547165E1,6.645558E1,2.9684225E2,5.9144794E1,3.8570953E1,1.0082886E1,2.9269958E1,1.0163422E1,6.0007324E0,9.784088E-1,0E0,0E0,0E0,0E0,0E0,0E0,0E0,0E0,0E0,0E0,0E0,0E0,0E0,0E0,0E0,0E0,0E0,0E0,0E0,0E0,0E0,0E0,0E0,0E0,0E0,0E0,0E0,0E0,0E0,0E0,0E0,0E0],"parents":[2147483647,0,0,1,1,2,2,3,3,4,4,5,5,6,6,7,7,8,8,9,9,10,10,11,11,12,12,13,13,14,14,15,15,16,16,17,17,18,18,19,19,20,20,21,21,22,22,23,23,24,24,25,25,26,26,27,27,28,28,29,29,30,30],"right_children":[2,4,6,8,10,12,14,16,18,20,22,24,26,28,30,32,34,36,38,40,42,44,46,48,50,52,54,56,58,60,62,-1,-1,-1,-1,-1,-1,-1,-1,-1,-1,-1,-1,-1,-1,-1,-1,-1,-1,-1,-1,-1,-1,-1,-1,-1,-1,-1,-1,-1,-1,-1,-1],"split_conditions":[5.5555553E0,2.23E2,1.4444445E1,2.9485E1,4.704E3,4.48E2,1.75E1,0E0,-2.5E0,2.953E1,2.9135E1,8.333333E0,1.1111111E1,2.23E2,2E1,2.9435E1,2.909E1,3.0135E1,3.0255E1,1.566E3,5.59E2,4.4444447E0,2.9315E1,2.9315E1,1.2777778E1,3.0135E1,2.939E1,2.9255E1,2.9075E1,2.9905E1,2.9695E1,-1.5300169E0,-4.0203422E-1,-1.0400187E0,-7.5789183E-1,-4.667867E-1,-1.4492782E0,-5.431587E-1,1.7184526E-2,-5.267467E-2,1.6942337E-1,-2.0946285E-2,3.0594254E-1,4.5622975E-1,-9.974146E-3,-3.3527786E-1,1.07890315E-1,-1.0369225E0,-1.7488101E-1,1.6386066E-2,1.5813525E-1,2.150477E-1,4.9117243E-1,2.5417328E-1,4.4669893E-1,-3.815757E-2,3.5092783E-1,1.250818E-1,5.488602E-1,5.6083244E-1,7.6251477E-1,7.0617086E-1,1.1184167E0],"split_indices":[1,0,1,2,0,0,1,1,1,2,2,1,1,0,1,2,2,2,2,0,0,1,2,2,1,2,2,2,2,2,2,0,0,0,0,0,0,0,0,0,0,0,0,0,0,0,0,0,0,0,0,0,0,0,0,0,0,0,0,0,0,0,0],"split_type":[0,0,0,0,0,0,0,0,0,0,0,0,0,0,0,0,0,0,0,0,0,0,0,0,0,0,0,0,0,0,0,0,0,0,0,0,0,0,0,0,0,0,0,0,0,0,0,0,0,0,0,0,0,0,0,0,0,0,0,0,0,0,0],"sum_hessian":[4.256E3,1.537E3,2.719E3,8.61E2,6.76E2,1.976E3,7.43E2,3.82E2,4.79E2,4.05E2,2.71E2,1.419E3,5.57E2,5.57E2,1.86E2,3.8E1,3.44E2,6E1,4.19E2,9.7E1,3.08E2,3.9E1,2.32E2,2.43E2,1.176E3,3.5E2,2.07E2,4.16E2,1.41E2,1.65E2,2.1E1,3.4E1,4E0,1.48E2,1.96E2,1.4E1,4.6E1,3.71E2,4.8E1,2.5E1,7.2E1,1.3E1,2.95E2,3.4E1,5E0,3.5E1,1.97E2,4.3E1,2E2,7.74E2,4.02E2,2.96E2,5.4E1,3.4E1,1.73E2,1.8E1,3.98E2,6E0,1.35E2,1.4E2,2.5E1,1E1,1.1E1],"tree_param":{"num_deleted":"0","num_feature":"3","num_nodes":"63","size_leaf_vector":"1"}},{"base_weights":[-1.1391889E-3,-7.027997E-1,4.860867E-1,-1.6935962E0,4.4035393E-1,2.9214317E-1,1.2146583E0,-2.2217114E0,-1.2858446E0,-3.5991248E-1,4.845296E-1,9.199168E-2,8.1984675E-1,1.0960981E0,1.7719629E0,-7.18336E-1,-2.3571856E0,-7.480126E-1,-2.06423E0,-5.878601E-1,4.4701847E-1,3.542154E-1,7.3976517E-1,-6.8572223E-1,1.8221234E-1,3.2063678E-1,8.8546664E-1,3.10312E-2,1.1286036E0,1.671418E0,1.0622883E0,-8.6331785E-1,-2.2713773E-2,-9.883578E-1,-6.2672925E-1,-5.3076234E-2,-3.8182685E-1,-9.721318E-1,-5.0991327E-1,1.0355009E-1,-3.9735752E-1,1.355761E-1,1.7500013E-2,8.533251E-2,2.5259936E-1,-7.635003E-1,-1.089961E-1,2.8783652E-1,2.1452146E-2,-1.0043826E-2,1.71938E-1,2.6994443E-1,-3.162248E-1,-1.611864E-1,4.7584537E-1,3.8479358E-1,2.5391048E-1,4.3168452E-1,6.3545287E-1],"categories":[],"categories_nodes":[],"categories_segments":[],"categories_sizes":[],"default_left":[0,0,0,0,0,0,0,0,0,0,0,0,0,0,0,0,0,0,0,0,0,0,0,0,0,0,0,0,0,0,0,0,0,0,0,0,0,0,0,0,0,0,0,0,0,0,0,0,0,0,0,0,0,0,0,0,0,0,0],"id":3,"left_children":[1,3,5,7,9,11,13,15,17,19,21,23,25,27,29,31,33,35,37,39,-1,41,43,45,47,49,51,53,55,57,-1,-1,-1,-1,-1,-1,-1,-1,-1,-1,-1,-1,-1,-1,-1,-1,-1,-1,-1,-1,-1,-1,-1,-1,-1,-1,-1,-1,-1],"loss_changes":[1.4556702E3,1.9771897E3,3.5473645E2,1.9848584E2,2.8845108E1,2.096872E2,3.2944946E1,8.099634E1,2.2033545E2,1.9008926E1,2.5315521E1,1.01233955E2,1.760202E1,1.5128784E1,1.0267181E1,4.8350723E1,8.659717E1,9.4173004E1,8.7102356E1,2.7262985E1,0E0,1.4746201E1,1.1816681E1,8.899059E1,1.1110128E2,5.830888E0,1.43619995E1,1.3225482E1,1.7391724E1,6.091522E0,0E0,0E0,0E0,0E0,0E0,0E0,0E0,0E0,0E0,0E0,0E0,0E0,0E0,0E0,0E0,0E0,0E0,0E0,0E0,0E0,0E0,0E0,0E0,0E0,0E0,0E0,0E0,0E0,0E0],"parents":[2147483647,0,0,1,1,2,2,3,3,4,4,5,5,6,6,7,7,8,8,9,9,10,10,11,11,12,12,13,13,14,14,15,15,16,16,17,17,18,18,19,19,21,21,22,22,23,23,24,24,25,25,26,26,27,27,28,28,29,29],"right_children":[2,4,6,8,10,12,14,16,18,20,22,24,26,28,30,32,34,36,38,40,-1,42,44,46,48,50,52,54,56,58,-1,-1,-1,-1,-1,-1,-1,-1,-1,-1,-1,-1,-1,-1,-1,-1,-1,-1,-1,-1,-1,-1,-1,-1,-1,-1,-1,-1,-1],"split_conditions":[6.6666665E0,2.23E2,1.5555555E1,2.9485E1,-5.555556E-1,2.23E2,1.8055555E1,2.8905E1,3.006E1,8.839E3,2.993E1,2.93E1,2.9315E1,2.9255E1,2.25E1,2.874E1,2.9015E1,2.7777777E0,-2.5E0,4.588E3,4.4701847E-1,5.931E3,1.6666666E0,8.611111E0,2.947E1,1.1111111E1,3.0375E1,1.6666666E1,2.983E1,2.986E1,1.0622883E0,-8.6331785E-1,-2.2713773E-2,-9.883578E-1,-6.2672925E-1,-5.3076234E-2,-3.8182685E-1,-9.721318E-1,-5.0991327E-1,1.0355009E-1,-3.9735752E-1,1.355761E-1,1.7500013E-2,8.533251E-2,2.5259936E-1,-7.635003E-1,-1.089961E-1,2.8783652E-1,2.1452146E-2,-1.0043826E-2,1.71938E-1,2.6994443E-1,-3.162248E-1,-1.611864E-1,4.7584537E-1,3.8479358E-1,2.5391048E-1,4.3168452E-1,6.3545287E-1],"split_indices":[1,0,1,2,1,0,1,2,2,0,2,2,2,2,1,2,2,1,1,0,0,0,1,1,2,1,2,1,2,2,0,0,0,0,0,0,0,0,0,0,0,0,0,0,0,0,0,0,0,0,0,0,0,0,0,0,0,0,0],"split_type":[0,0,0,0,0,0,0,0,0,0,0,0,0,0,0,0,0,0,0,0,0,0,0,0,0,0,0,0,0,0,0,0,0,0,0,0,0,0,0,0,0,0,0,0,0,0,0,0,0,0,0,0,0,0,0,0,0,0,0],"sum_hessian":[4.256E3,1.744E3,2.512E3,9.34E2,8.1E2,1.985E3,5.27E2,4.05E2,5.29E2,4.2E1,7.68E2,1.44E3,5.45E2,4.37E2,9E1,3.4E1,3.71E2,3.14E2,2.15E2,3.8E1,4E0,5.1E2,2.58E2,1.49E2,1.291E3,6.4E1,4.81E2,1.3E1,4.24E2,8.7E1,3E0,7E0,2.7E1,8E1,2.91E2,1.51E2,1.63E2,4.9E1,1.66E2,1.7E1,2.1E1,3.83E2,1.27E2,4.8E1,2.1E2,2.1E1,1.28E2,1.6E2,1.131E3,2.7E1,3.7E1,4.78E2,3E0,1E1,3E0,2.72E2,1.52E2,6E1,2.7E1],"tree_param":{"num_deleted":"0","num_feature":"3","num_nodes":"59","size_leaf_vector":"1"}},{"base_weights":[-1.0650409E-3,-6.6899735E-1,2.7618605E-1,-1.3524804E0,2.792425E-1,5.8376953E-2,6.8729174E-1,-2.5347562E0,-1.2537042E0,5.338858E-1,1.4216949E-1,-1.0188656E0,1.5883134E-1,5.9779644E-1,1.0932847E0,-1.0958511E0,-2.2667246E0,-1.3784099E0,9.0222254E-2,1.2508617E-1,8.719386E-1,7.692981E-1,3.7164483E-2,-1.4063866E0,2.989959E-1,4.4915555E-3,5.860009E-1,5.289195E-1,1.037004E0,9.837742E-1,1.7058004E0,-3.6276677E-1,-7.456092E-1,-3.7372512E-1,-6.641102E-1,-4.9354458E-1,2.0393263E-1,6.5430924E-2,-2.7877724E-1,2.418477E-1,5.8815604E-1,2.987145E-1,-2.1943434E-1,-4.9470404E-1,3.0702999E-2,-5.287951E-1,2.5938807E-2,1.3220878E-1,-3.15316E-1,1.5206754E-2,-9.5425196E-2,2.253273E-1,6.050496E-2,1.8053296E-1,-9.2775434E-2,3.5644373E-1,-7.208211E-2,2.709762E-1,4.1570225E-1,4.3849543E-1,8.232734E-1],"categories":[],"categories_nodes":[],"categories_segments":[],"categories_sizes":[],"default_left":[0,0,0,0,0,0,0,0,0,0,0,0,0,0,0,0,0,0,0,0,0,0,0,0,0,0,0,0,0,0,0,0,0,0,0,0,0,0,0,0,0,0,0,0,0,0,0,0,0,0,0,0,0,0,0,0,0,0,0,0,0],"id":4,"left_children":[1,3,5,7,9,11,13,15,17,19,21,23,25,27,29,-1,31,33,35,37,39,41,43,45,47,49,51,53,55,57,59,-1,-1,-1,-1,-1,-1,-1,-1,-1,-1,-1,-1,-1,-1,-1,-1,-1,-1,-1,-1,-1,-1,-1,-1,-1,-1,-1,-1,-1,-1],"loss_changes":[7.885172E2,8.098619E2,2.6939343E2,8.160498E1,1.8214172E1,2.1312648E2,3.720697E1,8.202484E0,1.12748535E2,2.5180767E1,2.2492672E1,8.6217926E1,1.1873596E2,2.5346588E1,1.0865265E1,0E0,7.861603E0,6.5390015E1,6.045775E1,8.440703E0,5.580162E0,1.7378222E1,3.248029E1,6.929266E1,7.923972E0,1.9746666E1,3.0176193E1,4.5497543E1,2.2486229E1,3.9585114E0,2.83432E0,0E0,0E0,0E0,0E0,0E0,0E0,0E0,0E0,0E0,0E0,0E0,0E0,0E0,0E0,0E0,0E0,0E0,0E0,0E0,0E0,0E0,0E0,0E0,0E0,0E0,0E0,0E0,0E0,0E0,0E0],"parents":[2147483647,0,0,1,1,2,2,3,3,4,4,5,5,6,6,7,7,8,8,9,9,10,10,11,11,12,12,13,13,14,14,16,16,17,17,18,18,19,19,20,20,21,21,22,22,23,23,24,24,25,25,26,26,27,27,28,28,29,29,30,30],"right_children":[2,4,6,8,10,12,14,16,18,20,22,24,26,28,30,-1,32,34,36,38,40,42,44,46,48,50,52,54,56,58,60,-1,-1,-1,-1,-1,-1,-1,-1,-1,-1,-1,-1,-1,-1,-1,-1,-1,-1,-1,-1,-1,-1,-1,-1,-1,-1,-1,-1,-1,-1],"split_conditions":[4.4444447E0,3.36E2,1.3055555E1,-3.0555556E0,3.468E3,2.912E1,1.75E1,2.939E1,3.0255E1,2.127E3,2.9165E1,2.23E2,1.901E3,2.994E1,1.9444445E1,-1.0958511E0,3.0135E1,3.0075E1,-1.9444444E0,2.016E3,3.464E3,3.0555556E0,2.9195E1,8.611111E0,5.709E3,3.0015E1,4.698E3,2.9875E1,3.006E1,2.9905E1,2.25E1,-3.6276677E-1,-7.456092E-1,-3.7372512E-1,-6.641102E-1,-4.9354458E-1,2.0393263E-1,6.5430924E-2,-2.7877724E-1,2.418477E-1,5.8815604E-1,2.987145E-1,-2.1943434E-1,-4.9470404E-1,3.0702999E-2,-5.287951E-1,2.5938807E-2,1.3220878E-1,-3.15316E-1,1.5206754E-2,-9.5425196E-2,2.253273E-1,6.050496E-2,1.8053296E-1,-9.2775434E-2,3.5644373E-1,-7.208211E-2,2.709762E-1,4.1570225E-1,4.3849543E-1,8.232734E-1],"split_indices":[1,0,1,1,0,2,1,2,2,0,2,0,0,2,1,0,2,2,1,0,0,1,2,1,0,2,0,2,2,2,1,0,0,0,0,0,0,0,0,0,0,0,0,0,0,0,0,0,0,0,0,0,0,0,0,0,0,0,0,0,0],"split_type":[0,0,0,0,0,0,0,0,0,0,0,0,0,0,0,0,0,0,0,0,0,0,0,0,0,0,0,0,0,0,0,0,0,0,0,0,0,0,0,0,0,0,0,0,0,0,0,0,0,0,0,0,0,0,0,0,0,0,0,0,0],"sum_hessian":[4.256E3,1.248E3,3.008E3,7.25E2,5.23E2,1.967E3,1.041E3,5.4E1,6.71E2,1.82E2,3.41E2,1.67E2,1.8E3,8.55E2,1.86E2,8E0,4.6E1,6.14E2,5.7E1,8.3E1,9.9E1,4.8E1,2.93E2,1.29E2,3.8E1,1.323E3,4.77E2,7.41E2,1.14E2,1.6E2,2.6E1,9E0,3.7E1,5.32E2,8.2E1,1.4E1,4.3E1,7.7E1,6E0,9.5E1,4E0,4.2E1,6E0,1E1,2.83E2,1.04E2,2.5E1,3.5E1,3E0,1.158E3,1.65E2,3.33E2,1.44E2,6.82E2,5.9E1,1.02E2,1.2E1,1.36E2,2.4E1,2.3E1,3E0],"tree_param":{"num_deleted":"0","num_feature":"3","num_nodes":"61","size_leaf_vector":"1"}},{"base_weights":[-1.0883952E-3,-2.6431054E-1,3.576656E-1,-6.205922E-1,2.3536898E-1,2.5503606E-1,6.672758E-1,-9.5160097E-1,-2.8077134E-1,1.6342475E-1,6.698767E-1,1.4098623E-1,5.368747E-1,5.9208333E-1,1.0581981E0,9.033961E-1,-9.9200654E-1,-1.1274512E0,-1.0808937E-1,-2.2987004E-1,2.0309114E-1,3.629495E-1,8.4274834E-1,-4.2729703E-1,2.034595E-1,5.1485586E-1,1.6680717E0,4.4629234E-1,7.5338614E-1,9.868554E-1,2.0064754E0,1.2665151E-1,4.905225E-1,-5.91064E-1,-2.6154816E-1,-1.6483083E-1,-4.2287728E-1,-1.322643E-3,-2.0984693E-1,-9.4125584E-2,3.3236563E-1,-7.2154254E-3,8.1039496E-2,1.9972974E-1,-6.8973094E-2,1.7386834E-1,3.2157874E-1,1.2789196E-1,-2.981714E-1,3.1815982E-1,1.6719773E-2,2.5073192E-1,1.3294587E-1,2.6682973E-1,6.0890794E-1,1.7560065E-1,8.643498E-2,1.8524341E-1,3.459764E-1,6.8783954E-2,3.019015E-1,6.824873E-1,1.8015432E-1],"categories":[],"categories_nodes":[],"categories_segments":[],"categories_sizes":[],"default_left":[0,0,0,0,0,0,0,0,0,0,0,0,0,0,0,0,0,0,0,0,0,0,0,0,0,0,0,0,0,0,0,0,0,0,0,0,0,0,0,0,0,0,0,0,0,0,0,0,0,0,0,0,0,0,0,0,0,0,0,0,0,0,0],"id":5,"left_children":[1,3,5,7,9,11,13,15,17,19,21,23,25,27,29,31,33,35,37,39,41,43,45,47,49,51,53,55,57,59,61,-1,-1,-1,-1,-1,-1,-1,-1,-1,-1,-1,-1,-1,-1,-1,-1,-1,-1,-1,-1,-1,-1,-1,-1,-1,-1,-1,-1,-1,-1,-1,-1],"loss_changes":[4.0209158E2,4.373795E2,5.708864E1,1.6103442E2,3.1869843E1,4.3478943E1,1.2542175E1,5.5311462E1,1.0353844E2,1.37596035E1,7.38768E0,3.438236E1,8.855194E0,8.553009E0,2.8232422E0,4.943344E0,8.1867676E1,1.8795242E1,3.6173782E1,9.4368925E0,1.217347E1,9.847557E0,4.9279556E0,4.6854897E1,1.1022064E2,8.465736E0,1.6573334E-1,4.2520027E0,8.961365E0,7.7292633E-1,1.4375687E-1,0E0,0E0,0E0,0E0,0E0,0E0,0E0,0E0,0E0,0E0,0E0,0E0,0E0,0E0,0E0,0E0,0E0,0E0,0E0,0E0,0E0,0E0,0E0,0E0,0E0,0E0,0E0,0E0,0E0,0E0,0E0,0E0],"parents":[2147483647,0,0,1,1,2,2,3,3,4,4,5,5,6,6,7,7,8,8,9,9,10,10,11,11,12,12,13,13,14,14,15,15,16,16,17,17,18,18,19,19,20,20,21,21,22,22,23,23,24,24,25,25,26,26,27,27,28,28,29,29,30,30],"right_children":[2,4,6,8,10,12,14,16,18,20,22,24,26,28,30,32,34,36,38,40,42,44,46,48,50,52,54,56,58,60,62,-1,-1,-1,-1,-1,-1,-1,-1,-1,-1,-1,-1,-1,-1,-1,-1,-1,-1,-1,-1,-1,-1,-1,-1,-1,-1,-1,-1,-1,-1,-1,-1],"split_conditions":[1.1111111E1,3.36E2,2.23E2,4.4444447E0,3.0165E1,1.5555555E1,1.6944445E1,2.8905E1,2.9105E1,5.555556E-1,2.46E3,2.93E1,2.0555555E1,2.9755E1,3.003E1,2.8845E1,2.9075E1,2.8935E1,3.003E1,8.839E3,2.936E1,3.0315E1,3.0555556E0,2.921E1,2.947E1,2.9515E1,2.9665E1,1.007E3,2.912E3,2.24E2,1.567E3,1.2665151E-1,4.905225E-1,-5.91064E-1,-2.6154816E-1,-1.6483083E-1,-4.2287728E-1,-1.322643E-3,-2.0984693E-1,-9.4125584E-2,3.3236563E-1,-7.2154254E-3,8.1039496E-2,1.9972974E-1,-6.8973094E-2,1.7386834E-1,3.2157874E-1,1.2789196E-1,-2.981714E-1,3.1815982E-1,1.6719773E-2,2.5073192E-1,1.3294587E-1,2.6682973E-1,6.0890794E-1,1.7560065E-1,8.643498E-2,1.8524341E-1,3.459764E-1,6.8783954E-2,3.019015E-1,6.824873E-1,1.8015432E-1],"split_indices":[1,0,0,1,2,1,1,2,2,1,0,2,1,2,2,2,2,2,2,0,2,2,1,2,2,2,2,0,0,0,0,0,0,0,0,0,0,0,0,0,0,0,0,0,0,0,0,0,0,0,0,0,0,0,0,0,0,0,0,0,0,0,0],"split_type":[0,0,0,0,0,0,0,0,0,0,0,0,0,0,0,0,0,0,0,0,0,0,0,0,0,0,0,0,0,0,0,0,0,0,0,0,0,0,0,0,0,0,0,0,0,0,0,0,0,0,0,0,0,0,0,0,0,0,0,0,0,0,0],"sum_hessian":[4.256E3,2.455E3,1.801E3,1.433E3,1.022E3,1.354E3,4.47E2,7.25E2,7.08E2,8.78E2,1.44E2,9.65E2,3.89E2,3.77E2,7E1,1.5E1,7.1E2,1.19E2,5.89E2,8E1,7.98E2,5.3E1,9.1E1,9.5E1,8.7E2,3.83E2,6E0,2E2,1.77E2,6.7E1,3E0,1E1,5E0,7.6E1,6.34E2,4E1,7.9E1,5.02E2,8.7E1,7.6E1,4E0,1.82E2,6.16E2,3.5E1,1.8E1,4.4E1,4.7E1,3.8E1,5.7E1,1.27E2,7.43E2,6.8E1,3.15E2,3E0,3E0,1.05E2,9.5E1,1.34E2,4.3E1,2E0,6.5E1,2E0,1E0],"tree_param":{"num_deleted":"0","num_feature":"3","num_nodes":"63","size_leaf_vector":"1"}},{"base_weights":[2.6061049E-5,-2.2567427E-1,2.0780882E-1,-5.516873E-1,1.5152732E-1,1.1661008E-1,4.2417628E-1,-8.7740326E-1,-3.3731806E-1,2.2424524E-1,-5.3217098E-2,-3.326925E-3,3.859142E-1,2.8924352E-1,5.45364E-1,-1.9613159E0,-7.6843864E-1,2.2385782E-1,-6.466862E-1,-4.7074184E-2,2.8398925E-1,-6.27529E-1,3.4955397E-1,5.852796E-2,-7.477812E-1,5.5940115E-1,1.6684687E-1,6.3375604E-1,7.751925E-2,1.0489076E0,3.6620662E-1,-7.250807E-1,-1.7455046E-1,-1.9948381E-1,-6.64693E-1,2.6406E-1,-1.4113125E-2,-2.4790601E-1,-1.9834684E-2,3.4761944E-1,-2.5677454E-2,8.049837E-2,2.3412731E-1,-3.8646184E-2,-3.1812698E-1,7.865397E-2,2.6738116E-1,-7.159457E-2,6.345907E-2,-3.3147496E-1,2.45034E-1,1.736575E-1,-4.0568066E-1,7.6411545E-2,-2.4119468E-1,-5.4826915E-2,2.4317637E-1,-3.0441983E-2,1.4171384E-1,2.9806152E-1,4.6904895E-1,8.5318364E-2,3.2369718E-1],"categories":[],"categories_nodes":[],"categories_segments":[],"categories_sizes":[],"default_left":[0,0,0,0,0,0,0,0,0,0,0,0,0,0,0,0,0,0,0,0,0,0,0,0,0,0,0,0,0,0,0,0,0,0,0,0,0,0,0,0,0,0,0,0,0,0,0,0,0,0,0,0,0,0,0,0,0,0,0,0,0,0,0],"id":6,"left_children":[1,3,5,7,9,11,13,15,17,19,21,23,25,27,29,31,33,35,37,39,41,43,45,47,49,51,53,55,57,59,61,-1,-1,-1,-1,-1,-1,-1,-1,-1,-1,-1,-1,-1,-1,-1,-1,-1,-1,-1,-1,-1,-1,-1,-1,-1,-1,-1,-1,-1,-1,-1,-1],"loss_changes":[1.996859E2,2.5107072E2,4.3697342E1,7.6160736E1,1.4111427E1,5.042085E1,1.0585663E1,4.975177E1,1.1507455E2,1.134396E1,5.7817097E1,4.98218E1,1.8187233E1,2.2781616E1,3.0739563E1,2.3105972E1,5.78376E1,4.2003178E1,4.4485535E1,5.9976177E0,4.2455826E0,2.2099861E1,6.7241287E0,4.5473694E1,4.7279552E1,1.0751213E1,1.8457985E1,1.7329998E1,1.3829952E1,1.0109253E0,1.4621613E1,0E0,0E0,0E0,0E0,0E0,0E0,0E0,0E0,0E0,0E0,0E0,0E0,0E0,0E0,0E0,0E0,0E0,0E0,0E0,0E0,0E0,0E0,0E0,0E0,0E0,0E0,0E0,0E0,0E0,0E0,0E0,0E0],"parents":[2147483647,0,0,1,1,2,2,3,3,4,4,5,5,6,6,7,7,8,8,9,9,10,10,11,11,12,12,13,13,14,14,15,15,16,16,17,17,18,18,19,19,20,20,21,21,22,22,23,23,24,24,25,25,26,26,27,27,28,28,29,29,30,30],"right_children":[2,4,6,8,10,12,14,16,18,20,22,24,26,28,30,32,34,36,38,40,42,44,46,48,50,52,54,56,58,60,62,-1,-1,-1,-1,-1,-1,-1,-1,-1,-1,-1,-1,-1,-1,-1,-1,-1,-1,-1,-1,-1,-1,-1,-1,-1,-1,-1,-1,-1,-1,-1,-1],"split_conditions":[8.333333E0,2.23E2,1.5E1,2.9485E1,5.485E3,2.986E1,2.9725E1,0E0,2.986E1,1.787E3,6.381E3,2.983E1,1.2222222E1,2.9515E1,2.98E1,2.9375E1,2.945E1,2.7777777E0,3.0255E1,2.883E1,5.368E3,5.931E3,9.071E3,1.1666667E1,2.23E2,3.0345E1,3.006E1,2.9255E1,1.75E1,1.7777779E1,1.888889E1,-7.250807E-1,-1.7455046E-1,-1.9948381E-1,-6.64693E-1,2.6406E-1,-1.4113125E-2,-2.4790601E-1,-1.9834684E-2,3.4761944E-1,-2.5677454E-2,8.049837E-2,2.3412731E-1,-3.8646184E-2,-3.1812698E-1,7.865397E-2,2.6738116E-1,-7.159457E-2,6.345907E-2,-3.3147496E-1,2.45034E-1,1.736575E-1,-4.0568066E-1,7.6411545E-2,-2.4119468E-1,-5.4826915E-2,2.4317637E-1,-3.0441983E-2,1.4171384E-1,2.9806152E-1,4.6904895E-1,8.5318364E-2,3.2369718E-1],"split_indices":[1,0,1,2,0,2,2,1,2,0,0,2,1,2,2,2,2,1,2,2,0,0,0,1,0,2,2,2,1,1,1,0,0,0,0,0,0,0,0,0,0,0,0,0,0,0,0,0,0,0,0,0,0,0,0,0,0,0,0,0,0,0,0],"split_type":[0,0,0,0,0,0,0,0,0,0,0,0,0,0,0,0,0,0,0,0,0,0,0,0,0,0,0,0,0,0,0,0,0,0,0,0,0,0,0,0,0,0,0,0,0,0,0,0,0,0,0,0,0,0,0,0,0,0,0,0,0,0,0],"sum_hessian":[4.256E3,2.04E3,2.216E3,1.094E3,9.46E2,1.56E3,6.56E2,4.33E2,6.61E2,6.98E2,2.48E2,1.08E3,4.8E2,3.12E2,3.44E2,3.8E1,3.95E2,2.35E2,4.26E2,1.26E2,5.72E2,1.02E2,1.46E2,9.98E2,8.2E1,2.67E2,2.13E2,1.18E2,1.94E2,8.9E1,2.55E2,2.8E1,1E1,3.7E2,2.5E1,6.8E1,1.67E2,3.25E2,1.01E2,3E0,1.23E2,5.56E2,1.6E1,4.8E1,5.4E1,1.27E2,1.9E1,3.39E2,6.59E2,6.7E1,1.5E1,2.65E2,2E0,1.96E2,1.7E1,2.1E1,9.7E1,1.34E2,6E1,8.3E1,6E0,2.3E2,2.5E1],"tree_param":{"num_deleted":"0","num_feature":"3","num_nodes":"63","size_leaf_vector":"1"}},{"base_weights":[-2.2117985E-5,-1.1369352E0,2.5922338E-2,-1.5292741E0,-7.83092E-1,-2.7017677E-1,8.750549E-2,-6.995027E-1,-1.3907421E0,-5.8447087E-1,-5.9293395E-1,-1.6942265E0,-2.0335495E-1,4.1308557E-3,2.557843E-1,-4.8386362E-1,-9.567322E-1,-1.6104348E0,-2.9138684E-1,-9.9320464E-2,-3.4951653E0,-2.0569854E0,-1.7567451E-1,-1.2142713E-1,1.8836768E-1,5.6534654E-1,1.9841865E-1,-3.011074E-1,-3.7851907E-2,-3.0019167E-1,-8.0992365E-1,-2.4752751E-2,-3.5243696E-1,-1.7627084E-1,1.2301369E0,-1.6486317E-1,-1.0998942E0,-4.5350567E-1,-1.0447029E0,1.3946798E-1,-7.334049E-2,1.7379226E-1,-5.9134442E-2,4.294716E-2,1.2501597E-1,4.0589568E-1,1.2279022E-1,9.399717E-4,9.453962E-2],"categories":[],"categories_nodes":[],"categories_segments":[],"categories_sizes":[],"default_left":[0,0,0,0,0,0,0,0,0,0,0,0,0,0,0,0,0,0,0,0,0,0,0,0,0,0,0,0,0,0,0,0,0,0,0,0,0,0,0,0,0,0,0,0,0,0,0,0,0],"id":7,"left_children":[1,3,5,7,9,11,13,-1,15,17,-1,19,21,23,25,-1,27,29,31,33,35,37,39,41,43,45,47,-1,-1,-1,-1,-1,-1,-1,-1,-1,-1,-1,-1,-1,-1,-1,-1,-1,-1,-1,-1,-1,-1],"loss_changes":[1.2559646E2,1.1990952E1,7.593477E1,1.6482086E0,1.1170151E1,6.788348E1,4.8360992E1,0E0,2.3132935E0,1.3362649E1,0E0,9.1567375E1,3.483683E1,5.33662E1,2.016774E1,0E0,4.9739838E-1,3.941101E0,6.730426E0,3.9318966E1,5.547287E0,2.5082664E0,2.9947067E1,7.28809E1,9.5932045E0,2.1323807E1,2.199371E1,0E0,0E0,0E0,0E0,0E0,0E0,0E0,0E0,0E0,0E0,0E0,0E0,0E0,0E0,0E0,0E0,0E0,0E0,0E0,0E0,0E0,0E0],"parents":[2147483647,0,0,1,1,2,2,3,3,4,4,5,5,6,6,8,8,9,9,11,11,12,12,13,13,14,14,16,16,17,17,18,18,19,19,20,20,21,21,22,22,23,23,24,24,25,25,26,26],"right_children":[2,4,6,8,10,12,14,-1,16,18,-1,20,22,24,26,-1,28,30,32,34,36,38,40,42,44,46,48,-1,-1,-1,-1,-1,-1,-1,-1,-1,-1,-1,-1,-1,-1,-1,-1,-1,-1,-1,-1,-1,-1],"split_conditions":[-2.2222223E0,-3.8888888E0,2.933E1,2.939E1,3.0315E1,8.333333E-1,1.2777778E1,-6.995027E-1,-5.5555553E0,2.9435E1,-5.9293395E-1,2.912E1,2.871E1,4.48E2,2.9515E1,-4.8386362E-1,6.824E3,2.921E1,4.588E3,2.9105E1,-1.9444444E0,7.5E0,2.8875E1,1.1111112E0,3.0165E1,1.3333333E1,2.974E1,-3.011074E-1,-3.7851907E-2,-3.0019167E-1,-8.0992365E-1,-2.4752751E-2,-3.5243696E-1,-1.7627084E-1,1.2301369E0,-1.6486317E-1,-1.0998942E0,-4.5350567E-1,-1.0447029E0,1.3946798E-1,-7.334049E-2,1.7379226E-1,-5.9134442E-2,4.294716E-2,1.2501597E-1,4.0589568E-1,1.2279022E-1,9.399717E-4,9.453962E-2],"split_indices":[1,1,2,2,2,1,1,0,1,2,0,2,2,0,2,0,0,2,0,2,1,1,2,1,2,1,2,0,0,0,0,0,0,0,0,0,0,0,0,0,0,0,0,0,0,0,0,0,0],"split_type":[0,0,0,0,0,0,0,0,0,0,0,0,0,0,0,0,0,0,0,0,0,0,0,0,0,0,0,0,0,0,0,0,0,0,0,0,0,0,0,0,0,0,0,0,0,0,0,0,0],"sum_hessian":[4.256E3,9.4E1,4.162E3,4.3E1,5.1E1,7.16E2,3.446E3,4E0,3.9E1,4.5E1,6E0,3.1E1,6.85E2,2.305E3,1.141E3,2.4E1,1.5E1,9E0,3.6E1,1.7E1,1.4E1,9E0,6.76E2,1.371E3,9.34E2,1.77E2,9.64E2,1.4E1,1E0,7E0,2E0,3E1,6E0,1.6E1,1E0,1E0,1.3E1,8E0,1E0,6.5E1,6.11E2,1.33E2,1.238E3,7.81E2,1.53E2,2.8E1,1.49E2,3.61E2,6.03E2],"tree_param":{"num_deleted":"0","num_feature":"3","num_nodes":"49","size_leaf_vector":"1"}},{"base_weights":[-1.0348578E-3,-2.1945359E-1,8.9628495E-2,-4.278209E-1,8.633803E-2,-4.3926316E-1,1.1462489E-1,-2.660217E-1,-7.0062596E-1,4.835848E-1,2.9904582E-2,-6.086524E-1,2.6711026E-1,9.725256E-2,5.0570196E-1,-9.51671E-1,-5.0170876E-2,-1.3054176E-2,-1.2614539E0,-5.349515E-1,5.489062E-1,-5.769399E-1,8.472937E-2,-1.8832172E-1,-8.860195E-1,8.205118E-1,-5.517451E-2,1.20649256E-1,-5.1827896E-1,9.1567534E-1,3.2343778E-1,-2.2136149E-1,-9.1759133E-1,1.18127234E-1,-2.1517943E-1,-6.4009026E-2,3.3470708E-1,-5.051746E-1,1.5380588E-1,7.294852E-2,2.4838287E-1,-5.1099163E-1,-2.9004628E-2,3.526733E-1,1.5487978E-2,-1.9117434E-1,4.3399334E-1,-3.420937E-1,-4.3366447E-2,-1.22008614E-1,3.0061698E-1,1.5417088E-2,-1.8153858E-1,2.4305258E-2,1.0790896E-1,-3.2905152E-1,1.678149E-3,3.678832E-1,1.5590732E-1,-2.2124735E-1,1.1940963E-1],"categories":[],"categories_nodes":[],"categories_segments":[],"categories_sizes":[],"default_left":[0,0,0,0,0,0,0,0,0,0,0,0,0,0,0,0,0,0,0,0,0,0,0,0,0,0,0,0,0,0,0,0,0,0,0,0,0,0,0,0,0,0,0,0,0,0,0,0,0,0,0,0,0,0,0,0,0,0,0,0,0],"id":8,"left_children":[1,3,5,7,9,11,13,15,17,19,21,23,25,27,29,31,33,35,37,-1,39,41,43,45,47,49,51,53,55,57,59,-1,-1,-1,-1,-1,-1,-1,-1,-1,-1,-1,-1,-1,-1,-1,-1,-1,-1,-1,-1,-1,-1,-1,-1,-1,-1,-1,-1,-1,-1],"loss_changes":[8.431923E1,7.9619446E1,3.9830494E1,3.2609375E1,1.1351466E1,1.6435257E1,1.947654E1,6.92153E1,1.0641176E2,1.0307062E1,1.4854088E1,1.2657593E1,4.8608E0,3.9709595E1,8.820097E0,4.8195557E1,1.0600507E2,2.850029E1,1.1478815E2,0E0,5.0881386E0,1.9850319E1,1.4708346E1,3.3950924E1,1.2279404E1,2.6354613E0,1.0860012E0,2.5105003E1,3.0618382E1,3.913475E0,7.099517E0,0E0,0E0,0E0,0E0,0E0,0E0,0E0,0E0,0E0,0E0,0E0,0E0,0E0,0E0,0E0,0E0,0E0,0E0,0E0,0E0,0E0,0E0,0E0,0E0,0E0,0E0,0E0,0E0,0E0,0E0],"parents":[2147483647,0,0,1,1,2,2,3,3,4,4,5,5,6,6,7,7,8,8,9,9,10,10,11,11,12,12,13,13,14,14,15,15,16,16,17,17,18,18,20,20,21,21,22,22,23,23,24,24,25,25,26,26,27,27,28,28,29,29,30,30],"right_children":[2,4,6,8,10,12,14,16,18,20,22,24,26,28,30,32,34,36,38,-1,40,42,44,46,48,50,52,54,56,58,60,-1,-1,-1,-1,-1,-1,-1,-1,-1,-1,-1,-1,-1,-1,-1,-1,-1,-1,-1,-1,-1,-1,-1,-1,-1,-1,-1,-1,-1,-1],"split_conditions":[4.4444447E0,6.72E2,2.9045E1,2.7777777E0,2.9165E1,1.0555555E1,3.0165E1,2.936E1,2.9375E1,1.007E3,2.9315E1,2.8935E1,1.3611111E1,3.006E1,2.23E2,2.9285E1,3.0075E1,2.9285E1,3.0105E1,-5.349515E-1,5.033E3,2.5E0,1.008E3,2.886E1,2.23E2,2.8755E1,2.903E1,2.994E1,8.055555E0,8.055555E0,4.47E2,-2.2136149E-1,-9.1759133E-1,1.18127234E-1,-2.1517943E-1,-6.4009026E-2,3.3470708E-1,-5.051746E-1,1.5380588E-1,7.294852E-2,2.4838287E-1,-5.1099163E-1,-2.9004628E-2,3.526733E-1,1.5487978E-2,-1.9117434E-1,4.3399334E-1,-3.420937E-1,-4.3366447E-2,-1.22008614E-1,3.0061698E-1,1.5417088E-2,-1.8153858E-1,2.4305258E-2,1.0790896E-1,-3.2905152E-1,1.678149E-3,3.678832E-1,1.5590732E-1,-2.2124735E-1,1.1940963E-1],"split_indices":[1,0,2,1,2,1,2,2,2,0,2,2,1,2,0,2,2,2,2,0,0,1,0,2,0,2,2,2,1,1,0,0,0,0,0,0,0,0,0,0,0,0,0,0,0,0,0,0,0,0,0,0,0,0,0,0,0,0,0,0,0],"split_type":[0,0,0,0,0,0,0,0,0,0,0,0,0,0,0,0,0,0,0,0,0,0,0,0,0,0,0,0,0,0,0,0,0,0,0,0,0,0,0,0,0,0,0,0,0,0,0,0,0,0,0,0,0,0,0,0,0,0,0,0,0],"sum_hessian":[4.256E3,1.248E3,3.008E3,7.42E2,5.06E2,1.35E2,2.873E3,4.67E2,2.75E2,6.2E1,4.44E2,1.09E2,2.6E1,2.752E3,1.21E2,1.11E2,3.56E2,1.24E2,1.51E2,1E0,6.1E1,3.6E1,4.08E2,4.4E1,6.5E1,9E0,1.7E1,2.652E3,1E2,3.6E1,8.5E1,1.02E2,9E0,2.14E2,1.42E2,1.06E2,1.8E1,1.22E2,2.9E1,3E1,3.1E1,1E1,2.6E1,1.1E1,3.97E2,3.5E1,9E0,4.8E1,1.7E1,1E0,8E0,1.5E1,2E0,2.276E3,3.76E2,4.7E1,5.3E1,1.9E1,1.7E1,5E0,8E1],"tree_param":{"num_deleted":"0","num_feature":"3","num_nodes":"61","size_leaf_vector":"1"}},{"base_weights":[-1.1014902E-3,-7.2898346E-1,1.5509101E-2,-1.3591106E0,-6.1251074E-1,-3.5344154E-1,3.8270585E-2,-7.370205E-1,-6.9944066E-1,1.5316759E-1,-7.589888E-1,1.3555564E-1,-6.2878543E-1,2.2520129E-2,4.013592E-1,-1.22171074E-1,-2.9560703E-1,-3.1270105E-2,2.5195876E-1,-4.7593433E-1,-8.813561E-1,-1.2180325E0,3.8641798E-1,-1.1752752E0,-3.7264732E-1,5.23901E-2,-2.870766E-1,7.795401E-1,1.15465365E-1,2.1479417E-2,-1.7442298E-1,-3.5558287E-2,-2.786131E-1,-3.1888995E-1,-2.289026E-1,-4.277947E-1,-1.02498725E-1,3.7864897E-1,6.48534E-2,-5.38614E-1,-5.590638E-2,-1.2712291E-2,-1.5023245E-1,4.767019E-3,7.811423E-2,-2.0832746E-1,5.2300815E-2,4.1210458E-1,4.3845084E-2,-1.2013696E-1,7.8094594E-2],"categories":[],"categories_nodes":[],"categories_segments":[],"categories_sizes":[],"default_left":[0,0,0,0,0,0,0,0,0,0,0,0,0,0,0,0,0,0,0,0,0,0,0,0,0,0,0,0,0,0,0,0,0,0,0,0,0,0,0,0,0,0,0,0,0,0,0,0,0,0,0],"id":9,"left_children":[1,3,5,7,9,11,13,15,-1,17,19,21,23,25,27,-1,-1,29,-1,31,33,35,37,39,41,43,45,47,49,-1,-1,-1,-1,-1,-1,-1,-1,-1,-1,-1,-1,-1,-1,-1,-1,-1,-1,-1,-1,-1,-1],"loss_changes":[5.1480778E1,6.1398277E0,3.4973835E1,6.750181E0,9.312965E0,3.2668694E1,2.2420143E1,4.1769886E-1,0E0,1.7993966E0,1.970459E0,3.035233E1,2.125845E1,3.4786182E1,1.753348E1,0E0,0E0,7.207303E-1,0E0,3.6119008E0,1.991272E-1,2.064167E0,1.0908663E1,2.9713898E1,4.5067034E0,2.6035278E1,6.2334373E1,2.6141872E1,7.128982E0,0E0,0E0,0E0,0E0,0E0,0E0,0E0,0E0,0E0,0E0,0E0,0E0,0E0,0E0,0E0,0E0,0E0,0E0,0E0,0E0,0E0,0E0],"parents":[2147483647,0,0,1,1,2,2,3,3,4,4,5,5,6,6,7,7,9,9,10,10,11,11,12,12,13,13,14,14,17,17,19,19,20,20,21,21,22,22,23,23,24,24,25,25,26,26,27,27,28,28],"right_children":[2,4,6,8,10,12,14,16,-1,18,20,22,24,26,28,-1,-1,30,-1,32,34,36,38,40,42,44,46,48,50,-1,-1,-1,-1,-1,-1,-1,-1,-1,-1,-1,-1,-1,-1,-1,-1,-1,-1,-1,-1,-1,-1],"split_conditions":[-2.2222223E0,2.9435E1,2.9045E1,2.9345E1,3E1,2.892E1,3.0255E1,2.9165E1,-6.9944066E-1,2.9985E1,3.0135E1,2.874E1,3.8888888E0,3.006E1,2.23E2,-1.22171074E-1,-2.9560703E-1,-2.5E0,2.5195876E-1,2.23E2,-6.111111E0,8.611111E0,2.8755E1,2.9015E1,5E0,2.994E1,5.59E2,3.033E1,1.6666666E0,2.1479417E-2,-1.7442298E-1,-3.5558287E-2,-2.786131E-1,-3.1888995E-1,-2.289026E-1,-4.277947E-1,-1.02498725E-1,3.7864897E-1,6.48534E-2,-5.38614E-1,-5.590638E-2,-1.2712291E-2,-1.5023245E-1,4.767019E-3,7.811423E-2,-2.0832746E-1,5.2300815E-2,4.1210458E-1,4.3845084E-2,-1.2013696E-1,7.8094594E-2],"split_indices":[1,2,2,2,2,2,2,2,0,2,2,2,1,2,0,0,0,1,0,0,1,1,2,2,1,2,0,2,1,0,0,0,0,0,0,0,0,0,0,0,0,0,0,0,0,0,0,0,0,0,0],"split_type":[0,0,0,0,0,0,0,0,0,0,0,0,0,0,0,0,0,0,0,0,0,0,0,0,0,0,0,0,0,0,0,0,0,0,0,0,0,0,0,0,0,0,0,0,0,0,0,0,0,0,0],"sum_hessian":[4.256E3,9.4E1,4.162E3,1.3E1,8.1E1,2.41E2,3.921E3,9E0,4E0,1.3E1,6.8E1,8.7E1,1.54E2,3.759E3,1.62E2,5E0,4E0,1.1E1,2E0,2.2E1,4.6E1,1.3E1,7.4E1,4.8E1,1.06E2,3.429E3,3.3E2,6.9E1,9.3E1,1E1,1E0,1.3E1,9E0,1.5E1,3.1E1,1E1,3E0,1.1E1,6.3E1,2.9E1,1.9E1,3E1,7.6E1,2.918E3,5.11E2,1.75E2,1.55E2,3.5E1,3.4E1,2E1,7.3E1],"tree_param":{"num_deleted":"0","num_feature":"3","num_nodes":"51","size_leaf_vector":"1"}},{"base_weights":[-1.3306611E-3,-1.3603793E-1,5.4585163E-2,-2.6371616E-1,3.65354E-2,1.3971898E-2,1.7820756E-1,-1.2865973E-1,-4.9272686E-1,3.439311E-1,-6.9863405E-3,6.8585026E-1,4.0408517E-3,1.22790016E-1,4.206731E-1,-6.418079E-1,2.6094476E-2,1.488591E-2,-9.164237E-1,9.239754E-1,1.842226E-1,-1.4598571E-1,1.3204288E-1,-2.7854872E-1,9.5620954E-1,-2.943502E-2,1.6692859E-1,2.0241642E-1,-9.5348254E-2,1.7443821E-1,4.7899655E-1,-1.0015709E-1,-5.001695E-1,1.00425266E-1,-1.2948076E-1,-3.8966656E-2,2.5757352E-1,-3.1844044E-1,6.283989E-1,9.395806E-2,3.4109068E-1,-5.2865293E-2,1.3993022E-1,-1.7306156E-1,-1.7851E-2,-1.8649038E-2,8.884651E-2,6.312298E-1,-2.758538E-1,4.367201E-1,4.281027E-2,-2.6715028E-1,-6.861301E-3,9.577465E-2,-3.7858784E-2,1.2525996E-2,1.5736383E-1,-5.5387307E-2,2.6039758E-1,9.902086E-2,-2.525601E-1,3.1839937E-1,1.3419242E-1],"categories":[],"categories_nodes":[],"categories_segments":[],"categories_sizes":[],"default_left":[0,0,0,0,0,0,0,0,0,0,0,0,0,0,0,0,0,0,0,0,0,0,0,0,0,0,0,0,0,0,0,0,0,0,0,0,0,0,0,0,0,0,0,0,0,0,0,0,0,0,0,0,0,0,0,0,0,0,0,0,0,0,0],"id":10,"left_children":[1,3,5,7,9,11,13,15,17,19,21,23,25,27,29,31,33,35,37,39,41,43,45,47,49,51,53,55,57,59,61,-1,-1,-1,-1,-1,-1,-1,-1,-1,-1,-1,-1,-1,-1,-1,-1,-1,-1,-1,-1,-1,-1,-1,-1,-1,-1,-1,-1,-1,-1,-1,-1],"loss_changes":[3.207229E1,2.7529922E1,1.5104822E1,2.214389E1,7.1197095E0,1.5117011E1,9.945362E0,3.5990307E1,5.7223305E1,5.943892E0,9.04404E0,8.870581E0,1.2186488E1,1.0562626E1,1.8983002E0,3.2600315E1,4.9448097E1,1.5013256E1,6.555093E1,1.4652042E0,5.473373E0,8.685465E0,7.4763694E0,1.4152276E1,1.0357811E1,1.0458537E1,1.7051481E1,2.3008783E1,1.417878E1,4.706604E0,1.573576E0,0E0,0E0,0E0,0E0,0E0,0E0,0E0,0E0,0E0,0E0,0E0,0E0,0E0,0E0,0E0,0E0,0E0,0E0,0E0,0E0,0E0,0E0,0E0,0E0,0E0,0E0,0E0,0E0,0E0,0E0,0E0,0E0],"parents":[2147483647,0,0,1,1,2,2,3,3,4,4,5,5,6,6,7,7,8,8,9,9,10,10,11,11,12,12,13,13,14,14,15,15,16,16,17,17,18,18,19,19,20,20,21,21,22,22,23,23,24,24,25,25,26,26,27,27,28,28,29,29,30,30],"right_children":[2,4,6,8,10,12,14,16,18,20,22,24,26,28,30,32,34,36,38,40,42,44,46,48,50,52,54,56,58,60,62,-1,-1,-1,-1,-1,-1,-1,-1,-1,-1,-1,-1,-1,-1,-1,-1,-1,-1,-1,-1,-1,-1,-1,-1,-1,-1,-1,-1,-1,-1,-1,-1],"split_conditions":[4.4444447E0,2.23E2,1.4444445E1,2.7777777E0,2.9165E1,5E0,4.47E2,2.936E1,2.9375E1,1.6666666E0,2.5E0,2.899E1,3.022E3,2.986E1,2.946E1,2.9255E1,3.0075E1,2.9285E1,3.0165E1,3.357E3,2.9075E1,2.953E1,2.9755E1,2.8755E1,2.23E2,2.874E1,5.033E3,2.974E1,1.888889E1,2.9435E1,2.9515E1,-1.0015709E-1,-5.001695E-1,1.00425266E-1,-1.2948076E-1,-3.8966656E-2,2.5757352E-1,-3.1844044E-1,6.283989E-1,9.395806E-2,3.4109068E-1,-5.2865293E-2,1.3993022E-1,-1.7306156E-1,-1.7851E-2,-1.8649038E-2,8.884651E-2,6.312298E-1,-2.758538E-1,4.367201E-1,4.281027E-2,-2.6715028E-1,-6.861301E-3,9.577465E-2,-3.7858784E-2,1.2525996E-2,1.5736383E-1,-5.5387307E-2,2.6039758E-1,9.902086E-2,-2.525601E-1,3.1839937E-1,1.3419242E-1],"split_indices":[1,0,1,1,2,1,0,2,2,1,1,2,0,2,2,2,2,2,2,0,2,2,2,2,0,2,0,2,1,2,2,0,0,0,0,0,0,0,0,0,0,0,0,0,0,0,0,0,0,0,0,0,0,0,0,0,0,0,0,0,0,0,0],"split_type":[0,0,0,0,0,0,0,0,0,0,0,0,0,0,0,0,0,0,0,0,0,0,0,0,0,0,0,0,0,0,0,0,0,0,0,0,0,0,0,0,0,0,0,0,0,0,0,0,0,0,0,0,0,0,0,0,0,0,0,0,0,0,0],"sum_hessian":[4.256E3,1.248E3,3.008E3,7.17E2,5.31E2,2.265E3,7.43E2,4.52E2,2.65E2,6.5E1,4.66E2,3.2E1,2.233E3,6.06E2,1.37E2,1.04E2,3.48E2,1.21E2,1.44E2,1.3E1,5.2E1,2.33E2,2.33E2,7E0,2.5E1,1.853E3,3.8E2,4.44E2,1.62E2,2.7E1,1.1E2,8.1E1,2.3E1,2.08E2,1.4E2,1.04E2,1.7E1,1.38E2,6E0,4E0,9E0,2.3E1,2.9E1,3.8E1,1.95E2,1.07E2,1.26E2,1E0,6E0,1.5E1,1E1,1.3E1,1.84E3,2.5E2,1.3E2,2.97E2,1.47E2,1.49E2,1.3E1,2.4E1,3E0,4E0,1.06E2],"tree_param":{"num_deleted":"0","num_feature":"3","num_nodes":"63","size_leaf_vector":"1"}},{"base_weights":[-5.573496E-4,-4.6930385E-1,1.0139617E-2,-9.669128E-1,-3.7862298E-1,-2.4600003E-2,1.1421539E-1,-4.2754966E-1,-5.55677E-1,1.0234887E-1,-4.707242E-1,-4.1954517E-2,2.907004E-1,1.0550207E-1,1.1025884E0,-2.1041298E-2,-1.5244064E-1,-3.1088123E-1,2.9872903E-1,-4.925543E-1,7.1537495E-3,-8.801236E-2,6.475273E-2,5.9972924E-1,5.748E-2,7.489082E-2,2.9570997E-1,4.464659E-1,2.4849463E-1,-1.0410169E-1,-2.4957562E-2,3.953233E-2,1.9330952E-1,-1.2815642E-1,-4.196804E-1,9.47549E-2,-1.3784009E-1,-1.8329231E-2,-1.0800499E-1,1.1494389E-2,8.2921386E-2,3.0729207E-1,5.1085874E-2,-2.5383928E-3,2.0435977E-1,4.3757774E-2,-6.755748E-2,2.6844186E-1,3.018801E-2,-5.9217647E-2,2.3792325E-1],"categories":[],"categories_nodes":[],"categories_segments":[],"categories_sizes":[],"default_left":[0,0,0,0,0,0,0,0,0,0,0,0,0,0,0,0,0,0,0,0,0,0,0,0,0,0,0,0,0,0,0,0,0,0,0,0,0,0,0,0,0,0,0,0,0,0,0,0,0,0,0],"id":11,"left_children":[1,3,5,7,9,11,13,15,-1,17,19,21,23,25,27,-1,-1,29,31,33,35,37,39,41,43,45,47,-1,49,-1,-1,-1,-1,-1,-1,-1,-1,-1,-1,-1,-1,-1,-1,-1,-1,-1,-1,-1,-1,-1,-1],"loss_changes":[2.1350061E1,3.9206467E0,1.5054356E1,5.8933744E0,3.6806211E0,1.7095423E1,8.857389E0,2.5238383E-1,0E0,1.228972E0,7.233391E-1,1.4553227E1,1.1713236E1,5.9983196E0,2.594473E0,0E0,0E0,1.2257665E-2,4.9214435E-1,3.3126755E0,7.21298E-1,1.5117779E1,4.986346E0,1.2588808E1,3.871876E0,1.9029213E1,1.662289E1,0E0,1.1278365E0,0E0,0E0,0E0,0E0,0E0,0E0,0E0,0E0,0E0,0E0,0E0,0E0,0E0,0E0,0E0,0E0,0E0,0E0,0E0,0E0,0E0,0E0],"parents":[2147483647,0,0,1,1,2,2,3,3,4,4,5,5,6,6,7,7,9,9,10,10,11,11,12,12,13,13,14,14,17,17,18,18,19,19,20,20,21,21,22,22,23,23,24,24,25,25,26,26,28,28],"right_children":[2,4,6,8,10,12,14,16,-1,18,20,22,24,26,28,-1,-1,30,32,34,36,38,40,42,44,46,48,-1,50,-1,-1,-1,-1,-1,-1,-1,-1,-1,-1,-1,-1,-1,-1,-1,-1,-1,-1,-1,-1,-1,-1],"split_conditions":[-2.2222223E0,2.9435E1,1.3055555E1,2.9345E1,3E1,3.0255E1,5.039E3,2.9105E1,-5.55677E-1,-3.3333333E0,6.153E3,1.787E3,2.23E2,2.994E1,5.823E3,-2.1041298E-2,-1.5244064E-1,-3.8888888E0,2.9985E1,4.815E3,7.497E3,3.006E1,6.936E3,3.0315E1,5.815E3,2.983E1,1.4444445E1,4.464659E-1,6.258E3,-1.0410169E-1,-2.4957562E-2,3.953233E-2,1.9330952E-1,-1.2815642E-1,-4.196804E-1,9.47549E-2,-1.3784009E-1,-1.8329231E-2,-1.0800499E-1,1.1494389E-2,8.2921386E-2,3.0729207E-1,5.1085874E-2,-2.5383928E-3,2.0435977E-1,4.3757774E-2,-6.755748E-2,2.6844186E-1,3.018801E-2,-5.9217647E-2,2.3792325E-1],"split_indices":[1,2,1,2,2,2,0,2,0,1,0,0,0,2,0,0,0,1,2,0,0,2,0,2,0,2,1,0,0,0,0,0,0,0,0,0,0,0,0,0,0,0,0,0,0,0,0,0,0,0,0],"split_type":[0,0,0,0,0,0,0,0,0,0,0,0,0,0,0,0,0,0,0,0,0,0,0,0,0,0,0,0,0,0,0,0,0,0,0,0,0,0,0,0,0,0,0,0,0,0,0,0,0,0,0],"sum_hessian":[4.256E3,9.4E1,4.162E3,1.3E1,8.1E1,3.121E3,1.041E3,9E0,4E0,1.3E1,6.8E1,2.959E3,1.62E2,1.033E3,8E0,2E0,7E0,4E0,9E0,6.5E1,3E0,2.067E3,8.92E2,6.9E1,9.3E1,8.91E2,1.42E2,5E0,3E0,3E0,1E0,7E0,2E0,6.2E1,3E0,2E0,1E0,1.882E3,1.85E2,7.94E2,9.8E1,3.4E1,3.5E1,8.5E1,8E0,7.21E2,1.7E2,3.4E1,1.08E2,2E0,1E0],"tree_param":{"num_deleted":"0","num_feature":"3","num_nodes":"51","size_leaf_vector":"1"}},{"base_weights":[-3.401192E-4,-6.0643364E-2,5.5176012E-2,-4.692685E-2,-3.757325E-1,7.587121E-1,4.091163E-2,-5.8947153E-2,7.017847E-1,-9.836278E-1,-2.6627696E-1,-7.523302E-1,8.929969E-1,8.3303975E-4,1.6248429E-1,4.0685165E-1,-7.3362865E-2,1.0355612E0,-8.615443E-1,-5.0101423E-1,4.9819613E-1,5.203085E-1,1.9298805E0,-3.822778E-2,2.115446E-1,1.4047356E-1,7.266393E-1,4.8096217E-2,5.7828903E-1,-1.3187864E-1,-1.2627848E-2,3.7395662E-1,-1.3090633E-1,1.01602085E-1,-3.507968E-1,-9.719392E-2,-5.099275E-1,-3.1075956E-2,2.1170884E-1,3.2767743E-1,-7.1654476E-2,6.919572E-1,4.6997074E-2,4.072953E-2,-3.0895077E-2,1.538122E-1,1.3552502E-2,5.336276E-2,-6.680301E-2,3.0230257E-1,5.3737808E-2],"categories":[],"categories_nodes":[],"categories_segments":[],"categories_sizes":[],"default_left":[0,0,0,0,0,0,0,0,0,0,0,0,0,0,0,0,0,0,0,0,0,0,0,0,0,0,0,0,0,0,0,0,0,0,0,0,0,0,0,0,0,0,0,0,0,0,0,0,0,0,0],"id":12,"left_children":[1,3,5,7,9,11,13,15,17,-1,19,-1,21,23,25,27,29,31,33,35,37,39,41,43,45,47,49,-1,-1,-1,-1,-1,-1,-1,-1,-1,-1,-1,-1,-1,-1,-1,-1,-1,-1,-1,-1,-1,-1,-1,-1],"loss_changes":[1.4254944E1,8.803417E0,2.2217678E1,1.7653864E1,2.6135904E1,2.153952E1,1.0592595E1,1.2969308E1,1.7068058E1,0E0,1.514398E1,0E0,1.5612553E1,1.3473294E1,6.5909414E0,2.1436256E1,2.1396938E1,8.617359E0,2.6124253E0,1.3031334E1,2.5704985E0,1.4589466E1,6.9852676E0,1.5573774E1,1.2803542E1,7.1025906E0,2.8969154E0,0E0,0E0,0E0,0E0,0E0,0E0,0E0,0E0,0E0,0E0,0E0,0E0,0E0,0E0,0E0,0E0,0E0,0E0,0E0,0E0,0E0,0E0,0E0,0E0],"parents":[2147483647,0,0,1,1,2,2,3,3,4,4,5,5,6,6,7,7,8,8,10,10,12,12,13,13,14,14,15,15,16,16,17,17,18,18,19,19,20,20,21,21,22,22,23,23,24,24,25,25,26,26],"right_children":[2,4,6,8,10,12,14,16,18,-1,20,-1,22,24,26,28,30,32,34,36,38,40,42,44,46,48,50,-1,-1,-1,-1,-1,-1,-1,-1,-1,-1,-1,-1,-1,-1,-1,-1,-1,-1,-1,-1,-1,-1,-1,-1],"split_conditions":[8.333333E0,7.7777777E0,8.888889E0,7.5E0,2.899E1,2.871E1,2.23E2,2.8875E1,1.342E3,-9.836278E-1,3.464E3,-7.523302E-1,2.992E1,2.994E1,5.039E3,6.111111E0,2.9045E1,3.0075E1,2.9755E1,3.0045E1,2.9575E1,2.977E1,2.23E2,2.9515E1,1.2222222E1,3.694E3,2.9955E1,4.8096217E-2,5.7828903E-1,-1.3187864E-1,-1.2627848E-2,3.7395662E-1,-1.3090633E-1,1.01602085E-1,-3.507968E-1,-9.719392E-2,-5.099275E-1,-3.1075956E-2,2.1170884E-1,3.2767743E-1,-7.1654476E-2,6.919572E-1,4.6997074E-2,4.072953E-2,-3.0895077E-2,1.538122E-1,1.3552502E-2,5.336276E-2,-6.680301E-2,3.0230257E-1,5.3737808E-2],"split_indices":[1,1,1,1,2,2,0,2,0,0,0,0,2,2,0,1,2,2,2,2,2,2,0,2,1,0,2,0,0,0,0,0,0,0,0,0,0,0,0,0,0,0,0,0,0,0,0,0,0,0,0],"split_type":[0,0,0,0,0,0,0,0,0,0,0,0,0,0,0,0,0,0,0,0,0,0,0,0,0,0,0,0,0,0,0,0,0,0,0,0,0,0,0,0,0,0,0,0,0,0,0,0,0,0,0],"sum_hessian":[4.256E3,2.04E3,2.216E3,1.956E3,8.4E1,4.3E1,2.173E3,1.926E3,3E1,2E0,8.2E1,1E0,4.2E1,1.635E3,5.38E2,5.7E1,1.869E3,2.5E1,5E0,6.3E1,1.9E1,3.2E1,1E1,1.38E3,2.55E2,5.19E2,1.9E1,5E1,7E0,1.46E2,1.723E3,2.2E1,3E0,1E0,4E0,5.6E1,7E0,5E0,1.4E1,1.8E1,1.4E1,8E0,2E0,3.74E2,1.006E3,9E1,1.65E2,4.71E2,4.8E1,1.2E1,7E0],"tree_param":{"num_deleted":"0","num_feature":"3","num_nodes":"51","size_leaf_vector":"1"}},{"base_weights":[-2.7818794E-4,-1.3453925E-2,1.9055541E-1,-3.2882074E-1,-5.746725E-3,-2.795342E-1,3.1748965E-1,-7.1719587E-1,-2.5850278E-1,-1.8265942E-2,1.6763291E-1,1.15456216E-1,-1.1856488E0,4.4814408E-1,1.6014254E-1,-3.052679E-1,-4.1928378E-1,9.078346E-2,-3.2562605E-1,-4.5712674E-3,-3.1506944E-1,-1.4608549E0,2.1806534E-1,5.681424E-1,8.686339E-3,-5.876142E-1,-3.713253E-1,1.2283428E0,3.878762E-1,-4.4618502E-1,4.2637128E-1,-3.846188E-2,-1.370065E-1,-6.999785E-2,7.312798E-2,-1.531899E-1,-7.943371E-2,-7.315377E-3,3.074189E-2,3.8295117E-1,-1.3935135E-1,-1.0054125E0,-8.163576E-2,1.9363506E-1,3.702279E-2,3.0726625E-2,2.1189366E-1,-1.5454121E-2,1.14056855E-1,1.6857912E-1,-2.0246416E-1,2.1415682E-1,7.244625E-1,7.823777E-2,1.7263885E-1,-3.24899E-1,1.2133292E-1,2.2749577E-1,6.0091063E-2],"categories":[],"categories_nodes":[],"categories_segments":[],"categories_sizes":[],"default_left":[0,0,0,0,0,0,0,0,0,0,0,0,0,0,0,0,0,0,0,0,0,0,0,0,0,0,0,0,0,0,0,0,0,0,0,0,0,0,0,0,0,0,0,0,0,0,0,0,0,0,0,0,0,0,0,0,0,0,0],"id":13,"left_children":[1,3,5,7,9,11,13,15,17,19,21,23,25,27,29,31,-1,33,35,37,39,41,43,45,47,-1,49,51,53,55,57,-1,-1,-1,-1,-1,-1,-1,-1,-1,-1,-1,-1,-1,-1,-1,-1,-1,-1,-1,-1,-1,-1,-1,-1,-1,-1,-1,-1],"loss_changes":[1.0706251E1,9.679171E0,1.6498127E1,2.409029E0,8.444437E0,2.1253378E1,4.3893394E0,3.4973106E0,1.9520707E0,1.4745028E1,2.1836254E1,2.0250611E0,1.060413E1,5.0720234E0,1.6332422E1,2.0955712E-1,0E0,7.510115E-1,6.415367E-1,7.359907E0,3.864684E1,1.706665E1,1.0236257E1,4.4244576E-1,8.023431E-1,0E0,3.212182E0,3.159768E0,2.4960747E0,1.7230396E1,5.101096E0,0E0,0E0,0E0,0E0,0E0,0E0,0E0,0E0,0E0,0E0,0E0,0E0,0E0,0E0,0E0,0E0,0E0,0E0,0E0,0E0,0E0,0E0,0E0,0E0,0E0,0E0,0E0,0E0],"parents":[2147483647,0,0,1,1,2,2,3,3,4,4,5,5,6,6,7,7,8,8,9,9,10,10,11,11,12,12,13,13,14,14,15,15,17,17,18,18,19,19,20,20,21,21,22,22,23,23,24,24,26,26,27,27,28,28,29,29,30,30],"right_children":[2,4,6,8,10,12,14,16,18,20,22,24,26,28,30,32,-1,34,36,38,40,42,44,46,48,-1,50,52,54,56,58,-1,-1,-1,-1,-1,-1,-1,-1,-1,-1,-1,-1,-1,-1,-1,-1,-1,-1,-1,-1,-1,-1,-1,-1,-1,-1,-1,-1],"split_conditions":[1.6944445E1,-2.2222223E0,2.956E1,2.9435E1,3.0165E1,2.9515E1,2.983E1,2.9345E1,3E1,3.0075E1,-1.9444444E0,2.9285E1,1.75E1,1.7222221E1,2.9875E1,2.9165E1,-4.1928378E-1,-3.3333333E0,-6.111111E0,2.994E1,0E0,3.0255E1,8.333333E-1,2.924E1,8.95E2,-5.876142E-1,1.888889E1,2.9785E1,2.9725E1,1.8055555E1,2.994E1,-3.846188E-2,-1.370065E-1,-6.999785E-2,7.312798E-2,-1.531899E-1,-7.943371E-2,-7.315377E-3,3.074189E-2,3.8295117E-1,-1.3935135E-1,-1.0054125E0,-8.163576E-2,1.9363506E-1,3.702279E-2,3.0726625E-2,2.1189366E-1,-1.5454121E-2,1.14056855E-1,1.6857912E-1,-2.0246416E-1,2.1415682E-1,7.244625E-1,7.823777E-2,1.7263885E-1,-3.24899E-1,1.2133292E-1,2.2749577E-1,6.0091063E-2],"split_indices":[1,1,2,2,2,2,2,2,2,2,1,2,1,1,2,2,0,1,1,2,1,2,1,2,0,0,1,2,2,1,2,0,0,0,0,0,0,0,0,0,0,0,0,0,0,0,0,0,0,0,0,0,0,0,0,0,0,0,0],"split_type":[0,0,0,0,0,0,0,0,0,0,0,0,0,0,0,0,0,0,0,0,0,0,0,0,0,0,0,0,0,0,0,0,0,0,0,0,0,0,0,0,0,0,0,0,0,0,0,0,0,0,0,0,0,0,0,0,0,0,0],"sum_hessian":[4.256E3,3.982E3,2.74E2,9.4E1,3.888E3,5.8E1,2.16E2,1.3E1,8.1E1,3.627E3,2.61E2,4.1E1,1.7E1,1.17E2,9.9E1,9E0,4E0,1.3E1,6.8E1,3.468E3,1.59E2,7E0,2.54E2,7E0,3.4E1,8E0,9E0,7E0,1.1E2,3E1,6.9E1,5E0,4E0,4E0,9E0,1.5E1,5.3E1,2.927E3,5.41E2,1.3E1,1.46E2,2E0,5E0,4.5E1,2.09E2,2E0,5E0,3E1,4E0,2E0,7E0,6E0,1E0,6.7E1,4.3E1,1.7E1,1.3E1,2.7E1,4.2E1],"tree_param":{"num_deleted":"0","num_feature":"3","num_nodes":"59","size_leaf_vector":"1"}},{"base_weights":[-2.939212E-4,-8.387412E-2,2.4826178E-2,-7.273507E-1,-7.902658E-2,1.0186872E0,1.4702108E-2,-4.314435E-1,-5.8879294E-2,1.2553649E0,-1.0110672E0,-8.384059E-1,1.733631E-2,3.035557E-1,-1.1504633E0,5.4013196E-2,-1.4705166E-1,1.342142E-1,1.6569554E0,-1.1352854E-1,-4.363475E-1,-5.412009E-2,-5.340943E-1,9.3638444E-1,1.30483145E-2,3.0698133E-1,-5.3999625E-2,-3.8986978E-1,4.0893033E-1,-2.6398448E-2,1.0383128E-1,-2.0402034E-1,1.4557664E-3,3.0874172E-1,-1.4543143E-1,5.733923E-1,-1.7731324E-1,6.670002E-1,-5.0585687E-2,-1.1213537E-2,1.7900838E-2],"categories":[],"categories_nodes":[],"categories_segments":[],"categories_sizes":[],"default_left":[0,0,0,0,0,0,0,0,0,0,0,0,0,0,0,0,0,0,0,0,0,0,0,0,0,0,0,0,0,0,0,0,0,0,0,0,0,0,0,0,0],"id":14,"left_children":[1,3,5,-1,7,9,11,13,15,17,19,21,23,25,27,29,31,33,35,-1,-1,-1,-1,37,39,-1,-1,-1,-1,-1,-1,-1,-1,-1,-1,-1,-1,-1,-1,-1,-1],"loss_changes":[8.9398365E0,1.0973146E1,3.292775E1,0E0,6.9541383E0,1.712238E1,7.30015E0,2.8358622E1,9.275115E0,1.3284916E1,5.7168865E-1,5.8766403E0,1.272863E1,9.5807705E0,1.1890465E1,1.6995478E1,4.2349243E1,5.484408E0,1.3708904E1,0E0,0E0,0E0,0E0,2.170615E1,7.569949E0,0E0,0E0,0E0,0E0,0E0,0E0,0E0,0E0,0E0,0E0,0E0,0E0,0E0,0E0,0E0,0E0],"parents":[2147483647,0,0,1,1,2,2,4,4,5,5,6,6,7,7,8,8,9,9,10,10,11,11,12,12,13,13,14,14,15,15,16,16,17,17,18,18,23,23,24,24],"right_children":[2,4,6,-1,8,10,12,14,16,18,20,22,24,26,28,30,32,34,36,-1,-1,-1,-1,38,40,-1,-1,-1,-1,-1,-1,-1,-1,-1,-1,-1,-1,-1,-1,-1,-1],"split_conditions":[3.0555556E0,2.8755E1,3.8888888E0,-7.273507E-1,2.9015E1,3.0285E1,2.871E1,2.8905E1,2.9725E1,2.9165E1,2.23E2,5.5555553E0,2.8755E1,1.6666666E0,2.23E2,2.95E1,2.994E1,2.8905E1,5.703E3,-1.1352854E-1,-4.363475E-1,-5.412009E-2,-5.340943E-1,5.5555553E0,2.974E1,3.0698133E-1,-5.3999625E-2,-3.8986978E-1,4.0893033E-1,-2.6398448E-2,1.0383128E-1,-2.0402034E-1,1.4557664E-3,3.0874172E-1,-1.4543143E-1,5.733923E-1,-1.7731324E-1,6.670002E-1,-5.0585687E-2,-1.1213537E-2,1.7900838E-2],"split_indices":[1,2,1,0,2,2,2,2,2,2,0,1,2,1,0,2,2,2,0,0,0,0,0,1,2,0,0,0,0,0,0,0,0,0,0,0,0,0,0,0,0],"split_type":[0,0,0,0,0,0,0,0,0,0,0,0,0,0,0,0,0,0,0,0,0,0,0,0,0,0,0,0,0,0,0,0,0,0,0,0,0,0,0,0,0],"sum_hessian":[4.256E3,9.83E2,3.273E3,1E0,9.82E2,3.2E1,3.241E3,5.2E1,9.3E2,2.9E1,3E0,9E0,3.232E3,2.6E1,2.6E1,4.08E2,5.22E2,8E0,2.1E1,2E0,1E0,6E0,3E0,1.4E1,3.218E3,1E1,1.6E1,2.5E1,1E0,2.75E2,1.33E2,1.15E2,4.07E2,3E0,5E0,1.9E1,2E0,6E0,8E0,1.546E3,1.672E3],"tree_param":{"num_deleted":"0","num_feature":"3","num_nodes":"41","size_leaf_vector":"1"}},{"base_weights":[-3.3157444E-4,-3.450339E-2,4.62424E-2,-4.609469E-2,2.2039437E-1,-1.8977895E-1,6.7631975E-2,-2.8942775E-2,-3.5640663E-1,2.9584046E-2,4.3732646E-1,9.6710406E-2,-5.979689E-1,4.5368287E-1,1.9263947E-2,-6.664195E-2,6.636501E-2,-8.7526697E-1,1.0967124E-2,6.778801E-1,-1.365678E-1,1.0423533E0,3.4693784E-1,2.5700334E-1,-1.2518282E-1,-8.4157795E-2,-9.2026645E-1,9.6181345E-1,6.221496E-2,-1.810135E-2,1.3537656E-1,-4.80118E-2,-5.7924814E-3,2.2706967E-2,-2.757436E-1,-2.0047005E-1,-6.949938E-1,6.8675324E-2,-2.0031324E-1,-5.35965E-3,2.4564476E-1,-8.730074E-2,1.6434696E-1,-8.128739E-3,4.7515556E-1,2.706817E-1,7.150997E-2,1.2837735E-1,1.6587457E-2,-7.6453716E-2,1.4563352E-1,-1.09555565E-1,1.12170555E-1,-4.482536E-1,-1.1325306E-2,3.37174E-1,-1.9127212E-1,-2.4499059E-2,2.4354044E-1,-3.2304827E-2,1.2254006E-2,-6.233868E-2,5.125833E-2],"categories":[],"categories_nodes":[],"categories_segments":[],"categories_sizes":[],"default_left":[0,0,0,0,0,0,0,0,0,0,0,0,0,0,0,0,0,0,0,0,0,0,0,0,0,0,0,0,0,0,0,0,0,0,0,0,0,0,0,0,0,0,0,0,0,0,0,0,0,0,0,0,0,0,0,0,0,0,0,0,0,0,0],"id":15,"left_children":[1,3,5,7,9,11,13,15,17,19,21,23,25,27,29,31,33,35,37,39,41,43,45,47,49,51,53,55,57,59,61,-1,-1,-1,-1,-1,-1,-1,-1,-1,-1,-1,-1,-1,-1,-1,-1,-1,-1,-1,-1,-1,-1,-1,-1,-1,-1,-1,-1,-1,-1,-1,-1],"loss_changes":[6.7766848E0,7.2666473E0,9.110043E0,1.2497427E1,4.4161005E0,1.759914E1,3.0856936E1,8.009682E0,2.3455326E1,6.3400807E0,2.3727455E0,3.1977172E0,1.0189756E1,3.654086E1,6.380166E0,7.056994E0,5.8774986E0,1.367104E1,1.0950885E1,1.1912928E0,5.127021E0,3.5175471E0,2.4981303E0,1.769134E0,3.132393E0,3.3547263E0,1.9190075E1,2.1457397E1,1.1390478E1,5.881759E0,4.39498E0,0E0,0E0,0E0,0E0,0E0,0E0,0E0,0E0,0E0,0E0,0E0,0E0,0E0,0E0,0E0,0E0,0E0,0E0,0E0,0E0,0E0,0E0,0E0,0E0,0E0,0E0,0E0,0E0,0E0,0E0,0E0,0E0],"parents":[2147483647,0,0,1,1,2,2,3,3,4,4,5,5,6,6,7,7,8,8,9,9,10,10,11,11,12,12,13,13,14,14,15,15,16,16,17,17,18,18,19,19,20,20,21,21,22,22,23,23,24,24,25,25,26,26,27,27,28,28,29,29,30,30],"right_children":[2,4,6,8,10,12,14,16,18,20,22,24,26,28,30,32,34,36,38,40,42,44,46,48,50,52,54,56,58,60,62,-1,-1,-1,-1,-1,-1,-1,-1,-1,-1,-1,-1,-1,-1,-1,-1,-1,-1,-1,-1,-1,-1,-1,-1,-1,-1,-1,-1,-1,-1,-1,-1],"split_conditions":[1.1111111E1,6.936E3,2.93E1,5.709E3,2.9875E1,2.924E1,2.9435E1,1.901E3,6.048E3,2.921E1,7.278E3,2.915E1,1.25E1,1.3333333E1,2.24E2,2.95E1,1.0555555E1,6.111111E0,6.824E3,7.278E3,9.071E3,7.045E3,2.9905E1,1.3611111E1,1.3611111E1,2.9255E1,1.4444445E1,1.119E3,2.942E1,2.974E1,2.959E1,-4.80118E-2,-5.7924814E-3,2.2706967E-2,-2.757436E-1,-2.0047005E-1,-6.949938E-1,6.8675324E-2,-2.0031324E-1,-5.35965E-3,2.4564476E-1,-8.730074E-2,1.6434696E-1,-8.128739E-3,4.7515556E-1,2.706817E-1,7.150997E-2,1.2837735E-1,1.6587457E-2,-7.6453716E-2,1.4563352E-1,-1.09555565E-1,1.12170555E-1,-4.482536E-1,-1.1325306E-2,3.37174E-1,-1.9127212E-1,-2.4499059E-2,2.4354044E-1,-3.2304827E-2,1.2254006E-2,-6.233868E-2,5.125833E-2],"split_indices":[1,0,2,0,2,2,2,0,0,2,0,2,1,1,0,2,1,1,0,0,0,0,2,1,1,2,1,0,2,2,2,0,0,0,0,0,0,0,0,0,0,0,0,0,0,0,0,0,0,0,0,0,0,0,0,0,0,0,0,0,0,0,0],"split_type":[0,0,0,0,0,0,0,0,0,0,0,0,0,0,0,0,0,0,0,0,0,0,0,0,0,0,0,0,0,0,0,0,0,0,0,0,0,0,0,0,0,0,0,0,0,0,0,0,0,0,0,0,0,0,0,0,0,0,0,0,0,0,0],"sum_hessian":[4.256E3,2.455E3,1.801E3,2.349E3,1.06E2,1.49E2,1.652E3,2.227E3,1.22E2,5.7E1,4.9E1,8.8E1,6.1E1,1.83E2,1.469E3,1.596E3,6.31E2,5E1,7.2E1,1.1E1,4.6E1,5E0,4.4E1,5.1E1,3.7E1,2.4E1,3.7E1,7.9E1,1.04E2,1.112E3,3.57E2,5.36E2,1.06E3,6.26E2,5E0,4.5E1,5E0,5.5E1,1.7E1,2E0,9E0,3.8E1,8E0,2E0,3E0,6E0,3.8E1,2.7E1,2.4E1,3.1E1,6E0,1.5E1,9E0,2.2E1,1.5E1,7.2E1,7E0,8.8E1,1.6E1,4.41E2,6.71E2,3.3E1,3.24E2],"tree_param":{"num_deleted":"0","num_feature":"3","num_nodes":"63","size_leaf_vector":"1"}},{"base_weights":[-2.595E-4,3.4869246E-2,-4.2632278E-2,1.0009636E-5,5.3041714E-1,-8.163264E-1,-2.7078655E-2,-2.923791E-2,9.022308E-2,2.5773108E-1,8.417203E-1,-1.315194E0,-1.8896262E-1,-2.972176E-2,3.685676E-1,1.177639E-1,-6.666687E-2,4.5138232E-2,4.893065E-1,6.069916E-1,-3.178714E-1,1.5068417E0,4.2394263E-1,-1.4809835E0,1.7320378E-1,3.7311727E-1,-4.4578123E-1,4.0132258E-2,-7.1786575E-2,-3.356866E-2,9.517684E-2,-1.2174205E-2,-1.3714401E-1,2.4478378E-2,-6.805133E-2,2.28265E-1,-1.0229286E-1,-4.9845334E-2,2.6886183E-1,-3.7544397E-1,3.0559745E-2,5.744884E-1,8.945611E-2,-3.213146E-2,1.7967068E-1,-3.390074E-1,-5.7635856E-1,2.135233E-1,-1.355816E-1,-2.9330504E-1,1.13328636E-1,-2.1400537E-2,1.7051393E-1,-1.14648245E-1,-7.831871E-5],"categories":[],"categories_nodes":[],"categories_segments":[],"categories_sizes":[],"default_left":[0,0,0,0,0,0,0,0,0,0,0,0,0,0,0,0,0,0,0,0,0,0,0,0,0,0,0,0,0,0,0,0,0,0,0,0,0,0,0,0,0,0,0,0,0,0,0,0,0,0,0,0,0,0,0],"id":16,"left_children":[1,3,5,7,9,11,13,15,17,19,21,23,25,27,-1,29,31,33,35,37,39,41,43,45,47,-1,49,51,53,-1,-1,-1,-1,-1,-1,-1,-1,-1,-1,-1,-1,-1,-1,-1,-1,-1,-1,-1,-1,-1,-1,-1,-1,-1,-1],"loss_changes":[6.338042E0,4.0214848E1,2.3203022E1,5.7441115E0,1.2770927E1,1.1644396E1,6.3189697E0,9.053345E0,9.567976E0,1.6878868E1,1.9090157E1,5.438484E0,7.1773605E0,5.556451E0,0E0,1.5337799E1,1.33354645E1,4.77783E0,1.2435664E1,1.1776318E1,1.266733E1,1.2747429E1,4.24518E0,7.644272E-1,1.3316582E0,0E0,7.3780446E0,4.1905907E1,2.6195518E1,0E0,0E0,0E0,0E0,0E0,0E0,0E0,0E0,0E0,0E0,0E0,0E0,0E0,0E0,0E0,0E0,0E0,0E0,0E0,0E0,0E0,0E0,0E0,0E0,0E0,0E0],"parents":[2147483647,0,0,1,1,2,2,3,3,4,4,5,5,6,6,7,7,8,8,9,9,10,10,11,11,12,12,13,13,15,15,16,16,17,17,18,18,19,19,20,20,21,21,22,22,23,23,24,24,26,26,27,27,28,28],"right_children":[2,4,6,8,10,12,14,16,18,20,22,24,26,28,-1,30,32,34,36,38,40,42,44,46,48,-1,50,52,54,-1,-1,-1,-1,-1,-1,-1,-1,-1,-1,-1,-1,-1,-1,-1,-1,-1,-1,-1,-1,-1,-1,-1,-1,-1,-1],"split_conditions":[2.9785E1,2.9755E1,2.98E1,1.3888889E1,1.2777778E1,1.25E1,2.25E1,2.7777777E0,2.974E1,9.444445E0,1.5E1,4.144E3,1.2777778E1,6.111111E0,3.685676E-1,2.936E1,2.9725E1,2.9695E1,2.23E2,4.4444447E0,1.1111111E1,2.23E2,1.5555555E1,1.1111111E1,6.605E3,3.7311727E-1,2.23E2,4.4444447E0,7.5E0,-3.356866E-2,9.517684E-2,-1.2174205E-2,-1.3714401E-1,2.4478378E-2,-6.805133E-2,2.28265E-1,-1.0229286E-1,-4.9845334E-2,2.6886183E-1,-3.7544397E-1,3.0559745E-2,5.744884E-1,8.945611E-2,-3.213146E-2,1.7967068E-1,-3.390074E-1,-5.7635856E-1,2.135233E-1,-1.355816E-1,-2.9330504E-1,1.13328636E-1,-2.1400537E-2,1.7051393E-1,-1.14648245E-1,-7.831871E-5],"split_indices":[2,2,2,1,1,1,1,1,2,1,1,0,1,1,0,2,2,2,0,1,1,0,1,1,0,0,0,1,1,0,0,0,0,0,0,0,0,0,0,0,0,0,0,0,0,0,0,0,0,0,0,0,0,0,0],"split_type":[0,0,0,0,0,0,0,0,0,0,0,0,0,0,0,0,0,0,0,0,0,0,0,0,0,0,0,0,0,0,0,0,0,0,0,0,0,0,0,0,0,0,0,0,0,0,0,0,0,0,0,0,0,0,0],"sum_hessian":[4.256E3,2.327E3,1.929E3,2.175E3,1.52E2,3.7E1,1.892E3,1.643E3,5.32E2,8.2E1,7E1,2E1,1.7E1,1.889E3,3E0,3.33E2,1.31E3,4.79E2,5.3E1,5.1E1,3.1E1,2.6E1,4.4E1,1.8E1,2E0,2E0,1.5E1,7.1E2,1.179E3,1.55E2,1.78E2,1.229E3,8.1E1,4.23E2,5.6E1,4E1,1.3E1,1.4E1,3.7E1,9E0,2.2E1,1.9E1,7E0,1.1E1,3.3E1,1.2E1,6E0,1E0,1E0,9E0,6E0,5.87E2,1.23E2,2.2E2,9.59E2],"tree_param":{"num_deleted":"0","num_feature":"3","num_nodes":"55","size_leaf_vector":"1"}},{"base_weights":[-7.847651E-5,-5.086583E-3,2.2924964E-1,-2.9500801E-2,3.97261E-2,1.5104353E-1,7.315195E-1,6.035962E-3,-8.994424E-2,1.5429552E-1,1.3936371E-2,1.9237557E-1,-3.0747277E-1,8.994106E-1,-7.195727E-2,-3.798021E-2,2.44531E-1,-2.916228E-1,2.6122862E-2,2.2646573E-1,-1.454668E-1,1.8693048E-1,-2.6345658E-3,-6.1387185E-2,3.0091727E-1,-5.9470224E-1,5.662489E-2,8.278211E-2,1.09322E0,1.0455322E-2,-4.2836096E-2,-1.5952012E-1,-8.9766E-3,2.5788295E-1,3.2393735E-2,-4.0227535E-1,-6.2157113E-2,9.975884E-2,-9.7359475E-3,4.4377383E-2,1.8582773E-1,-2.1771315E-2,-4.0086177E-1,3.764992E-1,4.6202064E-2,-8.29352E-2,5.232751E-3,3.675107E-2,-3.98448E-1,1.1397049E-1,-5.429535E-2,-3.929701E-2,-2.116829E-1,8.069687E-2,-3.1147959E-2,-1.2624265E-2,4.9876217E-2,3.5708085E-1,6.2081054E-2],"categories":[],"categories_nodes":[],"categories_segments":[],"categories_sizes":[],"default_left":[0,0,0,0,0,0,0,0,0,0,0,0,0,0,0,0,0,0,0,0,0,0,0,0,0,0,0,0,0,0,0,0,0,0,0,0,0,0,0,0,0,0,0,0,0,0,0,0,0,0,0,0,0,0,0,0,0,0,0],"id":17,"left_children":[1,3,5,7,9,11,13,15,17,19,21,23,25,27,29,31,33,35,37,39,41,43,45,47,49,51,53,55,57,-1,-1,-1,-1,-1,-1,-1,-1,-1,-1,-1,-1,-1,-1,-1,-1,-1,-1,-1,-1,-1,-1,-1,-1,-1,-1,-1,-1,-1,-1],"loss_changes":[4.8903294E0,4.560148E0,3.4640408E0,5.79575E0,4.34128E0,1.5752631E0,1.6834788E0,1.7855274E1,2.3392452E1,5.874099E0,3.4433684E0,2.0567162E0,7.6573193E-1,1.4922028E0,2.7671888E-2,5.697603E0,2.2164577E1,3.2059174E1,1.1407822E1,6.6366215E0,4.503421E0,3.4990048E0,6.035496E0,5.520504E0,2.0480175E0,1.1328864E-1,1.6422509E-1,3.8263783E-2,4.4179535E-1,0E0,0E0,0E0,0E0,0E0,0E0,0E0,0E0,0E0,0E0,0E0,0E0,0E0,0E0,0E0,0E0,0E0,0E0,0E0,0E0,0E0,0E0,0E0,0E0,0E0,0E0,0E0,0E0,0E0,0E0],"parents":[2147483647,0,0,1,1,2,2,3,3,4,4,5,5,6,6,7,7,8,8,9,9,10,10,11,11,12,12,13,13,14,14,15,15,16,16,17,17,18,18,19,19,20,20,21,21,22,22,23,23,24,24,25,25,26,26,27,27,28,28],"right_children":[2,4,6,8,10,12,14,16,18,20,22,24,26,28,30,32,34,36,38,40,42,44,46,48,50,52,54,56,58,-1,-1,-1,-1,-1,-1,-1,-1,-1,-1,-1,-1,-1,-1,-1,-1,-1,-1,-1,-1,-1,-1,-1,-1,-1,-1,-1,-1,-1,-1],"split_conditions":[1.8055555E1,2.23E2,1.007E3,2.983E1,8.96E2,4.47E2,2.9955E1,2.9755E1,2.993E1,2.993E1,2.9165E1,2.9605E1,1.9444445E1,2.9545E1,3.022E3,-1.9444444E0,6.9444447E0,3.0555556E0,2.997E1,2.9815E1,8.95E2,0E0,2.9315E1,2.9545E1,2.9955E1,1.888889E1,5.59E2,1.677E3,3.024E3,1.0455322E-2,-4.2836096E-2,-1.5952012E-1,-8.9766E-3,2.5788295E-1,3.2393735E-2,-4.0227535E-1,-6.2157113E-2,9.975884E-2,-9.7359475E-3,4.4377383E-2,1.8582773E-1,-2.1771315E-2,-4.0086177E-1,3.764992E-1,4.6202064E-2,-8.29352E-2,5.232751E-3,3.675107E-2,-3.98448E-1,1.1397049E-1,-5.429535E-2,-3.929701E-2,-2.116829E-1,8.069687E-2,-3.1147959E-2,-1.2624265E-2,4.9876217E-2,3.5708085E-1,6.2081054E-2],"split_indices":[1,0,0,2,0,0,2,2,2,2,2,2,1,2,0,1,1,1,2,2,0,1,2,2,2,1,0,0,0,0,0,0,0,0,0,0,0,0,0,0,0,0,0,0,0,0,0,0,0,0,0,0,0,0,0,0,0,0,0],"split_type":[0,0,0,0,0,0,0,0,0,0,0,0,0,0,0,0,0,0,0,0,0,0,0,0,0,0,0,0,0,0,0,0,0,0,0,0,0,0,0,0,0,0,0,0,0,0,0,0,0,0,0,0,0,0,0,0,0,0,0],"sum_hessian":[4.256E3,4.166E3,9E1,2.697E3,1.469E3,7.9E1,1.1E1,1.699E3,9.98E2,2.69E2,1.2E3,7.3E1,6E0,9E0,2E0,1.435E3,2.64E2,3.64E2,6.34E2,2.17E2,5.2E1,1.04E2,1.096E3,2.2E1,5.1E1,3E0,3E0,2E0,7E0,1E0,1E0,2.2E1,1.413E3,4.7E1,2.17E2,2.6E1,3.38E2,1.01E2,5.33E2,1.82E2,3.5E1,5E1,2E0,2E0,1.02E2,7.4E1,1.022E3,2E1,2E0,4.4E1,7E0,1E0,2E0,1E0,2E0,1E0,1E0,6E0,1E0],"tree_param":{"num_deleted":"0","num_feature":"3","num_nodes":"59","size_leaf_vector":"1"}},{"base_weights":[-9.70922E-5,-5.1520795E-1,1.6021654E-3,-5.641365E-2,-6.9308436E-1,7.2854656E-1,-4.5900504E-4,-2.4103357E-2,-4.10347E-3,-9.981613E-1,4.2214394E-3,-6.078737E-1,1.1631863E0,-4.8084706E-3,1.6414654E-1,-1.6672489E-1,-5.478948E-1,6.705465E-1,-1.0264651E-1,2.1717523E-3,-2.5960636E-1,9.0413734E-2,5.0864863E-1,2.0557709E-2,-1.4377613E-1,-2.0823404E-3,4.0480793E-2,-2.5298983E-1,7.208321E-3,1.5136394E-1,8.149095E-3,3.4951916E-1,7.6780096E-2],"categories":[],"categories_nodes":[],"categories_segments":[],"categories_sizes":[],"default_left":[0,0,0,0,0,0,0,0,0,0,0,0,0,0,0,0,0,0,0,0,0,0,0,0,0,0,0,0,0,0,0,0,0],"id":18,"left_children":[1,3,5,7,9,11,13,-1,-1,15,-1,-1,17,19,21,-1,-1,-1,23,25,27,29,31,-1,-1,-1,-1,-1,-1,-1,-1,-1,-1],"loss_changes":[3.7270036E0,1.1034219E0,6.359358E0,4.014507E-3,2.1714149E0,1.672501E1,3.0313895E0,0E0,0E0,1.5497231E0,0E0,0E0,1.5155692E1,7.337066E0,2.7227318E0,0E0,0E0,0E0,4.196294E-1,4.8597555E0,1.823134E1,2.3699422E0,2.8536549E0,0E0,0E0,0E0,0E0,0E0,0E0,0E0,0E0,0E0,0E0],"parents":[2147483647,0,0,1,1,2,2,3,3,4,4,5,5,6,6,9,9,12,12,13,13,14,14,18,18,19,19,20,20,21,21,22,22],"right_children":[2,4,6,8,10,12,14,-1,-1,16,-1,-1,18,20,22,-1,-1,-1,24,26,28,30,32,-1,-1,-1,-1,-1,-1,-1,-1,-1,-1],"split_conditions":[2.874E1,2.862E1,2.8755E1,2.853E1,8.611111E0,3.0555556E0,6.936E3,-2.4103357E-2,-4.10347E-3,7.5E0,4.2214394E-3,-6.078737E-1,5.5555553E0,5.823E3,3.0045E1,-1.6672489E-1,-5.478948E-1,6.705465E-1,1.0555555E1,4.256E3,6.048E3,2.921E1,7.278E3,2.0557709E-2,-1.4377613E-1,-2.0823404E-3,4.0480793E-2,-2.5298983E-1,7.208321E-3,1.5136394E-1,8.149095E-3,3.4951916E-1,7.6780096E-2],"split_indices":[2,2,2,2,1,1,0,0,0,1,0,0,1,0,2,0,0,0,1,0,0,2,0,0,0,0,0,0,0,0,0,0,0],"split_type":[0,0,0,0,0,0,0,0,0,0,0,0,0,0,0,0,0,0,0,0,0,0,0,0,0,0,0,0,0,0,0,0,0],"sum_hessian":[4.256E3,1.3E1,4.243E3,4E0,9E0,1.1E1,4.232E3,2E0,2E0,6E0,3E0,1E0,1E1,4.124E3,1.08E2,5E0,1E0,5E0,5E0,4.015E3,1.09E2,9E1,1.8E1,4E0,1E0,3.758E3,2.57E2,3.5E1,7.4E1,1.1E1,7.9E1,4E0,1.4E1],"tree_param":{"num_deleted":"0","num_feature":"3","num_nodes":"33","size_leaf_vector":"1"}},{"base_weights":[-1.6658776E-4,-1.6938901E-1,3.6951217E-3,-1.2089688E-1,-3.247994E-1,1.9374217E-1,-6.950791E-4,-2.493312E-1,6.5296896E-2,-1.02356195E-1,-3.1819052E-1,2.682775E-1,-1.5503721E0,-9.34099E-3,1.3432513E-1,-4.3846032E-1,-5.7584595E-2,-3.112722E-1,2.3349662E-1,-5.7374522E-2,-1.5141147E-1,9.657943E-2,8.7297666E-1,-1.0211669E0,6.0629085E-2,-1.6435854E-3,-7.567366E-1,5.25431E-1,6.663877E-2,2.190553E-2,-1.5691896E-1,3.1844398E-1,-6.441265E-2,6.315934E-2,-1.6949342E-1,1.2220795E-1,-1.3173306E-1,-3.796813E-2,1.5288192E-2,-6.1248045E-2,1.3669014E-3,3.6663383E-1,-7.2775935E-3,8.393859E-1,1.3436317E-2,2.0825982E-3,-5.3364757E-2,-4.7682616E-1,-6.8057045E-2,6.1706257E-1,8.0916926E-2,-1.1458541E-1,5.532934E-2],"categories":[],"categories_nodes":[],"categories_segments":[],"categories_sizes":[],"default_left":[0,0,0,0,0,0,0,0,0,0,0,0,0,0,0,0,0,0,0,0,0,0,0,0,0,0,0,0,0,0,0,0,0,0,0,0,0,0,0,0,0,0,0,0,0,0,0,0,0,0,0,0,0],"id":19,"left_children":[1,3,5,7,9,11,13,15,17,19,-1,21,23,25,27,29,31,33,35,37,39,41,43,-1,-1,45,47,49,51,-1,-1,-1,-1,-1,-1,-1,-1,-1,-1,-1,-1,-1,-1,-1,-1,-1,-1,-1,-1,-1,-1,-1,-1],"loss_changes":[2.7825236E0,6.766696E-1,3.4735117E0,1.7858921E0,3.4924333E0,1.2635754E1,4.7524614E0,1.5704057E0,2.0361843E0,3.103143E-2,0E0,9.363825E0,1.3680845E1,2.2009758E1,6.4507556E0,9.9018955E-1,4.2720485E0,1.442791E0,2.7515903E0,8.889751E-2,6.6746965E-2,9.822171E0,3.1759563E1,0E0,0E0,5.732908E0,1.68471E1,1.35429E1,1.1166946E1,0E0,0E0,0E0,0E0,0E0,0E0,0E0,0E0,0E0,0E0,0E0,0E0,0E0,0E0,0E0,0E0,0E0,0E0,0E0,0E0,0E0,0E0,0E0,0E0],"parents":[2147483647,0,0,1,1,2,2,3,3,4,4,5,5,6,6,7,7,8,8,9,9,11,11,12,12,13,13,14,14,15,15,16,16,17,17,18,18,19,19,20,20,21,21,22,22,25,25,26,26,27,27,28,28],"right_children":[2,4,6,8,10,12,14,16,18,20,-1,22,24,26,28,30,32,34,36,38,40,42,44,-1,-1,46,48,50,52,-1,-1,-1,-1,-1,-1,-1,-1,-1,-1,-1,-1,-1,-1,-1,-1,-1,-1,-1,-1,-1,-1,-1,-1],"split_conditions":[-2.2222223E0,3.0315E1,-5.555556E-1,-3.3333333E0,-3.3333333E0,3.0315E1,3.0165E1,3.0015E1,2.9785E1,-5.5555553E0,-3.1819052E-1,3.015E1,-1.9444444E0,3.015E1,8.333333E-1,2.9195E1,3.0135E1,-3.0555556E0,1.791E3,3.0345E1,-4.4444447E0,2.912E1,3.0165E1,-1.0211669E0,6.0629085E-2,3.006E1,2.5E0,3.0225E1,2.5E0,2.190553E-2,-1.5691896E-1,3.1844398E-1,-6.441265E-2,6.315934E-2,-1.6949342E-1,1.2220795E-1,-1.3173306E-1,-3.796813E-2,1.5288192E-2,-6.1248045E-2,1.3669014E-3,3.6663383E-1,-7.2775935E-3,8.393859E-1,1.3436317E-2,2.0825982E-3,-5.3364757E-2,-4.7682616E-1,-6.8057045E-2,6.1706257E-1,8.0916926E-2,-1.1458541E-1,5.532934E-2],"split_indices":[1,2,1,1,1,2,2,2,2,1,0,2,1,2,1,2,2,1,0,2,1,2,2,0,0,2,1,2,1,0,0,0,0,0,0,0,0,0,0,0,0,0,0,0,0,0,0,0,0,0,0,0,0],"split_type":[0,0,0,0,0,0,0,0,0,0,0,0,0,0,0,0,0,0,0,0,0,0,0,0,0,0,0,0,0,0,0,0,0,0,0,0,0,0,0,0,0,0,0,0,0,0,0,0,0,0,0,0,0],"sum_hessian":[4.256E3,9.4E1,4.162E3,7.3E1,2.1E1,9.3E1,4.069E3,4.3E1,3E1,1.7E1,4E0,9E1,3E0,3.825E3,2.44E2,2.1E1,2.2E1,9E0,2.1E1,1E1,7E0,7.1E1,1.9E1,1E0,2E0,3.787E3,3.8E1,3.5E1,2.09E2,3E0,1.8E1,2E0,2E1,3E0,6E0,1.7E1,4E0,6E0,4E0,5E0,2E0,6E0,6.5E1,5E0,1.4E1,3.612E3,1.75E2,1.4E1,2.4E1,4E0,3.1E1,4.3E1,1.66E2],"tree_param":{"num_deleted":"0","num_feature":"3","num_nodes":"53","size_leaf_vector":"1"}},{"base_weights":[-1.4110538E-4,-8.9896435E-4,2.4176317E-1,2.078699E-2,-2.7097201E-2,-4.7567487E-4,3.2305345E-1,-6.2064517E-1,-1.5149094E-2,-7.404267E-3,2.0808174E-1,6.654105E-2,5.5628926E-1,-8.220219E-1,2.3727024E-1,1.6902741E-2,-8.977837E-2,2.615523E-2,-7.562618E-3,2.851314E-3,1.0703314E-1,1.0056078E-1,-1.6312823E-1,2.701431E-1,8.057314E-2,-3.6755252E-1,-7.3489875E-2,1.0427264E-1,-8.022995E-2,-3.982875E-3,8.748296E-2,-4.7263864E-2,3.381937E-2],"categories":[],"categories_nodes":[],"categories_segments":[],"categories_sizes":[],"default_left":[0,0,0,0,0,0,0,0,0,0,0,0,0,0,0,0,0,0,0,0,0,0,0,0,0,0,0,0,0,0,0,0,0],"id":20,"left_children":[1,3,-1,5,7,9,11,13,15,17,19,21,23,25,27,29,31,-1,-1,-1,-1,-1,-1,-1,-1,-1,-1,-1,-1,-1,-1,-1,-1],"loss_changes":[2.6011052E0,2.4174042E0,0E0,1.4962188E1,1.36564455E1,3.1458807E0,9.116647E0,6.7600794E0,4.5224075E0,3.5505848E0,2.0635374E0,1.2315651E1,7.6803093E0,6.91177E0,5.383246E-1,1.0972049E1,7.812785E0,0E0,0E0,0E0,0E0,0E0,0E0,0E0,0E0,0E0,0E0,0E0,0E0,0E0,0E0,0E0,0E0],"parents":[2147483647,0,0,1,1,3,3,4,4,5,5,6,6,7,7,8,8,9,9,10,10,11,11,12,12,13,13,14,14,15,15,16,16],"right_children":[2,4,-1,6,8,10,12,14,16,18,20,22,24,26,28,30,32,-1,-1,-1,-1,-1,-1,-1,-1,-1,-1,-1,-1,-1,-1,-1,-1],"split_conditions":[2.25E1,2.9785E1,2.4176317E-1,2.9755E1,2.98E1,1.7777779E1,1.1944445E1,1.5E1,1.2222222E1,2.7777777E0,2.956E1,9.444445E0,1.5E1,2.23E2,4.47E2,1.1111111E1,2.23E2,2.615523E-2,-7.562618E-3,2.851314E-3,1.0703314E-1,1.0056078E-1,-1.6312823E-1,2.701431E-1,8.057314E-2,-3.6755252E-1,-7.3489875E-2,1.0427264E-1,-8.022995E-2,-3.982875E-3,8.748296E-2,-4.7263864E-2,3.381937E-2],"split_indices":[1,2,0,2,2,1,1,1,1,1,2,1,1,0,0,1,0,0,0,0,0,0,0,0,0,0,0,0,0,0,0,0,0],"split_type":[0,0,0,0,0,0,0,0,0,0,0,0,0,0,0,0,0,0,0,0,0,0,0,0,0,0,0,0,0,0,0,0,0],"sum_hessian":[4.256E3,4.253E3,3E0,2.327E3,1.926E3,2.175E3,1.52E2,3.7E1,1.889E3,2.106E3,6.9E1,7.3E1,7.9E1,3E1,7E0,1.322E3,5.67E2,3.33E2,1.773E3,3E1,3.9E1,5.1E1,2.2E1,3.5E1,4.4E1,1.7E1,1.3E1,6E0,1E0,1.192E3,1.3E2,4.25E2,1.42E2],"tree_param":{"num_deleted":"0","num_feature":"3","num_nodes":"33","size_leaf_vector":"1"}},{"base_weights":[-2.5684687E-5,-4.083145E-1,1.3211742E-3,-1.1560985E-1,-6.1339176E-1,5.0996035E-1,-1.2106324E-4,-2.5341192E-2,-9.858327E-2,-9.934393E-1,4.5046806E-3,-5.1587063E-1,8.689692E-1,-1.1869244E-1,4.9301484E-3,-1.8186761E-2,7.4551105E-3,-4.6698475E-1,-4.6488863E-1,5.042798E-1,-8.782228E-2,3.0587664E-2,-3.3878443E-1,1.3521431E-1,-4.7907676E-3,-2.1867754E-3,7.7532292E-3,-6.055336E-2,-1.8936081E-1,1.6939087E-2,-1.2138777E-1,-1.5998805E-2,5.108431E-1,-3.417439E-1,-3.5505623E-2,6.0808286E-2,7.550391E-5,-5.2197117E-2,1.2692019E-4],"categories":[],"categories_nodes":[],"categories_segments":[],"categories_sizes":[],"default_left":[0,0,0,0,0,0,0,0,0,0,0,0,0,0,0,0,0,0,0,0,0,0,0,0,0,0,0,0,0,0,0,0,0,0,0,0,0,0,0],"id":21,"left_children":[1,3,5,7,9,11,13,15,-1,17,-1,-1,19,21,23,-1,25,27,-1,-1,29,31,33,35,37,-1,-1,-1,-1,-1,-1,-1,-1,-1,-1,-1,-1,-1,-1],"loss_changes":[2.3414955E0,7.6946473E-1,3.1133685E0,1.2626384E-1,1.925514E0,1.1099302E1,2.5358522E0,7.3945336E-3,0E0,7.403898E-1,0E0,0E0,8.693298E0,5.6943398E0,5.143829E0,0E0,1.2729195E-3,4.6758354E-2,0E0,0E0,2.971084E-1,1.4684914E1,1.2214975E1,2.568201E0,3.33471E0,0E0,0E0,0E0,0E0,0E0,0E0,0E0,0E0,0E0,0E0,0E0,0E0,0E0,0E0],"parents":[2147483647,0,0,1,1,2,2,3,3,4,4,5,5,6,6,7,7,9,9,12,12,13,13,14,14,16,16,17,17,20,20,21,21,22,22,23,23,24,24],"right_children":[2,4,6,8,10,12,14,16,-1,18,-1,-1,20,22,24,-1,26,28,-1,-1,30,32,34,36,38,-1,-1,-1,-1,-1,-1,-1,-1,-1,-1,-1,-1,-1,-1],"split_conditions":[2.874E1,2.8635E1,2.8755E1,5.5555553E0,8.611111E0,3.0555556E0,2.9015E1,2.853E1,-9.858327E-2,7.5E0,4.5046806E-3,-5.1587063E-1,5.5555553E0,2.898E1,2.921E1,-1.8186761E-2,2.862E1,2.871E1,-4.6488863E-1,5.042798E-1,1.0555555E1,2.8965E1,2.7777777E0,5.5555553E0,2.9255E1,-2.1867754E-3,7.7532292E-3,-6.055336E-2,-1.8936081E-1,1.6939087E-2,-1.2138777E-1,-1.5998805E-2,5.108431E-1,-3.417439E-1,-3.5505623E-2,6.0808286E-2,7.550391E-5,-5.2197117E-2,1.2692019E-4],"split_indices":[2,2,2,1,1,1,2,2,0,1,0,0,1,2,2,0,2,2,0,0,1,2,1,1,2,0,0,0,0,0,0,0,0,0,0,0,0,0,0],"split_type":[0,0,0,0,0,0,0,0,0,0,0,0,0,0,0,0,0,0,0,0,0,0,0,0,0,0,0,0,0,0,0,0,0,0,0,0,0,0,0],"sum_hessian":[4.256E3,1.3E1,4.243E3,6E0,7E0,1.1E1,4.232E3,5E0,1E0,4E0,3E0,1E0,1E1,1.72E2,4.06E3,2E0,3E0,3E0,1E0,5E0,5E0,1.03E2,6.9E1,2.81E2,3.779E3,2E0,1E0,2E0,1E0,4E0,1E0,9.9E1,4E0,1.4E1,5.5E1,1.87E2,9.4E1,1.12E2,3.667E3],"tree_param":{"num_deleted":"0","num_feature":"3","num_nodes":"39","size_leaf_vector":"1"}},{"base_weights":[-2.0914547E-4,-8.453585E-3,5.803322E-2,-1.26515785E-2,1.00090645E-1,-2.2273076E-1,6.5560535E-2,-6.7260666E-3,-2.982016E-1,6.3324577E-1,3.5311304E-2,2.3236264E-1,3.8904212E-2,-1.8583294E-2,5.558371E-2,-7.115363E-1,-9.605169E-3,9.32472E-1,-4.2274427E-1,-5.513316E-1,9.675344E-2,1.6084416E-1,4.2238972E-1,-2.5151965E-1,6.382372E-2,-3.941013E-3,-9.337357E-2,-1.0605345E-1,2.501139E-2,8.2637504E-2,-2.7598608E-1,5.281814E-2,-3.0483964E-1,5.5316377E-2,3.4840375E-1,-2.0210133E-1,4.9505427E-2,-3.117686E-1,-1.6311755E-2,-3.8350031E-3,6.691959E-2,2.1924157E-1,3.4357946E-2,1.2527972E-1,-1.6879076E-1,2.3596345E-1,1.1604955E-2],"categories":[],"categories_nodes":[],"categories_segments":[],"categories_sizes":[],"default_left":[0,0,0,0,0,0,0,0,0,0,0,0,0,0,0,0,0,0,0,0,0,0,0,0,0,0,0,0,0,0,0,0,0,0,0,0,0,0,0,0,0,0,0,0,0,0,0],"id":22,"left_children":[1,3,5,7,9,-1,11,13,15,17,19,21,23,25,27,29,31,33,35,37,39,41,-1,43,45,-1,-1,-1,-1,-1,-1,-1,-1,-1,-1,-1,-1,-1,-1,-1,-1,-1,-1,-1,-1,-1,-1],"loss_changes":[2.0445983E0,1.7009081E0,3.2300756E0,6.0757666E0,4.7783437E0,0E0,2.3208368E0,2.6016839E0,8.701111E0,5.1338954E0,4.558917E0,5.8271055E0,3.2945137E0,4.710986E0,6.4295254E0,6.424609E0,8.401508E0,1.8404636E0,7.011093E-1,2.8530731E0,1.5801315E0,1.7378533E0,0E0,7.729208E0,7.5644665E0,0E0,0E0,0E0,0E0,0E0,0E0,0E0,0E0,0E0,0E0,0E0,0E0,0E0,0E0,0E0,0E0,0E0,0E0,0E0,0E0,0E0,0E0],"parents":[2147483647,0,0,1,1,2,2,3,3,4,4,6,6,7,7,8,8,9,9,10,10,11,11,12,12,13,13,14,14,15,15,16,16,17,17,18,18,19,19,20,20,21,21,23,23,24,24],"right_children":[2,4,6,8,10,-1,12,14,16,18,20,22,24,26,28,30,32,34,36,38,40,42,-1,44,46,-1,-1,-1,-1,-1,-1,-1,-1,-1,-1,-1,-1,-1,-1,-1,-1,-1,-1,-1,-1,-1,-1],"split_conditions":[1.5555555E1,6.603E3,2.898E1,5.931E3,6.824E3,-2.2273076E-1,2.95E1,3.022E3,6.048E3,4.4444447E0,6.831E3,2.9485E1,2.9545E1,2.688E3,5.555556E-1,2.9285E1,3E1,2.946E1,6.6666665E0,2.9755E1,2.9875E1,2.9225E1,4.2238972E-1,1.6944445E1,2.9575E1,-3.941013E-3,-9.337357E-2,-1.0605345E-1,2.501139E-2,8.2637504E-2,-2.7598608E-1,5.281814E-2,-3.0483964E-1,5.5316377E-2,3.4840375E-1,-2.0210133E-1,4.9505427E-2,-3.117686E-1,-1.6311755E-2,-3.8350031E-3,6.691959E-2,2.1924157E-1,3.4357946E-2,1.2527972E-1,-1.6879076E-1,2.3596345E-1,1.1604955E-2],"split_indices":[1,0,2,0,0,0,2,0,0,1,0,2,2,0,1,2,2,2,1,2,2,2,0,1,2,0,0,0,0,0,0,0,0,0,0,0,0,0,0,0,0,0,0,0,0,0,0],"split_type":[0,0,0,0,0,0,0,0,0,0,0,0,0,0,0,0,0,0,0,0,0,0,0,0,0,0,0,0,0,0,0,0,0,0,0,0,0,0,0,0,0,0,0,0,0,0,0],"sum_hessian":[4.256E3,3.729E3,5.27E2,3.591E3,1.38E2,4E0,5.23E2,3.519E3,7.2E1,1.4E1,1.24E2,7.1E1,4.52E2,2.957E3,5.62E2,2.9E1,4.3E1,1.1E1,3E0,1.1E1,1.13E2,6.8E1,3E0,3.5E1,4.17E2,2.904E3,5.3E1,3.5E1,5.27E2,5E0,2.4E1,3.7E1,6E0,3E0,8E0,2E0,1E0,5E0,6E0,6.1E1,5.2E1,4E0,6.4E1,1.1E1,2.4E1,1.3E1,4.04E2],"tree_param":{"num_deleted":"0","num_feature":"3","num_nodes":"47","size_leaf_vector":"1"}},{"base_weights":[-1.4192083E-4,-2.5970296E-3,1.7764427E-1,-3.4083986E-1,-1.4654327E-3,2.3152982E-1,-3.2795206E-1,-9.343556E-2,-5.1471364E-1,1.8150958E-1,-4.349719E-3,1.0969967E-1,5.979534E-1,-5.450013E-1,-8.317709E-2,-1.6558489E-2,-8.32047E-2,-8.3521557E-1,4.3776515E-3,-5.8606644E-3,1.00955E0,-3.5991824E-1,-3.4784537E-3,-5.819089E-2,4.376451E-1,3.1935075E-1,4.598236E-2,-5.1098157E-2,-1.9415246E-1,2.6349768E-1,-1.6848022E-1,-1.3761329E-2,2.8696777E-3,-1.1592372E-1,-3.9456427E-1,3.3278775E-1,-4.268713E-2,2.6272712E-2,8.494814E-1,-3.9428122E-2,5.37098E-4,4.0187847E-2,-2.3552065E-1,6.803088E-2,1.7023666E-1,7.128382E-2,-4.714308E-2,1.1651974E-1,2.0542145E-3],"categories":[],"categories_nodes":[],"categories_segments":[],"categories_sizes":[],"default_left":[0,0,0,0,0,0,0,0,0,0,0,0,0,0,0,0,0,0,0,0,0,0,0,0,0,0,0,0,0,0,0,0,0,0,0,0,0,0,0,0,0,0,0,0,0,0,0,0,0],"id":23,"left_children":[1,3,5,7,9,11,13,15,17,19,21,23,25,27,29,31,-1,33,-1,35,37,-1,39,41,43,-1,45,-1,-1,47,-1,-1,-1,-1,-1,-1,-1,-1,-1,-1,-1,-1,-1,-1,-1,-1,-1,-1,-1],"loss_changes":[1.8585756E0,1.6070698E0,1.6561022E0,5.541471E-1,2.2104883E0,2.3004005E0,2.734378E-1,9.437861E-2,1.3693359E0,1.0090675E1,4.2898927E0,2.2828836E0,3.2988324E0,4.613757E-3,8.1141E-1,5.0333743E-3,0E0,5.689094E-1,0E0,8.373406E0,1.9910671E1,0E0,2.7783377E0,4.0159235E0,2.5455213E-1,0E0,3.0981502E-1,0E0,0E0,9.350847E-2,0E0,0E0,0E0,0E0,0E0,0E0,0E0,0E0,0E0,0E0,0E0,0E0,0E0,0E0,0E0,0E0,0E0,0E0,0E0],"parents":[2147483647,0,0,1,1,2,2,3,3,4,4,5,5,6,6,7,7,8,8,9,9,10,10,11,11,12,12,13,13,14,14,15,15,17,17,19,19,20,20,22,22,23,23,24,24,26,26,29,29],"right_children":[2,4,6,8,10,12,14,16,18,20,22,24,26,28,30,32,-1,34,-1,36,38,-1,40,42,44,-1,46,-1,-1,48,-1,-1,-1,-1,-1,-1,-1,-1,-1,-1,-1,-1,-1,-1,-1,-1,-1,-1,-1],"split_conditions":[1.888889E1,2.874E1,3.0015E1,2.8635E1,2.8875E1,2.9845E1,2.23E2,5.5555553E0,8.611111E0,2.886E1,2.889E1,2E1,2.993E1,1.9444445E1,2.0555555E1,2.853E1,-8.32047E-2,7.5E0,4.3776515E-3,1.6666666E0,3.0555556E0,-3.5991824E-1,2.9045E1,2.9725E1,2.9515E1,3.1935075E-1,2.23E2,-5.1098157E-2,-1.9415246E-1,3.35E2,-1.6848022E-1,-1.3761329E-2,2.8696777E-3,-1.1592372E-1,-3.9456427E-1,3.3278775E-1,-4.268713E-2,2.6272712E-2,8.494814E-1,-3.9428122E-2,5.37098E-4,4.0187847E-2,-2.3552065E-1,6.803088E-2,1.7023666E-1,7.128382E-2,-4.714308E-2,1.1651974E-1,2.0542145E-3],"split_indices":[1,2,2,2,2,2,0,1,1,2,2,1,2,1,1,2,0,1,0,1,1,0,2,2,2,0,0,0,0,0,0,0,0,0,0,0,0,0,0,0,0,0,0,0,0,0,0,0,0],"split_type":[0,0,0,0,0,0,0,0,0,0,0,0,0,0,0,0,0,0,0,0,0,0,0,0,0,0,0,0,0,0,0,0,0,0,0,0,0,0,0,0,0,0,0,0,0,0,0,0,0],"sum_hessian":[4.256E3,4.199E3,5.7E1,1.3E1,4.186E3,5.2E1,5E0,6E0,7E0,6.4E1,4.122E3,4E1,1.2E1,2E0,3E0,5E0,1E0,4E0,3E0,5.3E1,1.1E1,2E0,4.12E3,2.7E1,1.3E1,6E0,6E0,1E0,1E0,2E0,1E0,2E0,3E0,3E0,1E0,5E0,4.8E1,8E0,3E0,1.62E2,3.958E3,2.2E1,5E0,6E0,7E0,3E0,3E0,1E0,1E0],"tree_param":{"num_deleted":"0","num_feature":"3","num_nodes":"49","size_leaf_vector":"1"}},{"base_weights":[-3.925668E-5,3.4354903E-2,-1.0873724E-2,-1.6014311E-2,8.4052926E-1,-1.6108231E-1,7.6196603E-3,2.5072673E-2,-5.017229E-1,-5.7669884E-1,9.6894383E-1,-3.204129E-1,3.1871945E-1,4.394013E-1,-8.208348E-3,-4.6355894E-1,5.112647E-2,1.4429224E0,-6.316032E-1,2.0099127E0,7.367269E-1,-7.4166015E-2,-6.3548017E-1,7.3729616E-1,-1.261271E-1,-3.8296553E-1,5.0429434E-1,-1.8328343E-1,1.2045478E-3,7.260714E-2,-2.965457E-1,2.1398988E-2,-8.549396E-2,-2.3684001E-1,9.583012E-1,-8.163834E-1,-1.4981785E-1,8.327048E-1,5.0201226E-2,2.7517177E-2,3.426514E-1,-9.17039E-2,1.7955948E-1,-3.414778E-1,-7.29849E-2,3.1976688E-1,-8.476281E-2,8.447861E-2,-1.179812E-1,2.0812649E-1,-6.973569E-2,-2.587966E-2,-4.8222223E-1,6.818186E-2,-2.584003E-3],"categories":[],"categories_nodes":[],"categories_segments":[],"categories_sizes":[],"default_left":[0,0,0,0,0,0,0,0,0,0,0,0,0,0,0,0,0,0,0,0,0,0,0,0,0,0,0,0,0,0,0,0,0,0,0,0,0,0,0,0,0,0,0,0,0,0,0,0,0,0,0,0,0,0,0],"id":24,"left_children":[1,3,5,7,9,11,13,15,17,-1,19,21,23,25,27,29,31,33,35,37,39,41,43,45,47,-1,49,51,53,-1,-1,-1,-1,-1,-1,-1,-1,-1,-1,-1,-1,-1,-1,-1,-1,-1,-1,-1,-1,-1,-1,-1,-1,-1,-1],"loss_changes":[1.5867122E0,4.1431957E1,8.9959545E0,1.9190582E1,2.3150108E1,2.7240845E1,1.9713564E1,1.1315839E1,1.985419E1,0E0,1.2539616E1,2.0667887E1,1.6665005E1,1.2001806E1,4.5865035E0,1.6906303E1,5.7447357E0,2.207102E1,1.8256653E1,1.3645409E1,1.2709366E1,2.3699497E1,2.2794136E1,1.571633E1,4.9032416E0,0E0,1.39801235E1,1.948084E1,5.8659124E0,0E0,0E0,0E0,0E0,0E0,0E0,0E0,0E0,0E0,0E0,0E0,0E0,0E0,0E0,0E0,0E0,0E0,0E0,0E0,0E0,0E0,0E0,0E0,0E0,0E0,0E0],"parents":[2147483647,0,0,1,1,2,2,3,3,4,4,5,5,6,6,7,7,8,8,10,10,11,11,12,12,13,13,14,14,15,15,16,16,17,17,18,18,19,19,20,20,21,21,22,22,23,23,24,24,26,26,27,27,28,28],"right_children":[2,4,6,8,10,12,14,16,18,-1,20,22,24,26,28,30,32,34,36,38,40,42,44,46,48,-1,50,52,54,-1,-1,-1,-1,-1,-1,-1,-1,-1,-1,-1,-1,-1,-1,-1,-1,-1,-1,-1,-1,-1,-1,-1,-1,-1,-1],"split_conditions":[2.9435E1,2.942E1,2.959E1,2.9375E1,-1.9444444E0,1.4444445E1,2.9605E1,8.333333E-1,-5.555556E-1,-5.7669884E-1,1.6666666E0,7.5E0,1.6666666E1,8.333333E-1,2.965E1,2.912E1,5.934E3,-2.5E0,1.9444444E0,2.23E2,1.1111111E1,5E0,1.1666667E1,2.23E2,2.9515E1,-3.8296553E-1,1.5555555E1,4.479E3,2.9665E1,7.260714E-2,-2.965457E-1,2.1398988E-2,-8.549396E-2,-2.3684001E-1,9.583012E-1,-8.163834E-1,-1.4981785E-1,8.327048E-1,5.0201226E-2,2.7517177E-2,3.426514E-1,-9.17039E-2,1.7955948E-1,-3.414778E-1,-7.29849E-2,3.1976688E-1,-8.476281E-2,8.447861E-2,-1.179812E-1,2.0812649E-1,-6.973569E-2,-2.587966E-2,-4.8222223E-1,6.818186E-2,-2.584003E-3],"split_indices":[2,2,2,2,1,1,2,1,1,0,1,1,1,1,2,2,0,1,1,0,1,1,1,0,2,0,1,0,2,0,0,0,0,0,0,0,0,0,0,0,0,0,0,0,0,0,0,0,0,0,0,0,0,0,0],"split_type":[0,0,0,0,0,0,0,0,0,0,0,0,0,0,0,0,0,0,0,0,0,0,0,0,0,0,0,0,0,0,0,0,0,0,0,0,0,0,0,0,0,0,0,0,0,0,0,0,0,0,0,0,0,0,0],"sum_hessian":[4.256E3,1.019E3,3.237E3,9.6E2,5.9E1,3.54E2,2.883E3,8.86E2,7.4E1,2E0,5.7E1,2.66E2,8.8E1,1.01E2,2.782E3,4.4E1,8.42E2,4E0,7E1,9E0,4.8E1,1.5E2,1.16E2,4.5E1,4.3E1,3E0,9.8E1,1.41E2,2.641E3,1.9E1,2.5E1,7.95E2,4.7E1,2E0,2E0,3E0,6.7E1,6E0,3E0,1.9E1,2.9E1,1.12E2,3.8E1,5E1,6.6E1,3.4E1,1.1E1,1.7E1,2.6E1,7.8E1,2E1,1.33E2,8E0,1.09E2,2.532E3],"tree_param":{"num_deleted":"0","num_feature":"3","num_nodes":"55","size_leaf_vector":"1"}},{"base_weights":[-1.8420073E-4,-3.2934342E-3,1.1816803E-1,6.9931085E-4,-1.1763354E-1,3.924454E-1,6.676069E-2,-5.312534E-3,1.07893154E-1,-3.7836453E-3,-6.4119166E-1,3.5858154E-4,5.130599E-1,-7.947977E-1,1.14412725E-1,6.929366E-2,-1.4262832E-2,3.4642437E-1,-3.8188964E-2,-1.3111907E-1,6.5319824E-1,-1.0801975E0,-2.7650794E-1,-5.3146362E-2,3.2156754E-2,3.2810515E-1,8.471818E-1,-3.0999678E-1,2.3895266E-2,4.6518344E-1,6.9136225E-2,-8.223087E-2,4.430814E-2,-3.0679485E-2,1.1774264E-3,2.6604918E-1,7.465032E-2,-1.4084692E-1,1.5457113E-2,1.1904133E-1,-6.714906E-2,2.3013857E-1,-6.304188E-2,1.2678581E-1,-3.8182235E-1,-2.6508075E-1,6.7919925E-2,-2.4848843E-2,-4.69265E-3,1.1844511E-1,5.4728966E-2,2.9009286E-1,7.3169805E-2,3.8554433E-1,6.938464E-2,-8.069146E-2,5.5896502E-2],"categories":[],"categories_nodes":[],"categories_segments":[],"categories_sizes":[],"default_left":[0,0,0,0,0,0,0,0,0,0,0,0,0,0,0,0,0,0,0,0,0,0,0,0,0,0,0,0,0,0,0,0,0,0,0,0,0,0,0,0,0,0,0,0,0,0,0,0,0,0,0,0,0,0,0,0,0],"id":25,"left_children":[1,3,5,7,9,11,13,15,17,19,21,23,25,27,29,31,33,35,37,39,41,43,45,47,-1,49,51,-1,-1,53,55,-1,-1,-1,-1,-1,-1,-1,-1,-1,-1,-1,-1,-1,-1,-1,-1,-1,-1,-1,-1,-1,-1,-1,-1,-1,-1],"loss_changes":[1.5669001E0,1.8942287E0,1.5106858E0,2.5847487E0,8.342558E0,8.0376935E-1,3.9090512E0,2.5370936E0,7.4352446E0,9.789867E0,3.7037735E0,3.4276538E-2,5.2540183E-1,1.1251941E0,1.3813077E0,1.0997873E1,5.4294534E0,4.0511208E0,5.1703777E0,4.885365E0,2.0300493E0,3.7208214E0,4.779734E0,3.1573325E-3,0E0,2.515626E-2,5.3234577E-2,0E0,0E0,1.6206753E0,3.2198188E0,0E0,0E0,0E0,0E0,0E0,0E0,0E0,0E0,0E0,0E0,0E0,0E0,0E0,0E0,0E0,0E0,0E0,0E0,0E0,0E0,0E0,0E0,0E0,0E0,0E0,0E0],"parents":[2147483647,0,0,1,1,2,2,3,3,4,4,5,5,6,6,7,7,8,8,9,9,10,10,11,11,12,12,13,13,14,14,15,15,16,16,17,17,18,18,19,19,20,20,21,21,22,22,23,23,25,25,26,26,29,29,30,30],"right_children":[2,4,6,8,10,12,14,16,18,20,22,24,26,28,30,32,34,36,38,40,42,44,46,48,-1,50,52,-1,-1,54,56,-1,-1,-1,-1,-1,-1,-1,-1,-1,-1,-1,-1,-1,-1,-1,-1,-1,-1,-1,-1,-1,-1,-1,-1,-1,-1],"split_conditions":[6.936E3,5.597E3,2.9255E1,4.367E3,3E1,2.9075E1,2.9345E1,1.6666666E0,4.702E3,2.9905E1,1.6666666E0,7.947E3,8.274E3,3.0555556E0,2.9485E1,2.9345E1,4.4444447E0,1.6666666E0,1.6666666E0,1.6666666E0,6.824E3,-4.4444447E0,3.0075E1,2.88E1,3.2156754E-2,2.9195E1,8.495E3,-3.0999678E-1,2.3895266E-2,7.613E3,2.977E1,-8.223087E-2,4.430814E-2,-3.0679485E-2,1.1774264E-3,2.6604918E-1,7.465032E-2,-1.4084692E-1,1.5457113E-2,1.1904133E-1,-6.714906E-2,2.3013857E-1,-6.304188E-2,1.2678581E-1,-3.8182235E-1,-2.6508075E-1,6.7919925E-2,-2.4848843E-2,-4.69265E-3,1.1844511E-1,5.4728966E-2,2.9009286E-1,7.3169805E-2,3.8554433E-1,6.938464E-2,-8.069146E-2,5.5896502E-2],"split_indices":[0,0,2,0,2,2,2,1,0,2,1,0,0,1,2,2,1,1,1,1,0,1,2,2,0,2,0,0,0,0,2,0,0,0,0,0,0,0,0,0,0,0,0,0,0,0,0,0,0,0,0,0,0,0,0,0,0],"split_type":[0,0,0,0,0,0,0,0,0,0,0,0,0,0,0,0,0,0,0,0,0,0,0,0,0,0,0,0,0,0,0,0,0,0,0,0,0,0,0,0,0,0,0,0,0,0,0,0,0,0,0,0,0,0,0,0,0],"sum_hessian":[4.256E3,4.148E3,1.08E2,4.009E3,1.39E2,1.6E1,9.2E1,3.797E3,2.12E2,1.15E2,2.4E1,4E0,1.2E1,4E0,8.8E1,4.06E2,3.391E3,8E1,1.32E2,9.7E1,1.8E1,1E1,1.4E1,3E0,1E0,9E0,3E0,3E0,1E0,9E0,7.9E1,7.5E1,3.31E2,5.8E2,2.811E3,1.1E1,6.9E1,2.2E1,1.1E2,1.4E1,8.3E1,1.6E1,2E0,1E0,9E0,6E0,8E0,1E0,2E0,5E0,4E0,2E0,1E0,1E0,8E0,2E1,5.9E1],"tree_param":{"num_deleted":"0","num_feature":"3","num_nodes":"57","size_leaf_vector":"1"}},{"base_weights":[1.1858986E-5,3.525583E-2,-1.1090322E-2,2.7069266E-4,5.950135E-1,-2.4896024E-1,-2.6457405E-3,1.6764114E-2,-9.165854E-1,-1.567402E0,6.966037E-1,-5.371848E-1,2.5623253E-1,2.6034603E-1,-8.575083E-3,4.5493785E-2,-1.072873E-1,-1.1558933E0,4.3685132E-1,-1.4270626E-1,-5.626247E-1,1.4553525E0,5.275406E-1,-8.540064E-1,1.6113895E-1,5.089415E-1,-5.780594E-1,1.3975471E0,-2.8603265E-2,-1.1089718E0,-3.516294E-3,-6.104654E-3,8.4230155E-2,-8.9307055E-2,1.3261153E-2,2.1229343E-1,-4.4179776E-1,6.0718733E-1,2.8936673E-2,2.443265E-2,2.4220648E-1,1.3279942E-1,-3.7230232E-1,-1.7548378E-1,1.5723306E-1,3.2561845E-1,4.6591282E-2,-2.0156181E-1,3.9939024E-2,6.140424E-1,-5.4145206E-2,-2.080278E-1,1.47505E-1,-2.657925E-1,-6.011898E-1,6.6026606E-2,-2.631332E-3],"categories":[],"categories_nodes":[],"categories_segments":[],"categories_sizes":[],"default_left":[0,0,0,0,0,0,0,0,0,0,0,0,0,0,0,0,0,0,0,0,0,0,0,0,0,0,0,0,0,0,0,0,0,0,0,0,0,0,0,0,0,0,0,0,0,0,0,0,0,0,0,0,0,0,0,0,0],"id":26,"left_children":[1,3,5,7,9,11,13,15,17,19,21,23,25,27,29,31,33,35,-1,-1,-1,37,39,41,43,45,47,49,51,53,55,-1,-1,-1,-1,-1,-1,-1,-1,-1,-1,-1,-1,-1,-1,-1,-1,-1,-1,-1,-1,-1,-1,-1,-1,-1,-1],"loss_changes":[1.6660911E0,1.99747E1,6.50355E0,1.4547696E1,1.4272676E1,1.6300236E1,4.879936E0,3.3728197E0,1.1336109E1,1.1667681E-1,6.6722755E0,1.5845945E1,8.938354E0,2.2712923E1,1.7030125E1,1.1902816E1,5.147453E0,1.0487001E1,0E0,0E0,0E0,7.531536E0,6.050658E0,2.5138206E1,6.5351453E0,6.354804E0,7.5663614E-1,1.4713171E1,1.9711252E1,1.0186691E0,3.582162E0,0E0,0E0,0E0,0E0,0E0,0E0,0E0,0E0,0E0,0E0,0E0,0E0,0E0,0E0,0E0,0E0,0E0,0E0,0E0,0E0,0E0,0E0,0E0,0E0,0E0,0E0],"parents":[2147483647,0,0,1,1,2,2,3,3,4,4,5,5,6,6,7,7,8,8,9,9,10,10,11,11,12,12,13,13,14,14,15,15,16,16,17,17,21,21,22,22,23,23,24,24,25,25,26,26,27,27,28,28,29,29,30,30],"right_children":[2,4,6,8,10,12,14,16,18,20,22,24,26,28,30,32,34,36,-1,-1,-1,38,40,42,44,46,48,50,52,54,56,-1,-1,-1,-1,-1,-1,-1,-1,-1,-1,-1,-1,-1,-1,-1,-1,-1,-1,-1,-1,-1,-1,-1,-1,-1,-1],"split_conditions":[2.9435E1,2.942E1,2.9485E1,2.9405E1,-1.9444444E0,1.25E1,2.9515E1,1.2777778E1,1.5E1,-2.2222223E0,1.6666666E0,2.911E3,2.23E2,3.0555556E0,2.953E1,9.444445E0,2.93E1,-1.9444444E0,4.3685132E-1,-1.4270626E-1,-5.626247E-1,2.23E2,1.1111111E1,1.6666666E0,2.5E0,1.3333333E1,1.75E1,3.133E3,1.3055555E1,1.6666666E1,2.9545E1,-6.104654E-3,8.4230155E-2,-8.9307055E-2,1.3261153E-2,2.1229343E-1,-4.4179776E-1,6.0718733E-1,2.8936673E-2,2.443265E-2,2.4220648E-1,1.3279942E-1,-3.7230232E-1,-1.7548378E-1,1.5723306E-1,3.2561845E-1,4.6591282E-2,-2.0156181E-1,3.9939024E-2,6.140424E-1,-5.4145206E-2,-2.080278E-1,1.47505E-1,-2.657925E-1,-6.011898E-1,6.6026606E-2,-2.631332E-3],"split_indices":[2,2,2,2,1,1,2,1,1,1,1,0,0,1,2,1,2,1,0,0,0,0,1,1,1,1,1,0,1,1,2,0,0,0,0,0,0,0,0,0,0,0,0,0,0,0,0,0,0,0,0,0,0,0,0,0,0],"split_type":[0,0,0,0,0,0,0,0,0,0,0,0,0,0,0,0,0,0,0,0,0,0,0,0,0,0,0,0,0,0,0,0,0,0,0,0,0,0,0,0,0,0,0,0,0,0,0,0,0,0,0,0,0,0,0,0,0],"sum_hessian":[4.256E3,1.019E3,3.237E3,9.6E2,5.9E1,1.1E2,3.127E3,9.44E2,1.6E1,2E0,5.7E1,7E1,4E1,6.8E1,3.059E3,7.67E2,1.77E2,1.5E1,1E0,1E0,1E0,9E0,4.8E1,4.8E1,2.2E1,3.1E1,9E0,1.3E1,5.5E1,1.3E1,3.046E3,6E2,1.67E2,7.8E1,9.9E1,2E0,1.3E1,6E0,3E0,1.9E1,2.9E1,1.1E1,3.7E1,7E0,1.5E1,1.1E1,2E1,8E0,1E0,9E0,4E0,2.4E1,3.1E1,1.2E1,1E0,6.9E1,2.977E3],"tree_param":{"num_deleted":"0","num_feature":"3","num_nodes":"57","size_leaf_vector":"1"}},{"base_weights":[2.1794382E-5,6.809973E-4,-5.607006E-1,-3.09552E-1,1.8520798E-3,-7.744646E-1,4.415331E-2,-3.4448135E-1,3.2158185E-2,-2.7882843E-3,1.0239167E-1,-3.8336564E-2,-2.8422815E-1,-1.2254325E-1,-5.4122258E-2,8.106265E-4,-2.4224932E-1,2.189678E-1,-8.684753E-2,4.7249556E-2,-1.2755607E-3,-6.23091E-1,-1.1308037E-2,1.4009413E-1,-8.56576E-3,-1.8339066E-1,2.2173833E-2],"categories":[],"categories_nodes":[],"categories_segments":[],"categories_sizes":[],"default_left":[0,0,0,0,0,0,0,0,0,0,0,0,0,0,0,0,0,0,0,0,0,0,0,0,0,0,0],"id":27,"left_children":[1,3,5,7,9,11,-1,13,-1,15,17,-1,-1,-1,-1,19,21,23,25,-1,-1,-1,-1,-1,-1,-1,-1],"loss_changes":[1.5738962E0,1.545724E0,8.705783E-1,2.6983273E-1,1.977483E0,3.263328E-1,0E0,8.380914E-2,0E0,3.4922054E0,4.1443815E0,0E0,0E0,0E0,0E0,3.1680439E0,2.2439882E1,7.134361E0,6.11561E0,0E0,0E0,0E0,0E0,0E0,0E0,0E0,0E0],"parents":[2147483647,0,0,1,1,2,2,3,3,4,4,5,5,7,7,9,9,10,10,15,15,16,16,17,17,18,18],"right_children":[2,4,6,8,10,12,-1,14,-1,16,18,-1,-1,-1,-1,20,22,24,26,-1,-1,-1,-1,-1,-1,-1,-1],"split_conditions":[3.039E1,-6.111111E0,3.36E2,3.0345E1,3.027E1,-4.4444447E0,4.415331E-2,3.0285E1,3.2158185E-2,3.021E1,1.342E3,-3.8336564E-2,-2.8422815E-1,-1.2254325E-1,-5.4122258E-2,-5.555556E-1,-5.555556E-1,3.033E1,2.46E3,4.7249556E-2,-1.2755607E-3,-6.23091E-1,-1.1308037E-2,1.4009413E-1,-8.56576E-3,-1.8339066E-1,2.2173833E-2],"split_indices":[2,1,0,2,2,1,0,2,0,2,0,0,0,0,0,1,1,2,0,0,0,0,0,0,0,0,0],"split_type":[0,0,0,0,0,0,0,0,0,0,0,0,0,0,0,0,0,0,0,0,0,0,0,0,0,0,0],"sum_hessian":[4.256E3,4.252E3,4E0,1.5E1,4.237E3,3E0,1E0,1.4E1,1E0,4.051E3,1.86E2,1E0,2E0,9E0,5E0,3.992E3,5.9E1,1.15E2,7.1E1,1.24E2,3.868E3,5E0,5.4E1,5.7E1,5.8E1,1.6E1,5.5E1],"tree_param":{"num_deleted":"0","num_feature":"3","num_nodes":"27","size_leaf_vector":"1"}},{"base_weights":[-2.2885697E-4,-1.2642923E-1,2.4653294E-3,1.990069E-1,-1.5235241E-1,-2.1099804E-3,9.99038E-2,1.01885684E-1,1.18968405E-1,-6.017591E-1,-1.2797767E-1,1.1744202E-3,-3.952784E-1,3.023871E-1,-3.838757E-2,-7.165282E-2,7.148976E-2,-1.845181E-2,-2.2840242E-1,8.313203E-2,-1.6283765E-1,3.649166E-1,-1.9823967E-3,-1.0323054E0,3.4608185E-1,6.280875E-1,1.1010138E-1,-4.6423948E-1,1.7357053E-2,-3.0268824E-2,5.632743E-2,-8.2294196E-2,-3.7202608E-2,-8.140676E-2,3.0514535E-1,-2.2376171E-1,-8.0883314E-5,-1.0457946E0,-2.4676856E-2,2.4825586E-1,-7.659817E-3,-9.654574E-2,2.3994432E-1,-6.0543586E-2,1.6067877E-1,-2.9424083E-1,-5.636144E-3,1.1098131E-2,-2.8900167E-1],"categories":[],"categories_nodes":[],"categories_segments":[],"categories_sizes":[],"default_left":[0,0,0,0,0,0,0,0,0,0,0,0,0,0,0,0,0,0,0,0,0,0,0,0,0,0,0,0,0,0,0,0,0,0,0,0,0,0,0,0,0,0,0,0,0,0,0,0,0],"id":28,"left_children":[1,3,5,7,9,11,13,-1,15,17,19,21,23,25,27,-1,-1,-1,-1,29,31,33,35,37,39,41,43,45,47,-1,-1,-1,-1,-1,-1,-1,-1,-1,-1,-1,-1,-1,-1,-1,-1,-1,-1,-1,-1],"loss_changes":[1.4477229E0,7.811533E-1,1.8587977E0,3.837669E-2,8.3218455E-1,5.1438017E0,5.247924E0,0E0,3.1310332E-1,2.9803228E-1,6.022793E-1,4.5375285E0,1.5942056E1,4.6905394E0,2.6668208E0,0E0,0E0,0E0,0E0,2.4999368E-1,2.646501E-1,1.4385973E1,4.9918165E0,4.16733E1,2.8836775E0,4.8248825E0,6.611243E0,2.9729295E0,1.961402E0,0E0,0E0,0E0,0E0,0E0,0E0,0E0,0E0,0E0,0E0,0E0,0E0,0E0,0E0,0E0,0E0,0E0,0E0,0E0,0E0],"parents":[2147483647,0,0,1,1,2,2,3,3,4,4,5,5,6,6,8,8,9,9,10,10,11,11,12,12,13,13,14,14,19,19,20,20,21,21,22,22,23,23,24,24,25,25,26,26,27,27,28,28],"right_children":[2,4,6,8,10,12,14,-1,16,18,20,22,24,26,28,-1,-1,-1,-1,30,32,34,36,38,40,42,44,46,48,-1,-1,-1,-1,-1,-1,-1,-1,-1,-1,-1,-1,-1,-1,-1,-1,-1,-1,-1,-1],"split_conditions":[-2.5E0,2.9345E1,3.0225E1,-5.5555553E0,2.942E1,3.021E1,2.23E2,1.01885684E-1,-5E0,2.9375E1,3E1,-1.9444444E0,6.111111E0,3.03E1,5.555556E-1,-7.165282E-2,7.148976E-2,-1.845181E-2,-2.2840242E-1,-3.3333333E0,3.0015E1,2.9955E1,-1.1111112E0,2.23E2,2.23E2,-1.9444444E0,1.6666666E0,3.0315E1,1.1666667E1,-3.0268824E-2,5.632743E-2,-8.2294196E-2,-3.7202608E-2,-8.140676E-2,3.0514535E-1,-2.2376171E-1,-8.0883314E-5,-1.0457946E0,-2.4676856E-2,2.4825586E-1,-7.659817E-3,-9.654574E-2,2.3994432E-1,-6.0543586E-2,1.6067877E-1,-2.9424083E-1,-5.636144E-3,1.1098131E-2,-2.8900167E-1],"split_indices":[1,2,2,1,2,2,0,0,1,2,2,1,1,2,1,0,0,0,0,1,2,2,1,0,0,1,1,2,1,0,0,0,0,0,0,0,0,0,0,0,0,0,0,0,0,0,0,0,0],"split_type":[0,0,0,0,0,0,0,0,0,0,0,0,0,0,0,0,0,0,0,0,0,0,0,0,0,0,0,0,0,0,0,0,0,0,0,0,0,0,0,0,0,0,0,0,0,0,0,0,0],"sum_hessian":[4.256E3,8.8E1,4.168E3,6E0,8.2E1,3.982E3,1.86E2,1E0,5E0,3E0,7.9E1,3.95E3,3.2E1,7.5E1,1.11E2,1E0,4E0,1E0,2E0,1.1E1,6.8E1,3.3E1,3.917E3,1.7E1,1.5E1,2.7E1,4.8E1,1.2E1,9.9E1,4E0,7E0,1.6E1,5.2E1,1.7E1,1.6E1,8E0,3.909E3,4E0,1.3E1,6E0,9E0,4E0,2.3E1,2.8E1,2E1,5E0,7E0,9.8E1,1E0],"tree_param":{"num_deleted":"0","num_feature":"3","num_nodes":"49","size_leaf_vector":"1"}},{"base_weights":[-4.9026933E-4,1.6051266E-2,-2.0442707E-2,9.819408E-4,2.3026566E-1,-4.4631416E-1,-1.1882983E-2,8.759951E-2,-1.47159705E-2,-6.848733E-1,2.6581004E-1,-7.604244E-1,-5.5056997E-2,4.7913246E-2,-4.6612777E-2,-9.852069E-2,1.7697784E-1,-4.6046745E-2,7.0934355E-2,-1.0867122E0,1.9864827E-1,3.7565213E-1,-4.0154934E-2,-8.529512E-1,7.905388E-2,1.1221828E0,-2.723484E-1,6.5504587E-1,-6.234369E-3,-2.6555765E-1,7.0918947E-3,-7.887947E-2,2.2418249E-1,1.106235E-1,-2.3176879E-2,-1.256782E-1,-7.5059435E-3,-1.3843382E-2,4.6035744E-2,-3.0104114E-2,-3.9246505E-1,-6.789667E-1,1.2631258E-1,-5.5444553E-2,1.4359628E-1,-1.8489073E-1,-3.511775E-1,1.4903755E-1,-1.1346331E-1,4.1872445E-1,8.6257845E-2,-1.9251928E-1,8.827434E-2,-5.27813E-4,3.3983275E-1,-1.09315E-1,1.6597094E-2,-1.2137672E-1,7.4011534E-2,-4.5485E-2,1.7820364E-2],"categories":[],"categories_nodes":[],"categories_segments":[],"categories_sizes":[],"default_left":[0,0,0,0,0,0,0,0,0,0,0,0,0,0,0,0,0,0,0,0,0,0,0,0,0,0,0,0,0,0,0,0,0,0,0,0,0,0,0,0,0,0,0,0,0,0,0,0,0,0,0,0,0,0,0,0,0,0,0,0,0],"id":29,"left_children":[1,3,5,7,9,11,13,15,17,19,21,23,25,27,29,31,33,35,37,39,-1,41,43,45,47,49,51,53,55,57,59,-1,-1,-1,-1,-1,-1,-1,-1,-1,-1,-1,-1,-1,-1,-1,-1,-1,-1,-1,-1,-1,-1,-1,-1,-1,-1,-1,-1,-1,-1],"loss_changes":[1.4053254E0,7.5147133E0,7.0302067E0,2.9600286E0,5.1588364E0,4.6282525E0,3.933447E0,5.5735636E0,4.94894E0,3.9673233E0,4.989043E0,1.6985893E0,4.910098E0,2.2884933E1,1.4088399E1,1.5353804E1,1.1046835E1,1.0574239E1,4.779682E0,9.6114683E-1,0E0,1.4008707E1,3.090505E0,7.067766E-1,7.6094294E-1,2.8368545E-1,3.537479E0,1.7887196E1,1.41301985E1,1.6907879E1,8.003771E0,0E0,0E0,0E0,0E0,0E0,0E0,0E0,0E0,0E0,0E0,0E0,0E0,0E0,0E0,0E0,0E0,0E0,0E0,0E0,0E0,0E0,0E0,0E0,0E0,0E0,0E0,0E0,0E0,0E0,0E0],"parents":[2147483647,0,0,1,1,2,2,3,3,4,4,5,5,6,6,7,7,8,8,9,9,10,10,11,11,12,12,13,13,14,14,15,15,16,16,17,17,18,18,19,19,21,21,22,22,23,23,24,24,25,25,26,26,27,27,28,28,29,29,30,30],"right_children":[2,4,6,8,10,12,14,16,18,20,22,24,26,28,30,32,34,36,38,40,-1,42,44,46,48,50,52,54,56,58,60,-1,-1,-1,-1,-1,-1,-1,-1,-1,-1,-1,-1,-1,-1,-1,-1,-1,-1,-1,-1,-1,-1,-1,-1,-1,-1,-1,-1,-1,-1],"split_conditions":[2.9785E1,2.9755E1,2.98E1,2.7777777E0,2.5E0,1.25E1,5.5555553E0,8.333333E-1,4.48E2,2.23E2,2.23E2,4.144E3,1.2777778E1,2.986E1,7.5E0,2.9635E1,4.47E2,3.0555556E0,5.5555553E0,2.977E1,1.9864827E-1,4.4444447E0,4.031E3,1.1111111E1,6.605E3,2.23E2,2.23E2,3.0555556E0,2.994E1,3.0135E1,2.9845E1,-7.887947E-2,2.2418249E-1,1.106235E-1,-2.3176879E-2,-1.256782E-1,-7.5059435E-3,-1.3843382E-2,4.6035744E-2,-3.0104114E-2,-3.9246505E-1,-6.789667E-1,1.2631258E-1,-5.5444553E-2,1.4359628E-1,-1.8489073E-1,-3.511775E-1,1.4903755E-1,-1.1346331E-1,4.1872445E-1,8.6257845E-2,-1.9251928E-1,8.827434E-2,-5.27813E-4,3.3983275E-1,-1.09315E-1,1.6597094E-2,-1.2137672E-1,7.4011534E-2,-4.5485E-2,1.7820364E-2],"split_indices":[2,2,2,1,1,1,1,1,0,0,0,0,1,2,1,2,0,1,1,2,0,1,0,1,0,0,0,1,2,2,2,0,0,0,0,0,0,0,0,0,0,0,0,0,0,0,0,0,0,0,0,0,0,0,0,0,0,0,0,0,0],"split_type":[0,0,0,0,0,0,0,0,0,0,0,0,0,0,0,0,0,0,0,0,0,0,0,0,0,0,0,0,0,0,0,0,0,0,0,0,0,0,0,0,0,0,0,0,0,0,0,0,0,0,0,0,0,0,0,0,0,0,0,0,0],"sum_hessian":[4.256E3,2.327E3,1.929E3,2.175E3,1.52E2,3.7E1,1.892E3,3.33E2,1.842E3,5E0,1.47E2,2E1,1.7E1,6.95E2,1.197E3,1.08E2,2.25E2,1.349E3,4.93E2,4E0,1E0,1.08E2,3.9E1,1.8E1,2E0,2E0,1.5E1,5.6E1,6.39E2,2.35E2,9.62E2,9.1E1,1.7E1,1.28E2,9.7E1,7.1E1,1.278E3,2.04E2,2.89E2,1E0,3E0,1E0,1.07E2,3.1E1,8E0,1.2E1,6E0,1E0,1E0,1E0,1E0,9E0,6E0,2.4E1,3.2E1,9.3E1,5.46E2,1.85E2,5E1,2.38E2,7.24E2],"tree_param":{"num_deleted":"0","num_feature":"3","num_nodes":"61","size_leaf_vector":"1"}},{"base_weights":[-4.5722412E-4,6.938203E-3,-6.0060244E-2,-7.2333716E-2,1.17991585E-2,-3.147191E-2,-8.200039E-1,-1.2319113E-1,6.811636E-1,3.3147505E-1,1.7308532E-3,-1.500285E-1,5.519857E-2,-1.652496E0,-7.200985E-2,3.4086087E-1,-1.7216359E-1,1.000238E0,-3.6658168E-1,-1.9854423E-1,5.848429E-1,5.841312E-2,-1.2991908E-2,7.9958215E-2,-5.431039E-1,1.0217102E0,4.0116858E-2,-9.399418E-1,-1.3748208E-1,2.817786E-1,-2.0194116E-1,-3.550492E-3,1.0563123E0,-2.8519508E-1,-1.8781157E-2,1.2949362E-1,3.2358935E-1,-1.2663603E-1,-2.9994966E-2,1.8803087E-1,-1.258112E-1,2.950941E-1,-3.1639624E-2,6.576396E-2,4.2503434E-3,-8.018381E-2,5.050554E-4,4.7674302E-2,-3.71964E-1,-3.671717E-1,7.012977E-2,-1.7536055E-1,5.2559114E-1,5.59759E-2,-1.2770177E-2,1.8116112E-1,-1.4213634E-1,-6.636429E-3,1.545702E-1],"categories":[],"categories_nodes":[],"categories_segments":[],"categories_sizes":[],"default_left":[0,0,0,0,0,0,0,0,0,0,0,0,0,0,0,0,0,0,0,0,0,0,0,0,0,0,0,0,0,0,0,0,0,0,0,0,0,0,0,0,0,0,0,0,0,0,0,0,0,0,0,0,0,0,0,0,0,0,0],"id":30,"left_children":[1,3,5,7,9,11,13,15,17,19,21,23,25,27,29,31,33,35,37,39,41,43,45,47,49,51,53,-1,55,57,-1,-1,-1,-1,-1,-1,-1,-1,-1,-1,-1,-1,-1,-1,-1,-1,-1,-1,-1,-1,-1,-1,-1,-1,-1,-1,-1,-1,-1],"loss_changes":[1.8768587E0,1.4605111E0,1.0185188E1,8.476196E0,1.1489808E1,4.673293E0,1.0466889E1,4.7401915E0,5.0469894E0,1.4753711E1,2.8898654E0,1.740063E1,3.7926707E0,1.7514812E1,2.3163948E0,2.2474396E1,1.5889864E1,2.4725914E-2,1.7020881E-2,6.823888E0,2.0475773E1,5.0767536E0,1.0259105E1,1.2910569E1,3.7837597E1,5.715996E0,3.156724E0,0E0,1.5327117E0,5.080274E-1,0E0,0E0,0E0,0E0,0E0,0E0,0E0,0E0,0E0,0E0,0E0,0E0,0E0,0E0,0E0,0E0,0E0,0E0,0E0,0E0,0E0,0E0,0E0,0E0,0E0,0E0,0E0,0E0,0E0],"parents":[2147483647,0,0,1,1,2,2,3,3,4,4,5,5,6,6,7,7,8,8,9,9,10,10,11,11,12,12,13,13,14,14,15,15,16,16,17,17,18,18,19,19,20,20,21,21,22,22,23,23,24,24,25,25,26,26,28,28,29,29],"right_children":[2,4,6,8,10,12,14,16,18,20,22,24,26,28,30,32,34,36,38,40,42,44,46,48,50,52,54,-1,56,58,-1,-1,-1,-1,-1,-1,-1,-1,-1,-1,-1,-1,-1,-1,-1,-1,-1,-1,-1,-1,-1,-1,-1,-1,-1,-1,-1,-1,-1],"split_conditions":[3.0075E1,8.333333E-1,1.1666667E1,3.0045E1,1.6666666E0,2.5E0,3.0135E1,2.912E1,2.463E3,2.924E1,2.9345E1,8.333333E-1,3.009E1,1.25E1,1.79E3,2.9105E1,2.9345E1,-2.5E0,-1.9444444E0,2.8905E1,3.36E2,3.8888888E0,2.942E1,4.144E3,3.0225E1,2.23E2,2.23E2,-9.399418E-1,2.23E2,3.0165E1,-2.0194116E-1,-3.550492E-3,1.0563123E0,-2.8519508E-1,-1.8781157E-2,1.2949362E-1,3.2358935E-1,-1.2663603E-1,-2.9994966E-2,1.8803087E-1,-1.258112E-1,2.950941E-1,-3.1639624E-2,6.576396E-2,4.2503434E-3,-8.018381E-2,5.050554E-4,4.7674302E-2,-3.71964E-1,-3.671717E-1,7.012977E-2,-1.7536055E-1,5.2559114E-1,5.59759E-2,-1.2770177E-2,1.8116112E-1,-1.4213634E-1,-6.636429E-3,1.545702E-1],"split_indices":[2,1,1,2,1,1,2,2,0,2,2,1,2,1,0,2,2,1,1,2,0,1,2,0,2,0,0,0,0,2,0,0,0,0,0,0,0,0,0,0,0,0,0,0,0,0,0,0,0,0,0,0,0,0,0,0,0,0,0],"split_type":[0,0,0,0,0,0,0,0,0,0,0,0,0,0,0,0,0,0,0,0,0,0,0,0,0,0,0,0,0,0,0,0,0,0,0,0,0,0,0,0,0,0,0,0,0,0,0,0,0,0,0,0,0,0,0,0,0,0,0],"sum_hessian":[4.256E3,3.787E3,4.69E2,2.18E2,3.569E3,4.53E2,1.6E1,2.05E2,1.3E1,1.08E2,3.461E3,1.91E2,2.62E2,7E0,9E0,1.9E1,1.86E2,1E1,3E0,3.5E1,7.3E1,7.13E2,2.748E3,1.21E2,7E1,3E0,2.59E2,3E0,4E0,6E0,3E0,1.8E1,1E0,2.2E1,1.64E2,2E0,8E0,2E0,1E0,7E0,2.8E1,4.6E1,2.7E1,1.53E2,5.6E2,1.49E2,2.599E3,1.15E2,6E0,3.7E1,3.3E1,1E0,2E0,9.3E1,1.66E2,1E0,3E0,3E0,3E0],"tree_param":{"num_deleted":"0","num_feature":"3","num_nodes":"59","size_leaf_vector":"1"}},{"base_weights":[-2.7836536E-4,8.116402E-3,-4.5797084E-2,3.0390192E-2,-3.2783836E-2,-8.567834E-2,4.055615E-1,-1.2749415E-2,7.6137096E-2,5.1650103E-2,-9.753358E-2,-3.70534E-1,-4.260088E-2,7.44344E-1,1.8989177E-1,1.8599246E-3,-1.2494586E0,-8.5638665E-2,1.2125301E-1,-1.925875E-1,9.848703E-2,-4.3433475E-1,-5.5602808E-3,4.4479537E-1,-9.5246303E-1,-2.785901E-2,-8.078664E-1,5.9259856E-1,-1.2215792E-1,2.3775756E-2,-7.121174E-3,-5.3249425E-1,1.5443345E-2,-8.021058E-2,5.1307857E-2,4.6939915E-1,3.0884337E-2,3.0469432E-2,-1.7701307E-1,1.3201268E-1,4.809379E-3,-3.0805328E-1,-6.307989E-2,-1.1360607E-2,4.0902592E-2,2.1596313E-1,-1.6176142E-1,-5.3287405E-1,4.5612838E-2,-2.0025272E-2,5.449298E-2,-5.070948E-1,1.8645765E-2,2.710966E-1,5.9817437E-2,-7.200727E-2,2.9380742E-1],"categories":[],"categories_nodes":[],"categories_segments":[],"categories_sizes":[],"default_left":[0,0,0,0,0,0,0,0,0,0,0,0,0,0,0,0,0,0,0,0,0,0,0,0,0,0,0,0,0,0,0,0,0,0,0,0,0,0,0,0,0,0,0,0,0,0,0,0,0,0,0,0,0,0,0,0,0],"id":31,"left_children":[1,3,5,7,9,11,13,15,17,19,21,23,25,-1,27,29,31,33,35,37,39,41,43,45,47,49,51,53,55,-1,-1,-1,-1,-1,-1,-1,-1,-1,-1,-1,-1,-1,-1,-1,-1,-1,-1,-1,-1,-1,-1,-1,-1,-1,-1,-1,-1],"loss_changes":[1.6270524E0,3.2760534E0,1.1969244E1,4.5952864E0,6.93729E0,7.46944E0,2.3701458E1,2.166526E1,8.257872E0,6.3220425E0,2.2238869E1,3.8380753E1,5.9679403E0,0E0,6.3556175E0,2.3513846E0,9.662767E0,1.1566718E1,2.3195942E1,1.0465149E1,1.3032505E1,2.0229542E1,2.595482E0,9.591295E0,4.303414E1,4.2653503E0,7.7825356E0,2.5106325E0,4.0001864E0,0E0,0E0,0E0,0E0,0E0,0E0,0E0,0E0,0E0,0E0,